Weights from input to hidden layer.
0.020787181;-0.07435039;0.68825585;-0.06354124;-0.003003596;0.18541692;-0.35156703;0.39667138;0.44379213;0.25269404;0.44201615;0.32223302;0.63681304;0.76764786;-0.6665942;-0.21493194;-0.04766426;0.11478409;-0.07330509;-0.007960939;0.28170994;0.22491698;-0.09603615;0.04407969;-0.5419949;-0.20337434;0.3437306;0.06420055;0.38642308;-0.030362492;-0.47085124;0.021040354;0.69137543;0.0021822485;-0.32691103;0.070651926;0.029100955;-0.39780992;0.0016623944;0.12596555;-0.4958713;0.14101712;0.14895344;0.7478653;0.46747705;0.06805979;0.4052922;0.53398806;-0.03793509;-0.2870797;0.630973;-0.0079091415;-0.078056395;0.33171326;0.67297703;-0.693869;0.12407886;-0.16174977;-0.029681737;0.5689914;-0.28864107;0.14938349;-0.012667125;0.12896131;-0.30322534;0.09169683;-0.083253875;0.22691327;0.1877417;-0.056372654;-0.005583006;-0.26789737;0.18788883;0.69312525;-0.69575256;0.08866121;-0.055223048;0.009240019;0.0010956908;0.048108652;0.41592047;-0.30534616;-0.1687847;-0.06539762;0.09490665;0.0043773893;0.06971461;0.37119937;0.021933623;0.018237362;-0.067405924;0.03381606;0.34809816;0.40671062;-0.06746997;0.75660086;-0.20457515;0.40017533;-0.33851907;0.2643433;-0.56361884;0.09180919;-0.055716936;-0.03498808;-0.4956056;-0.09543054;-0.04721253;0.024752473;0.27850765;0.111336105;0.32340786;0.03620443;-0.9284691;-0.09330275;0.18377599;0.1653053;-0.20349728;-0.09705014;-0.39176142;-0.13762806;0.24487449;-0.024683593;0.20891629;0.02452826;1.102138;0.37634996;0.058497746;0.009251217;-0.012338382;-0.032994214;0.28794363;0.37587437;-0.18345878;0.05788146;-0.14528424;0.1926051;1.0485442;0.0562039;0.7110544;0.31398717;0.19411726;0.6689445;-0.057892863;0.47217765;-0.1285299;0.054770734;-0.13744311;0.06722423;0.20218328;-0.20210336;-0.01166187;-0.021889092;0.16904604;0.45772;0.0024005694;-0.039138112;-0.40689543;-0.07638345;0.4647171;-0.7824035;-0.06437313;0.810289;0.45298412;-0.012913559;-0.43075392;-0.56716424;-0.26685706;-0.0071825916;0.02961122;0.005741777;-0.32127503;0.09644172;-0.16000977;-0.38002095;-0.02110898;-0.29888874;0.011174808;-0.2728479;0.021784192;0.26791236;0.40487626;-0.05465754;-0.23158662;0.01666652;-0.038376026;-0.31391472;0.26956534;0.03843215;-0.26602796;-0.10207419;-0.040357366;-0.11299653;0.36634505;-0.036394354;0.2184351;0.6246452;0.20291339;-0.26932546;0.5464328;0.13181771;0.062426575;0.0062991506;0.040863868;0.2316683;0.22904064;-0.06880102;0.6057844;-0.51866704;0.6653039;-0.05676669;-0.022096358;0.009222854;0.021826249;-0.6236892;-0.24120186;0.12877606;-0.16561076;0.0579436;0.110847086;-0.025393961;0.016609952;-0.13889825;0.2849248;0.6966978;0.1893546;0.7077243;-0.1555358;0.42602873;0.047988303;-0.5420137;0.28297573;0.009008075;0.04590275;-0.21355213;-0.12368775;0.41239345;0.4329327;-0.083410434;0.20208804;-0.061538775;-0.08193628;-0.5802491;0.087613;-0.056357622;0.036792453;0.07374456;0.79083204;-0.04702558;-0.04127079;0.20902601;-0.058025446;-0.32346717;0.06195409;-0.17322104;-0.07500187;-0.3510139;-0.3674016;0.049934257;0.013492186;0.008435686;0.2913965;-0.06884921;0.025029218;-1.0423028;-0.13269122;0.013773535;0.33596954;-0.39238816;-0.27293497;-0.12408657;0.21428178;0.010603566;-0.19693851;0.5474389;0.0048189135;0.11276879;0.40043652;0.13876933;-0.013267676;0.29044554;-0.16741712;-0.38811758;0.12796232;-0.04091395;-0.016969124;0.5414439;0.023771027;0.0646507;-0.020110931;-0.016927205;-0.11590019;0.04026262;-0.0073627396;-0.0069614532;-0.014816789;-0.28129116;-0.07126743;0.6952955;-0.003703932;0.25087366;0.16536523;0.08269233;-0.10770725;0.3006381;-0.0029858635;-0.14171207;0.32122836;-0.3163621;0.2706318;0.01779527;0.6749157;-0.95773184;0.35889307;0.6091753;-0.9796959;-0.22641785;-0.38005206;-0.18688203;-0.22340252;0.33837783;0.5722394;0.003662319;0.0861245;-0.26196775;0.15390931;-0.08294412;-0.12346694;0.69376254;-0.23990852;-0.0047762236;-0.22180694;0.028142791;-0.1103157;-0.00017074088;-0.15899248;0.12656745;0.35845083;0.3215834;0.009621224;0.0993032;0.3750599;0.011883377;-0.0658794;-0.030352581;0.51977867;-0.03844767;-0.027077759;0.16531926;-0.1438236;-0.16800949;-0.06844942;-0.15853152;0.12706958;-0.07106383;0.7179868;-0.28847042;-0.11499644;-0.5375699;0.56079364;0.004010717;-0.45601016;0.021921912;-0.6693904;-0.009122657;-0.03146295;-0.51377857;0.14574401;-0.032232758;-0.010293045;0.24003386;-0.016719472;-0.18439785;-0.25848058;0.15127802;0.01648929;0.36213717;-0.027030274;-0.30310017;0.03927302;0.0065703327;-0.035057425;0.021255517;-0.21498823;0.20369802;-0.07229461;-0.026547525;0.0061238194;0.6273573;0.049406074;0.0056726085;-0.028243285;-0.007283431;-0.40661317;0.5229472;-0.060607046;0.090825126;0.6625865;0.052644283;-0.042726852;0.2608626;0.24212933;-0.5993949;-0.29939526;-0.021862991;0.038234968;0.008409149;0.03153057;0.20639832;-0.020108903;0.055159457;0.10922274;-0.055058274;0.41195253;0.039515134;-0.17187504;-0.016349932;0.22170082;-0.1981948;0.28283572;0.447132;0.25660855;-0.4798249;0.105145425;-0.034074236;-0.3551609;0.5487385;0.41779372;0.45085514;0.02162715;0.29174188;-0.20956686;-0.29051787;0.025565758;0.22959405;-0.008007982;0.074062034;0.28559273;-0.04030942;0.049584374;0.04548137;-0.017285857;0.010035307;-0.584071;-0.17656153;-0.056577653;0.10355988;0.31298888;-0.7134579;0.24527246;-0.39617318;-0.06645367;0.29056695;-0.525149;-0.07412182;0.23941505;0.003838058;0.03749616;0.23112777;0.0040204274;-0.0014833107;0.7612486;-0.0024781197;0.5908723;0.26427746;-0.046306632;-0.065318;0.72098947;0.33567637;0.5630555;-0.18599358;0.2747457;0.54133344;0.013787719;0.59693325;-0.011965939;0.46214706;0.33932596;0.5743787;0.6017264;0.19773471;-0.2691252;-0.6561133;0.07392675;5.8441565e-06;0.08233917;-0.18601793;0.026561586;0.06973963;-0.13438962;-0.017955406;-0.026948873;0.35147116;0.42812327;-0.44364986;-0.76148146;-0.018646225;-0.03505379;-0.00667129;0.028447686;-0.050159868;-0.25060686;0.7670722;0.5434616;0.43337792;-0.081961066;0.048388757;0.15661247;-0.05481027;0.25552106;0.34197795;0.11370687;-0.029278008;-0.010734212;-0.10987652;0.09303865;0.41984037;-0.012124244;0.07079242;0.6617272;-0.20043777;0.22540672;-0.028440349;-0.023786748;-0.31790212;0.3665378;-0.3314594;0.021598583;0.09538636;0.26071382;-0.22607236;-0.041964177;0.43342364;0.30628243;0.00890786;-0.0060418863;0.4188598;-0.042014733;1.0235809;0.44260684;0.025210897;-0.14505813;0.40670082;-0.03758511;-0.024237765;0.5891061;0.044309877;0.6507359;-0.09068735;0.48676008;-0.42026842;0.54010355;-0.018682921;0.006960267;0.32028636;-0.1686831;0.0906248;-0.0019728683;0.036824383;-0.27144775;0.43675253;0.0160705;0.7980246;0.020997878;-0.20010471;0.3378318;0.06522133;-0.04289424;0.0228175;0.31101736;-0.020028979;-0.9276771;0.053183604;0.16519687;0.014337295;-0.18501379;-0.03553504
0.025011465;-0.043765098;0.6355695;0.06544193;-0.07127454;0.095614605;-0.4157793;0.44695988;0.34699935;0.27192602;0.5352443;0.02023789;0.49927953;0.6433801;-0.5434666;-0.1995806;0.011191701;0.06396813;0.06168049;0.066393025;0.27122483;0.31125346;-0.05200528;-0.0068815043;-0.38252008;-0.010947251;0.37127823;0.10944161;0.1645742;-0.0189553;-0.32023197;-0.06057756;0.428888;0.040244367;-0.3565093;-0.03014282;0.04224977;-0.27804554;-0.17260814;0.030974617;-0.42044085;0.13205838;0.18973872;0.5531008;0.4172547;-0.01352833;0.48723438;0.42123047;-0.011381991;-0.21850349;0.5734506;0.06444985;0.03696123;0.21112664;0.4335919;-0.5411254;0.0172143;-0.11151289;0.044061106;0.43427655;-0.15359017;0.06084262;0.0591129;-0.00072876946;-0.2649748;-0.03145755;-0.084319904;0.14884244;0.16117856;-0.0023678583;0.051535215;-0.098759495;0.15522338;0.6800079;-0.6387238;0.00943892;0.044440128;0.043860115;-0.041369073;-0.08702623;0.16582264;-0.08327311;0.05765764;0.08022618;0.060304567;0.11275651;-0.029414242;0.17746012;-0.06377922;0.08298191;0.050536357;-0.031768758;0.19881016;0.29197606;-0.17858464;0.6406881;-0.14031921;0.19790468;-0.4073001;-0.025784783;-0.55221623;-0.066778794;-0.024172433;0.023026789;-0.38520446;0.061482;-0.07947754;0.0213801;0.20671594;-0.00070988317;0.10166;0.2123325;-0.8215163;0.051371388;0.06691479;0.15578489;-0.14051495;0.022664974;-0.32483613;-0.41459423;0.33766007;0.08841608;0.027621225;0.005900753;0.8874333;0.40776843;0.08948756;-0.24754722;-0.053582907;-0.039050005;0.16810894;0.3299683;0.036917623;-0.04712112;-0.13678093;-0.03342384;0.78364307;0.008023844;0.6516149;0.18359588;0.15612407;0.4719139;0.05905528;0.38387352;-0.009001006;-0.056852907;-0.06956129;-0.021188702;0.07601324;-0.3079661;0.032161836;0.05252849;0.16734478;0.40091154;-0.06822069;-0.005789553;-0.22998393;-0.18706176;0.3809858;-0.75579685;0.055567447;0.5816825;0.38849923;-0.15370218;-0.6088955;-0.42268273;-0.25472045;0.03545143;-0.029849516;-0.035358857;-0.26817936;0.11765367;-0.12726614;-0.23873925;0.024014786;-0.3334034;-0.03811105;-0.031204773;-0.081458226;0.04462141;0.3437155;-0.16640998;-0.0559059;0.050629653;0.016804852;-0.19066836;0.20046315;-0.053775214;-0.03842409;-0.36807394;0.029930692;0.0014916614;0.4300555;0.047819577;0.3293789;0.43634593;0.1161429;-0.15593731;0.57113606;-0.05150213;-0.0032665797;0.0065906965;-0.034456555;0.11471334;0.00820045;0.063076235;0.48130846;-0.28685358;0.3972252;0.13784863;0.032962836;-0.060476817;0.14569344;-0.63134706;-0.15756123;0.16384868;0.08329994;-0.013388949;-0.08795527;-0.11057336;-0.06581468;-0.13535276;0.3875522;0.66597307;0.14845148;0.62135583;-0.044856872;0.47221604;-0.04100287;-0.3873189;0.26131237;-0.041870084;-0.088953786;-0.22331858;-0.07512502;0.31571025;0.38931873;-0.034184173;0.21602474;0.15776248;0.057173032;-0.4959174;-0.047418013;-0.012742442;-0.0010537936;0.03312304;0.6988153;-0.116320096;0.1446915;0.2359004;0.03207366;-0.45154297;0.0655293;0.0013613288;0.05086532;-0.26252058;-0.27530512;0.0030364695;-0.011214349;0.091341406;0.2100562;-0.07843748;-0.045050178;-0.8895535;-0.06207466;0.021662368;0.21557535;-0.27662268;-0.32448077;-0.0007329486;0.26953524;-0.052554283;-0.09579431;0.3311751;-0.0050743003;0.10508704;0.015193087;0.15692782;0.057179585;0.113116086;-0.23730859;-0.2116899;-0.030521654;0.06784128;0.083301425;0.30423707;0.027249483;-0.009798814;0.06759802;0.019855319;-0.0016035611;-0.017086819;0.038906895;-0.030826192;0.010455688;-0.14296022;-0.2878885;0.43902606;-0.083888255;0.1798694;0.021495292;-0.027856385;0.0049376306;0.2650148;-0.031153953;-0.09058313;0.12265712;-0.06259903;0.056232892;0.13543375;0.6819349;-0.8320539;0.38578144;0.47081387;-0.81324035;-0.2051885;-0.15033314;-0.21570574;0.010906358;0.26818335;0.60073096;0.0034995708;-0.028577631;-0.062854774;0.057020236;-0.13059926;-0.06160775;0.5577397;-0.16152227;0.007189782;0.016259437;-0.06897455;-0.16385095;0.052577164;-0.18427439;-0.1355451;0.25271243;0.36737078;0.18498336;-0.015836772;0.3194753;0.02305338;-0.013207402;-0.006533044;0.39930966;-0.069720015;0.04515125;0.14043368;-0.30545706;-0.007512156;-0.07031199;0.21279734;0.09872075;-0.02325456;0.73177695;-0.024701843;-0.0855363;-0.59162164;0.447909;-0.05315401;-0.09340375;0.029732158;-0.5569142;0.063686326;-0.04279542;-0.31643623;0.13792652;-0.036627833;-0.0853256;0.15126748;0.015923692;-0.23192276;-0.23102258;0.11629053;-0.018627483;0.2315638;0.040289734;-0.23052323;-0.067620106;0.0012684155;-0.015152035;0.037816398;-0.0683132;0.078884795;0.02754117;-0.025084404;0.034993365;0.5254117;-0.031658147;-0.044143617;-0.014457425;0.09950841;-0.46867934;0.51392746;-0.018461196;0.011628951;0.39493996;0.06402331;-0.04161935;0.32542774;0.16678168;-0.6572452;-0.4071567;-0.061783753;-0.0422126;0.022063453;0.016791325;0.20852256;-0.016115112;-0.03227339;-0.033417407;-0.3152418;0.42129397;0.20843394;-0.018679801;-0.12270037;0.124496475;-0.07826827;0.18962444;0.2589755;0.17376274;-0.64455193;-0.016239148;0.064100154;-0.25949225;0.36857435;0.31674293;0.35358173;0.042420365;0.24068867;-0.107566096;-0.34474576;-0.0053587314;0.14960368;-0.026779134;-0.00867822;0.18279922;-0.10930283;0.033952005;0.08208605;-0.04961763;0.06336052;-0.49280673;0.061744552;0.0072578485;-0.025130153;0.24904522;-0.5627992;0.0471699;-0.44677603;-0.021281496;0.41818166;-0.32743523;-0.018713625;0.10369247;-0.025006318;-0.022337722;0.2165476;-0.08358062;-0.033299994;0.5717657;0.0049243476;0.41327032;0.22094339;-0.066572465;-0.0018164332;0.6699789;0.33475363;0.3925564;-0.2460195;0.2800159;0.4486888;-0.03621054;0.4457659;0.0086394185;0.5957547;0.08116168;0.59314936;0.43940246;0.30484483;-0.22346108;-0.62520885;-0.028373221;-0.06303883;-0.0659608;-0.07529248;0.06898683;0.04069182;-0.08563313;0.056435768;-0.06318115;0.2929272;0.5163889;-0.50322556;-0.69786984;-0.06403072;-0.09853421;-0.037770864;0.07143991;0.005749229;-0.4642646;0.504358;0.33093125;0.31129327;-0.22589575;-0.052120306;-0.047636908;0.040923107;0.0922369;0.35309318;0.3317611;0.033346266;0.00065876095;0.038941406;-0.058546014;0.34607837;0.10331976;0.028549533;0.5777415;-0.21396306;0.37654454;0.044566352;-0.004574534;-0.28610674;0.22522807;-0.36433294;0.047468387;-0.07434373;0.1580745;-0.39578024;0.01934211;0.2524712;0.20293121;-0.11394362;0.037390072;0.3879261;-0.17728214;0.86868566;0.4288967;0.09461596;-0.028146569;0.30507457;0.01791497;-0.024985448;0.5358593;-0.033176284;0.38964286;0.042257033;0.55285573;-0.25579196;0.5695413;-0.023539117;-0.04254376;0.20734963;0.031879473;0.044376165;-0.044439778;0.025510633;-0.12518723;0.32623732;-0.021042125;0.73296446;-0.022716353;-0.111703716;0.10398969;0.05694202;-0.004162537;0.09321029;0.28671688;0.27095994;-1.0309088;0.034162894;0.05364942;-0.005122696;-0.24375972;0.116591185
-0.026832066;0.075256534;0.51323146;0.017813643;0.0023786055;-0.022627667;-0.41628098;0.36687186;0.39780077;0.25748345;0.32803968;-0.061837636;0.45274848;0.58082664;-0.22858155;-0.11997622;0.029045124;0.09146458;-0.035118043;0.082209125;0.2010758;0.55415946;0.056250345;-0.042451203;-0.32669145;0.0734957;0.42064258;-0.0806164;0.07231841;0.01740733;-0.35996497;0.007068339;0.42856225;0.043035477;-0.368094;-0.01097989;-0.0055115693;-0.267666;-0.329258;-0.029660212;-0.38787735;0.22401191;0.39976093;0.4859343;0.3598384;-0.06362925;0.4833105;0.27832353;-0.032359872;-0.1090235;0.41446054;-0.034738656;0.023387248;0.1360293;0.29836798;-0.51334006;0.06528888;-0.2097781;-0.07109215;0.37877864;-0.03565557;0.029035222;0.024188865;-0.19351721;-0.14112706;0.01432965;0.056550603;0.050304674;0.15316486;0.035100013;0.054983385;-0.03771655;-0.03704426;0.4991273;-0.44555458;0.16350497;-0.058686346;-0.052738223;0.0075378153;0.03126882;0.093178555;-0.041180644;0.10331438;-0.044066954;0.16025971;-0.025951598;0.01571896;-0.03194689;0.03769295;0.10602297;0.0847642;-0.00013324092;-0.024820078;0.33957198;-0.1342261;0.5104266;-0.13171607;0.055089112;-0.3923207;-0.07167206;-0.34869355;-0.014401411;0.0615518;0.052313056;-0.33190238;0.08678286;-0.08218763;-0.022801796;-0.015597856;-0.022113854;0.054218847;0.30269554;-0.81128395;-0.04527904;0.040060394;0.19082907;0.001165864;0.079712056;-0.14775987;-0.46740857;0.26811916;0.011887647;-0.008021597;-0.047718007;0.7370321;0.4271537;0.055716544;-0.28842705;0.03783688;0.04940864;0.16300921;0.21382831;0.0435425;-0.025570381;-0.1992555;0.0060748565;0.62840474;-0.008379915;0.69695437;0.09737086;0.07335786;0.32986024;0.07146309;0.25869316;0.044452075;0.04611053;-0.0065080407;-0.031372514;0.07354602;-0.2821726;0.036330685;0.022857247;0.06250916;0.17168075;-0.19317226;-0.027738905;-0.24897565;-0.073628984;0.37293804;-0.5136634;-0.009338494;0.6185785;0.2625018;-0.29205796;-0.56047934;-0.31267303;-0.043817494;0.005011082;0.018312234;-0.058257166;-0.22047094;0.11260765;-0.13881272;-0.116810225;-0.045141123;-0.34271204;-0.05960207;0.09421073;-0.019191282;0.065212205;0.13712634;-0.22615477;0.081947625;-0.058924317;-0.017176444;-0.24178816;0.085824125;0.052653473;0.064193204;-0.33217576;0.021507377;0.15479666;0.27099493;-0.021140637;0.44273657;0.33228126;-0.033535436;-0.020678876;0.6269152;-0.06539031;-0.11647192;0.0040713493;0.09326337;0.03553328;-0.0056825303;-0.033378106;0.44743165;-0.21981376;0.23090081;0.19906047;-0.01907241;0.031991392;0.2459136;-0.45978197;0.06906253;-0.030799132;0.09481693;-0.028609164;-0.10099898;-0.11109581;-0.038498957;-0.086483635;0.30710766;0.5665508;0.2691466;0.45018908;-0.0020405848;0.5053397;-0.026627222;-0.26778138;0.18875498;-0.087692514;-0.017813554;-0.18401656;0.09516244;0.2021036;0.3245451;0.044689424;0.1849638;0.16403495;-0.041316334;-0.50037855;-0.013179745;0.05735562;0.029776936;-0.0011519575;0.65876347;-0.11078133;0.09852524;0.46750912;0.052594;-0.4383362;-0.14682229;0.08534286;0.021079592;-0.2575109;-0.21471462;0.023911415;-0.028908249;-0.012757934;0.18633607;-0.09172247;0.0167477;-0.68303096;0.023909306;0.023986038;0.17652884;-0.37072164;-0.22339189;0.03907389;0.36198765;-0.012370969;0.014903065;0.2592353;-0.029001191;0.0032533356;-0.085286506;-0.003926238;-0.06913811;0.123338394;-0.19990045;0.013745896;-0.07840535;0.032602854;0.038998;0.2387009;-0.05731766;-0.019155066;-0.05485372;0.008796158;-0.04925539;0.043942343;-0.009322465;0.038345117;0.023263121;-0.18614505;-0.3981741;0.32032755;-0.10813076;0.06728902;-0.0060328324;-0.012718419;0.072556145;0.18920407;-0.010989564;0.030851215;0.035670903;-0.043063283;0.11413988;0.29789683;0.5454697;-0.7834582;0.24343649;0.31660107;-0.63739336;-0.10224304;-0.124113396;-0.27854317;0.113680504;0.31759655;0.48401648;-0.05388143;-0.09124712;-0.015341726;0.05112256;-0.28317818;-0.12091521;0.37457705;0.0278347;-0.014888456;0.16899683;-0.07840145;-0.14163674;-0.076856785;-0.18418948;-0.09845867;0.25408548;0.3774793;0.44546422;0.034097813;0.18713823;0.04827533;-0.0938146;-0.02760133;0.26302615;-0.10851198;-0.07375201;0.16515811;-0.23242964;0.12731314;-0.2295702;0.2530669;0.027427008;-0.07295268;0.6269801;0.06921818;-0.0036710463;-0.42002597;0.38853046;-0.006069815;-0.09060908;-0.022427868;-0.54818076;0.13127396;0.06164219;-0.011284674;0.26004633;0.059287433;-0.22934516;0.10655893;0.027608521;-0.2389283;-0.15827146;0.052994717;0.05034775;0.21470116;-0.05889803;-0.23621285;-0.046739325;-0.11405953;0.0026489047;-0.013610837;0.01948509;0.10113355;0.0518934;-0.053337324;-0.05492316;0.5978036;-0.011692583;0.07952959;0.026279408;-0.016351433;-0.4317104;0.4053479;0.0103876935;0.05361936;0.15575086;0.05910012;0.062416982;0.33296993;0.029271742;-0.59435624;-0.3321725;0.09287826;0.007914756;-0.029100372;0.06835898;0.26447102;-0.004362914;-0.0013710473;-0.001241863;-0.34342209;0.2504637;0.06691829;-0.05057712;0.036572836;-0.014322119;0.028131964;0.24989429;0.24477257;0.071260735;-0.48689094;-0.009064213;-0.030033175;-0.09722142;0.37708077;0.14806175;0.22031142;0.0250325;0.11525159;-0.15494283;-0.361191;-0.042636894;0.08261756;0.013252124;0.018016543;0.24890926;-0.1956433;-0.06748333;0.16138424;0.04550952;0.018981513;-0.51774126;0.08670472;0.027001187;0.05601379;0.21754624;-0.4679467;-0.12380144;-0.4724474;-0.1584087;0.45697516;-0.17500237;0.07211126;0.20225915;0.019056922;0.09098877;0.11710578;0.045201395;-0.007282643;0.4787444;0.07211075;0.28542602;0.046892256;-0.012610463;0.039051667;0.57011175;0.20931022;0.17218244;-0.065878525;0.25090677;0.38951743;-0.005379378;0.33340535;0.0034869986;0.5390169;-0.058882594;0.36854422;0.2565814;0.36882296;-0.18860973;-0.6058457;-0.077434264;-0.051369384;-0.03607093;0.043453127;-0.06149525;-0.07989715;0.0024790273;-0.027563808;-0.06107766;0.25551632;0.45507184;-0.45180508;-0.5710378;0.04570021;0.05955409;-0.013596648;0.12055092;0.07615226;-0.46512276;0.3816443;0.29793647;0.17364265;-0.29537278;-0.028116085;0.050373662;0.049125046;-0.15918678;0.37876004;0.332274;0.07940094;0.12787622;-0.049392983;0.014845275;0.31529617;-0.030594707;0.0074327;0.49400103;-0.31931916;0.48844016;0.089758806;0.008403088;-0.29046315;-0.025613187;-0.51258236;-0.083305165;-0.0927406;0.22467737;-0.4760375;0.07907297;0.1275671;0.085445404;-0.06107948;0.033471733;0.39097726;-0.30416238;0.7445524;0.28532103;0.04791287;-0.041400447;0.19469234;0.14722802;-0.0015915942;0.46823624;-0.07699824;0.25884125;0.04755196;0.72030264;-0.23919772;0.43600214;-0.01221156;-0.049065247;0.24660914;0.120073095;0.08209276;0.04276345;0.03200031;0.049063276;0.35263842;0.016229808;0.594978;-0.06957797;-0.029570516;0.011878402;0.14401002;0.025575254;-0.03441707;0.34688967;0.2989959;-0.9306413;-0.03616942;-0.04583257;0.01831836;-0.26426023;0.1619582
-0.044726226;0.1299208;0.5717193;-0.06350284;-0.047663175;-0.06657167;-0.28002894;0.24328549;0.4219257;0.3292611;0.28588393;-0.17378259;0.42498413;0.4811204;0.01237337;-0.17472206;-0.012506532;0.016389469;0.0028820217;0.045968343;0.1851133;0.567739;0.038159017;-0.0029126543;-0.24363692;0.1820568;0.36149067;-0.07431372;0.053246986;-0.037147824;-0.26661867;0.011772267;0.3946187;0.040509466;-0.45749477;0.0046396675;-0.015371978;-0.11323827;-0.34292808;0.008515567;-0.26840195;0.30004883;0.4900472;0.3955166;0.21156792;-0.04499722;0.38168472;0.11767013;-0.012223259;-0.034195468;0.39726773;-0.021289878;-0.055461418;-0.01041735;0.1839662;-0.51644164;0.15135774;-0.20679012;0.069771804;0.35169646;-0.024497744;0.13699178;-0.0457444;-0.2737724;-0.003536106;-0.05423562;0.17893507;-0.011348319;0.13716814;-0.05905067;-0.033960547;-0.025785156;-0.04518406;0.5424492;-0.34590697;0.12063211;-0.004040346;0.009417285;0.08378833;0.030237248;0.017562103;0.13500771;0.06875691;0.0018045274;0.23331943;0.039537337;-0.0038940767;-0.18012029;0.037598263;0.18410215;0.23003358;0.03191875;-0.055606123;0.2500233;-0.1858157;0.34489393;0.027366247;-0.05119877;-0.3677722;-0.1258051;-0.34205008;-0.1974812;-0.042061623;-0.017215563;-0.08201585;-0.04745233;-0.049847808;-0.05583962;0.12133229;-0.028853577;0.06360396;0.35836586;-0.7200349;-0.083172195;0.023136064;0.37895456;0.005227722;0.1520326;0.0029680193;-0.42779347;0.3307979;0.015033196;0.009086329;0.014989485;0.6307244;0.46727347;0.13240531;-0.28287417;-0.00769831;0.018264316;0.083900765;0.28683272;0.15834807;-0.06889642;-0.056176554;0.023888582;0.45696127;-0.08657989;0.71557426;-0.07560168;0.21226464;0.4077258;-0.020356143;0.18017079;0.06325919;-0.029098583;0.03876908;-0.05901281;0.1594186;-0.327609;-0.016128428;0.17612925;-0.031978242;0.19315961;-0.20203935;0.036562603;-0.22912809;-0.10274418;0.3054949;-0.5084241;0.009857885;0.39194188;-0.015116231;-0.3132035;-0.4422786;-0.10688926;-0.066323206;-0.031301744;-0.019148571;0.056348167;-0.19355544;0.2233641;-0.20383002;-0.20133942;0.042519376;-0.388921;0.06389228;0.23857783;0.059001427;-0.012627989;0.1567668;-0.169403;0.042342078;-0.056037124;-0.023897208;-0.26720572;0.16489933;0.054500803;0.15172999;-0.44548607;-0.055923503;0.14299013;0.34648418;0.023134358;0.37975755;0.2821645;-0.13866183;-0.034879006;0.6425318;-0.075249925;-0.25517002;-0.035669412;-0.09748844;-0.16487224;-0.004467967;0.08248419;0.34077016;-0.13799664;0.1621313;0.18902399;-0.056111194;0.066058;0.29458776;-0.5550972;0.114346474;-0.11695571;0.081696585;-0.04648922;-0.077180095;0.021613464;0.019726632;-0.20326641;0.27458873;0.44200864;0.32943127;0.43350127;0.067689635;0.52296764;0.067472674;-0.3176813;0.044494793;0.07146087;-0.02180446;-0.115487546;0.09115656;0.26147148;0.037377868;0.030111605;-0.03509691;0.31504205;0.090065315;-0.39866132;0.058853876;0.019825835;0.068550244;-0.05456227;0.70140773;0.00829961;0.19440491;0.4992027;-0.0083057005;-0.5477759;-0.19883925;0.16098751;0.07846831;-0.21291201;-0.10220136;-0.038936246;-0.04811692;0.0030576107;0.09380584;-0.08791075;0.038944628;-0.5346157;0.017457787;-0.06607266;0.09860974;-0.34076703;-0.17013025;0.061276704;0.3042594;0.0058229975;0.01748429;0.23646179;0.014715372;0.03347478;-0.17110537;0.0013527476;0.04049259;0.05480197;-0.23874858;0.17560707;-0.053936563;-0.070515424;-0.0072908048;0.12409011;-0.0032624025;-0.018597908;-0.061217375;-0.060741175;-0.0042104363;0.033850837;-0.021538118;0.04120465;0.022072166;-0.0921405;-0.36550924;0.2913403;0.039271615;0.01617377;-0.04139164;-0.07195716;-0.012991353;0.1663877;0.02331973;0.06331473;-0.036367938;0.069380954;-0.00702003;0.30756563;0.43830165;-0.7341203;0.16752893;0.16080122;-0.51159793;-0.01895688;0.03884418;-0.32887417;0.1082826;0.37394416;0.39177918;-0.013044491;0.030946624;-0.008013509;0.10643793;-0.53965986;-0.13200994;0.41028833;0.09958961;0.013335042;0.16542172;0.04877451;-0.21364217;-0.04736479;-0.14202058;-0.102898404;0.26768175;0.2073048;0.35320634;-0.05442511;0.21564503;-0.0383688;-0.0062458063;-0.038461175;0.25210226;-0.07343913;0.04556698;0.13741456;-0.14868806;0.12852308;-0.32793838;0.49117184;-0.09992146;0.028659752;0.45143792;0.1463852;0.22222294;-0.30440196;0.466097;-0.023990966;0.038710635;-0.036000237;-0.3881127;0.15583785;-0.008085421;0.17847358;0.1841898;-0.07768399;-0.3827957;0.029330205;-0.043638375;-0.2051908;-0.054103795;0.05425814;-0.025694942;0.2657843;0.015275255;-0.10888188;-0.0290118;-0.07833082;0.023989744;-0.019130055;0.11985533;0.09521848;0.06714416;0.054207694;0.038024187;0.56543714;0.02956346;0.013518703;0.052468337;-0.01331174;-0.45991513;0.3573928;-0.059363145;0.047081824;0.012093565;0.026692865;0.016538147;0.36359385;-0.03529478;-0.47243115;-0.39020368;-0.04438887;0.005335692;-0.035755668;0.055206306;0.15129592;0.013269006;0.07885514;-0.1086325;-0.28457955;0.15750076;0.049326766;-0.025366114;0.07127493;-1.303992e-05;0.0294467;0.10915377;0.11048067;-0.030675264;-0.5272113;-0.030900085;-0.048426364;-0.048262406;0.16490299;0.10496003;0.21884361;-0.06567891;0.16745032;-0.112480044;-0.30703518;0.04891191;0.10685095;0.05182382;0.057095595;0.23939808;-0.19360098;-0.0501125;0.14708982;0.08732858;-0.08532676;-0.41608086;0.23941194;0.06470268;0.026697222;0.18384056;-0.57630336;-0.17985103;-0.4400394;-0.1159126;0.42426613;0.034721915;-0.018913915;0.22490741;-0.04085302;0.07673334;0.056815915;-0.021896398;-0.05651291;0.41410568;-0.017986426;0.257662;-0.08552625;0.07336388;-0.050509386;0.5497355;0.18054436;0.059038494;-0.1034781;0.2341458;0.2045057;-0.009203263;0.11292293;0.072665766;0.52067554;-0.17851448;0.29551476;0.3117671;0.43244427;-0.13105814;-0.5568602;0.062374875;0.002729399;-0.13607833;0.10427838;-0.03792431;-0.030629832;-0.002154354;0.06242821;-0.15016314;0.27332982;0.285506;-0.3697455;-0.45886555;0.0040362803;-0.020389432;-0.0079257805;0.10255606;-0.03275158;-0.5333856;0.29595503;0.17853121;0.09848449;-0.2607202;0.017275153;-0.07019995;-0.058092467;-0.14346682;0.38445625;0.44545865;-0.01623942;0.2365219;0.057012208;-0.011149142;0.35329652;-0.05272805;0.021324832;0.36713642;-0.28962862;0.39055672;0.18828638;-0.07093811;-0.2025427;-0.0308747;-0.417089;0.0048150606;-0.11146403;0.080932885;-0.63586456;0.0018489785;0.04866875;-0.020604834;-0.095277034;-0.08060121;0.30350253;-0.2932992;0.6743146;0.22646652;0.20873196;-0.01189236;0.22565702;0.20024696;0.07071287;0.32230678;-0.010486532;0.3042296;0.048815444;0.6961649;-0.2746948;0.38441253;0.013927632;0.023311432;0.26117083;0.14792292;0.11515912;0.020598434;-0.09519517;0.13788934;0.29227835;-0.04099341;0.40218255;0.0654167;-0.025456695;0.03297764;0.17888242;0.029354587;-0.05249938;0.23079126;0.35770595;-0.79280096;-0.0415319;-0.055310693;0.20869948;-0.3164508;0.11817823
0.04955858;0.05096219;0.4164678;0.0661669;0.07094567;0.031941403;-0.26044047;0.19623668;0.42666662;0.27362612;0.22594726;-0.2697389;0.4286277;0.39170256;-0.0034575507;-0.18542397;0.050974376;-0.043632615;-0.07973432;0.07912465;0.27461785;0.44417414;-0.016923208;0.07478999;-0.051941454;0.24177597;0.37490246;0.042741463;-0.092441246;0.066261284;-0.19189738;0.066868916;0.2150977;-0.08598157;-0.31363738;-0.035122678;-0.050050516;-0.035481673;-0.24379618;0.049438503;-0.24659468;0.22021876;0.52095264;0.22254106;0.23386802;0.05961717;0.48313367;0.18813692;0.08304512;-0.0055285324;0.21245109;-0.056823;0.0582912;0.094187096;0.22866178;-0.29973236;0.18622804;-0.1842674;0.03262357;0.350175;0.0030635458;0.07828864;-0.050111625;-0.36157414;0.09406728;-0.04083443;0.1784778;0.11180281;0.07489388;0.03438513;-0.0150805535;-0.0745318;-0.05768359;0.47393528;-0.29987;0.11278783;0.04974408;0.02602809;-0.051634993;-0.018585589;-0.0052915653;0.08495524;0.060595162;-0.012697944;0.30337602;-0.07370861;-0.06273789;-0.09662233;0.027034303;0.15780641;0.26105875;-0.040821917;0.055843472;0.16666132;-0.312364;0.29820105;-0.08754712;0.022439076;-0.43526304;-0.19370031;-0.3562811;-0.036126003;0.027215047;-0.022536444;-0.0059116576;-0.02673939;-0.17284617;-0.008571431;0.055361968;0.022418067;0.037665512;0.3951398;-0.5174904;-0.012250713;0.10243447;0.28426126;0.05492084;0.16561064;0.018384047;-0.43669724;0.20950975;0.023798997;-0.012796064;-0.036368493;0.48446316;0.49360362;0.1444275;-0.33680525;0.03546797;-0.004570023;-0.016589997;0.3552161;0.070945375;0.039558712;0.015117152;-0.0023109654;0.43290782;-0.025376063;0.6483171;-0.13045433;0.26228097;0.22486031;-0.0771978;0.13738194;0.004183172;0.024120117;0.04797975;-0.0184043;0.091405295;-0.27553853;-0.056573704;0.15130971;0.002214524;0.102052815;-0.08624748;0.06790517;-0.20189746;-0.03904344;0.22899957;-0.3320413;-0.058709145;0.3643103;0.026263028;-0.28471452;-0.4364159;-0.021989398;-0.015871897;-0.010795677;0.02097327;0.059305474;-0.26616502;0.12989195;-0.16197874;-0.054161817;-0.015883597;-0.25266737;-0.044504534;0.1429449;0.008570544;0.0014696261;0.10870372;-0.12116907;0.0357061;-0.050380643;0.08751317;-0.23789094;0.16704139;-0.048693113;0.14291705;-0.38780552;0.0576171;0.196367;0.2259194;-0.02285044;0.46214652;0.15426679;-0.36662513;-0.008019575;0.7532143;-0.04780136;-0.1725845;0.0065476606;-0.0692269;-0.1980648;-0.037586316;-0.041595526;0.32325554;0.008005537;0.17420945;0.29173264;0.030360162;-0.0077042347;0.21441281;-0.4369183;0.027690947;-0.051657982;0.065886825;0.0146071445;-0.20963468;0.02219602;0.09344155;-0.16757907;0.1333355;0.50000066;0.35441196;0.33239225;-0.069132365;0.46440402;0.034552634;-0.16135499;-0.058551185;0.04669849;0.05205455;0.042203695;0.036470294;0.32456666;-0.054084357;0.029951518;0.039676994;0.266518;0.011131456;-0.44378215;-0.04627989;-0.05579607;0.02372102;-0.047598865;0.6323047;-0.0822149;0.11930815;0.51093405;0.04420802;-0.4604293;-0.15582;0.22330919;0.10346989;-0.27270973;-0.11050624;0.030444855;0.032706268;-0.013965605;0.11050113;-0.11908751;-0.0135302665;-0.44953448;0.008436118;0.07072695;0.111337945;-0.3128683;-0.09892686;0.0585659;0.33929053;0.060467474;-0.029494371;0.2794017;0.045898348;0.11304448;-0.14789863;-0.07106584;0.008359254;-0.0048705656;-0.21397318;0.10320227;-0.21420723;-0.0017011613;-0.044608597;0.07553665;0.04092793;0.0022823263;-0.032275263;0.08170976;0.11052715;-0.0968291;0.017012449;-0.039363544;-0.07581578;-0.11843464;-0.21781199;0.27278292;-0.033954732;-0.12933262;-0.14444025;-0.026390227;-0.006234392;0.11841746;0.018764503;0.030044487;-0.06603603;0.0899417;0.021039808;0.3703202;0.18481703;-0.45203462;0.10227129;0.102237925;-0.40355724;-0.09866909;0.10073892;-0.37308952;0.047254574;0.33204916;0.40058193;-0.018132124;0.021037342;0.041455887;0.0005574919;-0.53393626;0.013858016;0.24827912;0.18484925;-0.04508271;0.18611328;0.051832184;-0.27060822;0.060393848;-0.15689336;-0.11915695;0.1897984;0.23161216;0.53008527;-0.014964466;0.12067786;-0.048018873;0.061608523;0.0064074416;0.20069799;-0.00800552;0.031190509;0.20473097;-0.22409776;0.19840404;-0.34644365;0.5105989;-0.067707315;0.0127377035;0.38967675;0.13036148;0.14960659;-0.29513326;0.3547252;0.08802712;0.1374983;0.0015058627;-0.24888165;0.1928483;-0.0032466361;0.10837921;0.18246709;-0.027866142;-0.35909417;0.017588014;0.04577755;-0.2448317;-0.02023895;0.107237846;0.04808293;0.21263735;0.046765555;0.017750414;0.07020913;0.0089471415;-0.028522056;-0.024063671;-0.027809616;0.0789144;-0.03811238;0.06830262;-0.033206083;0.49715212;-0.031278867;-0.04447317;0.15662397;-0.046267454;-0.40125558;0.3534723;-0.0611047;0.0635554;-0.06601057;-0.08185759;0.01049067;0.30370596;0.11258153;-0.3437206;-0.3387422;0.0005015698;-0.04074447;0.013227652;-0.017869169;0.18122032;0.069177985;-0.02774594;0.002453944;-0.38280082;0.23970696;0.07519757;-0.006993191;0.18027431;-0.07175244;-0.0012522839;0.033086717;0.118402675;-0.04753805;-0.50789773;-0.044120397;-0.039884422;0.096842654;0.14710496;0.059072316;0.17690593;0.0121537205;0.28513905;-0.04794484;-0.14926308;-0.016869325;0.10892049;0.004787289;0.05727095;0.09397678;-0.19272412;-0.029788654;0.020320931;-0.058726586;-0.01768752;-0.43138808;0.31771925;-0.018510127;-0.044317327;0.16114633;-0.43757582;-0.18867801;-0.51803106;-0.08154009;0.43700808;0.04945323;0.036603253;0.28931162;0.07579876;0.035186205;-0.039403405;0.05471649;-0.057833284;0.37787122;-0.05208356;0.09839497;0.05311909;0.07737692;-0.020423504;0.4813922;0.1922787;0.0932686;-0.11073948;0.16475713;0.22700472;0.007535709;0.16344371;-0.06453208;0.39013168;-0.091046534;0.257424;0.29287338;0.33775645;-0.23659895;-0.47248378;-0.020927327;0.08368444;-0.19313918;0.026593372;-0.056892432;-0.038888473;0.007278149;-0.03884626;-0.037236165;0.23118493;0.27906573;-0.26059663;-0.49580306;0.015114219;0.067374505;0.037368488;0.05093829;-0.036493782;-0.5005656;0.25540566;0.13060598;0.11689582;-0.23209037;0.016304284;0.0078046117;-0.06768212;-0.115463026;0.3574691;0.4281318;-0.043478947;0.26716405;0.054436494;-0.07160062;0.32903168;-0.07184277;-0.10250545;0.44042516;-0.25965536;0.43521106;0.17884037;0.07953414;-0.16341569;-0.09623592;-0.32254517;0.035666797;-0.079971515;0.15688033;-0.5727194;-0.040538676;-0.032287233;0.061256498;-0.20492974;0.011915316;0.18512402;-0.266596;0.6222749;0.15405507;0.24826884;0.017227633;0.2992263;0.1834847;-0.00028048555;0.364336;-0.0077796546;0.20840853;-0.01020553;0.67771345;-0.25938755;0.42496914;0.07327964;-0.03197396;0.26385996;0.24228455;0.13824251;-0.029812213;0.05276005;0.08103895;0.23281613;-0.011617663;0.35815126;0.021923918;-0.04357235;0.01998969;0.1923578;-0.062330056;-0.0570712;0.32523105;0.515955;-0.82545245;-0.054287642;-0.080578096;0.19084488;-0.26365882;0.24029283
-0.018991578;0.052680682;0.42759395;-0.054703373;0.074379906;-0.06348672;-0.19739045;0.20477645;0.35158417;0.15104607;0.30938968;-0.23356962;0.21637902;0.37718603;0.021345159;-0.1103187;-0.045792703;-0.02657514;-0.118102245;0.17454794;0.21348393;0.47276738;0.052239787;-0.058482103;-0.05085397;0.16888642;0.4548265;0.056329276;-0.11265924;0.07359468;-0.3129369;-0.08994378;0.18720445;-0.04070019;-0.24647884;-0.011469563;-0.053418696;-0.019798703;-0.3637065;0.038098987;-0.2658834;0.35505426;0.5206175;0.27614975;0.15109147;-0.005368444;0.33773935;0.016032493;0.07847408;0.04262374;0.22964656;0.07853867;0.03833366;0.13051462;0.06286379;-0.30202192;0.18486367;-0.27314293;-0.071334735;0.31001413;0.057134602;0.14916825;-0.023244247;-0.5049789;-0.03113848;-0.005378303;0.19021405;0.019466072;-0.06265411;0.05272643;-0.046914205;-0.056595955;-0.18623573;0.4226588;-0.18348694;0.1721631;0.05103202;-0.08346155;0.028259978;0.008106133;-0.048653256;0.11561753;-0.046343334;0.02590971;0.2813229;-0.10842545;0.05543738;-0.15847492;-0.0247763;-0.0022316359;0.23711172;-0.059663378;0.02528256;0.19572034;-0.23958284;0.23015426;-0.106406234;-0.048133366;-0.36787716;-0.12713347;-0.22273496;-0.15307388;-0.011034734;-0.010927475;-0.067101635;0.033880908;-0.19406714;0.025904959;0.08361813;-0.017774357;0.010618306;0.4790121;-0.4176966;-0.051159035;0.22629315;0.27259016;-0.045917388;0.07395488;-0.06906583;-0.47697672;0.13411564;-0.02766654;0.0013561144;0.092720106;0.47204572;0.44670227;0.2175598;-0.21754146;0.016823394;0.0076484773;0.025695022;0.3695591;0.15752327;0.08199684;-0.003572733;0.0057831923;0.3908328;0.04827353;0.6065297;-0.29336515;0.16226256;0.31434435;-0.023796193;0.08866296;-0.08097168;-0.007716764;-0.02678882;0.036727395;0.087128416;-0.34024832;0.014782358;0.12425178;-0.027751751;0.0413405;-0.14366564;0.056619607;-0.19774538;-0.14439298;0.26235348;-0.43007386;0.050917685;0.3199439;-0.050300624;-0.39436957;-0.26194623;0.0922788;0.073979266;0.023787223;0.010033874;-0.006555688;-0.16349243;0.08195042;-0.12012517;-0.16231112;0.03525625;-0.22516069;0.08108419;0.15608215;-0.05137585;-0.022690812;0.08910598;-0.1841886;-0.016373875;-0.0016602557;0.014971032;-0.13920338;0.16436505;-0.041835804;0.12772027;-0.33492512;-0.0041394997;0.14801234;0.30626824;0.0081112115;0.5541146;0.18691532;-0.37492123;-0.06153021;0.63122714;-0.0012708601;-0.12007754;-0.009999261;-0.07055505;-0.19964673;-0.08858647;-0.038844775;0.13372932;0.06069976;0.10804897;0.22533658;0.024971664;-0.07428986;0.20524305;-0.32538834;0.07954521;-0.13487013;0.085096605;-3.236183e-05;-0.12145195;0.038079593;-0.011291173;-0.18516943;0.18281439;0.25338405;0.19564012;0.37696728;-0.0802396;0.48544088;-0.08435627;-0.17834088;0.012994016;-0.015052759;0.043636657;0.0010889347;0.04926522;0.16067225;-0.0047771777;0.06431863;-0.04828931;0.06902568;-0.049276117;-0.34015295;0.011410232;-0.01937895;0.053117458;-0.05338155;0.571419;0.08399173;0.13369882;0.4747846;-0.033160474;-0.33778322;-0.06048973;0.30864874;0.041071095;-0.21029946;-0.14505544;-0.03183325;0.035898052;-0.0063243145;0.16119653;0.02489065;0.014262126;-0.3680039;0.017036255;-0.071395166;0.030991785;-0.38856652;-0.20619425;0.042210836;0.32027116;0.06144759;-0.06741927;0.30098817;-0.046568885;0.010582542;-0.118732646;0.012263546;0.067983665;-0.10957056;-0.16837299;0.1494771;-0.12038133;0.0055410545;-0.06528389;-0.013403855;-0.02463804;0.033618733;0.07420803;-0.018039295;-0.005064625;-0.051022034;-0.07051921;0.027320338;0.044605654;-0.2844812;-0.17536424;0.16124275;-0.056581944;-0.14156973;-0.12250694;-0.01827214;-0.004610727;0.050717756;0.025214944;0.06753054;-0.14729884;-0.022801947;0.14513175;0.2416513;0.039698437;-0.3030996;0.14315404;0.06083714;-0.38263297;-0.105748296;0.16354331;-0.29770115;-0.029236227;0.26943126;0.34278175;0.024377426;-0.045548473;0.01206355;-0.08840228;-0.48549792;0.124815;0.25473768;0.19474843;0.028278857;0.06950922;0.04947631;-0.27484363;-0.014184522;-0.14040075;-0.07200519;0.12406062;0.18167181;0.4572981;-0.055320118;0.15843377;-0.041848;-0.015465054;0.09474538;0.20617539;-0.012953863;0.014343771;0.2532381;-0.27157965;0.020298189;-0.23414136;0.43151996;-0.044685103;-0.025371052;0.28627947;0.17558312;0.19210355;-0.20501423;0.37587947;-0.06020377;0.22269902;-0.04645353;-0.17127149;0.17007072;0.027821172;0.25462574;0.3155063;-0.025154509;-0.27718568;0.16544516;-0.027617663;-0.090011746;-0.09294291;0.13819146;-0.064273275;0.1874458;0.056011908;-0.09097578;0.06511744;-0.104716934;-0.049089435;-0.07860416;0.008894017;-0.031860154;-0.069573045;0.07210365;-0.028260473;0.5296514;0.053621408;-0.02606987;0.12872216;-0.030501105;-0.37531024;0.32201022;-0.11457792;0.003866762;0.060583793;-0.04613547;-0.04338215;0.21953635;0.12851082;-0.2843763;-0.13508686;0.028008562;0.03052805;-0.015177726;-0.082617246;0.30089256;-0.07784716;-0.033359926;0.028423727;-0.30765927;0.09211779;0.22618112;0.10872187;0.13017708;0.066443756;-0.015303164;0.10479133;0.06571905;0.087139614;-0.28464437;0.003202147;0.07843416;0.10760159;0.05664952;0.10941449;0.16172104;0.024817325;0.24381182;-0.014338556;-0.11688734;-0.031088056;0.10141731;0.0008526544;0.054334227;0.09674588;-0.32852808;0.01252312;0.032420576;-0.015751874;0.04619552;-0.2999949;0.1919323;-0.073347606;-0.089924686;0.21587351;-0.50902146;-0.092307486;-0.47157764;0.03702804;0.33992594;0.11938379;-0.0022554265;0.35427332;0.019722529;-0.02175534;0.08132614;0.0048465123;-0.13013119;0.41725639;-0.0007647772;0.19686225;0.10600146;0.0569311;0.081924215;0.45887077;0.15015271;0.09177734;-0.0119932275;0.07647891;0.15365176;0.067543425;0.09899015;-0.06556973;0.38249668;-0.08322286;0.20501105;0.338499;0.33719975;-0.14098679;-0.5199848;-0.03415442;-0.017510116;-0.06458429;-0.0021177623;-0.015207487;0.025734406;0.1495403;-0.010682756;-0.08957499;0.19204529;0.21873863;-0.11499962;-0.4715931;0.04461697;0.09157866;0.025287595;-0.06617449;0.0141085405;-0.3305033;0.20329276;0.24121574;0.10189803;-0.30888963;-0.023905987;0.008654855;0.019879166;-0.106354065;0.35872257;0.36608854;0.056795035;0.21808587;0.05351089;0.07171894;0.20006281;0.045285344;-0.011577542;0.3557469;-0.3819159;0.43181503;0.12844744;0.0076796226;-0.27616242;0.037437726;-0.3056371;-0.030911244;-0.09552622;0.27273464;-0.49417448;-0.059159596;-0.047089882;0.009091762;-0.117129736;0.055137947;0.25357524;-0.16129024;0.39947447;0.16159123;0.22189935;-0.008910769;0.22534654;0.253069;0.002366353;0.22769406;0.057247404;0.2770598;-0.021450143;0.5640826;-0.29690894;0.40115368;-0.048479587;-0.0076678465;0.27309757;0.15771095;0.23791441;0.034935843;-0.005974304;-0.035840463;0.07676314;-0.02036266;0.28992566;0.01567294;4.2622458e-05;-0.07567327;0.1550104;0.08472313;-0.06332133;0.2772351;0.44745445;-0.82029223;0.06809853;-0.12796362;0.31413564;-0.27918115;0.25608495
-0.045312386;-0.030007284;0.38147458;0.045979157;-0.006997162;-0.034658346;-0.118278734;0.22628361;0.21891212;0.1513121;0.14974855;-0.2649599;0.18273997;0.34287274;0.1952597;-0.12091199;0.039185047;-0.021564094;-0.0395717;0.13123758;0.1052521;0.34447834;0.036151215;-0.016862554;0.045878805;0.3294443;0.40439576;0.13406639;-0.17873968;-0.004840641;-0.23186871;0.042974744;0.2554691;-0.004410985;-0.26968944;0.050960205;0.010474744;0.12881748;-0.37431702;0.03857418;-0.18096776;0.3424162;0.52864254;0.31577733;0.070774876;-0.0493287;0.35020992;0.026803963;-0.04766342;-0.022229938;0.22858794;0.035046116;0.010014161;0.08960478;-0.028794985;-0.19120193;0.12599236;-0.23836312;0.048339967;0.26690036;0.050898645;0.2737604;0.06695375;-0.5089078;0.025447907;0.031768847;0.096778125;0.19233435;-0.012056822;0.02885518;-0.0046848063;-0.16710009;-0.23936027;0.32516688;-0.14946105;0.2307923;0.0429516;0.0032069709;0.0038191865;-0.02965347;-0.123605646;0.2843525;0.019119384;-0.03909456;0.34720838;-0.12697294;-0.057293683;-0.05976659;-0.065819636;-0.021030081;0.08803561;0.06749708;-0.00743346;0.05293415;-0.24713701;0.16953255;0.026392361;0.09665095;-0.41120347;-0.09303916;-0.23979335;-0.0007643953;0.041838266;-0.042612325;0.039276894;-0.010090212;-0.14860538;-0.023860551;0.111960754;-0.043504566;0.00054476823;0.40930426;-0.31158477;-0.09958335;0.1830857;0.39032254;0.0035476936;0.03231635;0.088912785;-0.38302743;0.08472424;-0.1988571;0.11874212;0.010852181;0.26293024;0.33060387;0.1297446;-0.19294314;-0.047122523;0.00016321313;-0.010647193;0.33090377;0.0238878;0.024849681;-0.0013473429;0.088066936;0.336429;-0.022942785;0.57263035;-0.29503417;0.24801655;0.27035448;-0.020654948;0.04170097;0.04360887;-0.004611808;0.03115024;0.060998846;0.2689924;-0.22902323;-0.06675351;0.06172185;0.08129566;0.04222706;-0.14424129;-0.034994762;-0.1332255;-0.028295139;0.11752502;-0.33156002;0.08543713;0.2977588;-0.20844306;-0.34962052;-0.20033643;0.10580486;0.0038651437;-0.04896842;-0.09506788;0.07294165;-0.22985618;0.123090416;-0.1877759;-0.00660402;-0.07168417;-0.20665017;0.050737973;0.06695434;0.048598222;-0.09780506;0.1571598;-0.2516753;0.03874907;0.079338245;-0.019034233;-0.07508781;0.056479078;-0.03530077;0.00067082915;-0.32699415;-0.055764772;0.17244872;0.3315876;-0.02989898;0.47167024;0.1995279;-0.6106988;-0.02242167;0.5986471;0.06642396;-0.15713897;-0.030069415;-0.0228311;-0.18926536;0.018222474;-0.021917993;0.12858637;0.074326344;0.105917625;0.2587422;0.047084067;0.025416905;0.24394764;-0.24857713;0.23724024;-0.17188579;-0.025969319;0.06801905;0.042584065;0.050095093;-0.009197751;-0.107249215;0.0995881;0.29653352;0.24916498;0.42729035;0.026891483;0.43403488;-0.057869583;-0.092125066;0.018515559;-0.048213236;0.056813248;0.12267353;-0.018618524;0.23420425;-0.09464062;0.009621177;-0.07872217;0.15925042;0.03650472;-0.27688208;-0.0057040574;0.019764487;0.08911822;-0.0406161;0.47961098;0.03826182;0.04591133;0.4413307;-0.02842827;-0.36514473;-0.12996328;0.27552846;0.030706208;-0.2261665;-0.027414752;-0.030556507;0.093003765;-0.08163052;0.11860259;0.055614762;-0.029245421;-0.24633804;0.07131416;-0.05293722;-0.006959793;-0.4118766;-0.14000925;-0.03315662;0.24387874;-0.06382447;-0.04845027;0.22893599;0.009491224;0.1070029;-0.052107;-0.017338144;-0.019552065;-0.12771614;-0.12107978;0.20851813;-0.20883131;0.020477097;-0.02986657;-0.008192626;-0.004923209;0.050099757;0.031118276;-0.061750412;0.09003321;0.014650088;0.072317064;-0.06459401;0.046972528;-0.27648422;-0.1307597;0.17473833;0.025227135;-0.24989077;-0.17600277;0.052975927;0.04189033;0.00075002934;0.011058351;0.043896656;-0.288593;0.09355358;0.108707495;0.29279068;-0.18580346;-0.2967212;0.11816918;0.022262251;-0.3261494;0.024553021;0.31394994;-0.23935753;0.05995745;0.27396408;0.42721546;0.06418121;0.029947419;0.033924963;-0.06739305;-0.582562;0.15466379;0.13473599;0.2715879;0.07159954;0.006734288;0.039816037;-0.23794006;0.013032236;-0.087262385;-0.14468506;0.11108956;0.1957916;0.31953895;-0.008619437;0.1796355;-0.006293877;-0.048739027;-0.00941926;0.113929875;0.091657214;-0.023288678;0.23324405;-0.19343509;0.11566276;-0.34252653;0.5936033;-0.09747276;0.053579528;0.23911129;0.13661177;0.22415696;-0.07437836;0.24773034;0.06467436;0.31960928;0.040717386;-0.095827274;0.09394433;-0.051738106;0.20683756;0.32654157;0.0039641852;-0.37176436;0.113040216;-0.0215143;-0.19390796;-0.014635274;0.19445415;-0.052150868;0.24839082;-0.06174571;-0.15261237;-0.02453485;-0.025818618;0.07019588;0.020497812;-0.059130836;-0.10577466;-0.00328324;0.02827378;0.028466936;0.5045345;0.016203975;-0.04179768;0.108335055;-0.05545004;-0.4155622;0.28585577;-0.16551502;0.103444025;-0.024928072;-0.019224154;-0.038937125;0.24966377;0.29674467;-0.21835591;-0.0732199;0.04227752;0.05275156;0.03470625;-0.09465424;0.2800081;0.0030731952;-0.06922612;-0.010949693;-0.16328295;0.11988959;0.118799105;0.09448298;0.20708416;0.07181816;0.075465;0.13117263;0.06891495;0.041544873;-0.31201687;0.03902048;0.069213465;0.10130012;-0.041901916;0.05504187;0.14512067;-0.02972236;0.36252946;-0.011592026;-0.07924075;-0.03726535;0.10539625;-0.037290722;0.038718082;0.1260599;-0.3209712;0.011536794;0.028562095;0.023960227;-0.061537534;-0.40012395;0.20611346;0.0064173345;-0.014651365;0.26489684;-0.44291615;-0.16066931;-0.44987673;0.05409811;0.19134824;0.106822796;0.0023059114;0.4040726;-0.07233052;0.052306466;0.019277858;0.045815796;-0.1308184;0.4739097;-0.032295097;0.05242125;0.1593013;-0.038810298;-1.642537e-05;0.3764863;0.038897865;-0.033380013;0.099589676;-0.02470056;-0.03891096;-0.026862558;0.14872715;0.028777832;0.33029112;-0.16821511;0.12852651;0.2786334;0.41036767;-0.15114993;-0.38951573;-0.005400221;0.04215833;-0.08147637;0.14367439;0.012718195;0.03396942;0.12644923;-0.06995524;-0.16396794;0.22991808;0.18159378;-0.14947811;-0.4682051;0.01364159;-0.052290145;-0.053654898;0.00017589441;-0.008057691;-0.20425285;0.22666927;0.1672566;0.17579114;-0.34014967;0.018889096;-0.102425896;0.05339863;0.034863587;0.35057253;0.23665243;-0.06288149;0.29405126;0.008767716;-0.036410917;0.03496066;0.05868366;0.022613607;0.46957067;-0.3925703;0.33134606;0.1889762;0.06216153;-0.14334112;-0.11660331;-0.25517696;0.025157664;-0.05941388;0.3151229;-0.46383217;-0.034833454;-0.111123696;0.07873688;-0.15154298;0.026094845;0.20079364;-0.22473946;0.4726985;0.23577875;0.18372309;0.04796042;0.22347842;0.1974784;0.0068965387;0.2282831;0.06976823;0.2027398;-0.060325988;0.53078604;-0.39102295;0.46946424;0.05660295;0.050201293;0.31031385;0.15859978;0.23134772;-0.060066562;-0.04614978;0.036893617;0.17081341;0.014527528;0.18157281;0.0077362927;0.08848996;-0.018054146;0.29291835;-0.038894564;0.072302975;0.25515065;0.49234056;-0.7337214;-0.0661968;-0.227125;0.4590867;-0.33439466;0.2309877
0.026934475;0.09428216;0.30696723;-0.02148059;0.050331034;0.009186837;-0.19066007;0.3142934;0.35600227;0.14828727;0.275572;-0.19205977;0.059460327;0.28300306;0.18593784;-0.20914455;0.0071383542;0.032352474;0.044719324;0.051046632;0.13707952;0.27152985;0.029082103;-0.039833404;-0.004696566;0.37886766;0.37097654;0.07434508;-0.21707366;-0.050334644;-0.1754384;-0.025062436;0.2505691;-0.024587106;-0.24613611;-0.04947098;-0.05383037;0.06538575;-0.26620805;0.20011583;-0.033399057;0.4810148;0.5903173;0.28249112;0.016976621;-0.05279856;0.27080706;-0.077274315;-0.06860904;-0.11771188;0.27390054;-0.059829596;0.003661283;0.047652714;-0.0025450927;-0.27686718;0.14979613;-0.1508399;0.015055566;0.13553952;-0.06422147;0.12444618;0.016824106;-0.34646395;-0.087816454;0.07734917;0.10359273;0.13582739;-0.13017829;0.011809534;-0.050638694;-0.032377;-0.28064695;0.2835309;-0.054774016;0.2047805;-0.045575604;0.011001674;-0.03610799;0.014034171;-0.0722783;0.19106121;0.031535763;0.023137793;0.3276125;-0.044644482;-0.031636056;-0.18448612;-0.07305416;-0.12855178;0.0430655;0.03263776;0.0086810645;0.076392956;-0.3595673;0.18992098;-0.04443656;-0.02721401;-0.41649142;-0.16357623;-0.26207152;-0.08166466;-0.009588984;-0.009464799;0.033889566;0.04228129;-0.2180654;0.0920748;0.061592173;-0.06114672;-0.013389151;0.58961797;-0.1596193;-0.059093162;0.05879927;0.33734336;0.027902957;0.07472359;0.061825614;-0.47085986;0.11132446;-0.23321575;0.0044697514;-0.06646397;0.19813041;0.37976745;0.17312914;-0.1563826;0.047146622;-0.059078407;-0.07741217;0.29498127;0.010884054;-0.07500775;-0.020084335;-0.023594147;0.34821287;1.9177143e-05;0.5117293;-0.3331946;0.10931314;0.16305475;0.07632484;-0.07052351;0.09323604;0.034120157;0.033078227;-0.057430193;0.125509;-0.076959066;0.010877487;-0.011465971;-0.017117126;0.025880229;-0.09765096;-0.021386243;-0.10748533;-0.027079798;0.09983323;-0.22909537;0.09955887;0.28839543;-0.2940361;-0.4010599;-0.045548894;0.17948537;0.011272794;0.024195362;0.04977303;-0.057018556;-0.31770095;-0.058640245;-0.20192964;0.008072479;0.0072687934;-0.09405648;-0.067371875;0.18623024;0.062928446;-0.00385437;0.024316102;-0.09374823;0.004143635;0.019585418;0.0781602;-0.062045146;0.13350335;-0.073933356;0.013391888;-0.19849066;0.021413486;0.1754375;0.18432097;-0.0071368627;0.560904;0.15389813;-0.46670136;-0.02241639;0.5312276;0.060326222;-0.17382543;0.0059070205;0.09786101;-0.19941786;-0.052045457;0.02742656;0.104387194;-0.014070086;0.08631174;0.15595663;0.024167685;-0.06232541;0.3287613;-0.27814534;0.27826366;-0.039504573;0.0024009831;0.025035197;0.10196306;0.19331059;-0.010814397;-0.1117148;0.12471448;0.25380927;0.20455542;0.424756;-0.119868055;0.46441934;0.047929123;-0.02639744;0.03331963;0.045950584;0.016941266;-0.0014791156;-0.03421241;0.12850283;-0.06707857;-0.06465251;-0.1039167;0.10333027;0.01587982;-0.1940351;-0.10448719;0.05438853;-0.0952099;0.06324608;0.35484102;-0.0010752465;-0.06010909;0.34837458;-0.00082687347;-0.13303831;-0.15133436;0.28755465;0.18033397;-0.1089521;-0.076196335;-0.034856383;-0.05565274;-0.122677386;0.05147671;0.10653721;-0.0057233814;-0.25467563;0.06912932;0.07241053;0.073195875;-0.4124214;-0.15940034;-0.060274374;0.28125492;0.014326204;-0.14868724;0.120225064;0.035734765;0.00076301047;-0.118900724;-0.069746085;-0.00025287835;-0.07361922;-0.1762642;0.2500797;-0.2393286;-0.085095696;0.06273009;0.058573395;-0.04132891;0.006297021;0.025812807;0.08100765;-0.03010581;0.033378366;-0.023288839;0.068225905;-0.086132;-0.20568424;-0.19313401;0.05373973;-0.01815612;-0.4565444;-0.09142618;0.013469053;0.018933736;-0.011388112;-0.04964192;-0.031251207;-0.36256033;0.014302204;0.055255577;0.18946819;-0.26312023;-0.16844948;0.09705034;0.111442834;-0.30607817;-0.07218547;0.26708657;-0.23689912;0.00013708293;0.37290806;0.30218405;0.06464443;0.06110769;-0.046964157;-0.15141945;-0.52182627;0.31142473;0.09033006;0.32760134;0.006279823;0.08689167;-0.033042025;-0.17732705;0.0005627275;0.02446607;-0.19607645;0.137569;0.23373918;0.37066728;0.022241082;0.18087775;-0.056551658;0.08247911;0.0135454815;0.17147598;0.16633007;0.0034933335;0.091467835;-0.24513872;0.03422584;-0.19156963;0.47641748;-0.035227068;0.0973975;0.11451091;0.1658034;0.21453258;-0.10402195;0.27256277;0.03590717;0.26175117;-0.05842228;-0.012546926;-0.030022739;0.014786025;0.20981961;0.2719618;0.026342206;-0.35002524;0.062328298;0.017051233;-0.06724557;-0.017990105;0.07674015;-0.00088040467;0.18590747;0.0473566;-0.2168844;-0.051249467;-0.14131461;0.039683368;0.011112489;0.059265003;-0.121865585;0.044506077;-0.06138481;-0.0026955171;0.44579774;0.000104186955;0.05323073;0.14343403;0.044410795;-0.27493393;0.17212798;-0.22338735;0.087967634;-0.04165282;-0.05297893;0.05244251;0.23862332;0.12377263;-0.07596559;-0.09746611;-0.005470562;-0.03816488;0.05705808;-0.08663909;0.29540464;0.047482695;-0.045209415;0.0033863261;-0.1450124;0.032524906;0.12729727;0.22779459;0.24161255;0.099059425;0.06985697;0.02643157;0.07297869;0.016364899;-0.16465513;0.013207659;-0.012951886;0.06687091;-0.07852437;0.15600662;0.17983857;-0.05680338;0.38784134;-0.09956365;-0.13103285;0.028284142;0.026627107;-0.029764626;0.10130096;0.116196215;-0.32962653;0.045030717;-0.13659792;-0.0039580246;0.03817791;-0.23399545;0.33682063;-0.027407998;-0.056272954;0.31624755;-0.45262873;-0.07556853;-0.43373343;-0.028294671;0.24118702;0.022473847;0.0309529;0.4495045;-0.06510658;-0.07698826;0.008003191;-0.006948392;-0.13394512;0.4269662;0.016716262;0.12670787;0.140007;-0.0565632;0.06530363;0.41895708;0.031105392;-0.035700914;-0.0019546577;-0.1342843;-0.03267619;-0.02381993;0.0780465;0.033685666;0.40695584;-0.14742832;0.122335784;0.24211319;0.44286025;-0.15041114;-0.5253135;0.07664315;-0.03877873;-0.11086503;0.17034426;-0.013364028;-0.059913337;0.08149937;0.045331877;-0.1293904;0.24320495;0.14235263;0.06949731;-0.23873778;-0.018514499;-0.023668537;0.08405078;-0.101725206;-0.05615371;-0.24363315;0.087611735;0.10968386;0.13120668;-0.24229623;0.034996558;-0.1410914;-0.038434453;-0.074199125;0.37659362;0.27167976;-0.054886173;0.22127795;-0.0038370064;0.024927367;0.06334071;-0.04130265;-0.0005894727;0.48523584;-0.4571625;0.44192034;0.1050038;-0.046137307;-0.22047853;-0.039340895;-0.10190982;-0.061256;-0.11194672;0.16139263;-0.3444514;0.07692314;-0.11578535;0.050806493;-0.16929951;-0.086378664;0.08140548;-0.05732536;0.4016402;0.23280796;0.17127138;0.014857335;0.22967741;0.39883822;-0.035047557;0.23325267;-0.038862366;0.1963582;-0.019181589;0.6075661;-0.26925293;0.34857124;-0.066524066;0.07051599;0.28961986;0.1513061;0.21379037;0.05467195;0.008820012;0.103798024;0.08013742;0.048387453;0.11106445;-0.05439977;0.06615812;-0.10263857;0.24322256;-0.052956242;0.02767234;0.35005686;0.50100195;-0.5551956;-0.019836165;-0.28349355;0.47398528;-0.31185502;0.3929348
-0.06136825;0.025411563;0.36809912;0.071550615;-0.0724961;-0.03147667;-0.1098789;0.3897973;0.2656008;-0.015482873;0.20129189;-0.29345584;0.15752617;0.2671331;0.009792405;-0.20112182;0.019867877;-0.055031937;-0.13499677;0.13939622;0.027895387;0.28282952;0.012738077;0.020403396;0.007725278;0.48792547;0.5513252;0.20789981;-0.18014023;-0.044167962;-0.23949079;0.055971183;0.29009166;-0.033936452;-0.10288676;-0.0055315197;0.026905984;0.19423881;-0.15450805;0.18147609;0.2347013;0.5363777;0.36557862;0.31619042;0.11012369;0.061576117;0.32268196;0.0040202937;0.047153886;-0.19234268;0.32790452;-0.0017202762;-0.007861586;0.04887374;-0.1316506;-0.1839263;0.09944423;-0.18445526;-0.016729895;0.11155159;-0.030795254;0.18086825;0.015312458;-0.3910345;-0.11349768;0.16000418;0.1661473;0.1855032;0.02388302;-0.036697537;0.08017845;-0.066524185;-0.35059693;0.0637621;0.09606634;0.25107804;-0.013734007;0.04171867;-0.0076419394;-0.046639975;-0.16226542;0.19672213;0.049731735;0.075131394;0.19418576;-0.048414413;-0.012288526;-0.023611587;0.014487345;-0.038175236;0.1472248;0.0669308;0.07312288;0.0042077038;-0.3093023;0.18404819;-0.09645373;0.109607756;-0.3386688;-0.166242;-0.28052187;-0.14443119;0.05370803;0.0042168656;-0.1314347;-0.02751402;-0.1561137;-0.039049156;0.11514188;-0.0069596027;0.013737504;0.55864066;-0.1195631;-0.002054551;0.114356816;0.3141489;-0.081306204;0.15442911;0.067026444;-0.37973642;0.03664057;-0.07965801;0.024305832;-0.037448943;0.16993386;0.37735137;0.12716506;0.039585132;-0.020171711;0.04685244;-0.16754837;0.34009844;0.123389475;0.035598684;-0.01476367;0.14811487;0.2894428;-0.019540003;0.47728702;-0.2544405;0.22034958;0.15338007;-0.0032081562;-0.041902788;0.056934837;-0.08162055;-0.018066317;-0.030389227;0.07134939;-0.11092267;0.036579054;0.041637283;0.017637368;-0.065879375;-0.1702954;-0.022600023;-0.117002234;0.11060707;0.116395146;0.0007907192;-0.09304678;0.08830763;-0.24539752;-0.34622625;-0.0030798959;0.31825277;-0.030473992;0.045181226;0.028816888;-0.04238708;-0.18103108;0.028728792;0.00021586627;-0.098543525;0.019273069;-0.05206351;0.06375869;0.17419149;-0.026756968;0.0794659;0.046571754;-0.0835569;0.043714743;0.06691081;-0.023354067;-0.079061344;0.07563593;0.0033901867;0.044496134;-0.24786957;0.043447703;0.17039876;0.20753475;0.07795292;0.56889915;0.17436369;-0.4989383;-0.016127178;0.54089373;0.14790691;-0.058794647;0.0311869;0.2184532;-0.19696039;0.013902123;0.06965979;0.14428028;0.13293031;0.12694494;0.21959504;-0.075109825;0.06965403;0.28870696;-0.2655786;0.38502553;-0.032937735;0.048707653;-0.07267048;0.055767138;0.09674196;-0.0058392547;0.00579553;0.07379323;0.20163852;0.09879109;0.39261547;-0.11347113;0.35669327;0.027125863;0.040466353;0.011190355;0.042531043;-0.044025537;0.018567108;0.016481226;0.25278074;-0.09879729;0.0634068;-0.096816465;0.16524787;-0.07435894;-0.17547576;-0.03383426;0.04490687;-0.120137244;0.022096591;0.2762922;0.08459045;-0.033567663;0.27788132;-0.017919874;-0.23102672;0.012249636;0.42186353;0.07817522;-0.116225764;0.0054167095;-0.0086168265;-0.030475885;-0.08876863;0.23858614;0.06186955;-0.03733871;-0.20862912;0.0024253754;0.034906924;-0.027992012;-0.3891869;-0.12915652;-0.024591979;0.20853697;-0.027915278;-0.21402185;0.15282887;-0.006482337;0.12598771;-0.096703276;-0.035194628;-0.017777702;-0.123342894;-0.07240288;0.26469308;-0.097103894;0.046752837;-0.028645953;0.04583262;0.0021680414;-0.07212903;-0.028681073;-0.052479953;-0.010460808;0.05322765;-0.05005999;0.05380295;0.0131158745;-0.18167156;-0.07976501;0.09738739;0.076123975;-0.27777395;-0.20360774;-0.03764041;-0.0076337736;0.050711375;-0.04759178;0.089009896;-0.31593284;0.042490974;0.12327593;0.115839094;-0.23869893;-0.060424916;0.0146160545;0.17922358;-0.22122698;-0.12909423;0.28181663;-0.39958555;-0.0010709713;0.39802635;0.3414702;-0.054983374;-0.06571603;-0.032863382;-0.11984293;-0.411598;0.31283227;-0.031841204;0.2902193;-0.028557273;-0.04086617;-0.020847114;-0.12705958;-0.038930066;0.07346595;-0.114939585;0.088758;0.13774179;0.46967405;-0.06672872;0.19920936;0.060905434;0.13207708;0.055970322;0.19641708;0.18934277;0.008663837;0.14883314;-0.27075404;-0.052447487;-0.17020674;0.54386455;-0.02760677;0.015464538;0.13606243;0.1892323;0.05669178;-0.14824732;0.25874802;-0.02905851;0.26129487;0.07151278;-0.0730582;-0.13965034;0.028244426;0.08363544;0.16024262;0.062407438;-0.34364772;-0.016013589;0.02063167;-0.0680137;-0.03061327;0.07685006;-0.012099957;0.26464403;-0.047487397;-0.22867137;0.058999177;-0.124740675;0.005127781;0.004223332;0.0023813676;-0.19014284;0.017092517;-0.033062432;0.028004913;0.41229674;-0.049468912;-0.025532756;0.06625383;-0.0075930743;-0.35157287;0.059238557;-0.21997674;0.15567356;-0.010368388;-0.16830829;0.057338823;0.06682386;0.29198244;-0.04341356;-0.063348785;-0.052949954;-0.018793637;-0.010357652;-0.095543645;0.37151128;-0.05012884;0.040338222;-0.09841641;0.061200418;0.18274616;0.119394444;0.22040182;0.23360547;0.15191053;0.13901807;0.1458405;0.21220054;0.06170098;-0.14560023;-0.016513888;-0.0409512;0.014895037;-0.29321352;0.029607909;0.28124726;0.007816595;0.32437047;-0.06583176;-0.12307708;0.007988373;0.06809453;0.05254358;0.12947571;0.1639065;-0.11516951;0.0150115015;-0.058256164;-0.03575102;0.0100245625;-0.34485957;0.25481144;0.029411905;-0.039717805;0.30266905;-0.33607143;-0.05646544;-0.33396927;0.056574624;0.20892245;0.17805026;-0.052036982;0.3926046;0.06206316;0.010891223;0.12042411;0.0008416249;-0.14620969;0.2947663;0.0030739205;0.19484065;0.03281207;0.024460107;0.023982175;0.3451189;0.06566453;-0.1282881;-0.05558054;-0.07573453;-0.032280967;0.0353514;0.11642227;-0.020440327;0.33758983;-0.24382938;0.04163176;0.41310385;0.4229441;-0.0310661;-0.37553304;-0.040518925;0.0078040613;-0.046970647;0.12553294;0.03270588;0.060378093;0.094986275;-0.03298992;0.030852122;0.21512246;0.09417432;0.24896418;-0.16538891;0.016967;0.05008782;0.04373546;-0.119922705;-0.033673596;-0.18327378;0.0967304;0.13604133;-0.0060991272;-0.10585488;-0.053019196;-0.08073538;0.06991269;-0.022891186;0.41435093;0.22324093;-0.035571866;0.1199955;0.03316766;-0.08453497;0.0060204556;0.08112604;-0.038820304;0.5248131;-0.46694797;0.37221375;0.12843399;-0.0055933506;-0.23689105;-0.1355772;-0.019059163;-0.012131197;0.05735089;0.34771347;-0.20208916;-0.0020570762;-0.094835036;0.10359277;-0.0955791;-0.036639698;0.08384779;-0.0034807804;0.22661915;0.19185261;0.18384139;0.074087776;0.20714518;0.35171053;0.05520357;0.153292;-0.020903863;0.19928075;0.001847986;0.52965343;-0.36506647;0.3496877;0.078079626;-0.011569414;0.25559142;0.08397163;0.16897975;0.0014662425;-0.03487991;-0.020818789;0.105329774;-0.0085068345;0.09926189;0.07003418;0.15506387;-0.05295402;0.25631815;0.028320696;0.0720472;0.2823762;0.4161619;-0.5883839;0.0605463;-0.15729322;0.45651412;-0.27828273;0.37850094
-0.0050347783;0.021891104;0.37136468;-0.08000437;0.018099774;-0.0040692235;-0.13230318;0.402803;0.23673114;0.028868949;0.114863366;-0.2608617;0.005292966;0.21746011;0.12841837;-0.2811232;-0.05102762;-0.021239521;-0.006716933;0.11457522;-0.011052543;0.2297411;0.05543514;0.053186696;0.019660577;0.5002302;0.5553871;0.2309558;-0.31702715;0.02742892;-0.16086128;0.025944956;0.23112896;0.012573284;-0.19957821;0.07957663;0.03265002;0.24709302;-0.27474007;0.16640717;0.24141766;0.45331618;0.38431922;0.2672035;0.06701995;0.030650372;0.29198304;-0.07248639;0.020516107;-0.07190537;0.37284607;0.016898979;-0.030399403;0.009136982;-0.23942468;-0.17351763;0.095912665;-0.17682603;0.05428891;0.10240813;0.04654363;0.19355431;-0.06472168;-0.4548333;-0.12622552;0.2214186;0.25844425;0.33521473;-0.068508;-0.050260626;-0.01841917;-0.12388223;-0.20001458;0.10636419;0.13528058;0.3169846;0.051229555;0.05179892;-0.031487286;-0.004356547;-0.060524996;0.24035645;-0.08316177;0.047622986;0.29497173;-0.08859707;0.021915082;-0.18720949;0.06746736;-0.03905026;0.11880604;-0.083042674;-0.065016955;0.004082565;-0.428764;0.14410228;-0.037398417;0.04570253;-0.42569873;-0.049250852;-0.33146793;-0.21594886;0.017864767;0.09167376;0.016232826;0.0062994743;-0.2414101;-0.047375154;0.17440267;0.0043151593;-0.100392;0.5425751;0.008331426;0.02653009;0.033355776;0.42714122;0.048733287;0.21810772;0.06205184;-0.36962414;0.094779104;-0.1058168;0.037886046;0.03040082;0.038956527;0.26033264;0.17844623;-0.0045056096;0.035242297;-0.0080648735;-0.07143792;0.2066186;-0.0908387;-0.05436835;-0.014732078;0.19017905;0.27848822;0.014076578;0.3838213;-0.2945745;0.17179126;0.18517876;-0.04762354;-0.09956981;0.036160264;0.047405895;0.0022293832;-0.0050217817;0.1116643;-0.044249903;0.046082076;-0.04564716;0.15307806;0.021981103;-0.10376797;-0.02343752;-0.22724958;0.1433506;-0.004926638;-0.030621344;0.046752125;0.1731478;-0.16518229;-0.39103094;0.008446571;0.236023;-0.04117807;-0.08139069;0.030276313;-0.043265406;-0.18231885;-0.10273805;-0.1060137;-0.095844194;0.037574004;-0.05954596;-0.06473559;0.052311946;0.0054001617;-0.028553467;0.11784786;-0.0853295;0.024228234;0.044698518;-0.047399525;-0.004102047;-0.014877821;0.0544496;-0.118252575;-0.2284014;0.024041884;0.09824489;0.25350985;0.040806618;0.50358564;0.18789186;-0.6041447;-0.017685976;0.6085558;0.22183122;-0.10786875;0.044311017;0.21649718;-0.08232684;0.008859149;0.030688262;0.1716793;0.117328964;0.09203274;0.14060755;-0.010858832;0.013435717;0.28087273;-0.16227633;0.39356592;0.0074323188;-0.00055240054;-0.024823813;0.018122612;0.13765611;0.0071776053;0.008921889;0.20609929;0.11047242;0.11534683;0.52496237;0.0059250407;0.38617787;-0.075278334;0.03523877;0.090381674;0.07024597;-0.025475372;0.041476805;0.043290786;0.15424104;-0.064053014;-0.02228436;-0.08762229;0.16841201;-0.012783367;-0.14930494;0.012593807;0.053728458;-0.18155292;-0.03377223;0.3233435;-0.012104411;-0.03195622;0.32644916;-0.05578747;-0.16396478;-0.05576071;0.34256294;0.20543288;-0.18144192;-0.011434406;-0.037288297;0.01949272;-0.08867889;0.06272184;0.12783605;-0.035645176;-0.17837103;-0.08945833;0.00042440963;-0.09382736;-0.34467748;-0.12526351;0.06866178;0.19974333;0.005428562;-0.13652994;0.14899273;-0.015670175;0.076417916;-0.20789793;0.08675426;-0.041845165;-0.10353273;-0.13155662;0.22109944;-0.15807135;0.039888557;-0.06715272;0.065080546;-0.01379199;-0.0713759;-0.058023818;-0.045964442;0.089388184;-0.03728862;0.026696132;0.025480703;-0.011689645;-0.109661035;-0.08397199;-0.008676366;-0.03959673;-0.40198708;-0.14723475;0.007090993;0.03852107;-0.021728858;0.036494967;0.087273926;-0.28306592;-0.0014018379;0.036599416;0.19892326;-0.2956448;-0.0037826071;-0.011104173;0.17903;-0.19695146;-0.12152212;0.27279848;-0.47804376;-0.08777153;0.35499898;0.4016408;0.06546979;-0.052737594;-0.018349858;-0.078651406;-0.44813937;0.29109016;0.038546592;0.33350617;-0.022097904;0.070522025;-0.0152020715;-0.09891926;0.04247839;0.06038978;-0.24957697;0.18349975;0.19025426;0.4072812;0.022007339;0.11706567;0.048271224;-0.03847601;-0.042102426;0.13835594;0.1439625;0.04209662;-0.00252335;-0.27501455;0.07825845;-0.085875705;0.46656957;-0.026528832;-0.035225775;-0.014119695;0.18505199;0.11983715;-0.015524401;0.17709863;-0.028348928;0.42682403;-0.046705127;0.029539756;-0.18870822;-0.014720119;0.05718328;0.30757526;-0.002740039;-0.46479347;-0.026902145;-0.033106595;0.018511772;-0.09225328;0.063436404;0.066733785;0.2394328;0.015441347;-0.18773004;0.037314083;-0.14452359;0.012988391;-0.0728414;0.09669508;-0.23760638;-0.016875485;0.026745373;0.010424325;0.4187246;-0.06744625;0.056663375;0.04129589;0.020755721;-0.3740351;-0.0011617211;-0.23982522;0.06579465;0.09514436;-0.061635196;0.008876981;-0.02491537;0.21788542;0.0737783;-0.0765577;0.05006098;-0.030967781;-1.5513728e-05;-0.03164057;0.28665864;0.06276344;-0.05260222;-0.015555965;-0.048415236;0.13193552;0.09408726;0.23882312;0.19895169;0.054112162;0.19296023;0.114107326;0.1810837;0.015822513;-0.0151897315;0.07589125;-0.024807403;0.09894054;-0.21659017;-0.078479186;0.19646052;-0.02574592;0.4036015;-0.041636836;-0.048235856;0.012713075;0.0051291217;-0.021798113;0.10369691;0.031363554;-0.24220672;-0.043474026;-0.22125317;0.057231653;-0.07852948;-0.15414873;0.23077105;0.042539846;-0.0004951861;0.31919998;-0.31703728;-0.19569367;-0.29988906;0.020433856;0.2703263;0.2080468;0.064656496;0.3034191;0.007581362;-0.009457313;0.06039914;0.018520758;-0.26052266;0.3147191;-0.027565025;0.20363197;0.0610375;-0.05974986;0.05167293;0.4218716;-0.039407097;-0.2974817;0.07432076;-0.05630016;0.058024675;-0.02757646;-0.041889228;-0.024643378;0.37832153;-0.17447795;-0.031312104;0.3194074;0.42370117;0.013631632;-0.31081104;-0.081211776;0.07101977;-0.02383717;0.23060216;0.045346312;0.025255913;0.060060237;0.057349976;-0.020834219;0.2582189;0.06514915;0.09048168;-0.16559677;0.025590774;0.0829847;-0.058738407;-0.011258097;-0.06859667;-0.26661134;0.11746595;0.15802415;-0.017508384;-0.18154392;0.054046333;-0.2620109;-0.006722405;-0.10884026;0.32812825;0.26040223;-0.022039963;0.23287281;-0.028091475;-0.06016505;-0.04857357;-0.058683887;-0.03342752;0.3769743;-0.41806993;0.55215687;0.18294652;0.02465843;-0.31605268;-0.024581917;-0.056320835;0.05048075;0.032444198;0.2548394;-0.32230327;0.0039937682;0.031885155;0.05004619;-0.15547863;0.031531155;0.20345315;0.06802759;0.118865825;0.17217176;0.13594435;0.03669924;0.07501827;0.29512733;-0.028839882;0.07969044;0.05861832;0.14538047;0.033993777;0.5142567;-0.21094812;0.34302542;0.0016966946;0.00560246;0.22480969;0.036731876;0.19437096;-0.032638397;0.010514813;-0.027676465;0.03321913;0.037686765;0.08791124;-0.053188365;0.12123378;0.03459855;0.2778082;-0.007845434;-0.046433486;0.40361583;0.27422848;-0.40806052;-0.026618456;-0.28387433;0.38654023;-0.25997314;0.416381
0.07232587;-0.010469033;0.21535076;-0.006849139;0.032109708;-0.051371586;0.000819701;0.4533851;0.35145247;-0.022664873;0.20665067;-0.1793035;0.077236235;0.09292282;0.042564746;-0.41153598;-0.06068617;-0.013262014;0.01496128;0.14893915;0.015884332;0.19575958;0.018767409;0.0035655075;-0.0036388524;0.45535457;0.6492697;0.15215763;-0.16803513;-0.014233574;-0.26503938;-0.007889572;0.12969889;-0.055086505;0.048646472;-0.04148047;0.081186526;0.1713702;-0.14020523;0.18418032;0.20193055;0.3231783;0.34510732;0.2331165;-0.029167015;0.053503156;0.3156056;0.10422923;0.003419193;-0.221002;0.3000309;-0.045283135;0.035466906;-0.102097526;-0.1571142;-0.13799836;0.14194341;0.010603762;-0.09402724;0.060205672;-0.09241525;0.09342457;-0.018358737;-0.28432256;-0.1168953;0.23096003;0.2243604;0.29330105;0.058375068;0.06931789;-0.047287874;-0.09122308;-0.27921894;0.10839727;0.18003348;0.25469288;-0.045553487;-0.05346587;-0.013719836;0.022167096;-0.10126291;0.075938895;0.025828013;-0.004382618;0.13389887;0.12996434;0.04991757;-0.033786185;0.043933783;-0.13970847;0.015939586;-0.078076825;-0.09718339;0.096024066;-0.37186924;0.26857084;-0.074913934;0.10708951;-0.318388;-0.003128353;-0.2541438;-0.16019675;-0.023460094;0.014671512;-0.05090896;-0.047171958;-0.15014587;-0.05546426;0.13888635;0.0049884245;-0.041063588;0.6764729;0.0050626146;0.13967416;0.005708257;0.28153056;-0.030411111;0.15080541;0.0888996;-0.24229991;0.10419613;-0.103389695;0.12415795;-0.014861916;-0.025006453;0.1630885;0.13022427;0.015271052;-0.033843677;0.035194512;-0.14829615;0.3573624;0.017595356;0.020610098;0.050720386;0.10103019;0.3340639;0.07496679;0.47829446;-0.39602375;0.111395985;0.061204992;0.027167698;-0.08151401;0.07395488;-0.05650497;0.03345011;0.07224203;0.14896792;0.018100642;-0.049666453;-0.045321655;0.03220506;-0.048628606;0.023380334;-0.04885394;-0.336378;0.1413186;0.09216229;0.12632315;-0.0014634533;0.026697213;-0.25461584;-0.33350617;0.09613272;0.34650064;-0.012278457;-0.005051441;-0.043732937;0.06327161;-0.20306353;0.06732281;-2.2325728e-05;-0.058687743;0.048800662;-0.18973316;-0.028298229;0.12752983;-0.032782793;-0.048833605;0.048522238;0.0048726182;0.04230253;-0.0527909;-0.07100575;-0.008010124;0.15658885;0.05769725;-0.07136799;-0.1095604;-0.045895617;0.065141276;0.18384749;0.0095697325;0.63799185;0.23321743;-0.46072114;-0.122489795;0.4056798;0.13178544;0.02304542;0.021407174;0.24465026;-0.13507846;0.15023386;-0.04438187;0.032177035;0.13438992;0.17470649;0.08704273;-0.03337966;-0.019183405;0.17017983;-0.07088549;0.4549853;-0.0032022286;-0.023649888;-0.035001006;0.14488232;0.11709066;0.061145082;0.006516675;0.027111376;-0.044576827;0.02645631;0.5067297;-0.1082337;0.39537892;-0.015741287;0.024755886;-0.054087497;-0.011798127;-0.052433245;0.098104715;-0.07828362;0.18142635;-0.07318473;-0.05611681;-0.13368465;0.10860517;0.06683892;-0.16768654;0.00752671;-0.06964261;-0.10347754;-0.03997935;0.3963491;0.01930055;0.062111087;0.20276389;0.035014965;-0.20908232;0.011249261;0.2256397;0.10898882;-0.1720139;0.011119761;-0.028316371;0.009886039;-0.022461964;0.20901318;0.11462847;0.06684729;-0.06778778;-0.027150668;-0.048288167;-0.10607663;-0.4123903;-0.1558411;-0.032801524;0.19496511;-0.04731631;-0.25603095;0.07610007;-0.026365452;0.08492891;-0.15527001;0.13124876;-0.031383283;0.026857594;-0.13649003;0.34625137;-0.1692366;0.032794517;0.023666808;0.11675365;0.07481215;-0.009305214;-0.020141762;0.030018942;0.0663343;0.0005896834;0.04298048;0.17317358;0.044533778;-0.07120654;0.069494985;-0.024406713;-0.020142969;-0.33150432;-0.06534015;0.04208957;-0.028248392;-0.04453207;0.013258351;0.010312357;-0.24117684;0.051028114;0.12380562;0.2083293;-0.22584376;0.091642104;-0.030142715;0.039076645;-0.26810586;-0.13454746;0.2867223;-0.53561705;-0.0045397906;0.29542193;0.3238039;-0.008229873;-0.052544963;-0.008123735;-0.07225715;-0.37270087;0.09509388;-0.06440084;0.40456507;-0.055286173;0.059448052;-0.05045098;0.052228574;0.055469435;0.016893502;-0.19120488;0.16636944;0.23295094;0.43912047;-0.015685052;-0.0024027966;0.06843666;0.06377978;-0.023053583;0.16312812;0.19744651;-0.07482473;0.050146542;-0.2437124;0.054387037;0.09808446;0.45341018;0.04643131;-0.027107477;-0.025789538;0.20069999;0.10211672;-0.03417372;0.24454415;-0.011352809;0.3590236;0.067136906;-0.032039728;-0.286339;0.077768706;0.05426964;0.1244509;0.11864182;-0.4247609;0.04548026;-0.02085043;-0.043949567;-0.19258401;0.063154556;-0.023521904;0.22637461;-0.027076848;-0.21532361;0.009962024;-0.1584453;0.007324321;0.059384454;0.07139917;-0.25489837;0.026486801;-0.028774912;-0.060081393;0.24686012;-0.019195579;-0.03807456;0.05294901;0.012578379;-0.27877095;-0.06564463;-0.17310667;0.12867737;0.039406545;-0.11345362;0.0031443706;-0.057692654;0.1797184;0.04843452;-0.0038675673;0.042055972;0.05047011;0.009506178;-0.101693206;0.26450276;-0.057393935;0.03788954;0.08431031;0.17263962;0.13877007;0.12125352;0.14933905;0.17587899;0.22540207;0.1804667;0.06690465;0.15276839;0.096265174;0.011625472;-0.03462531;0.041100584;-0.058423463;-0.23412327;-0.25441778;0.25127828;-0.024238758;0.313534;0.04268089;-0.1347619;-0.018948974;0.08137686;-0.013955552;0.24190399;0.11223338;-0.053432755;0.060190856;-0.14690712;-0.06802863;0.0030486523;-0.15519372;0.33750555;-0.007066614;0.016982289;0.37935913;-0.08600967;-0.18619531;-0.34018302;0.08767148;0.32751468;0.14271452;-0.08115586;0.3069334;0.06805856;0.024832038;0.1437425;-0.049676027;-0.29736066;0.17005967;-0.016282553;0.27413383;-0.04893431;0.09162378;-0.09524294;0.49332562;-0.0061288076;-0.25718853;-0.009202588;-0.16554607;0.0603189;0.05476277;-0.044692595;0.06632767;0.4279694;-0.22482222;-0.053158816;0.27624136;0.38020238;-0.10483995;-0.3533048;0.05504871;0.06434916;0.03172455;0.1566691;0.026340282;-0.06984486;0.024158066;-0.06425165;-0.027382005;0.14569782;0.040901475;0.26186052;-0.08716079;-0.03952717;-0.038038235;-0.06843109;-0.00024402405;0.057686605;-0.24218872;0.15016006;0.23448662;0.07880561;-0.0820249;0.038463484;-0.19666673;0.01805727;-0.10801867;0.4137665;0.25468847;0.070413165;0.11887202;-0.009789313;0.033404894;0.07219085;0.03782446;-0.014358774;0.555017;-0.5766641;0.42265892;0.16260165;-0.009746387;-0.37021488;-0.016099652;-0.001851528;0.025847604;0.0639509;0.36329615;-0.15635131;0.041563712;0.058333863;0.17916799;-0.011622673;-0.0092400275;0.04749608;0.047095507;0.24296977;0.024701262;0.2380538;0.03791397;0.032851335;0.35162348;-0.08611051;0.07551743;-0.04356667;0.22238511;0.048402913;0.4713477;-0.21325122;0.41504624;-0.010329481;0.025997542;0.12055166;0.16417822;-0.009266798;-0.00021010316;-0.06885068;-0.034149997;0.00911762;-0.03264064;0.004374812;-0.026297363;0.18729636;-0.104887776;0.3295751;0.05555229;-0.05135225;0.4033941;0.29013884;-0.39045292;0.05070867;-0.1646197;0.43585703;-0.14661808;0.48696887
0.01005909;0.09286583;0.3196813;-0.03587575;0.036869656;-0.042094797;0.016528482;0.4842796;0.34889427;-0.1803352;0.31471446;-0.1440936;0.0137114385;0.14574091;0.073170245;-0.3528981;0.07577536;-0.016754415;0.062110454;0.1435098;-0.048266377;0.23281151;0.057084106;0.0131468335;0.02004583;0.4843255;0.44632965;0.3196703;-0.22824262;0.001956974;-0.36122423;0.00089271815;0.14327523;0.06315067;0.027908744;-0.012124724;0.0015936502;0.13917764;-0.0035637429;0.21836075;0.17520592;0.30426005;0.2782904;0.16055863;0.0031280417;-0.034216408;0.13169663;0.0774952;0.0016311624;-0.23137166;0.22847763;-0.0045901756;0.009502045;-0.02747818;-0.22420834;-0.09997348;-0.03460753;-0.019517282;-0.061504006;-0.07848027;-0.027017869;-0.022110589;0.03469359;-0.26696363;-0.03352303;0.345927;0.1641492;0.36212662;-0.09488479;-0.05225499;-0.008967216;-0.2035388;-0.18605652;0.070202954;0.18253398;0.28529763;0.024340674;-0.045606453;-0.012331661;0.029601356;-0.056436084;0.14893486;0.059997648;-0.08539637;0.08286149;0.15726979;-0.05256354;-0.08955256;0.008398059;-0.17715293;0.122923285;0.028430507;0.07958109;0.017360533;-0.36080968;0.10268638;-0.07906908;0.17987145;-0.296476;-0.08627223;-0.21735857;-0.15462114;-0.031125296;0.02110491;-0.05953977;-0.0033135873;-0.23892981;0.09465085;0.23869453;-0.040549688;-0.028699843;0.60592145;-0.00010092356;0.19894628;-0.034934144;0.30925414;-0.008493595;-0.081140764;0.09792229;-0.080535576;0.052130446;-0.01712089;0.12564577;-0.011361259;-0.080786265;0.21232948;0.28365102;0.18389736;0.0029115924;3.5446526e-05;0.0023421366;0.43521354;0.11073091;0.049079273;-0.0016048283;0.012786071;0.28429386;0.025283631;0.41862646;-0.25009203;0.16902718;0.044429455;-0.012949345;-0.14461818;0.0035706325;-0.0364535;0.005335221;0.026752936;0.16827574;0.101540424;0.088588074;-0.018233605;0.06431496;0.014486052;-0.06618383;0.011823634;-0.34031382;0.14723481;0.0343416;0.15685172;-0.07547292;-0.02309693;-0.12884542;-0.21461262;0.10493327;0.47128844;-0.066193655;0.023903523;0.023361092;0.018011628;-0.12928705;0.092803106;0.032579944;-0.14540938;-0.07377285;-0.090933785;0.07443078;0.18047763;0.03202248;0.051838126;-0.1758029;0.024428582;0.055019133;-0.020191768;-0.02483617;0.109246545;0.0342931;-0.017731087;-0.015477806;-0.12556665;-0.031181758;0.048094183;0.2057104;-0.0781311;0.6458108;0.15558127;-0.53835434;-0.11404905;0.4549467;0.27536562;0.028343927;-0.050640795;0.15217382;-0.121774115;0.17720975;-0.07441681;0.052259285;0.15696776;0.1751693;0.08642937;0.05085258;-0.027194;0.31303978;0.106527284;0.36142147;-0.01494959;0.033517018;-0.008439644;0.20599228;0.1352959;-0.03744649;0.0068245227;0.1045139;-0.064577125;0.020502076;0.4348322;-0.10245368;0.30644047;-0.01535735;0.06261964;0.049609087;-0.054932397;0.032305706;0.17167558;0.047424484;0.062907316;-0.16357581;0.014675291;-0.11643607;0.12923029;0.02520665;-0.10818501;-0.005745977;-0.04361101;-0.025432173;0.0765512;0.28982073;0.06628045;0.059027515;0.16802344;0.050760306;-0.13252656;-0.09944879;0.34808898;-0.0057339715;-0.132952;0.0874149;0.046184853;-0.026891317;0.04031059;0.19685477;-0.06544486;0.01956098;-0.18496288;-0.012703428;0.017271794;-0.2941071;-0.35188112;-0.17698899;0.09371509;0.2784363;-0.023626857;-0.25777945;0.19379236;0.025648633;0.14049615;-0.07537042;0.10072114;-0.042669177;0.034533244;-0.1488531;0.23893374;-0.042493142;-0.017716566;0.012852843;0.17521629;-0.038676377;0.05061401;-0.012040751;-0.020502424;-0.035428658;-0.067124404;-0.07406806;0.11845226;-0.050779223;-0.06147098;0.06796261;-0.048650052;0.1072172;-0.18040206;0.09415849;-0.014994712;0.04894549;0.048462044;-0.014657652;0.10886355;-0.18833922;-0.050557323;0.11346623;0.18054725;-0.28606167;0.11093615;0.07619548;0.16201779;-0.09477585;-0.06643311;0.13673088;-0.6265614;0.0053625335;0.31052238;0.37103844;-0.055819385;0.06940546;-0.15474783;-0.069198504;-0.3699538;0.106642604;-0.122601315;0.3811337;0.028348174;-0.005477853;0.06987869;-0.10916268;0.062590994;0.095292464;-0.24084587;0.162524;0.10545963;0.26232302;-0.03483267;0.054208;-0.046475906;0.08603389;0.044778947;0.1286236;0.24732795;-0.023966514;0.09161963;-0.10512156;0.031142881;0.10327505;0.38512224;-0.016772617;-0.112390324;0.07018597;0.16136505;0.09409601;-0.09789365;0.10574396;0.06125107;0.40438583;-0.08115247;-0.008244989;-0.3082724;-0.020009248;0.057950266;0.28139085;0.013405792;-0.40255457;0.20814161;0.055012874;-0.021210756;-0.058515415;-0.020803725;-0.018849256;0.32669672;-0.07419498;-0.20859386;-0.09098323;-0.035207033;0.04893887;0.19555943;0.05834734;-0.1993359;-0.050049722;-0.049143568;-0.014564258;0.2538927;0.051916283;0.036750425;0.14527187;0.055847354;-0.44077942;-0.0666117;-0.12655938;0.03642544;0.0949728;-0.019497963;-0.050685298;-0.0665919;0.020267986;0.13268912;-0.11819926;-0.04605735;-0.08085426;0.005873803;-0.21383306;0.23416634;-0.037389863;0.018427232;0.048397627;0.2622869;0.019291097;0.0067651207;0.21827775;0.08201792;0.3223718;0.21562172;0.1358493;0.060051188;0.06866835;0.14701359;-0.060326137;-0.09403132;-0.079586014;-0.33777523;-0.31528553;0.19669132;0.08487136;0.26161656;-0.053412803;-0.13316679;0.003213063;0.0903078;0.044991884;0.099946424;0.01908875;-0.0026784025;-0.033776417;-0.08778498;0.012412555;0.040799182;-0.10915544;0.23925166;0.054846518;-0.03265933;0.35898438;-0.0990225;-0.12103253;-0.40453416;0.07869154;0.21358374;0.187329;0.03182539;0.24438576;-0.03835082;0.018303309;0.14509873;-0.023664575;-0.22186255;0.27014053;0.01882017;0.26648092;-0.04896836;-0.031636976;-0.0537165;0.40731567;0.08609856;-0.27055934;-0.057132702;-0.25502288;0.03159545;-0.030068235;-0.02378502;-0.021803377;0.3894468;-0.25486895;-0.026772989;0.26285768;0.35424435;-0.01555149;-0.31542963;-0.021722324;-0.034928694;-0.1116136;0.053020164;0.024997216;-0.035732113;0.061081607;-0.019927649;-0.07070467;0.15092203;0.036491375;0.16704479;-0.033335656;-0.037924718;-0.049967956;0.03366836;-0.10746527;-0.05696284;-0.24450175;0.12298648;0.24217781;0.066614345;-0.030719578;-0.026269123;-0.2875171;-0.07001878;-0.06452879;0.36721396;0.25441244;-0.06571223;0.040696327;0.041361917;0.06272259;-0.013211654;-0.041113146;0.00083352544;0.49472296;-0.49015325;0.4348543;0.17803603;-0.0764186;-0.30304214;0.17564681;0.011676858;-0.0838037;-0.006317662;0.26002157;-0.24395041;0.011725964;0.18113902;0.23245545;-0.09287531;0.025339764;0.09173101;0.07873993;0.20964259;0.102037944;0.19186036;0.017061783;0.15358351;0.3721136;-0.016642222;0.017499905;-0.04333671;0.32601318;0.02122693;0.2787577;-0.1985494;0.37126026;0.025170207;0.019305019;0.14258307;0.117306165;0.054420475;-0.041687712;-0.00017873853;0.052375104;0.123819835;-0.0003258747;-0.11930889;-0.02503147;0.13030177;-0.015574321;0.4003993;0.012302208;-0.040186096;0.29583478;0.28341994;-0.40239742;-0.0560764;-0.1707837;0.34851128;-0.09996451;0.3572896
-0.0007775041;0.086269796;0.26773718;0.008429929;-0.08887529;-0.015199064;0.01683922;0.37825155;0.30864346;-0.20194244;0.21164289;-0.15534976;0.10157287;0.13702938;-0.0042741643;-0.35290828;-0.021959303;0.05980882;0.02221455;0.033509128;-0.0386945;0.07502888;0.03669169;0.008244398;0.046675105;0.3858303;0.4936136;0.2325099;-0.27695304;-0.038795862;-0.36649007;-0.038044233;0.109463535;0.05204109;0.103279844;-0.03990326;0.024791848;0.21899682;0.05688574;0.260754;0.15470691;0.37952435;0.26442105;0.08122116;0.03774392;0.043712277;0.21924937;0.13005671;0.057593897;-0.25443792;0.2274501;0.0358578;-0.066680044;-0.12711759;-0.38936067;-0.0874914;0.09759494;0.09215416;0.036086254;-0.009081796;-0.009642818;-0.06870758;-0.02481328;-0.32144856;-0.11060279;0.25846738;0.24879828;0.31800056;-0.06865398;0.061408374;0.028504195;-0.10047019;-0.13478786;0.023935162;0.14700133;0.20379311;-0.015629444;-0.0067497;0.021621156;0.050008442;0.051309347;0.25432214;-0.019618165;0.027202552;-0.11728117;0.016382866;0.034330267;0.015832163;0.024640346;-0.12752363;0.012736625;-0.020920772;-0.06525904;0.034788515;-0.35574603;0.04929279;-0.16853194;0.20711182;-0.3779502;-0.032314207;-0.2028507;-0.18431544;-0.05724789;-0.023713402;0.0014063031;0.030044483;-0.3404102;-0.026723197;0.31005588;-0.03911058;-0.055408545;0.51209915;-0.005424571;0.22599979;-0.09988435;0.37095386;-0.0021922865;-0.1653723;0.014700145;0.006973977;-0.05248426;0.006329183;0.072903834;-0.0078124786;-0.060786493;0.17404574;0.20032357;0.17548032;0.051934958;-0.06298377;-0.11487249;0.2674178;0.055056788;-0.02687693;-0.057957474;0.04476638;0.25303;-0.06558048;0.43169907;-0.3157016;0.1769191;0.10452662;0.023505604;-0.15612057;0.08259732;0.05768572;0.0008467601;-0.017633213;0.07923367;0.14142157;-0.017461004;0.01212982;0.0031687997;-0.0823874;0.08259136;0.01306115;-0.17888989;0.23260026;-0.055504378;0.108434744;0.005149046;0.00967468;-0.13902473;-0.12020782;0.14895982;0.40766245;-0.053959165;0.04079431;0.035056923;0.01380492;-0.094990715;0.022221105;0.009013676;0.009622626;-0.0363414;-0.03378657;-0.044646747;0.200434;0.05850694;-0.07913125;-0.10766847;0.12708928;0.0051677707;-0.047298864;0.06394466;0.040531233;0.07515942;0.039570186;-0.025218492;-0.1552269;0.057838038;0.09188061;0.04991197;0.07529027;0.4889414;0.16662352;-0.5658645;-0.027956367;0.4992133;0.22439422;-0.0009303636;-0.005932446;0.29835072;-0.02184925;0.21544527;0.05020862;0.06342132;0.22830185;0.1977975;0.19329594;-0.04647633;0.014413756;0.33641163;0.15467535;0.45230466;0.07602099;-0.005723209;0.04773925;0.18627928;0.11645333;-0.062005237;0.01703462;0.010386391;0.013902167;0.06794758;0.44927564;-0.022148127;0.22234052;0.01216518;0.091116816;0.07060708;-0.056457862;0.007813362;0.049796615;-0.04576533;0.072652645;-0.21250644;-0.057179347;-0.12543222;0.034037683;-0.02787727;-0.085770264;0.06767108;0.049393047;-0.07427528;0.03580441;0.24217714;0.05135271;0.050145794;0.15287963;0.058951955;-0.033526648;-0.1493832;0.2637203;-0.038431246;-0.15162815;0.130343;-0.016903557;0.06317479;0.022140576;0.20315726;-0.06578987;0.04772959;-0.16001263;0.029981777;-0.06417671;-0.32622755;-0.3774721;-0.17684138;-0.06982959;0.1390133;0.015618627;-0.34532368;0.13024923;0.019939587;0.060779866;-0.025107902;0.11624892;0.04410779;-0.06849893;-0.16918087;0.29743713;-0.025327686;-0.016652307;0.019979034;0.14411621;0.06385007;-0.046573393;0.035485182;0.047194142;-0.05420526;-0.007830714;0.078798175;0.15675397;-0.03454727;-0.069949135;0.12965623;-0.05775538;0.20171167;-0.1046907;0.09964593;0.05644312;-0.041064475;-0.10077324;-0.032928668;0.15660752;-0.18417968;0.08666178;0.04696982;0.19448696;-0.36575383;0.23178382;-0.058398362;0.13535756;-0.10602114;-0.062390346;0.23294146;-0.68173814;0.01748944;0.25590792;0.3967812;-0.028904896;0.0015014835;-0.10720595;-0.1265854;-0.32703847;0.1793388;-0.10471398;0.2762306;0.041855663;-0.05799644;-0.06047237;-0.00085248647;-0.061075833;0.056700163;-0.102675885;0.103418626;0.1406254;0.28058863;0.044208255;0.045176446;-0.012623955;0.0070859888;-0.049246185;0.18426062;0.28222668;-0.011424737;0.01743596;-0.16589683;0.07329012;0.13234042;0.3299604;0.052019995;-0.049444817;0.084568664;0.16374531;0.13173936;-0.032546297;0.14821237;0.02403178;0.35108742;0.055779375;-0.03226484;-0.31056076;-0.02559023;0.016959403;0.26220712;0.05901293;-0.36431238;0.12549053;-0.05223496;-0.09598943;-0.14932314;-0.003345639;0.01601749;0.3358648;0.015594197;-0.29151255;-0.008360725;-0.121758886;0.045209996;0.09409561;0.0685596;-0.25515985;-0.05066677;-0.054840084;0.03723443;0.14112446;0.07705845;-0.039872672;0.11538079;-0.061610114;-0.4543553;-0.030124832;-0.14618649;0.008269809;0.062148724;-0.04202886;-0.07505842;-0.041114382;0.13551202;0.13960087;-0.09754797;-0.04599037;0.076631926;-0.057421464;-0.09630543;0.15456173;0.07090743;0.03843886;0.03940323;0.2972199;-0.10385048;0.114100665;0.18781868;0.05187229;0.30069748;0.22815931;0.16301143;0.118259326;0.09542689;0.12452252;-0.1403359;0.04492096;-0.12557372;-0.21730599;-0.46714687;0.1789557;-0.04030912;0.32536587;0.107510686;-0.11357416;0.044207893;0.050585058;-0.051149335;0.19791079;0.040958166;-0.12908487;-0.026060736;-0.13216679;0.056883577;-0.007879474;-0.12307066;0.2977061;0.053358372;0.06826169;0.28852317;-0.1407259;-0.19013426;-0.32863757;0.11639076;0.3796062;0.15978758;-0.03457044;0.07493795;-0.03301575;-0.040443394;0.06641832;-0.00022315445;-0.23735583;0.13757211;0.0593584;0.18327151;-0.047735404;-0.00672951;0.0486395;0.36056527;0.07523447;-0.16348928;0.13793431;-0.30044684;0.067401916;0.029808547;-0.11162938;-0.034314;0.34660494;-0.16769409;0.013689228;0.17612086;0.3365067;-0.026637817;-0.22286515;-0.015166026;-0.045814715;-0.0036732417;0.14731918;0.048566546;0.037710894;0.07571964;0.05208622;-0.0122989975;0.20790438;0.013784074;0.19663866;0.08196217;0.007770018;-0.031895325;0.016738143;-0.023386871;-0.05892567;-0.15763704;0.12775815;0.091279924;0.010037285;-0.027538927;-0.012385055;-0.3065879;0.077788725;-0.06986622;0.35810956;0.13794564;0.020106701;0.026501672;-0.06242069;0.0432088;-0.08733701;-0.059410412;-0.007978305;0.46196434;-0.48344088;0.44889775;0.25825545;0.051014457;-0.2611991;0.07064566;0.02237373;-0.01148919;0.01987146;0.2500497;-0.22369479;-0.06916537;0.15984404;0.13005126;-0.05461972;-0.01634061;-0.032295775;0.20848031;0.10053119;-0.0004869619;0.11883275;0.023050224;0.14951229;0.20204334;0.06963196;0.03160894;-0.0031400041;0.37510648;-0.033404626;0.33035943;-0.1055115;0.3925321;-0.022945028;-0.0029521424;0.23629966;0.23439205;-0.14539889;0.0775946;0.021486223;0.0086556105;-0.023917545;0.010457604;-0.13976772;0.025670694;0.11937431;0.00023498786;0.3150425;0.005476814;-0.0013941207;0.29226494;0.18706203;-0.36295855;0.07389414;-0.11462162;0.4288838;0.0011744688;0.42751098
0.05721222;-0.05277219;0.27175033;0.017809581;-0.005890292;-0.044331342;0.13731252;0.28060454;0.22711533;-0.024932286;0.26069486;-0.036083892;0.031239871;0.00803982;-0.0067168414;-0.23580024;0.026660603;-0.053109955;0.100907065;-0.08132177;-0.10142551;0.17178945;-0.021197082;-0.024702359;0.17267099;0.32657972;0.44137526;0.25234288;-0.258224;0.08799781;-0.35826045;0.026408847;0.15235658;-0.008797289;0.16133234;-0.0626959;-0.07106734;0.050031554;0.06910685;0.1796269;0.17441617;0.37067625;0.17866804;-0.030641817;-0.038555663;0.057962455;0.17525665;0.03365833;-0.06524292;-0.25386497;0.2458266;-0.008916541;0.05285585;0.009563196;-0.31653294;0.0026529615;-0.025547808;0.0207409;-0.012723676;-0.071887866;0.02517451;-0.036432635;-0.013120941;-0.21813786;-0.09044096;0.16466835;0.07237127;0.2957117;-0.08811704;-0.09088212;0.0026573744;-0.090949655;-0.15071982;-0.0846181;0.14657573;0.28284872;-0.08163703;-0.031892236;0.0015936296;0.052344453;-0.048991766;0.30971485;0.0331897;0.042034857;-0.039363373;0.0012857573;0.029237231;0.06787632;-0.008567497;-0.13282642;-0.024351198;0.03625714;0.053035345;0.14517541;-0.40042692;0.045695674;-0.111948535;0.15671022;-0.40880778;-0.0060980325;-0.31771868;-0.20662385;0.012136437;-0.02517323;0.0070249;-0.04333134;-0.39192733;0.07989426;0.27498564;0.070557036;0.024713978;0.60296774;0.07987408;0.15473802;-0.021002842;0.27903137;-0.09515398;-0.15776978;0.14502266;-0.018111551;-0.119900145;-0.032980874;0.16199885;0.056334604;-0.14359231;0.19054294;0.21641877;0.13261597;-0.0017738824;0.01786083;-0.042405993;0.2673546;0.11785269;-0.04809724;-0.18333925;0.15424654;0.25333282;-0.023269033;0.37661237;-0.18668577;0.18291162;-0.04031618;0.0030124271;-0.1386297;0.1091969;-0.06283447;0.011817119;-0.024840288;0.17052326;0.038215093;-0.061497364;0.015461107;0.008926833;0.007740491;0.05037924;0.050251726;-0.32229877;0.16974433;-0.15723139;0.24185778;-0.0012498987;-0.05667645;-0.12918247;-0.03097349;0.08796151;0.399934;0.007233313;0.038417134;-0.03442424;-0.041080154;-0.105827324;0.025652492;0.110528186;-0.103132;0.015793655;-0.14828287;-0.016483925;0.11411188;-0.0047451765;-0.13117883;-0.13825846;0.09516035;0.05310568;-0.040782735;0.033571046;0.038645096;-0.045983326;0.04294231;0.0025649813;-0.09127595;-0.06082668;0.034689225;0.12968391;-0.09385376;0.36734372;0.19417824;-0.41318268;-0.16136023;0.5589355;0.1308285;0.15903617;0.08616535;0.22077572;0.043922357;0.12048431;-0.021816956;0.1265651;0.18078618;0.2213127;0.10646749;0.0050078644;0.041485127;0.3221106;0.20305845;0.40290466;-0.0016034427;-0.08491229;0.02848557;0.25950354;0.16095084;-0.009154909;-0.058386043;0.080072425;-0.09759404;0.08635032;0.39587173;-0.055369627;0.17852338;0.07542258;0.06077055;-0.051467463;0.036679212;-0.0006359353;-0.0008978571;0.024140734;0.19059052;-0.2551584;0.06812483;-0.19603598;0.029234942;0.08263064;-0.16667198;-0.04506984;-0.033254705;0.035770785;0.060146965;0.06467532;0.002794694;0.08837418;0.105146475;-0.011592759;-0.25431833;-0.089545466;0.17224678;-0.10861966;-0.20161618;0.07969501;0.05087226;-0.054360725;-0.0575084;0.2620042;-0.05408469;-0.05613901;-0.0060528894;0.02328944;-0.009480545;-0.3749755;-0.36423048;-0.188299;-0.026834898;0.28018618;0.05810049;-0.34084272;0.19482736;-0.04262731;0.04359832;0.11871783;0.0026055414;0.034118716;-0.08956757;0.034745336;0.24706241;0.031718466;0.0087210685;0.021500925;-0.0077804793;-0.010154944;-0.06391656;0.054093406;0.050351582;-0.007563852;0.0067760474;0.06650251;0.22589317;0.057629663;-0.037918307;0.18432729;-0.05884158;0.1068955;-0.25534558;0.09724755;0.015087782;0.06580874;-0.035110626;0.030185727;0.053474654;-0.08061275;-0.01941209;0.06940554;0.21512465;-0.32830423;0.15111466;-0.079227194;0.016495721;0.03742552;-0.04976834;0.21951337;-0.5440632;-0.03402927;0.32555142;0.3670336;-0.0038809641;-0.05331418;-0.15817708;-0.09103496;-0.29560086;0.12158421;-0.0134942485;0.38090214;-0.0073777973;-0.008703238;-0.016204834;0.003581489;-0.055495705;0.1494189;-0.196323;0.19640632;0.13972634;0.33608067;0.0085739335;0.023242416;-0.02206323;-0.08483619;0.05901183;0.082637034;0.22901756;0.037753012;0.07176396;-0.09191131;0.026031412;0.022347853;0.38106033;0.080247924;0.021133928;-0.04948955;0.007923697;0.092593074;-0.043347258;0.03026743;-0.06597478;0.31408653;0.0017142182;-0.03563704;-0.31162038;-0.022175513;0.068168186;0.21650091;0.14506094;-0.44121498;0.20033562;0.023843516;-0.24077193;-0.14808747;0.08724073;-0.012963024;0.3139365;0.038314063;-0.24828243;0.032562274;0.002611619;-0.07297839;0.013066607;0.05560458;-0.33186024;0.027926737;-0.016456898;-0.012797006;0.18713088;-0.033541292;-0.04709261;0.2573283;-0.05231574;-0.38332903;-0.061262015;-0.03352249;-0.039575204;0.13843739;-0.07595674;0.07273638;-0.002639786;0.04019125;0.14188148;-0.03008658;0.042239018;-0.005160259;-0.055915955;-0.1678857;0.1799384;0.022727057;-0.0030132525;-0.027076432;0.31047228;-0.08427002;0.022145376;0.17028426;0.0017863049;0.26497647;0.3328326;0.17463504;0.060138714;0.038352113;0.18164918;-0.04808011;0.041951593;-0.025679396;-0.25331688;-0.45495453;0.15153885;-0.0046397746;0.2583094;0.08336835;-0.07495656;0.044748243;-0.02420002;0.03026871;0.14162353;0.09609559;-0.023765597;-0.0135926185;-0.09326957;-0.015946344;0.008064544;-0.24587344;0.36217514;-0.060304295;0.069561936;0.24784084;-0.17003441;-0.037222363;-0.38430083;0.08070408;0.2176125;0.13756116;0.05095453;0.10373503;0.07551762;-0.12967321;0.121549696;-0.012814185;-0.19479553;0.13251077;-0.023981195;-0.038598888;0.0692392;-0.020082325;0.029085573;0.27823398;0.05393841;-0.26916048;-0.010552323;-0.3010785;0.032163102;0.0038224726;-0.13962701;0.008682292;0.37146255;-0.20265545;-0.09940156;0.1161689;0.25347954;-0.09985802;-0.24224164;0.036192775;-0.05482497;-0.12667733;0.07199557;0.0038381398;0.03368596;0.056011125;0.01677738;-0.12996487;0.098171614;-0.147013;0.21184129;0.07192633;-0.056265213;0.0056049656;0.06493429;0.042117715;-0.036718033;-0.21965405;0.110075325;0.13523854;0.022898046;0.028260088;-0.029751662;-0.36591426;0.03147195;-0.049845967;0.28916135;0.16855177;0.03143134;-0.032391515;-0.07762677;0.027382743;-0.010020044;-0.0062126913;0.0039230026;0.51820654;-0.39169025;0.3064569;0.18562102;-0.049526066;-0.29919145;0.1440554;0.022994258;0.04842231;0.10085788;0.36594707;-0.049273316;0.020643838;0.2042376;0.27086443;0.03511206;0.022863911;-0.0461802;0.29471582;0.10684053;-0.005813861;0.15910168;0.035970572;0.08974324;0.17931867;-0.0026271944;0.045919996;0.071054466;0.3369623;-0.028511548;0.082786545;-0.046621814;0.33771893;-0.043771878;-0.020441195;0.19269417;0.16326086;-0.0517812;0.016547782;0.05021661;0.04669687;0.04714102;0.026832616;-0.1643995;0.015918296;0.17051163;0.06685125;0.4205824;0.03503824;-0.008066933;0.2642964;0.24159755;-0.20365928;-0.050315022;-0.01843719;0.5018384;-0.041960657;0.28786153
