Weights from input to hidden layer.
-0.21248637;0.05433012;-0.049468383;-0.17508924;0.21465187;0.15136632;0.29807875;-0.057440694;-0.116900675;0.15764186;-0.0047701974;-0.28277838;-0.11960691;0.09422279;-0.08802219;-0.0793836;-0.33843297;-0.32042035;0.30684406;-0.0693642;0.112981886;-0.15525298;0.09242678;-0.15658474;-0.07480309;-0.0020751406;0.27692464;0.07276376;0.24893102;0.009368731;-0.071952604;0.24323077;-0.051442318;-0.07556666;0.38267052;0.061603505;-0.12116852;0.080382384;-0.13299268;0.071389034;-0.06648435;-0.1490416;0.2246702;0.28126892;-0.08306206;0.059254024;0.06443021;-0.14463347;-0.31823486;0.1146193;0.24934678;-0.14336258;0.14817901;-0.34494317;-0.15959693;0.010055214;-0.13141802;0.2398432;-0.0063937106;0.040244266;0.1825836;0.053825997;0.22358768;-0.14708373;0.45432174;-0.20720024;0.22364551;0.3489516;-0.33419698;-0.26122835;-0.5033604;-0.32542965;-0.00030786166;-0.05503108;-0.2258126;-0.3074976;-0.25925857;0.11319706;0.09900404;-0.077064835;0.18340586;-0.022949018;0.123371765;-0.06823324;0.14796746;0.117446125;-0.04856946;-0.17903315;0.034955945;0.040618572;-0.16408128;-0.04160539;-0.19199555;0.06417277;0.020626985;-0.27539924;0.34075186;0.20048796;0.023860265;-0.21846528;0.086856514;0.23897772;-0.19116367;-0.018851599;-0.18151993;0.31735203;-0.19034673;0.014365707;-0.2325068;-0.07310699;0.14366102;-0.18293744;0.06598649;-0.4976032;-0.10669955;-0.043404147;0.20541516;-0.26165953;0.23006013;-0.008274802;0.18088676;0.08164195;-0.09200994;0.06849018;-0.11663745;0.123932905;-0.37820753;-0.19852516;0.114470005;-0.0636582;-0.18353936;-0.021061648;0.35943443;0.16283813;0.4346226;-0.22362606;-0.008135868;-0.025818346;0.39574304;0.13674897;-0.1751575;-0.71990377;-0.037118606;0.030580584;-0.13860597;0.2581328;-0.31370264;0.17751905;0.23754172;-0.40616253;-0.19106482;0.0072881053;-0.11572861;-0.1977861;-0.04044968;-0.13556805;-0.2729851;0.15431488;0.06523564;0.0878404;-0.15956978;4.534846e-05;0.23670207;-0.12441257;0.172246;0.058652047;0.078989774;0.13146022;-0.2835822;-0.2729692;0.2101779;-0.51144737;0.2539271;-0.046885107;-0.22361305;0.29285893;-0.18905589;-0.09202605;0.21027724;-0.037832454;-0.122685105;0.1240754;0.23847638;0.13393542;0.13373336;-0.09446788;-0.052987766;-0.18621624;-0.106687024;0.20660092;-0.07266584;0.016753335;0.15890849;-0.10968902;0.25371614;-0.17204218;0.24322782;-0.14503211;-0.2110086;0.27143475;-0.042204652;0.018443674;-0.20747322;0.36673045;-0.26750186;0.047357827;-0.2115811;-0.051889934;-0.10873077;0.04470591;0.31655213;0.10106981;-0.016073424;0.045688704;0.1714292;0.11493289;-0.5699421;-0.19682314;0.4067552;0.2191875;0.4405157;0.039129812;-0.039150096;-0.02149893;0.08276214;0.1228855;-0.09153767;0.19452626;-0.32838583;-0.010559288;0.19230206;-0.033226937;-0.05491568;-0.35094368;0.254116;0.27342618;-0.28085554;-0.2836097;0.018352043;0.23051158;-0.010364774;0.25769186;0.14803058;-0.021457225;0.085255444;0.25854498;-0.33309335;0.019887539;-0.16563325;0.37472868;0.14758353;0.2561467;-0.18390593;-0.41538197;-0.24822314;0.047046144;0.099335976;-5.525058e-05;-0.07663719;0.15388215;-0.094250284;-0.06028067;0.029149652;0.09864581;0.09933118;0.14914723;0.005501964;-0.107698515;-0.057249296;-0.31321725;-0.17359795;-0.0059505254;0.023011101;0.14382881;0.20894857;-0.24877052;0.2544534;-0.4018154;-0.2301937;0.05822081;-0.30955264;-0.20071828;-0.16417937;0.14236087;0.091745675;-0.07125141;0.058748484;0.019654194;-0.00034661865;-0.14288583;0.3569304;0.007448405;-0.0016729955;-0.22710559;0.19306464;0.058189817;0.10090515;0.13520956;-0.5360529;0.4142982;0.40617624;0.019219905;0.019176826;-0.030691167;0.5300768;0.1444692;-0.0038961635;-0.59702754;0.057265498;-0.476145;0.11175402;0.15472203;0.14830263;0.05223216;0.4518713;0.20613906;0.1479064;-0.40410563;0.11833769;0.4875226;-0.3167873;0.019385552;-0.067710385;0.02015268;0.12621771;0.04530661;-0.07109901;0.2511209;-0.0039826874;0.35052145;-0.29156452;0.12421652;-0.1810627;0.077528;0.34589204;0.13387632;0.024011116;0.18859288;-0.09544557;0.25453025;-0.34069902;-0.29798782;-0.2612418;0.1611618;0.11689605;0.13299517;0.03517524;0.10494972;0.013471791;-0.486327;-0.28758395;-0.26072755;-0.35269994;-0.23047607;0.041633584;0.010519883;0.17828014;-0.5557938;-0.09481028;-0.25598425;-0.30458662;0.16000248;0.17311165;-0.5035532;0.029687418;-0.09796438;-0.10884018;-0.36562654;-0.18504359;-0.34292048;-0.002443576;0.19518076;-0.45827824;-0.09142138;-0.21822035;0.21402341;0.25711402;-0.031036818;0.04125808;0.35791656;0.12322272;0.057371367;0.13564065;-0.08911805;0.40756133;-0.20428988;-0.16033807;-0.29228294;-0.06601043;0.23541759;0.032641545;0.04217229;0.32733077;0.20944314;0.19940521;0.046288796;-0.29645136;0.097699195;-0.035962466;0.12310558;0.02366195;-0.007498553;0.21590213;0.11724642;-0.17168087;-0.14635621;-0.26035288;-0.17484029;-0.22910665;-0.26139173;0.012145391;-0.4613975;-0.044450473;-0.32752246;0.21993478;-0.09461126;-0.65226585;-0.27942577;0.3496242;0.00847839;0.07081023;0.048655223;-0.08987036;0.15383948;0.13869071;-0.49227318;0.057387244;-0.23811246;-0.081710614;-0.17262779;-0.2940875;-0.1876664;-0.08282561;-0.25678656;0.34997442;0.023315923;-0.18991789;-0.053378347;-0.04704357;0.13248089;-0.2613621;-0.03248333;-0.10352838;-0.18463174;-0.16237246;-0.03798685;-0.117518164;0.43442613;0.079414815;0.14737022;0.29677653;-0.31135765;0.040476445;0.113772035;0.10461154;0.07684703;0.03183334;0.102205396;-0.08717003;-0.32275805;-0.36772323;-0.11521183;-0.30903238;-0.02886665;-0.070761055;-0.1731835;0.021760497;-0.2531602;-0.18402532;0.06694089;-0.037652254;0.36440235;0.016044863;0.18084957;0.1131358;0.30381855;-0.024321929;0.21953204;-0.3240123;-0.23649192;-0.20886794;-0.23466185;-0.052348148;0.13868159;0.058660116;0.08283584;-0.15954664;-0.20930135;0.024886716;0.15239784;-0.026793247;-0.129683;-0.0064487043;0.08918024;-0.6008269;-0.42391977;0.18457595;-0.08637382;0.2719877;-0.10815727;-0.09431062;-0.2939304;0.20214829;0.079528034;0.34190333;0.043964233;0.29303437;-0.04814535;-0.24005753;-0.08880237;-0.032638237;-0.13849844;0.04796999;0.13878803;-0.6166912;-0.18092507;0.24676767;0.33937526;0.13928814;0.22766635;-0.15898156;0.0377388;-0.19645497;0.19768658;0.20269313;-0.26867563;0.19900887;-0.1164229;0.2651786;0.020904262;0.008294494;0.1298645;-0.010536738;-0.29790932;-0.38064802;-0.3533951;0.070792474;-0.026585786;0.052293018;-0.065656856;0.33811876;-0.11672366;-0.18047631;-0.04257546;-0.26518273;-0.026016261;0.06863782;0.3255933;-0.036611237;0.20303741;0.021826206;-0.23079996;-0.33153802;-0.030546177;0.26521018;-0.056625307;-0.3416443;0.27129668;-0.1379761;-0.025663454;-0.42633682;0.12413351;0.018307911;-0.49871615;0.22576174;0.19844235;0.14720663;-0.40210962;0.10036893;0.010858285;0.013588249;0.016872551;-0.24266598;0.24233946;-0.099156834;-0.029154832
-0.1456088;0.061172485;-0.051639788;-0.11647688;0.030138558;0.021214223;0.12297854;-0.055113893;-0.00016736286;0.20113598;0.10136856;-0.16741034;-0.14570071;0.28048208;-0.2071602;-0.017110718;-0.13527627;-0.35731745;0.26041773;-0.096333496;0.14482749;-0.073519684;-0.017364856;-0.06891621;-0.04064227;0.018853448;0.24869412;0.0061027124;0.22967607;0.09534601;0.025948543;0.07166598;-0.03801955;-0.20500349;0.13852097;-0.021242231;-0.018259054;-0.07153813;-0.028311895;0.14161535;0.03966986;-0.050720923;0.15069968;0.17034173;-0.15757658;0.011458617;0.11445501;-0.14196482;-0.23332271;0.09133877;0.1995091;0.06693501;0.02180021;-0.35464022;-0.014534459;0.20471601;-0.050034236;0.10153842;-0.025923848;-0.06886568;0.13158084;0.13372235;0.066439174;-0.14676465;0.41780153;-0.26385257;0.07137575;0.33485648;-0.342726;-0.0039129504;-0.29640332;-0.34766003;-0.04523285;0.1118451;-0.23346867;-0.28388458;-0.27608994;0.17673607;0.054962087;0.012936963;0.2802573;-0.05112511;0.24124685;-0.04224526;0.0018461064;0.027335884;-0.01367559;-0.040113725;-0.07074068;-0.0406229;-0.140267;0.03249361;-0.19688718;0.06533865;-0.07190344;-0.3208585;0.2990138;0.027607672;-0.06279725;0.001348035;-0.04853025;0.28995696;-0.2581251;-0.07070765;-0.10235535;0.07713247;-0.30205226;0.17765288;-0.2395105;-0.022253744;0.18575032;-0.09151689;-0.02362076;-0.3433812;-0.2005892;-0.058644842;0.28138444;-0.2021665;0.13133429;0.123004206;0.06482353;-0.06717459;-0.030708902;-0.061668545;-0.08386131;-0.0056978283;-0.25165537;-0.080055594;-0.19444443;0.01582618;-0.13268997;-0.15997303;0.1691594;0.18455479;0.42527547;-0.15717629;0.048853073;-0.14200398;0.17039283;0.06462858;-0.20538607;-0.6907929;-0.013760685;-0.12830187;-0.05961421;0.16535926;-0.1264385;0.16807906;0.2605269;-0.3812561;-0.016009627;-0.058163464;-0.07780945;-0.165798;-0.22548844;-0.15337235;-0.21679145;0.13849151;0.028484505;0.0685622;-0.041869365;0.18738678;0.15664399;-0.16596167;0.2518894;-0.1938098;0.21547435;-0.0030377023;-0.2796887;-0.32837117;0.2826376;-0.24697705;0.21129753;-0.051619936;-0.04921186;0.23294805;-0.0118043255;0.14425091;0.12363109;-0.03302592;-0.12315521;0.110509865;0.11429181;0.06136958;0.026670517;-0.096801884;0.16242027;0.046945877;-0.030660382;0.13136214;-0.01248943;0.17669284;0.1585671;0.012599512;0.14479339;-0.041183855;-0.03988274;-0.050604157;-0.033762787;0.18806037;0.046224415;-0.008245206;-0.035593115;0.08920073;-0.13229579;0.12942766;-0.15196756;-0.03239781;0.05663451;0.09687459;0.3794825;0.045831624;-0.19298494;0.12999894;0.064194;0.0013293927;-0.36477616;-0.30293688;0.27118686;0.037480034;0.27190024;-0.0562159;0.0086721955;-0.056040626;-0.033827573;0.059196323;-0.081135534;0.1887895;-0.26603732;-0.04342803;0.3567235;-0.023781557;-0.23714337;-0.0938054;0.18335873;0.19773407;-0.3065266;-0.13126399;0.19326411;0.19251126;-0.08300873;0.042006943;0.041845877;-0.01555857;0.17200898;0.10869828;-0.23434383;0.18262087;-0.12250099;0.37214765;0.08492015;0.23238657;-0.06163911;-0.27234152;-0.088985845;0.0027148733;-0.055838432;-0.06811621;-0.020808084;0.06352023;-0.039666176;-0.18596229;-0.02626441;0.21620668;0.1738959;0.14424723;0.0639592;-0.16547738;-0.023669211;-0.15871923;-0.029090118;-0.04807397;0.08972672;-0.02433556;0.1017414;-0.11117461;0.25075373;-0.27434298;-0.11825658;-0.13916801;-0.23995662;-0.03237288;-0.12535842;0.09882994;0.06137766;-0.08303863;-0.14301819;0.15744282;-0.1180627;-0.14706531;0.13135418;0.07165445;-0.12454472;-0.27261198;0.12653646;0.25083402;-0.13706209;0.1567265;-0.40593946;0.21000467;0.35632333;-0.22416988;0.066357926;-0.17346427;0.44221547;0.0963846;-0.11906916;-0.53016394;0.034492116;-0.50554717;0.15703873;0.0112979645;0.061059657;0.17518686;0.32656378;0.1780889;-0.06279778;-0.22236082;0.0739245;0.39196593;-0.21598324;-0.09813181;-0.028926365;0.10596859;-0.045256276;-0.059510916;-0.14534378;0.03782397;0.13727558;0.2441656;-0.49809575;0.18812408;-0.055255413;-0.021060836;0.21884222;0.056132127;0.07823212;0.18517661;0.0493919;0.10442682;-0.32258475;-0.28535107;-0.022687916;0.27835914;0.05477435;-0.015015192;0.04620944;0.11078633;-0.16586728;-0.33053517;-0.211935;-0.14418124;-0.3003437;-0.2034594;0.04143415;0.13795379;0.24715279;-0.4524137;-0.21510324;-0.23406897;-0.2190613;0.084434986;0.17141181;-0.22258201;0.07620824;0.03752886;-0.014826537;-0.33967593;-0.1267456;-0.14373246;0.04738387;0.13849981;-0.41337642;-0.06868395;-0.15083607;0.18955795;0.060923804;0.0059501696;0.055234253;0.29806176;0.17381655;-0.0047298926;0.17786044;0.020107254;0.13800366;0.05510774;-0.1701821;-0.21895756;-0.1670342;0.123124965;0.26023853;-0.017922437;0.12906541;0.116187334;0.2950057;0.045830004;-0.17075996;0.04300724;-0.051837713;0.1163423;-0.061398644;0.08147855;0.103974886;0.09973439;-0.15137766;-0.15240817;-0.3961653;-0.09263031;-0.11719031;-0.22448725;0.053768;-0.22630161;-0.030309793;-0.12568194;0.06868573;0.008600327;-0.4680186;-0.2682671;0.33021438;0.0055403668;0.08996056;-0.20823662;0.025978696;0.08318963;0.13065098;-0.27799717;-0.0037117847;-0.27171636;-0.18156952;-0.16650878;-0.15141056;-0.0753104;-0.23134658;-0.17559415;0.31896198;-0.09087887;-0.15566717;0.009615134;-0.01568596;0.110315405;-0.27436712;-0.13135237;-0.15265922;-0.2501605;-0.016464138;-0.08612;-0.19276099;0.30764762;0.056216482;0.13026159;0.21205662;-0.11617127;0.0601328;0.04142012;0.27028522;0.04933662;0.09751302;-0.014002619;-0.14867198;-0.14326924;-0.34060165;-0.13686714;-0.4648815;0.04451301;-0.068748534;-0.11914249;0.18552446;-0.22968334;-0.06474344;0.10968868;0.0052603427;0.28316987;-0.06349426;-0.053847138;-0.03639343;0.21943562;-0.12344184;0.20144221;-0.37270576;-0.09523733;-0.26089743;-0.29732466;-0.011937907;0.032370534;-0.1468034;0.20908006;-0.2292449;-0.19504492;0.08461202;0.12309094;-0.11960785;-0.031441893;-0.15732354;0.1868857;-0.4021091;-0.34744734;0.29233688;-0.0970879;0.09632864;-0.062315483;-0.09054621;-0.13029416;0.2423889;-0.004931809;0.17466256;0.058245953;0.23231809;0.041118175;-0.2922303;0.028105563;-0.04141926;-0.16405213;0.14438134;-0.16674982;-0.50989205;-0.09380375;0.15355195;0.15729173;0.22717904;0.14494884;-0.089411125;0.020505464;-0.08086301;0.099969365;-0.0049904566;-0.13817814;0.05764722;0.004022713;0.28601435;0.050357953;-0.06192261;-0.055474985;-0.10360511;-0.19385508;-0.071304254;-0.18773182;0.015573584;0.030922636;-0.139802;-0.012528437;0.026557015;-0.08941665;-0.22255991;-0.05965271;-0.2868516;0.03301314;0.09808452;0.1311191;-0.07194264;0.2337801;-0.014871425;-0.060644038;-0.2011888;-0.13466805;0.08868738;-0.06680973;-0.2631974;0.23092212;-0.23934607;0.117834866;-0.456837;-0.06285671;0.13843773;-0.29648796;0.017009605;0.1417302;0.05352934;-0.34800062;0.11624267;0.0066055153;-0.12682837;-0.091951475;-0.043222144;0.33713555;0.01376379;-0.19499949
-0.15850258;0.15184554;-0.09627406;0.014716472;0.15254672;0.006611893;0.19085959;-0.21168041;-0.14599936;0.19220692;0.120219;-0.09317191;-0.044643134;0.17489165;-0.18183763;0.0140910195;-0.045587096;-0.2797868;0.17955145;-0.04920068;0.22726937;0.057019155;0.06520575;-0.00482541;0.0388622;-0.00092553766;0.12449791;0.0184784;0.12828141;0.10751973;0.004506102;0.106957875;0.038035374;-0.17677307;0.1855089;0.12465086;0.07150999;-0.014046148;0.020232739;-0.02380249;0.053349275;0.066373594;0.07762061;0.031643905;-0.10088309;-0.111926295;0.069204934;0.049781777;-0.22502913;0.042407162;0.077658124;0.20056652;0.07339596;-0.24217969;-0.09213729;0.060463484;-0.15452625;0.16723385;-0.04009482;-0.064126834;0.016366782;0.059839807;0.095310055;-0.16514815;0.2259897;-0.31871682;0.10452252;0.238667;-0.17410868;0.09853631;-0.08649274;-0.17035046;-0.021273633;0.1861012;-0.21571112;-0.24866457;-0.14606959;0.010944405;0.04287388;0.058575746;0.16823451;-0.110946015;0.14232127;-0.035610043;0.060524303;0.03174798;-0.14199297;-0.06966276;-0.07720789;-0.0083134;-0.06371075;0.093961865;-0.05001946;-0.11436027;-0.01074968;-0.23629236;0.15411352;0.02908578;0.06154986;-0.0071252035;0.05153808;0.14012054;-0.315465;-0.04486502;-0.107012816;0.04970931;-0.14583924;0.1272911;-0.32438347;-0.033525724;0.08636881;-0.23885942;0.12798351;-0.11035997;-0.06031477;-0.01209698;0.22946872;-0.2009325;0.1427758;0.057278864;0.120158516;-0.063870706;-0.050732873;-0.20214888;-0.14568979;0.07930326;-0.1048615;-0.14185533;-0.2849117;0.016087051;-0.21639882;-0.0150951585;0.13020283;0.27688143;0.33144066;-0.11846838;0.0067507187;-0.16117582;0.09623635;0.16776367;-0.073950216;-0.61526465;-0.08330211;-0.14305669;-0.0032903831;0.099863224;-0.124746546;0.08185781;0.22806202;-0.33807403;-0.09555475;0.0048149554;-0.020884784;-0.104249045;-0.13155335;-0.057900887;-0.19237001;0.000994169;-0.0014855778;0.12161517;-0.0023682935;0.13401714;0.16077228;-0.01855828;0.29340678;-0.11174449;0.12624077;0.09450774;-0.23986803;-0.34364447;0.29454905;-0.039542425;0.10145421;-0.09982112;-0.06725338;0.15674104;0.014531836;0.102052025;0.05464846;-0.05774813;-0.09433752;0.0045017526;0.03368806;0.2578663;-0.14699513;0.052575666;0.11295109;0.03735727;0.098429255;0.2007532;-0.015479489;0.13396917;0.25987577;-0.06929131;-0.005352274;0.05496053;-0.082615;-0.08074805;-0.05905506;0.2834591;-0.041725073;0.0026894615;-0.05582182;0.05330547;-0.04667858;-0.028124107;-0.1937578;-0.043836337;0.048530232;0.06675385;0.2897849;0.08304286;-0.22622761;0.13436764;0.2005274;0.10462311;-0.33627453;-0.15685456;0.28282192;0.11737783;0.19876486;-0.07325204;-0.116964824;-0.12793334;-0.096119165;0.06622714;-0.17408556;0.11134777;-0.37620655;0.019995656;0.11452994;0.053126235;-0.20321082;-0.0754545;0.124965824;0.058010854;-0.20819263;-0.09925704;0.19812497;0.17633645;0.009428621;0.06958153;-0.017263405;-0.10884715;0.028376382;-0.004287688;-0.19224608;0.033665594;-0.11070394;0.37761626;0.11048037;0.05993564;0.0015680016;-0.23737244;0.12581852;-0.039722387;-0.15979834;-0.20142193;0.03242325;-0.08726386;-0.13249911;-0.15370157;0.18524688;0.13811947;0.20766638;0.18764363;0.03575604;-0.15914321;-0.051971097;-0.23266166;-0.08286365;-0.0788089;0.080306895;0.048625268;0.07225867;-0.106979;0.32467157;-0.32124045;-0.18274069;-0.07112921;-0.09800252;-0.0747258;-0.0057037086;0.15760633;0.07484232;-0.068845645;0.05320442;0.17640705;0.0057570646;-0.24426194;0.20883402;0.05527237;-0.14894721;-0.32767507;0.059486024;0.17461073;-0.037950225;0.21313702;-0.22023988;0.045686692;0.31061497;-0.13392211;0.024804277;-0.11487647;0.33858123;-0.018647464;-0.005348896;-0.38429818;0.009807718;-0.3437095;0.09896435;0.12690538;-0.009956826;0.20952213;0.17701466;0.17451657;0.026399627;-0.17237215;0.06444622;0.27994293;-0.22262211;-0.027379032;0.05195129;0.13414204;0.05434418;-0.06446592;-0.06369441;0.04041465;0.1894261;0.15870237;-0.43496755;0.37530124;-0.15501808;-0.07580927;0.19480895;0.10588985;-0.014677795;0.14516439;0.20408943;0.16522491;-0.4284794;-0.27467775;-0.07046579;0.3156786;0.18240404;0.070534915;-0.05978345;0.049803045;-0.21714032;-0.28310964;-0.25026286;-0.20513842;-0.31580168;-0.007775134;0.025539229;0.16017167;0.2287924;-0.42644542;-0.0762752;-0.23035562;-0.2272285;-0.041798685;0.16251431;-0.13773541;0.0025086685;0.021462236;0.049193848;-0.21178582;-0.19574004;-0.21619527;0.026112216;-0.0071575465;-0.1603263;-0.08826995;-0.1033491;0.09345208;0.04113875;0.068131335;0.016882231;0.20116739;0.20747432;0.047388803;0.184767;0.0151909115;0.19475809;0.14110668;-0.070716076;-0.2697581;-0.071728386;0.29855078;0.22305997;0.036960978;0.06225844;0.053934112;0.19035491;0.11538163;-0.10711297;0.20608746;-0.09825357;0.15192604;0.0018742046;-0.00096965965;0.109652616;0.03364139;-0.08094419;-0.22271644;-0.31527194;-0.016658243;-0.17253166;-0.049518026;0.058567684;-0.18554291;-0.18678562;-0.09020482;0.085572295;-0.09364413;-0.38516048;-0.14713876;0.39839408;0.081011795;-0.09340523;-0.2788756;0.082721196;-0.0492825;0.13314824;-0.20888233;0.013867843;-0.17347717;-0.27336216;-0.14289981;-0.115194194;0.057332244;-0.16050817;-0.09193784;0.3963796;-0.0828331;-0.06297708;0.11492125;0.09515386;0.13986331;-0.23275442;-0.05358396;-0.14376415;-0.281503;-0.07644619;-0.009021746;-0.06944062;0.30970344;-0.01148791;0.050573114;0.07875917;-0.23076396;-0.03148635;0.12400144;0.19046518;0.095197275;0.08953058;-0.070443;-0.07507728;-0.011722036;-0.44915807;-0.08647337;-0.36962688;0.061343424;-0.123355165;-0.089650095;0.15258828;-0.11553344;-0.19202684;0.22051504;0.04358401;0.25810087;-0.081335105;-0.037239004;-0.07876699;0.17681429;-0.18605083;0.23896821;-0.34545046;-0.21501398;-0.24499029;-0.23760015;0.10968398;0.057527572;-0.0807712;0.18432921;-0.13844824;-0.09752465;0.19930986;0.11709067;-0.14823347;-0.015521331;-0.13118216;0.014461019;-0.34221533;-0.230545;0.29734275;0.05561089;0.13342877;-0.09707134;0.022067765;-0.16289693;0.15551384;-0.11184363;0.086373866;0.07499428;0.006130144;-0.14465585;-0.13190284;0.1661518;-0.03715314;-0.100849286;0.21092407;-0.20368053;-0.45259795;-0.14059196;0.124696545;0.1507957;0.25008082;0.03306226;-0.07584101;0.021786412;0.024222739;0.074028194;-0.068537675;-0.048473045;0.025520487;0.18704243;0.35450956;-0.010678852;-0.17255647;0.03760203;0.03450672;-0.36261258;0.016494578;-0.080831;0.015868781;0.076488055;0.032135654;0.016249923;-0.10813827;0.011283287;-0.18817925;0.049487;-0.2569119;0.021394517;0.13352165;0.14138483;-0.062245306;0.12095198;0.037935328;-0.10073462;-0.28810772;-0.16469608;0.116295494;-0.0119964;-0.29898277;0.14163165;-0.26013082;0.10548719;-0.36069852;-0.00018510906;0.09433113;-0.17190541;0.1054219;0.10458681;0.15171976;-0.24464121;0.18240678;0.037478458;-0.15363693;0.003057647;-0.11333032;0.3832346;0.08797143;-0.2515234
-0.05872647;-0.03517616;-0.037487872;-0.057259418;0.25682992;-0.013445923;0.11472331;-0.13887002;-0.10348919;0.07535381;0.21309341;-0.10738179;0.0130715445;0.25239384;-0.26817843;-0.013312229;-0.14493321;-0.25397685;0.009663436;0.047337122;0.29637888;0.019650145;0.008841404;-0.055021204;0.1953055;-0.04070071;0.069165856;0.025507987;0.22363245;0.13864926;-0.054731607;0.14584467;0.079351656;-0.18992321;0.21201952;0.14197229;0.036010265;-0.117353305;-0.013518548;-0.05325042;0.07030488;0.08303545;0.12609504;0.008315864;-0.04050073;-0.11972958;0.10764233;-0.025404263;-0.12305074;-0.020842902;0.16655089;0.070475556;0.15498312;-0.22745849;-0.0021837242;0.070534386;-0.054057702;0.15153798;-0.11854915;-0.026111597;0.104280114;0.103415996;0.10079423;-0.08987383;0.32406393;-0.28261292;0.030859658;0.25583288;-0.09628991;-0.018792875;-0.059911594;-0.21151407;-0.08989803;0.040161923;-0.34598055;-0.31441092;-0.29089805;0.10792519;-0.047539093;-0.050965264;0.23059717;-0.07182407;0.12515934;-0.095648825;-0.009290677;0.08223941;-0.22939491;0.10487319;-0.07439026;-0.19049118;0.0046053883;0.135155;-0.06411484;-0.086144485;-0.018454265;-0.02155721;0.17419955;0.041166782;-0.012630721;0.03952655;0.010547261;0.089475;-0.15596643;0.02784033;-0.28626493;0.055163834;-0.08905114;0.2222226;-0.21287885;0.025806045;0.038853597;-0.1675501;0.0074547064;-0.073918365;-0.11334917;-0.017845549;0.16700344;-0.14329356;0.13593599;-0.040042304;0.025269166;-0.05338473;0.026863161;-0.19789542;-0.17077057;0.04977373;-0.061133288;-0.23423016;-0.18886636;0.12305565;-0.22762619;0.023990534;0.15033154;0.21609148;0.3279588;-0.2227575;-0.017086003;-0.10651011;0.0364926;0.10389203;-0.05786828;-0.49901533;-0.074624136;-0.047896132;0.08337946;0.15458661;-0.11217772;0.0910622;0.18432906;-0.29293916;-0.18947233;0.027619349;0.087061085;-0.1421817;-0.06907886;-0.17384027;-0.37097472;0.037894826;0.057729684;0.20223333;-0.04625333;0.014866237;0.1736166;-0.1072642;0.16683486;-0.22075659;0.0866062;0.032989737;-0.2511255;-0.26555875;0.22730745;-0.118909694;0.06240075;-0.1642955;-0.06208608;0.10127847;-0.020788524;0.045781463;0.0028126268;-0.016874544;-0.118643224;0.07715228;0.16325387;0.20644821;-0.16058879;0.033989124;0.09260271;-0.061245326;-0.1163979;0.06329155;-0.04657686;0.12214354;0.37246126;-0.02162029;0.080136806;-0.09978758;-0.0500811;-0.036381084;-0.2269835;0.08801775;0.108903706;-0.038629107;-0.047196284;-0.05609807;-0.020473091;-0.015858678;-0.17502797;-0.0088517405;-0.021319637;-0.052122988;0.22793719;0.13501164;-0.28650993;0.10903697;0.093380466;0.14362319;-0.35894436;-0.08087117;0.17054383;0.017109089;0.26978067;0.022290487;0.038238272;0.03524925;-0.039026927;-0.10159633;-0.11497474;0.16218151;-0.27634686;-0.09701741;0.071653694;-0.01352143;-0.16582526;0.04468533;0.1400778;0.11213123;-0.1716033;-0.16713607;0.10780139;0.19383916;-0.030056627;0.10136417;0.09703877;-0.05587079;0.05824458;0.09238103;-0.19058728;0.10535201;-0.19745828;0.19241484;0.1364977;-0.0369893;-0.028225275;-0.22166513;0.14795087;0.033238843;0.009590434;-0.07799224;0.06429815;-0.097971074;-0.10806051;-0.09876088;0.17217942;0.19521783;0.17912991;0.1266992;0.07398959;-0.11978304;0.065023564;-0.10278583;-0.21541217;-0.03393528;0.2134217;-0.02168774;0.1059398;-0.10328223;0.20218289;-0.36093155;-0.25422242;-0.08894391;-0.13589433;-0.049561337;-0.032289114;0.13526738;0.050221797;0.0117059825;-0.030737078;0.14188029;-0.13886082;-0.18229443;0.11518702;0.01781423;-0.10147322;-0.32092;0.15054324;0.14871119;-0.1992594;0.18212382;-0.28653866;0.121809475;0.22688347;-0.23056354;-0.023866301;-0.11282781;0.40977886;-0.064518064;-0.11084377;-0.32378483;-0.042543102;-0.44361305;0.11355375;0.053768665;0.08372019;0.10908938;0.16663292;0.14271353;-0.038655944;-0.16547444;0.059890594;0.27139235;-0.1828326;-0.0777063;-0.022665212;0.020109113;0.035901483;0.0031689832;-0.0031524184;-0.026338894;0.12770258;3.3563214e-05;-0.35038754;0.31616223;-0.17469718;0.016970132;0.11459673;0.09314338;0.0074394355;0.045842756;0.12958302;0.13396561;-0.39347866;-0.15766713;-0.067628086;0.17262757;0.13367411;-0.030096391;0.07329404;-0.08192395;-0.26641694;-0.32794517;-0.2411349;-0.31251952;-0.3005654;-0.10593963;-0.018884823;0.1525902;0.2579346;-0.38330317;-0.04891272;-0.23840396;-0.20857778;0.0026502528;0.089346774;-0.2086787;0.09508116;0.09062267;-0.1205044;-0.22459918;-0.10792909;-0.17999554;-0.007784062;-0.026442776;-0.16523874;-0.16992159;-0.011781076;0.20721506;0.08726951;0.05370334;-0.026738493;0.1766408;0.07046893;0.010791142;0.1961819;0.06268079;0.061444018;-0.023880003;-0.03377552;-0.2092947;-0.19273664;0.117556326;0.16093415;-0.079554886;0.14145675;-0.014427112;0.3292609;-0.008482588;-0.19649597;0.20060912;-0.053608067;0.050760143;-0.009205387;-0.017325075;0.030493654;0.081969574;-0.04367868;-0.25134954;-0.17168638;-0.017930284;-0.17530802;-0.034158725;0.067183256;-0.082792714;-0.054195177;-0.041764904;-0.012487052;-0.11080259;-0.28892562;-0.11166135;0.30601713;-0.017682645;0.029206732;-0.29026055;0.09283078;0.06902509;0.018664563;-0.22675811;0.052540164;-0.14193799;-0.3129201;-0.17480484;0.07272766;0.09059801;-0.124880694;-0.14183334;0.32131782;0.02757769;-0.08258475;0.070224635;0.14398226;0.10651925;-0.2781979;-0.013168507;-0.11529636;-0.2759419;-0.038620826;0.026932338;-0.15775214;0.13949253;0.060002204;0.14743868;0.043239385;-0.20489924;0.14207655;-0.02999029;0.059087366;0.13418339;0.07319076;0.11611041;-0.1783228;0.03567811;-0.33046123;-0.10486238;-0.4835223;0.16433461;-0.13092415;0.037504815;0.09221368;-0.0150601845;-0.08579984;0.09166505;0.12398295;0.2155507;-0.06823517;0.057520915;-0.07946517;0.16718258;-0.12115833;0.07992518;-0.38817167;-0.20142977;-0.073839135;-0.28224555;0.20429313;0.15093237;-0.15466547;0.11185917;-0.22599177;-0.14532611;0.084155254;0.12783587;-0.20607394;0.033914845;-0.057374448;0.06639713;-0.2469696;-0.2212541;0.18826053;0.088672735;0.17052852;-0.15460524;0.122192636;-0.120659105;0.08901665;-0.07672829;0.06923941;0.056701954;-0.1086444;-0.113253154;-0.22715586;0.028411226;-0.095391594;-0.14946346;0.0868873;-0.27412355;-0.36237493;-0.16958565;0.02309434;0.21778882;0.22216894;0.119845256;-0.08325197;-0.046534363;0.049987424;0.1659606;-0.14045739;-0.09987034;0.024800586;0.15055455;0.34785482;-0.053921055;-0.1905806;-0.04790003;0.0414062;-0.2401723;0.027064266;-0.068614736;-0.03699838;0.052732848;-0.047997426;0.071972296;-0.04392613;0.021790607;-0.26429412;0.12953404;-0.109473966;-0.018058572;0.11435001;0.03297647;-0.21840082;-0.001096928;-0.018160759;-0.1664562;-0.18313096;-0.14029215;0.10084266;0.13756676;-0.117526144;0.20654851;-0.2151612;0.14073695;-0.46730113;-0.0079188;0.062184814;-0.20799908;0.10943045;-0.048748747;-0.022934984;-0.21335946;0.16937476;-0.1320699;-0.12945922;-0.06897074;0.018400062;0.18048139;0.15080047;-0.201819
-0.09540959;0.075552754;-0.07025476;0.10082006;0.21028674;-0.09678084;0.047260154;-0.2141998;-0.066696696;0.19718483;0.1932558;-0.080228806;-0.1196898;0.17984758;-0.23831794;0.018027576;-0.09846863;-0.35174897;0.06940422;-0.008374782;0.202127;0.10467051;0.061399817;0.009193864;0.073008314;-0.04148912;0.1389738;0.038209558;0.23318125;0.111104794;0.0877844;0.08095056;-0.02085914;-0.08739436;0.31632534;0.06131757;0.07422175;-0.1075185;0.02064753;0.04836586;-0.020614311;0.012621885;0.07831419;-0.048753444;0.045513846;-0.1561924;0.028508231;-0.08922451;0.038555056;-0.013677354;0.06775111;0.10552245;0.25017536;-0.30478466;-0.06060721;0.16873056;-0.13288416;0.16506661;-0.07197937;-0.098961554;0.10417299;-0.051647764;-0.009517866;-0.054231606;0.24832085;-0.21860684;-0.047243338;0.22308722;-0.17665477;0.029294211;-0.111975595;-0.21614614;0.034057006;0.13147686;-0.119676255;-0.2914521;-0.181115;0.0078071193;-0.15425374;0.013872257;0.2697472;-0.0240597;0.18098867;-0.09577044;0.089451335;0.11579454;-0.077508576;0.09668658;-0.12649697;-0.10019409;0.024023524;0.09876152;-0.058972638;-0.0847168;-0.038432393;-0.07283258;0.20344181;0.1935656;-0.0023935896;-0.010221874;0.02633906;0.18986277;-0.2940026;0.029256482;-0.22590418;-0.076065175;-0.02316454;0.23146673;-0.19098127;0.016418023;-0.067173384;-0.17166954;0.02801037;-0.13276091;-0.15505585;0.045390476;0.23184472;-0.07335452;0.10107195;0.022732712;-0.02124429;0.118509896;0.008372029;-0.082946144;-0.14271963;-0.08546938;-0.17359878;-0.08578961;-0.18681088;0.0027965317;-0.06041431;-0.12481956;0.20337611;0.13807043;0.3793852;-0.2559602;0.08146058;-0.13399026;0.07854087;0.119697295;-0.02028206;-0.4919627;-0.1113277;0.06728226;0.008937597;0.06373647;-0.12994683;0.13351738;0.099860094;-0.24877727;-0.12011906;-0.01294527;0.1821279;-0.106899954;-0.21721628;-0.21070439;-0.14300142;-0.025910128;0.15636598;0.14768277;0.033393424;-0.00050086644;0.081960924;-0.058612;0.31927148;-0.14964461;0.11630222;-0.0093434295;-0.17653449;-0.27995822;0.15704212;-0.020144451;0.15469466;-0.20918803;0.0058708;0.1156704;-0.042299572;0.20043693;0.13704032;-0.07427896;-0.09463333;0.009955717;0.10930711;0.009666263;-0.12385965;-0.01631477;0.06577984;-0.026558926;0.046080124;0.0744436;0.043988056;0.03613937;0.254147;-0.060934294;0.08660462;-0.06428769;-0.0421671;-0.07928421;-0.18545598;0.09980873;-0.010999516;0.017218025;-0.028715108;-0.08157097;0.022395616;0.1698674;0.022180865;0.027617507;-0.00026788106;-0.008856834;0.17100264;0.035542965;-0.24986142;0.22614789;0.10558529;0.13414982;-0.25686538;-0.08492561;0.30423144;-0.025003895;0.2591697;-0.10110944;0.06531872;0.11396383;0.034000672;-0.0208788;-0.18279262;0.17194152;-0.29480004;-0.025328772;0.18397671;0.09539356;-0.05086104;-0.08246098;0.062112033;0.04701225;-0.32585967;-0.16211174;0.09950189;0.08058374;-0.009857076;0.1906018;0.034122955;-0.053037915;0.048143797;0.09778825;-0.1780056;0.15026718;-0.17809117;0.29300174;0.21125914;0.11740949;-0.034503527;-0.06016505;0.0026096464;0.036168355;0.009590172;-0.09195185;0.084024206;0.014860581;-0.0494321;-0.18394545;0.10702223;0.2893923;0.09547563;0.16211952;0.010216341;-0.07773118;0.03592843;-0.16438228;-0.08232484;-0.021229576;0.10752103;0.028693045;0.115868546;-0.06794881;0.16333209;-0.29435223;-0.24816899;0.019410478;-0.024604645;-0.055680417;-0.024254212;-0.030302852;-0.014448087;-0.13803832;-0.067554;0.13494653;0.09353802;-0.14715575;0.12225449;0.011195685;-0.08924939;-0.32930243;0.053645223;0.2148167;-0.19700111;0.152271;-0.2766612;0.08860519;0.28294766;-0.0874036;0.028299276;-0.09893668;0.38009533;-0.10472595;-0.14946747;-0.33258554;-0.045759335;-0.37514862;0.09670595;-0.026869996;0.04582848;0.14256148;0.21157126;0.16949515;0.019642211;-0.034999855;0.013489451;0.19568823;-0.17855279;-0.070108876;0.06831066;0.00094608054;-0.040637337;-0.16633655;-0.02314298;0.13361825;0.059465803;0.07361248;-0.3749386;0.31198478;-0.024944356;-0.05729678;0.17774943;0.036943216;-0.05576791;0.12847202;0.14534211;0.12572041;-0.29637823;-0.0955177;-0.11491153;0.1690866;0.15269175;-0.03225224;0.007201185;-0.010689919;-0.2769949;-0.16486342;-0.16891403;-0.23768851;-0.27324256;-0.11366541;-0.032678086;0.26526877;0.07442598;-0.42407128;-0.17389394;-0.29977182;-0.115313135;-0.08222322;0.20695819;-0.10747634;0.030035144;0.08488687;-0.1046603;-0.22535609;-0.11347749;-0.05443059;-0.058303338;0.026700096;-0.24635635;-0.082339324;-0.062451128;0.11585701;0.052356206;0.12552336;-0.025671571;0.17861544;0.16164361;0.06592029;0.06748631;0.020165395;0.07889429;0.04763265;-0.11270768;-0.111441694;-0.30780324;0.11707617;0.21061824;-0.103200585;0.11917833;0.00076991797;0.31789878;0.024265047;-0.18615346;0.1265177;-0.056688584;-0.17058226;0.0007112056;0.0053547495;-0.007456514;0.005143795;-0.21276753;-0.14160682;-0.24765603;0.031349257;-0.22094901;-0.04692213;0.04343457;-0.10271696;-0.14431472;-0.058440145;0.07430572;-0.042891815;-0.2189732;-0.017277732;0.19215369;0.09087664;-0.023142248;-0.15884659;-0.020949805;-0.100459054;0.05283073;-0.23343101;0.042725433;-0.20463042;-0.253645;-0.22711544;-0.024143595;0.045040295;-0.18562852;-0.15299119;0.31483698;0.08191578;-0.04323194;0.0074333153;0.13493663;-0.01921099;-0.27763548;0.056175895;-0.15632468;-0.23624516;0.052581288;-0.02673407;-0.14261508;0.21567658;0.06786996;0.18404378;0.090721995;-0.08100669;0.086829916;0.07540713;0.19321972;0.07987622;0.031645443;-0.035100337;-0.0932233;0.010393325;-0.22467187;-0.031326596;-0.40847924;0.10778408;-0.043344922;-0.063425735;0.043280467;-0.089441806;-0.119233645;0.10973935;-0.027488614;0.24589957;-0.02378487;0.008424531;0.038322303;0.09985722;-0.08050518;0.25456887;-0.3343701;-0.04200698;-0.14345156;-0.3824433;0.16813861;0.081193246;-0.17919253;0.029160284;-0.1864793;-0.027447285;0.10338751;0.107009724;-0.10894567;-0.089039855;-0.15294819;0.16532518;-0.17657608;-0.23492217;0.20146951;0.03263922;0.14246748;-0.05069466;0.017388958;-0.14386266;0.09398442;0.007769704;0.029894993;-0.03013453;0.011536114;-0.03371577;-0.22568786;0.14290577;-0.06937386;-0.031438377;0.22397423;-0.18112881;-0.2838555;-0.12015095;0.06862578;0.17195912;0.2755078;0.04380339;-0.085110694;-0.002924465;-0.060275376;0.25750297;-0.09799804;-0.08255674;-0.08168928;0.1286146;0.36900344;-0.020983696;-0.0777282;-0.09641342;-0.00079326675;-0.21557981;-0.011232547;-0.011252127;0.080990985;0.14330173;-0.091402166;0.06353146;-0.0976077;0.009975652;-0.24721812;0.11186083;-0.07483031;0.022082794;0.07810601;0.13536108;-0.101959765;0.19653443;0.029144451;-0.12203961;-0.28979647;-0.1192712;0.08402616;0.058180615;-0.24063228;0.10104686;-0.15707083;0.12809794;-0.5599903;0.011640345;0.089398645;-0.18196255;-0.05844281;-0.069535665;0.2119711;-0.08386796;0.16184151;-0.030502137;-0.0904794;0.03555947;0.07823838;0.33367762;0.10493221;-0.17332013
-0.040226348;0.100859135;-0.13887395;0.04722187;0.17544316;-0.0058794776;0.03254617;-0.06313315;-0.07095072;0.00030363243;0.21624571;0.025452651;0.046661496;0.16193205;-0.2006595;-0.021038512;-0.08775269;-0.29450616;0.09978497;-0.13872619;0.18249592;0.022990733;-0.06997919;0.04999985;0.08892615;-0.036049828;0.21608074;0.10635559;0.0068468293;0.1311327;0.021551238;0.1459754;0.0035969024;-0.10100253;0.26969838;0.12100267;0.072905615;-0.119175725;-0.10198978;0.01698009;0.051536504;0.024663929;0.1805463;0.08298331;0.123439826;-0.14889865;0.0036934356;-0.012366775;-0.014204352;0.0067330636;0.11599521;0.21203838;0.0629804;-0.19706158;0.14585228;0.02441122;-0.17677028;0.109020926;-0.16479938;-0.027711686;0.06518866;-0.016972898;0.18602231;-0.06438978;0.3070244;-0.26708278;0.027860444;0.20917019;-0.22958793;0.006591438;-0.020401612;-0.17029074;0.05451425;0.18316925;-0.17609963;-0.25430432;-0.17027938;-0.058814432;-0.0035885456;0.00560429;0.25467455;-0.006305053;0.1538716;-0.08717758;0.054910287;0.038254872;-0.14696535;0.021753443;-0.1371806;-0.08750582;-0.110345826;0.071312845;-0.21424684;-0.16145836;-0.065528266;-0.026518753;0.24318434;0.21473578;-0.039792072;0.15091665;-0.03282254;0.09366099;-0.31676552;-0.024299521;-0.26987055;-0.026877275;0.05477719;0.18853791;-0.28237033;-0.02053701;0.06204633;-0.1262493;0.071481116;-0.08839629;-0.08055276;0.03629955;0.13076416;-0.051345766;0.11681029;0.05752057;-0.12450698;0.060623568;0.009118626;-0.05689794;-0.22747812;-0.14615133;-0.059668887;-0.12150915;-0.2429114;0.15490104;-0.17323878;-0.05047473;0.10775833;0.19533096;0.26126283;-0.23585762;0.005363528;-0.075381376;0.13456222;0.22460563;0.026504032;-0.42508483;-0.027005909;0.06964913;0.06249238;0.1816227;-0.075557746;0.15163732;0.09931753;-0.27749527;-0.022450477;-0.032168515;0.046691094;-0.26252344;-0.12301729;-0.21063887;-0.22290534;0.014038032;0.019360835;0.04289557;0.009600544;0.028951779;0.1627214;0.027804958;0.19913079;-0.11364048;-0.05548707;0.18331662;-0.2873316;-0.2218787;0.10665756;-0.039951243;0.05420133;-0.090915225;0.13312666;0.015032073;0.06412746;0.15506181;0.11956762;-0.028684217;0.00304224;0.024465242;0.17100573;0.061585195;-0.18426032;0.10181518;0.08935059;-0.09693885;0.04700282;0.19263896;-0.0008251411;0.07355182;0.2254758;0.0061308467;-0.023766665;-0.072846256;-0.14243618;-0.0076164105;-0.11409721;0.014386718;0.11795983;-0.085510924;-0.024940947;-0.15234117;0.16292028;0.037305832;0.016691346;0.0018424444;-0.032489896;-0.09226205;0.17846416;0.14520778;-0.18866436;0.16422212;0.044461187;-0.01556583;-0.26016068;0.030095037;0.21531291;0.12486056;0.2160083;-0.063438855;0.05090939;0.0491384;-0.023967054;-0.06987306;-0.13560145;0.1421481;-0.33390084;-0.19879441;0.0019680671;0.023879318;-0.08630654;-0.063144386;0.058393374;0.080157466;-0.3001877;-0.07662141;0.17771779;0.1103651;0.025427127;0.051519852;0.07168966;-0.08449593;-0.026014334;0.0024496082;-0.11255147;0.098923154;-0.09208672;0.139081;0.081114076;0.0709826;-0.10297181;0.0642789;0.122833356;-0.003770759;0.09591163;-0.009851805;-0.018613473;-0.16269237;-0.010103674;-0.007970289;0.10555822;0.24821158;0.16955991;0.14110032;0.04227129;-0.11308625;0.07302541;-0.0107130315;-0.18083283;-0.0016686135;0.013539671;-0.010464017;0.10073412;-0.10369775;0.19810437;-0.28383482;-0.21973687;-0.06749671;0.039551556;-0.113061905;0.003689942;-0.02017259;-0.015333127;-0.08986657;-0.0809404;0.15415019;-0.10568146;-0.1723192;0.08700717;0.017987518;-0.099754676;-0.3526201;0.073555104;0.17378823;-0.20880975;0.16040708;-0.3756627;0.05677436;0.17145613;-0.07728242;-0.010118601;-0.093162015;0.3657977;-0.060806904;-0.13982977;-0.2861879;-0.06709063;-0.17465201;0.16688952;-0.0561942;0.08922908;0.08201336;0.27589548;0.051190432;0.05765428;-0.17972809;0.060605045;0.36353895;-0.14042477;-0.07447482;0.10093634;-0.010451214;-0.049540695;-0.011932464;-0.091128916;0.010183961;0.1512418;0.046023455;-0.43761265;0.27164084;-0.0012046274;-0.06473738;0.14812744;0.045433454;0.07633167;0.13792187;0.08179317;0.13223916;-0.38951674;-0.12964699;-0.17505726;0.25991616;0.15748966;-0.015441121;0.14920013;0.0013037333;-0.19733098;-0.081284314;-0.17942882;-0.27215993;-0.24565844;-0.03042489;0.03866835;0.27108556;0.16840029;-0.40689075;-0.074863754;-0.22004691;-0.24085827;-0.061151907;0.14986461;-0.09385382;-0.0110621685;0.031118196;0.038268376;-0.32251757;-0.3529129;-0.13099362;-0.00435887;-0.04530014;-0.20045343;-0.028818795;0.091786474;0.1414267;-0.0038130009;0.094779454;0.078844614;0.12217584;0.13302492;0.025693474;0.15014964;0.09130549;0.13713579;0.043689176;-0.21021253;-0.0974452;-0.19805604;-0.05885494;0.19361463;-0.043391276;0.12011071;0.07305066;0.24868202;-0.027858347;-0.23048657;0.12980057;-0.12865707;-0.0077906502;-0.014789958;-0.063678;0.070813134;0.06192898;-0.11350658;-0.18505968;-0.10048721;-0.054456808;-0.108594656;-0.05995367;0.056893416;-0.078552544;-0.11177803;-0.001382474;0.040122;-0.06049411;-0.21300685;-0.021867916;0.27808484;-0.106478736;-0.045531712;-0.21433906;0.18236932;0.032165013;0.17110938;-0.07174515;-0.015925547;-0.27849242;-0.19901432;-0.005212368;-0.01859682;-0.04148179;-0.06702047;-0.07064169;0.2182807;0.16204278;-0.050698906;0.041950364;0.005708351;-0.03055798;-0.21749815;-0.14018276;0.07452597;-0.08776004;0.033133667;0.06779707;-0.066870175;0.18515381;0.020066254;0.28672925;0.070484966;-0.1615974;0.13342792;0.12317124;0.045802362;0.09863683;0.08541357;0.027559103;-0.135466;0.04312028;-0.19594051;-0.15617022;-0.4629084;0.053004492;-0.16226916;0.02236034;0.064653635;-0.058037266;-0.094801925;0.08650889;0.15928766;0.19826536;0.081047766;-0.014220208;-0.062571846;0.024387421;-0.15968518;0.122126974;-0.48703703;-0.104497924;-0.0683897;-0.26423448;0.11855828;0.06531926;-0.1482361;0.065290436;-0.15714735;-0.12687987;0.095177;-0.013323539;-0.27016425;-0.0033157798;-0.15959087;0.18682377;-0.18325509;-0.029889327;0.25292554;-0.0001856184;0.0347777;-0.016884577;-0.09506591;-0.17067493;0.00041531288;-0.024891961;-0.036054764;0.028861176;-0.088591;0.029991144;-0.2941058;-0.05062638;-0.0189579;-0.104893066;0.12304094;-0.36422879;-0.27034348;-0.19399507;-0.016003102;0.09251127;0.21774122;0.16020012;-0.1107866;0.021682523;0.09355059;0.0848782;-0.15947767;-0.07312222;-0.034278683;0.1064844;0.29480013;-0.087943226;-0.11821747;-0.037375662;0.07596305;-0.112178944;0.05422627;-0.038408708;0.019979324;-0.040844824;0.053052463;0.05114728;-0.13163044;0.03720868;-0.31582007;0.108574994;0.05019005;-0.042162444;0.11844279;0.043279868;-0.26609832;0.13981779;0.032786027;-0.1296195;-0.24734873;-0.06401033;0.07022784;0.08482187;-0.16256136;0.13656881;-0.23248397;0.097318016;-0.43724227;-0.037908684;-0.012904178;-0.08715596;0.030412221;-0.124268666;0.002256295;-0.14384344;0.1917983;-0.1348581;-0.023719978;-0.020560252;-0.045356948;0.10096636;0.06995562;-0.1843917
-0.037431177;0.015855953;-0.19390434;-0.04479785;0.17245603;-0.05326037;0.08531817;-0.18675183;-0.01600394;0.0072317673;0.22087498;-0.04750894;0.038407467;0.20692672;-0.14911732;0.02979817;-0.03797386;-0.31575853;0.14638264;-0.02259586;0.15402795;0.0028666945;0.104937926;0.13437675;-0.009114659;-0.08424362;0.10815105;0.050270595;0.037083395;0.10035244;0.0039121574;0.19878598;0.055718407;-0.098490365;0.18653311;0.073080994;0.16350809;-0.13605945;0.0727463;-0.02419614;0.07692954;-0.042389568;0.031173883;-0.008876318;-0.012993891;-0.11620867;0.15428834;-0.08548474;-0.0037064631;-0.14614907;-0.03304168;0.18565974;0.11680052;-0.19341202;0.065780535;0.07009643;-0.1900845;0.005997474;-0.13886538;-0.106248915;0.027397165;-0.18236293;0.0485352;-0.073542915;0.25512046;-0.1137916;0.060493525;0.19488469;-0.15260574;0.15572247;0.0005921704;-0.009830729;-0.037914645;0.07730081;-0.1515554;-0.15045841;-0.06447374;0.015184471;-0.07091735;0.06914102;0.25249222;0.027365895;0.12421311;-0.10564442;-0.040438697;0.13553944;-0.12705307;-0.015058627;-0.08975123;-0.15390487;0.10057394;0.11134859;-0.05723613;-0.14379896;-0.041994203;-0.18742874;0.11055266;0.14054678;0.001683;0.13669686;0.010916388;-0.03843505;-0.19961467;0.07682626;-0.36612925;-0.014507613;-0.04177318;0.11276988;-0.2579677;-0.03628028;-0.12790105;0.0042280313;0.0310728;-0.13757238;0.009892719;0.17216283;0.14464296;-0.13211454;0.06815952;0.098079376;-0.14189838;0.08907946;-0.029183457;0.043195516;-0.21473698;-0.06891163;-0.20279767;-0.07279258;-0.28588736;0.078118026;-0.13496208;0.004225842;0.19058698;0.18013072;0.3132129;-0.23998113;-0.03448398;-0.105760954;0.14037544;0.15645754;-0.04976709;-0.3183326;0.05959032;0.082657956;-0.059507404;0.14921094;0.006975231;0.09606968;0.15341318;-0.2186267;-0.01377802;-0.0737096;0.13585402;-0.25245488;-0.1645759;-0.23459917;-0.1758335;-0.085506484;0.109155506;0.12602791;0.03978322;0.05240526;0.14247231;0.044650484;-0.0064467443;-0.22008556;-0.06663405;0.08497511;-0.3271053;-0.18752252;0.14283152;-0.11924777;0.067114286;-0.053571507;0.07491913;-0.07789342;0.010726686;0.10302123;0.077634774;-0.07834281;-0.05907798;0.03154815;0.10547623;0.05069097;-0.19277467;0.09106851;0.1457098;-0.019762192;-0.0050975103;0.23350881;-0.020015802;0.0060575353;0.20668781;-0.06549199;0.015867593;-0.056949854;-0.118717805;0.05852852;-0.12756032;0.08526831;0.010237076;-0.11616651;-0.06820134;-0.19552273;0.22915752;0.13958527;-0.13465811;0.10149663;-0.015570247;0.038824122;0.22325946;0.15917936;-0.08096983;0.24215068;0.07852264;0.02758423;-0.1730718;0.041709933;0.08832299;0.088216014;0.190033;-0.13708165;-0.0037696562;0.03671656;-0.0066360133;-0.053499155;-0.11288834;0.13377325;-0.31977996;-0.05071616;0.024899008;0.085910894;-0.16515173;-0.047049765;0.11656309;0.11810855;-0.3216101;0.00719221;0.16809776;0.0661695;0.045059863;0.037142843;0.121168144;-0.03179949;-0.13538477;-0.019691475;-0.15965672;0.17885818;-0.11820901;0.19217232;0.20776506;0.00037298232;0.024785835;-0.042743467;-0.007899527;-0.08157722;-0.007485552;-0.053082827;-0.014852046;-0.11685832;0.04668983;0.08271407;0.078098476;0.08832325;0.09993004;0.0001569359;0.108205706;-0.09302865;0.04895398;-0.046190042;-0.18411495;0.07695018;0.041142665;0.07913128;0.14436299;-0.19288826;0.10265587;-0.17382893;-0.20189407;-0.02490939;-0.054946795;-0.076673016;0.09652777;0.015805036;-0.072168685;-0.1838729;-0.005113298;0.033397377;0.09448643;-0.17982355;0.04060505;0.038769655;-0.121661745;-0.24560063;0.01647703;0.18720952;-0.19258143;0.113907516;-0.26823696;-0.07122558;0.25176296;-0.19154017;-0.061663643;-0.17299715;0.29727903;-0.08009802;-0.12457224;-0.22424455;-0.051473435;-0.10347894;0.12503879;-0.063019976;0.008116629;0.18765983;0.19225158;0.122400284;-0.102747224;-0.07930024;0.05672142;0.2491459;-0.20785981;-0.070427515;0.029090757;0.07773975;0.049173843;-0.11560985;-0.11561922;0.07199678;0.069558404;-0.026258495;-0.45541355;0.26881227;-0.09181743;0.0015844742;0.12441056;0.031255446;-0.10153135;0.24372049;0.039257903;-0.011035167;-0.3591706;-0.0005490108;-0.119682014;0.26359022;0.023641052;0.0010261794;-0.08492235;-0.040855657;-0.14806823;-0.06385566;-0.25127974;-0.32147154;-0.19192861;0.061512742;0.074138336;0.22193843;0.16315119;-0.38366306;-0.1687009;-0.10755871;-0.046254028;0.0018403947;0.049149055;-0.13341661;0.066683695;0.19368899;-0.044170283;-0.21183337;-0.27272877;-0.0757925;-0.018953396;0.026958106;0.0017643087;-0.08259309;-0.021210631;0.25424972;0.06985884;0.089741684;-0.014543789;0.2019688;0.0331066;0.07292977;0.1283257;0.09808919;0.059118718;0.11105153;-0.17618185;-0.0075467033;-0.28087234;-0.13221982;0.14989775;0.032898128;0.107663944;-0.08432873;0.2426381;0.0289868;-0.083241425;0.13542764;-0.13203089;-0.00079919246;-0.061021112;0.008939078;0.013982091;0.0060841003;-0.16874292;-0.31742606;-0.03354258;0.03443308;-0.17938401;0.01581087;0.16662677;-0.052952845;0.012500331;-0.006877402;0.05412964;-0.0151702985;0.006782433;-0.029998068;0.25712094;-0.05538401;-0.00030957494;-0.068816;0.115728475;0.031240746;0.10981509;0.008461388;-0.0670006;-0.19805118;-0.20443688;-0.08135135;-0.029732225;-0.055510074;-0.0077324286;0.10214139;0.18151198;0.14224462;0.071919926;-0.0046427334;0.098420806;0.15804714;-0.36737457;-0.044950318;-0.11237435;-0.10399789;0.14892836;-0.08386783;-0.034217235;0.16711754;0.029649764;0.13640422;-0.13499361;-0.03505165;0.11053793;-0.083376646;-0.0061706915;0.11940085;0.026871279;-0.12604769;-0.1522227;0.07137824;-0.061004113;-0.041642886;-0.3750948;0.099618606;-0.092664525;-0.042864703;-0.026705708;-0.04554147;-0.086754985;0.12521331;0.1160878;0.12741232;0.12732159;-0.19906887;-0.009468145;0.046863638;-0.19028357;0.16378897;-0.38105595;-0.082704656;-0.18768607;-0.18811455;0.12869382;0.05957783;-0.19564682;0.018233707;0.017455922;-0.06458748;0.082279466;-0.08161662;-0.30002427;-0.04023508;-0.17335817;0.12255598;-0.17075384;0.022990009;0.13242398;-0.007971704;-0.032130156;-0.2000292;0.027322933;-0.11370346;0.013710318;0.052964162;-0.09263274;-0.07510869;-0.0014387151;0.053550217;-0.19048801;0.07567594;-0.13083415;-0.12979306;0.18212746;-0.25419793;-0.22636041;-0.101891935;-0.08542598;0.009939653;0.31006098;0.025660032;-0.041208033;0.05474829;-0.05922729;0.17714377;-0.09984001;-0.14323328;-0.07364279;0.13215409;0.3300457;-0.063850984;-0.10915785;0.012929195;0.015696777;-0.08428059;0.024782697;0.04816289;0.028193876;-0.06404279;-0.053477015;0.032186635;-0.097788624;-0.097855434;-0.2950789;0.13833483;-0.10378651;-0.11795067;0.13254555;0.09762149;-0.08175811;0.11125468;-0.059556965;-0.09132444;-0.25189438;-0.13765346;0.06439676;0.06159183;-0.21990336;0.1395852;-0.13030148;0.11753051;-0.48880714;-0.07108309;0.07040595;-0.172252;0.10675301;-0.0499091;-0.05538699;-0.04370803;0.17422812;-0.15291731;-0.039506625;-0.022891633;-0.021196924;0.005669568;0.15135711;-0.13351712
-0.028692592;0.095564336;-0.2161405;0.07531253;0.0834988;0.022027949;0.022744551;-0.11436905;0.0021071322;-0.071630605;0.2397559;-0.05620398;0.043015122;0.09905214;-0.066584505;0.04246258;0.020011617;-0.2586118;0.098164134;-0.08594929;-0.0003414913;0.049082454;0.054263227;0.12768035;0.00854925;0.06894802;0.017751044;0.11350409;0.07994944;0.09845406;-0.02068493;0.101222314;0.03790588;-0.10468686;0.1507004;0.06604638;0.1668118;-0.14373875;-0.046397664;0.11071656;0.032479115;-0.024218203;0.11152596;0.048551798;0.017692996;-0.16148104;0.12663862;-0.13794795;-0.02366625;0.011329561;-0.005009122;0.33258092;0.13875656;-0.05863092;0.2761123;0.03492767;-0.21327412;-0.08842611;-0.1901894;-0.020093324;0.09053816;-0.09619258;0.088817574;-0.10842603;0.2400212;-0.13226068;0.01903345;0.06621998;-0.22085589;0.1751699;0.13723391;-0.07814246;-0.11196839;0.10229375;-0.08735515;-0.21728274;-0.22318447;0.027590629;0.02333006;0.082741;0.25284743;0.0324431;0.029034296;-0.11391896;-0.05713071;0.084195785;-0.0008011659;0.1008348;-0.08544642;0.035186853;0.073461115;-0.029248705;-0.23139192;-0.10037386;-0.11547917;-0.05658814;0.15198797;0.31696975;-0.087778606;0.17906255;0.10930718;0.059293356;-0.32278654;0.058892876;-0.28361452;0.0037777214;-0.058995444;0.054420773;-0.2550218;0.119515434;-0.12450213;-0.09874254;0.10691774;-0.19741696;0.06800014;0.14219032;0.02224251;0.031005029;0.11177236;0.06464169;-0.07607624;-0.024260852;0.08470118;-0.01844478;-0.21222745;-0.015461543;-0.14624402;-0.16413619;-0.10948203;0.010769796;-0.35044292;-0.086356655;0.17365699;0.22437711;0.2626747;-0.35548288;-0.036243036;-0.017930055;0.16766956;0.12090255;0.028370488;-0.30662253;0.012988138;0.07478093;0.07311842;0.2405598;-0.052404135;0.10020777;0.18854363;-0.33259958;-0.054604713;-0.09569977;0.03457737;-0.24330907;-0.28116912;-0.25020912;-0.32366887;-0.07423771;0.13439162;0.08100796;0.0026334163;-0.039472654;0.13572195;0.06566083;0.09716548;-0.11510387;-0.17527355;0.1116583;-0.2636046;-0.1991976;-0.074329354;-0.16988388;-0.02081182;0.022639876;0.13037756;0.002948501;-0.031402323;0.043128077;-0.030082041;-0.1287531;-0.082470916;0.14213708;0.051782925;0.049985405;-0.08106458;0.09226515;0.17065524;-0.10331803;-0.04632393;0.27516085;0.09368191;0.112208545;0.22724395;0.04583103;0.14348723;0.006928722;-0.12703854;0.063412696;-0.19861023;-0.056076683;0.16912206;-0.14924295;0.043716513;-0.15871774;0.1855188;0.051347684;-0.10319099;-0.00551044;-0.013839132;0.05180456;0.16392143;0.15759763;-0.16193591;0.20131703;-0.07345132;-0.17082709;-0.20286913;0.068139024;0.23437566;0.053665705;0.2278422;-0.056009904;-0.060020436;0.14551012;-0.04439972;-0.006771941;-0.027206648;0.19226885;-0.24298702;-0.1911994;-0.13064338;0.17260318;-0.1724122;0.04048185;-0.0025981495;0.054641604;-0.17503908;-0.097849354;0.13215166;0.12695071;0.2249824;0.01854699;0.038732752;0.022969611;-0.11862695;0.10113011;-0.1314095;0.08805961;-0.100520596;0.12965317;0.04080196;-0.13305034;0.06460112;0.001692215;-0.013363956;-0.017790584;0.07881239;0.058291804;0.053996753;-0.21268837;-0.03971796;-0.0039245244;0.036803577;0.17848806;0.02609439;0.036767583;0.13548975;-0.07333893;0.037613202;0.031548113;-0.18693453;0.113926984;0.05348904;0.094345;0.25603655;-0.11979774;0.13458489;-0.19418092;-0.1737061;-0.040517125;-0.12442785;-0.005591789;0.0006191709;0.03228839;0.020475699;-0.20731531;-0.016938403;0.14962882;0.16066235;0.024384411;0.013536487;0.18210831;-0.056210276;-0.36957562;0.15212817;0.16755189;-0.20705174;0.12701766;-0.16382176;0.071887895;0.12199884;-0.2062876;0.020535631;-0.04445232;0.32756597;-0.16117795;-0.081336506;-0.14085722;-0.031600885;-0.026014015;0.1921189;-0.054105878;-0.05563824;0.19636805;0.19603345;0.19124237;-0.039563954;-0.05687498;0.09617873;0.2938272;-0.21273112;-0.1815571;-0.039566692;-0.0046296413;0.028231505;0.019295903;-0.10012194;0.034714043;0.06816344;-0.105192535;-0.39245838;0.36290503;-0.034778148;-0.08344959;0.081540294;0.18528429;-0.083502755;0.1212379;0.07579873;-0.04325612;-0.30170435;0.056403965;-0.06178169;0.13878998;0.089603305;0.026775466;-0.066987105;-0.026730085;-0.20173515;-0.06475689;-0.13792099;-0.27977002;-0.02492821;0.16571952;0.039336324;0.18366939;0.030971136;-0.3369697;-0.062470134;-0.11231111;-0.19623931;-0.04797825;-0.12282784;-0.043428086;0.054428924;0.08327537;0.024286803;-0.23521009;-0.33578837;-0.23158666;0.07654237;0.11480443;-0.06928393;-0.12860139;0.1401548;0.09431757;-0.018275654;0.16191703;0.027952675;0.19360358;0.10480286;0.14009523;-0.016820762;0.055001177;0.035876885;0.07920004;-0.17536196;-0.063318014;-0.25859413;-0.07562798;0.09829067;-0.0067094197;0.13303785;0.062076967;0.15450557;-0.06825529;-0.13145481;-0.020772973;-0.12761784;0.028891284;-0.09862835;0.07659385;-0.05962253;-0.015492913;-0.06677314;-0.28157026;0.03064938;-0.036200598;-0.15772183;0.001840955;0.0491772;0.117228955;-0.0689626;0.05305045;0.10403506;-0.04695815;-0.02085619;-0.04742659;0.16232109;-0.055447135;0.024941599;-0.082307376;0.2259047;0.074050345;0.21009022;0.049238652;0.016452106;-0.2810234;-0.20295833;-0.054312542;0.041233297;-0.16682598;0.13215172;0.09193131;0.24090013;0.020667559;0.018256975;-0.004895676;-0.14757125;0.032141026;-0.28391963;-0.1413126;-0.092639595;0.0115127135;0.24877585;-0.0050586723;0.11463809;0.108443834;0.11893879;0.28190026;-0.0027648674;-0.03539146;0.0036927268;-0.06902755;-0.0026239438;0.11882805;0.080319054;-0.13047904;-0.18790157;-0.050753694;-0.066963196;-0.12488315;-0.33607456;0.08994519;-0.08521395;0.019511139;0.02587562;0.07677377;-0.08922754;0.08283441;-0.002395029;0.17578427;0.23610865;-0.115936965;0.10579545;0.050788052;-0.10081648;0.20252497;-0.3638126;-0.009344253;-0.15468974;-0.22473764;0.17130409;0.08443112;-0.19295123;0.02430641;0.07109572;-0.17633715;0.021952791;-0.027446313;-0.2145024;0.06737013;-0.118206255;0.1788302;-0.19325137;-0.09636044;0.12919019;-0.0527311;0.089653365;-0.033863917;-0.040612176;-0.2183579;0.04424982;-0.0190978;-0.072730295;-0.113247134;0.0321138;-0.012148239;-0.19092277;-0.037736945;-0.02148838;0.002931222;0.2185845;-0.26562515;-0.19617942;-0.118888095;-0.18441743;0.07547724;0.26365942;0.17896013;-0.0066093183;0.05276487;-0.009638104;0.254374;-0.14880495;-0.047699183;0.045012128;0.04900719;0.2172979;0.04158209;-0.022304522;0.0038997272;-0.11389839;0.07981113;0.1025069;0.025635099;-0.078085706;-0.06443479;0.1030988;0.087701105;-0.084365465;-0.035310578;-0.25421947;0.1191577;0.050569173;-0.123346284;0.1451657;0.22875308;-0.16499752;0.19520323;0.03214179;-0.050473075;-0.17285697;-0.015342909;-0.046003986;0.11569225;-0.22195631;0.12412621;-0.15880962;0.17563194;-0.35293728;-0.015309364;0.014562235;-0.03247129;0.1879679;-0.17243102;-0.048403516;-0.14060065;0.18191819;-0.35848513;-0.03236875;-0.050994687;-0.082801834;-0.08565373;0.2417516;-0.050038405
-0.13374959;-0.07737465;-0.21242136;0.006347976;-0.004000946;0.02795411;0.11083332;-0.29979962;0.025985403;-0.0060233795;0.26666573;-0.059572987;0.050673205;0.07936597;-0.07053069;0.04620507;0.1394695;-0.30437112;0.06409263;-0.16512556;0.024903664;-0.07813338;0.042867407;0.040906556;-0.10581347;0.08297311;0.13926332;0.079764284;0.060796313;0.01141131;0.07245675;0.070138454;0.057308733;0.08293163;0.24071854;0.09459058;0.09712982;-0.11185353;0.08573321;0.032914396;-0.02811198;-0.041341934;0.07678163;-0.023974875;0.006600096;-0.14459252;0.117436945;-0.09418949;-0.06900071;0.026614565;0.055605702;0.2903122;0.05203078;-0.08245793;0.18486199;-0.0067706383;0.021237649;-0.05868696;-0.29883355;-0.1647091;0.25758877;-0.18608461;0.17411827;0.017585777;0.1876042;-0.13464613;0.055459786;0.116784915;-0.17989443;0.17472763;0.011133691;-0.0046879817;0.016618948;0.124747284;0.039886698;-0.07322117;-0.10618436;-0.06625222;-0.10540695;0.020137217;0.25812072;-0.0046195285;0.074971914;-0.060125034;-0.10439307;0.09144238;-0.023211177;0.031786114;-0.118765816;-0.042651832;0.0049045715;-0.08317474;-0.19899216;-0.10835993;-0.08448565;-0.085601285;0.1984072;0.3054561;0.12695579;0.09705389;0.10451158;0.0064978963;-0.25309935;-0.009649847;-0.2863325;-0.027158443;0.0068338662;0.03350472;-0.31559613;0.153757;-0.20311005;0.006260287;-0.008423953;-0.2087127;-0.05804056;0.22693993;0.06803718;0.03699244;0.06737721;0.016363423;-0.21667047;0.016997466;0.07064584;0.024227528;-0.052205574;-0.030969292;-0.19364499;-0.15006246;-0.11762021;-0.02221251;-0.22581707;-0.19169803;0.23381571;0.14897706;0.19660918;-0.31073594;0.08774642;-0.13241506;0.11055314;0.12184608;0.008958101;-0.10990081;0.013240729;0.08573037;0.05409511;0.20906657;0.06855875;0.047187515;0.16882509;-0.04496735;0.048637193;-0.09858507;0.045028932;-0.30322024;-0.35584006;-0.27097;-0.27719784;-0.046358768;0.057355765;-0.14717755;0.00428153;-0.018247757;0.1445373;0.046681907;0.05155027;-0.09219359;-0.045942985;0.0072712675;-0.20972541;-0.16670044;-0.038496803;-0.21560423;-0.016429929;0.05707155;0.22786544;0.13565132;-0.12574436;0.21011043;0.16691148;-0.10671882;-0.16666773;0.071146294;0.14794254;-0.006031484;-0.13697696;0.02452285;0.16342448;-0.07531445;-0.019654458;0.25159228;0.016719906;0.058505286;0.18877111;0.034656905;0.06217543;-0.023530506;0.013309677;0.060678;-0.12515506;-0.048098795;0.23496217;-0.2356672;0.12605426;-0.18114479;0.16819644;0.09972455;-0.018229423;0.07983727;-0.02663303;0.05736882;0.16257265;0.19208309;-0.13020238;0.23950908;0.012982518;-0.15981324;-0.11748514;-0.009703724;0.13100664;-0.14205691;0.100816324;-0.16857131;0.053291216;0.12662354;-0.074532405;-0.046154898;0.030040383;0.1171423;-0.25302935;-0.14933018;-0.03767411;0.27028322;-0.17976214;-0.0005355749;-0.074362986;0.047988586;-0.2515898;0.095797956;0.32722905;0.21353972;0.16578393;0.12626202;0.079196416;0.06709878;-0.119389065;-0.025656795;-0.23723046;0.08434474;-0.043973446;0.18408944;0.22931826;-0.11219735;0.01190526;0.024696836;0.033503745;-0.2166223;0.058438014;0.0140721835;-0.059586853;-0.053184032;-0.0007503803;0.17573415;0.07887241;0.0069559943;0.07946858;0.06693933;0.06228294;0.022096835;0.017336365;0.13504325;-0.029175766;0.05624064;0.022351801;0.2232814;0.24641295;-0.17492223;0.0758388;-0.0464041;-0.25226325;0.0020348495;-0.16596682;-0.047433134;-0.06655692;-0.009696275;-0.11789241;-0.24417742;-0.1283342;0.16874231;0.16353028;0.014611526;0.06514923;0.13454399;-0.068353824;-0.27078584;0.052507885;0.14451018;-0.3265811;0.0870767;-0.26975873;-0.057040703;0.14256877;-0.15866719;-0.096079774;0.037833173;0.2547315;-0.118861064;-0.18533894;-0.19354138;0.13077809;-0.008306271;-0.003954364;-0.08684745;-0.09158648;0.14237875;0.25605053;0.14446561;-0.019279229;-0.05381036;0.114575006;0.1583549;-0.19347912;-0.1422865;0.058109988;-0.09850245;-0.011561248;0.011243834;0.004357624;0.112897694;0.083035;-0.07959599;-0.306186;0.25159624;-0.19811366;0.061336767;0.116090894;0.193172;-0.07514879;0.1640789;0.025017703;-0.012942265;-0.3177838;-0.0044070682;-0.08421186;0.16229486;0.078703366;-0.0970729;-0.09280131;-0.14980951;-0.17484832;-0.01577238;-0.17720251;-0.14693189;0.0039990065;0.08266605;-0.019606482;0.26214567;-0.033411417;-0.26045817;-0.2255863;-0.024203476;0.052586418;0.04182381;-0.082151145;-0.16862592;0.028406205;0.28440085;-0.13020341;-0.25402358;-0.41541153;-0.092870094;0.019851105;0.14988731;-0.13585725;-0.21168232;-0.0068536373;0.10364429;0.010570084;0.058297995;0.035366584;0.26611295;0.1337966;0.21872157;0.018687973;-0.027865784;-0.029877525;-0.07264996;-0.18845285;-0.02557826;-0.15412526;-0.18912555;0.075231716;-0.083131336;0.11324419;0.0993378;0.08121498;-0.07263897;-0.10183791;0.06951263;-0.19356996;-0.12340509;-0.18498391;0.0673871;0.055687487;0.055450577;-0.10096516;-0.3018726;-0.034342058;-0.05681559;-0.054605264;-0.041781668;0.1494829;0.001529377;0.116439514;0.059111957;0.0689983;0.013063963;-0.00018943561;-0.12896404;0.11539228;0.055521496;0.07588958;-0.06568889;0.2992352;0.038741823;0.20995112;-0.04721931;-0.009896411;-0.33854288;-0.20814708;-0.03173448;0.0775998;-0.1593099;0.011552654;-0.018398086;0.21616073;0.08713895;0.0417556;0.05713666;-0.15201542;-0.041366372;-0.40250707;-0.12081304;0.020995697;0.01690005;0.2056944;-0.1004026;0.1677188;0.13297169;0.07317951;0.1264324;-0.14099142;-0.015910257;0.057102736;-0.06778932;0.055182982;0.21215829;0.05117542;-0.21139158;-0.15978791;-0.12995961;-0.03959959;0.111132324;-0.41960064;-0.040226363;0.0053816712;0.0069686957;-0.020897716;-0.035902776;-0.047729556;0.09562135;0.06886074;0.20782614;0.2812257;-0.18852444;0.15613383;-0.032199156;-0.17406018;0.10332625;-0.37734362;0.031963576;-0.047602355;-0.2632846;0.16929036;0.13507642;-0.0975247;-0.059581283;-0.020244123;-0.1271461;-0.009567816;-0.14088245;-0.284874;0.12350142;-0.030461896;0.18984662;-0.062090937;0.039865244;0.04956638;0.034894884;0.10062207;0.00025410837;-0.08383362;-0.22526744;0.11819692;0.031701267;0.013576951;-0.12564796;0.11643524;0.059363995;-0.29380354;-0.055134792;0.009249596;0.0010417763;0.0594113;-0.29554594;-0.12016273;0.021449512;-0.15388358;0.1755723;0.15772165;0.04399213;-0.11685491;0.11757779;-0.06342371;0.18463312;-0.023869624;-0.07377881;0.007462387;-0.07801057;0.29320014;-0.08137622;-0.08619827;0.05125403;-0.111248694;0.092223756;-0.0051204734;-0.048097063;-0.061657716;-0.067787625;-0.023282371;0.09419082;0.024645071;-0.1233934;-0.26744878;0.18429528;0.043584388;-0.076965384;0.2298719;0.19639198;-0.16482332;0.1823049;-0.16850835;0.09211943;-0.083243236;-0.075621195;0.08930117;-0.03596763;-0.3054018;0.051906526;-0.09912207;0.13085607;-0.4780939;-0.05237749;0.064095326;-0.15729101;0.18509074;-0.078679636;0.01161425;-0.11434586;0.17668043;-0.23310407;-0.032076545;0.0014681617;-0.021416418;-0.015927099;0.18386397;-0.00023569676
0.032045405;0.012743823;-0.09551498;-0.0026387097;0.059401426;0.16840455;0.10107191;-0.19815688;-0.02425232;-0.039777778;0.10790739;-0.078595124;0.07477765;0.100941956;0.02759956;-0.07124799;-0.03482056;-0.21704158;0.08941173;0.06139083;0.06163996;0.06503293;0.09916923;0.1133002;0.013461508;-0.091060214;0.04308195;0.08441763;0.10101653;0.06147673;0.014876839;0.20863046;0.09632689;-0.06274302;0.19734107;0.11013055;0.16206896;-0.14566427;0.006112707;0.12044768;0.03291509;-0.018183338;0.05033523;0.004266624;0.20903926;-0.13151613;0.017042892;-0.1912309;-0.044090256;-0.06032581;-0.06624041;0.33101314;0.035463158;0.08644283;0.20159961;0.009955425;-0.07759495;-0.027969046;-0.07435123;-0.06139172;0.16942088;-0.06201903;0.11609907;0.0407243;0.092120156;-0.020772874;0.17187788;-0.025745142;-0.16987815;-0.022563405;0.09390837;-0.02160699;0.004401274;0.08185682;-0.013892231;-0.20587687;-0.21809542;0.121114455;-0.022014711;0.038952116;0.18458189;0.03556421;0.066494666;-0.09345436;0.03175662;0.0075193928;-0.13639018;-0.020624274;-0.14247838;-0.069397785;0.05392053;-0.08076463;-0.10448314;-0.1613943;0.0004142501;-0.1028849;0.13818656;0.23889999;0.03451286;0.12858334;0.11158803;0.05304358;-0.30608675;0.08950972;-0.45500237;-0.09485988;0.072146855;0.13761209;-0.24442154;0.11298783;-0.014870845;-0.096368685;0.015009947;-0.19959642;0.0076443497;0.119409665;0.06805675;-0.09877215;0.07998566;-0.02117318;-0.094901145;0.020661084;-0.06777331;-0.11640773;-0.16872028;0.056554038;-0.17060961;-0.2416998;-0.068121396;0.011298273;-0.33203587;-0.08089012;0.16105752;0.072298534;0.1108426;-0.25797445;-0.025512276;-0.0017532035;0.06533938;0.071525335;0.053783912;-0.13688853;0.18069656;0.16031896;0.09485443;0.09994185;-0.04052727;0.047924835;0.10194237;-0.14934322;-0.019276692;-0.108376205;0.083633274;-0.22098893;-0.13284668;-0.20009212;-0.28045553;-0.1520266;0.14699711;0.0075806594;-0.031273734;-0.006302187;0.03602287;-0.03610867;0.067739554;-0.06710014;-0.057139676;0.15314451;-0.16692711;-0.18730149;0.09245117;-0.08880679;-0.06407002;0.0041037886;0.0047776173;0.06989173;0.022224404;0.13545181;0.16258956;-0.018193232;-0.056686774;0.1218819;0.21135984;0.06550692;-0.026287686;0.06736237;0.031441215;-0.09634501;-0.06925786;0.21776958;-0.06476677;0.06707597;0.09062098;0.040257685;0.07481936;-0.042037398;-0.07373847;-0.0017989008;-0.084407434;0.092094004;0.12726948;-0.1559961;0.096351855;-0.15969838;0.21840203;0.16338626;-0.12940772;0.06822697;0.017947331;0.042488407;0.06626536;0.04000068;-0.02423542;0.18398893;-0.033075497;-0.08541249;-0.170429;0.102593295;0.1691257;-0.02630752;0.0597422;-0.15975456;0.0053609745;0.09903974;0.057689875;-0.060200453;-0.08464039;0.085834116;-0.1995675;-0.16076678;-0.12119395;0.1836533;-0.12895451;0.05051263;-0.0011923492;0.14262393;-0.23764458;-0.036768425;0.25849825;0.14812618;0.09974936;0.16539004;0.14526077;-0.078953184;-0.17836203;0.0065024113;-0.12129914;0.18369204;-0.20363869;0.08199453;0.19400248;-0.23609202;-0.028359301;0.0017740178;-0.0139231505;-0.080349684;0.034299888;0.06157243;-0.042936035;-0.18572122;-0.032501794;0.019446088;0.105392545;0.061214253;0.014686479;0.042463627;0.07374882;0.068835445;0.09209726;0.008411307;-0.1491302;0.09474795;0.08101097;0.09596029;0.11433441;-0.19538552;0.21462911;-0.10375677;-0.08402556;-0.051615294;-0.10221717;-0.17707641;-0.039582297;0.005548974;0.006257754;-0.07823088;0.07008573;0.052436087;-0.001779409;-0.10009693;0.15601432;0.05254265;0.026456546;-0.34479985;0.09940686;0.04595931;-0.16257666;0.048788156;-0.15725432;0.057929758;0.11082269;-0.028355613;-0.09291909;0.062187783;0.17542517;-0.11894974;-0.0185015;-0.19571185;0.043480467;-0.13847959;0.15943325;-0.17672716;-0.0548251;-0.025055837;0.21095252;0.03872185;-0.023344832;-0.020689528;-0.054051425;0.24532856;-0.07780717;-0.14171866;0.039369136;-0.19177125;0.026655175;0.13327503;-0.0025180234;0.096357495;0.09078487;-0.07241352;-0.4024052;0.21767618;-0.047277357;0.10375475;0.13926238;0.033500273;0.0389714;0.035111424;-0.0038918469;0.084272094;-0.20556419;0.03820998;-0.069811314;0.093381085;0.12404405;0.052303825;-0.1448501;-0.05816289;-0.19847012;0.08211312;-0.18266816;-0.21288568;0.01959414;0.18032964;-0.09035055;0.26137146;-0.0004377414;-0.30107084;-0.14775169;-0.1044702;-0.12745266;-0.05494301;-0.054654535;-0.06438541;0.017642539;0.14063767;-0.12572251;-0.05654457;-0.35760078;-0.08216471;-0.02537917;-0.01816627;-0.04714992;-0.25290924;0.008290055;0.14556561;0.021087479;0.13200271;0.15626395;0.14669757;0.02760935;0.06326758;0.046345845;-0.13120382;0.0027007295;-0.09891748;-0.18851556;-0.107188806;-0.10312404;-0.18375167;-0.005667913;-0.0622821;0.2116066;0.050941106;0.16127701;-0.1025285;-0.12226677;0.1382399;-0.21902455;-0.00066131266;-0.092951216;0.054193534;-0.010123483;0.039319042;-0.1621465;-0.32171026;0.063552864;0.012846607;-0.08117265;0.014888163;0.08723241;0.0124036325;-0.095795654;0.12873775;0.14425798;-0.15575476;-0.14421333;0.0018844373;0.23295951;-0.021440009;0.08865464;-0.1346073;0.17543009;0.0559994;0.13277176;0.07368876;0.123025216;-0.16232501;-0.26722807;-0.06078808;0.091354124;-0.02165402;0.101969674;0.030758115;0.26162297;0.041420717;0.11887964;-0.0680325;-0.031827595;0.14082032;-0.3640982;-0.1678688;-0.05190159;-0.058253143;0.07821825;-0.0051866104;0.09962384;0.056969583;0.077080116;0.26172417;-0.030330174;-0.029600242;-0.009041819;0.01319406;0.091269694;0.028824054;0.044349156;-0.08285589;-0.35956338;-0.16798168;0.10395166;-0.09466076;-0.39256686;0.031783693;-0.1501245;-0.081485055;-0.11618175;0.025902152;-0.0809232;0.10183027;0.039997403;0.098194115;0.12800181;-0.19478631;-0.030827597;0.09424525;-0.2745373;-0.04466532;-0.3578796;-0.14014569;-0.083185546;-0.17183891;0.105076656;0.12289405;-0.02352169;-0.008357671;0.056969125;-0.07699289;0.23566964;-0.016526086;-0.26631483;-0.012540059;0.065977894;0.18612862;-0.054805495;0.023615465;-0.088329576;0.07467769;-0.024327317;-0.17754892;-0.021360142;-0.15729088;-0.0580936;0.08772113;0.0019039332;-0.049468804;0.0519564;-0.05578181;-0.20470174;-0.0036156732;-0.13957286;-0.009731877;0.1511767;-0.29580778;-0.18708162;-0.026396412;-0.09162596;0.17800209;0.14764847;0.084156685;-0.035902496;0.05190158;-0.020260299;0.03343037;0.06994128;-0.008673723;-0.014809289;0.021336999;0.26534703;0.017208887;-0.14575173;0.10195046;-0.0064936588;0.039120145;0.057438973;0.044424623;-0.050482854;0.0015494083;0.07519388;-0.07427437;0.058937635;-0.037007365;-0.2651477;0.12092739;-0.080087766;-0.13360332;0.040811457;0.17992745;-0.14906713;0.030810013;-0.058358166;0.016540248;-0.113466606;-0.080174744;0.016688453;0.033822145;-0.3091967;-0.0010137026;0.022713035;0.089809306;-0.29812956;0.007163527;-0.0031910643;-0.105271466;0.07307936;-0.1914496;0.055356067;-0.15038359;0.14269003;-0.32430667;-0.15038376;0.012822824;-0.10420846;-0.16413705;0.23310755;-0.08636361
-0.020409305;-0.03714911;-0.0395037;-0.04989396;-0.015498917;0.16475208;0.06661127;-0.28190386;-0.076471515;-0.03444119;0.16920857;-0.044563647;0.118687555;0.08073435;-0.041828874;-0.0137609085;0.13693559;-0.18856008;-0.03272727;0.06650456;0.09742537;0.014055461;0.075353086;0.14572078;-0.14323367;0.04617491;0.03686385;0.0992444;-0.026528567;0.13508092;-0.03927364;0.13740051;0.18242957;-0.061916497;0.26406065;-0.068142086;0.17265604;-0.22374341;0.029534638;-0.058477875;0.013323963;-0.013153576;0.0037902594;0.006596496;0.076513395;-0.08947785;0.0744526;-0.13016935;-0.1194027;-0.033795934;-0.1525548;0.36418223;0.054418597;0.123381115;0.18225288;0.081389345;-0.025560595;-0.0041917376;-0.18472183;-0.09171473;0.20826748;-0.11976257;0.19393362;0.0036460892;0.2157462;-0.045134988;0.036192145;-0.096225865;-0.23626138;0.110094614;0.19568142;0.08291541;-0.049742248;0.12847923;-0.11769328;-0.15192948;-0.21756352;0.1293124;0.021011276;0.01914239;0.23840292;0.09577802;0.15617074;-0.06423188;-0.010061101;0.057269335;-0.08678818;0.00130457;-0.066593155;-0.026496893;0.07401236;0.024833586;-0.09812162;-0.194298;-0.12572253;-0.069731735;0.040690582;0.2806317;-0.097134426;0.09570206;0.118651144;0.03706495;-0.16461928;0.06144351;-0.4485644;-0.000790636;0.11735053;0.2735267;-0.26231325;0.17495732;0.07684633;-0.013820296;0.07027089;-0.107375115;0.02706723;0.075238764;-0.013946429;-0.12128934;-0.011354409;-0.07233175;-0.05259359;0.12189786;0.108984224;-0.09626505;-0.106965795;-0.10060875;-0.15473965;-0.15865934;-0.097276635;-0.07968491;-0.36911893;-0.089641824;0.20658967;0.020625558;0.17662068;-0.29721406;-0.049295932;-0.11513656;0.09451994;0.0026343467;0.0040090317;-0.20663846;-0.022832975;-0.016046183;0.017280586;0.08737077;0.05458495;0.13152447;0.19402686;-0.19524524;0.2062177;-0.04544449;-0.052938476;-0.11028379;-0.26863283;-0.12849624;-0.21193478;-0.1484478;0.098570384;-0.054090336;-0.08114406;0.055368293;0.06580129;0.09191336;0.11452928;-0.025946638;-0.11227292;0.042763997;-0.09647006;-0.2039271;0.021419104;-0.025062345;-0.055337187;0.021066071;0.0422762;-0.018377244;0.005620348;0.19087836;0.060361598;-0.05435544;-0.14764802;0.07632612;0.11808773;-0.07635821;-0.103462115;-0.039904602;0.06648127;0.0026267278;0.06511486;0.23942551;-0.080123715;0.13933977;0.24362677;0.0484705;0.08894675;-0.063118435;-0.035534777;0.1073852;-0.07595143;0.082203776;0.020270506;-0.1606202;0.039300278;-0.24736702;0.19435847;0.06416149;-0.0058792615;0.06679322;0.0029199875;0.022852782;0.21766385;0.09811292;-0.115737475;0.25593492;-0.09419899;-0.016950034;-0.19748564;0.0292392;0.19032653;0.020041255;0.039133813;-0.20184068;0.052774604;0.031284712;0.06358119;-0.10671641;-0.007634986;0.10697466;-0.12976055;-0.19640422;-0.072868876;0.1155137;-0.2079827;0.062030215;-0.0364096;0.0033300433;-0.1616321;0.044245753;0.32919714;0.14127386;0.18326102;0.09189211;0.039683793;-0.03824706;-0.123992436;0.045698572;-0.21574903;0.08453794;-0.20682758;0.15706795;0.2011608;-0.18714722;0.112064965;-0.08552705;-0.008745295;-0.14551346;-0.025787925;-0.06511994;-0.07465101;-0.23918076;-0.07271556;-0.030694984;-0.0069936365;0.2102961;0.10326519;0.10935738;0.06550295;0.104972444;0.0034735957;0.10239252;-0.14914085;0.0765706;0.07623988;0.12532082;0.12532075;-0.21738678;0.15505211;-0.009130457;-0.11163777;-0.10255369;-0.016536292;-0.10980715;0.032221016;-0.012626428;0.09945973;-0.122878;-0.061040305;0.16431443;0.0952927;-0.045799535;0.22508256;0.016517678;0.05985246;-0.20412304;0.101172864;-0.08803958;-0.09794264;0.082790196;-0.17790067;-0.060406446;0.11245916;-0.085392185;-0.077146165;0.039455313;0.2376522;-0.07576033;-0.060366753;-0.12577675;0.002958128;-0.04940782;-0.04502988;-0.1330646;-0.012089435;-0.06441482;0.12582007;0.16062285;-0.18577456;0.04843545;0.09011611;0.16614915;-0.113174856;-0.08692278;0.08399137;-0.04522009;0.02990688;0.042114332;0.10920212;-0.06263907;0.07985304;-0.070763566;-0.4546841;0.19135657;-0.2597468;-0.043828666;0.035614014;0.013331658;-0.02960265;-0.02310941;0.040312916;0.10081014;-0.10952881;0.050598606;-0.008716214;0.046859726;0.13693146;-0.016162474;-0.26531437;-0.007452147;-0.0322762;0.19197723;-0.03242375;-0.07197817;-0.05336905;0.07544154;-0.055472758;0.18592122;0.021128668;-0.29407942;-0.13761202;-0.035430603;0.060064234;0.0074363877;-0.052126553;-0.030691365;0.032134637;0.243448;-0.16836439;0.031439096;-0.35142475;-0.08914018;-0.023071056;-0.01605091;-0.11529238;-0.28937703;0.039358452;0.06527589;0.075137734;0.15272968;0.025195187;0.18875712;0.09267787;0.07330935;-0.06381595;-0.15003431;-0.053423595;-0.02020219;-0.26697463;-0.07156768;-0.10156561;-0.077004835;0.07543914;-0.032591164;0.08798292;0.08391534;0.14056942;-0.086189575;-0.13110486;0.07316274;-0.19946355;-0.035991844;-0.13379368;0.033446625;-0.036119092;0.061136365;0.022212015;-0.30268177;0.1312954;0.10001627;0.048131373;-0.045471665;0.22611654;0.086797304;-0.058424592;0.098354906;0.163568;-0.19731937;-0.07364437;-0.071089126;0.1594126;0.15396318;-0.009227221;-0.0321233;0.16868007;-0.0017526753;0.12898703;0.089733705;0.026252985;-0.1513769;-0.24916634;-0.026733555;-0.01472797;-0.09398957;0.08563334;0.118887186;0.2570918;0.00990595;0.08163291;-0.08691162;-0.052696045;0.016580943;-0.26596177;-0.13510449;-0.0085504055;-0.15853152;0.26750776;-0.15533246;0.09810183;0.009128515;0.04743339;0.2568529;-0.102018915;0.13915275;0.058680248;0.090044945;0.05620398;0.16144268;0.10897205;-0.10625438;-0.26802954;-0.16106921;-0.067273915;-0.03417173;-0.2476871;0.16121705;-0.089385696;0.040589258;-0.023538651;0.069362074;-0.057253134;0.03671703;0.09774457;0.20763996;0.029346867;-0.26236954;0.062561944;0.012294324;-0.21910667;0.009649334;-0.20672137;-0.049584378;-0.104659885;-0.18868239;0.25425628;0.12716599;-0.17921758;-0.08459671;0.0992165;-0.12107209;0.15968207;-0.08976399;-0.28960267;-0.0052192165;-0.015800709;0.051669527;-0.1438783;0.12938873;-0.0628952;0.059911627;-0.030430906;0.006407233;0.038781464;-0.16711798;-0.011017487;-0.057777956;0.02878626;-0.030720638;0.033288997;-0.020878814;-0.10151411;0.11655855;-0.14143556;0.10021614;0.10987417;-0.27566922;-0.23589611;-0.06560065;-0.08968309;0.039714932;0.14028226;0.10340735;-0.068342224;0.06799759;-0.055645566;0.10456658;-0.03186361;-0.117640264;0.08038525;0.15506087;0.27751935;0.017861338;-0.1503692;0.030111894;0.08136744;0.041485824;-0.062315412;0.050326064;0.016239816;0.08751019;0.046187274;-0.055047452;0.10371277;-0.03156444;-0.2625942;0.07051247;-0.12473494;-0.21586096;0.09845587;0.23354675;-0.09192334;0.13242511;-0.06445796;0.07443468;-0.035492957;-0.19031338;-0.0021459453;-0.103083365;-0.31951234;0.039790872;-0.08435911;0.11213051;-0.23949046;-0.117494576;-0.087421454;-0.04840332;0.029534915;-0.21807592;0.013306785;-0.14933045;0.22927085;-0.3563478;-0.15318398;-0.010082457;-0.111084156;-0.11571178;0.26132426;-0.0628303
0.094911896;0.032627553;-0.09669789;0.038381137;0.009186928;0.055438556;0.035140403;-0.18139231;0.020218272;-0.16853346;0.15553083;0.0058953683;0.12117195;0.001070176;-0.060020804;0.052950628;0.15121695;-0.15408759;-0.017339801;0.030692186;0.010747983;0.011174259;0.064603865;0.037937503;0.010217464;-0.008455557;0.018152704;-0.018898632;0.041468855;0.122740164;0.031801254;0.10379887;0.1062839;-0.054749776;0.13689831;-0.082739264;0.17935646;-0.11865387;-0.054526225;0.101968616;-0.0022248593;0.00638119;0.11664496;-0.02762452;0.07668086;-0.08127074;0.006680879;-0.24883676;0.068085656;-0.13632743;-0.033924446;0.30584916;0.07682166;-0.009299108;0.20609634;0.0050856057;-0.062433;-0.03159961;-0.18508255;-0.024505412;0.1833503;0.03178099;0.14855357;0.04710805;0.13427587;-0.112950124;0.0879831;0.044232253;-0.27965358;0.12453859;0.16792476;0.07086453;0.07663355;0.132649;-0.11743474;-0.15676221;-0.17313397;0.12056921;0.016435206;-0.016583314;0.24905609;0.05638659;0.058843564;-0.09412109;-0.043161858;0.12030381;-0.043072283;0.060303967;-0.2091506;-0.12606049;0.03166326;-0.017826144;-0.09649523;-0.13952479;-0.0056489096;-0.008416834;0.03715642;0.24368803;-0.01843656;0.13859396;0.17227077;-0.004244193;-0.23303792;0.090411775;-0.44277793;-0.11443798;0.07455605;0.12553346;-0.18162242;0.13679534;-0.037420515;-0.08468555;0.10701548;-0.14700228;-0.058208745;0.14287844;0.026592478;-0.057958476;0.029775903;-0.044846483;-0.03751158;0.08345586;0.111218855;-0.18064737;-0.12279827;-0.12358293;-0.1028784;-0.12908901;-0.01615348;0.009032359;-0.36764547;-0.158476;0.051579632;0.13940522;0.15403654;-0.1471751;0.038550347;-0.085806765;-0.014647787;0.04216572;0.0609897;-0.04645407;0.040274076;0.019401828;0.13761972;0.13079658;0.045786034;0.015581057;0.2564307;-0.123247996;0.0660196;-0.014074583;-0.12540364;-0.23110618;-0.16613151;-0.21973859;-0.271599;-0.07166375;0.09594332;-0.11092943;0.01801115;-0.00019282562;0.10944842;0.08379593;0.075080454;-0.11774154;0.02849745;0.076828465;-0.15133053;-0.23330829;0.10718947;-0.06749172;0.020042012;0.008303931;0.14563383;-0.016143527;-0.09205166;0.10925719;0.2145606;-0.17911732;-0.18656728;0.06951429;0.08457947;0.018913576;-0.13689543;0.08810537;0.20815071;-0.0971877;0.01452064;0.18840705;-0.05223324;0.10726504;0.13414669;0.013590519;0.19215494;-0.00095861737;-0.06458545;0.10648654;-0.018734934;-0.009757731;0.14084455;-0.14372872;0.084544785;-0.14039364;0.24984397;0.14840968;-0.10674179;0.09562826;-0.014394152;0.033370018;0.15835953;0.17096196;-0.2124604;0.22656114;-0.06916761;-0.12774941;-0.16118827;-0.020316428;0.26755688;-0.07825061;-0.07427931;-0.2084188;0.0074248104;0.14000644;-0.0038256128;-0.010263906;0.10047431;0.10088278;-0.25925297;-0.16938001;-0.049084757;0.08005315;-0.21729611;0.08072724;-0.08630812;-0.013617187;-0.16518232;-0.09095985;0.28281775;0.100724585;0.19517308;0.067877844;0.092413664;-0.07489814;-0.08189738;-0.01471551;-0.20969722;0.08078839;-0.13923214;0.075800665;0.15580554;-0.010359232;0.073212326;0.00021619108;-0.061449837;-0.070094034;0.046446405;-0.004451493;-0.014350854;-0.14557576;-0.15023045;-0.02165169;0.09244484;0.10872227;0.012271768;-0.028173162;0.081693165;0.06891282;-0.05401198;0.1023538;-0.12574163;0.066451944;0.102347486;0.12595338;0.2094282;-0.19032668;0.11156571;-0.096057646;0.008830742;-0.004651374;-0.019042991;-0.13485028;-0.06901044;-0.0038503048;0.030413216;-0.13167197;-0.0995597;0.08954291;0.022423709;0.014227601;0.19147936;0.060924582;-0.07673873;-0.22077584;0.0176456;-0.11109782;-0.069986396;0.113029994;-0.13116752;0.022969533;0.06382637;-0.002158691;-0.04061094;-0.023487488;0.15568987;-0.06304745;-0.18501736;-0.13386345;-0.073978074;-0.12389494;0.056723442;-0.0763619;-0.054296438;0.013619836;0.20784232;0.15366334;-0.06725307;0.0056771534;0.10375238;0.09347162;-0.03744469;-0.12696649;0.19316778;-0.21481287;-0.02235349;-0.014103235;0.002416413;-0.06821894;0.16852972;-0.028995598;-0.3036948;0.31560963;-0.16721816;0.019276809;0.05574446;0.13438576;-0.08692548;-0.053244837;0.0902279;0.054167565;-0.14250728;-0.00798705;0.041054673;0.11827503;0.18784954;0.06260608;-0.265181;-0.11904546;-0.085973926;0.18001743;-0.09117893;-0.010471143;-0.077124186;0.09891906;-0.14194609;0.31360757;0.075560525;-0.38146582;-0.12877196;-0.081624754;-0.050039377;-0.09748878;-0.10644276;-0.0190956;0.10509714;0.24234319;-0.26108432;-0.0836308;-0.37388608;-0.071032144;-0.06948586;0.0052152406;-0.10002413;-0.21289273;0.0014312218;0.13824517;0.052378826;0.1592803;0.0918214;0.22145288;0.10421635;0.08251102;0.04744085;-0.12699346;-0.102695085;-0.052827314;-0.09921406;-0.069477335;-0.19915646;-0.1172316;0.072624;-0.14564812;0.066735625;0.08795375;0.13791816;-0.1014143;-0.016361583;0.1287313;-0.12800403;-0.1256854;-0.09773201;0.065428674;-0.09531391;0.086032994;-0.054984033;-0.26257372;0.059919633;-0.032838736;0.034919295;-0.07036824;0.1745806;0.04677059;0.05347274;0.052677784;0.10407071;-0.19974;-0.039880525;-0.1177093;0.15441374;0.11234052;0.07953291;-0.13121666;0.27131146;0.056216273;0.15097637;0.045393806;0.07804437;-0.19290745;-0.21570203;-0.078641355;0.0025046004;0.061763097;0.058000084;0.032720555;0.1897338;-0.009956902;0.13813037;0.0069176923;-0.044780448;-0.03702757;-0.26650116;-0.132686;-0.03209362;-0.055909153;0.1458764;-0.1317509;0.099838056;-0.005045701;0.12502906;0.13746446;-0.21901578;0.14358416;0.10864963;0.09771582;0.017830987;0.044909988;0.17841478;-0.14162901;-0.3301981;-0.10832579;0.06758307;0.047535177;-0.3124443;0.13672748;-0.057029273;-0.084694974;0.054645438;0.10654484;-0.0074777296;0.07756778;0.013987833;0.15006992;0.1488781;-0.13497613;0.13171346;-0.025376597;-0.20798454;0.04279232;-0.26628432;-0.051746886;-0.057906367;-0.2485724;0.1992283;0.010621526;-0.085530095;-0.1360845;0.05902842;-0.12325084;0.2373081;-0.04602989;-0.25741234;-0.006499108;0.08356643;0.059410445;-0.059819967;0.055818703;-0.083023176;0.018419772;0.09781859;-0.06974939;0.069173984;-0.08129841;-0.008473218;0.07349569;0.050215274;-0.12543646;0.0048311534;0.08173907;-0.168309;-0.03232774;-0.08929044;0.06410233;-0.0042532897;-0.26692107;-0.13267435;0.03926501;-0.13840821;0.14240728;0.10538665;0.018292494;-0.13720773;0.117771626;0.010675141;0.07770776;-0.07783;-0.07379844;0.07817447;0.032715313;0.24516876;-0.084564835;-0.101039745;0.10991914;-0.02199585;0.05398883;0.026188144;0.09006789;-0.080591656;0.062615044;-0.015056177;-0.10549566;0.0800866;0.08916566;-0.2958655;-0.0012958125;-0.10138237;-0.115027465;0.17932068;0.20054851;-0.13262208;0.19120121;-0.039676603;0.06895103;0.0065814154;-0.1299911;0.13797973;-0.0216612;-0.31986472;0.07737661;-0.06899354;0.19649152;-0.21092458;-0.009364448;0.0769091;-0.05392935;0.16079421;-0.08993723;0.098760426;-0.04834778;0.26611766;-0.33590165;-0.11480569;0.056782715;-0.06505311;-0.09513721;0.13030417;0.015760308
0.08584094;-0.033014067;-0.14987017;-0.021507928;-0.016824555;0.13538429;0.019258244;-0.25383258;-0.07236553;-0.058520436;0.04554785;-0.08666936;0.028804256;-0.0053611486;0.035550527;0.10590056;-0.027628383;-0.22481;0.06937239;-0.022546701;0.009209877;0.042760424;-0.032681685;0.10960676;-0.11901213;0.0017565787;-0.05195702;0.14574502;-0.010187484;0.16416872;0.041339234;0.16093993;0.12297544;0.039523866;0.21471463;-0.08751636;0.1873969;-0.07717754;0.019559817;-0.03733348;-0.022401528;-0.07038952;0.084424384;0.008659449;0.14136778;-0.09366254;0.005909462;-0.10431736;-0.008764962;-0.117844515;0.07640222;0.30339846;0.06421789;0.16895242;0.2492569;-0.024783537;0.011053055;-0.0531065;-0.14109874;0.023241881;0.095378704;0.04506144;0.12575917;0.03343959;0.076336406;-0.14322023;-0.028502012;-0.07363109;-0.20868827;-0.04232247;0.12694158;0.029776068;0.07288224;0.2223773;-0.12299402;-0.016130645;-0.03257692;0.07351269;-0.11954874;0.16290703;0.18031624;0.030406462;0.023237724;-0.122025944;0.04188312;-0.065212704;-0.08508741;0.09947152;-0.22362252;0.009960445;0.016172908;-0.045968857;-0.11427992;-0.20160532;0.023847973;0.039625518;-0.05396422;0.28477842;-0.035506744;0.19273384;0.22251534;-0.005193666;-0.22597224;0.034905724;-0.45693672;-0.093598925;0.002604999;0.07604079;-0.26725432;0.066787496;-0.018116506;-0.1678654;0.09687158;-0.012639803;-0.07877718;0.13908729;-0.08716681;0.05637193;-0.010346974;-0.120400056;-0.13522646;0.05140718;0.07516058;-0.2032679;-0.20531085;-0.09681141;-0.06539843;-0.22536439;-0.06943884;-0.045139994;-0.18706696;-0.02447523;0.029542748;0.080505;0.08814421;-0.1571882;-0.07251379;0.016844235;0.038390454;-0.02195638;0.034114797;0.01754268;0.021804076;0.120907545;0.11120347;0.11160708;0.00780365;0.029671092;0.25194454;-0.09541575;0.030332027;-0.091755986;-0.043331925;-0.15629937;-0.33184528;-0.21284144;-0.1651337;-0.16173823;0.19208907;-0.09730241;-0.0028590166;-0.009865147;0.07644669;-0.025423788;0.082057364;-0.13488777;-0.015360524;0.13112493;-0.050504774;-0.092458226;0.054497723;-0.14633602;-0.061328206;0.09049569;0.11083486;0.08617721;0.041289564;0.11483269;0.057426248;-0.21687068;-0.1925846;0.04922056;0.07746063;-0.02800657;-0.080746785;0.057152484;0.1402274;-0.12644193;0.011241926;0.23843199;-0.009409764;0.104539976;0.10467395;0.11215007;0.12853299;-0.022816654;-0.052645136;0.019461548;-0.0227971;0.033918235;0.20701838;-0.1705092;0.08111179;-0.119968824;0.12367114;-0.03917445;0.034759548;0.14297624;0.020959258;-0.07200181;0.14345667;0.1648791;-0.093074866;0.10992846;-0.0122761;-0.06090218;-0.1560063;0.04423319;0.19492075;-0.048164006;0.08651047;-0.15384199;0.005633779;0.15996683;-0.00814553;-0.05228372;0.029078761;0.015984925;-0.2421295;-0.1775121;-0.061931044;0.09250652;-0.16761096;0.11311531;-0.1150544;0.12579603;-0.19895908;-0.12105938;0.23172577;0.13761282;0.09397444;0.097626455;0.08942632;-0.050431807;-0.006270834;0.12849742;-0.09512914;0.08064587;-0.16016236;-0.071599066;0.19421065;-0.062143024;-0.042796265;0.059103034;0.0047035855;-0.053756934;0.089515425;0.042583633;-0.04510128;-0.18697087;-0.066663295;-0.06052481;0.04707778;-0.01743119;-0.09308785;-0.06943602;0.22304147;0.0033055418;-0.08395387;0.106765874;-0.14544582;0.15662599;-0.056015883;0.19143063;0.23500371;-0.15103164;0.23489352;0.0416299;0.034525584;0.027595295;-0.033966254;-0.11640402;-0.080342785;-0.105071895;0.11007622;0.0058803866;-0.051927675;0.19043094;-0.051607724;-0.076686524;0.20561415;0.13868861;0.024980389;-0.20443165;0.035850335;0.0064461934;-0.15686193;0.19138424;-0.07431727;0.02087752;-0.009746458;0.016886937;-0.032432728;-0.021177433;0.26362193;-0.14290658;-0.17382826;-0.097468756;0.016900422;-0.14164191;0.044213127;-0.14667068;-0.07161348;-0.017850732;0.05385759;0.09526819;-0.08718808;-0.026479885;0.098822854;0.11875307;-0.044585973;-0.082594134;0.24320975;-0.18611932;-0.01923079;0.0915186;0.020729002;-0.0728628;0.098906435;-0.1095724;-0.3080729;0.14733867;-0.125313;0.028812569;0.1183118;0.17038175;-0.032415833;0.060166616;0.032084342;0.05625986;-0.040476322;-0.052279714;-0.06442025;0.12823384;0.1294422;-0.027148018;-0.2554378;-0.22130983;-0.061381202;0.21194936;-0.0026100355;-0.05565866;0.0034647016;0.06760386;-0.13033998;0.18846688;0.08937555;-0.36077416;-0.14287622;-0.06524024;0.083865784;-0.050864454;0.027410487;-0.01717251;0.009778417;0.11880325;-0.21322995;0.0040698773;-0.25194716;-0.117778935;-0.047119785;0.035822004;-0.088972904;-0.3225321;0.05040042;0.022717966;0.030682847;0.010798789;0.08061496;0.19234215;0.067140326;-0.025892617;-0.08898127;-0.12821949;0.026682064;-0.05781855;-0.12013778;0.04483744;-0.14566582;-0.11277379;-0.0013958727;-0.11897535;0.012718593;0.10699974;0.1981556;-0.09087909;-0.12106874;0.010529624;-0.18743491;-0.11906034;-0.05263192;-0.10089844;0.022517411;0.059345514;0.008930861;-0.2669482;0.1394322;0.12115361;0.036623474;-0.010200488;0.10002344;0.18192305;0.03970784;0.124407105;0.09862595;-0.2733704;-0.09445049;0.022197073;-0.040951572;0.03890251;0.15444294;-0.048039258;0.18989402;-0.014806666;0.18797708;0.044898994;0.03864553;-0.29611287;-0.09841475;-0.15379263;0.013402697;0.015310735;0.07977538;-0.040320147;0.12446615;-0.027669342;0.20349814;-0.037817378;-0.08124029;-0.020180274;-0.2835693;-0.062178656;-0.12018982;-0.1250336;0.22002888;-0.045608547;0.062085584;-0.05335137;0.004147311;0.16864784;-0.16499619;-0.015548459;0.09175008;0.07338511;0.09334467;0.08685104;0.02203995;-0.042251397;-0.23980027;-0.18178101;-0.044878434;-0.0048243054;-0.21331257;0.2168566;-0.08011401;-0.01139425;0.042945247;-0.07449153;0.052828293;0.07083811;0.15546784;0.109020084;0.14884362;-0.19688083;0.0936839;0.06691171;-0.24051246;-0.047445897;-0.36689305;-0.13446537;-0.04021889;-0.17201488;0.24271913;0.042049296;-0.052763555;-0.1288081;0.08444504;-0.13718776;0.14000644;-0.050296053;-0.33005956;-0.018626977;0.034790758;0.19526014;0.061679814;-0.16155429;-0.061572794;-0.020103645;-0.05170585;0.11182573;-0.034858376;-0.15296549;-0.055885907;0.12862451;-0.036735404;-0.0015086397;0.058163144;0.06707391;-0.16172567;0.10865549;-0.054285694;0.13130032;-0.03154798;-0.22689761;-0.04850586;-0.033895243;-0.13005115;0.2014963;0.15062934;0.14251392;-0.1562956;0.065490276;0.034820784;0.08909069;0.096617155;-0.033347324;0.0089735035;0.018007535;0.17078894;-0.016696071;-0.10717603;0.003010472;-0.056005687;0.07818834;-0.038148455;-0.054353487;-0.06648549;0.053931102;0.095058724;-0.011804238;0.02587711;-0.06898392;-0.26915088;0.0810879;-0.002070587;-0.1498556;0.12074815;0.14904678;-0.22704312;0.12857184;-0.045687098;0.05602592;0.060750786;-0.036244992;0.04507345;-0.007547606;-0.1874519;0.072781175;-0.013749505;0.082693405;-0.18833445;-0.06641905;0.08623473;-0.1325565;0.00052546745;-0.19286941;0.1056661;0.073178075;0.13011421;-0.3283712;-0.058723178;0.0889275;-0.12003391;-0.121048026;0.15492271;0.034749724
0.16668864;0.025311638;-0.047785617;-0.04652341;0.048022587;0.11867977;-0.026190935;-0.15902352;-0.15216611;-0.040994637;0.07665008;-0.010434653;0.13203192;-0.054942906;-0.11073775;0.011457451;0.02929687;-0.22050627;-0.11039678;0.048295688;0.08751439;0.23010984;-0.0389894;0.11817857;0.02951869;-0.0124541465;-0.02043608;0.08214225;-0.03393477;0.09003928;-0.025175896;0.10001858;0.15056999;-0.121456526;0.23456235;-0.18704659;0.033082906;-0.0049293754;-0.044492807;0.02058584;0.08269644;0.019263491;0.06987089;-0.06989588;0.15236583;-0.110923946;0.020214973;-0.07760861;0.021881558;-0.13547128;0.075310916;0.28807208;0.029921591;0.070355885;0.16325939;0.006269989;0.05452888;0.00069487817;0.014191563;-0.057091426;0.024698116;-0.035106234;0.12823023;-0.049162;0.04639247;-0.14336385;-0.06974987;-0.09091643;-0.16907373;0.03544297;0.15997437;0.11237547;-0.04933587;0.247223;-0.11685931;-0.14252725;-0.025156142;0.0836591;0.024749901;0.107663296;0.27178666;0.12884165;-0.03091451;0.08657172;0.15575524;-0.0027385056;-0.29735887;0.033528995;-0.18538079;-0.16522722;0.0095525235;0.046775844;-0.19877473;-0.123282924;-0.010585115;0.0030139815;-0.11859028;0.097848564;-0.17977208;0.15534571;0.07994051;0.04662484;-0.12338068;0.086778075;-0.4854135;-0.03894804;0.06838376;0.18388075;-0.17395215;0.08067291;0.016899956;-0.31731984;0.05540146;0.033453044;-0.07394192;0.037096128;0.0067217527;0.021935547;-0.06284878;-0.22166552;-0.042280585;0.06703805;-0.059821002;-0.2123197;-0.3163313;0.018147036;0.043337263;-0.19527018;-0.053741593;0.041751303;-0.25123334;0.0671965;0.03162595;0.028244697;0.1801412;-0.29581237;-0.072960734;0.13042536;-0.14621216;-0.06453109;-0.011509493;-0.059480138;0.049328703;0.18217857;0.2183003;0.04723392;-0.0007250322;0.091316074;0.08029024;-0.10200045;-0.047683198;-0.05568109;-0.054085474;-0.08535111;-0.2051942;-0.11485907;-0.13496561;-0.09191341;0.11935221;-0.049716767;-0.068819836;0.029908285;0.01230128;-0.03606838;-0.035973445;-0.32996044;0.0038643077;0.2525401;-0.03844635;-0.107815936;-0.004812369;0.043816227;0.051625106;-0.055675775;0.02033531;0.083784744;0.15050182;-0.047424022;0.048927624;-0.20011136;-0.08367002;0.07027355;0.15612748;-0.07531435;-0.1732635;0.026115408;0.12336696;-0.07294846;-0.06844603;0.14099757;-0.09121104;-0.009909589;0.15687865;0.038994838;0.03691476;-0.05950665;-0.1480812;0.0841664;-0.12759846;0.030195093;0.16638525;-0.17179969;-0.08940119;-0.09268178;0.15164417;-0.08944269;-0.093520425;0.14357625;-0.05450584;-0.021233272;0.13227113;0.04310791;-0.21285734;0.15118004;-0.10196028;-0.08656708;-0.24440295;0.058308512;0.32587007;0.13882461;0.13346162;-0.09862952;-0.024321431;0.035391033;-0.06297346;0.026569692;-0.049680177;0.17170143;-0.085263714;-0.18457004;-0.013491843;0.14107849;-0.08557734;-0.0016957668;-0.056847967;0.1092183;-0.1853897;-0.028139362;0.15241233;0.1060787;0.086284004;0.077041395;0.00044490624;-0.06705693;-0.028035343;0.13762684;-0.041908115;0.07616001;-0.11285037;-0.009263586;0.025240993;-0.09162999;0.040103987;0.07152605;0.11382906;0.17588428;0.13128136;0.039968967;-0.04126608;-0.098216504;-0.12235415;-0.04036373;-0.034479536;0.11640156;0.03142598;0.06249005;0.19650097;-0.044585038;-0.05296248;0.12898637;-0.33308318;0.11478744;-0.019597579;0.18008637;0.18016812;0.003214207;0.11355873;-0.050314177;0.040845703;-0.068151616;-0.087698504;-0.048350964;-0.06615905;-0.15621932;0.16200173;0.115530714;-0.00039259807;0.11389422;-0.2195122;0.0043960996;0.23441893;0.044739086;-0.06472347;-0.06665455;-0.024521403;-0.09521631;-0.15651236;0.097154565;-0.10183522;-0.02631788;0.10151529;0.046481863;-0.0032851433;0.1745309;0.12735014;-0.056918338;0.017928163;-0.04578116;-0.17705005;-0.017486587;0.07667471;-0.01055022;0.010012514;0.032062292;-0.05652265;-0.079421274;0.020171862;0.058896847;-0.10226277;0.22306615;-0.12245027;-0.0695579;0.089299746;-0.13749468;0.08969663;0.13227873;0.08960873;-0.040560517;0.07156191;0.0059480434;-0.21290936;0.21160862;0.078283474;-0.10579546;-0.062842995;0.095440604;0.11856616;-0.0027285805;0.18245894;0.10303134;-0.09921386;-0.07398568;-0.025075234;0.1637905;-0.049659695;-0.029622069;-0.06510361;-0.13510206;-0.009672586;0.0475111;-0.031499144;-0.093258165;0.11292556;0.17692006;-0.08398952;0.17990136;0.07915785;-0.33245832;-0.029251553;-0.09651316;0.054125436;-0.26424068;-0.057437018;0.01733901;-0.03732712;0.18480109;-0.23765662;-0.0019755038;-0.2680595;-0.034330055;0.055000592;-0.069505356;-0.11990611;-0.2855577;0.054336164;0.017915845;-0.11116057;0.061050586;0.1709639;0.07271872;-0.026347868;-0.039348044;-0.077455275;-0.11224057;-0.033011783;-0.0473011;-0.14756617;0.0118274875;-0.26715347;-0.03449937;0.13819283;-0.15790507;0.13125017;0.122013554;0.358707;-0.20881705;-0.0971525;0.060606368;-0.16108647;-0.11923947;-0.0024023794;-0.15390016;0.0007409093;0.00063045777;-0.10234265;-0.3097088;0.09386307;0.122268856;0.036020853;0.038119964;-0.0841435;0.05729055;-0.12353858;0.16232668;-0.0061468347;-0.3215998;-0.019677754;0.0011137838;0.05813836;0.009623046;0.1028978;-0.07073241;0.17364338;-0.07843336;0.030740958;0.12659279;0.108475685;-0.2665922;-0.046954755;-0.07473172;0.10094671;0.16682331;0.06998807;0.11038654;0.18226731;0.049108505;0.18397376;0.024833392;0.10954566;0.07128855;-0.2350231;0.02217622;-0.13938867;-0.109055415;0.22742325;-0.034366343;0.016734194;0.0786019;0.012424587;0.06193314;-0.051797975;0.03357873;-0.011666985;0.102266274;-0.042373873;0.09400436;0.07980608;-0.06987273;-0.32900017;-0.005330422;0.055370726;-0.061166264;-0.25984868;0.15539323;-0.13040236;-0.027495813;0.038908415;-0.14182946;-0.011534443;-0.008445641;0.085268795;0.05726511;0.06868062;0.0031662877;-0.032068137;-0.028658614;-0.16379815;-0.18436033;-0.32575285;-0.009490066;-0.14119849;-0.22738634;0.33572733;0.08438218;-0.03280359;-0.12137189;0.13798466;-0.039671876;0.21189041;-0.06484465;-0.23532425;-0.027615895;0.07380678;0.11910755;-0.065909915;-0.068127014;-0.19619584;0.12639658;-0.036281485;-0.02959825;0.100134484;-0.11739839;-0.095238335;0.051579643;0.1118353;-0.021944692;0.089268394;-0.121644504;-0.1923206;0.010712335;-0.084030695;0.08754734;-0.038963675;-0.26456296;-0.17483948;-0.07815842;-0.09240186;0.18938623;0.11106973;-0.013806742;-0.041354362;0.16908088;0.13831262;-0.122730225;0.048477758;0.08467496;0.02595827;0.07925297;0.13960351;-0.034948677;-0.25771904;0.010018821;0.011443799;0.103385404;0.09356755;0.028163783;0.0151566705;0.101661935;0.021803522;-0.11019634;0.12926352;-0.063583866;-0.09751613;0.046900176;-0.108323194;-0.04321689;0.04605745;-0.09147133;-0.10767391;0.17469272;0.042024236;-0.089327686;-0.05942094;-0.11972094;0.013182708;0.116538845;-0.006678621;0.022254571;0.02888785;0.035836495;-0.054392856;-0.030640095;-0.034900486;-0.053033773;-0.042526096;-0.07978105;0.060375635;0.117793165;0.11743234;-0.16891436;-0.11701798;0.17524351;-0.027135164;-0.15550597;0.17310981;-0.19090806
