Weights from input to hidden layer.
-0.058171116;0.07176811;0.03661324;-0.042812116;0.025622118;0.08536243;0.03595592;-0.06080776;0.026506126;0.4820162;0.2667769;0.5715771;0.48548326;0.1398977;-0.11002182;-0.04913426;0.045705944;-0.55573165;-0.11694921;-0.78772825;-0.16293201;-0.03484655;0.44258094;0.69703054;-0.11646114;0.23620878;0.52607095;0.61943626;-0.4162659;0.99133956;-0.34881273;0.018214438;0.04797692;0.1960189;0.43509886;-0.09510229;0.1375261;0.0914798;0.33417794;0.35080692;0.042328272;-0.23180114;0.06061715;0.36472145;0.03288562;-0.041039366;-0.171609;0.041679423;-0.80945545;-0.1797016;0.18182705;0.5349282;0.050587643;-0.068128616;-0.0017279686;0.19453181;-0.09461924;-0.038782526;0.35329387;-0.06295893;-0.004683169;0.7560586;0.016437074;-0.018313747;0.6155641;-0.07320207;-0.81209517;-0.12811702;-0.019999392;-0.22309838;-0.09369432;0.40722725;-0.4737817;0.85616994;0.3631303;-0.09058051;-0.11236283;0.020932617;0.1094708;0.37159923;-0.03753909;-0.03660311;0.07615518;0.13147427;-0.15968664;-0.0547005;-0.124619275;0.37217903;0.3606562;-0.10001273;-0.09239658;-0.1939514;0.10462637;0.011147154;0.06260626;-0.06032769;-0.22500077;-0.20336515;-0.017457418;-0.04330594;0.023432242;0.04869814;-0.19508322;-0.24850427;0.43447945;-0.3280408;-0.21928763;-0.003612521;-0.4193506;0.45527056;-0.064416125;0.36452502;-0.0059444527;0.061061688;0.100188196;-0.021360427;-0.18608524;0.09961088;0.47813702;-0.21018705;0.074883446;0.51601046;-0.52055526;0.13842335;0.095642835;0.12568393;-0.11170017;-0.17196517;0.653945;0.44681212;0.021592433;-0.6203413;-0.03128512;-0.014321041;0.24972793;-0.65621436;0.12319122;0.033142794;-0.5125199;0.23566173;0.4771526;-0.4304837;-0.39580733;-0.028489022;0.5210155;-0.049885187;0.041591648;0.47737643;-0.13592958;0.16537184;-0.023647066;-0.029763322;-0.30265015;0.9046355;-0.91396147;0.04669886;1.031174;-0.20716424;0.5769878;0.02502013;-0.44321015;0.8175046;-0.06194471;0.45564955;-0.08574656;0.10698315;-0.22083125;0.34454012;0.39476222;0.014503339;0.028105864;-0.1970021;0.045751818;0.08049064;-0.032165185;-0.086871184;0.39046708;-0.173095;-0.06069907;-0.0022617504;-0.0019613914;-0.025899963;0.5366865;0.016836865;-0.0029168949;0.61319655;-0.05300301;-0.0671082;-0.47812465;-0.4936764;0.53114045;-0.5792604;0.13924919;0.33452007;-0.65386283;-0.031736374;0.34052914;0.7396314;-0.03808765;-0.038266975;-0.022837278;-0.0069106114;0.31884488;0.5057766;0.54034495;-0.027899405;0.09836455;-0.1689512;-0.055784363;-0.056124154;-0.112650484;0.89972043;-0.066483766;0.024058571;0.85922104;-0.2307768;-0.02951633;-0.04580319;0.48478663;-0.28436807;0.19143267;0.9283877;0.8208324;0.2518897;0.387508;0.080764815;-0.16576469;0.7123362;0.05034842;-0.014613543;0.17663182;-0.37464938;-0.021216884;-0.18568552;0.5365325;0.64627904;-0.12827156;-0.47042343;-0.023267068;-0.14634775;-0.5586893;-0.10047967;0.10094326;0.36799642;0.04548285;-0.30589452;-0.2656369;0.09794947;-0.12315041;0.036397044;-0.4928611;0.03840875;-0.10028731;-0.33026507;-0.7334766;0.026426507;0.0035677177;0.18446165;-0.23340228;-0.048274927;0.07809727;-0.0101283565;-0.07678522;0.017384317;0.06730202;-0.11680857;0.21573158;0.026743568;0.002157465;0.10699303;0.0010962648;-0.32691514;0.26765102;-0.34854242;-0.35802144;0.3587517;0.3895175;0.066050105;0.14676979;-0.14085817;-0.19068098;-0.12830159;-0.08694588;-0.55934787;-0.22342865;-0.45569763;-0.0263207;0.2217662;0.28165057;0.64276665;-0.03703583;-0.0880697;-0.07529939;0.012870099;0.4743083;-0.029737674;0.7314304;-0.0074437624;0.027166303;0.81150615;0.372666;0.4059024;0.5883253;0.002316827;0.5940171;0.05327821;0.071065664;-0.69328237;-0.1593212;0.0009814482;0.28829893;-0.0978707;-0.016524516;0.4446063;0.02567543;-0.5810392;-0.0138701685;1.0519557;0.578115;0.023960995;0.29097348;-0.071164645;-0.053314384;-0.30480766;-0.15401715;0.24909978;-0.17897622;0.00011925242;0.4420711;0.046162996;-0.019404931;-0.02651051;0.1712215;0.039900392;-0.58923244;-0.036469243;0.25732976;-0.043835223;0.081712544;-0.39094102;-0.21396825;-0.40254065;-0.507579;-0.3552302;-0.4207545;0.5874486;-0.13398904;0.77193606;-0.13602951;0.22187246;0.7957273;0.8697424;-0.0021110673;-0.14143065;-0.62162673;-0.11548157;-0.40247405;0.05549267;0.31882688;0.39823097;-0.26351005;0.16563982;0.09438759;0.39585328;0.61091363;0.091332294;-0.066397406;0.67074555;-0.03682422;0.9359116;0.03378995;-0.5491993;-0.28249797;-0.07417873;-7.533073e-05;-0.19479918;0.68032736;0.49801823;0.03906169;0.072876096;-0.65403134;0.03322439;0.92191094;-0.5531755;0.12689196;-0.0130356345;-0.056514483;0.04654193;0.50542355;-0.22643486;-0.011094825;0.09097711;-0.7507703;0.74592495;-0.043147974;-0.061463974;0.36359698;0.79331183;-0.08801483;0.0101382565;0.46879885;0.24466231;0.16936657;-0.2924239;0.62190735;0.13724166;0.49337462;0.015441606;0.041434925;0.73163235;0.6878231;-0.3663977;-0.112302914;-0.0072481474;0.007588622;-0.12680505;0.04849031;0.6555225;0.09850885;0.24177174;-0.14686675;-0.2483741;0.34149134;-0.1639412;0.026394917;-0.077580854;-0.4510523;-0.06620617;-0.32685828;0.48793694;-0.22315949;-0.017249651;-0.0045278794;0.44499287;-0.066700116;0.4438134;-0.027006412;0.03313545;-0.048639063;-1.1155226;-0.46607137;0.605678;0.52003664;-0.13005883;-0.03491463;0.025968276;-0.10378492;-0.08857837;0.2623297;-0.837838;-0.21092455;0.0778239;-0.8908696;0.20135327;0.76940125;0.08891222;0.20880207;0.049852803;-0.0068681305;0.053534586;0.5350318;-0.31463584;-0.076614626;0.38615134;-0.1518514;0.014907954;-0.0070755305;0.041738596;0.056431983;0.24065779;0.87092817;0.7116672;-0.14331454;-0.45934173;-0.11135646;0.2289898;-0.24879406;-0.67899543;-0.10754122;-0.010334162;-0.025124859;-0.3865499;0.4866972;-0.47801137;-0.5619429;-0.01943299;-0.11680574;0.41096288;0.11873989;0.52425146;0.25292435;0.4353247;-0.21624473;0.17188925;-0.9854253;-0.46092185;-0.034652688;0.12513626;-0.046181995;-0.2911197;-0.4234225;-0.07715816;-0.45298898;-0.07005021;0.0038155552;0.49069124;0.41620305;-0.033697028;0.26064703;-0.93034637;0.07389095;-0.38602647;0.076793306;-0.0061502326;0.19937432;-0.07542089;0.30983815;0.008230503;0.052267894;0.59753704;0.05920234;-0.032375604;0.120291516;-0.10687822;0.57970184;-0.06924629;0.51661235;0.64409715;0.3755973;-0.11780011;-0.22760707;-0.5778848;-0.045831732;0.018734694;-0.036418125;0.26179847;-0.17297255;-0.07068158;0.015406553;0.614404;-0.031615783;-0.11654059;0.10951565;-0.20884621;0.11244319;0.77611756;0.524323;0.06606823;0.02734897;0.44171602;-0.32875466;-0.1029719;-0.383413;0.008583792;0.54240936;0.29481924;-0.53717816;0.23875031;0.36079368;0.60549736;0.04292456;-0.039020356;0.050377205;-0.2529447;-0.026079243;0.8371937;0.20799217;0.12900603;0.07628454;0.01602121;-0.0062632905;-0.22785948;0.6803344;0.3079257;-0.20358104;0.2730259
-0.024624988;-0.07583674;-0.06700561;-0.034325924;-0.006259943;0.23227134;-0.025683938;-0.044741113;0.047700424;0.34418955;0.2780516;0.30122134;0.5072802;0.2802457;-0.007936692;-0.119386345;0.08623181;-0.60299236;-0.13705565;-0.885235;0.039727893;0.045003716;0.24412641;0.49081448;-0.2144718;0.21565841;0.3736273;0.53444177;-0.33293477;0.66382796;-0.20743592;-0.012986812;-0.021127531;0.0437847;0.26212758;0.0031367515;-0.087795645;-0.0051078945;0.3102152;0.22762123;0.07526565;-0.3910006;0.004764489;0.18753003;-0.01671834;0.15305132;-0.15046647;-0.25616983;-0.6800016;0.032261647;0.016541675;0.5503005;-0.017478388;0.02997364;-0.024868427;0.13124637;0.019010307;0.0768841;0.45351008;0.06015571;-0.24777152;0.5743033;0.033267073;-0.047838494;0.367304;-0.04778753;-0.54974633;-0.10363249;-0.040849518;-0.115346394;0.03226763;0.18838048;-0.33811277;0.46045032;0.28894582;0.02994359;-0.23647116;0.035434645;0.25057536;0.19789231;-0.0090486845;-0.026725829;0.020541066;0.21225326;-0.08676137;0.0627976;-0.1377234;0.38114232;0.14183986;0.0218699;0.14584404;0.01609844;0.010322546;-0.03762222;0.045270376;-0.100345865;-0.22790048;0.050234266;-0.051618934;-0.0009574541;0.07789475;0.025273023;-0.01775509;-0.28140575;0.2681761;0.043409914;-0.2721278;9.2229675e-05;-0.25733787;0.07885447;0.031527795;0.25347286;0.00034680884;0.046951998;-0.07693255;-0.0028499346;-0.10939294;0.29058582;0.32901546;-0.21404812;0.0019961274;0.3211658;-0.5684269;0.24674715;0.15616639;0.3912668;-0.14940591;-0.005879111;0.5037829;0.44536352;-0.087373056;-0.5098418;0.041934427;-0.006970349;0.30400497;-0.65573823;-0.13662046;-0.043000247;-0.3833542;0.12333884;0.23654546;-0.3012946;-0.50008667;0.0044702995;0.23105006;0.1607127;0.030397454;0.40996018;0.08191223;-0.06270218;-0.057405036;0.05816817;-0.41926834;0.5912093;-0.7740661;-0.0448116;0.7936395;-0.2612275;0.500637;-0.022372412;-0.2418419;0.6751346;0.04453099;0.31377107;0.032637257;0.44790205;-0.027772484;0.4091399;0.21785192;0.01039858;-0.01999637;-0.17982593;0.056333285;-0.027923625;0.06332706;0.07501022;0.16511627;-0.08794239;0.058413666;-0.07935634;-0.0060211252;0.0016053885;0.34264305;-0.0075512817;-0.0467236;0.630725;-0.010402516;-0.00019990132;-0.59432566;-0.5497632;0.23007832;-0.6467278;-0.007982489;0.06591915;-0.7688166;-0.25371617;0.36675543;0.5210234;-0.020930486;-0.2132504;0.029784288;0.047685113;0.2172066;0.2951489;0.41942948;-0.026381437;-0.04915946;-0.033058457;0.007409139;-0.019235464;-0.07211979;0.6586785;-0.16963863;0.06773023;0.53413844;-0.1898106;0.056023717;0.023389831;0.30940133;-0.2091206;0.3242109;0.7412137;0.5646268;0.07505996;0.33866665;0.011429397;0.04616759;0.49462086;0.0019421859;0.0005427401;0.33025357;-0.15947591;0.046429496;-0.17914395;0.41831884;0.43305463;-0.10282947;-0.34154743;0.0073967483;0.10491518;-0.38909167;0.06312711;0.1014035;0.368981;0.21544455;-0.4116955;-0.3060614;0.042052988;-0.19542173;-0.011316566;-0.5487405;-0.08144784;0.005149029;-0.15489654;-0.6732316;0.006915546;-0.02293549;0.3174261;-0.2673252;-0.0036874441;0.06158088;0.028396381;0.06642639;0.096603714;-0.06377636;-0.20252839;0.24546792;0.17912935;-0.08145486;0.11569403;0.040590677;-0.24118376;0.21805312;-0.29966974;-0.15411693;0.2610811;0.24622384;0.03384186;-0.034747094;-0.104654096;-0.23092581;0.048819788;0.027232615;-0.6027247;-0.0681373;-0.36395392;-0.0074167512;0.1884034;-0.02520571;0.37983963;0.044140063;0.014703158;0.014487643;-0.0654736;0.12964642;-0.050845277;0.44692498;-0.00094989926;-0.12361135;0.66826147;0.22656785;0.19588448;0.34124345;0.003101026;0.3850584;-0.0049994243;0.010995017;-0.6404949;-0.04852962;0.032085363;0.26683056;-0.16834225;0.026702339;0.2855122;-0.048052292;-0.37267533;-0.009104601;0.7719567;0.5929892;-0.023009036;0.25318253;0.015017438;0.03872973;-0.2925292;-0.21328433;0.29273507;-0.07334821;-0.013348425;0.22011116;-0.028304929;-0.019390708;-0.0019647623;0.11113554;0.05068467;-0.5604591;0.0047152494;0.38471168;0.017659312;-0.034890007;-0.29996738;-0.3487566;-0.264863;-0.29131612;-0.23114173;-0.22016254;0.45375025;0.024068557;0.57466483;-0.19207601;0.2091773;0.6326753;0.7270253;-0.13633251;-0.14578731;-0.6572395;-0.107366905;-0.22638687;0.013353958;0.00245524;0.09310094;-0.16792364;0.040583674;-0.06875782;0.13271594;0.3802088;0.044960517;-0.022967506;0.38860875;-0.029709524;0.6458319;0.1250117;-0.179227;-0.123729005;0.0012360873;-0.043653537;-0.20548972;0.47043115;0.5370172;-0.027048474;0.16758645;-0.6764183;-0.018320335;0.62700486;-0.4080541;0.12489732;0.02517719;-0.059610255;-0.094483666;0.38312075;-0.05317645;0.014562431;0.004909797;-0.7596484;0.46513888;0.04624933;0.028878493;0.36771646;0.618842;-0.04741995;0.0037998578;0.13071753;0.049515847;0.1651199;-0.2210424;0.5171773;0.10425426;0.3578217;0.08239255;-0.018596172;0.48583966;0.47771153;-0.30808952;0.14882569;-0.11667102;-0.06357906;-0.060266674;-0.013879381;0.6935099;0.02457092;0.073516235;0.098112926;-0.19877529;0.20260888;-0.23550709;-0.04368694;-0.06214881;-0.5340925;-0.018755179;-0.09463488;0.2656239;-0.08750348;-0.121714234;-0.13041969;0.19979635;0.0040561743;0.42835683;0.015938902;0.037693933;-0.021369284;-0.98218364;-0.2925972;0.50084466;0.4013655;-0.22071171;-0.01583178;0.21948084;-0.01273014;-0.06531688;0.07444382;-0.68493694;0.01106977;0.011563525;-0.67688566;-0.21527682;0.6770095;0.32728902;0.345998;-0.04010352;-0.12682089;0.18579142;0.38451394;-0.14374545;-0.054291178;0.1863714;0.026456065;0.007039495;-0.0539013;-0.039547976;-0.041920308;0.288871;0.58411825;0.5472876;-0.13590021;-0.53291607;-0.1715588;0.030669758;-0.17022856;-0.6680224;0.013193438;0.003194999;-0.1077754;-0.11352917;0.31784153;-0.29436144;-0.20871459;-0.06788277;0.045413464;0.1986297;-0.068201885;0.29882947;0.15390687;0.26672173;-0.038864695;-0.036284655;-0.9935917;-0.49001837;-0.040478025;0.17358999;-0.19739936;-0.1560831;-0.30910343;-0.0060946983;-0.28244856;-0.10464728;0.02439532;0.4219241;0.53008455;-0.1715881;0.15579982;-0.8177867;-0.0468439;-0.07815902;0.07171062;-0.1885364;0.01487612;0.047890443;0.34722418;-0.14278723;-0.074659;0.44390377;0.00080979697;-0.00562001;-0.007706247;0.0081792595;0.5190045;-0.0017046508;0.37783536;0.4378735;0.18112196;0.0055539743;0.035757884;-0.43968534;0.030652812;-0.045646977;0.003262279;0.21144994;-0.4923514;-0.04376566;0.044549774;0.39726177;0.0029406252;0.19920811;-0.051489346;-0.16508552;0.32888266;0.5005318;0.53633714;-0.004789539;0.047932975;0.36038038;0.0027358688;-0.015061029;-0.30865514;0.010924708;0.50186414;0.16959819;-0.62834287;0.12437383;0.150954;0.3329647;0.048553266;0.0031235865;-0.0051936824;0.053126764;0.013737053;0.566775;0.08553882;-0.058778998;0.30839455;0.16089393;-0.03956191;-0.42464113;0.53849125;0.14850368;-0.30406183;0.047325335
-0.026273875;0.014021658;-0.004813759;0.026252652;0.03285697;0.2228923;-0.04486423;0.048382867;0.023764003;0.4520708;0.4137773;0.31086627;0.3755846;0.22597194;0.033310633;-0.25904757;-0.0130602745;-0.52352965;-0.14920723;-0.8078475;0.087155074;0.04868666;0.26918694;0.37967074;-0.16254947;0.13398033;0.3502877;0.46713924;-0.41988686;0.49307138;-0.068042085;0.027469467;-0.07610644;0.15877211;0.30528492;0.040802427;-0.203278;-0.08334847;0.25560185;0.13259266;0.044410348;-0.4744438;-0.09635263;0.18311632;0.073060796;0.16588593;-0.057354007;-0.20218864;-0.6970245;0.13593154;-0.029221514;0.5982879;-0.07840784;-0.06185935;-0.03361211;0.075780295;-0.038033556;0.12874013;0.48480192;-0.0038521793;-0.16503353;0.4121312;0.026636712;-0.011390047;0.27266094;-0.032823224;-0.35999206;-0.16395934;-0.02799124;0.117254764;0.0031024846;0.22027318;-0.40146294;0.41818476;0.15851271;0.067582645;-0.20513652;0.040875234;0.16307078;0.14705826;0.12905996;0.008405195;-0.06425608;0.12965038;-0.025367066;0.1190568;-0.24327442;0.25661308;0.21085568;0.0371553;0.2334981;0.006499202;-0.1333897;-0.022204692;0.048760552;0.08446924;-0.07471879;0.038832825;0.046722535;-0.05628625;0.049528517;-0.04885725;-0.06117613;-0.19761467;0.3379444;0.064460985;-0.17662978;0.07067972;-0.11313911;0.000957064;-0.01861233;0.15776154;0.026205769;-0.007267615;-0.16142565;-0.0038666686;0.06535544;0.28576323;0.24223138;-0.0045906287;-0.03398653;0.13090724;-0.47685632;0.21982317;0.15183048;0.33856553;-0.15107667;-0.06023652;0.29490775;0.26769313;-0.038877152;-0.38433892;-0.048361234;0.058173906;0.17477754;-0.54452217;-0.12396405;-0.0038976555;-0.23508269;0.17027408;0.10260075;-0.43908724;-0.4407806;-0.08723008;0.17978059;0.19241309;-0.0069413767;0.38348174;0.2677948;0.04372397;0.08149117;-0.033029895;-0.3380792;0.5217864;-0.6267456;-0.03738733;0.55867875;-0.31140754;0.30297357;-0.03725041;-0.280972;0.4678452;-0.022004336;0.123028934;-0.0058360053;0.52465844;0.094438046;0.24751343;0.07047838;0.044527534;0.033764075;-0.10877794;-0.06196832;-0.009100845;-0.021093998;-0.045153294;0.12200002;-0.017544685;-0.00639024;-0.05282676;0.041334815;0.028952684;0.2278804;-0.014561684;-0.042635858;0.60935503;-0.012539229;0.017929012;-0.60303473;-0.61587304;0.13198593;-0.583178;-0.05100274;-0.03482992;-0.73269945;-0.16625194;0.32414973;0.46270636;0.034833044;-0.13545266;0.019500244;0.040698625;0.17243122;0.27571508;0.39666003;-0.034691118;0.02987457;-0.07811408;-0.009121058;0.062159277;0.11863448;0.46801624;-0.19787216;0.0079894345;0.30763307;-0.14489694;0.036660038;-0.0059474087;0.25123766;-0.08038743;0.482274;0.70070934;0.47076005;0.04950937;0.26583597;-0.082471184;-0.0011548335;0.6155069;0.004919697;-0.060653724;0.26086703;-0.21196397;-0.038477648;-0.051980346;0.35009295;0.41938034;-0.17117792;-0.35485888;0.07868723;0.088760085;-0.30307314;0.24973568;0.2442;0.34641516;0.28840432;-0.4036462;-0.35254562;0.031246984;-0.035662733;-0.017503042;-0.4640094;-0.11607886;-0.06302309;-0.047568776;-0.5186664;-0.04096;0.023585536;0.37183657;-0.13309199;-0.044687618;-0.062023178;0.00015114255;0.06559851;0.008773783;-0.020044575;-0.16803473;0.44852003;0.24116798;-0.04705659;-0.017325912;0.031705305;-0.28033775;0.29567602;-0.15533423;-0.09775444;0.27162504;0.19845997;-0.07900745;-0.055440567;-0.024793608;-0.2538758;-0.033987068;0.06468743;-0.37866464;-0.031453714;-0.35732645;0.0069331806;0.09976578;-0.0033528253;0.3700611;-0.03917694;0.06850867;-0.0067194058;-0.04841226;0.17058946;0.034450166;0.2838315;-0.055688176;-0.22184245;0.5629738;0.16259423;0.09010177;0.30014002;-0.017136017;0.1877149;0.14223324;0.0023432383;-0.51389396;-0.014026942;-0.063828886;0.20066342;-0.016517686;0.044445653;0.22786139;0.002100994;-0.18811843;0.003815517;0.6326804;0.5371046;-0.0721277;0.2251839;-0.014722536;-0.020314775;-0.16759665;-0.09551183;0.23759562;-0.07433784;-0.029466018;0.2184507;-0.032697205;0.044650078;-0.05802381;0.1814425;-0.10137705;-0.5106437;-0.071034975;0.30332083;-0.002933297;-0.063656785;-0.37860784;-0.27603623;-0.38637254;-0.32263833;-0.15646638;-0.0024207234;0.47500858;-0.0015566014;0.4095179;-0.44979697;0.07820409;0.45191634;0.66483253;-0.1894056;-0.11352914;-0.46819624;-0.115374096;-0.15733576;0.05416464;-0.071018934;0.101572536;-0.14476243;-0.044930577;-0.051959198;0.12409159;0.24023025;-0.041504607;0.050846037;0.34087732;-0.031102516;0.62310797;0.09251478;-0.20264521;-0.033570062;-0.011642638;0.09570239;-0.12318126;0.20965561;0.4744494;-0.04152315;0.10983845;-0.66056496;-0.0055311187;0.56476533;-0.2102754;0.021348163;-0.05573845;0.080241196;0.041781224;0.33110183;0.0211795;0.0016341509;-0.038468778;-0.6430968;0.3851912;0.04958309;-0.016346872;0.1694865;0.6551973;0.075297326;-0.061917353;0.062497646;-0.08667697;0.08974873;-0.24946544;0.44789016;0.13763587;0.26996616;0.028513769;-0.035432816;0.47343963;0.3769132;-0.25794545;0.017863099;-0.12326796;-0.16476153;-0.017604489;0.020656267;0.6644982;-0.01094601;0.11755154;0.0405173;0.06499896;0.21437208;-0.30536252;-0.037422784;0.022699442;-0.54612565;0.023446254;0.014198754;0.047069576;-0.1418926;-0.18592805;-0.1569475;0.013189015;0.036453106;0.26551506;0.049524054;0.018953113;0.022858027;-0.93285775;-0.25745213;0.45753947;0.30776918;-0.040773988;0.006889589;0.22300848;0.074655764;-0.036124963;-0.0027628124;-0.5653498;-0.056705568;0.07399116;-0.5150103;-0.21482715;0.5782796;0.479522;0.31993228;0.013503211;-0.077873304;0.25683513;0.18766317;-0.10525577;-0.0072785323;0.22061221;0.022776712;0.060145307;0.045781642;0.0331621;0.035736367;0.39748695;0.5365397;0.4358289;-0.0658519;-0.41799903;-0.31809133;0.11273011;-0.2785839;-0.60855675;0.025308656;0.0010509061;-0.04975327;-0.07391474;0.23086345;-0.04684776;-0.27114856;-0.0070558134;0.10597471;0.026665425;-0.1093887;0.15951319;0.1334276;0.18037984;0.13401048;0.018986315;-0.93369514;-0.40780872;0.026229128;0.00984452;-0.08800189;-0.14760135;-0.09706985;0.009429791;-0.248152;0.05312214;-0.05333739;0.29255262;0.57327074;-0.22385174;0.14080818;-0.7283234;-0.053136274;-0.15638976;0.15276642;-0.04346404;0.1251043;0.033629403;0.29729265;-0.17152092;0.046137847;0.35408506;-0.039628766;-8.991118e-05;-0.04646511;0.05765771;0.38651806;-0.027704855;0.182659;0.58349115;0.2360246;-0.117801026;0.081911415;-0.27682328;0.0012846986;0.006097938;0.027977282;0.1391551;-0.6310815;0.050696608;-0.039524242;0.27112278;0.019550007;0.23223914;0.07005084;-0.34498885;0.39416054;0.41513747;0.53793967;-0.14140481;0.02958089;0.19923256;0.03909401;-0.032898474;-0.1640237;-0.042319838;0.3811676;0.1487456;-0.4172481;0.083580814;0.15915155;0.09006269;-0.03315285;-0.03202048;0.015074955;0.0675962;0.14952515;0.51127255;0.024920357;-0.070589565;0.32805383;0.29540437;0.11132907;-0.4187962;0.37254244;0.11249637;-0.36325166;0.08016675
0.09904593;-0.009523364;0.047002178;0.21281324;0.035247162;0.32252514;-0.010682754;0.0142302;-0.032080468;0.3772651;0.47021636;0.27884898;0.40097082;0.29669636;0.0038394174;-0.28455773;0.0038520633;-0.54581046;-0.26259425;-0.6664336;0.2108641;-0.059359796;0.24536353;0.2640674;-0.15622678;0.07757587;0.34967616;0.44485247;-0.38199398;0.46359846;-0.16865034;0.055777725;-0.03367;0.18418999;0.22973827;0.015389001;-0.18687001;0.027858462;0.2806163;0.0053276946;-0.056537997;-0.44506115;0.006976185;0.24535456;-0.067669235;0.34061185;-0.121906266;-0.33737415;-0.48424456;0.21383813;-0.1308701;0.63715255;-0.2575851;0.0057221483;0.08500358;-0.057698283;0.053382695;0.17598303;0.49497104;0.038525272;-0.1548673;0.3188959;-0.05778007;-0.06867586;0.20395446;0.06579179;-0.18992634;-0.18313916;-0.0067688418;0.18641073;0.044036977;0.17590722;-0.29055557;0.22557096;0.14521985;0.007735886;-0.20420517;0.061192736;0.33690256;0.15144233;0.16288324;-0.008037647;-0.047328945;0.084536515;-0.15633085;0.07410229;-0.16078232;0.28306627;0.13812399;0.05416515;0.29441103;0.07990583;-0.14611568;0.058898225;-0.09235763;0.103201255;0.052815177;0.09372411;0.0053188987;-0.032353736;-0.072687946;-0.06548007;-0.23106076;-0.24239762;0.28521335;0.17619604;-0.25575295;-0.037417658;-0.003363243;-0.16397281;0.02523511;0.05047432;-0.0739632;-0.006784351;-0.27335712;-0.023697158;-0.07660979;0.41324008;0.17868215;-0.094606355;-0.027243076;0.04816364;-0.34843823;0.24730735;0.31567842;0.46702686;-0.18763798;0.099172056;0.3121237;0.021840893;-0.09250252;-0.30271843;0.07032619;-0.010067615;0.19917649;-0.4977131;-0.0811712;0.0026833178;-0.21749637;0.22684745;0.09352853;-0.38327917;-0.51206404;0.031989343;0.19244103;0.12545308;0.046447422;0.20091629;0.17917725;0.030212702;-0.072850645;0.048545048;-0.2150593;0.39367115;-0.46748155;0.0031466335;0.26709422;-0.33470616;0.22056247;-0.05484629;-0.2435022;0.5008095;-0.033649683;0.13508049;0.0515131;0.60755575;0.15039219;0.25553712;0.10025522;-0.007367499;0.04028149;-0.10124852;-0.054883197;0.020748427;-0.03411228;-0.0026375472;0.18901888;-0.002815152;-0.012144603;0.05102861;0.040882915;-0.072790354;0.15226395;-0.04767526;-0.023865255;0.4828797;0.05114368;-0.041388944;-0.5757615;-0.66098696;0.03764189;-0.5154198;-0.08254951;0.00019926431;-0.6738758;-0.24462144;0.38353267;0.23513643;-0.014247051;-0.12440234;0.011520153;-0.050124433;0.061911155;0.22020951;0.37017003;0.042204663;0.020237083;-0.02258119;0.01237889;-0.10549316;0.124393374;0.3005427;-0.0657586;-0.004943429;0.22316617;0.01278261;-0.049184322;0.02797068;0.07771702;0.053772148;0.5623145;0.54727626;0.41879627;0.024135506;0.23105447;0.038885582;0.061578363;0.4731819;-0.03653662;-0.02004147;0.24749434;-0.03522056;-0.011267009;-0.1416237;0.20655021;0.4663718;0.0054767947;-0.2801568;-0.009156188;0.27358624;-0.24516252;0.28543;0.27565238;0.26715407;0.26356038;-0.37637934;-0.38910058;-0.09037239;-0.0053218897;-0.03125538;-0.54851145;-0.22961599;0.037750468;0.08988374;-0.49120212;-0.014759325;0.030455228;0.36982453;-0.2529864;-0.06742088;-0.06082018;-0.054347284;-0.07176024;-0.07375552;-0.015527223;-0.20922074;0.53237575;0.37590525;-0.1667345;-0.03533792;-0.08755333;-0.2764297;0.15412167;-0.10744663;0.07231963;0.084149525;0.19614103;0.0089962445;-0.17190161;0.08444359;-0.23829642;0.040738534;0.07127891;-0.40357956;0.00026963133;-0.29480615;0.05174087;0.04269942;-0.109095596;0.33426106;-0.060709953;-0.017407816;0.07168239;0.061286967;0.059406396;0.0114844125;0.26127446;-0.010618399;-0.09874841;0.41378656;0.19866903;0.07226337;0.25930417;0.016811535;0.17548592;0.1127549;0.04372705;-0.31742117;-0.1026181;0.009026075;0.29823142;-0.03843005;-0.055700906;0.12985831;0.051282976;-0.08928362;0.045837965;0.45163855;0.47291318;0.04174602;0.3603855;0.013725692;-0.003975215;-0.16667794;-0.09253984;0.18879704;-0.07864307;-0.02607453;0.13479774;0.044823512;-0.036126915;-0.05723632;0.06844314;-0.021277823;-0.452299;0.092923656;0.25331083;0.031876907;0.010977898;-0.35427597;-0.20646311;-0.35689393;-0.26342285;-0.1806373;0.076376006;0.35657766;0.030671556;0.3951216;-0.48992935;0.0069836695;0.28507882;0.44176933;-0.18644978;-0.104205325;-0.44952;-0.08888036;-0.14019012;-0.044979088;-0.07730182;0.14112538;-0.085558385;0.051549856;0.009137884;0.08180574;0.08795092;0.071138345;-0.04971709;0.2588799;0.055646513;0.40161318;0.16926946;-0.1400947;-0.047896583;0.041469317;-0.0006669917;-0.15159188;0.09805728;0.45148262;0.015918566;-0.02369121;-0.5049448;0.0024803411;0.43179226;-0.09516987;0.17112896;0.026249327;-0.030720197;0.008046378;0.357978;0.068056986;0.0043196143;-0.050357416;-0.5736971;0.16891296;-0.011930121;0.032403532;0.24729326;0.4931588;-0.0011808623;0.05052354;0.014419393;-0.1841926;0.15119326;-0.30179507;0.23445213;0.11053938;0.28944865;-0.044842;0.025117517;0.24234146;0.28501;-0.06481698;0.13564658;0.010964598;-0.2612038;-0.053881638;0.046227623;0.5959768;-0.035206787;0.13272865;0.2598027;0.031218259;0.1428625;-0.33293062;0.06477261;-0.017084036;-0.5776747;0.04532143;0.14513211;-0.060127452;-0.068890706;-0.08270069;-0.19283088;-0.11832727;0.022031458;0.17053218;-0.0031931938;-0.07345845;0.019714847;-0.91855335;-0.25606143;0.38618958;0.17143679;0.020324448;-0.049223147;0.4856304;-0.045841504;0.10446564;-0.020688822;-0.4233972;0.16071276;-0.09239231;-0.48013687;-0.3636264;0.46193624;0.5555959;0.3218407;-0.015463408;-0.21188983;0.3083327;0.07680919;-0.13488396;0.026561419;0.13774757;-0.039404593;-0.07464858;0.026098102;-0.042413175;0.0013827422;0.38986522;0.33441105;0.08804806;-0.07562665;-0.4876746;-0.2988251;-0.06338055;-0.18459694;-0.4267454;0.028103901;0.07380031;0.08684296;0.012693097;0.092993796;-0.0565645;-0.22591962;0.08254966;0.18115656;0.04625403;-0.06254159;0.115706876;0.05218097;0.06850506;0.28365085;0.058937665;-0.7413658;-0.3605714;-0.0561208;0.0414979;-0.1244728;-0.011703734;-0.08271531;0.047121592;-0.23433389;-0.0030489906;0.0455852;0.16947468;0.62705576;-0.20443507;0.14547971;-0.50732464;-0.052239295;-0.08252831;0.13323016;-0.040654115;-0.053729303;-0.026176684;0.38140562;-0.28958422;-0.013895196;0.41289788;-0.19365844;0.012288671;-0.052454248;0.0226847;0.30555752;0.11258478;0.085389614;0.39770445;-0.05344142;-0.035289876;0.12548888;-0.18304245;-0.01212693;0.06844078;0.046918202;0.15388286;-0.65827054;0.079439834;-0.02448197;0.22339702;-0.030454006;0.18676181;-0.08516361;-0.35819715;0.38382173;0.2158517;0.5193341;-0.060109638;-0.09210478;0.17908654;0.040713076;0.05815151;-0.15743543;-0.06834817;0.2119599;0.11165591;-0.3917923;0.084464066;-0.04374623;-0.0014187717;-0.024156906;0.0495854;-0.113837935;0.25210363;0.1324614;0.30822188;-0.11144052;-0.17792544;0.49028155;0.26007214;0.04490506;-0.35408923;0.3313033;0.021136682;-0.30929527;0.0143140415
-0.009275093;0.034167062;-0.018049028;0.29715958;-0.04780982;0.4055119;0.050201558;-0.006882769;-0.05190111;0.2872523;0.5393607;0.1821811;0.29567003;0.24715617;0.04147982;-0.20129679;-0.062436953;-0.5289638;-0.19731219;-0.57714623;0.25462556;0.05441971;0.22390684;0.24884467;-0.24158888;0.113147564;0.32396328;0.45526764;-0.4674893;0.38934356;-0.14572424;-0.14731196;0.038699877;0.24722342;0.20416848;0.025897495;-0.34062055;0.113649234;0.33010265;-0.071381025;-0.11144271;-0.48346034;0.04522753;0.16100705;-0.019606242;0.23973612;0.05547584;-0.28619662;-0.48162076;0.11397129;-0.039962575;0.6717544;-0.12240464;-0.003609475;0.02973775;-0.12676725;-0.034433465;0.15583949;0.6912075;-0.053086996;-0.23651026;0.22029124;0.009757824;0.054868385;0.21643418;-0.02663229;-0.14554152;-0.19334047;0.025510563;0.117508605;-0.007981458;0.19223702;-0.35019666;0.024776263;0.1802536;0.038281057;-0.1225017;-0.06879629;0.3111199;0.15063217;0.14470813;0.041732617;0.085430376;0.06478341;-0.10787813;0.07619336;-0.0698064;0.12680458;0.121347174;0.04490035;0.4572393;-0.047988746;-0.108917825;-0.028548533;-0.02159079;-0.032457065;0.11819608;0.19497411;-0.007961197;-0.021733725;-0.043284923;0.026300238;-0.21289413;-0.2157125;0.31632552;0.25170952;-0.2110042;-0.038305044;0.020526402;-0.16531062;0.017621817;-0.04185241;0.045980692;-0.069283225;-0.2982244;0.0084418645;0.09948815;0.44375983;0.121886045;0.0004890966;-0.020705268;0.095704004;-0.19194314;0.34509033;0.33458537;0.35804254;0.0817149;0.006715303;0.2933495;-0.177259;0.059885155;-0.27534664;-0.016018497;0.03730046;0.039910078;-0.3404635;-0.014175645;-0.014438113;-0.012339584;0.24246839;0.05362551;-0.34108695;-0.23749411;-0.004625776;0.15118465;0.25354987;-0.004915275;0.26838702;0.20627356;0.12196106;0.06505625;-0.067338936;-0.121561415;0.34854743;-0.31515986;-0.02261444;0.3607169;-0.32871404;0.14317097;-0.003945478;-0.2263754;0.47345194;0.08069781;-0.04849856;0.041202106;0.56290054;0.24461769;0.25312674;0.028470144;-0.05547046;-0.07576707;-0.062412526;0.033209104;-0.04909635;-0.3011362;0.06283777;0.19351014;0.035646237;-0.021906435;0.035847314;-0.061933234;0.027793253;0.02348069;0.0451916;0.07463015;0.38234022;0.047751937;0.056477893;-0.47146896;-0.6872605;-0.20849232;-0.45839265;0.04893669;-0.0924574;-0.6101392;-0.307127;0.4088673;0.23409538;0.07489376;0.0048111845;-0.051122274;-0.0012965867;0.097589396;0.21887472;0.26866716;0.051773548;0.026492635;-0.03552377;0.068682484;0.059305463;0.07375838;0.14966168;-0.016081052;-0.05322259;0.11919499;0.23906295;0.049160346;-0.024398336;0.20469892;0.032748487;0.49181706;0.6494082;0.41969252;0.03630116;0.058047798;-0.07412327;0.018661562;0.45996803;0.016863562;0.03846798;0.2387024;-0.20464136;0.04115247;-0.20802186;0.28347054;0.48989588;-0.047480267;-0.3610447;-0.07046153;0.25043035;-0.29744354;0.17795391;0.25879797;0.17817633;0.23192388;-0.33110124;-0.43311423;0.012305759;-0.04858287;0.011923606;-0.5479982;-0.15019433;0.08113986;-0.021198543;-0.44416377;-0.008212289;-0.06606902;0.32458213;-0.18080689;0.037884545;-0.0076388125;-0.0072334856;0.012592351;-0.012909369;0.025136832;-0.19891673;0.39643914;0.44104588;-0.2839262;0.0127022695;0.041483473;-0.4265204;0.19672179;0.0498548;0.025216961;0.1748456;0.2530621;-0.04741616;-0.111099474;0.26771042;-0.12799405;-0.027955476;0.060655717;-0.29760072;0.020095702;-0.41533497;-0.068286106;0.14329128;0.043678526;0.31225178;-0.0041172295;-0.022719707;0.07532001;0.08261577;0.10645854;0.0074494844;0.19117022;0.032896973;-0.15308002;0.37937984;0.12570158;0.20030826;0.22430687;-0.019856721;0.05414735;0.068954006;-0.072358906;-0.05431642;-0.025003413;0.06570777;0.07231826;0.01520597;-0.027735969;0.19027378;-0.043490797;0.08405715;0.030876156;0.40248224;0.39436397;-0.034634206;0.13011079;0.022256209;0.040122833;-0.2084775;-0.066682965;0.054118253;-0.11030539;0.045254152;0.064741276;0.05891144;-0.04874364;0.09255588;-0.018756684;-0.06609377;-0.32102865;-0.00085762027;-0.012114429;-0.0912587;-0.011539601;-0.25866997;-0.054170527;-0.3680621;-0.41187286;-0.31894487;0.10842525;0.43366286;0.11486326;0.25356892;-0.61920106;0.0030688795;0.23968339;0.53736126;-0.2288554;-0.11438728;-0.33052355;-0.16628222;-0.07095939;-0.06512927;-0.13845508;0.044461045;-0.06338775;-0.050391268;0.03064999;-0.060761135;-0.1396201;0.05173106;-0.03565614;0.07149006;0.01412738;0.2698884;0.1535283;-0.1043584;-0.10838446;-0.011173571;-0.07178551;0.011630903;0.21560536;0.3603931;0.045941923;-0.11277187;-0.40215966;-0.052441094;0.46100378;-0.05520728;-0.060031343;-0.0019726858;0.012634252;-0.045143675;0.34290797;-0.08756366;-0.058117963;-0.06543634;-0.40020505;0.13584135;0.0035346749;0.01659684;0.07997678;0.5073857;0.10414114;-0.046618108;0.038016632;-0.10172298;0.08087524;-0.2693321;0.1690679;0.1209157;0.20791882;-0.08958985;-0.038074873;0.2179503;0.323184;-0.16026044;0.0007689886;-0.008276681;-0.202463;0.120937735;8.8821755e-05;0.5956366;-0.045263756;0.19254999;0.21852562;0.10701977;0.15947586;-0.22859034;-0.05704169;0.07453204;-0.40106285;-0.012187172;-0.022922104;-0.027940523;-0.15613636;-0.08936429;-0.23965833;-0.0068049673;-0.00796875;0.3050298;-0.0074870824;-0.08058096;0.044609353;-0.8716584;-0.36001587;0.32749084;0.25965396;-0.011816191;-0.031406645;0.51072407;-0.01567532;-0.0063486714;0.004190396;-0.4088144;0.0014078106;0.027024379;-0.1655221;-0.2057261;0.45032;0.59111917;0.28112802;0.11715749;-0.2392476;0.22592945;0.24689694;-0.096154265;-0.045606993;0.076992884;0.034179438;-0.027717886;0.03420862;0.02653165;-0.03193447;0.3551337;0.19795416;0.05076093;0.076111436;-0.3409394;-0.42921966;-0.03174782;-0.2134221;-0.3414109;-0.031170541;-0.06389674;-0.0249246;0.16381812;0.16179436;0.021599997;-0.2835878;0.010399144;0.12354907;-0.0122214025;-0.070718825;0.037126966;0.034822196;0.031956986;0.42826545;0.098713376;-0.55078244;-0.126142;0.0055742837;-0.060371824;-0.22921331;-0.08168777;-0.022137852;0.0019995917;-0.20527981;-0.017239599;0.008830959;0.29749554;0.4630285;-0.20956087;0.07068514;-0.16855095;0.0686882;0.033195745;0.08063552;-0.06384285;0.0013222744;0.04705629;0.46853468;-0.16676576;0.027008645;0.43161976;-0.0880963;0.056837145;-0.0560711;0.053868458;0.3701502;0.16996785;0.102880105;0.36429372;0.013979361;-0.13330649;-0.00994966;-0.2183234;0.014700539;-0.07243496;-0.047515124;0.013484221;-0.54576457;-0.034671053;0.01034349;0.0914344;0.068435535;0.29025033;-0.09628222;-0.3353071;0.43649712;0.23951823;0.4618612;-0.07494854;-0.006148264;0.3453982;0.17564538;0.072993346;-0.2765199;0.042912353;0.24086477;0.19359607;-0.23867857;0.004796891;-0.024031807;0.056577872;-0.056675605;0.010893109;-0.0008972169;0.29853356;0.17745368;0.38515502;-0.04807731;-0.14386752;0.47268468;0.13926835;0.11282463;-0.2705987;0.3280187;-0.04230979;-0.31384137;0.06330818
-0.024481902;-0.057427227;0.0025748205;0.30522904;0.024799976;0.5636546;-0.030002445;0.016070845;-0.0528792;0.32201266;0.52376986;0.29011157;0.18440562;0.22377948;0.007411616;-0.19853663;-0.028165763;-0.33441308;-0.0862341;-0.5307136;0.29641375;-0.03509251;0.113225155;0.14686638;-0.22097808;0.09945138;0.32707834;0.36983544;-0.47277468;0.26262358;-0.17469499;-0.12096478;0.047930934;0.2488291;0.17596748;0.03026653;-0.32600942;0.14669362;0.32025006;0.080219574;0.011456088;-0.50005955;-0.025987826;0.096782;0.0470293;0.33041933;0.037099633;-0.16892615;-0.37282386;0.21055134;-0.15942004;0.54745656;-0.04433316;0.046868812;-0.057852574;-0.2963481;0.008470288;0.24503021;0.5232494;0.0027005675;-0.22234604;0.17260572;-0.07508569;-0.07034996;0.14980964;0.04342965;-0.041658547;-0.10402785;0.014216481;0.18989602;-0.00017511517;0.10114912;-0.3092683;0.16789837;0.35088003;0.084716894;0.05427723;-0.0684663;0.42543033;0.20329711;0.12412134;-0.015706493;0.0685893;0.1953335;-0.11758341;0.056008205;-0.017934803;0.13443266;0.10803332;-0.047944315;0.44779605;0.08313659;-0.07511226;-0.011737292;-0.035517342;-0.05555837;0.16549292;0.16770771;0.06823823;0.0907027;0.011584797;-0.04328453;-0.397726;-0.041478474;0.317355;0.28512356;-0.19097853;0.007842824;0.06603567;-0.16681875;0.020026341;-0.07615735;-0.080591954;-0.051181972;-0.27365083;0.046863686;0.081418626;0.3411504;0.22614816;-0.032029957;0.0032071988;0.080171496;-0.2685998;0.27265996;0.20489557;0.39637348;0.06418339;0.025089646;0.25628176;-0.34093228;0.10450549;-0.35307565;0.02219194;-0.055260666;0.15241702;-0.25187957;-0.013630268;0.019577665;0.030339163;0.25817016;-0.049170576;-0.21363272;-0.29603255;0.094418176;0.16568263;0.10669594;-0.005297748;0.24818747;0.22605681;0.11666783;0.07216328;0.027590351;0.10612261;0.30393097;-0.113532856;0.012948819;0.27536494;-0.2607937;0.16780373;0.07143599;-0.19733843;0.4216456;-0.06551668;-0.096342236;0.0012311665;0.56122136;0.25385672;0.16854267;0.040029168;-0.08454785;-0.041427076;0.018351655;-0.075183436;0.027590452;-0.31810284;-0.018017676;0.22058438;0.065278426;0.05465886;0.07755035;-0.034885682;0.07237549;-0.012961763;0.017818496;0.0069093723;0.4002851;-0.03133695;-0.056630626;-0.44925427;-0.6180328;-0.30262142;-0.45649892;0.0809044;-0.041020144;-0.471273;-0.1944857;0.39951518;0.26331672;0.043399394;0.07503018;-0.011812599;0.039885197;0.074952856;0.2187865;0.29541126;-0.016329259;0.018942976;-0.05808889;-0.008153086;-0.050509457;0.0872746;0.08924148;-0.102382086;-0.09022947;-0.03726118;0.23064448;-0.0017110376;-0.045635086;0.11965847;0.19764772;0.475062;0.67698205;0.34390828;0.056912262;0.07972017;-0.0032613198;0.035310265;0.5522442;-0.01216261;0.04709378;0.14859363;-0.16378343;-0.028939368;-0.060974766;0.25446525;0.39956522;-0.031218087;-0.37129337;0.019771062;0.13318998;-0.26016852;0.24396183;0.20197089;0.14245714;0.21537463;-0.24926159;-0.2538855;-0.0679183;-0.06710102;0.05957007;-0.3826808;-0.21342313;0.081449606;0.1262976;-0.32963717;0.08134043;0.03232824;0.3964279;-0.030322256;-0.017170027;-0.07495692;-0.003424839;-0.041758493;-0.020969104;0.03667174;-0.045850825;0.5656393;0.29372138;-0.19985272;0.015308867;-0.06399111;-0.24219637;0.08833472;0.111076675;0.07079099;0.1809909;0.20741168;0.02082085;-0.21552756;0.2780415;-0.08774637;-0.114021555;0.09169432;-0.14069343;0.08646984;-0.35852686;0.09085459;0.16425395;-0.0740691;0.29633775;0.049774785;0.004521369;-0.010295107;-0.045470215;0.12951283;0.057746347;0.11465474;0.011124758;-0.023382366;0.31730935;0.112862274;0.28371397;0.1537461;-0.0004652376;0.14103721;0.13406388;-0.057908177;-0.060636133;0.02377211;-0.03179519;0.15462227;-0.00077154464;0.053045627;0.17014764;-0.022938244;-0.01773267;-0.027712045;0.3772518;0.291018;-0.003808127;0.24556376;-0.061801683;-0.031757608;-0.26935455;0.027657075;0.19897427;-0.043411072;0.000378859;0.12204232;-0.06574304;0.097207144;0.06630343;0.03934191;0.0502548;-0.11802025;0.06517832;-0.18738857;0.03373694;0.045998678;-0.33219114;0.050416786;-0.33578703;-0.3913996;-0.34276426;0.14883642;0.35380924;-0.01695113;0.108690836;-0.52454156;0.0015109906;0.18707766;0.37281027;-0.1417097;-0.038940493;-0.07490576;-0.1131793;-0.11496121;-0.018259013;-0.17674085;0.18145868;0.0077267666;-0.08334376;0.044547163;0.057290107;-0.124790706;0.11473176;0.111228794;0.12683077;0.0072708847;0.23705459;-0.022073697;-0.110401645;0.010716162;0.06373778;0.07580503;-0.043386765;0.1480608;0.44915658;-0.035234667;-0.08434057;-0.3633557;-0.0038059617;0.52806383;0.009463229;-0.094476745;0.054119527;-0.0019437216;-0.010082282;0.30364686;-0.023123462;-0.040073145;0.051679675;-0.40149984;0.10895912;-0.08844827;0.05475309;0.105826825;0.51105374;0.035350494;-0.03641054;0.021602947;-0.11686793;0.08651512;-0.24318728;0.1765168;0.029078016;0.13019142;-0.052369036;0.011535726;0.07623382;0.33280224;-0.114344716;0.060298122;-0.009538688;-0.26070404;0.042185973;-0.02797849;0.42463732;0.030973373;0.16049957;0.32114553;0.08947652;0.26515874;-0.18315311;0.056058608;0.0034980082;-0.33058745;-0.032564413;0.01118689;-0.032632608;-0.24105792;-0.11759844;-0.11819413;-0.11750261;-0.0011865931;0.26221973;0.004770285;-0.0130465785;-0.020877328;-0.8446826;-0.21433818;0.40748793;0.097792104;-0.017420385;0.08247568;0.39073566;0.09366132;0.09430353;-0.05402634;-0.32750094;0.101798296;-0.09627811;-0.0376535;-0.069404505;0.54057366;0.5177601;0.20923395;0.14553654;-0.24569482;0.13057774;0.15893555;-0.033453874;-0.0686396;0.17097284;0.07215808;0.004021573;0.009760626;-0.058638174;-0.036861125;0.41007778;0.19853713;0.04362157;-0.011046007;-0.33145782;-0.38491082;-0.13304175;-0.19755878;-0.2511627;-0.015101195;-0.01622548;0.11741358;0.091902286;0.050514404;0.025418462;-0.19045372;0.06080491;0.18064813;-0.17155443;-0.01731992;0.052866407;0.039061017;0.17558208;0.46712255;0.16513708;-0.3122746;-0.1455697;-0.093859024;0.014271172;-0.12132917;-0.05625791;0.059411626;-0.012974457;-0.26411745;0.06258321;-0.038996976;0.29500854;0.52865857;-0.09406151;0.14986166;0.046919674;0.042621057;-0.07813001;0.032601345;0.053724498;0.21961492;-0.039144628;0.4346164;-0.06100435;-0.070180155;0.46440902;-0.08173121;-0.03400812;0.02421249;0.03895997;0.42593747;0.0644755;0.18118852;0.48913452;-0.1463825;-0.24847616;0.08343442;-0.12440426;0.028754767;0.0033215468;-0.073505566;0.059635308;-0.5762273;-0.061615787;-0.07176452;-0.06699995;0.018088937;0.20871682;0.024270508;-0.24208026;0.38520133;0.18681042;0.53592306;-0.12810396;-0.032779347;0.28563654;0.14607199;0.045055714;-0.3539849;0.040741272;0.2552473;0.19566654;-0.07290824;0.052928537;0.0017113298;0.08598183;-0.06082277;0.011100883;-0.056641646;0.22183888;0.044115987;0.31249252;-0.06291049;-0.15067612;0.39257887;0.24822767;0.1775446;-0.17752962;0.3306272;-0.13065147;-0.22125585;0.06042991
0.042930774;0.04320517;0.0056228307;0.3430868;-0.02429981;0.5371264;0.05138436;0.0015193244;-0.06244998;0.36140573;0.4969221;0.19351941;0.14443289;0.0036326144;0.027967803;-0.119707175;-0.08918256;-0.25977263;0.009981524;-0.44123447;0.29289827;0.003443005;0.09948132;0.11449981;-0.16976671;0.04983505;0.22297189;0.3560546;-0.33147138;0.28949198;-0.16547851;-0.114072196;0.0052825133;0.21335328;0.14969842;0.035617266;-0.27151883;0.3132543;0.3613048;-0.025853852;-0.07376248;-0.32536042;0.019039381;0.14607555;-0.07436699;0.29060498;0.05863832;-0.27782124;-0.2522351;0.26470998;-0.06303247;0.5441128;-0.055838257;0.060693868;0.031622015;-0.365792;0.069588676;0.2627712;0.6615596;0.056603663;-0.21994449;0.14327295;0.020413423;-0.062404066;0.07141464;0.067491814;0.05304319;-0.107915275;-0.010788767;0.17983049;0.024061216;0.116670474;-0.3122547;0.06270771;0.42820585;0.11042066;0.10498085;-0.008984674;0.25901932;0.12718831;0.090642266;0.05247792;0.21387105;0.14963299;-0.07904458;0.098676324;0.031192042;0.14294255;0.14251573;0.027456935;0.4917422;0.004247229;-0.092579275;-0.037345108;-0.058665086;0.07555511;0.23617491;0.21894571;-0.05354844;0.0031160333;-0.022532597;0.04667811;-0.35572863;0.0972952;0.3302072;0.1467053;-0.08454562;0.0231977;0.054134697;-0.25748307;0.00281354;0.033959392;0.0516085;0.020935526;-0.35013965;-0.025320612;0.11001056;0.32075238;0.13140114;0.039743878;-0.04332544;0.04914684;-0.19970576;0.35942954;0.32172063;0.23303057;0.09341244;0.009026628;0.25542128;-0.30423087;-0.045580626;-0.44036806;-0.035540663;-0.015464716;0.013537764;-0.19829084;-0.005489008;0.023858104;0.17561749;0.2952395;-0.10803227;-0.20762767;-0.24021085;-0.00872392;0.300297;0.061174918;0.051086064;0.27080116;0.27339104;0.053564347;-0.06954861;0.05300663;0.07265708;0.2871162;-0.06468467;0.022517458;0.1549344;-0.24164975;0.049288955;0.013139891;-0.2554984;0.3606678;0.011710189;-0.007004046;-0.04606188;0.45308012;0.264484;0.04458939;0.08088395;0.010106121;0.05210797;-0.021827118;0.0192698;-0.065359406;-0.3736406;0.036973417;0.15132487;0.067053825;0.051133595;0.075366184;0.04930012;0.0016076514;0.06573188;-0.057674132;0.0071464363;0.27853006;0.028675323;0.015015503;-0.3413932;-0.464672;-0.3558385;-0.21006812;0.1955104;0.0008543313;-0.3706538;-0.13344608;0.30912733;0.16058479;-0.049888045;0.17563866;0.03856792;-0.073298484;-0.04058276;0.22081989;0.34832782;-0.010472057;0.047107935;-0.17676653;0.0059060096;0.02455542;0.132303;-0.07739119;0.021494614;-0.021684969;-0.08897167;0.09841756;-0.06252834;0.02030452;0.06213959;0.08006401;0.50641185;0.64589685;0.29730046;0.20647211;-0.06681645;0.041749615;-0.0028416775;0.33547294;-0.055282094;0.062060878;0.21327578;-0.15511754;0.027636452;-0.08712721;0.24228212;0.31398916;0.052316353;-0.297781;-0.0018873021;0.2958312;-0.12818;0.14729829;0.27240592;0.21405087;0.254577;-0.3362243;-0.18571313;-0.05849808;-0.0452112;-0.024486437;-0.26427072;-0.24454178;-0.054039825;0.1942895;-0.34751213;-0.028265065;0.05456789;0.3750646;-0.05340592;0.09275116;0.040356703;0.07995783;-0.05793373;-0.067545265;-0.046768047;-0.076753095;0.530482;0.39466026;-0.3113354;0.08697797;-0.026101995;-0.2805489;0.17268193;0.13518253;0.044602476;0.13745509;0.27660945;-0.07237249;-0.2514972;0.33532882;-0.026471205;-0.103423364;0.011965871;-0.00027444452;-0.034610327;-0.38074443;0.04235041;0.1208486;-0.020259388;0.2903857;0.04394012;0.032412183;-0.0060805036;-0.02712504;0.09766167;-0.055834934;0.04704637;0.037294805;-0.08746096;0.29569128;0.2696514;0.2048301;0.022495849;-0.048812654;0.028612586;-0.014222352;-0.017107295;0.07191464;0.07334539;-0.039558366;0.15549739;0.08317732;0.02396133;0.14827183;-0.036982805;0.07315296;-0.038587887;0.36001092;0.19474621;0.009220862;0.15851939;0.07647958;0.034888502;-0.27696264;0.10578634;0.101136446;-0.025843019;0.008300738;0.008161725;-0.027800629;-0.043911815;0.052403517;-0.030129729;0.009226578;-0.110662304;-0.0083895875;-0.15569146;0.0510659;-0.07250209;-0.54260683;0.082769856;-0.36150664;-0.3814871;-0.19312067;0.111248456;0.35606262;0.111771874;0.099281766;-0.5851311;-0.023981871;0.1561961;0.3476784;-0.030170988;0.0023079468;-0.020801509;0.043179363;-0.010223345;-0.056544658;-0.21714239;0.1262601;-0.03621553;-0.24196303;-0.055270586;-0.1006733;-0.3044682;0.037243675;-0.01630978;-0.045468822;-0.011405084;0.15596856;0.019837039;-0.058041558;0.08181131;0.010875408;-0.045132816;0.064365745;0.11363539;0.38680056;-0.06892038;-0.1069562;-0.18327534;-0.023284603;0.44003347;-0.054161407;0.0330791;-0.027305078;0.037462402;0.043619744;0.41336372;-0.1940125;0.06737384;-0.065314576;-0.32274574;0.11805947;0.0026487887;-0.091092154;0.002476268;0.4641905;-0.055454046;0.06292517;0.007083212;-0.0890437;0.150458;-0.30796888;0.16271053;-0.05884024;0.11172798;-0.0063427147;-0.028520355;0.097279646;0.17071061;0.046275772;-0.0041039595;0.098268956;-0.17754719;0.14382707;-0.07193782;0.31372353;-0.057871874;0.005735566;0.31964916;0.19700825;0.2030919;-0.03573925;0.06717334;0.09641646;-0.3066673;0.024253068;0.018241188;-0.08979752;-0.16461751;0.026814453;-0.05455917;-0.16188164;0.028645307;0.21794842;-0.081845194;0.05584762;0.04045038;-0.8258613;-0.2938125;0.24260528;0.09754117;0.06084438;0.02052364;0.47454068;0.031111663;0.07987299;-0.04190593;-0.26888856;0.17810294;-0.015648915;0.0052925423;-0.10116633;0.56470084;0.3683475;0.15578337;-0.044891298;-0.2134437;0.16709533;0.07682947;-0.06988389;0.029430568;0.091753095;0.019213902;-0.044486515;-0.05193731;0.03038268;-0.074147694;0.39726663;0.05312123;0.05189784;-0.0003276315;-0.16892424;-0.29973823;-0.11483183;-0.18367496;-0.2611967;0.04206264;0.007413507;-0.0029080354;0.060965378;0.108698905;0.17208318;-0.31659237;-0.057222176;0.13510248;-0.10930129;-0.059618577;-0.0015347833;-0.05389152;0.11123876;0.5539805;0.14521427;-0.24152175;0.004693476;-0.122434795;-0.013083147;-0.24280024;-0.124354474;0.0056445026;0.06321983;-0.15526812;0.1022904;0.02010616;0.16178696;0.4068753;0.043129515;0.11200827;0.008906296;-0.06821135;-0.064615235;0.035622805;-0.029666454;0.1280477;-0.049808003;0.2838126;0.03643117;0.040258374;0.36247852;-0.10526467;0.016192647;0.08306621;-0.06950827;0.4627495;0.054998986;0.122197285;0.38616496;-0.15706049;-0.24105226;0.022224026;-0.08112937;0.045356166;0.03947432;0.045444127;0.021715533;-0.60222185;0.033300165;0.027246524;-0.03767469;0.0036964545;0.29989004;0.020952282;-0.22720625;0.46162656;0.12814005;0.47978765;-0.072856955;0.016831532;0.11842615;0.18672901;0.04424228;-0.2131224;0.05912821;0.16563936;0.11893893;-0.06568546;-0.0052015395;-0.062094964;0.038320374;-0.045040376;-0.10194225;-0.026735412;0.18428834;0.13489078;0.14546421;0.031453963;-0.23582156;0.42081934;0.2008167;0.13596314;-0.2397568;0.37741008;-0.08015372;-0.22816484;0.032069508
0.015199843;-0.04456771;0.009661755;0.26143238;-0.059120003;0.38349557;-0.055727117;-0.018778836;0.03841939;0.39813998;0.62090105;0.2319296;0.07787493;-0.06117662;0.070557594;-0.11588669;-0.026047159;-0.124474846;-0.05378508;-0.29057962;0.3885229;-0.073468246;0.012430082;0.019386007;-0.12171088;0.043887604;0.24599822;0.16794753;-0.33939233;0.1895251;-0.22086295;-0.0037062909;-0.049126938;0.071494974;0.12127576;-0.019839715;-0.3672711;0.28999853;0.27978528;0.0012629218;0.06725635;-0.4061476;0.0261866;0.04907022;0.019345244;0.39842343;0.1190425;-0.26085445;-0.2047392;0.17118335;-0.011369557;0.48362643;-0.09626823;-0.06342784;-0.062296897;-0.30474317;0.0033714091;0.22563702;0.59755623;0.015352076;-0.082697466;0.13585009;0.023531405;-0.058983248;0.08950973;0.015110528;0.08668634;-0.09924522;0.04886963;0.27653712;0.00029271963;0.06398236;-0.16572988;0.1708207;0.38516122;-0.03667199;0.23662719;-0.0470408;0.34108782;0.10911513;0.14486866;0.0055089006;0.17159258;0.059690285;-0.060099553;0.042447973;-0.05365351;-0.0077507524;0.21639235;-0.045984473;0.5905924;0.0005151036;-0.10145694;0.048639353;-0.06323841;-0.040545892;0.09533179;0.23467083;0.057935365;0.011158949;-0.017050115;0.013610798;-0.41298014;0.0811965;0.26760152;0.1490028;-0.15922429;-0.025515469;0.14110173;-0.2533962;0.03588741;0.030060029;0.03663939;-0.029187031;-0.3218729;0.046194334;0.09325681;0.28335065;0.17576154;0.12933327;-0.0068795495;0.008453169;-0.23241423;0.2529545;0.36405092;0.15714008;0.17168392;0.07444276;0.14967671;-0.35813338;0.08264126;-0.41342065;0.053828806;0.029414188;0.00754725;-0.1270877;-0.10596137;0.0061611943;0.31484252;0.32030937;-0.1458878;-0.3027273;-0.12244509;-0.042811617;0.21158399;-0.03745935;-0.028657058;0.20771939;0.25326532;-0.0056758076;-0.07153881;-0.064215854;0.20254652;0.08942742;-0.03348929;-0.03050325;0.27074346;-0.18131931;0.13425885;0.018374726;-0.19066177;0.35702536;0.030422993;-0.083112754;0.06423637;0.57505906;0.317962;-0.0811733;0.052886795;0.024660386;0.029116683;0.1800131;0.06655317;-0.062387582;-0.28686866;0.0038056837;0.1288831;-0.012126752;-0.028663334;-0.067801446;0.03878141;-0.044602506;0.109537914;0.0071992897;0.0038171406;0.3012708;-0.026335297;-0.0069644433;-0.1927838;-0.453539;-0.28501317;-0.15619817;0.11010545;-0.0047559356;-0.28408536;-0.024655063;0.37081867;0.17934376;0.0067314566;0.19514807;-0.03509546;-0.07777975;-0.019603323;0.16345334;0.20201749;0.059129406;-0.0024495719;-0.11441558;-0.059719477;-0.078364536;0.24333353;-0.2033525;0.052841015;0.05653642;-0.07178084;0.21715379;-0.06905805;0.058486857;0.10592138;0.16579616;0.38900676;0.46971476;0.2502092;0.19271539;0.03018599;-0.05353038;-0.044324555;0.318964;0.002241309;-0.00089874543;0.29555568;-0.030196195;-0.003193947;-0.24781531;0.27079648;0.20308453;-0.023587491;-0.21348205;-0.02112745;0.18541284;-0.010011643;0.15964048;0.27656242;0.23921013;0.27945206;-0.2569781;-0.120865636;-0.039191928;-0.060093444;-0.053375296;-0.1283387;-0.17485183;-0.039164234;0.19013956;-0.3887526;-0.010702993;-0.022711705;0.31559658;-0.19761121;0.014545768;0.049448323;-0.026078247;0.07326742;0.019201208;0.023459459;0.006219152;0.6394031;0.40689072;-0.26591748;0.12220259;0.057419132;-0.29748598;-0.009031465;0.03021787;0.18223518;0.13656907;0.29536384;0.03486614;-0.25325996;0.23361374;-0.11721704;-0.10321375;0.102549426;-0.0744101;-0.057743467;-0.3831436;-0.03691167;0.19401242;0.04744847;0.1911633;0.045654923;0.04451504;-0.06407264;-0.045786686;0.094021626;0.040251195;0.062355347;-0.00038698255;-0.10514593;0.20277894;0.18708463;0.29271615;0.0065920767;-0.043075796;0.037364364;-0.0031664623;0.0176364;0.12094369;0.07168447;-0.031699885;0.1759347;-0.03991187;-0.06502207;0.18629353;0.08309447;0.21084118;-0.07279136;0.16910797;0.088607684;0.097333506;0.27644858;0.07701931;-0.049335;-0.19129606;0.12233104;0.099182904;0.009012583;0.050593123;0.04948061;0.0066149514;0.014226054;-0.0064866263;0.054291867;-0.0037899953;0.048181042;-0.030230355;-0.3139481;-0.020455038;0.06935063;-0.4806744;0.2042509;-0.34045756;-0.3576692;-0.25184157;0.061567046;0.28804958;0.07695542;-0.039052434;-0.49740896;-0.043782752;0.096139975;0.22168535;-0.026952922;-0.059860587;-0.035751913;-0.030575328;0.0069038104;0.063666545;-0.27586114;0.26754516;-0.022639895;-0.12616;0.046381857;-0.06474576;-0.17899853;-0.017936751;0.024481172;-0.10028038;0.038943417;0.046346337;-0.06854596;-0.05843894;0.008185679;0.0043520653;-0.05343037;0.14196849;0.13480252;0.35123414;0.04313892;-0.09806671;-0.19489256;0.0860637;0.39332327;0.055649202;-0.21957116;0.007500641;-0.0324058;-0.021248452;0.34853348;-0.041022528;-0.0094471285;-0.035377655;-0.15355775;-0.038547188;0.039054967;0.058015585;0.08849067;0.43767634;-0.05223093;-0.0056123757;0.06651186;-0.07571221;0.078873575;-0.32501018;0.17442203;0.042838912;0.08824353;0.055323306;0.041065637;-0.072962426;0.21152452;0.07623868;0.011811749;0.12945847;-0.113360845;0.22974887;-0.05507778;0.2096047;-0.03983697;0.054096367;0.49690267;0.069406666;0.15906261;-0.040899944;-0.037454356;-0.043167688;-0.28020522;0.056162115;0.023627207;-0.03829267;-0.10073559;0.01275322;-0.052044906;-0.19710082;-0.046156175;0.24626575;0.068876415;0.028595915;0.06523897;-0.642621;-0.2412759;0.2281421;0.12221483;0.06743877;0.08176355;0.5776356;0.06299956;0.030381076;0.052283537;-0.239778;0.26352325;-0.009650263;0.01506944;0.00058801565;0.42199537;0.32906306;0.11559365;-0.01244815;-0.068952195;0.16339664;0.15915959;0.091595426;-0.030587358;0.1784153;0.058247004;0.05240216;-0.05056713;0.021160198;0.034873117;0.4096786;0.050651822;0.04241913;0.040728558;-0.22266911;-0.38752785;-0.17750138;-0.12975441;-0.25542688;0.030227117;0.013572225;0.023327481;0.28612018;0.10303597;0.049482822;-0.17870665;0.037156135;0.23224258;-0.021802831;-0.13747458;-0.08276479;-0.096484184;0.1300909;0.53891987;0.15249358;-0.043745324;0.030408205;-0.039608806;-0.111232445;-0.25235805;-0.18230118;0.04013433;-0.042521313;-0.13915384;0.025827063;0.022147512;0.2513486;0.33744165;0.05849967;0.17666876;0.05262345;-0.024068799;0.026544372;-0.12003137;0.05422648;0.08402485;0.005746737;0.26976618;0.12754905;0.011342249;0.4185878;-0.09615301;0.009597897;-0.04467291;-0.063726544;0.2739497;-0.04051174;0.08614931;0.39535058;-0.26618683;-0.18591519;-0.010102664;0.016343938;-0.069297545;0.036190927;0.005729969;0.023979355;-0.5996607;0.050850697;0.041556694;-0.104388334;-0.07874868;0.38494834;0.05103484;-0.12654147;0.43432117;0.18041003;0.33184525;0.1090276;0.012681648;0.19289371;0.19710799;0.0056376834;-0.26511702;0.024391133;0.03426265;0.14112659;0.195495;-0.011734862;-0.11427709;0.052537587;0.041491084;0.03529534;-0.030387944;0.30340704;0.15255822;0.24365123;-0.055836823;-0.26497027;0.36459523;0.020090602;0.20478618;-0.01957385;0.31363335;-0.06252179;-0.21999013;0.13397999
-0.0072826156;-0.026773745;0.061974004;0.32462707;-0.029713681;0.3737458;0.035546128;0.06306915;0.057684187;0.3404472;0.56261796;0.28153187;0.0068899994;-0.045668796;0.027252883;-0.120936066;0.03198848;-0.29732293;-0.064529784;-0.30382258;0.32518834;0.021043124;0.08211889;-0.030523783;-0.10210857;0.07476803;0.23992959;0.038415853;-0.3566909;0.17133781;-0.122352056;0.104112536;0.0089442255;0.053383727;0.1920785;-0.024598697;-0.39860138;0.33832163;0.33435586;-0.012717921;-0.015929613;-0.46308768;-0.048442088;0.11849941;-0.0577562;0.29651466;0.098611675;-0.32893622;-0.27008003;0.27067375;-0.03919925;0.56115615;-0.10980827;0.036538597;-0.02859859;-0.44547188;0.045345224;0.1896962;0.4319643;-0.04576793;-0.04360807;0.047719914;-0.08226902;0.05031117;0.083504625;0.03497665;0.10982285;0.005428523;0.057572808;0.27155104;0.0006458803;-0.07658737;-0.21604854;0.122587666;0.36804867;0.05757671;0.1203037;-0.050982893;0.36563462;0.12323879;0.14016183;0.06450656;0.14022203;0.08862642;-0.13591863;0.10133531;0.015821679;-0.040073264;0.10944471;0.022660425;0.5196884;0.09785619;-0.06803923;0.042174727;0.02266398;0.07483013;0.16682275;0.18084757;-0.025024971;-0.026709726;-0.013819104;-0.023326026;-0.38611993;0.04079661;0.3318754;0.2514487;-0.038857218;-0.03778816;0.1369144;-0.34091422;-0.06451531;0.059592016;-0.0009324243;-0.014065307;-0.15527788;0.02434537;-0.02511547;0.19711554;0.27241075;0.07572034;-0.030740643;0.08903052;-0.24683192;0.30636165;0.1661315;0.14939454;0.10413935;-0.055601187;0.17873415;-0.28530508;-0.057044316;-0.4143689;-0.05845653;-0.025025925;0.14805725;-0.19123942;0.023173638;-0.088935666;0.2712015;0.30269834;-0.11321089;-0.32388344;-0.21815284;-0.020861883;0.19355395;-0.08040935;-0.029320013;0.34245613;0.28499246;-0.051827297;0.0654267;-0.03883906;0.21342622;0.14678386;-0.06926872;0.08848448;0.18620507;-0.115548864;0.06035019;0.03895632;-0.1696897;0.33904758;0.056789618;-0.09011201;-0.06737896;0.4741615;0.2894863;0.033867285;0.10299814;0.044456594;0.0106185125;0.20350721;-0.072776906;0.020927299;-0.21131614;-0.008305649;0.124239236;0.0016876247;0.034882337;-0.042702727;-0.0464798;-0.022458913;-0.07501567;0.03192699;-0.033413686;0.365259;-0.0082192505;0.035932153;-0.30086634;-0.44803065;-0.25572807;-0.23934;0.03892992;-0.13619465;-0.35345712;-0.10568972;0.20556211;0.13640061;0.015270591;0.1378789;-0.004011781;-0.008413165;-0.059646714;0.24255414;0.15324602;-0.03915267;-0.16609095;-0.07955784;0.089455344;0.039919157;0.22885248;-0.3491682;0.03941494;-0.00906554;-0.1717507;0.24540435;-0.0061483113;-0.06499596;0.038816687;0.053690206;0.44119883;0.51049775;0.25115782;0.06538659;-0.10802015;0.02100294;0.031170873;0.122259825;0.035048746;-0.02384543;0.14936924;-0.22768533;-0.045283232;-0.1892871;0.3179231;0.15674934;-0.08315996;-0.20987582;0.034597434;0.28584787;-0.00946168;0.089868605;0.3782344;0.10820993;0.24518774;-0.3188617;-0.17280193;0.03167992;-0.18690209;0.03316901;-0.22283997;-0.1381238;0.023987988;0.18892546;-0.39031777;-0.07686068;-0.061421182;0.34458777;-0.08572516;-0.03525654;0.015035801;-0.023181358;0.060404923;0.0126749845;0.020869544;0.05281399;0.58197415;0.33568767;-0.08374586;0.12184645;-0.008873291;-0.1323699;0.11249615;0.1477621;0.27023375;0.05499723;0.19130169;0.050108984;-0.24243928;0.13982116;-0.024082659;0.026292136;0.12847815;0.049953748;0.031673405;-0.21103966;-0.070417784;0.21824704;0.048534192;0.15246058;0.032198735;0.015799448;-0.038634546;0.04293411;-0.022920668;0.072693065;-0.17819953;0.06917416;-0.060918488;0.14359468;0.09854618;0.102113135;0.04388445;0.07600476;0.09740224;0.035442285;-0.018783187;0.31664228;0.03969464;-0.033025224;0.17740878;-0.001983334;-0.085700475;0.20911686;-0.031111248;0.062459346;0.067866966;0.27423927;0.22598104;0.05109617;0.39065516;-0.062259447;0.033783168;-0.13644728;0.08366211;0.05860218;-0.0014005469;0.05180725;-0.12486324;0.0009255724;-0.04681183;-0.011584134;0.12528984;0.05724668;0.1484308;-0.04033896;-0.26409265;0.02537116;-0.025072036;-0.41681603;0.2711674;-0.15995544;-0.3662127;-0.33563283;0.120328076;0.26935774;0.05303937;0.0147067895;-0.39429852;-0.14258523;0.013357632;0.30663878;-0.069323726;0.025712809;0.064299084;-0.014807183;0.015501666;-0.037480194;-0.16690038;0.17639925;0.011439095;-0.209944;-0.027550135;0.030895188;-0.359702;-0.06281491;0.040448546;-0.10084441;-0.0064088614;0.12374462;-0.02407414;-0.1651638;0.047469452;-0.037720166;-0.008698329;0.019800281;0.04002408;0.28331605;0.064663105;-0.043357253;-0.027483083;0.034269467;0.27860358;-0.046256587;-0.19084069;0.044186022;-0.06491494;0.064348206;0.4601295;-0.0757383;0.054222003;0.038223166;-0.13447128;0.12710024;0.007278174;-0.060492687;0.07604009;0.32691628;-0.024935845;0.026560742;0.056751613;-0.06499579;-0.034497995;-0.17357323;0.16428493;-0.054062568;0.016838135;0.06335158;0.06255879;-0.16958077;0.17041327;0.10015115;0.04450735;-0.0073037026;-0.20816036;0.18006329;0.0139317745;0.047149383;-0.07301122;0.026782257;0.4009666;0.1722557;0.21716668;-0.05316452;0.025063384;0.10360022;-0.08646023;0.022473132;-0.046142954;0.009902473;-0.117600776;0.031357408;0.07961217;-0.16057669;0.011976903;-0.0054244054;0.016437385;-0.07819389;-0.08230465;-0.46447435;-0.36645323;0.28765908;0.103401706;0.09634532;-0.040667932;0.41201743;-0.0031469;-0.055624943;0.06750495;-0.21892957;0.22946668;-0.0923101;-0.010553791;-0.035677318;0.4987867;0.44334868;0.2989763;0.012551002;-0.050539073;0.14292349;-0.07664267;0.0036251396;0.083444424;0.11687982;0.020981515;-0.003037266;0.043138295;0.0012803118;0.013061717;0.39323545;-0.033949066;0.06964935;0.13779804;-0.24139878;-0.4299811;-0.04765472;-0.19884689;-0.22773218;0.055177536;0.026583951;0.02433153;0.2657905;0.097864844;0.094867215;-0.2734794;-0.009231319;0.21327889;-0.06540399;-0.11399251;0.07627122;-0.12835631;0.22581735;0.4088259;0.02561455;0.012653391;0.09502095;-0.15413111;-0.20411003;-0.44149587;-0.061073333;0.21483554;0.062422104;-0.21630053;0.03350254;-0.054023877;0.1695531;0.43384418;-0.001221912;0.14372405;0.124823555;0.03437897;0.06976742;-0.08712441;-0.0286404;0.11799652;0.03372999;0.2303761;0.08861257;-0.011513402;0.40999833;0.011563645;-0.05603152;-0.03149548;0.030012153;0.44347292;0.005697486;-0.00259498;0.31848934;-0.26188654;-0.1903999;0.05136178;0.048752576;0.042995434;-0.069208674;0.0540371;0.03994917;-0.5879225;0.0686743;-0.022886956;-0.12156503;-0.057808813;0.25702083;-0.07209035;-0.07560956;0.32929212;0.14213274;0.2980196;0.104675345;-0.041864004;0.1363897;0.13518992;-0.04717915;-0.22281437;0.003800713;0.09955846;-0.019988233;0.084588766;-0.04050832;-0.11910109;0.09636566;0.06025617;0.0495359;0.032325014;0.08153481;0.050659675;0.0881895;0.10199037;-0.33204657;0.3811043;0.17357849;0.3435127;-0.069010094;0.33917612;0.08079391;-0.17168479;-0.040540423
-0.020986494;0.03131304;-0.06892857;0.26593322;-0.0004269328;0.36606634;-0.0029379316;0.042597834;-0.0054089865;0.4090612;0.48867428;0.19391194;-0.004308902;-0.18713854;-0.04722433;-0.14674436;-0.03968193;-0.21526143;-0.068205036;-0.31703487;0.34902257;0.06589169;0.07117226;-0.2176829;-0.020991368;0.100040816;0.114572786;-0.05067884;-0.19008207;0.22821361;-0.16191396;0.039733894;-0.023944872;-0.022988066;0.020254781;-0.0045271274;-0.32240573;0.3247617;0.15430167;-0.14115866;-0.01983916;-0.5110264;-0.014725216;0.15768564;0.0406753;0.3019834;0.043039795;-0.26025978;-0.25416887;0.27693912;-0.0010892728;0.53202236;-0.17637683;-0.036749437;0.07608227;-0.44491524;0.056670725;0.20116875;0.45119804;0.0068048383;-0.0043347715;0.037178837;0.060434937;0.07202063;0.12179222;-0.02318524;0.1894157;0.0037452122;-0.024649;0.327267;0.028108584;-0.13442309;-0.06834983;-0.0015233329;0.27166957;0.057620957;0.15398796;0.033577867;0.35012484;0.057626504;0.086665764;-0.05422513;0.13603823;0.1060024;-0.089221545;0.006471672;0.07537102;-0.08520639;0.1631648;-0.036538888;0.5329862;-1.4009424e-05;-0.13375364;-0.065458134;0.06594072;-0.044574;0.09337483;0.2528226;-0.06250157;0.05352408;-0.034713708;-0.04413553;-0.37112623;-0.09527316;0.2599686;0.13131939;-0.084057845;0.03706664;0.1519198;-0.361061;0.0770428;0.19968505;0.0072997287;-0.02552051;-0.12526691;0.060568523;0.07638484;0.10758279;0.17022362;0.20539787;0.05987643;0.094728686;-0.26271513;0.33806637;0.2982322;0.031569235;0.07056686;-0.076140374;0.22259048;-0.2735752;-0.010054611;-0.35483775;-0.053775802;-0.037039503;0.19524574;-0.11796285;0.021357322;0.054521296;0.21827634;0.3073604;-0.16176924;-0.23179376;-0.06332476;0.03355895;0.03708359;0.059613127;0.023001997;0.23348084;0.17076974;-0.035932373;-0.077386074;0.024025459;0.2039868;-0.08608476;-0.00344597;-0.03253937;0.1707293;-0.11967993;0.13737822;0.046587143;-0.114364535;0.3425772;-0.03418338;-0.024864212;0.072067015;0.45655817;0.3467468;0.0585421;0.152685;-0.019093184;-0.08033918;-0.01792086;0.07457555;0.004369719;-0.22666116;-0.07343135;0.20287755;0.065473154;-0.019797068;0.03615862;-0.07202192;0.008529684;-0.011076493;-0.006661515;0.040612485;0.45081335;0.042851027;0.052710466;-0.19435927;-0.34442812;-0.11802767;-0.1121626;0.18469755;-0.034163475;-0.20410277;-0.022207776;0.2088736;0.13874142;-0.0633323;0.12377735;-0.04152412;0.018201178;-0.046602778;0.18007337;0.118581876;0.078737944;-0.04349312;-0.084368415;-0.0028003883;-0.03505096;0.240034;-0.32612547;0.062163565;-0.056556035;-0.053161196;0.16269378;0.030926595;0.049577583;0.011256223;0.08678171;0.27770916;0.36999494;0.24393581;0.19390374;-0.0033256758;0.043906458;0.07061137;0.15309395;0.010881517;0.0100320885;0.16158117;-0.14850086;0.04978098;-0.22987866;0.29224434;0.15695445;-0.05673146;-0.12946947;-0.017330322;0.2742991;-0.058611084;0.19554484;0.24712184;0.15834844;0.10565298;-0.44479573;-0.18701917;0.047455024;-0.13068214;-0.06570235;-0.13458525;-0.25454488;0.0744643;0.15693012;-0.457672;-0.04224648;-0.035503604;0.27577436;-0.15364432;0.010772368;-0.06546208;-0.0022896565;0.0027695019;-0.05712405;-0.017450277;-0.19997391;0.5939666;0.19819711;-0.089171976;0.08732886;-0.07659159;-0.058338318;0.05920793;0.21108764;0.33995086;-0.0021507412;0.16446328;-0.021743277;-0.31880748;0.21133828;-0.12432675;0.021676773;0.13846076;0.156783;0.052307844;-0.25331506;-0.0014205783;0.22487682;-0.04046887;0.13141449;0.017406525;0.048774347;0.02022533;0.1213095;0.05534414;-0.073735446;-0.079740375;-0.022656009;-0.056623194;-0.050204176;0.15178221;0.18325925;0.1281896;0.04890196;0.025261573;-0.12521477;-0.044983;0.3362192;-0.016852833;0.07911366;0.27709484;0.060939174;0.038342718;0.19212621;0.07229881;0.028763143;-0.025489544;0.36876777;0.23807631;-0.036661673;0.33995557;0.042425167;0.013829958;-0.11493414;0.15405996;0.15210679;0.0034184344;-0.038537964;0.014500224;-0.05691048;0.06895814;0.046180103;0.1922884;0.00091272325;0.152558;0.048891794;-0.36774364;-0.02948505;0.019865531;-0.4136177;0.23757464;-0.08945243;-0.37700346;-0.2589436;0.061613895;0.009450432;0.041486442;-0.049108714;-0.3959878;-0.05474786;0.0059916005;0.24376114;-0.16836987;-0.006039704;0.15451752;0.020859413;-0.04137166;-0.037686467;-0.344578;0.32711473;0.10648057;-0.23693092;-0.016892837;0.09145002;-0.3356931;-0.108180426;-0.049545933;-0.11268188;-0.042268496;0.025554772;-0.014957935;-0.10726581;0.094541274;-0.0025471307;-0.0017687412;0.070233844;0.10426524;0.24777979;-0.029509462;0.09016391;-0.018753778;-0.028853958;0.18398923;0.011219365;-0.053601816;-0.048526652;0.05220566;0.05038802;0.3724762;-0.09078876;-0.03775537;0.009658962;-0.067883335;0.06650801;-0.03952547;-0.011564367;0.042919632;0.36684307;0.08561597;0.07231124;0.1016637;-0.1301754;-0.07697316;-0.09945278;0.21095021;-0.1378498;0.027853806;-0.029692916;-0.08314498;-0.13064887;0.28394347;0.2582087;0.07053682;0.1032638;-0.09733511;0.16063808;-0.02143301;0.0019048604;0.006431107;-0.12474409;0.45031887;0.114183694;0.11510608;0.022831816;-0.018383654;-0.020014264;0.020430624;-0.03436372;-0.0010118578;-0.12265771;0.006010168;0.08964711;0.10634358;-0.29040882;0.07170076;0.050344557;-0.06947705;-0.033774953;0.029368393;-0.42742348;-0.41601574;0.12933406;0.19256866;0.077697836;0.02304273;0.52325743;0.024553545;0.023797015;0.200319;-0.19502929;0.3308634;-0.07142156;0.017793154;-0.046283517;0.5128527;0.42453995;0.35045114;-0.044999428;-0.070641294;0.107149586;-0.10845936;-0.05068746;0.14239554;0.16005218;0.061361022;-0.040352486;-0.042769395;0.010058443;-0.06894756;0.33655226;-0.051945824;0.1550085;0.12109084;-0.21448803;-0.30905163;-0.04614289;-0.086058;-0.14672993;-0.021415768;-0.06988686;-0.055932317;0.23208739;0.12345016;0.059658796;-0.14427288;-0.04162661;0.16578916;-0.035008058;-0.08650725;-0.062436588;-0.19813046;0.10151235;0.50126517;0.08825339;0.11379482;0.12514627;-0.058754165;-0.30097994;-0.47198832;-0.05107877;0.2187776;0.038998682;-0.2189844;0.0025127663;0.030433727;0.13398865;0.37571973;0.13392147;0.20341504;0.06645341;0.011547454;-0.0053639244;-0.085263684;0.03593783;0.0943765;0.040271405;0.14949943;0.13614164;-0.031603537;0.41967633;0.11699157;-0.046128795;-0.035747282;0.049952023;0.36333427;0.1808975;-0.03593152;0.30330658;-0.25210816;-0.20696484;-0.11170827;0.17069134;-0.033249043;0.03464253;0.0695739;0.08133963;-0.39323455;-0.03554356;0.022455731;-0.22210093;0.06843777;0.27509812;-0.010725007;-0.07332221;0.30030248;0.17400385;0.05247921;0.121186115;-0.020692397;-0.004489168;0.23244208;0.079610735;-0.21146853;-0.041503545;0.0210118;-0.061190646;0.09535689;-0.07988384;-0.2454057;0.014442476;0.060430024;-0.015724976;0.021876663;0.08748783;0.13334395;0.14248224;0.087467454;-0.38944304;0.491673;0.116282776;0.27825746;0.21843384;0.16793758;-0.009863446;-0.14574167;-0.033791825
0.006267339;0.0023626105;-0.059327073;0.25248942;-0.002052348;0.30290172;0.07071922;-0.004126847;0.07483024;0.43289697;0.52831876;0.11526242;-0.08502604;-0.12345084;-0.049523015;-0.15525569;0.051555928;-0.008618367;-0.18679762;-0.26371747;0.33352822;-0.08508055;-0.008620646;-0.16482794;0.0061560427;0.11272726;0.06487428;-0.081960134;-0.15426277;0.21174945;-0.13203704;0.10539465;0.057249073;-0.09333363;0.11318787;-0.038256254;-0.39177418;0.24991761;0.21678755;-0.29510358;-0.03236877;-0.3900466;-0.026592242;-0.024933225;0.061844856;0.37896374;0.1465957;-0.23744024;-0.27290404;0.20864287;-0.01434349;0.5152971;-0.20131285;0.06808108;0.0136127;-0.41343164;0.02894314;0.16114314;0.46666446;-0.046036173;-0.15269183;0.073666744;0.06347581;-0.033345252;-0.03715779;0.001972241;0.16517003;-0.042696543;0.007326952;0.37786263;-0.026125113;0.020948542;-0.065786034;0.10239716;0.20193863;-0.019977817;0.24408402;-0.033061355;0.24774411;0.07661983;0.09019999;-0.05883332;0.06416668;-0.0011871555;-0.072248876;-0.0336133;0.013036135;-0.18689252;0.23184964;-0.017214673;0.5852201;0.06274029;-0.06540237;0.050551534;-0.043975096;0.041800916;0.18826377;0.22393598;0.007564245;0.055789154;-0.02158268;0.027975004;-0.33995312;-0.08554591;0.18684568;0.16405085;0.0032743283;0.030074794;0.10314061;-0.3398793;-0.061101012;0.030715639;0.010857254;-0.016792046;-0.19598554;-0.084967814;-0.005350723;0.120078504;0.16293892;0.16499354;-0.04822808;0.019310983;-0.2138694;0.24130386;0.27918488;0.08810755;0.16951756;-0.04967832;0.18787612;-0.33536193;-0.021483777;-0.34713903;0.0020196321;-0.033531718;0.09400258;-0.11847814;-0.009787279;0.03175301;0.30899847;0.24569209;-0.24569641;-0.2945259;0.005777152;0.04266868;0.006619153;-0.021609155;0.042575832;0.14527225;0.1774919;-0.111360535;0.0309826;0.0070762;0.17766277;-0.04727485;0.06504034;0.02160724;0.25790742;-0.10643884;0.1145924;-0.013593458;-0.21261178;0.31597286;-0.0046910318;-0.04640613;-0.016837515;0.50775117;0.27817068;-0.100383975;0.14406297;-0.054113355;-0.04913994;0.03941626;-0.06079483;0.028321931;-0.36575705;0.050226893;0.15419881;-0.043699227;-0.0711006;-0.04404742;-0.039553653;-0.04718104;0.0936332;-0.016388312;0.018243898;0.3800193;-0.040684033;0.025909493;-0.12294799;-0.3276343;-0.17306913;-0.0023005148;0.13089956;-0.006653792;-0.121500365;0.04119384;0.11329908;0.14445247;-0.07192389;0.17438842;0.038603697;0.07003805;-0.15295929;0.14176539;0.1960448;-0.056434866;-0.16218184;-0.14489505;0.017242681;-0.008703698;0.2832713;-0.3325071;0.13039944;-0.0156001365;-0.059604157;0.026182374;0.0057256855;-0.012684492;0.03249498;0.09427739;0.15830639;0.35887903;0.2417937;0.05947185;0.17654164;-0.078386806;0.016230268;0.12402985;-0.06926394;-0.051781397;0.094446726;-0.069408275;-0.08019075;-0.24324852;0.26533982;0.18206953;-0.078146145;-0.09499803;-0.07599706;0.27077958;0.054748677;0.21359181;0.34326613;0.14734527;0.13977435;-0.27554813;-0.019407878;-0.07150768;-0.16742823;0.06314922;0.093891785;-0.10772147;0.051967047;0.24883047;-0.3645814;0.057641633;0.011105356;0.26781264;-0.19501883;0.09716706;-0.0059355334;-0.027881434;-0.012957568;0.010548135;-0.069593914;-0.1122767;0.60241985;0.2951675;0.051550437;0.06831018;0.05899307;-0.04317109;-0.103923164;0.23399581;0.29885504;-0.02158912;0.13046311;-0.042657804;-0.2020064;0.12447796;-0.098632514;-0.03535933;0.05996681;0.146349;0.0615282;-0.16831103;0.053202517;0.31993076;-0.028608078;0.38103312;-0.059681524;-0.012041178;0.05082064;-0.04790582;0.06551422;-0.009511227;-0.24386647;0.011366761;-0.16764951;-0.053286877;-0.052141093;0.080494486;0.03574526;-0.044341646;-0.018866925;-0.056257516;0.04859128;0.3043321;0.038870245;-0.030775407;0.26294708;0.12119182;0.064454034;0.15849149;-0.0073460983;0.09972401;0.06256262;0.33229637;0.15747038;-0.03475638;0.3449826;-0.014137542;0.012791883;-0.1790587;0.14090864;0.0896173;0.14795233;0.023897737;-0.06756401;-0.0357751;-0.037101712;-0.07411066;0.120691344;0.04578386;0.14009239;-0.022321215;-0.36129236;0.022429964;0.007208244;-0.42379725;0.23164573;-0.10343876;-0.1744286;-0.19981532;0.10463056;0.0597576;0.03047572;0.0046749515;-0.27702737;-0.19313562;0.07513472;0.23686796;-0.033872634;0.046659235;0.16794425;0.07886053;-0.03563908;0.021206232;-0.3620856;0.35876137;-0.043865237;-0.24105883;-0.06474235;0.083720796;-0.24453369;-0.0014967547;-0.0045961044;-0.1636907;0.061075382;-0.012478165;0.0077735875;-0.1587939;0.13672557;0.05404844;-0.010712603;0.01737074;0.005378453;0.18398902;0.015475972;0.08010551;0.0753374;0.026327508;0.2614203;0.08856559;-0.13749088;-0.036132812;0.064291224;-0.050025612;0.28800455;-0.09653802;0.0074244956;0.025965355;0.04550388;-0.05037488;0.047162548;-0.09392719;-0.0028561733;0.27951455;0.031727348;-0.0041639246;0.10630954;-0.13663682;-0.14871636;-0.041957818;0.2636459;-0.12296867;-0.015656976;-0.0042045424;0.008541939;-0.23584124;0.1347093;0.14631213;0.1509792;0.025711548;-0.0818918;0.24246481;-0.034865472;-0.10293907;0.059022028;-0.043257214;0.43332267;0.123787306;0.20860268;0.11617825;-0.020347333;0.057155017;0.073455185;-0.008872835;-0.06703964;-0.075455435;-0.043830246;-0.05579831;0.06532472;-0.37616447;-0.04650333;0.055398356;-0.05444005;0.034328952;-0.0357644;-0.40608928;-0.45218807;0.22201888;0.16661005;0.1062918;-0.043693207;0.5033854;-0.10589869;0.027962599;0.24022624;-0.05127074;0.26987225;0.106605284;0.17188849;0.042925317;0.3515149;0.32508427;0.3950893;-0.23421532;0.019453945;-0.041509494;-0.09569419;0.08116147;0.009297841;0.046279557;-0.042870242;-0.0118530085;0.006297187;-0.03868778;0.046702616;0.30561233;0.0010320782;0.06459222;0.06369892;-0.13227205;-0.32055563;-0.0017360199;-0.13235351;-0.026359841;0.037543654;0.030537281;0.09201088;0.3770865;0.23921268;0.105194576;-0.16138744;-0.0007741003;0.19489041;0.06509787;-0.1917036;-0.0697501;-0.1002388;0.15097816;0.51241994;0.035991818;0.27411655;0.19809908;-0.14273903;-0.3371216;-0.46861264;-0.06280653;0.2872954;-0.008075527;-0.261914;0.07595478;-0.05282715;0.094947726;0.24988914;0.2314654;0.1285379;0.0367966;0.041501727;0.03709451;-0.1166577;0.1453045;0.14128496;-0.036035452;0.13410625;0.24898827;0.06971647;0.393304;0.025240293;0.014623602;-0.004198897;-0.010353089;0.42007935;0.08565001;-0.00669536;0.33548105;-0.17967933;-0.19622861;-0.076570004;0.19517733;-0.0013537495;-0.050762866;-0.04702556;0.20867077;-0.33319852;-0.016872445;-0.015241088;-0.19599384;0.013900222;0.31197745;0.037357002;-0.055586167;0.24473768;0.15001938;0.013783985;0.043254755;-0.010702922;-0.0038129515;0.28211215;-0.004623493;-0.18822014;-0.028399033;0.09311998;-0.17742455;0.23725384;-0.0813021;-0.2925597;-0.04399002;0.0067703845;0.05404839;0.09401607;0.15618488;0.20839758;0.09883927;0.09901657;-0.2780862;0.47408488;0.03027071;0.39587563;0.14129017;0.33931103;0.12288715;-0.104146816;-0.07867782
-0.025763277;0.031905998;0.019901436;0.17545852;-0.059253853;0.40112647;0.008217147;-0.040221978;-0.05481353;0.35934967;0.3954456;0.19772051;-0.0011938483;-0.056878153;-0.019718349;-0.12269416;-0.029845791;0.0651264;-0.041843254;-0.03713845;0.23062472;0.004322862;0.025002057;-0.15577197;0.11840324;0.11275004;-0.009954385;0.02311351;-0.15298147;0.06052173;-0.18016368;0.11643189;0.017234335;-0.100153334;0.1133994;-0.0061983787;-0.39778608;0.12435484;0.3347528;-0.30936205;-0.0070601744;-0.39109883;0.014558983;0.120864876;-0.054138094;0.29729968;0.14601228;-0.22948265;-0.32983613;0.26911813;0.006822762;0.52874887;-0.32816648;-0.010572412;-0.03560726;-0.47024897;-0.09420582;0.1982367;0.4679141;0.04009991;-0.051976748;0.1073895;-0.04327488;0.052017387;0.05976381;-0.030338842;0.16487707;0.021125281;-0.004126337;0.35806653;0.007884664;-0.12657735;-0.027673954;0.096555375;0.32128635;0.08087697;0.17868505;0.048438787;0.09762345;-0.022030054;0.07271468;-0.00878008;0.12205431;0.04589582;-0.101317465;-0.13754193;0.10947157;-0.14598365;0.20954382;0.032642975;0.48629895;-0.010195359;-0.09503683;-0.012221203;0.06161031;0.030697817;0.087724045;0.23916176;0.031736232;0.013657588;-0.04187088;-0.01627528;-0.4212411;0.028639434;0.20847674;0.23102582;0.05482172;-0.0010862654;0.10979613;-0.41550672;0.028909545;0.048861645;-0.037186537;0.03933568;-0.092320144;-0.046748046;-0.11186318;0.14380796;0.2961227;0.12164941;0.08611596;0.028756084;-0.3047195;0.2660619;0.20215231;0.09070074;0.1740412;-0.123294726;0.0303755;-0.23757733;-0.02154564;-0.3315548;-0.021055533;0.06510484;0.022755753;-0.1439234;0.04803207;-0.083978534;0.16610888;0.20443623;-0.1274621;-0.32745147;-0.004310576;-0.039195288;0.12682551;0.06517226;-0.045504436;0.14859203;0.28809807;-0.16050342;-0.014904803;-0.046817362;0.2614594;0.0057866555;0.15373053;-0.034741838;0.17401765;-0.0635194;0.072261035;0.0048245997;-0.16262455;0.2907117;0.052015428;-0.0033586456;-0.03801245;0.44184875;0.16573472;-0.08948012;0.2429481;-0.02953759;0.01400115;0.14676327;0.07912294;-0.009284041;-0.3297184;-0.020520678;0.20174363;0.104527794;0.030964443;-0.012605757;0.080148764;0.027145373;0.05745333;0.030437745;0.08845684;0.3607662;-0.025105543;-0.009625251;-0.028484842;-0.20605698;-0.15806317;0.13216075;0.11536064;0.08704235;-0.01682664;0.029849986;0.12621503;0.14377621;0.021145714;-0.027342487;0.016643703;-0.06037561;-0.10388498;0.22039418;0.04011543;-0.07122584;-0.19442919;-0.092912346;-0.0076325526;-0.0057153227;0.34077096;-0.33119327;0.030777248;0.028327418;-0.024814961;0.13065812;0.047577757;0.09464949;0.027391316;0.14055406;0.25618398;0.2788387;0.19678299;0.069248125;0.18301862;0.001065824;0.0046510906;0.09910681;0.038081814;-0.004532996;0.10058142;-0.10032543;0.036777083;-0.28363588;0.124953814;0.13375525;0.09105301;-0.06763259;0.055049423;0.38942426;0.033695765;0.1734812;0.3925208;0.15568258;0.1374437;-0.33320656;-0.049838774;-0.008583765;-0.17727941;0.035627387;0.065173574;-0.21651751;0.008490624;0.29214722;-0.50466263;0.028665122;-0.027678281;0.20592219;-0.22641912;0.045789525;0.031024478;0.07074279;0.03959231;0.06496408;0.062566735;-0.105168365;0.4473291;0.13126919;0.010807358;0.16820957;0.027965726;-0.045476723;-0.0033337611;0.3585228;0.2889007;-0.06402488;0.10969668;-0.004279512;-0.2548681;0.2451332;-0.1266338;-0.09015358;0.037592657;0.32815072;0.0016229356;-0.04661661;-0.0033677188;0.2806455;-0.07348708;0.32401332;0.073001474;0.0017108927;-0.056725625;-0.04418392;0.037238777;0.008158565;-0.08057427;-0.0057001174;-0.092944205;0.087177716;0.05141697;0.0408892;0.19612582;0.007535652;-0.036427386;-0.12899806;-0.0027545847;0.32081196;0.0843886;0.028487582;0.28334072;0.0159418;0.037496027;0.19265904;-0.045768797;0.079141;0.04164031;0.22906637;0.18200159;-0.009482732;0.29320198;-0.026673784;-0.011574188;-0.16388264;0.13717143;-0.04068644;0.10596109;-0.030145075;-0.12613557;0.019341305;0.04081597;0.037366476;0.036024168;-0.06670117;0.31317544;-0.007879596;-0.3674919;-0.012202367;-0.063444875;-0.45299524;0.3006047;-0.05582965;-0.20408751;-0.3222074;0.24101302;0.011366109;-0.036173478;-0.0892934;-0.33048576;-0.15945643;0.035297036;0.23409815;-0.012441599;-0.041816264;0.25434065;0.07733955;-0.15881106;0.03207453;-0.3178853;0.40490022;-0.06311292;-0.18660359;0.08180778;-0.055195585;-0.2397979;-0.0013004419;0.06398146;-0.23612842;0.010447717;-0.0895714;0.13678944;-0.11762581;0.05225107;0.048393283;0.048323903;0.14607242;-0.061269633;0.18245527;-0.056603525;-0.084651284;0.20598109;0.02571111;0.066976555;0.0016426473;-0.18344873;0.07944175;0.046750166;-0.075658165;0.39918035;-0.07980679;0.029320134;0.031045975;0.22743441;-0.039387796;-0.012216826;0.06290896;-0.0004318279;0.3068024;-0.074988484;-0.03700764;0.06135933;0.055614106;-0.18646003;-0.112329744;0.1477629;-0.09231329;-0.060343172;-0.06461084;-0.044779748;-0.37146297;0.15610047;0.14930405;-0.021297334;0.10457712;-0.057355106;0.14550658;-0.003165816;-0.19221607;-0.07983751;-0.16701637;0.5076337;0.097464435;0.14160365;0.022486534;-0.042186145;-0.056505326;0.1620258;0.091315515;0.008477737;0.008365144;-0.051153425;-0.033612486;0.07782822;-0.24709998;-0.016622335;0.027437845;0.0235048;0.036654502;-0.021770779;-0.30365506;-0.42004505;0.14344424;0.16747937;0.22280958;0.018820314;0.5457983;0.04395993;-0.073509336;0.23104711;-0.19884409;0.44042867;0.17465442;0.15605482;0.07478769;0.41168532;0.2766309;0.38166824;-0.14975671;0.0841521;-0.031612948;-0.13607216;0.09962768;0.13899063;0.04945547;-0.013256074;0.0602096;0.079460315;-0.002433103;0.011325261;0.21701798;-0.12952651;-0.034080658;0.151836;-0.09748639;-0.23611663;0.0047070817;-0.25483984;-0.07841915;0.0009799217;0.021707373;-0.026902413;0.27472958;0.21618652;0.09089455;-0.09319542;0.028584521;0.23601367;-0.0358701;-0.06714346;-0.09357476;-0.20154087;0.20212983;0.36988953;0.15696754;0.29252946;0.27968022;-0.18539676;-0.36845645;-0.36166936;-0.021169068;0.21340956;-0.048676018;-0.2707516;-0.092410624;-0.04827669;0.21765839;0.21700159;0.19838579;0.17284878;0.14576843;-0.0039642337;0.095488876;0.0057626553;0.18240795;0.1594069;0.014971859;0.1630971;0.27589947;-0.05508943;0.25695023;0.07743572;0.07330941;0.03188531;0.02891934;0.31487122;0.034596663;-0.055996757;0.2836875;-0.22328524;-0.24339263;-0.12849976;0.16968417;-0.0436327;0.036593053;0.0030135026;0.07808372;-0.40629894;-0.03625215;0.03081409;-0.22912338;0.044070933;0.24383165;-0.034009058;-0.09500262;0.31490397;0.20236476;0.042497404;0.14960808;0.0037994292;-0.038763635;0.39440748;-0.051414486;-0.10554054;-0.0021283175;0.058391545;-0.09443519;0.18247065;0.023223339;-0.25170368;0.024061225;-0.06511941;0.034932297;0.0608632;0.21460286;0.16459602;0.11782422;0.041461952;-0.32808766;0.4426466;0.01108639;0.27322692;0.21069449;0.20264408;0.119697265;-0.031624287;0.06414074
-0.015700798;-0.016738692;-0.04571429;0.29117078;0.068067506;0.3688196;-0.052754182;0.05718381;-0.02663114;0.26968902;0.48488417;0.11482315;-0.1507968;-0.21909297;0.007326237;-0.06507432;-0.016491082;0.067910284;-0.01138016;0.0027479127;0.2290246;-0.05851152;-0.056187853;-0.2384634;0.066482574;0.1636116;-0.025836337;-0.10434106;-0.2644051;0.09327316;-0.20461164;0.12269887;0.038200963;-0.0036135192;-0.03749094;0.06362017;-0.34111315;0.15451239;0.28254062;-0.29384786;0.00580138;-0.2924236;-0.044789534;0.029557973;-0.05673983;0.27977455;0.08419211;-0.10177659;-0.17270094;0.35545683;-0.030123925;0.42153317;-0.19480558;0.06665576;-0.06504364;-0.48883072;0.009483293;0.2344343;0.48305935;-0.046360057;-0.08273492;-0.054424208;-0.013417408;0.08536766;-0.033468366;0.020175707;0.24985813;0.022293475;-0.034504086;0.37120378;-0.018417304;-0.15586312;0.08803877;-0.07066115;0.25856006;-0.047175284;0.06654544;-0.0155686075;0.014957461;-0.017764755;0.035220858;0.05745812;0.07952355;0.03621324;-0.122028865;-0.07648269;0.0666176;-0.22782184;0.21163784;0.020470278;0.568587;0.0059708892;0.008737419;0.018868234;0.06775912;-0.005642789;0.17431927;0.16083077;0.009974521;-0.0743321;-0.033473812;0.10156308;-0.49163756;0.028719401;0.30996025;0.15732586;0.030940654;0.0050324895;0.17401092;-0.42255327;-0.010381292;-0.080055095;0.016068475;0.07284906;-0.20678942;0.044274133;0.011312405;0.20120394;0.2915096;0.049433354;-0.010247789;0.028284641;-0.21312973;0.20328502;0.21490872;0.03388827;0.17384133;-0.23474772;0.114944555;-0.13546227;0.14699917;-0.26386538;0.07395427;0.042616468;0.0073131854;-0.18512817;0.07421003;0.046815567;0.15132967;0.21199273;-0.11491733;-0.35030282;0.14056066;0.03582688;0.20421548;0.057675686;0.042780224;0.088408306;0.32262495;-0.18636498;0.042117942;0.027050612;0.11053226;-0.07120443;0.14160047;0.005286852;0.15576138;-0.024466688;0.040846452;-0.061893094;-0.027256124;0.373693;0.030020302;-0.18545352;0.046175696;0.4364709;0.2575534;-0.18153182;0.13863826;0.054799087;-0.016631948;0.06480868;-0.06356118;0.014894891;-0.24802448;0.041223437;0.19513588;0.08023156;-0.043028396;0.06664974;-0.036967907;0.025544066;0.07889786;0.030486343;-0.041033085;0.28851202;0.0022518432;0.0009138748;-0.02276816;-0.20569167;-0.123956025;0.10214028;0.20468302;-0.054254856;-0.12607376;0.18151021;0.1268726;0.14680228;0.030248707;-0.016344922;-0.048536725;0.07670973;-0.07587106;0.22295098;0.075239934;-0.08526424;-0.10536791;-0.10252078;-0.04202305;0.01586975;0.34321666;-0.31876782;0.07086032;0.044875048;-0.043187536;0.07760252;-0.04548275;-0.050246682;0.032942586;0.11978207;0.19070587;0.2098395;0.29218137;0.14443576;0.26680422;0.050102014;-0.0048653684;0.1343476;-0.01999681;-0.03858341;0.1616678;-0.088295;-0.0071400674;-0.20622994;0.15617283;0.252721;0.13713458;-0.06293296;0.056323137;0.36664104;0.00029067666;0.17269927;0.45269954;0.2287781;0.10775977;-0.18252228;-0.122142404;-0.05112309;-0.06725584;-0.024320733;0.052782893;-0.1800901;-0.07243725;0.27003518;-0.46654445;-0.030325186;0.037010867;0.16472967;-0.24926466;-8.5373e-05;-0.03195521;0.0019136049;-0.0018577984;0.01252974;-0.037367266;-0.16549046;0.352879;0.25470188;0.18390821;0.15377311;0.04910159;-0.22148645;0.0037622077;0.36296067;0.3964833;-0.21157452;0.03453851;0.06541713;-0.21799396;0.27455807;-0.0059290146;-0.043315884;0.168116;0.30359623;-0.09308514;-0.0084028235;0.03973863;0.25541753;-0.13504532;0.2859312;-0.03104104;-0.03919681;-0.04664014;-0.0033510854;-0.0036547133;-0.030364348;-0.1583292;-0.056369524;-0.06811201;0.049766462;-0.048660193;0.08154681;0.1799442;-0.006660492;-0.13684402;-0.08581298;-0.061734967;0.24018754;-0.0033352515;0.010178094;0.27391016;-0.030014202;0.013074598;0.13874792;-0.026246509;0.19841129;-0.07884792;0.13619432;0.14931485;-0.026074128;0.3773075;0.0008936622;0.050823953;-0.08111964;0.03444694;-0.02115276;0.15645774;-0.028993936;-0.09155477;0.07013265;0.013003656;-0.045604575;-0.0034077324;-0.051631846;0.24526618;-0.036323342;-0.30168045;-0.054304887;-0.037523013;-0.3915349;0.286849;0.12557961;-0.2688205;-0.2796221;0.19795606;-0.05932233;-0.0071129906;-0.19267568;-0.13699661;-0.17290837;-0.005979834;0.056078907;-0.023873355;0.040715523;0.26118755;0.18124045;-0.12208951;0.003051085;-0.31412944;0.32805073;0.033255927;-0.09920795;-0.04542078;-0.019909931;-0.27409187;-0.000116081836;-0.007884162;-0.11472631;-0.025230924;-0.1096607;0.13202593;-0.06814197;0.1267141;-0.03287922;0.00071811175;0.07436235;-0.1333283;0.18329014;0.019968586;-0.15714131;0.23362717;-0.06795868;0.08502849;0.107135385;-0.18507323;-0.051218987;0.057129458;0.01753823;0.323002;-0.13120551;0.052025866;0.04375552;0.103809364;0.06011107;-0.023452956;0.009307151;0.08633696;0.3308001;-0.029120727;0.005305503;0.18961512;0.08515704;-0.19246176;-0.09223231;0.2334359;-0.021855691;-0.07472569;-0.05860034;0.040972337;-0.33802158;0.16538697;0.2520796;0.026920224;0.021326834;-0.040058486;0.092155054;-0.008832115;-0.24276507;0.047491085;-0.11030345;0.5220006;0.16466717;0.1503159;0.1265861;0.061873473;-0.056764055;0.20738038;-0.056123476;0.052711096;0.024102582;-0.051479023;0.06752587;0.09667388;-0.17162412;0.071225844;-0.19109868;-0.03301899;0.04133193;0.028156884;-0.29978707;-0.33507445;0.18666679;0.15459022;0.22072618;0.07445925;0.52563375;0.0037368066;-0.013476387;0.16319172;-0.16650245;0.42879096;0.110039935;0.15991431;0.064537905;0.29307035;0.22418697;0.34065437;-0.0828064;0.062538065;-0.038534973;0.016531775;0.19955322;0.030487275;0.0035825947;0.032487404;-0.050369676;-0.043065675;0.017927941;0.049471416;0.1775527;-0.0766384;-0.104639895;0.21421012;0.020988153;-0.13579723;0.024178622;-0.20418343;-0.058639757;0.051837925;-0.0810307;-0.017680934;0.23986141;0.20458092;0.030516895;-0.18392698;0.044411227;0.22539854;-0.04377975;-0.1017471;-0.030388424;-0.2580144;0.015181345;0.33443958;0.065710306;0.30564213;0.35521668;-0.06973609;-0.337894;-0.2672958;-0.14439605;0.14748418;-0.010276996;-0.15384379;0.007699858;0.07931619;0.21796165;0.03643096;0.21198614;0.16648051;0.023835083;0.042130042;-0.116683364;-0.027276957;0.24173714;0.12165777;0.026451055;0.0897425;0.3097196;-0.038641166;0.32764378;0.21267684;0.038694497;-0.034709524;-0.06439313;0.41262445;0.068029724;-0.11712648;0.2097012;-0.252991;-0.33227292;-0.17501037;0.1949962;-0.005392534;-0.015996993;-0.024794122;0.13220255;-0.28586972;0.058636066;0.0301883;-0.25389814;0.002241381;0.108813696;0.011530034;0.029646158;0.2851593;0.20364508;-0.058319107;0.07735374;0.023585489;0.011554599;0.23039317;-0.04243562;-0.13986729;-0.010241917;-0.11219134;-0.12922436;0.20075113;0.051019683;-0.15420917;0.04254993;-0.0141578335;-0.046657283;-0.039992396;0.25988334;0.16753207;0.07855137;0.13137211;-0.27693048;0.45041072;0.055884592;0.26880726;0.18850534;0.21489881;-0.021512413;-0.012331292;-0.015891103
-0.049124725;-0.025544224;0.059448835;0.23616742;-0.05413114;0.35128123;-0.09683336;-0.016975356;-0.07459239;0.24909596;0.3419108;0.13206926;-0.08614759;-0.1472508;-0.02052892;-0.10786043;0.05335473;-0.016914606;-0.05109691;-0.117505275;0.33582333;0.07535794;-0.02919171;-0.12909351;0.115398474;0.04899156;-0.05322745;-0.058140997;-0.10522958;0.11486108;-0.27724347;0.19565333;-0.017083718;-0.06454631;0.08557803;-0.028238123;-0.43402722;0.121600375;0.1988473;-0.31905898;0.07909476;-0.3001819;0.031872787;-0.008175034;0.01680679;0.3097433;-0.054596808;0.06614832;-0.3806123;0.41571605;0.022256354;0.47155154;-0.2933265;0.05429089;0.005595851;-0.54660404;0.01477927;0.08939314;0.5083188;-0.040275525;0.027793147;-0.03869471;0.011380706;0.041992836;0.09725516;0.019852024;0.3079924;0.059875894;0.07307113;0.33534133;-0.0057633496;-0.050905466;0.017242141;0.05972167;0.37834704;-0.0045379736;0.10966511;0.05974282;-0.073998086;-0.01326374;0.049145177;0.005438716;0.13077272;-0.08796791;-0.14459862;-0.10053111;0.11090321;-0.1604087;0.25095582;0.05021787;0.48691982;0.030069847;-0.017375495;0.040173933;-0.03139333;-0.08098341;0.06764177;0.15991619;-0.017663358;-0.07441985;0.08189049;-0.002041108;-0.48222488;-0.034087077;0.26953602;0.2725982;-0.0032878532;-0.022799322;0.09073026;-0.46468174;-0.037460256;-0.12062826;-0.002686231;-0.038365148;-0.20562464;0.0014236122;0.02097903;0.08833715;0.22011602;0.047380295;0.06533616;0.061128344;-0.14066525;0.11834692;0.21411446;0.07810849;0.21862571;-0.27446368;0.1231647;-0.17930232;0.11022417;-0.25725716;0.023878556;-0.02733736;-0.008311619;-0.15922941;0.10054395;0.02214465;0.0012447983;0.23418067;-0.089646585;-0.3434643;0.037269313;-0.034584552;0.13300546;0.04432804;0.0047486927;0.019254576;0.312958;-0.22290765;0.020940034;0.04477388;0.12608194;-0.08093453;-0.007903969;0.0010074264;0.21214019;0.14775096;0.1674487;-0.039452843;0.032228988;0.3052681;-0.07024545;-0.061746687;-0.0072203786;0.42236307;0.21545547;-0.14325376;0.22148319;0.04917177;0.060804393;0.08730735;0.015930265;0.025703162;-0.24869083;0.026781004;0.20315918;-0.07033818;-0.011731711;-0.011896272;0.024312895;0.031200122;0.14520821;0.018133426;-0.015575709;0.325456;0.038400065;0.027102694;-0.11644278;-0.14512995;-0.016685797;0.12434358;0.15381838;0.06829161;-0.12451776;0.13538536;0.11310827;0.026316;0.028294338;-0.068084486;0.049522478;-0.073894985;-0.1417068;0.17464434;0.01020372;0.06306849;-0.08144384;-0.007820888;-0.029077629;0.11265034;0.34139317;-0.34367326;0.12665991;0.05491361;-0.07791714;0.076765545;0.041699473;-0.0009951865;0.059739754;0.1887154;0.14922075;0.27573127;0.26229388;0.10604738;0.30409345;-0.0012345745;0.033145946;0.03411015;0.056606535;0.009383186;-0.03714699;-0.024889972;0.013499887;-0.30869862;0.23844953;0.26633722;0.023467755;0.019255996;-0.06550428;0.246413;0.033750713;0.0657394;0.3892112;0.28945282;0.0019681973;-0.24511752;-0.113289766;-0.06828761;-0.054186087;-0.042276215;0.077937804;-0.1885304;0.025608351;0.19920538;-0.5603504;0.07635672;0.037968572;0.022275966;-0.18207347;0.0126999635;0.034972437;0.054787587;-0.018762808;0.05241974;0.009469822;0.036978032;0.40168884;0.22648819;0.029548358;0.17261104;0.020949258;-0.09378553;-0.0029372214;0.3604213;0.35689652;-0.10665273;0.056415074;-0.045063943;-0.31365067;0.3280166;-0.026634187;-0.18175092;0.18403783;0.16601732;-0.040823612;0.09535396;-0.0336984;0.28604728;-0.020393247;0.31513625;-0.074248366;0.0021714065;0.038383253;-0.02048754;-0.05947327;-0.019182667;-0.09216042;-0.04515312;-0.028717011;-0.023678359;-0.028779395;0.11178444;0.1767617;0.0362571;-0.09613337;-0.021260086;0.0065352824;0.18080947;0.045394566;0.07759484;0.2331238;-0.0026305027;-0.0037061335;-0.004456919;0.03748596;0.1993766;-0.050881144;0.14059539;0.11575469;0.057091463;0.32261395;0.030791372;-0.067279376;-0.049084187;0.07716572;-0.012876998;0.17411724;-0.029873434;0.032522947;0.062607326;0.034751948;0.0057106796;-0.020674381;0.08642732;0.11405957;0.051320527;-0.3320439;0.05638098;0.051603995;-0.5502211;0.16670772;0.17438024;-0.21938542;-0.11741263;0.22196265;-0.023924112;0.0042145713;-0.21173547;-0.07377338;-0.26572752;-0.1068168;0.08520379;0.12568837;0.082398616;0.33057725;0.11050581;-0.24287517;0.03837238;-0.11267715;0.3833549;0.0072298134;-0.15527858;-0.022280825;0.085088566;-0.39332485;-0.045954835;-0.007661739;-0.11264829;0.07128948;-0.18824084;0.094967;-0.107696176;0.022214526;-0.022021813;0.025401711;0.013895637;-0.20443043;0.1930869;-0.011718344;-0.1860276;0.1582936;-0.024922376;0.010357977;0.14132978;-0.26613754;-0.019215232;0.05873257;-0.029427603;0.2653187;-0.04862996;-0.043280445;-0.040103354;0.22993475;-0.03549998;-0.028486852;0.053666465;0.028621217;0.3684958;-0.0036071108;-0.031769384;0.1549943;0.06674748;-0.18765391;-0.03969315;0.12805644;-0.11637578;-0.11167689;0.08342445;-0.02797995;-0.30159855;0.05601438;0.15402345;0.05181967;0.06628325;0.06069663;0.10330579;0.04628542;-0.15685132;0.02909169;-0.19426192;0.4773374;0.09310611;0.122977555;0.015185133;-0.045748092;0.039141715;0.22528864;0.038111508;0.031320665;0.15549915;-0.06722865;-0.039031625;0.13738601;-0.22158238;-0.038015243;-0.2070573;0.08046202;0.02163088;0.047246136;-0.2616687;-0.28822395;0.16686088;0.10042861;0.33700493;-0.067725636;0.46683368;-0.09794939;0.05223403;0.2357604;-0.21150652;0.4646356;0.16274829;0.10591647;0.14831498;0.35552815;0.031239392;0.27921167;-0.15894881;0.16791137;0.0907878;-0.030130006;0.15565355;-0.006442615;0.0393716;-0.052961424;-0.003561522;-0.0341358;0.0013471121;0.029005146;0.16610849;-0.14047639;-0.059694454;0.10044557;-0.06250236;-0.120588034;-0.014046719;-0.11513127;-0.07682101;-0.035428327;0.010208847;0.005084516;0.285307;0.18071233;0.003668084;-0.16520171;-0.07302296;0.29922408;-0.11088405;-0.059448544;0.046353843;-0.14319631;0.13193227;0.27245784;0.08307064;0.2517143;0.35375386;-0.18648031;-0.1715156;-0.22674686;-0.015329646;0.23631011;-0.055495933;-0.08279926;0.026673108;-0.00045534046;0.26540488;-0.019761382;0.13042295;0.101010226;0.002684082;-0.021377176;-0.087518424;0.10792595;0.21679465;0.18163;-0.03916458;0.11881242;0.275531;0.029015671;0.20135064;0.30076006;0.017028563;0.023414692;0.03290767;0.35301828;0.06011273;-0.16269284;0.26324946;-0.08925389;-0.38209417;-0.23278674;0.018653665;-0.025620334;-0.056653738;-0.0022457365;0.17087953;-0.34572795;0.01775284;-0.030365491;-0.35693735;-0.068487905;0.2165263;-0.011973054;-0.07296529;0.2479825;0.21108088;-0.011357055;0.106879875;0.058095824;-0.0076324088;0.3159242;-0.038587403;-0.088772565;-0.012299843;-0.025689378;-0.06525467;0.026821822;0.13695873;-0.07199792;0.05643344;0.021769729;-0.0313583;-0.06629406;0.17661586;0.14386933;0.017139701;0.056031574;-0.36101952;0.4092056;0.056085646;0.26569143;0.2920159;0.23220704;-0.046318464;-0.05894527;-0.025798237
