Weights from input to hidden layer.
-0.08704708;-0.14704624;0.04968353;0.07947749;-0.013418169;-0.14417759;0.10631622;-0.0036385704;-0.0705835;-0.36667773;0.048333254;-0.099335924;-0.01221962;-0.11639007;0.071127415;-0.06349049;0.012668213;-0.12389918;0.0069170236;0.045078337;-0.09865395;-0.20083395;-0.20853081;-0.030608345;0.12276346;0.012805711;-0.17453784;0.011247514;0.061047222;-0.01992959;-0.03176079;-0.036886934;-0.0042439885;0.029337537;-0.07485184;-0.009057914;-0.09077528;0.1944527;-0.27273223;-0.07555857;-0.21159206;-0.0591131;0.18123043;-0.10121653;0.012372931;-0.0051151183;-0.12174049;-0.16846104;-0.02391748;-0.17656454;-0.10042291;-0.054987643;0.015494104;0.0010305658;-0.16222565;-0.061259422;-0.05257967;-0.09019796;0.022369713;-0.12940277;0.036350448;-0.027263485;-0.03637647;-0.05899812;-0.14807232;0.036343772;0.049941335;-0.067820586;-0.179577;-0.14456269;0.22791249;-0.027080888;0.014254793;0.082190916;-0.09828605;0.2105364;-0.14301908;-0.054569088;0.12661263;0.021381928;0.038312215;0.02393457;0.06882483;-0.0689492;0.02388522;-0.15930185;-0.10448108;0.03429883;0.106258586;-0.09439859;0.015282953;-0.049800787;-0.024989313;-0.012315134;-0.06675165;0.010260385;0.028373195;-0.09167701;-0.04534511;-0.11616141;-0.14508754;-0.09219075;-0.15595739;-0.12127415;0.08060647;0.038813353;-0.108067155;-0.11343158;-0.011173304;-0.03621521;-0.034962576;0.21798283;0.11479047;-0.02613688;-0.12558739;-0.016741285;0.036009774;0.01196241;-0.10463312;-0.103408664;-0.049279086;0.12725319;-0.16984025;0.060350265;0.011972107;-0.15006699;0.011404184;0.035954677;-0.101783015;0.062919624;-0.06248743;-0.0073731495;0.068258174;0.042699438;-0.06080403;-0.038206786;-0.007629794;-0.2517608;-0.056902707;-0.12368225;-0.027686741;0.0754483;-0.15489866;-0.26172787;-0.13437732;-0.09444731;-0.086037174;-0.04935015;-0.040604953;-0.03610586;-0.12057002;-0.029750733;-0.055608142;-0.0038270506;0.04986099;-0.20142783;0.006767917;-0.19826072;0.07483165;0.008621876;0.10214328;-0.071302466;0.038115244;0.040483654;-0.037332006;-0.028581843;0.066810265;-0.10510658;0.21845761;0.14630526;-0.25334534;-0.1513834;-0.043292068;0.008381283;-0.06726047;-0.052528046;-0.08038091;0.078014046;0.0024090079;-0.045595918;0.010270199;-0.13965236;-0.016438462;0.13045742;-0.060313098;0.009484499;-0.22479323;-0.09777475;0.1155227;-0.05532857;-0.08305677;-0.0060697966;0.19692715;-0.009046717;0.13041201;-0.03263942;-0.009425532;-0.054875053;-0.08770544;0.022488272;-0.040980186;0.015799975;0.021802457;0.112863295;-0.22420709;-0.09386249;-0.024574636;-0.05674217;-0.1510618;0.043008506;0.0062011913;-0.13367105;0.050933063;0.1383568;-0.11799257;-0.13914582;-0.011857358;-0.1401615;0.054950893;-0.09587798;-0.026286775;-0.0827515;-0.042187206;-0.026105035;0.035379566;0.081856266;-0.076116204;-0.24983071;-0.08382488;-0.041878816;-0.12452882;0.01876729;-0.025447495;-0.023671532;-0.018295899;0.124367245;-0.015807958;-0.11535074;-0.054073438;0.09109759;-0.0703908;0.020571033;0.17259586;0.021050649;-0.08253235;-0.15582938;-0.11192003;-0.018772535;-0.012393886;-0.001651201;0.07006531;0.010369039;-0.032584485;0.02030109;0.10329894;-0.113989845;-0.056911338;-0.13083144;0.116101936;-0.25805753;-0.068705246;0.011953713;-0.06860288;-0.011528011;-0.13917823;0.057741944;-0.016613198;-0.13149811;-0.13094993;0.06960909;0.10334406;-0.15081206;0.0056391447;-0.1205085;-0.14029317;0.032965243;0.031981993;0.038669094;-0.08666951;-0.1651657;-0.16607928;-0.051537193;-0.2018743;-0.04057627;-0.08453722;-0.0043656137;-0.07547249;-0.00014361423;0.092279926;-0.07199255;0.1592084;-0.08166058;-0.08871263;-0.104383186;-0.077579744;0.004223468;0.034319445;0.08023622;-0.110394806;-0.079564884;-0.07972137;-0.06807991;-0.12733029;-0.13615066;0.011991861;0.032122016;0.0061654896;0.08075325;-0.013767959;-0.15053311;-0.033245903;-0.11433618;-0.050653327;0.015593595;-0.04970193;-0.15323149;0.040696386;-0.14283092;-0.06497189;-0.24529156;-0.055982698;0.09343685;-0.17698973;-0.12314532;-0.14191718;-0.060355995;-0.018805234;0.052891407;-0.02022867;0.0010618871;-0.049431115;-0.0530671;-0.029821109;-0.13718496;-0.07497672;-0.1494206;-0.035392463;-0.005831505;-0.2025291;0.1635858;-0.029420651;0.20654874;-0.24415995;0.06517309;-0.024541069;-0.040561486;-0.13493319;0.07409249;-0.15643328;-0.047725;0.004543477;-0.07877255;0.038368758;-0.11957833;-0.13122077;-0.17961851;-0.32383075;-0.08846191;-0.08665504;-0.13181105;-0.09030559;-0.016039185;0.11996586;-0.048259273;0.1155908;0.03557018;-0.11867732;-0.052033763;0.056041997;-0.039051954;0.03567554;0.011034569;-0.15822655;0.15859857;-0.13999945;-0.28921944;-0.11410752;-0.05153082;-0.04483639;-0.03167263;-0.019406779;0.004722159;0.06706295;0.009745537;-0.038231935;0.05303545;-0.16539446;0.092662945;0.051087495;0.1569791;-0.07261762;0.025585841;0.06876287;-0.065289214;-0.27241942;-0.045581345;0.105470255;0.04934389;-0.0873029;0.0140027525;0.055207666;-0.024014056;0.057312045;-0.16881756;-0.05681482;-0.13616908;-0.064262904;0.028553667;0.014564944;-0.08589977;0.15363409;-0.2889779;-0.0052832407;-0.07761206;0.07417144;0.13189112;-0.050188486;0.020528689;-0.05183391;-0.009509542;0.096054904;-0.07576556;0.04126395;-0.11118487;-0.08940218;-0.17895502;-0.009845141;-0.058711004;0.09257112;-0.07170714;-0.13569236;-0.110610925;-0.09398059;-0.08756415;-0.0030982052;-0.171111;-0.07011621;0.026811527;-0.016701335;-0.07697481;0.050015934;-0.102656744;0.03584274;0.01028617;0.10127111;-0.07568829;0.031600513;-0.11646024;-0.017946424;0.039154254;0.25203884;-0.03862659;-0.064284414;0.069616586;0.03171813;-0.11503488;-0.06995189;-0.040516354;-0.1944698;-0.07582709;-0.061604585;-0.035999972;-0.040925726;-0.02562141;-0.01739613;-0.17771222;0.057602234;-0.070241764;0.015666682;-0.040970385;-0.03641471;-0.102204576;0.055117942;0.048121024;-0.115602925;-0.016282314;-0.241866;0.026799679;-0.17168479;0.10071162;-0.04550751;-0.040679988;-0.00013777417;0.05351974;0.08188907;-0.29754335;-0.07417816;0.016057286;-0.09808349;0.002546239;-0.12034951;-0.21851368;0.037776597;-0.13581316;-0.001444385;0.0794532;-0.0036512525;-0.017347079;0.029666081;-0.057398688;-0.06451082;-0.0957364;-0.0009874005;-0.0059229233;-0.003955246;-0.061094873;-0.031733487;-0.009007893;-0.14298993;-0.012899621;-0.04703903;0.13587238;0.16566375;-0.12117934;-0.09378641;-0.056542296;0.11546637;0.062387154;-0.043652885;-0.08907947;-0.045067675;-0.04097954;-0.112757236;0.051398337;-0.05716616;-0.12029488;0.036958557;-0.14997749;0.059962306;-0.17890479;-0.15002169;0.034617033;-0.051366717;0.00046853573;-0.16563024;0.0071613765;0.075862326;0.13858551;-0.08318009;-0.028584609;-0.0911239;-0.21971865;-0.015900942;0.017885389;-0.22827446;0.010194536;-0.057719063;-0.0725716;0.036143478;-0.12263824;0.043010905;-0.115604885;0.21897775;0.022318123;-0.078188494;-0.026828708;-0.05430561;0.026796946;0.060572594;0.11936137;-0.21844663;0.17768414;-0.0892186;0.029870864;0.014448122;0.10248721;-0.24691202;-0.030594192;-0.06827523;-0.011283152;-0.031576388;0.05610432;-0.1778635;-0.119347125;-0.052609205;0.036632467
-0.07116229;-0.04542134;-0.0133279255;-0.07387894;0.06282984;0.006740121;0.15486473;0.012829564;-0.17677681;-0.31327534;-0.06944273;-0.03512991;-0.00696339;-0.15570435;-0.013650186;-0.10187877;-0.0038515842;-0.11858386;-0.08547358;0.024543654;-0.0595011;-0.068292476;-0.16133833;0.004039937;0.09899785;-0.07764071;-0.19772626;0.01614104;-0.027297117;-0.09460385;-0.11612292;-0.09809924;0.029507501;-0.078574814;-0.026470607;-0.012539675;-0.11772507;0.22492334;-0.15572639;-0.011306358;-0.106472954;-0.11710091;0.073880896;-0.004122638;-0.047206573;-0.11634455;-0.108069696;-0.053948347;-0.08441423;-0.15150633;-0.07642374;-0.059647024;0.06697343;0.027482325;-0.113136634;-0.08258263;-0.05802363;-0.030821094;0.03531701;-0.07071207;-0.05071234;0.09625009;-0.108206555;0.023902373;-0.098319136;0.00047111695;0.015933437;0.026520034;-0.1726958;-0.16196808;0.27308726;0.018543059;-0.10439696;0.13269758;-0.072739676;0.2221279;-0.078202546;-0.066121176;-0.043021955;-0.103974156;-0.11656181;0.06226331;0.012225491;-0.17000076;0.038009975;-0.039305404;-0.02504635;-0.040739965;-0.018051177;-0.029139265;-0.011249263;-0.006231443;-0.09148203;0.023824735;-0.03711628;-0.067429505;0.07397552;-0.0054757874;-0.052873857;-0.15402229;-0.099752344;0.0523687;-0.10246841;-0.11299213;-0.044574253;-0.10631162;-0.11520748;-0.19969009;-0.10610365;-0.11672005;-0.06803644;0.14162205;0.073443525;-0.049440853;-0.061550517;0.0068128724;0.09346097;-0.08501043;-0.049114786;-0.0873511;-0.14585629;-0.012326679;-0.11142401;-0.036788926;0.04096141;-0.11407088;0.07854416;-0.067621745;-0.02794471;0.03781194;-0.025793225;-0.1277791;0.059075274;0.02069628;0.026725063;-0.056191042;-0.048462737;-0.27817994;-0.050407812;-0.2003165;-0.027061043;-0.044274263;-0.08960468;-0.29542258;-0.07213093;-0.104904786;-0.09793504;-0.051886536;-0.009595355;0.043782942;0.039955102;0.03109471;-0.008041334;-0.085961156;0.02964068;-0.18074815;-0.078967996;-0.14316854;0.086459145;-0.052024294;0.038901687;-0.0729453;-0.08782989;0.018673377;-0.08084955;-0.062165465;-0.07167881;-0.035254173;0.21084069;0.09414843;-0.19539344;-0.08448693;-0.024441423;-0.05232124;-0.027804812;0.055875793;0.0076085604;-0.0039952886;0.030754626;0.032217357;-0.016178502;-0.14224169;-0.06294672;0.11223012;-0.097993284;0.037804797;-0.17163283;-0.033526782;-0.030320313;-0.014361286;-0.09900562;0.0022805042;0.07619735;0.0070617497;0.028837077;-0.026222795;-0.0906155;-0.08234942;0.027502794;-0.066234626;-0.13975206;-0.027892396;-0.013814594;-0.059693832;-0.19571531;-0.029720008;-0.050410017;-0.0105197225;-0.07019907;-0.004416357;0.027317593;-0.02369251;-0.061202817;0.13391447;-0.07511156;-0.14531472;-0.016777528;0.016812332;0.13565996;-0.04206545;-0.042184096;0.07001814;-0.1467515;-0.031575415;-0.045898512;0.009402194;-0.10374008;-0.26910836;-0.10789461;-0.049169697;-0.07088953;0.079267114;-0.07723644;-0.03176413;0.020169327;0.05297863;-0.119716816;-0.10274545;-0.03260538;-0.029257765;-0.08002507;0.068135396;0.06811464;-0.016329566;-0.10834409;-0.11186819;-0.1395582;-0.024716137;0.015117261;0.07477459;-0.0045597902;0.04811555;0.046122506;-0.021315748;0.09935398;0.020660875;-0.01863083;0.01619824;0.092465304;-0.17535786;-0.09738058;0.08512683;-0.13305867;-0.016673464;-0.12100536;-0.025512144;0.017801702;-0.18468301;-0.1361939;0.036008876;0.18202892;-0.12695652;-0.06031987;-0.055533938;-0.0024459865;0.05174929;-0.08963379;-0.09532595;-0.001537555;-0.11814355;-0.22550029;0.023225123;-0.2640269;-0.057436828;0.01732572;-0.000256739;-0.14732671;-0.0025669946;-0.031170635;-0.045147825;0.06768689;-0.02142053;-0.0449505;-0.1391661;-0.1497011;0.12206791;0.057082318;0.09365105;-0.07472477;0.04543553;-0.024729172;-0.07701383;-0.038882066;-0.1365671;-0.063982494;0.11092159;-0.0012014707;0.067314625;-0.0020513819;-0.10654682;-0.04303109;-0.09008631;-0.013849606;0.06414802;0.0043783123;-0.09821124;-0.082686216;-0.1219246;0.056282725;-0.17056894;-0.047088094;0.06041799;-0.23220441;-0.083380155;-0.1712069;-0.061107174;-0.09496666;-0.029465394;-0.08462203;0.10103812;0.008843489;0.038224176;-0.07266322;-0.053003713;0.023278464;-0.18132067;0.02359276;0.01770422;-0.014233475;0.07348242;0.025576552;0.13564005;-0.2168571;0.0047119143;0.014942178;-0.06955776;-0.10545449;0.13228253;-0.15391064;0.018676577;0.019255674;-0.13220793;-0.01770125;-0.007229725;-0.07251783;-0.22114111;-0.27050295;-0.018510872;-0.002977523;0.010123578;-0.14621966;0.025695575;0.21125124;0.012759718;0.03561912;0.124746844;-0.14300935;-0.11951114;-0.053475417;-0.11092313;-0.033078913;0.045776054;-0.2011536;0.122888625;-0.06692116;-0.18515962;-0.08460303;0.00056914275;-0.08465348;-0.13913262;0.051694654;-0.021470098;-0.057999227;-0.13451375;-0.037302468;0.028145073;-0.0972322;0.11165628;-0.051120028;0.042025376;-0.09591045;-0.11381869;0.023097947;0.04791415;-0.13748875;0.005752373;0.058416024;-0.033155024;0.002152938;0.020080697;0.053298295;-0.0963141;-0.0251102;-0.1248266;-0.017387526;-0.2376281;-0.091581754;0.019946454;0.019812275;-0.028754722;0.06723206;-0.24174532;-0.008279385;-0.05195947;0.11279218;0.14517479;-0.053748958;-0.0928583;-0.13386123;0.00080389704;0.071869776;-0.0722646;0.099703215;-0.0054398337;-0.057086293;-0.11482381;0.018378824;-0.10616976;-0.05128038;-0.11080737;-0.06251269;-0.16911256;-0.01525537;0.055139184;-0.034695692;-0.2659794;-0.012792058;-0.034541536;-0.013619717;-0.039775625;-0.015059392;0.0074824383;-0.011247231;0.09528115;0.05839607;-0.09964157;-0.058503736;-0.12865841;-0.002116495;0.010832849;0.050495964;-0.072630346;-0.061850704;-2.750723e-05;0.038024995;-0.11885998;-0.059323244;-0.09929944;-0.19497336;-0.04766814;-0.047164127;-0.013639439;-0.10151482;0.03051012;-0.055542897;-0.18959749;0.053153403;-0.028799044;0.03405815;-0.10285709;0.010707345;-0.082284756;0.056122057;-0.100478314;-0.10295235;0.079614826;-0.110449016;-0.054275237;0.0005709449;-0.022770794;0.05477482;-0.015986256;-0.12485975;-0.0004030358;-0.04606829;-0.14880729;5.3943855e-05;-0.028209282;-0.0037222127;0.087324366;-0.11155292;-0.12385011;0.06662889;-0.10977869;-0.08508928;0.1342863;-0.10860432;0.03109787;-0.068222314;-0.05681464;0.02919654;-0.115653664;0.0058951466;-0.10244614;-0.013444747;0.0018676646;-0.027835798;-0.1103282;-0.12710294;0.028282067;-0.037054103;0.17524774;0.22132091;-0.12124681;-0.09803106;-0.07642619;-0.008079242;-0.018281702;0.02509233;-0.07464252;-0.055068653;-0.011221044;-0.085400395;-0.044429716;0.020735824;-0.041510195;0.030250916;-0.1461932;-0.025225313;-0.056238495;-0.03042674;0.043706793;0.0351797;-0.012478153;-0.14054306;0.016130552;0.1292862;0.059693698;-0.013674886;0.013350503;-0.062669285;-0.051516775;-0.040384043;0.014180464;-0.12403013;0.060543984;-0.025121374;-0.01811531;-0.041633468;-0.110896066;0.06471782;-0.08645628;0.1684909;0.03389622;-0.09681477;-0.04550606;-0.04281109;-0.034756638;4.4395438e-05;0.11318656;-0.09415293;0.031065082;-0.123397216;0.017142093;-0.04191393;0.109594524;-0.2534783;0.00837693;-0.13139944;-0.045466647;0.04451278;0.066865094;-0.14941794;-0.10822273;-0.09178484;0.09669302
-0.0842184;-0.107096;-0.0069453283;-0.073724374;-0.02108372;-0.016550016;0.13005453;-0.04488713;-0.15220691;-0.20921244;-0.09404671;-0.057077743;0.02937564;-0.060616057;0.030573359;-0.16017339;-0.119401716;-0.17120527;-0.0022450797;0.019155482;-0.08377002;-0.18743978;-0.15654163;-0.101516716;0.09513165;0.040047534;-0.19731626;0.029824113;0.021011855;-0.06829816;-0.12092578;-0.096577816;-0.028581303;-0.072928555;-0.13677548;-0.062113926;-0.03966588;0.07088085;-0.09575436;-5.8900105e-06;-0.13234009;-0.025256613;0.0070623495;-0.031367693;-0.0045730732;0.0033639688;-0.0310954;-0.08509596;-0.080431774;-0.12009402;-0.033016503;-0.07193698;-0.01664093;-0.0052180514;-0.13739918;-0.0774095;-0.12164203;0.021281095;-0.078670815;0.037084237;-0.08889233;0.041353352;-0.1032712;0.09737188;-0.028441487;-0.044088177;0.069845684;-0.024081217;-0.06042376;-0.11980376;0.21341214;0.03689179;0.020561244;0.06399814;0.03612235;0.0784651;-0.07688849;0.028730756;-0.057156354;-0.106837705;-0.09817189;-0.10399831;0.018093413;-0.028444942;-0.09246516;-0.15407579;-0.106737375;0.04014082;0.0027729338;-0.04291722;0.086849384;-0.070896156;0.016342811;-0.029165722;0.0704962;-0.06237181;-0.07558749;-0.05746698;-0.05524215;-0.039235976;-0.15714966;0.035507083;-0.12288145;-0.116543844;0.029685559;-0.013218983;-0.010316324;-0.13085334;-0.05058529;-0.029782861;-0.02395885;0.17374806;0.057348706;-0.11838243;-0.04583241;-0.030262293;0.09303419;0.019160055;-0.09638348;0.015414933;-0.05388889;-0.051170513;-0.07245009;-0.03434306;-0.06193755;0.025452366;-0.04642727;0.042630095;-0.11121001;-0.0137911225;-0.08310728;-0.014626218;0.0876035;0.056327373;0.0320615;-0.14132011;-0.08295156;-0.17509845;-0.0140166255;-0.18687302;0.03053845;0.038373362;-0.0922047;-0.2730904;0.0494498;-0.121452644;-0.024330148;-0.012622981;0.056158118;-0.026179802;-0.06201022;-0.062106848;-0.029283887;-0.015724808;-0.024138797;-0.15687552;-0.033897012;-0.09491092;-0.054033786;-0.093138166;0.0023792076;-0.17439772;-0.029489264;-0.10497472;-0.064152904;-0.0979952;-0.0715002;-0.02058464;0.090991616;-0.024224956;-0.2324383;-0.07917813;-0.015795188;-0.0043617412;-0.08556466;-0.007122456;0.009286982;0.14707457;0.009080025;-0.02777824;-0.09856472;-0.04824701;0.044355314;0.17465888;0.0108719;0.0057889465;0.024788503;-0.12370277;0.03505144;0.03299693;0.0022421938;-0.095451385;-0.03251123;0.0073595536;-0.033078592;-0.11497648;-0.036510363;-0.058407664;-0.03444661;-0.069739826;0.0015271233;0.0358016;-0.018059026;0.0110915;-0.033947133;-0.011355548;0.010194019;-0.004689262;-0.08131097;0.06374767;-0.090866484;-0.038102437;-0.034306467;0.12334359;-0.03824614;-0.059353888;-0.040337563;0.038840428;0.06489063;-0.094827995;0.054942396;0.09029007;-0.0009104393;-0.09317684;-0.058243062;0.007835477;-0.0010318559;-0.16569509;-0.03905143;-0.06442261;-0.05556189;-0.0041716984;0.0043602297;0.013942116;0.008951967;0.11017782;-0.13985132;-0.0319067;0.026972553;-0.0012901851;-0.13031843;-0.014577257;0.078113355;0.024633106;-0.1983087;-0.035873495;-0.027471324;-0.03928533;0.04932817;-0.03021993;-0.025176218;-0.021948593;-0.021906478;-0.13065611;0.019678375;-0.052197427;-0.056902528;0.01637318;-0.011614562;-0.1608878;0.030930517;0.16670586;0.013102656;-0.0671277;-0.12789759;0.035313968;-0.10782476;-0.14827383;-0.07423496;-0.090072595;0.13067451;-0.030342048;0.015161986;-0.009073468;-0.07314915;0.05676056;-0.061112814;-0.05065352;-0.02021021;-0.07796422;-0.18917766;-0.09927482;-0.29017347;0.03289475;-0.08999627;0.014257409;-0.028332815;-0.03175559;-0.076127954;-0.055637803;-0.023731925;-0.08158527;-0.06062201;-0.11931049;-0.122250676;0.03893461;-0.01463304;0.13108262;-0.041300785;0.05499865;-0.0020978537;-0.10038374;-0.06531543;-0.1446512;-0.054633483;0.06338185;-0.090007864;-0.043649912;-0.011399119;-0.06554542;0.011250068;0.021679826;0.014298883;0.057333194;-0.07167634;-0.040757198;-0.027283946;-0.016256472;0.003735316;-0.04560227;-0.15178633;0.041080453;-0.20009042;0.012394103;-0.2391827;-0.113745786;0.005449387;-0.039381724;0.01775041;-0.039374597;-0.14379317;0.013255981;-0.07155413;-0.19362837;-0.10214248;0.0047932505;0.0037817624;0.06792751;-0.04530142;0.1484509;0.0001817246;0.12528409;-0.23292315;-0.03762955;-0.059301384;-0.0926615;-0.12831962;0.00934261;-0.14854066;-0.049526677;-0.05282528;0.011815732;-0.021790015;-0.09747454;-0.12812978;-0.114027984;-0.23685011;0.054081637;-0.02488478;-0.032938495;-0.14588824;-0.027404297;0.13849847;0.05221067;0.04367789;0.11567231;-0.104086414;-0.043945856;-0.024905285;-0.10490405;0.026855923;0.04865903;-0.08460912;0.2051361;-0.117942214;-0.09318823;-0.08615131;-0.10778597;-0.0896607;-0.004531797;-0.09444693;-0.0055532246;0.039181795;-0.14049393;-0.0021460229;0.024239851;-0.10414776;0.051305413;-0.008936151;0.024972718;0.006739103;-0.0033599813;-0.099628754;-0.0135342935;-0.1918088;-0.033607893;0.02755074;-0.047730893;-0.07157761;-0.0614465;-0.08191721;0.020176534;-0.0036195347;-0.02703972;0.050244823;-0.22284338;0.09229695;-0.14953804;0.09848121;-0.04560118;0.099461086;-0.17135976;-0.053059675;-0.039717313;0.1177728;0.04243414;-0.019911487;-0.07751432;-0.06836419;-0.1357706;0.003654343;0.023059843;-0.033959646;-0.13159353;-0.039284967;-0.010660444;-0.11912659;0.010000464;0.02522681;-0.11877004;-0.08231163;-0.097750396;-0.029263817;0.044772293;-0.11639659;-0.17956631;-0.1163677;-0.116470814;-0.08573412;0.012429035;0.054911204;-0.12317607;-0.053076435;-0.06509217;0.06829345;-0.10559847;0.0071565723;-0.07350831;-0.15172422;-0.11702811;0.13934873;-0.10602512;-0.18239754;0.02646111;0.03551139;-0.07724354;-0.15392235;-0.10162225;-0.19514203;-0.05560554;0.032811943;-0.0036078368;-0.095192134;-0.011677374;0.051292162;-0.1133268;0.009243683;-0.15105693;0.03410749;-0.09788748;0.042225707;-0.11300278;-0.07987308;-0.09868414;-0.004896497;0.012781366;-0.12862283;-0.012737521;-0.08026;-0.04765727;0.060284764;-0.05321414;0.0269264;-0.023259517;-0.03730982;-0.1597522;-0.040172856;-0.070083335;-0.08852195;0.041436736;0.0014995894;-0.07185909;0.01989839;-0.1054314;-0.029989628;0.09636452;-0.086011484;-0.00835205;0.034581784;-0.07316265;-0.008945058;-0.044992656;0.00522362;-0.05764591;-0.0012267377;0.014713976;-0.10574043;-0.047079246;-0.04770136;0.13339192;-0.13564165;0.11598349;0.07169718;-0.024740258;-0.008699816;-0.041605655;-0.022861775;-0.020905225;-0.0807411;-0.04504998;-0.06970406;-0.0885743;-0.11191623;-0.054967143;-0.016810926;0.01594225;-0.102351144;-0.1385507;0.05653696;-0.14447838;-0.04679283;0.037415005;-0.083387434;0.025006367;-0.09948056;-0.072978586;0.0068028546;0.036855523;-0.12300879;0.029602667;-0.1184473;-0.06283974;0.050772797;-0.06259512;-0.19358505;0.05713817;-0.06967803;0.009768605;0.021839572;0.018616788;-0.028084956;-0.114005305;0.12248192;-0.04020989;-0.15584405;0.014776642;-0.14070927;0.11567821;-0.03940854;-0.00256421;-0.111741565;0.14728087;-0.09531961;-3.6842284e-05;-0.07031791;0.09562261;-0.16400686;-0.028894084;-0.12618239;0.03891663;0.08427376;-0.053598024;-0.117823504;-0.2005077;-0.08892027;0.0459451
-0.16452079;-0.07298871;-0.04401663;-0.12635691;0.055932965;-0.011098886;-0.0409421;-0.07682093;-0.11550799;-0.15510792;-0.016087905;0.02419311;-0.13143139;-0.15486175;0.009144966;-0.023590906;0.039394397;-0.040746216;-0.005321389;0.028730527;-0.067005664;-0.1250847;0.008547164;-0.078767106;0.04696552;-0.114090964;-0.1026647;0.053808507;0.03737734;0.02462115;-0.018505663;-0.027480016;-0.0045561474;-0.017194621;-0.079102606;-0.049034774;-0.07320897;0.06492804;-0.121212214;-0.023310127;-0.165996;-0.06449116;0.10981966;-0.08178303;-0.022930846;0.011032199;0.02105635;-0.03437276;-0.14794715;-0.101393335;-0.12969463;-0.0011845016;0.012624899;0.16988026;-0.009078351;-0.12954244;-0.07897635;-0.022428753;-0.10089619;0.06170078;-0.043329857;0.052834377;-0.010975065;0.08666295;-0.112937324;-0.00068701745;-0.011893362;-0.025542287;-0.086037464;-0.022687158;0.056024108;0.021912877;0.04722332;0.11819911;0.0015864798;0.10961934;-0.01918136;-0.007898232;0.068374656;-0.1419595;-0.084781386;-0.049253233;-0.04118383;-0.11715287;-0.013152955;-0.056820925;-0.03847453;0.044970337;0.093961075;-0.18093108;-0.052213117;0.0034793445;-0.0331169;-0.06657449;0.06945675;-0.1178828;0.023694986;0.033468727;0.009154689;-0.1035144;-0.15584692;0.011347905;-0.007925319;-0.07814768;0.10987531;0.0065289373;-0.108017914;-0.16684152;-0.06372573;-0.08932021;0.0015747179;0.020712664;0.0070322943;-0.024807805;-0.12524065;-0.072650746;-0.021938667;0.029734721;0.01753859;-0.024746418;-0.099364236;0.03926117;-0.03472848;-0.015476958;-0.09629869;0.011578323;0.033876017;-0.055545747;-0.12018447;0.03347198;0.008625574;-0.1267442;0.12498842;0.03477251;0.05254049;-0.06404784;-0.06992523;-0.12762098;-0.034325168;-0.103322744;0.047975868;-0.040194817;-0.06887799;-0.23522903;0.08829713;-0.09348658;-0.009533149;-0.08993446;0.054195948;-0.11700445;0.06668801;-0.09718944;-0.0638088;-0.092566185;-0.029828794;-0.14903878;-0.07070748;-0.1317197;0.014254158;-0.011251364;-0.03699602;-0.026458519;-0.09167749;-0.08346975;-0.16708443;-0.04424048;-0.12510364;-0.09960733;0.006970203;-0.09964944;-0.06907352;-0.14208396;0.009139214;0.019680003;-0.0355947;0.06342026;-0.0967505;0.13122945;-0.04077527;0.0180961;-0.11219618;-0.047429778;-0.073637985;0.22868071;-0.040869165;-0.09639244;0.047921877;-0.115370296;0.06680427;0.025310054;0.040313393;-0.05429232;0.043839153;-0.1267956;0.040575184;-0.11055982;-0.0056062816;-0.047073174;-0.07594986;-0.01681226;-0.039442327;0.013771119;-0.02915457;-0.14056313;0.0053592115;0.0005594254;-0.021194698;-0.0011183344;-0.020856354;-0.0931543;0.05028891;0.042286117;-0.10299346;0.1047864;-0.018975815;-0.043942172;-0.003703153;0.11473214;-0.002302211;-0.052790403;0.0151159605;0.11714494;0.009408592;-0.07954475;-0.119421385;-0.094355956;-0.16982594;-0.086416;-0.05541489;0.05095915;-0.03842442;-0.09718578;-0.09770411;-0.074358225;-0.10192589;0.054938585;-0.16060592;-0.026061675;-0.039291047;0.03439137;-0.15889642;-0.10460928;-0.03457601;-0.13321695;-0.13896291;-0.04009885;-0.092644006;0.009893737;0.14258102;0.032372773;-0.069729775;-0.009454844;0.04582073;-0.030185841;0.005600509;-0.081784815;-0.03703063;0.0033282957;-0.00038516833;-0.17061217;-0.033661146;0.19800647;0.0059475303;-0.0034801655;-0.09226848;-0.056632478;-0.040883545;-0.10764089;-0.11200464;0.039340552;0.10744761;0.026393043;0.0006887938;0.009045058;-0.073972724;-0.038812205;-0.105789036;-0.0037247306;-0.028044777;0.013774112;-0.124765955;-0.029803412;-0.20538642;0.014879657;-0.11154651;-0.11757745;-0.0073075616;-0.07451715;0.0008090432;-0.03574604;0.11793393;-0.042650353;-0.10590634;-0.19345045;0.024884593;0.09625298;0.048392676;0.0834819;-0.082389064;-0.060916394;0.07056767;-0.066248365;-0.028011203;-0.08269664;-0.07024873;0.08895267;-0.07077739;-0.061611284;-0.09297704;-0.11524025;0.05541493;-0.07170106;-0.107238084;-0.048478264;-0.11987913;0.018962454;0.116214275;-0.04351283;-0.03215604;0.016100496;-0.073902875;0.011294994;-0.2115535;-0.095311254;-0.13404514;-0.058455504;-0.08382672;-0.0027141115;-0.11549031;0.06751757;-0.08968942;-0.044544883;-0.08617411;-0.034839224;-0.0387355;-0.086937;-0.004202459;0.105332255;-0.052329067;0.057690263;-0.077831514;-0.0413234;-0.09983415;-0.11149445;-0.03349913;-0.039859504;-0.09558961;0.017100308;-0.20502774;0.01769758;0.0035154042;-0.07154031;0.019299066;0.029818622;-0.06635375;-0.09645224;-0.1277773;-0.0321666;-0.02399363;-0.06920352;-0.118031606;-0.05515127;0.089219786;0.09225726;0.05457834;0.053040966;-0.13476989;-0.007620229;-0.02721781;0.0062122587;-0.13805203;-0.08619571;-0.11505983;0.2270281;-0.08623818;-0.11498675;-0.05555076;-0.09975565;-0.04835905;0.0064298855;-0.108732834;-0.14266296;-0.0484322;-0.09946549;-0.0045363773;0.027644634;-0.1063007;0.046646602;-0.06494694;0.024030443;-0.09677235;-0.11058988;-0.027149187;0.04975436;-0.24768032;-0.10543734;-0.07025859;0.026458371;0.05570215;-0.11496282;0.011476265;0.03390082;0.03640785;-0.107258305;-0.059432097;-0.15035069;0.05065237;-0.12669808;0.07882215;-0.017167982;0.09477485;-0.17030554;0.029858546;-0.027742205;-0.014541734;0.001345264;-0.025044832;-0.051686056;-0.006150425;0.02579432;-0.09689311;-0.024880048;-0.10473032;-0.023559727;-0.09056595;-0.13838992;-0.1255682;-0.06640272;0.050611246;0.0012241339;-0.06277563;-0.045976672;0.067454934;-0.0060706255;-0.07991884;-0.22041593;0.045679353;-0.06022333;-0.05253091;-0.11408378;-0.02153856;0.030083202;-0.046415303;-0.041851565;-0.0039239023;0.03417929;0.04763945;-0.14095639;-0.019688878;-0.10600841;0.12858754;0.029403528;-0.012051718;-0.039088998;0.019782158;-0.17958072;-0.14857252;0.046227627;-0.092526354;-0.067408435;-0.024678191;-0.03922475;-0.10584647;-0.09007268;-0.012235365;-0.16231668;0.04872971;-0.116788685;-0.060468722;0.034795746;-0.027606912;0.0172941;-0.07689088;0.018336894;-0.12640238;-0.05358705;-0.07235318;-0.09553771;-0.10274942;0.06480637;0.03703679;-0.050433975;-0.07889498;-0.08966219;0.033549666;-0.19990876;-0.025111327;-0.03690766;-0.03655743;-0.10108742;-0.041812375;-0.114038356;-0.023386853;-0.12385784;-0.01417959;0.0969048;-0.13006712;-0.051277153;0.07258446;0.05969522;0.047545243;-0.09631472;-0.103237204;-0.054457348;-0.056778084;-0.11177442;-0.06510628;0.020037415;-0.13317053;0.12603064;-0.14048333;0.05266925;0.0020331065;-0.019087983;-0.10050513;-0.076106116;0.021098085;-0.0059968913;-0.116627194;-0.008556372;-0.03539103;-0.09272617;-0.10090326;-0.09787494;0.025422953;-0.03475612;-0.07732453;-0.15299758;0.046058618;-0.1407026;0.025522402;-0.042595506;-0.09129536;-0.102278166;-0.077565126;-0.008849501;-0.016973745;-0.023360264;-0.1170523;-0.005826078;0.018672904;-0.039711114;0.020498296;0.0019969007;-0.09405762;0.06840773;-0.12907514;0.023796584;-0.10589339;0.022603674;-0.0997163;-0.14161433;-0.0028469176;0.0230667;-0.056778226;0.12214143;-0.050892036;0.15850046;-0.106947914;0.017681265;-0.04681392;0.099309355;-0.007269087;0.02979326;-0.111185856;0.11750206;-0.17652354;0.10433741;-0.0025906914;-0.082990214;0.14123902;0.018885652;-0.02069492;-0.029280715;0.0911023;-0.020878287
-0.07418017;0.052516453;-0.018084446;-0.16240507;0.052230164;-0.045199573;0.0016086269;-0.06957713;-0.0623996;-0.027604308;-0.08685829;0.021967381;-0.06417068;-0.025910893;-0.058762;-0.10514672;-0.03524222;-0.0076812934;-0.05502;-0.06372149;0.008943867;-0.1842185;-0.064839885;0.08924827;0.011420377;0.040157747;-0.10632228;0.028155264;0.009462287;-0.054576162;0.046010382;-0.14386454;0.052150205;-0.07291573;-0.030733073;-0.12877801;-0.046741873;0.15840922;-0.09415523;0.021815058;-0.044533245;-0.08072826;0.082313456;-0.031129388;-0.0037003094;0.041882224;-0.0063095675;-0.054719515;-0.095987946;-0.15373711;-0.09019751;-0.10338533;-0.074328445;0.116250314;-0.008658557;-0.14127561;-0.12143404;-0.05960237;-0.037755772;-0.027960233;-0.09968959;-0.104108624;-0.09079195;-0.007959673;-0.05632402;-0.013342418;-0.027705472;0.019374516;-0.15526895;-0.08936093;0.09468589;0.024736209;0.034780413;0.18465942;-0.017108878;0.084944874;0.0030409696;0.06448201;0.0035428244;-0.18245482;-0.0480873;-0.0478539;-0.051977295;-0.0707314;-0.07961168;-0.03234184;-0.09516687;-0.024704324;0.056105096;-0.1289833;-0.026094435;0.0461896;-0.072241485;0.04924748;0.0682594;-0.12106261;-0.09862508;-0.050800182;-0.021787712;-0.17188591;-0.11161961;0.012214361;-0.0741481;-0.15370415;0.04466274;-0.0031948509;0.00081418635;-0.13615443;-0.010580503;-0.11086823;-0.112990476;0.003928123;0.13895991;-0.00324212;-0.09203648;-0.03004882;-0.03075754;0.035627123;0.06604497;0.035193346;-0.094095685;0.009174095;-0.064237565;0.022545045;-0.055604573;0.025068207;-0.08340124;0.0008083533;-0.14397936;-0.00943664;-0.10288453;-0.0832412;0.094170846;0.019688211;0.10388909;-0.10657548;-0.14812246;-0.18504377;-0.09257589;-0.21442035;-0.03711169;-0.03483807;-0.047272842;-0.21367873;0.049755167;-0.070766985;-0.022942787;-0.0675686;0.032076772;-0.079276875;0.056411494;-0.027540004;0.027128277;-0.13728525;0.03815798;-0.12743396;-0.1266484;-0.12880243;-0.07910731;-0.04668953;0.023887066;-0.13525337;-0.07258979;-0.004223086;-0.1319006;-0.010149186;-0.020634549;-0.08077769;0.05167009;0.046885114;-0.115683764;-0.13444774;-0.034460567;-0.05019661;-0.0118217645;0.020649351;-0.10308273;0.12107287;-0.041144107;-0.06011624;-0.05862622;-0.08541278;0.029217724;0.16227126;-0.068802536;-0.07664467;-0.0069965716;-0.07252062;0.036896396;-0.074385874;-0.007496808;-0.023675263;0.041968614;-0.0026689202;-0.08712757;-0.028760146;-0.08711022;0.0016393008;0.029115567;-0.12053797;-0.07828763;0.03949749;-0.017476404;-0.02592018;-0.05346254;0.008765233;0.08590174;-0.018728023;-0.08305841;-0.030375348;0.02992778;0.010004263;-0.055100165;0.08276514;-0.13606167;-0.058375787;-0.08650239;0.11719709;-0.020441119;-0.120283745;-0.013534591;0.12101337;-0.046820164;-0.14154625;-0.010723434;-0.07798866;-0.10039222;-0.18452115;-0.035935055;-0.008335045;0.021954361;-0.028069695;-0.11214736;-0.04555623;-0.08170946;-0.05560844;-0.15155657;-0.07230977;-0.11711841;-0.005675356;-0.1371391;0.0070327274;-0.04636707;-0.14652075;-0.037928205;-0.039928604;0.014435537;-0.013614141;0.06139787;-0.04232469;-0.10117136;-0.08381391;-0.050858945;-0.042001884;0.1210918;0.020668669;-0.10682427;-0.089559145;-0.053655613;-0.19637814;0.0015850948;0.14822073;-0.10577138;-0.12681645;-0.042543855;0.017722884;-0.018588914;-0.028910056;-0.051820118;-0.10667208;0.19409113;-0.09888667;-0.008500619;0.015823713;-0.06765064;-0.06551542;-0.05117536;0.030800484;0.029661499;0.06313789;0.016825603;-0.057657078;-0.1511527;-0.03144472;-0.11019294;-0.030808227;-0.012841288;-0.031821314;0.062647566;-0.11440247;0.034091305;0.02684323;-0.056006808;-0.14342293;-0.022341035;0.08205289;-0.0058833156;0.15759927;-0.012092041;0.056740195;0.07254374;0.07069273;-0.040057454;-0.12360991;-0.06280262;-0.03310843;-0.0066786287;0.02913385;-0.027519414;-0.050898973;0.00038135145;-0.018165246;-0.08326869;-0.07352591;-0.10160121;-0.11120538;0.025446827;-0.0734674;-0.015531082;-0.038812127;-0.1065178;0.07730593;-0.090457074;-0.05879511;-0.1263853;-0.07582033;-0.0017013476;0.032245297;0.0015673849;-0.0027406674;-0.1255718;-0.11011864;-0.014730292;-0.1298729;-0.06602882;-0.044979867;0.031349964;0.007936209;-0.015697666;0.07862108;-0.030356485;-0.058255106;-0.10131323;-0.061344247;-0.06448537;-0.03923751;-0.025724012;0.08442566;-0.14886726;-0.027608966;-0.05356863;-0.07589596;-0.12474674;-0.10870436;-0.101633064;-0.21751064;-0.21791147;-0.029728599;-0.08061091;-0.020453911;-0.056119673;-0.013904728;0.04611721;0.0806861;-0.031759482;-0.02454105;-0.013889564;-0.112539314;0.037868835;-0.067871615;-0.10169083;-0.0974841;-0.113220744;0.18443318;-0.019411938;-0.23883149;0.06498829;-0.07832903;-0.07519401;-0.012502617;-0.068905674;-0.12061117;-0.1065953;-0.12658666;-0.12350445;0.023559315;-0.09352662;0.05910303;-0.06585465;0.082357705;-0.10718333;-0.057374798;-0.12509835;-0.059524175;-0.2340822;-0.11809041;0.023200007;-0.06876168;-0.0035476466;0.0060020513;0.01730111;0.029222662;0.0004933791;-0.017746149;0.06334808;-0.12499017;-0.0037856072;-0.16338417;0.17115682;-0.08230726;0.018356761;-0.13322905;-0.012972573;-0.014507395;0.097326234;0.107482284;-0.047760524;-0.052741703;0.019377835;0.008477296;0.031464577;0.02031649;-0.0143262325;-0.14528112;-0.04794208;-0.073949486;-0.009266054;-0.12546994;-0.09715411;-0.012768893;-0.08478427;0.07264173;0.008396559;-0.02745615;-0.016616346;-0.20669244;7.517267e-05;-0.17306176;0.033597793;0.025793482;-0.07928671;-0.03972469;-0.09164662;0.018079527;-0.0012738747;-0.043506123;0.10619142;-0.18485273;-0.09349289;0.0009289256;0.052526418;-0.09117131;-0.06891501;-0.005347366;-0.02309962;-0.175381;-0.1173108;-0.0073341485;-0.122470096;-0.091743544;-0.12983952;0.016602326;-0.013117225;-0.085919425;-0.029605767;-0.112576716;-0.0013357542;-0.045271143;-0.018281393;-0.05477107;-0.108655244;-0.0103830835;0.04728417;0.03057599;-0.12651537;0.017262235;0.018835237;-0.0010814389;-0.083104946;-0.03922015;0.014714298;-0.065536946;-0.06578357;-0.08060382;-0.002831059;-0.16237645;-0.03925509;-0.08100995;-0.08305511;-0.028870866;-0.16494465;-0.029031878;-0.053303175;-0.20349336;0.02871887;0.116213895;-0.10145507;-0.09542497;0.118232735;0.04266504;-0.067151226;-0.0729037;0.050256778;-0.1319168;-0.104576685;-0.12454925;-0.008240779;-0.04923014;-0.03966547;0.11956716;-0.012863459;0.047238838;-0.025105547;-0.072776206;-0.050421778;0.009058899;0.041756652;0.01915179;-0.043411005;-0.057888497;0.05198145;-0.04015314;-0.046891764;-0.009217339;-0.052938964;0.038393293;-0.062076673;-0.1305917;-0.058227576;-0.058301095;-0.07181119;0.09289888;0.0035387997;-0.10967519;0.0119942175;-0.1248026;-0.031879958;-0.08903014;-0.112332754;-0.05052572;-0.017779607;-0.021731805;0.028938303;0.014814694;-0.16895008;0.06574798;-0.16566049;-0.09246872;-0.08312115;-0.10446961;0.010992225;-0.25479048;0.1225217;-0.10994249;-0.09184448;0.02992784;-0.06720033;0.12767932;-0.085128024;0.078724965;-0.1027464;0.10895797;-0.017025128;0.06594472;-0.03398563;0.045375925;-0.15517029;0.048037324;-0.026573487;-0.07378201;0.020132607;0.06929985;-0.030899147;-0.10139293;-0.0380676;-0.023164203
-0.041329063;0.1004212;0.0097886305;-0.10512909;0.06934809;0.027401306;-0.096040264;-0.067363754;-0.009486375;-0.15944634;-0.0049132104;0.001165511;-0.011802103;-0.1340375;-0.057321288;-0.08464666;-0.03137481;-0.1251168;0.026127731;-0.031386416;-0.1075758;-0.18354136;-0.029209428;-0.017523415;-0.05030087;0.023906391;-0.15309434;0.15055978;-0.13002893;-0.10091;-0.04825171;-0.08342816;0.041859284;0.0095009655;0.013802546;-0.003755894;-0.07222495;0.050999906;-0.016810576;-0.01691646;-0.0013343921;0.0003114946;-0.031926516;-0.020337954;-0.007373645;0.027536752;-0.074791126;-0.16307776;-0.02040404;-0.06882483;0.02628292;-0.011394267;0.021631226;0.06965016;-0.032534886;-0.08293671;-0.20130128;-0.041899603;-0.108853705;-0.018695096;-0.0072098584;-0.06569019;0.00533548;-0.005636982;-0.098278105;-0.04495351;0.034417387;0.014129284;-0.009257321;-0.10427757;0.100265235;-0.040009458;-0.04885473;0.1943719;-0.09718205;0.022767993;-0.13821298;-0.06002671;-0.05767269;-0.048899233;0.014663036;-0.0147618195;-0.109952524;0.0050280057;0.00782508;-0.031327855;0.013560296;-0.04613709;-0.048786804;-0.11426465;0.051035248;-0.07574921;0.009698221;-0.021540677;0.12736233;0.012312521;-0.08841492;-0.109878816;-0.01733818;-0.17213528;-0.12958443;-0.101848625;-0.036306318;-0.0072135376;0.10108188;-0.07676298;-0.016278489;-0.09745775;0.023905762;-0.057395793;-0.06295311;0.13805385;-0.019860437;-0.1159572;-0.042613808;-0.07297125;0.054944854;0.008110065;-0.0075393585;0.013899508;-0.0722567;-0.07611616;-0.034137663;-0.025916517;-0.07983743;-0.043045662;-0.0031648471;0.028447354;-0.06418259;0.046232037;0.021333862;0.023981888;0.066370025;0.017023074;0.0716828;-0.08203958;-0.08190895;-0.20308125;-0.11047254;-0.10022941;0.0031461834;-0.12922153;0.009346255;-0.21334332;0.088076346;0.02106536;-0.08806414;-0.051652137;-0.017205857;-0.049257047;0.11573662;-0.0039034828;-0.034441303;-0.04272329;0.02810081;-0.11134085;-0.09487839;-0.09927401;0.010816602;0.03937828;-0.043817095;-0.16689952;0.0018848864;-0.0057435534;-0.20153503;-0.022719262;0.0151005145;-0.052587025;0.06737063;0.010709203;-0.12547418;-0.088509224;0.0052662836;-0.118099265;0.012728297;0.0008187104;-0.07946655;0.096998625;0.025405927;-0.06608265;-0.07861256;-0.05849268;-0.091087386;0.14000516;-0.07724493;-0.0590603;0.11071665;-0.0017563542;0.004545354;-0.037439857;-0.03396578;0.045608096;0.027688676;0.03453568;-0.064080484;-0.081219226;0.04306651;0.018431492;-0.07308466;0.0039898437;-0.14223221;-0.096417576;-0.04978854;-0.08515956;-0.08078935;-0.034797557;0.11269459;0.031361192;-0.11941715;-0.096554056;-0.027004488;-0.01606851;-0.05597773;0.027780347;-0.09181189;-0.11175392;-0.09702911;0.1584875;-0.046662357;-0.12509435;0.0004806169;0.027693698;-0.12329401;-0.1808699;0.037024505;-0.009814923;-0.06264973;-0.13426067;-0.07874953;0.08491475;0.025943123;0.044585813;-0.13688795;-0.096312314;-0.11338235;-0.0064195646;-0.13475318;-0.02332933;-0.07175726;-0.077256806;-0.14551865;-0.06781107;0.0516156;-0.1080697;-0.11834669;-0.010166567;-0.07785133;-0.08263363;0.18010409;0.02761827;-0.10506089;-0.0048659183;0.038397998;-0.034111828;0.1144586;0.08350927;-0.12195646;-0.07216088;0.0848689;-0.118783645;0.007630351;0.1996439;-0.089393266;0.012493176;0.004464632;-0.12191646;0.046528187;-0.13690574;-0.13809901;-0.008531743;0.094768204;-0.11517803;-0.02038189;-0.032437716;-0.031098152;-0.024725154;-0.117722884;-0.13491334;0.036527682;-0.006509781;-0.020520205;-0.10617495;-0.24045078;-0.04304875;-0.01419088;-0.07238666;-0.11684721;-0.016001884;0.035612516;-0.093057536;0.04443331;-0.024825463;0.024137916;-0.117766224;-0.087767355;0.07776267;-0.07085596;0.05735732;-0.018608885;-0.089209646;0.07159038;-0.061454356;-0.06425307;-0.055492736;-0.025928099;0.03278138;-0.0791056;0.038382158;-0.097491816;-0.052084044;-0.0925783;-0.10776964;-0.039744254;-0.043957762;0.01752106;-0.04922791;0.05048523;-0.10565963;0.028487494;-0.03585931;-0.10832669;0.049883164;-0.049771722;0.009496787;-0.19977781;-0.05807783;-0.05947552;-0.023155078;-0.13283034;-0.033529773;-0.16138612;0.028568504;-0.057972006;-0.11362819;-0.035523813;-0.0033858982;-0.09532382;0.0813473;-0.065450214;0.049006376;0.013107007;-0.042682532;-0.11416822;-0.12118796;0.015385088;-0.04811409;-0.048093416;0.17937678;-0.2032724;-0.1258513;-0.14233635;0.021181937;-0.037310436;-0.06295697;-0.115456;-0.17961702;-0.27161318;-0.0037490942;-0.0718731;-0.012143106;-0.08868507;-0.07584781;0.0637667;0.01321053;0.022314811;-0.08124819;-0.047313593;-0.043117005;0.042757727;-0.07141125;-0.13494226;-0.07569287;-0.07133418;0.06565561;0.03064007;-0.22278051;-0.07680628;-0.101879805;0.019218374;-0.051560897;-0.0044015553;-0.13812476;-0.0543739;-0.060067706;0.002110775;0.116335966;-0.05619208;0.025849506;0.063508555;0.09626899;0.018477777;0.032220338;-0.015364945;-0.039592642;-0.12955958;-0.0038549947;-0.07474639;-0.11567327;0.042726457;-0.024811339;0.015339728;-0.032171626;0.08266811;-0.08524517;-0.060826074;-0.049068738;0.06981172;-0.067007415;0.18598093;-0.09535889;0.0067815445;-0.24537858;-0.10899326;-0.053785633;0.076224625;0.072654635;0.030212924;-0.033457343;0.029222794;-0.09137303;-0.10260487;0.02526224;-0.12858653;-0.07017846;-0.11320054;-0.07819081;0.0072418945;0.02173831;0.040462025;0.0120640015;-0.07157872;0.0359115;0.01613304;-0.09043151;-0.010847506;-0.15725715;-0.011226835;-0.13229573;0.04626875;-0.102572605;0.003056227;-0.05396667;-0.0724445;-0.07418747;-0.06802744;-0.080724135;0.10063924;-0.15590046;-0.14831813;0.026866864;0.072286546;-0.06420023;-0.15989126;0.01546873;-0.05159174;-0.099156745;0.008219772;0.021479063;-0.101362854;-0.08643424;-0.14562428;-0.0002604913;-0.052257568;-0.01685969;-0.09832619;-0.12407898;-0.04250286;-0.13425349;-0.056812335;-0.0865263;-0.106040634;-0.091670804;-0.013978325;0.0044767037;-0.15823252;-0.01760808;0.09274714;0.009811445;0.01959038;0.043122414;-0.11771481;0.059768334;-0.10994192;-0.11132924;-0.10135895;-0.09589477;-0.030310953;-0.042664554;-0.099458165;-0.015355222;-0.03342749;0.033984777;-0.10966101;-0.09814323;-0.061058734;0.19289863;-0.06981402;0.057514355;0.074956484;-0.087841846;0.037398476;-0.041871518;0.035954636;-0.111344844;-0.12140198;0.018159747;0.035649803;-0.00015788904;-0.15928444;0.049639564;-0.12657192;-0.003331635;0.011239852;-0.010504409;-0.03811584;-0.0112195825;-0.12207333;-0.024853926;-0.0682416;0.027911289;0.012021426;0.0052341144;-0.07564421;0.021654049;-0.07575514;-0.008810347;-0.014537844;-0.16756718;-0.07049625;-0.15724535;-0.06844244;0.10454721;-0.05215762;0.030905442;-0.074643634;-0.1388436;0.028255576;0.011171081;0.031074837;0.024904715;-0.04223296;-0.058358096;0.0066583594;-0.014082622;-0.1592569;0.030181652;-0.19238216;-0.094722226;-0.048628215;-0.050851896;0.040069304;-0.21886563;0.14235936;-0.111104265;-0.13262464;-0.0077503026;-0.09340687;0.054082602;-0.08410807;0.066323966;-0.007289716;0.029133664;-0.12677844;0.054898694;-0.00856159;-0.04142288;-0.14437044;0.023107415;-0.14945455;-0.015974706;0.16571292;0.021032909;-0.033788662;-0.08435429;0.0049227974;-0.061597157
-0.1770658;0.0019892706;-0.0060309516;-0.11105925;0.039782103;-0.02753141;0.03602958;0.027680606;-0.12657538;-0.15329416;0.024493719;0.038164664;0.018433599;-0.12718938;-0.055529874;-0.11615089;0.018586028;-0.15455872;0.009974249;-0.103595935;-0.035069097;-0.15413028;-0.05526208;0.028237142;0.017323438;-0.1045134;-0.08908816;0.07674734;-0.10567303;-0.08215222;-0.03881335;-0.013581231;-0.11473885;-0.07674446;-0.11674704;-0.10410856;-0.016567178;0.08467745;-0.022574348;0.0111908745;-0.04579867;0.025969218;-0.045786746;-0.07794873;-0.0071703093;-0.009644265;-0.06526818;-0.1550388;-0.03280646;-0.09901951;-0.099757746;0.02668257;-0.096617036;0.015104052;-0.032636788;-0.013954227;-0.1788344;-0.05926396;-0.05905125;-0.054388635;-0.045124684;-0.06587844;-0.03306168;0.12283021;-0.009376791;-0.049576487;-0.028997859;-0.025274478;-0.15577245;-0.11212514;-0.01458964;-0.0089608515;-0.08979765;0.07666373;-0.0394437;0.18098433;-0.1301407;-0.045570426;-0.070605025;-0.08891821;-0.043758195;-0.041268136;0.025481757;-0.018071696;0.051748935;-0.01738164;-0.005510093;0.036487974;0.038302086;-0.124848865;-0.0030631307;-0.017862668;-0.08089746;-0.037515722;0.07342799;-0.052146275;-0.004433608;-0.058737256;0.030158147;-0.113643646;-0.09745871;-0.02202529;-0.14518361;-0.020783545;0.10597936;0.02039978;0.052028153;-0.15904528;-0.04897381;-0.086840644;0.028246902;0.10706356;0.14324494;-0.11394311;-0.1532906;-0.10598457;-0.08940617;-0.0018171913;-0.03358248;-0.0477768;-0.03266524;-0.08321212;-0.036449417;-0.014555281;-0.093331136;-0.07553049;0.05433883;-0.054316673;-0.036475144;-0.04575539;-0.11237894;-0.06539355;0.029699516;0.043685734;0.082468875;-0.034342237;0.018906184;-0.20823115;-0.12284059;-0.22816505;0.051498633;-0.06990351;-0.04078692;-0.20602271;0.08874139;-0.07185635;-0.13453645;0.019935502;-0.06914226;-0.03250488;-0.03320567;0.03245309;-0.06439484;-0.10351838;-0.09066393;-0.14715825;-0.03031015;-0.084808685;-0.00824056;-0.041748393;0.060692552;-0.13214958;-0.053008627;-0.09604509;-0.20739055;0.009469978;0.016421475;-0.07913532;0.13240232;-0.06791604;-0.041161798;-0.10958114;0.033408727;-0.069526955;0.040094223;-0.08645625;-0.026690213;0.07196037;-0.117925376;-0.059476864;0.027283803;-0.11025859;-0.07356248;0.17580394;-0.11242205;0.051314473;0.0013911892;0.010186136;0.04346414;-0.018393472;0.00210143;0.021934798;0.021182735;0.0020745525;-0.022842582;-0.029222755;-0.048672408;-0.077008;-0.0048970743;-0.008515713;-0.10611597;-0.09177808;0.026199698;-0.050218407;0.00044565447;-0.098383605;0.09257982;0.018168058;-0.02320793;0.027112348;-0.065694734;-0.030433452;-0.04353349;-0.026230121;-0.06661338;-0.10659457;-0.07774355;0.10580471;0.04027357;-0.032130115;-0.063903615;0.09661136;-0.042921696;-0.0908989;-0.072033405;0.02474948;-0.0087172;-0.2336867;-0.17118019;-0.088907205;-0.0022781645;0.028813785;-0.05706863;-0.0875831;-0.030509125;0.010693231;0.0120638665;-0.11647126;-0.040671177;0.031353913;-0.03784257;-0.03264102;-0.04507704;-0.10806652;-0.19837408;-0.08412911;-0.061661057;0.016463501;0.15708613;-0.07277118;-0.13585034;0.031040194;-0.06630798;-0.10893131;0.12864731;0.040309787;0.015478188;-0.091724664;0.12139511;-0.17683017;-0.0017184548;0.1906545;-0.10528612;0.030152181;-0.11001023;0.035773598;-0.09528091;-0.020843523;-0.033366594;-0.071204565;0.05609233;0.01802594;0.04932207;0.005434791;-0.037831478;0.05039374;-0.0892664;-0.0041059665;-0.01182342;0.050365973;0.012134062;-0.07813465;-0.11339357;0.046426576;-0.04423844;0.02572259;-0.06960282;-0.071573354;0.053032037;-0.021358868;0.03524639;-0.021780215;-0.1147954;-0.05415738;0.034169096;0.031508554;-0.06368759;0.18146466;-0.073950194;0.041966897;0.020752084;-0.09561968;0.0037851017;-0.05074062;-0.08984919;0.06625467;-0.079537585;-0.059144124;-0.08859348;-0.12778512;0.0051108655;-0.09166795;-0.010360944;-0.013312711;-0.06224036;-0.07141807;0.06192072;-0.09733085;-0.06981433;-0.008433359;-0.059978426;0.030927623;-0.16505381;0.043861825;-0.09047462;-0.15080725;-0.045176074;-0.039399847;-0.01352795;-0.0014167028;-0.071543016;-0.01722901;-0.0069501107;-0.18060683;-0.01890056;0.09854158;0.06336685;0.105606824;-0.048064366;-0.007370273;-0.016105108;0.08962391;-0.21476287;0.032296374;-0.07591696;-0.06469349;-0.05537962;0.053098753;-0.21288829;-0.029435797;-0.05161606;-0.004456928;-0.073435895;-0.034981526;-0.00017589655;-0.17124194;-0.17245911;0.04254918;0.010178877;-0.04310342;-0.14106414;0.01404968;0.08713774;0.06462011;0.017204117;0.03536185;-0.04273966;0.04150687;0.03201985;-0.10069588;-0.11788349;-0.05510667;-0.153987;0.13481212;-0.06681872;-0.16213314;-0.023025474;0.017804822;-0.06083569;0.002898808;-0.052222602;-0.07440218;-0.066929825;0.018456781;-0.009141548;-0.023528896;-0.029980216;0.058447517;0.063818894;0.010893426;0.042642906;-0.07200072;-0.12135585;-0.053862914;-0.21904263;-0.016245145;0.009988331;-0.0073823524;-0.018685209;-0.0029046463;-0.054790784;0.030124659;0.04798259;0.009353132;-0.022422824;-0.19110467;0.002888383;-0.0665484;0.13314526;-0.011837457;0.018942438;-0.15955383;-0.059783738;0.05233532;0.011101235;0.042187866;-0.03486696;0.025461407;-0.0035715636;-0.039400876;-0.0044313534;0.021425521;-0.053373616;-0.08579679;-0.085462004;-0.0985649;0.012033294;-0.11891249;-0.063706;-0.056675173;0.026365954;0.046284642;-0.046374775;-0.10999473;-0.08133772;-0.1182306;-0.10631754;-0.13351938;0.014314254;-0.081857905;0.038222156;-0.10751441;-0.06701836;-0.055524897;0.05754312;-0.059529703;0.009016019;-0.0426918;-0.05197094;-0.10744902;0.0069506876;-0.0835239;-0.14140117;-0.05720121;0.0102267135;-0.101013824;0.010013114;0.05126863;-0.12704092;0.016077362;-0.12821524;-0.04506281;-0.07151327;0.026100941;0.032080583;-0.074091494;0.13306332;0.035024233;-0.00058779545;-0.030011233;0.0075144926;-0.086259335;-0.084700406;-0.055188436;-0.05216096;0.024596527;0.043657973;-0.08362215;-0.025657222;-0.10102412;-0.063858345;-0.09502159;-0.11758821;-0.04289349;-0.0801647;-0.06540985;-0.10158868;0.007882288;-0.009740068;-0.08521078;-0.07333432;-0.007912945;-0.10345904;-0.20123301;-0.014558176;0.14183679;-0.119798474;-0.029657219;0.09647433;-0.012580816;0.036499064;-0.04424677;-0.060789883;-0.008840726;0.02114175;-0.037870966;-0.019709751;-0.022994766;-0.14491273;0.073744304;-0.1411746;0.068607055;0.06193001;-0.069957346;-0.028183598;0.031910256;-0.08059325;-0.045235287;0.044777714;0.06746416;0.0036043248;-0.035948128;-0.04146779;-0.10699525;-0.11303556;-0.11979078;-0.062227193;-0.18882376;-0.070146985;-0.14017703;-0.09882743;0.07111393;-0.10866612;0.05855091;-0.05860267;-0.08187986;0.09614139;0.0469472;0.030021155;-0.12267129;0.009990743;-0.14217062;-0.10303159;-0.064394444;-0.12312244;0.010639969;-0.040860888;-0.0017156294;-0.0044007986;-0.07829552;-0.09560093;-0.2025043;0.12873667;-0.070944324;-0.110285565;0.060231462;-0.026294004;0.123270586;-0.011904001;0.095399134;-0.12482449;0.114248715;-0.035383705;0.07334212;-0.07400522;0.0091997;-0.18042974;0.09066187;-0.049185757;-0.00031144798;0.14375697;-0.00083134364;-0.040561564;-0.16366611;-0.012927267;0.0012797932
-0.11869307;0.05725348;-0.0722412;-0.0027608506;0.07332258;-0.005878799;0.007601237;-0.08409148;-0.078961715;-0.034479704;-0.012871118;0.030532967;0.015325427;-0.026268475;-0.050313257;-0.13439602;-0.017093528;-0.14392607;-0.06664617;-0.10876071;-0.038550377;-0.1438765;-0.04457327;0.023055838;0.06590193;-0.019655893;-0.08416167;0.01614839;-0.06595499;-0.069592156;-0.10200562;-0.0530457;-0.10268604;0.054020192;-0.023827776;-0.07390266;-0.051125176;0.116645224;-0.029239943;-0.12311652;-0.11858961;0.027077248;0.053110365;-0.01651863;0.048642594;-0.023911137;-0.08263567;-0.06731227;0.013927553;-0.027747918;-0.07907226;-0.02169374;-0.027558206;0.061722573;-0.12448679;0.002303702;-0.16931644;-0.07463046;-0.07694083;-0.05608086;0.011772381;-0.060596768;-0.086935334;0.13194613;0.034552913;0.040040173;-0.027767168;-0.010550024;-0.07725683;-0.18759288;0.010261832;-0.090967335;-0.072534226;0.08436373;-0.018442262;0.04960582;-0.011158712;-0.0809463;-0.0331713;-0.058666583;-0.07980551;-0.06282172;-0.05235636;-0.14176813;-0.017488252;-0.112906896;-0.08693724;-0.006897231;0.02258679;-0.053198583;0.036908902;0.03422791;-0.03227795;0.0032747781;0.009766458;0.029883558;-0.024802912;0.029983332;-0.038748454;-0.03971654;-0.01641931;-0.02949277;-0.076564655;-0.0376149;0.042973217;-0.07319934;-0.062420614;-0.014516743;0.0355074;-0.060711704;-0.07698681;0.040782847;0.07403301;-0.08511506;0.003169535;-0.1136265;-0.012015177;0.009604613;0.00947131;-0.107799254;-0.01923175;-0.01457556;-0.08753534;0.035935294;-0.07011304;-0.09316055;-0.09592989;-0.09370902;-0.06585602;-0.025818024;0.05165355;-0.046845533;0.14452201;-0.04269189;0.048204258;-0.026818017;-0.02347735;-0.12940359;0.008122942;-0.07383273;0.02874256;-0.08259986;-0.11304437;-0.25123;0.015415751;-0.118876435;-0.01872503;-0.02611235;-0.0487342;-0.024693593;0.119193844;-0.072905764;0.049071994;-0.09421572;-0.04287435;-0.07476922;-0.124321416;-0.005323278;0.048304185;-0.07078054;-0.049425147;-0.046397902;-0.060804628;-0.10037041;-0.18035309;-0.08291715;-0.07245604;-0.058547553;0.103690974;-0.044381987;-0.14399517;-0.08425991;-0.0056036734;-0.0498617;0.025015032;0.04832465;-0.106704034;0.07350845;-0.091743484;-0.07432926;-0.051900346;-0.09423009;-0.086581044;0.18542045;-0.061041858;-0.060121354;0.09262453;-0.029377736;-0.024398658;-0.1071652;-0.052324314;0.04307054;0.046141125;-0.0694622;0.05042193;-0.053996075;-0.07687548;0.009329613;-0.048718918;-0.022945285;-0.0064651696;-0.008451637;0.008539676;-0.08871741;0.039533854;-0.016004963;0.14680107;0.047420554;-0.14141455;0.031512838;-0.026282176;0.084166415;-0.122566216;-0.04638403;-0.09729317;-0.06884722;-0.029802328;0.0779744;0.0631325;-0.08062573;0.03445215;0.054486576;-0.08515749;-0.15373842;-0.07900761;-0.001225281;-0.06971962;-0.15502997;-0.0039379415;0.061753735;-0.12196064;0.031772833;-0.07122508;-0.020965682;-0.0064839493;-0.06923556;-0.03552602;-0.14177136;-0.04545464;-0.08424026;-0.10844269;7.5252414e-05;-0.036600363;-0.15124512;-0.06987491;-0.11261206;-0.09107211;0.029474577;0.16321306;0.028693935;-0.14142011;-0.04356428;-0.026926214;-0.019451832;0.016335005;-0.0105870515;0.026190333;-0.059144527;-0.019246083;-0.14143269;-0.021528637;0.10813671;-0.09737726;-0.045134727;-0.05205594;-0.043193854;-0.1169588;-0.15914084;-0.0808754;0.00969714;0.13416168;-0.011083229;0.048425883;-0.1319344;0.035364993;-0.06340021;-0.08987368;-0.12428393;-0.074651785;0.07869839;-0.03946283;-0.09672977;-0.09098492;0.036898416;0.0051097376;-0.027177792;-0.032599747;-0.007621158;-0.011418882;-0.07561927;0.013473744;-0.038631756;-0.089061834;-0.06935377;-0.008237268;0.05026197;-0.046325777;0.19098915;0.006554936;-0.08961975;-0.048604265;0.04784373;-0.048830636;-0.02605082;0.028085658;-0.008558344;-0.031145772;-0.07078962;-0.06436311;0.010919271;0.05843067;-0.03569242;0.0016552394;0.013669195;-0.10244527;-0.06930328;0.13997635;-0.115019344;0.09756118;0.08971118;-0.14530675;-0.018825756;-0.15607212;0.05631334;-0.15419851;-0.034367487;-0.046215095;-0.107006505;-0.02232715;0.034309693;-0.057682656;-0.07479536;-0.069131434;-0.05494468;-0.08602236;0.07126449;-0.05153313;0.07386936;-0.030597355;-0.01704677;0.02307242;-0.0939024;-0.22711208;0.02428884;-0.068350025;-0.10026191;-0.0588763;0.054679196;-0.13121642;0.032298695;-0.13027526;-0.023887955;-0.036608152;-0.12377594;-0.1109076;-0.066600315;-0.27561945;0.020324985;-0.050458215;-0.029408026;-0.041078452;-0.09731608;0.008659263;0.083147995;-0.08547012;-0.08970198;-0.05757963;0.012465322;0.028341992;-0.089559674;0.013709746;-0.055795696;-0.12718752;0.14738926;-0.024727177;-0.13440368;-0.036694765;-0.006438043;0.026988525;-0.05010519;-0.0625636;-0.0014089834;-0.082349904;-0.014347811;-0.0710281;0.03255542;-0.038130194;0.006326058;0.031066477;0.09181221;-0.035406653;-0.06336989;-0.13520363;-0.047391623;-0.2401185;0.001896804;-0.09157599;0.038516127;-0.056137193;-0.07375931;-0.04013751;-0.07271961;0.058500603;-0.0029673039;-0.0096254945;-0.14418729;0.1143615;-0.037841003;0.17597488;-0.05301194;0.06219218;-0.19991829;-0.027955443;0.04843088;0.068525024;0.04329365;0.036058974;0.0068666595;-0.02159302;0.02326428;-0.087309204;-0.004198037;-0.12350777;-0.061414126;0.002593329;-0.12212941;-0.020146148;-0.016951947;0.031733137;0.019214833;-0.091832474;0.061130866;-0.053343177;-0.119488515;0.00765024;-0.18023005;-0.052036934;-0.22080049;-0.09127335;0.022478124;0.017850507;-0.077787295;-0.12101899;-0.13107428;-0.057305757;0.005642439;0.08272677;-0.029053349;-0.15503484;-0.0467568;0.027574748;-0.06631184;-0.16514285;-0.056187674;-0.10411852;-0.19520563;-0.05645403;-0.027969755;-0.059368607;-0.13610734;-0.050932072;-0.08463641;-0.08359274;-0.09717185;-0.05162741;-0.069113664;0.06187788;0.009978875;0.077734694;-0.06310115;0.047744732;-0.008260933;0.0019380203;-0.0011227286;0.011973511;0.0018844341;0.09191583;0.031260964;-0.11788275;-0.073031254;-0.09447667;0.032396514;-0.079067536;-0.035360392;-0.027236745;-0.041388348;0.018489063;-0.015607084;0.030405326;-0.035506763;0.0077276584;0.009905928;-0.049070626;-0.19528294;-0.06401621;0.11832362;-0.036681857;0.048000995;0.095043525;-0.089012;-0.08886166;0.054867886;-0.08034843;-0.0687831;-0.12593062;-0.018308504;-0.031539593;-0.059177015;-0.13543536;0.17735562;-0.09287886;0.08969104;-0.03870605;0.03189498;-0.05277009;-0.008002855;0.04090093;-0.037560675;-0.06304262;-0.052786626;-0.017762853;-0.07224869;0.0015016315;-0.0063807922;0.018257907;-0.01682292;-0.07686142;-0.12762631;-0.061947864;-0.12651083;0.007982026;0.11386621;-0.06831535;0.045058534;-0.00923633;-0.10179414;-0.02991933;-0.016885819;0.03168449;-0.085189275;0.026191177;-0.10064896;-0.013050258;-0.08244811;-0.15790378;0.1180588;-0.094034895;-0.121240996;-0.093349084;-0.008750224;-0.10918333;-0.14677072;0.052974325;0.010668677;-0.16071099;0.014811749;-0.1107411;0.12986857;0.04564776;0.09453736;-0.11770965;0.057727713;-0.113734886;0.084826805;-0.10699413;0.07585053;-0.089254;0.104131736;-0.11544542;-0.031206435;0.028013881;0.047481682;-0.14432682;-0.08174465;-0.04683555;0.053509653
-0.13828021;0.007902896;-0.073027305;-0.0004039482;-0.07260282;0.0075026616;-0.05135313;-0.05828516;-0.014894809;-0.11356824;0.016820053;-0.048888814;-0.0057865926;-0.053591907;-0.010219999;-0.12102806;-0.07319632;-0.08860239;-0.049374625;-0.08589278;-0.025827816;-0.04757151;-0.012725999;-0.05003122;0.05383517;0.01575295;-0.13355996;0.038543306;-0.09597901;0.059600405;-0.035586003;-0.004022995;-0.07219479;0.023912616;-0.005733368;-0.030923318;0.01109545;0.113463745;-0.068044044;-0.032914482;-0.08134037;0.026239233;0.043907743;-0.0046207127;-0.08813908;0.08388108;-0.10879931;-0.05325148;0.026767207;-0.17133673;-0.02916246;-0.09587583;-0.010235537;0.10034664;-0.099064834;-0.03273624;-0.19291115;0.025081974;-0.19265918;-0.018677805;0.0077652205;-0.083007775;-0.12573376;0.13388443;0.02996322;0.06549071;-0.053438354;-0.013484546;-0.10142463;-0.14589365;0.04583742;-0.04298382;-0.073735625;0.14788525;-0.060466167;0.027384827;0.012221277;-0.07131559;-0.008839114;-0.10636465;-0.004469727;-0.09655648;-0.09981697;-0.14892048;-0.02442997;-0.07439567;-0.021939404;-0.06369217;0.0646306;-0.038530596;0.018972121;-0.031565666;-0.12723908;-0.0032786592;-0.0055203945;0.037397724;-0.0462358;-0.024928313;-0.0804478;-0.05983387;-0.11127556;-0.041303053;-0.13134757;-0.08911153;0.014643207;-0.014774214;0.026015732;-0.08084712;-0.060114827;-0.07131857;-0.115778916;0.09132207;-0.00023801174;-0.0004483748;0.026296202;-0.043236844;-0.021119263;0.024270264;-0.025121592;0.0009671269;-0.040317982;0.051754322;-0.030500097;-0.09860953;-0.06659228;-0.12041811;-0.06808478;0.012634451;0.011552566;-0.030081471;-0.014347357;-0.049198806;0.08124228;0.060100403;-0.04500708;-0.0064393296;-0.06563809;-0.15888996;0.0032803556;-0.09647743;-0.030949;-0.064082414;-0.10499201;-0.20957929;-0.02103191;-0.104641356;-0.024882728;-0.095374584;0.020007739;-0.084396586;0.06289474;0.031399876;-0.03463719;0.011947361;0.019193582;-0.068018086;-0.022001283;-0.028340729;-0.06620968;-0.1077246;0.061858866;-0.04929296;0.021241784;0.048163738;-0.24571875;-0.05940615;-0.060341533;-0.0061151157;0.12033985;-0.043585397;-0.11187514;-0.07682718;-0.002960283;-0.1127648;-0.030590942;-0.028777303;-0.11563087;0.0063388017;-0.03528799;-0.062150337;-0.067918025;-0.16219321;-0.020037616;0.17751443;0.032652106;-0.0055825277;-0.028011633;0.027248971;0.040254544;-0.08910399;-0.022433281;0.020003442;0.03015922;-0.00028938634;0.0065745823;0.023696441;0.0043920195;-0.106433935;-0.0966701;0.021924593;-0.12611072;-0.07882715;-0.054770455;-0.054373693;-0.03586586;-0.07270453;0.049227096;-0.08446324;-0.061445244;-0.055263534;-0.036364976;-0.060474027;-0.05528582;0.036098152;0.030375037;-0.059891187;0.014116124;0.09803576;0.11120189;-0.07326283;-0.042051673;0.10785139;0.03226026;-0.13622198;0.024288956;0.0017290886;0.01297023;-0.12642969;-0.16416554;-0.0413509;-0.09706436;-0.03439315;-0.13400623;-0.075694285;-0.11273063;0.036666557;-0.00065428374;-0.0026756118;0.013412432;-0.082306705;-0.00047154317;-0.03320145;0.003039069;-0.11103392;-0.088578895;-0.14499839;-0.036165554;-0.023904178;0.011396487;0.009579233;-0.085171655;0.032156855;0.005192287;-0.06942609;0.106216975;-0.0024021259;0.051838696;-0.1063042;0.05975011;-0.09087323;-0.08447606;0.07854046;0.0035144503;-0.07632734;0.021840792;-0.032045785;-0.10016609;-0.1821001;-0.10047853;0.022117892;0.110180214;-0.10290654;0.032390878;-0.10198008;0.058956962;-0.043617096;0.003422862;-0.09962928;-0.0822657;0.022550106;-0.0058379215;0.0046535656;-0.06717857;-0.076348595;-0.06541867;-0.07391098;-0.15014808;-0.022673659;0.038530488;-0.1225615;0.07015179;0.00475277;-0.05316743;-0.044778995;-0.028611002;0.057042234;0.004400531;0.14537084;-0.075035825;0.03906638;-0.00797073;0.04387167;-0.066929266;-0.1041731;0.013740878;0.110257916;-0.035511132;0.051129077;0.02080915;-0.088016436;0.045170292;-0.12779702;0.007692817;-0.026086513;0.027186416;0.01911929;-0.005315156;-0.116446815;0.09316872;-0.0075398507;-0.0070521343;-0.024393726;-0.11538372;-0.024921777;-0.18504661;-0.029941296;0.03119841;-0.10700591;-0.12115328;-0.025973195;-0.09430954;-0.07393089;-0.12783524;-0.08103021;0.042265084;0.05126147;-0.011606558;0.11358614;0.07379277;0.028332254;-0.11494262;-0.03152985;-0.13472807;-0.10527102;-0.059554245;-0.007563758;-0.016758395;0.045996226;-0.21467708;0.029004961;-0.18244068;0.017419664;-0.04742263;-0.1260569;-0.10652037;-0.19698913;-0.14340824;0.0012855969;0.053184196;-0.027441839;-0.015047893;-0.051528163;-0.037757892;0.0959935;-0.06725035;-0.045263745;-0.11456055;0.020933729;-0.017509608;0.0030706234;0.030429374;-0.023749026;-0.07810986;0.18791673;-0.042394742;-0.10091612;-0.056432795;-0.080730945;-0.067494944;-0.01231408;0.0050326707;-0.017917618;-0.06258607;-0.15396126;-0.019659407;0.016092023;-0.14382215;-0.025122806;0.029857455;0.09285666;-0.09039265;0.039064784;-0.03138439;0.035547793;-0.2081425;-0.026311783;0.03499059;-0.03094177;-0.04026279;-0.08982946;0.0026980785;-0.023343492;0.07692974;-0.047050077;-0.013686797;-0.036102276;0.022286927;-0.14289494;0.11207514;-0.033216633;-0.036873907;-0.285512;0.030010818;-0.061751373;0.012987579;0.1425363;0.024515148;0.029965281;0.022961166;-0.087705374;-0.08304717;-0.057678774;-0.03366924;0.0044459356;-0.032424856;-0.06292599;-0.05799499;-0.05837393;-0.078060575;0.012109883;-0.08928744;0.005461552;-0.014088356;-0.11072797;-0.10863181;-0.10176113;0.007985686;-0.113410726;-0.027255988;-0.02196004;-0.10980651;-0.028595462;-0.022528397;-0.13747533;-0.02282391;-0.0145830745;0.017495288;0.012809182;-0.15161146;0.00074647693;0.027603801;-0.13238484;-0.027126221;-0.068533406;-0.09317163;-0.12434956;0.0181701;-0.027918523;-0.15892723;-0.09421601;0.015072793;-0.066894054;-0.043665703;0.043741997;-0.0153297745;-0.11588539;-0.064284;-0.033473168;0.059588853;-0.009908824;-0.092635654;-0.09236077;0.016231906;-0.026742894;-0.13754244;-0.05358746;-0.0047325273;0.019849947;-0.047862317;-0.0720508;-0.083947666;0.038834546;-0.04152729;-0.07976214;0.00572362;-0.12488742;-0.09473273;-0.045506068;0.026999727;-0.013283019;0.00013504371;0.029474763;0.041301526;-0.09243512;-0.05950915;0.10128991;-0.017020775;-0.012392436;0.1621957;0.013085425;0.029242018;0.104055;0.04128624;-0.002708252;-0.075141214;-0.078556225;-0.06025853;0.06544997;-0.09887746;0.031307295;-0.108107634;0.044837095;0.10690256;-0.033810694;-0.016042262;0.011973494;-0.016479304;-0.07488532;-0.11212423;0.022690203;0.06795492;-0.1390186;0.010790568;-0.037274756;-0.09593996;-0.027212368;-0.10164738;-0.047006007;-0.06494907;-0.1611947;-0.0077177053;0.02457688;-0.07498778;-0.030625958;-0.12594712;-0.065233395;-0.054260876;0.009051095;-0.05795596;-0.10514863;0.013832415;-0.034704473;-0.003387016;-0.11413205;-0.15552372;0.10852796;-0.13910381;0.008037044;-0.012321956;-0.08295783;-0.07712398;-0.12194149;0.009485447;-0.0429822;-0.16856001;0.0343574;-0.02447733;0.02363857;-0.015946303;0.062438738;-0.0745611;0.098943435;0.0021466382;-0.05784147;0.034187634;0.09848347;-0.169679;0.03206573;0.0069792136;0.027610645;-0.027270967;-0.05234561;-0.080657445;-0.1543517;0.08844506;0.040558137
-0.10791753;0.018976307;0.025382563;-0.06435548;-0.045988757;-0.050088115;0.05248543;-0.012019872;-0.017978873;-0.12727413;0.01103254;-0.081590064;-0.06615689;-0.08174454;0.028708506;-0.17599177;-0.11263627;-0.06585934;-0.080759734;-0.08026454;-0.08866868;-0.078837164;-0.03579067;0.030694311;0.04166655;-0.05578912;-0.13540214;-0.006567451;-0.06475371;0.019591918;-0.046343483;-0.13008183;-0.07603321;0.015862389;-0.10995217;0.0022539357;-0.101107515;0.10839977;-0.08216861;-0.0880104;-0.04747668;-0.01882468;-0.0023049281;-0.071369536;0.054157324;0.09810184;0.034566205;-0.16127534;-0.017342458;-0.029626148;-0.03442889;-0.05416609;-0.038664646;0.08342712;-0.08199433;-0.06835714;-0.23847917;-0.11119465;-0.15402691;0.005866451;-0.03197629;0.032867197;-0.0943202;-0.029473746;0.041984003;-0.0069965255;-0.065237686;-0.046910834;-0.08199212;-0.100803204;0.05336604;0.021929191;0.05025028;0.16416165;-0.028693605;0.14225426;-0.06825817;0.04960421;-0.08599946;-0.09930766;-0.04495136;0.019050645;-0.07041725;-0.09630523;-0.06109004;-0.100006916;-0.034394637;-0.06287862;-0.008592506;-0.13085023;0.07476352;-0.011784264;-0.13855964;-0.03320406;0.07511114;-0.028795222;-0.061163176;-0.022916684;0.01690156;-0.072008975;-0.024486495;-0.09377047;-0.13648102;-0.117073305;0.08761893;-0.06406236;0.060438782;-0.07717449;0.010150878;0.012235374;0.008450538;0.09417842;0.11270423;-0.034204457;-0.060590368;-0.08758077;0.017639576;0.017356053;-0.07764391;-0.043882646;-0.04536378;-0.05548422;0.026933243;-0.025488125;-0.03230542;-0.08097525;0.021023331;-0.045806136;-0.13435304;0.0015313118;-0.08677813;-0.024040788;0.0855038;0.046591073;-0.0031329063;-0.112245016;-0.14640425;-0.14674558;-0.01032526;-0.070231184;0.025772098;-0.03875085;0.012147242;-0.26089644;-0.021094222;0.0067661526;-0.06724832;-0.078727156;0.06352641;-0.10662543;0.012027129;-0.0838159;0.020208856;-0.04786344;-0.03394538;-0.12570927;-0.061889004;-0.01900717;-0.076605864;0.038842604;0.07718914;-0.13528892;0.0064712497;0.040524192;-0.15518543;0.053794783;-0.11532136;-0.0074967328;0.08828953;-0.011913313;-0.14716282;-0.004709691;0.023559537;-0.030739073;-0.006057002;-0.018026626;-0.11634214;0.0939952;-0.011690357;-0.09605236;-0.10249663;-0.12117399;-0.06696603;0.16615734;-0.11172583;-0.101079985;0.12500037;-0.073385306;-0.087474786;0.05159199;-0.049037755;0.030241579;0.09187563;0.053348545;0.009420823;-0.010258142;0.02776627;-0.10623253;-0.103827894;-0.06802275;-0.12023732;-0.04363066;-0.016763492;-0.07226076;0.0130660385;-0.06097327;0.015530714;-0.05628044;0.00603614;-0.09192278;0.021134822;0.024118235;-0.09300748;0.041099913;-0.048660535;-0.056096427;0.0025782683;0.053080246;0.052983966;-0.042704206;-0.04840885;0.11576906;-0.084633335;-0.10023414;-0.07724647;-0.0021277987;-0.12579824;-0.1822398;-0.0987383;0.010284925;-0.06839667;-0.06109931;0.022934608;0.01601146;-0.0938937;-0.016449187;-0.0030458134;-0.033757202;-0.09552344;-0.022383623;-0.0587492;-0.01766811;-0.082276635;-0.16463338;-0.18181622;0.004448109;-0.09197502;-0.050728425;0.08721034;-0.074830174;-0.10037752;-0.06443867;-0.034532513;-0.10795303;-0.0025676847;0.009629752;0.008675467;-0.11320805;-0.045995284;-0.10674478;-0.024433447;0.18221855;-0.07608118;-0.0550431;0.02457063;0.0006793955;-0.073420756;-0.11989116;-0.15104783;0.044252522;0.097890384;-0.047138527;0.036079183;-0.1360256;-0.05623892;-0.016496727;-0.014751114;-0.024235088;-0.08032804;0.018030789;-0.05605035;0.05350372;-0.13862942;-0.0029669616;-0.11613858;-0.09859361;-0.08740358;0.007918163;0.011485372;0.021933481;0.10117061;-0.015316376;-0.05465359;-0.10990317;0.07769907;0.035106998;-0.024185997;0.062378194;0.006950178;-0.05933849;0.026505893;-0.03139308;-0.010832163;-0.008282452;-0.08390423;0.116523445;-0.074970506;0.013740536;-0.031225806;-0.08598994;-0.0004821049;-0.061479807;-0.05134357;0.020301217;-0.08742728;-0.0049104723;0.01422594;-0.014690666;0.034184046;-0.015831744;-0.1366106;-0.114100926;-0.0984504;-0.08129235;-0.25145406;-0.049603574;-0.1136997;-0.040136214;-0.105008475;0.047962215;-0.089216314;-0.051874466;-0.033821784;-0.14842534;0.020561527;0.0007260572;-0.0021906153;0.066953614;0.03608735;0.031875137;-0.08428387;-0.015750824;-0.11921434;0.029040882;-0.043600533;-0.07999708;0.027695367;0.10837286;-0.23815633;0.015191513;-0.11099592;0.03090043;-0.08266057;0.016866572;0.0046845214;-0.17949307;-0.26977924;-0.036043618;-0.008939058;-0.10958782;-0.028989492;-0.030468294;-0.0028728223;0.10792331;-0.09405145;0.020982897;-0.15207133;-0.02635055;-0.011318661;-0.07893004;-0.13983737;-0.017486323;-0.10700654;0.06894245;-0.08640399;-0.11174452;0.03917709;-0.053274363;-0.10242037;-0.122633174;0.011461543;-0.016857084;-0.109186284;-0.0686057;-0.0922159;-0.0033856647;-0.08885246;0.059509497;-0.098635286;-0.035416655;0.055127863;-0.07315022;-0.093872145;0.04699996;-0.22117367;0.041355398;0.0008290452;0.023989722;-0.03671425;0.01757173;-0.06447846;0.004219599;0.12095666;-0.11388104;-0.03712537;-0.16213286;-0.023992795;-0.0660799;0.1748772;-0.098896086;0.06246733;-0.2629546;-0.092948854;0.0013552508;0.052775294;0.018406106;0.040647537;-0.115357175;-0.02696835;-0.07169291;-0.070287086;0.009872599;-0.14840396;-0.112052254;-0.02235681;-0.09638284;-0.041257065;-0.08552094;-0.043555483;-0.08115666;0.0057984525;-0.023834893;0.097020954;-0.050627094;-0.06303934;-0.21489888;-0.06830209;-0.12687612;0.05033716;0.0058798515;0.008346413;-0.015265072;-0.04951007;0.011211599;-0.031840585;-0.06639431;0.056353692;-0.004529886;-0.114135765;0.0101995105;0.059296273;-0.0556478;-0.0601797;-0.022208886;0.05638896;-0.11163083;-0.085835904;0.047306377;-0.0661227;0.0037191594;-0.089766145;-0.026903322;-0.08578652;0.033374593;0.036999285;-0.15952136;-0.099736065;-0.026417574;0.056633975;-0.03870892;0.050596323;0.0327465;-0.04098797;-0.030097157;-0.07430093;0.037937738;-0.018101996;0.030338278;-0.0631285;-0.00925523;-0.098398454;0.021029674;-0.08964973;-0.048538327;-0.0795312;-0.057997;-0.076965004;-0.011443582;-0.11253285;-0.06539572;-0.1173322;0.0793974;-0.088643916;-0.17560859;-0.05763804;0.042909153;-0.059427235;-0.0021786422;0.14579926;-0.044838026;0.041248567;0.078752495;-0.073711835;-0.025605338;0.022492487;-0.010286699;-0.04242698;0.09130672;-0.10282261;0.06185463;-0.15411024;0.1285178;0.060823563;-0.078367054;-0.08620808;-0.11509217;0.03303506;0.04522128;0.015858576;0.03220629;-0.003061922;-0.13023792;-0.051693663;-0.029161453;0.01947475;0.023131443;0.03688132;-0.07327118;-0.09092751;-0.0649524;-0.12725611;0.048774842;-0.043890037;-0.0425617;-0.11044827;-0.12438687;-0.071704015;-0.06041085;-0.05886221;-0.03303877;-0.07196908;-0.17127427;-0.09751347;-0.012781575;-0.19737327;0.15886079;-0.12608284;-0.084383436;9.68384e-05;0.024495687;-0.10516491;-0.2136445;0.11106652;-0.0609635;-0.14024681;-6.870691e-05;-0.13915484;0.16022313;0.042916022;0.0147258155;0.002518863;0.05930192;-0.12368626;0.009519049;-0.0016165529;0.07863775;-0.17575863;0.14205733;-0.013126195;-0.047301665;-0.018997034;-0.103079624;-0.058389828;-0.14915112;0.014154172;0.05532094
-0.031583574;-0.021853289;-0.06648171;-0.08595932;0.025662616;-0.02274715;0.04587132;-0.05624749;-0.03827457;-0.13702777;-0.077837914;-0.030121835;-0.05379069;-0.050860934;0.044661865;-0.022016266;-0.017893195;-0.02914578;-0.06573551;-0.0763581;-0.005928074;-0.033150785;-0.061698087;0.043132868;0.087763906;-0.02926158;-0.07334395;0.119984604;0.032865357;-0.058750786;-0.117381744;-0.050131485;-0.05308404;-0.027228447;-0.039476674;0.019853413;0.0017994004;0.04545473;-0.044432703;-0.11429217;-0.0049066017;-0.061774123;0.05109765;-0.08081225;0.02798099;0.02177172;-0.036545873;-0.16346297;-0.009014166;-0.089901246;-0.008950615;-0.042945992;-0.050894607;0.01183952;-0.14850077;-0.08688943;-0.21611154;0.0040831026;-0.04111802;-0.010446754;-0.011829418;0.019899826;-0.069889486;0.030551566;-0.02351716;-0.071910895;-0.023378402;-0.026318068;-0.08688425;-0.110349044;0.04722775;-0.03391728;-0.044309277;0.08152616;0.030107817;0.11042676;-0.048719883;-0.10549486;0.009141156;-0.088720396;-0.0441794;-0.022183968;-0.072516516;-0.09346124;-0.08576688;-0.027604466;-0.09901428;0.026789231;0.0150598;-0.034597103;-0.0049146423;0.003967129;-0.08448005;0.05542943;0.012261793;0.024384305;-0.03873021;-0.011915561;-0.016884357;-0.1381601;-0.09426094;-0.025280163;-0.1544708;-0.12357082;0.102127396;-0.11207948;-0.05006161;-0.069517076;-0.03559684;-0.08292643;-0.019927088;0.07508765;0.12104283;-0.025043277;0.037925895;0.04933617;0.054683503;0.025183074;0.025101665;-0.0892388;-0.069985405;0.009400762;0.027583973;-0.02401579;0.028470563;0.004033983;0.057972502;0.04624205;0.0057842117;-0.016017826;-0.062492535;-0.08827451;0.028922407;-0.070585094;0.11449323;-0.068302825;0.013220569;-0.23904537;-0.13811441;-0.23222798;-0.1082567;0.0015728412;-0.001143931;-0.33021697;-0.044069286;-0.021540325;-0.117731124;-0.044238422;0.03844655;0.023565788;0.10206051;-0.047883388;0.01471324;-0.03466991;0.04748282;-0.08940509;0.021428544;-0.05448068;-0.09770483;-0.076571815;0.049409464;-0.12018712;0.052365053;0.007420967;-0.14453818;-0.031103518;-0.092844725;-0.14973396;0.12322272;-0.108129516;-0.082846925;-0.019644955;-0.11223057;-0.1179191;-0.010360919;-0.07840487;0.024293656;0.098116525;-0.077974916;-0.012050648;-0.06887654;-0.10132836;-0.08051403;0.17969964;0.015503528;-0.044328608;0.028720103;-0.1056209;-0.049618434;-0.10728737;0.027892578;-0.06571895;0.08511093;-0.0602286;-0.02011102;-0.10447955;-0.066400215;-0.112776175;0.003706074;0.043979697;-0.05144025;-0.077615105;-0.088322975;-0.11335472;0.024585238;-0.085810326;0.10179763;-0.013451364;-0.14481063;-0.044715345;0.038755503;-0.023488814;-0.05602529;-0.018939594;-0.06585741;-0.0271014;0.02787065;0.073553346;0.108835384;-0.11644988;-0.011463253;0.0013979172;-0.043613687;-0.00870714;-0.016762806;-0.042767994;-0.006340674;-0.16672072;-0.11746985;0.008416872;-0.10208179;0.00715104;0.0046116496;-0.027494906;-0.016704997;0.0076473285;-0.0070689716;-0.10653981;-0.11630677;-0.053390168;-0.04982598;-0.07646204;-0.018871121;-0.11782171;-0.14829352;-0.068795696;-0.058761224;-0.046814974;0.005168943;0.011059464;-0.07094084;-0.10941924;0.05248331;-0.08373501;0.0029424406;-0.00932141;-0.082613274;-0.07685439;0.010565179;-0.12073343;-0.0024012963;0.088769816;0.0025873557;-0.076445945;-0.040701628;0.015338817;-0.05342178;-0.09713699;-0.12696354;0.04135848;0.068814695;-0.096377105;0.12289519;-0.11184336;-0.061015975;-0.029344693;-0.031123787;-0.015993848;-0.0081759235;-0.013562266;-0.09278468;0.010643817;-0.14534287;0.051433217;-0.030231858;-0.017932232;-0.1070191;-0.08519645;-0.04711726;-0.13477555;0.07271702;-0.06492857;-0.013896518;-0.1917311;-0.09766644;0.0069406107;-0.007391588;0.1778905;-0.01830051;-0.0273883;0.06602291;-0.072305776;-0.11666344;-0.15451948;-0.04250477;0.025338588;-0.119992785;0.05021089;0.022699822;-0.034455765;0.06757294;0.016827077;-0.07305097;-0.016780226;-0.080227666;-0.03141677;-0.03423788;-0.13513356;0.11695334;-0.009352461;-0.08175366;-0.1066101;-0.013154052;-0.01480701;-0.23537844;-0.009630067;-0.043292385;-0.11063211;0.040254634;0.054503553;-0.030319909;0.046091285;-0.13002384;-0.07502679;0.055058043;0.042312216;-0.0440066;0.012306432;0.051359802;0.075982705;0.012468536;0.021888362;-0.16519344;-0.036068745;-0.079989694;-0.06481111;-0.10698263;0.09004062;-0.2538519;0.01616262;-0.05712079;-0.00966232;-0.007459963;0.032111876;0.00607555;-0.09398438;-0.18642366;0.019657278;0.04423398;-0.010882448;-0.024597073;-0.016833464;0.11391897;0.026752163;-0.05627062;-0.0501342;-0.08089866;-0.063357815;0.06456818;-0.12438484;-0.12138871;-0.020570902;-0.18939996;0.05365211;0.0059867064;-0.24619512;-0.028911168;0.0020258506;-0.1063335;-0.020331314;-0.011781812;0.056905963;-0.04171065;-0.10774034;0.0038663961;0.09422148;-0.022062104;-0.034343105;0.03761176;-0.017161025;0.03036559;-0.05663582;-0.09779532;-0.07551428;-0.18572825;-0.04346326;0.017546818;-0.04243656;-0.035422802;0.052433256;-0.07308607;-0.08543592;-0.031637587;-0.111907296;0.044635713;-0.19196722;0.108876936;-0.056455847;0.12259499;-0.061845392;-0.036056872;-0.20312178;-0.0968182;0.021664876;0.08236542;0.052312363;-0.04658244;-0.01654901;0.0125265;-0.053881556;-0.06259114;0.026988637;-0.10705113;-0.04172875;-0.07875946;-0.05880935;-0.050515756;-0.12487683;-0.021261822;-0.0673545;0.00653731;-0.0621028;0.0008893133;-0.0005871689;0.052595675;-0.1273375;-0.10633253;-0.15295418;-0.038470123;-0.042757835;-0.103774264;0.009296027;-0.13182181;-0.06065079;-0.08317394;0.012608878;0.13370113;-0.062740214;-0.1253321;-0.11976144;0.09588187;0.008922578;-0.12118837;-0.091010906;0.01873523;-0.11991433;-0.13125506;0.099369615;-0.039183382;-0.095562086;-0.10736084;-0.06810262;-0.03287395;0.013503902;-0.085547216;-0.059952922;-0.092181064;-0.04041343;0.096893236;-0.09507975;-0.100436926;0.046692893;-0.01603029;0.03534211;-0.112523995;-0.06836189;0.10681314;-0.07215562;-0.099017486;-0.06674532;-0.051910587;-0.021220854;0.005559505;0.025132738;0.019571025;-0.0429269;0.00023934612;-0.084425986;0.034507766;0.017755173;-0.13352309;0.11238851;-0.0924749;-0.18225183;-0.054025464;0.064616114;-0.06930694;0.03179502;0.13833348;-0.071061656;-0.11712608;0.10045703;-0.053732928;-0.04621431;-0.11509811;-0.057194848;0.05185216;-0.059381735;-0.15496135;0.10206966;-0.11327911;0.03569518;0.077505924;-0.08997034;-0.08058591;-0.09170789;-0.05996615;0.0037580626;-0.01016047;-0.031504218;0.047697145;0.010829252;-0.0838479;-0.054451417;-0.11006901;-0.11990941;0.00022554363;-0.04612473;0.0075098556;-0.021917839;-0.11596914;0.114615776;-0.08487234;-0.0952581;-0.05062752;-0.13059388;0.057947356;-0.08054629;-0.053211723;-0.0434146;-0.09718298;-0.038963865;0.031476773;-0.029838363;-0.18622756;0.084368564;-0.0583974;-0.100155555;-0.058546588;-0.08309662;-0.053938564;-0.14166245;0.04112893;-0.011529822;-0.13126078;0.06731856;-0.09383654;0.006459124;0.039378814;0.095846735;-0.030067552;-0.00786176;-0.05733677;0.03745604;-0.0761432;0.11164771;-0.15751094;0.10351127;-0.14540388;-0.03521493;-0.011425566;0.017972898;-0.09609226;-0.17150608;0.07812905;0.0063392324
-0.04965768;0.0079179;-0.088219725;-0.17230518;0.07350484;-0.062054597;-0.044936974;-0.07732082;-0.10209531;-0.044384412;-0.019007426;-0.041497175;0.00080583745;-0.15799168;-0.09675666;-0.14851102;-0.040961843;-0.14938022;0.03982667;0.049390055;-0.0833105;-0.051417258;0.092208534;-0.0058151805;0.08607291;-0.11350251;-0.18367645;-0.026157882;0.0024056341;-0.004729689;-0.08051158;-0.120634876;-0.043904968;0.04594814;-0.12998396;-0.12787883;-0.023252422;0.067553274;-0.024648678;-0.0041723093;-0.090861216;0.00884113;-0.019217065;-0.08981817;0.027395481;0.028519206;-0.12391057;-0.1236624;-0.107529424;-0.11646129;-0.0076111304;0.012583472;0.10378799;0.04266151;-0.08460486;-0.14117423;-0.1449814;0.03108587;-0.05933619;-0.014058844;-0.08605587;-0.070082515;-0.04646811;-0.003960564;-0.03690507;0.033131324;0.015254077;-0.023425713;-0.044006355;-0.06520968;0.059683323;-0.054270998;-0.03508658;0.08524989;0.0036996647;0.053093784;-0.07991972;-0.011246758;0.023740644;-0.17796229;-0.031416506;-0.05495952;-0.10895784;-0.064751714;-0.046115536;-0.04706163;-0.06558386;-0.09199736;-0.059269104;-0.02523412;0.02360313;-0.0804014;0.016471816;0.05960848;-0.06757593;-0.026227966;-0.0071584363;-0.124563165;-0.004439153;-0.13429669;-0.1559901;0.060454316;-0.06472188;-0.025607092;0.06112509;0.021731852;0.05932379;0.014863306;-0.113969386;-0.052680068;0.029227529;0.006586722;0.067686304;-0.008712778;-0.06704928;0.030700635;-0.009515228;-0.10829886;0.07039692;0.02636704;0.055034753;0.018408542;-0.027171891;0.022488521;-0.017696362;-0.03963623;0.00055265235;-0.09147644;-0.07557877;0.020696418;-0.08239912;-0.024312489;0.07365738;-0.0407065;0.016702874;-0.062282253;-0.11101939;-0.21103318;0.0046925885;-0.1239074;0.034957074;-0.0010703589;-0.04051309;-0.19145818;0.012749767;-0.069593035;-0.048080027;-0.08054605;0.056458537;-0.114339404;0.0629194;-0.054721724;0.03239896;-0.023955096;-0.017718947;-0.013931379;-0.11595666;-0.015352229;-0.013690992;0.03252498;-0.027808815;-0.14349346;0.01674908;-0.0048924177;-0.16585188;-0.00090669614;-0.06715259;0.002952008;0.09801668;-0.06807893;-0.05238302;-0.022387581;-0.031344824;0.029485334;0.013869447;0.03834351;0.015302161;0.044160325;-0.0022942876;-0.09840442;-0.034074977;-0.09606266;0.030200612;0.22000189;-0.08691288;0.050073694;0.03989545;-0.07927327;-0.03538658;-0.007970684;-0.040997654;-0.02365934;0.08263873;-0.10667622;0.039825894;-0.046469245;-0.07092728;-0.038992137;-0.11010706;0.009300408;-0.03200966;0.026591796;-0.07797919;-0.060408287;-0.00939424;0.017953336;0.14608933;-0.014448824;-0.081297114;-0.045921937;0.025933787;-0.018288676;-0.015824748;0.10179455;-0.03574891;-0.029687997;0.03775738;0.009323413;0.029536953;-0.10389245;-0.057547756;-0.03847201;0.016509373;-0.009004571;-0.056385197;0.002675262;-0.112597555;-0.2531535;-0.055066377;-0.006082226;-0.12510136;-0.017183144;0.011226155;-0.05376014;-0.050775923;-0.023867022;-0.060426816;-0.030335536;0.02037859;-0.02936483;-0.11310945;-0.094298154;-0.0045385235;-0.02591206;-0.074652106;-0.10463838;-0.089583345;0.05301928;0.091393895;0.025930444;0.026330164;-0.0838024;-0.04173515;0.002206401;-0.02823127;-0.10068729;-0.021766473;-0.01906958;-0.024422044;0.034787215;-0.0009600501;0.08985301;-0.046256673;0.031219194;0.0074334457;-0.02211717;-0.031598546;-0.11462739;0.00927138;-0.0051826644;0.13439944;-0.03891657;0.024669645;-0.02708953;-0.01647809;-0.12102249;-0.048406165;-0.106801026;-0.07517844;-0.061864622;-0.043772742;-0.10104765;-0.07083665;0.011807414;0.043124553;-0.06671264;-0.121924706;0.008125072;-0.0634676;-0.044291522;0.092293136;-0.058705773;-0.03964561;-0.082316905;-0.061179835;-0.0041022794;-0.0038708674;0.015574053;-0.10601845;0.04688535;0.017029917;-0.0044116694;-0.09099367;-0.09260674;-0.005375576;0.03485374;-0.084180534;0.045043904;-0.05694081;-0.079085946;0.05147125;-0.04757316;-0.070826605;0.06344868;-0.08756611;-0.093789354;-0.032909214;-0.11369116;0.100667216;0.07550661;-0.10963084;0.0012707289;-0.03630197;-0.08329688;-0.17393814;-0.122508526;-0.02573241;-0.076052405;-0.10622168;-0.0066323997;-0.19032635;-0.049767777;-0.11565938;-0.06556212;-0.101712406;-0.018531138;0.009856968;-0.024345024;0.039269526;0.017289767;-0.033462085;-0.029038278;-0.10481141;-0.033301897;0.035030026;0.024546148;-0.0027698763;-0.0027847083;-0.23149167;0.0072882725;-0.1562937;0.0175904;-0.07576806;0.00028409658;-0.13040996;-0.13001513;-0.20636287;-0.024935741;-0.033801123;-0.015157366;-0.1242372;0.005412182;-0.051480025;-0.02078046;-0.05131874;-0.0014288794;-0.12604249;-0.0070435647;-0.024722928;-0.003303925;-0.067671575;-0.0095184455;-0.11016172;0.14331287;0.012824505;-0.22796431;-0.013490567;-0.10147146;-0.07753205;0.030128485;0.034561604;-0.0051409896;-0.025389034;-0.10373123;-0.081806354;0.053345863;-0.13197732;-0.051012803;-0.07117557;0.04206717;-0.00092323666;-0.013038247;-0.04413154;-0.042666357;-0.22923791;0.0134207625;-0.09117729;-0.046193585;0.044557948;-0.034646463;-0.0739124;-0.11709538;0.038242288;-0.107427865;0.06403025;-0.10143886;-0.0042796046;-0.02153113;0.1378313;-0.10609502;-0.029450972;-0.23863038;-0.12064967;0.02434921;0.10725393;0.022406872;0.047131922;-0.07703432;-0.080090806;-0.054098282;0.0055847093;-0.036795646;-0.09759011;-0.086769946;-0.057677064;-0.06036204;-0.041997977;0.023482868;-0.09411682;0.02723045;-0.10018177;-0.013985757;0.07175317;0.03629835;-0.07940722;-0.19620879;0.028347922;-0.14640038;-0.0058848644;0.050666995;0.023320045;-0.074342825;-0.14156763;-0.018732397;-0.039644644;-0.01988138;0.077549584;-0.046787743;-0.040409792;0.026265172;0.06827855;-0.067439;-0.014632864;-0.078287736;-0.024266427;-0.10758493;-0.13485047;-0.017193591;-0.13557698;0.0025468806;-0.02976826;-0.039010435;-0.09357505;-0.034807272;-0.08509053;-0.046306167;-0.073035635;-0.13526261;-0.028121386;0.03685245;-0.05644231;-0.08369017;-0.061819647;0.005775759;-0.102213584;-0.06230712;0.11647437;-0.07146734;0.008863136;-0.07789289;-0.010277804;-0.09411844;-0.05340373;-0.03300332;-0.024732746;-0.13832359;-0.0054912874;-0.032433916;0.04294896;-0.0115806125;-0.13282824;0.0066465144;0.023158167;-0.0871702;0.005825176;0.04941948;0.0041049607;-0.028758205;0.116182595;-0.07010539;0.04086258;0.0043137907;0.005781111;-0.026312765;-0.041408055;-0.12141155;-0.025524762;-0.010586621;-0.049445827;0.016376961;-0.065034136;0.065771244;0.13136622;-0.023324557;0.009952154;-0.03318568;-0.066869475;-0.10612354;-0.029988516;-0.06901772;0.023108691;-0.0017184169;-0.06515142;0.06383686;0.020912888;-0.056592382;-0.052288517;-0.13426293;0.032878976;-0.103719324;0.01661611;0.029235644;0.0059735724;-0.02166459;-0.024845138;-0.041796356;0.05645682;0.023035733;0.03461083;-0.017332995;-0.07387048;-0.02202161;0.047358926;-0.030255593;-0.07992563;0.091431655;-0.10505086;0.014663074;0.048577406;-0.10356231;0.03338297;-0.12800285;0.08155213;-0.00030488198;-0.01730935;-0.050569095;-0.04803621;0.12411069;-0.07605389;0.093665406;-0.122468285;-0.0333804;0.004998544;0.086753726;-0.030397743;0.11449814;-0.24309255;0.07679104;0.002861376;-0.12756348;-0.0310829;-0.016828239;-0.09773755;-0.061680473;-0.0478066;-0.09512656
-0.06352465;0.013674985;-0.11792911;-0.11411027;-0.012884024;-0.0339125;0.081754625;-0.016768856;-0.040459733;-0.1385632;-0.037486333;-0.056599032;0.024554273;-0.061943114;-0.08510419;-0.12555617;-0.01959098;-0.027234366;0.045252547;-0.10166477;-0.019398892;-0.047272477;0.046134666;0.022996474;-0.033600483;-0.027654275;-0.06514685;0.04645612;0.008079168;0.026144568;-0.08104856;-0.031509623;-0.026829667;-0.07892158;-0.12059119;0.01941486;-0.0006822101;0.1287141;-0.021042585;-0.109293476;-0.13218652;-0.057934802;-0.07564012;-0.017430635;-0.06889552;0.12086966;-0.016605875;-0.049969908;-0.08543047;-0.06878086;-0.09533103;0.03338738;0.074368045;0.09135036;-0.12428168;-0.060405664;-0.15247755;-0.086472645;-0.11510921;0.014902254;0.07398369;0.009562027;-0.032575518;0.0097167585;-0.021823375;-0.029235134;0.028371686;-0.032819524;-0.041219853;-0.06145866;0.1158407;-0.036729775;0.037217505;0.060283404;-0.10826176;0.09080386;-0.039573114;0.023287848;-0.06300167;-0.17656484;-0.01908781;-0.076709814;0.018284818;-0.012679634;-0.054560162;-0.16446677;-0.08444789;-0.031068914;0.0023260599;-0.04606618;0.091703355;-0.041211788;0.07996482;-0.01082852;0.0100324685;-0.06020242;0.07381498;0.018997984;0.0092470655;-0.07061905;-0.016899558;0.027602866;-0.070175394;-0.053359214;0.039508753;0.03973183;-0.0489607;-0.029949171;-0.11933915;-0.05884831;-0.039470576;0.055875123;0.064854674;-0.042998407;0.014989506;0.026484385;0.030363033;0.018577449;-0.07569656;0.0099646505;-0.08028577;-0.02250103;-0.054301742;-0.10307409;0.033936884;-0.032914177;-0.07558682;-0.107035115;-0.09931211;0.023959022;0.03992703;-0.117311634;0.046041153;-0.078093566;0.09980827;-0.062469777;-0.06802599;-0.25567845;-0.08456425;-0.20520644;0.03822262;-0.0957707;-0.06270851;-0.30530718;0.041524664;-0.0018787439;-0.12531148;0.014324396;0.0029552325;-0.08617014;-0.037628;-0.050755206;-0.06146907;-0.08629848;-0.10481665;-0.073196284;-0.049153052;-0.13756573;0.05420309;0.01339784;-0.0683474;-0.048980262;0.057208735;-0.034601066;-0.15874223;-0.0948983;-0.02733363;-0.16080265;-0.025570871;-0.07244314;-0.09743669;-0.09941394;0.0021527077;0.0028067844;-0.09414787;-0.015887411;-0.046670448;0.0706381;0.043841366;-0.012730344;0.014070588;-0.056644905;-0.05535892;0.13226996;0.01722437;-0.096206635;0.031926204;-0.008823979;-0.015564255;0.04864487;-0.100032315;0.020361781;0.040276762;-0.06118791;-0.019648345;-0.013682616;0.041656695;-0.09816026;0.039873295;-0.1025271;-0.008678074;-0.066349454;0.07417553;-0.036901314;0.0072939843;-0.11904881;0.07601836;-0.07339012;-0.1550299;0.035474766;-0.021554451;-0.014036275;-0.048332877;0.023595022;-0.11435195;-0.13857108;-0.0737207;-0.04580854;0.15305738;-0.04025525;0.05260457;-0.009891551;-0.1324397;-0.0019553395;0.040852383;-0.100213066;-0.09190151;-0.16431472;-0.16121165;0.10893379;0.011199917;0.035547376;-0.13665377;-0.027214468;-0.11347153;0.05049288;-0.13699839;-0.13682827;-0.08508182;-0.03382067;-0.13926837;-0.027428374;-0.054333072;-0.12652437;-0.10717926;-0.13683696;-0.1375203;0.027592435;-0.032393165;0.037051238;0.012859416;-0.04532437;0.044960976;-0.04568563;-0.023777004;0.014222145;-0.0023702206;-0.03848411;0.0059155584;-0.04388157;0.060208097;0.15373984;-0.0035029203;0.0007667487;-0.12252364;-0.0011410519;-0.0952685;-0.15612449;-0.06360631;0.021478035;0.02177348;-0.078734085;0.108380124;-0.08890128;-0.009381423;-0.08031074;-0.05928851;-0.08173163;-0.03406921;0.004358984;-0.026594816;0.04304893;-0.10798818;-0.10310232;-0.07829583;-0.027154744;-0.09672926;0.054787524;0.047612567;-0.072159745;0.021022322;0.046687327;0.0244723;-0.17913707;-0.015988186;-0.048994344;-0.027810257;-0.014646596;-0.13174461;-0.10092949;0.13207433;-0.08217287;0.015069858;-0.018337307;0.028424133;0.111688375;-0.115456834;0.0016874718;0.009729862;-0.07600079;-0.011010391;-0.04276756;-0.007241235;0.042328034;0.03290266;-0.050966904;0.002419566;-0.14395028;0.08467105;-0.053333066;-0.027346196;-0.021354854;-0.11349827;0.023266442;-0.24303287;0.008614381;-0.06582438;0.038643252;-0.09831463;0.09203226;-0.0558432;-0.09227203;-0.045349892;-0.21202444;0.025353884;0.07230322;0.0028860685;0.0883108;-0.02621453;-0.06647562;-0.011969427;-0.09545669;-0.07608971;-0.034105655;0.045679376;0.0037649446;-0.104510084;0.09114726;-0.15843411;0.005987805;-0.047053378;-0.111261256;0.05500309;-0.11236612;-0.05052797;-0.10646714;-0.15687086;0.03288223;0.006608889;-0.10760779;-0.03621093;0.025103122;-0.04501794;0.006019792;0.08753942;0.055803668;-0.013888955;-0.019939516;0.06900825;-0.107472874;-0.09347382;-0.052480146;-0.13572036;0.15487838;-0.068271294;-0.16650684;-0.01565147;-0.08909748;-0.110449314;-0.09678493;0.0463507;0.0043842667;-0.084216274;-0.08428656;-0.05162078;0.019422956;-0.08531374;0.0042919605;-0.050939493;-0.03712053;0.045603555;0.033213794;-0.15658522;0.017317625;-0.2392855;-0.11287662;-0.037634596;-0.023680931;-0.09767515;-0.070662916;0.03646261;-0.05973814;-0.032284055;-0.004073091;0.035583884;-0.16367172;-0.0025717472;-0.095684685;0.06313758;-0.10805742;0.08235263;-0.25349787;-0.0008655847;-5.0505143e-05;0.16759148;0.16294548;-0.07667826;0.007295386;-0.04936765;-0.060383096;0.04573724;-0.06388151;-0.095247224;-0.037059635;-0.06597223;-0.109025076;-0.07800855;0.040014807;0.045963548;-0.015402484;-0.093136646;-0.09687513;0.0385262;-0.09222399;-0.09532742;-0.05136679;-0.09068759;-0.073209696;0.055858646;-0.051907763;0.065560155;-0.0344095;-0.059870005;-0.088042565;-0.06295351;-0.0676626;0.006865963;0.017296111;-0.046344057;0.005377467;0.09452214;-0.054262992;-0.106764644;0.0649377;-0.08349661;-0.16644935;-0.048168555;0.023797218;-0.09906021;-0.1317755;-0.12547311;0.04497574;0.0024503162;0.018551234;0.005515066;-0.11252076;-0.11071884;-0.11385694;0.043456737;0.020165034;-0.027830321;-0.03418504;-0.11403909;-0.00813232;-0.12961873;0.06619261;0.06185572;-0.061894163;-0.13177094;-0.08215595;0.011714367;0.03665556;-0.034981176;0.049984343;-0.06458005;-0.025779244;-0.062536076;-0.071202174;-0.056187548;-0.010762358;-0.019513475;0.08838511;0.021563675;-0.16472681;0.04117771;0.031196102;-0.034208246;0.036700547;0.16375163;0.08938257;0.023859655;0.059362184;0.027228482;0.08909776;-0.06718396;-0.1126839;-0.11916428;0.0030022087;-0.15383735;-0.002728498;-0.03119989;-0.001475433;0.044214625;-0.023134274;-0.03387141;-0.058450032;-0.0688027;0.057934474;0.013343466;-0.011096737;-0.058301304;-0.011187181;-0.11541989;0.061428025;-0.04116048;-8.89095e-05;-0.10539947;-0.07686477;0.0044194455;-0.04509023;-0.024021741;0.06710498;-0.048336063;0.0151401665;-0.038173944;-0.12832624;0.009800658;-0.05202221;-0.05591036;0.032012958;0.016920568;-0.088039376;-0.00052674237;0.017014766;-0.068602026;-0.0062469384;-0.2040805;0.001069212;-0.0024873903;-0.090824656;-0.0024308078;-0.20140651;0.14291918;-0.02127208;-0.15659313;-0.0074609686;-0.03481906;0.12878299;-0.07156004;-0.032592513;-0.036511973;-0.017292406;-0.014937626;0.06027686;-0.106109574;0.07270412;-0.14802502;0.057863057;0.001948653;-0.031834573;0.0013468389;-0.026688397;-0.077574134;-0.16340339;-0.028618474;0.04484671
-0.05750619;-0.030956058;-0.076747335;-0.05187962;-0.06213729;-0.018096343;-0.021438738;-0.10084593;-0.04755733;-0.1115055;-0.10511766;0.033656683;-0.006870571;-0.16273223;-0.08929521;-0.027069846;-0.05237377;-0.019477855;-0.019041471;-0.08540844;0.07140735;-0.10461231;-0.015191622;-0.0060078804;0.07514358;-0.090701774;-0.13409854;-0.012960961;0.015659226;0.0010148183;0.012432944;-0.088625915;0.0034991612;-0.10010797;-0.13238518;0.017565038;-0.020878486;0.05527658;-0.083703786;-0.096126154;-0.09124249;-0.09671783;0.04487914;-0.100772224;-0.05484537;0.08685069;0.029664582;-0.08557813;-0.05818159;-0.10827163;0.0116549535;-0.079145126;-0.03606359;-0.017197717;-0.099134535;0.010351843;-0.18525857;-0.052588858;-0.121589124;-0.017000586;-0.05685884;-0.043401457;-0.0763241;0.058285292;0.019067459;-0.07720959;0.015883015;0.020129569;-0.015076415;-0.18182085;-0.023712248;-0.09362313;-0.101690136;0.0707963;0.031805035;0.005616414;-0.15881738;-0.07944209;0.0653292;-0.09734176;0.037027232;0.03852885;0.027391408;-0.020973831;-0.058976237;-0.14445993;-0.035620835;0.04422288;0.020065162;-0.04103764;0.023884304;-0.008665884;0.009882327;-0.039643064;-0.08839276;0.045666907;-0.04224266;-0.1003727;0.053448115;-0.110587336;-0.084727526;-0.054118466;-0.089607246;-0.17680337;-0.058646828;-0.015774624;-0.030194653;-0.04455574;-0.123495266;-0.087404996;-0.06912819;0.044957742;0.13716513;-0.018037545;-0.09268965;0.036766313;-0.058928236;-0.07596852;-0.012318044;0.025439648;0.03610434;0.075933434;0.005179678;-0.0315451;-0.08757069;-0.11613598;0.05237887;0.016570494;-0.09271859;-0.06241927;0.031239128;-0.1251176;0.0053443494;-0.037617587;0.02829489;0.006782589;-0.059520457;-0.23869146;-0.15731241;-0.13313068;-0.018898582;-0.18218116;-0.09982129;-0.28936747;-0.05038349;0.032691084;-0.032625433;-0.0068267253;0.045838457;-0.06962383;-0.07438965;-0.07027228;-0.016091378;-0.07180636;-0.0018688164;0.023658525;0.03145653;-0.15006661;0.09180962;-0.052448757;0.06333519;-0.15922624;-0.066414475;0.022966467;-0.108869836;-0.12962148;-0.03252486;-0.14402977;0.06309012;0.06931211;-0.09955425;-0.12883328;-0.09004396;-0.107993506;0.0145524265;-0.03351385;-0.05431623;0.062590025;0.005788162;0.045699235;-0.0810599;-0.11851283;0.0021983157;0.07554674;-0.051448278;-0.025680033;-0.07680625;-0.066620246;-0.04299218;-0.07690576;-0.12161637;-0.010256584;0.11454801;0.010325174;0.085617065;0.05435775;0.05449543;-0.053090625;-0.0413112;-0.07121906;-0.009042777;-0.1189754;0.0686041;-0.057696704;-0.14425994;-0.05369433;0.09557679;-0.10671593;-0.049917717;0.0053128744;-0.00071970286;0.062754236;0.029391484;0.120472856;0.0009580077;-0.04935252;-0.007114922;0.022098526;0.0884548;-0.045196395;0.077797726;0.06194711;-0.11348549;-0.082247816;-0.057557028;-0.06281723;-0.108884014;-0.10595501;-0.18458724;-0.0542706;-0.12901278;-0.084790446;-0.08418481;-0.03750245;-0.055787433;0.0076984838;-0.034661822;-0.06442829;0.028929427;-0.04775167;-0.08935208;-0.07220774;-0.07032446;-0.08648151;-0.19322951;-0.02553118;-0.12962532;-0.053313904;0.112505235;0.049325343;-0.11189704;0.030113326;0.06771859;0.030165305;0.005737248;-0.075867735;-0.08045597;-0.030813718;0.067332394;0.013105669;0.037611302;0.10373968;0.039086636;0.014076103;-0.08257592;0.023121923;0.008459961;-0.020015577;-0.08460569;-0.014137175;0.108082786;-0.016875343;0.13233384;-0.12999396;0.03614026;-0.012264653;-0.110418916;-0.028635744;-0.11963415;0.06870711;-0.045393772;-0.045293264;-0.028396575;-0.01874392;-0.085835986;-0.056871157;-0.072878696;-0.03642534;-0.018172061;-0.14843403;0.08483476;-0.004689653;0.04017406;-0.10697301;0.02523214;0.0560428;0.018353783;-0.004790373;-0.060091253;-0.04415781;0.12637985;-0.023019634;0.0061467197;-0.08241229;0.04729072;-0.002114577;-0.13390744;-0.06934471;0.038403995;-0.09008216;-0.036470722;-0.02332506;0.037198056;-0.04246825;0.0124426745;-0.031920504;0.05354143;-0.13220467;-0.016482601;-0.0018367019;-0.010201427;0.08043044;-0.057470586;-0.0020584047;-0.24307398;-0.018560192;-0.060780402;0.022086661;-0.004501418;0.085285015;-0.00092543004;0.047557242;-0.11646576;-0.16002849;0.019361386;0.06712481;-0.019877657;0.10776515;-0.08778719;0.02435215;-0.005382173;-0.04037346;-0.106438674;0.036882438;-0.10669398;-0.013982628;0.02165557;0.14827286;-0.13900119;-0.06342085;-0.109916024;-0.10507737;0.019838916;-0.07158362;-0.04583361;-0.11488804;-0.14975014;-0.050490808;0.027253095;-0.059446324;-0.009917231;-0.114932865;0.031746116;-0.046159733;0.079574496;0.0073851952;-0.06859278;0.0013217393;0.061170265;-0.02075287;0.021743188;-0.012338456;-0.12301519;0.10357657;0.034316238;-0.18641895;-0.06389981;-0.041401077;-0.08520933;-0.044560365;-0.05707175;-0.037164994;-0.07021478;-0.0116317235;-0.10939195;0.067944214;-0.034479253;0.001805435;0.004572005;-0.03954653;0.058329225;-0.041598994;-0.1408799;-0.015730975;-0.117807314;-0.037709326;-0.04688921;-0.06235602;0.038691882;-0.09886803;0.0035727324;-0.0548361;0.084198266;-0.012515578;-0.028053218;-0.08235691;-0.019777782;-0.05260475;-0.022669576;0.008791391;0.008034893;-0.20190535;0.018801844;-0.062712766;0.0376846;0.14109734;-0.05844665;-0.065356;-0.07908941;-0.08148087;0.006207742;-0.049847327;-0.0683941;0.02469584;0.032278825;-0.037396606;-0.037641607;-0.029971272;-0.069126494;0.03591501;-0.051893257;-0.04930762;0.01037734;-0.10748347;-0.066702105;-0.17643902;-0.1097784;-0.105891064;0.0053677093;0.0017220245;0.056867097;-0.06875003;0.005031873;-0.0053031812;-0.07066302;-0.065374985;0.09806607;-0.07232238;-0.09582782;-0.09594817;-0.01558816;0.021470955;-0.06253246;0.015684607;-0.10953187;-0.14635327;-0.044772528;0.05022812;-0.13883097;-0.027153507;-0.055190187;-0.045122135;-0.03550973;-0.048225053;-0.071851656;-0.18040381;-0.11995859;-0.12927583;0.05959656;-0.0968121;-0.06761858;-0.037599124;-0.08875024;0.061333872;-0.11217969;0.061200894;-0.021148674;0.031893812;0.02264701;0.012377079;-0.08287981;-0.026754439;-0.095234185;0.04129667;0.02458305;-0.13481922;-0.024030412;-0.052834697;0.020662291;0.036910243;0.029341262;-0.0099127265;-0.025061067;-0.20420489;0.008179687;0.07650483;-0.122205436;0.0518672;0.1299788;0.013255364;0.0012561014;-0.0068624197;0.0376189;-0.048286926;0.009351471;-0.07540004;-0.07062809;0.03697668;-0.08977393;0.14689897;-0.07481842;0.069162466;0.16926451;0.010445715;-0.063018635;-0.04080936;0.048053842;0.004103612;-0.07336864;-0.09876441;0.009292993;-0.09116308;-0.10990633;-0.021663876;0.04618568;-0.12935758;-0.060983684;-0.1486653;0.042247865;-0.121562175;-0.042696238;0.15503769;-0.017442053;-0.073216416;-0.0043881186;0.026478253;-0.0101586655;-0.032895345;0.03878659;-0.11210136;-0.033488795;-0.11818686;-0.009582159;0.018035589;-0.08163947;-0.0015240568;-0.15510154;-0.06742663;-0.06515052;-0.11238619;0.022163933;-0.044554107;0.013477196;0.011993205;-0.16976443;-0.043417092;-0.0743106;0.08242646;0.035024285;0.010137167;0.06480512;-0.057859294;0.014256909;0.08605197;-0.005806895;0.109006315;-0.14799812;0.17988113;-0.09602378;-0.10118447;-0.040176842;0.022627568;-0.11439747;-0.10328591;0.090121165;0.07807413
