Weights from input to hidden layer.
-0.052284393;0.27508253;0.26388147;-0.7412167;0.71524894;-0.047339577;-0.6511835;0.47132885;-0.2322681;0.49120098;0.17511621;0.12834358;-0.05430283;0.29257068;-0.004349032;0.24511474;0.049501088;0.0059566237;-0.15784954;0.20700933;0.09820195;-0.044574592;0.25981668;0.45519602;0.3147847;0.3979613;-0.47530726;0.23302281;-0.1091944;0.43651772;-0.017458946;-0.1578;0.06055536;0.0033608687;0.60587704;0.24403161;0.44459787;0.01627396;-0.25579813;0.64290935;0.8198778;0.010854004;0.12636963;-0.016251314;0.25700775;0.022780793;-0.024798915;0.06023887;-0.21918584;-0.006382762;0.22017065;0.23320107;0.55340433;-0.044353753;-0.33943787;-0.07391355;0.07805587;-1.0476825;0.29120806;-0.20043728;-0.062961265;-0.047234487;0.24427113;0.35668954;-0.056358658;-0.08716689;-0.04272444;0.7429067;0.399524;-0.040272348;0.24037391;-0.003411464;0.08578781;0.46764666;0.18870912;-0.1755385;0.018096581;0.11808717;-0.042588074;-0.036344413;-0.8430595;-0.08285627;-0.54089665;-0.04853564;0.09374094;-0.057405952;0.021137096;0.034503795;0.039258946;0.0058013764;0.028098516;0.3052691;0.0030172276;0.7499903;0.0010158261;0.3142275;0.12899908;-0.14210974;0.38619527;0.31838605;0.15785001;-0.04369907;0.08899393;-0.15821816;-0.33199066;-0.025465531;0.0397812;0.3109676;0.08368407;-0.07330774;-0.4256296;-0.12008871;-0.11053786;-0.054596514;0.67579824;1.1087219;-0.108924605;-0.045709845;-0.13475409;0.013563921;-0.19095638;-0.0019990404;-0.034869198;-0.1935395;0.6945611;-0.15533872;-0.11412664;0.6583985;0.39840543;-0.026874596;-0.24392696;-0.034732673;-0.10242085;-0.21824028;0.110071905;0.31364754;0.035715386;-0.141202;0.09130589;0.08043715;-0.072064936;0.13463172;0.7651313;-0.29794753;0.11655157;-0.026785502;0.16019587;0.39580905;0.2759454;0.12716399;0.7711531;0.31345034;-0.7098001;-0.18562594;-0.18506972;-0.016149918;0.008319477;-0.05845891;0.044408813;0.5885738;-0.047861353;0.061431076;0.13719906;0.02260231;0.057036098;0.3555235;0.6625902;-0.030435711;-0.023101622;0.08178417;0.18843749;0.08146872;-0.058733802;0.98598176;0.39965945;0.58418787;0.023971813;-0.18923351;0.046497073;-0.33953315;-0.04527513;0.4004151;0.026858397;-0.3104467;-0.055938616;0.09282335;0.5247916;-0.2090694;-0.7061987;0.0014544306;0.10784797;-0.10226296;-0.117281705;0.65537953;-0.030468034;-0.021627076;0.01225335;0.23294498;-0.04302744;-0.23260646;-0.13046633;-0.017184734;0.28246972;-0.68268776;0.19109091;0.024847116;0.18763387;0.19119821;0.5872824;-0.062932946;0.21472712;-0.12765165;0.19353224;-0.8375111;-0.15678541;-0.3740092;0.05677192;0.3261511;0.90199965;0.07409644;-0.19782846;0.00095144013;-0.031232707;-0.36336637;-0.3596753;-0.34915602;-0.007089601;-0.02048998;-0.25815544;0.24095808;-0.41902444;-0.4667263;0.054015905;0.1935994;-0.18566939;0.06729257;0.49527475;0.3271562;0.36751866;-0.19586262;-0.23865722;0.009639353;0.56436944;0.16116776;0.31967047;-0.5012595;-0.0504198;-0.048294194;0.052562878;-0.43758658;0.01310682;0.5940227;0.36568245;0.4817387;0.17309374;0.66597146;-0.24895449;-0.085757755;-0.44945598;0.31085625;-0.19220737;-0.104655;-0.3326138;-0.045465574;-0.0153358765;0.42660218;0.30734283;-0.23423997;0.5118114;0.080559164;0.010957269;0.6099449;0.4643469;-0.070145756;0.014562737;0.54405963;0.23693165;-0.5424825;0.6967674;0.26118383;-0.24192902;-0.5263785;-0.000573678;0.012812885;0.47857848;-0.31694886;0.78484225;-0.527285;0.19354053;-0.06382417;0.1650329;0.15181433;0.005903314;0.13791893;-0.28392625;0.78335565;0.4101168;-0.0025713807;-0.5046784;0.6487134;0.03810301;0.24427254;-0.08091968;0.039626148;-0.23816322;0.13736016;0.86267734;0.06674012;0.20356146;0.15649009;-0.00044549583;-0.17106037;0.5591149;0.40208453;0.301565;-0.16072166;0.014939117;0.012782163;0.26901868;0.01584994;-0.56880033;-0.5247163;-0.04567131;-0.028341457;0.0594728;-0.48356986;-0.13152261;0.36085954;0.08849618;0.31538838;-0.014685888;0.04208551;-0.16126432;0.51232046;-0.1352618;0.015861645;0.009640648;0.8175203;0.04388233;0.06426886;-0.02345595;0.0569892;-0.07952364;-0.4165543;-0.044004526;-0.53998804;0.40696532;0.019380419;-0.018899292;1.0449493;-0.45882016;-0.11690227;0.18031727;0.41062024;-0.012900136;-0.25660014;-0.02028819;-0.009425738;0.06904816;0.112215094;0.77421176;-0.020541804;0.0061588353;0.06543006;0.48186594;-1.2732505;-0.064094305;0.49282384;0.11005436;0.017849678;0.34761193;0.18394019;0.018663855;-0.49032795;0.37626326;0.02967416;-0.3308018;0.06576704;0.8667262;-0.22262913;-0.049463816;0.0014132665;0.09118086;0.02878452;0.4691687;0.09827703;0.8174517;0.072181836;-0.005916513;0.50459766;-0.06091453;0.05872561;0.40410396;-0.16998795;-0.45802727;0.95765424;0.31206343;0.23903152;0.35933727;0.33935905;0.48938397;-0.026127722;0.04014269;-0.005798483;0.07086591;0.046071663;-0.20107348;0.24955033;0.048125427;-0.21114509;-0.39489207;-0.013799447;0.27826974;0.26387024;0.0023293404;-0.059338022;0.5150144;0.5807332;0.7969387;-0.019578097;0.46759546;0.22703193;0.00058223854;0.033176042;-0.5296505;0.037426386;0.009156113;0.2776395;-0.3067432;0.014920597;-0.044008013;-0.19213323;-0.17249674;0.19753481;0.042040218;-0.01455737;0.29536116;-0.065260075;0.79263175;0.52501136;-0.37292644;0.06710181;0.032977004;-0.06758642;-0.0016913464;0.27669305;0.013346247;-0.008081251;0.09198261;-0.25446677;0.016913105;-0.046384744;-0.028247843;-0.27444267;0.2669275;0.011523767;-0.0357735;-0.2332178;-0.190054;-0.057805214;-0.3416555;0.6914846;0.05824434;-0.069638915;0.06311461;-0.024186675;0.5866176;-0.121249534;0.12938997;0.22723724;-0.00048605507;-0.39651915;0.19912316;0.0055517335;-0.046142347;-0.075753644;-0.86715215;-0.32867607;0.18593234;-0.018966215;-0.28141695;0.04315997;-0.032746054;0.028477648;-0.048614156;0.43729982;0.4631285;0.6218715;-0.6004913;0.07302963;-0.48846352;0.037009973;0.43326762;-0.034921978;0.027825354;0.016545627;-0.27166194;-0.015582024;-0.4732994;-0.03662053;-0.34030938;-0.13571149;0.11186893;0.6042968;0.34553364;-0.9412387;0.044441134;-0.057107218;0.26273993;0.090478905;0.59799486;-0.1494621;-0.15827289;-0.004289899;-0.11584374;0.59038264;0.16963692;-0.2391824;0.12018084;0.048310567;0.0029391372;-0.06878207;0.25831634;-0.49065486;0.08777514;-0.045742206;-0.061694916;-0.064329386;-0.06385863;0.46482632;0.014755769;-0.48254946;-0.0470654;0.05348225;-0.2786921;0.0021620665;-0.10079943;0.36384147;-0.2810748;0.3911545;-0.30197948;0.14362215;0.0064503592;0.1257643;-0.01800507;-0.023169631;0.18103465;-0.2316972;-0.056214113;0.17808467;-0.2724569;-0.031955816;-0.03771086;-0.0739934;0.14462283;0.75260156;0.03885851;-0.0058380975;-0.057690732;0.07655791;0.015754227;-0.001863229;-0.15719444;-0.17821343;0.055816986;-0.28853238;-0.062663056;0.26674992;-0.16970265;-0.36612886;-0.20241757;0.9103609;-0.38268092;0.0078350445;0.27823526;0.07399642
0.04714825;0.24710377;0.1154499;-0.5230742;0.49500585;0.050148074;-0.75650066;0.29943687;-0.19299969;0.3296107;-0.059699997;0.051040947;-0.24710645;0.424017;0.042031817;0.13608305;0.0069219493;0.043868046;-0.18424308;0.07346414;0.021331996;0.06328232;0.3361393;0.3366364;0.21791533;0.15652855;-0.50147617;0.00034574606;-0.18837689;0.32710984;0.085987315;-0.084658355;-0.101620525;0.04625277;0.6292507;0.17980348;0.48589084;0.053855147;-0.18548185;0.45057428;0.53194577;0.04940625;0.408135;-0.009453884;0.15198196;-0.05925882;-0.010522208;-0.016849764;-0.13154685;-0.020430055;0.16003378;0.394773;0.40114123;-0.18133822;-0.48844528;0.023592457;-0.072968856;-0.84191275;0.12322772;-0.115888655;0.009641175;0.092010155;0.050645936;0.35113767;-0.019628732;-0.11535794;0.012512139;0.63002163;0.30835947;-0.009916638;0.18943521;-0.06433525;-0.02826548;0.15722644;-0.06823452;-0.12144769;-0.030199673;0.2440112;0.01017401;0.059387363;-0.6196531;-0.06185607;-0.44803694;0.031343397;0.0027734227;-0.04809629;0.02014562;0.06957085;-0.07310392;-0.009752965;0.047684714;0.23174796;0.15425016;0.5985995;0.01856124;0.10551651;0.1642943;-0.17020854;0.36725488;0.056734804;0.12723263;0.049079448;0.11398326;-0.24873906;-0.16850713;0.052472316;-3.1255255e-05;0.18427846;0.059148785;-0.13913855;-0.18665962;-0.10187767;-0.085091144;0.11626696;0.49566355;0.96943545;-0.033026118;0.07546755;0.024158252;-0.038181163;-0.30580238;0.17281662;0.16143066;-0.10836653;0.6138467;-0.12509999;0.0076823626;0.48737356;0.2805757;-0.02146743;-0.3470583;-0.035960965;-0.14253461;-0.019165957;-0.05161561;0.20117143;-0.10447544;0.08804682;0.19819778;-0.057032466;-0.110615164;-0.051489145;0.61564344;-0.10495639;0.16142419;-0.01294449;0.02320127;0.28891966;0.16744147;0.010304165;0.60307515;0.43608642;-0.52436715;-0.20338394;-0.08535113;-0.052823436;-0.12588143;0.00441155;0.03698721;0.5077545;0.087574735;0.019474916;0.23069143;-0.07685271;0.13620614;0.14874187;0.31053138;0.020367602;0.049167626;-0.055354692;0.19791798;-0.004230823;0.049377646;0.6558865;0.36250493;0.54981434;-0.017619759;-0.030967135;0.04635809;-0.14941463;0.047074378;0.33784267;-0.14820999;-0.3541371;0.0028779444;0.16385601;0.30901343;-0.20595759;-0.69587743;-0.032876927;-0.050361138;0.012568093;-0.23510672;0.38287678;-0.16608137;-0.044494487;0.019859822;0.17889266;0.13560033;0.027830688;-0.18482105;-0.04349045;0.06389164;-0.45955533;0.062272474;-0.0025737295;0.19964518;0.062364217;0.36562714;0.019606482;0.24523711;-0.113410465;0.11829692;-0.6858237;-0.30982792;-0.23271652;0.08064158;0.09212404;0.697625;0.18214166;-0.10879915;-0.050015476;-0.020286376;-0.3182992;-0.33443;-0.23117661;0.042228393;0.02846055;-0.26890358;0.33552423;-0.49551922;-0.25241733;0.119112805;0.09708696;-0.09665896;-0.053645167;0.28506276;0.3826999;0.2061046;-0.065425575;-0.054244447;-0.0022928014;0.5390271;0.17948243;0.25823992;-0.32300767;-0.00519151;0.06225713;-0.08112931;-0.41202465;0.003968608;0.64715403;0.25728858;0.07990973;0.16071352;0.46581063;-0.059290387;-0.18977952;-0.38216543;0.115745656;-0.07738545;-0.0930578;-0.17168145;0.03269149;0.04486412;0.21717139;0.3835173;-0.44697043;0.38417175;0.006993731;-0.17450753;0.4753127;0.33512557;-0.07258341;-0.0015168248;0.65744704;0.119172566;-0.5214447;0.49353722;0.23461601;-0.26532978;-0.23941864;0.04500902;0.038877953;0.25505581;-0.29724786;0.67744595;-0.40340665;0.30131257;0.1525903;0.14635353;0.13240033;0.10636165;0.10684084;-0.23019038;0.577436;0.21635921;0.007399506;-0.61243945;0.38262352;0.009327391;0.3707559;-0.047756683;0.1313652;-0.15649518;0.18249556;0.7179133;0.25856227;0.11323806;-0.010359208;0.06841246;0.04113839;0.38059074;0.23047374;0.30453876;-0.17340745;-0.025893576;-0.042198088;0.2231541;0.04063067;-0.58519465;-0.4352785;-0.002273519;0.07094668;0.040829413;-0.30285767;-0.05126335;0.1881169;-0.056577522;0.33874628;-0.08894293;-0.009664692;-0.285175;0.3908955;-0.13870785;-0.03492457;0.0011424718;0.6670162;-0.0035505232;-0.036158018;0.047594767;-0.017184608;0.057404857;-0.4203876;0.053275257;-0.54633826;0.16846818;-0.021275895;0.0091869375;1.0057715;-0.29780066;-0.016794907;0.14432499;0.21983486;-0.023431161;-0.08348724;-0.04374875;-0.023390973;-0.12464706;0.23460689;0.58655787;-0.066450685;0.08294194;0.050236493;0.3042568;-1.0005832;-0.29337075;0.27690807;0.1474055;0.01744628;0.18882586;0.26086774;0.00324934;-0.53117657;0.33569396;0.022316456;-0.24114305;-0.018077604;0.6694128;-0.40571105;0.023900343;0.04086883;-0.072253086;-0.021117778;0.391302;0.18064263;0.6860731;-0.05199713;0.06820748;0.21805283;0.20293799;0.0500473;0.21321815;0.10974368;-0.43448874;0.7632475;0.39834195;0.34221172;0.16237395;0.24885933;0.31303945;-0.03729186;-0.031264022;-0.033224728;-0.052945707;-0.034387153;0.011729956;0.20581715;-0.022275846;-0.17667194;-0.29189575;0.0825693;0.07070548;0.14223967;-0.05518043;-0.12271736;0.34286636;0.64457893;0.5826873;0.035129994;0.21599954;0.3037324;0.13718922;0.23432519;-0.67891645;-0.040097687;-0.1827427;0.12128503;-0.22668299;-0.1534589;0.033905488;-0.37369356;-0.09885252;0.4230317;0.26552784;0.028384665;0.32966942;-0.062413026;0.54946685;0.39099836;-0.41542867;-0.0347533;-0.019255163;0.044358935;0.021702765;0.14175881;-0.08462298;0.012186041;0.20079327;-0.007551161;-0.041010294;0.0021238043;-8.7341265e-05;-0.47103485;0.25937545;0.073191814;-0.07652301;-0.021576015;-0.07019763;-0.031417906;-0.18825224;0.6241858;0.010190098;-0.029604934;0.32320243;-0.23432356;0.62493396;-0.10007331;0.29450455;0.24565972;-0.00520496;-0.4165788;0.15386349;0.044455305;0.0403454;-0.03763216;-0.724634;-0.29103422;0.2302232;-0.2421799;-0.244512;-0.0034347035;0.07272551;-0.0118589215;0.029648433;0.37427458;0.3819417;0.39226308;-0.47074324;-0.021280827;-0.49309647;0.0146191185;0.22592612;-0.0046526818;0.04479164;0.069487;-0.4989513;0.09418989;-0.58699965;-0.058098447;-0.28802082;0.009962184;-0.009679443;0.4410538;0.15099728;-0.8428858;0.017638318;-0.035223406;0.1699722;0.16203378;0.49828464;-0.2488154;-0.20505813;-0.029530175;-0.28452894;0.40429816;0.3266995;-0.11169922;-0.025094708;-0.10319035;0.0044939104;0.019113066;0.052079644;-0.4454996;-0.049418956;-0.047749523;0.04990746;0.035322543;0.050174557;0.37323925;0.10239316;-0.34993696;-0.16052152;0.09972212;-0.06261483;-0.06252762;0.13902374;0.09187626;-0.2745669;0.54058284;-0.23606464;0.086752586;0.039043684;0.12199258;-0.03543604;0.05589114;0.0036061248;-0.3484391;0.05429589;0.05881389;-0.45131868;-0.042989455;-0.09228291;-0.11640742;0.07817833;0.5194401;-0.16622372;0.022434697;-0.013648171;-0.10114075;0.24984728;0.009939445;-0.34027702;-0.06775925;0.14916672;-0.24518652;-0.054665085;0.06999451;-0.1592286;-0.30600494;-0.062653355;0.7146903;-0.36593315;0.044067755;0.21141994;0.065309376
0.02058002;0.2902628;0.106086;-0.32124886;0.44562644;0.050734017;-0.69673157;0.23814093;-0.23965155;0.22984572;-0.116186455;0.13870059;-0.28234345;0.45720214;0.0889716;0.21182615;0.07951569;-0.044995766;-0.3770543;0.112020105;-0.016404128;0.06877945;0.39820462;0.17539664;0.25794658;0.16395386;-0.40564877;-0.04517108;-0.012882708;0.18279015;-0.0025835154;-0.18550476;-0.10621238;-0.05105875;0.4026472;0.24536735;0.44868514;-0.047490213;0.02346093;0.24948789;0.374993;-0.00578323;0.40101206;-0.008220681;0.13712324;-0.012612554;0.012809347;-0.016257927;0.12872186;0.06317739;-0.02643823;0.53797203;0.23437263;-0.23197867;-0.45077032;0.12023636;-0.13793927;-0.7728873;-0.017861415;-0.060070943;0.021266827;-0.036313318;0.07468909;0.32599398;0.04964651;-0.09222254;0.052084394;0.45497409;0.40839043;-0.014353912;0.12277498;0.0411302;0.04648471;0.08698522;-0.02574546;0.0059033856;-0.0051192855;0.19351824;0.041318357;0.060452543;-0.55140334;0.045772783;-0.416265;0.03180684;0.077054024;0.06755583;-0.0020078486;0.0022941453;-0.045984432;0.099123865;-0.06970613;0.056885365;0.12656434;0.59336346;-0.06588268;-0.0092700785;0.1480536;-0.039768066;0.28740063;-0.10473795;0.032636866;-0.002715497;0.23980322;-0.19593038;-0.15844761;0.052990485;-0.084935375;0.23237383;-0.077798165;0.12041499;-0.20347627;-0.078649834;-0.02543908;0.21373309;0.38660884;0.7106768;-0.08255674;0.048253503;0.06598994;0.070679255;-0.40659198;0.2533854;0.096033014;-0.071462475;0.51757723;0.082577504;0.0039894506;0.47990024;0.17992756;-0.065980814;-0.32480937;0.08198043;-0.011367791;-0.015811777;0.0011806604;0.29673272;-0.19088097;0.21859308;0.012655061;-0.0010786158;-0.15418985;-0.051535264;0.5540221;-0.062250312;0.23387338;0.012881331;0.02817058;0.048538387;-0.06352976;0.004574913;0.47315228;0.33550096;-0.41681504;-0.1347845;0.0057548876;0.050190885;-0.110459514;0.014538951;-0.07110085;0.41825682;-0.03601868;-0.039524343;0.20821947;0.06434974;0.016665816;0.20788614;0.25927675;-0.030129807;0.059856005;-0.029197248;0.23203573;0.03523511;0.005659606;0.5155969;0.17720814;0.5026637;-0.047135305;0.0437894;-0.066772886;-0.10867026;0.037736163;0.2594416;-0.11518768;-0.32212076;0.2639998;0.117103435;0.20226087;-0.2930312;-0.5968489;0.024476698;-0.04348015;0.016211625;-0.25247583;0.36964378;-0.06147538;-0.028769357;-0.024124825;-0.037252657;0.22193564;-0.013573353;-0.099895656;0.06507921;-0.044592425;-0.37342867;0.14558136;-0.011392133;0.31570315;0.06628651;0.40887666;-0.021964079;0.22867297;-0.057916112;0.120837756;-0.439335;-0.12925513;-0.067714006;0.12459566;0.06629688;0.50699586;0.2908214;-0.026611887;0.03318118;0.07520426;-0.20983087;-0.20845799;-0.15661383;-0.041456353;0.013209289;-0.17870143;0.21026722;-0.40914503;-0.36474472;0.12918466;0.15194935;-0.12516893;-0.010835537;0.34224114;0.2896855;0.21301629;-0.10173808;0.14435221;-0.016388943;0.4573577;0.259969;0.054143008;-0.23832746;0.019715717;0.03846388;-0.23623665;-0.49209544;-0.062340774;0.5204972;0.31916422;-0.054679494;0.05042581;0.34804115;-0.034313;-0.105910294;-0.3495048;0.0975248;-0.19625701;0.034053575;-0.059796777;-0.01019279;0.013052285;0.08256583;0.32256952;-0.42619905;0.45088002;0.024699138;-0.1626311;0.56850475;0.3066599;-0.21643195;-0.05048177;0.4587227;0.04435566;-0.30979627;0.33761206;0.3441435;-0.2186768;-0.17460714;-0.014489482;-0.08133594;0.18714683;-0.388101;0.4812562;-0.41875634;0.48382926;0.13402806;-0.0064948476;0.096211776;0.13540863;0.1763876;-0.13436337;0.51617783;0.12829979;0.03502115;-0.46632564;0.34784782;-0.052045804;0.4586908;-0.26738605;0.19277647;-0.115700364;0.17591187;0.65378726;0.24424663;-0.032785006;0.18327107;0.0382217;0.11282026;0.321983;0.071291015;0.19809729;-0.051378015;-0.027601674;-0.051252503;0.07578694;-0.019480305;-0.4763058;-0.34837443;0.0758247;-0.005956455;-0.045133702;-0.3372489;0.0051447293;0.13364151;-0.042156376;0.38603;0.017127745;-0.060425658;-0.10078809;0.4550023;0.011706207;0.042511143;0.16434334;0.52305144;-0.058027487;-0.015399516;-0.011243764;-0.038094856;0.09378572;-0.333025;0.068056315;-0.49125323;0.0074412036;0.021727122;-0.008324599;0.77021873;-0.3298757;-0.08534712;0.0890229;0.32108387;0.019014144;-0.07890225;0.070113346;-0.003980446;-0.16434464;0.22931297;0.5593676;0.017363211;0.25481063;-0.020002779;0.26110756;-0.83656305;-0.3970733;0.05964927;0.2065147;0.0471036;0.113841236;0.1305069;-0.014159547;-0.5226624;0.3668453;0.017487131;-0.31656617;0.007550976;0.473027;-0.3481134;0.055404015;-0.05624897;-0.20345896;0.021930028;0.39359936;0.30596295;0.56067634;-0.01148093;-0.013602972;0.19668736;0.33644944;0.11831243;0.23659888;0.18753849;-0.3137418;0.610991;0.44232112;0.32409915;-0.0245558;0.31664702;0.20354626;0.08179952;0.03694329;0.014345856;0.041640893;0.04873695;-0.05336943;0.21671933;-0.055821683;-0.26818153;-0.18315195;0.011652216;0.17223755;0.14446628;0.05225787;-0.053623483;0.3073398;0.57536674;0.5379996;0.096302554;0.10639959;0.36622536;0.19689809;0.28235283;-0.6629026;-0.044113826;-0.2748906;0.019011322;-0.07526021;-0.3431795;0.03443431;-0.42974567;-0.03159857;0.39134142;0.24992973;-0.09315201;0.5225974;-0.03898283;0.48413414;0.40862352;-0.43498698;0.004535903;-0.22520728;-0.07431222;-0.0037746974;-0.009938648;0.0070511787;-0.028387919;0.29211038;0.102213345;-0.021144144;0.0144502055;0.012222805;-0.39398077;0.071011685;-0.024966907;0.08699218;-0.07257878;-0.0036053818;-0.010177503;-0.19365095;0.49895275;0.016464649;-0.12212896;0.26672846;-0.3861342;0.4324956;-0.026532784;0.46039072;0.21076106;-0.029765893;-0.27832833;0.06527115;0.007290362;-0.004422479;0.009941679;-0.6929489;-0.41268393;0.061355907;-0.24364771;-0.12609267;-0.0122163985;-0.0017519589;-0.17639937;-0.026106644;0.2660807;0.18537237;0.395222;-0.29583633;0.064008795;-0.45028436;-0.05438246;0.15362541;0.052307982;0.049473967;-0.044791687;-0.5467816;-0.0061858026;-0.5872792;0.0111695165;-0.19843471;0.047171544;-0.03668237;0.23324229;0.026256392;-0.6403146;-0.025485616;0.086715944;0.024686864;0.17916316;0.37257257;-0.22413102;-0.20348652;0.08105618;-0.29984146;0.47875997;0.29408875;-0.2124882;0.027864756;-0.104604065;-0.0158179;-0.025106177;0.027547697;-0.3005673;-0.024765357;-0.046233807;-0.04525992;0.009391204;0.019764837;0.26456264;0.03975508;-0.18554279;-0.10192509;0.1606267;0.17080122;0.026631841;0.10950055;-0.0039289426;-0.32038692;0.46821657;-0.28568578;0.026899109;-0.027480386;0.088121064;-0.1158477;0.04470102;-0.14839871;-0.1687854;0.20305145;0.09306792;-0.26946804;0.030575935;0.023881808;-0.05361196;-0.1137199;0.3900909;-0.22580647;-0.06429024;0.103156134;-0.27142832;0.13047682;-0.03188578;-0.43125728;-0.22752598;0.18619631;-0.16139886;0.018767498;0.009196511;-0.18618841;-0.25999603;-0.06559797;0.71212316;-0.3196261;-0.030531924;0.32507795;-0.017581759
-0.07345566;0.15859672;0.11082549;-0.23668556;0.28495753;-0.026462879;-0.77167195;0.23047724;-0.20380168;0.098021515;-0.23685482;0.23612973;-0.36469376;0.5397756;-0.059038207;0.12943949;0.09471582;-0.049411763;-0.37042716;-0.032766707;-0.07199294;-0.07755432;0.4825301;0.197476;0.068356186;-0.010170178;-0.4695851;-0.2909982;-0.034052677;0.035789285;-0.06780576;-0.017240461;-0.037986632;0.0067705484;0.4740944;0.19322063;0.42490608;-0.05763355;0.054754533;0.06875514;0.19090915;-0.052822433;0.4732391;0.07678548;-0.004821153;-0.0053650984;0.0025035234;-0.006640197;0.07559568;-0.017353334;-0.12097627;0.5108091;0.082152605;-0.3713882;-0.28590035;0.25242716;-0.120165735;-0.67472357;-0.16823275;0.082651205;0.054239858;-0.009209899;-0.13192627;0.3784408;0.054767914;-0.08388984;0.029398564;0.51451486;0.26316527;0.038794104;0.09862569;0.019145075;-0.06908538;0.021005748;-0.03692159;0.087996;-0.032442573;0.094636455;0.015132072;-0.014909565;-0.52630776;0.007657946;-0.22820179;-0.03135371;0.017949745;0.062119186;-0.067968756;-0.058422815;0.051852573;-0.048205394;-0.14202237;0.11110851;0.12108289;0.36659878;-0.06618774;-0.21947241;0.059696935;-0.107589215;0.300747;-0.083205305;0.009604711;0.0632635;0.08313721;-0.122886546;-0.016613431;-0.022062924;-0.05749243;0.18671384;-0.14689998;0.074759685;-0.100299545;0.038567644;-0.12616538;0.25424153;0.26848313;0.5475253;-0.021759838;-0.02307528;0.039461456;-0.04958518;-0.41028947;0.20024328;0.3152567;0.019136248;0.40936312;0.0596254;0.015057575;0.4073138;-0.0031775099;0.04435272;-0.4216701;-0.043346006;-0.067518674;0.07262414;-0.025190089;0.18873203;-0.19451854;0.26461384;0.07438457;-0.0056463555;-0.13458651;-0.13410991;0.34006086;0.003437308;0.21460597;-0.02901558;0.020391446;0.01908558;-0.17187;-0.072470725;0.34028533;0.38536936;-0.0691948;-0.013120031;-0.080035254;0.039026257;-0.15388724;0.024160594;0.047739632;0.47900096;0.059737626;-0.039363373;0.29243296;0.027612736;0.08947016;0.019352814;0.18989472;0.049832217;-0.07280959;0.052943297;0.20675209;-0.07867595;0.05394765;0.36533892;0.2106328;0.33770224;-0.05706231;0.173636;-0.059979126;-0.11063987;0.015596849;0.103826076;-0.23357584;-0.4246017;0.26948184;0.1443112;0.020236002;-0.27399445;-0.54916894;-0.04636504;-0.04244354;0.08223268;-0.4043549;0.26632297;0.042783063;0.059860338;0.023763854;-0.17303355;0.2404228;-0.027634762;-0.19253571;-0.019465316;-0.037960604;-0.18431725;0.072863944;-0.029700125;0.40520236;-0.06544334;0.2956707;-0.014232943;0.10677591;-0.0061872303;0.14818947;-0.3236692;-0.20237318;0.03431413;0.17741646;-0.041811455;0.27870846;0.44468507;-0.033852138;-0.07326902;0.024248492;-0.1593358;-0.14735615;-0.06694417;0.029641202;-0.02354764;-0.20270796;0.04567136;-0.5239965;-0.23094022;0.19859171;0.037025016;0.05091906;-0.020634457;0.10385242;0.32128626;0.0969975;-0.01839598;0.17120275;-0.041650947;0.20871356;0.2544976;-0.021729758;-0.08228153;0.071302935;-0.022944564;-0.35723275;-0.445877;0.017488712;0.4122003;0.20221776;-0.09990903;0.03390919;0.24813177;0.035964787;-0.2427762;-0.108935095;-0.09091103;-0.2365397;0.09970452;0.05897351;0.018723166;-0.046660136;-0.06771046;0.35722283;-0.3658977;0.4157005;-0.09129919;-0.076793805;0.46224806;0.26098335;-0.13390647;0.04365489;0.6451665;-0.0133217815;-0.19360372;0.32824123;0.27833793;-0.21118173;-0.07876024;0.08427429;0.008476688;0.106596686;-0.38480562;0.25677395;-0.32455778;0.49303725;0.23839521;-0.08007445;0.14470178;0.05535181;-0.007434697;-0.28409344;0.4237118;0.16718279;-0.015131752;-0.47712848;0.21087527;-0.011155959;0.49751222;-0.33855182;0.19966564;-0.039959356;0.13437076;0.6359756;0.19800022;0.029658116;0.14675792;-0.020585774;0.025559407;0.32187846;-0.014664439;0.1989709;-0.056792162;0.058903504;-0.16867968;-0.0076100747;0.020036649;-0.33271337;-0.24980332;-0.067786716;-0.021795185;0.017524164;-0.21701038;-0.036801096;-0.063058205;-0.0018343164;0.23118936;0.079570375;-0.045301143;-0.15622924;0.26032126;-0.037993234;0.02764092;0.10619335;0.5051568;0.058471303;-0.029153505;-0.05104746;-0.050800875;0.1963378;-0.4040705;0.1437924;-0.5560761;-0.09643919;-0.083044186;-0.021151347;0.5477391;-0.31393895;0.023216913;0.051868483;0.33029816;0.03782708;-0.033254102;0.020470088;-0.0021014183;-0.19679464;0.30683833;0.37395564;0.03306386;0.2552954;-0.07408374;0.16628498;-0.6294101;-0.4664261;0.014651124;0.11735461;-0.07552308;0.040840145;0.10970355;0.033385895;-0.52033895;0.28442216;0.029610531;-0.24261121;-0.00065881957;0.305827;-0.27682456;-0.1051017;0.024739895;-0.20174274;0.020981926;0.22197078;0.2930034;0.38293764;-0.06475873;-0.07038602;0.101614825;0.26707506;0.012951774;0.09319742;0.123015255;-0.30116233;0.49344245;0.5007147;0.19752882;-0.15304242;0.3391676;0.10546126;0.030040516;-0.05092269;0.03697838;-0.06316882;-0.054861676;0.020468546;0.19763403;0.055823684;-0.23648451;-0.24113482;-0.022407858;0.04297808;0.15228046;0.012730406;-0.098243475;0.23276952;0.52206296;0.52465;0.15069588;0.02801417;0.35866663;0.3075094;0.4598968;-0.6914231;0.082625866;-0.18417847;-0.0018085059;-0.060489234;-0.4198777;-0.03673349;-0.44987974;-0.00679988;0.517987;0.42135447;0.048349604;0.6210109;0.034029037;0.24991077;0.29012728;-0.42861998;-0.026011523;-0.22924058;0.04306645;-0.007349798;-0.08871529;0.03303752;0.003050514;0.22671506;0.33506435;-0.028025528;0.018622957;0.0106747905;-0.43630466;0.060400225;-0.015933294;0.0046202713;0.067105606;0.056724034;0.13550207;-0.08108307;0.36211094;0.028127417;-0.11601086;0.27516222;-0.4018255;0.3014928;0.021084726;0.5284211;0.13085942;0.0017002434;-0.1769674;-0.0034094607;-0.08813127;0.05874196;0.056045547;-0.5052215;-0.37636966;0.05510609;-0.21361297;-0.093362845;-0.024704972;-0.052464344;-0.26854655;-0.0074715274;0.120932035;0.1825919;0.3877499;-0.2127838;0.04103431;-0.4773466;-0.035528038;0.13636884;0.03688541;-0.058565658;-0.052939944;-0.34862167;-0.07126664;-0.41276577;0.06324779;-0.18586335;0.064926796;-0.01702533;0.27799982;0.04542524;-0.55587786;-0.07032703;0.00040128184;0.04459587;0.2012473;0.31908765;-0.281305;-0.10503377;0.07383347;-0.4211451;0.5494612;0.20700245;-0.045081172;-0.08541983;-0.15800816;-0.050403863;-0.033735305;-0.007518147;-0.29600933;0.00054608047;0.05149507;-0.043796346;0.005122684;-0.0068116947;0.08133118;-0.0315873;-0.17553672;-0.12549391;0.15227294;0.22805102;0.046205055;0.24320722;-0.25749105;-0.3572825;0.5369616;-0.17630261;0.20427054;-0.049191974;-0.017379662;-0.039843723;-0.040607046;-0.22637881;-0.2821123;0.1072142;0.18168609;-0.2549273;0.06752736;0.06375711;-0.09279351;-0.15771681;0.34206006;-0.1421107;-0.014087951;-0.016958782;-0.30316734;0.24392049;0.04492629;-0.69030046;-0.13472109;0.24820368;-0.13838917;0.077214815;-0.040660042;-0.17743096;-0.17499068;0.048625026;0.5489384;-0.2338142;0.054798253;0.27431637;-0.08959445
0.0473914;0.23988567;0.006686608;-0.19654939;0.25636795;0.06783051;-0.6793226;0.23825555;-0.25147197;-0.0033050915;-0.31554934;0.20425063;-0.1687842;0.48227185;0.00398515;0.11808156;0.013295216;0.081415586;-0.4155345;-0.034462977;-0.051596936;-0.03141221;0.45145977;0.19813654;0.22117166;0.016709758;-0.39454323;-0.14230767;-0.001422332;0.23887995;-0.06529068;-0.05781594;-0.018867387;-0.007152392;0.46225882;0.15860486;0.3862997;0.0010738815;0.21728337;-0.059601523;0.1730185;-0.068583764;0.46369204;0.052855305;0.07974333;0.036372542;0.022289151;-0.03079135;0.2035863;-0.04211377;-0.018655805;0.651513;0.10480212;-0.3485906;-0.36898497;0.2057028;-0.06423188;-0.5164937;-0.14201933;-0.015479374;-0.033240877;-0.016424686;-0.10000671;0.37444845;-0.00019673546;-0.15504211;-0.023059597;0.30287513;0.3274396;0.06108295;0.09409377;0.06380445;0.015644716;-0.01195128;0.018464845;0.090000525;0.01903498;0.13216808;-0.0440726;-0.02102992;-0.5317086;0.021213891;-0.30934086;-0.026018467;0.039162114;0.029675782;-0.009335736;-0.049571533;0.0068031177;-0.08365322;-0.1259412;0.06594249;0.15053183;0.37020323;0.056618754;-0.18864498;0.059512347;0.055678856;0.27539483;-0.18381223;0.16811581;-0.032757413;0.1241084;-0.12305891;-0.024025477;-0.07225903;-0.13667786;0.33589602;-0.13058595;0.045595765;-0.07966915;-0.027563782;-0.170279;0.3573364;0.033341818;0.49029028;0.068606235;0.018785471;0.031830516;0.03146419;-0.26974225;0.38818076;0.24436945;0.050078567;0.33030698;-0.016819052;0.013798639;0.43502238;-0.07644073;0.014077614;-0.25561297;0.012502281;-0.097749956;0.020414004;0.0739858;0.29688993;-0.17925672;0.254348;-0.008103468;-0.09017087;-0.11154846;0.01695828;0.3156155;0.166471;0.20477806;0.09620725;0.06436613;-0.009903772;-0.2730158;-0.025421979;0.42556345;0.086556666;-0.07767138;-0.024618667;0.0057677645;0.0056824186;-0.13213432;0.06025503;0.012553523;0.5040439;-0.010418149;-0.0038555767;0.19982198;-0.0251895;0.1712938;0.09265839;0.039260972;-0.0021364898;-0.029559469;-0.031125711;0.29513618;-0.0043646223;-0.06938355;0.2001124;0.06516528;0.3637669;0.078825645;0.09755302;-0.059386708;-0.044003595;-0.11829243;0.26185635;-0.2251399;-0.24251679;0.28022826;-0.009904695;-0.05596125;-0.33325413;-0.36439463;-0.018489944;-0.05600833;0.04535024;-0.3154285;0.20880787;-0.014295744;0.041986343;0.03640489;-0.19450833;0.20747234;0.038917292;-0.118584394;0.023468839;-0.1215323;-0.14080752;0.16806333;0.025983179;0.5578302;-0.08533247;0.24389763;-0.0074517415;0.10101614;-0.024463553;0.028799152;-0.22687154;-0.221471;0.06467739;0.16921675;-0.15613995;0.2565847;0.44413155;-0.0094285505;0.040645562;-0.060791787;-0.06553535;-0.107745826;0.0040507726;0.037890982;0.018656813;-0.2199046;0.07146685;-0.27344528;-0.31129208;0.15348352;0.19221324;-0.020473637;-0.010508242;0.19808483;0.4431453;0.14537664;-0.17806935;0.19273014;0.045240976;0.25387907;0.22217901;-0.05360981;-0.078078784;-0.0029380769;-0.06034962;-0.2947749;-0.41727617;0.0218398;0.4497268;0.24948724;-0.020170502;-0.08558698;0.1835863;0.020233864;-0.10815015;-0.093857855;-0.15192035;-0.083490185;0.061153263;-0.06090081;-0.054252204;-0.038719486;-0.06501024;0.24307466;-0.5028594;0.3151404;-0.0058500897;-0.22744685;0.3363276;0.17502953;-0.21933204;0.050627038;0.44260377;-0.103150055;-0.17920679;0.22741452;0.26315266;-0.16638774;-0.11097862;-0.07401766;-0.020532846;0.10393969;-0.23909041;0.14201155;-0.24988435;0.51579696;0.22931376;-0.16753559;0.089540325;0.13047424;0.068937816;-0.16841793;0.46265566;0.17512734;-0.052249547;-0.3678809;0.36228114;-0.014781491;0.32628;-0.21988459;0.34134272;0.042505752;0.17697664;0.51877874;0.24670325;-0.007450788;0.2034759;-0.02507681;0.03592346;0.18289776;0.010865438;0.16737483;0.062173866;-0.04259979;-0.03822782;-0.13254522;0.010539458;-0.29165015;-0.20670182;0.043726973;-0.011375084;-0.016791236;-0.20254393;0.002852161;-0.09445191;0.043217834;0.32128054;0.013962557;-0.049869698;-0.10170645;0.24154592;-0.035472814;-0.054963507;0.033720065;0.37808132;0.02464428;-0.101435006;0.0032716347;-0.00574482;0.21998659;-0.38934946;0.1932464;-0.48969892;0.02681792;-0.013643461;0.037644446;0.43119302;-0.2858646;-0.0075770672;-0.02551041;0.2237082;0.016001347;0.026766626;-0.059309646;0.082894556;-0.04351432;0.34778276;0.47681934;0.018487344;0.28038096;0.02393984;0.13553749;-0.505817;-0.59560114;0.0082774;0.2956584;-0.04906038;0.08445339;0.17599677;-0.05475306;-0.40050083;0.35728228;-0.051820513;-0.20141147;0.09756683;0.13759913;-0.24479811;0.060135596;0.025619803;-0.22561309;-0.07282453;0.18859266;0.275406;0.28366116;0.071475446;0.06951035;0.074955106;0.24287835;0.10972223;0.047737233;0.0870432;-0.23635109;0.502583;0.5004736;0.21433255;-0.16504386;0.3142803;0.07662814;-0.0708526;0.014397275;0.02166171;-0.0363835;0.00025660192;0.01604262;0.11791738;-0.044179518;-0.23685293;-0.22160338;-0.026183574;0.05486586;0.2512589;-0.0108187795;-0.12921481;0.30185354;0.3852808;0.49264804;0.14056323;0.084291115;0.3011536;0.1941175;0.38882253;-0.54976374;-0.036780287;-0.14967507;-0.091132425;-0.048051905;-0.4207831;-0.011568298;-0.26926732;-0.034168635;0.5127056;0.42142275;0.028935518;0.6982212;0.021245923;0.26701495;0.30815735;-0.38800368;-0.023260618;-0.21687311;0.043860365;0.058119204;0.08976694;-0.023510903;-0.0034846128;0.20382561;0.29985103;-0.016600894;-0.022493405;-0.0267984;-0.278175;0.16486509;-0.025704348;0.004440685;-0.03229643;0.10297859;-0.02443275;-0.10505126;0.29741985;-0.10284272;-0.11261475;0.32160264;-0.3571645;0.24101076;0.04537976;0.44561774;0.07847143;-0.050186884;-0.14394604;-0.056983493;0.0030762765;-0.01932774;-0.0611067;-0.38688558;-0.32643685;0.024926838;-0.09707361;-0.1545731;-9.84816e-05;0.040114343;-0.29046306;0.02524358;0.19621645;0.107293464;0.30043417;-0.22171873;-0.021250352;-0.2832968;0.009163999;0.02848805;-0.022030123;-0.055283785;0.04598475;-0.25729766;0.03342989;-0.3712641;0.032322723;-0.25520968;0.09169115;0.12990959;0.28078747;-0.0157748;-0.4960251;0.020876523;0.06276828;-0.011166271;0.16630365;0.20705184;-0.2964693;-0.17246825;-0.040365394;-0.4192166;0.5021871;0.319287;-0.052400596;-0.024425311;-0.12424356;0.048394054;0.0004471294;-0.06251477;-0.21738331;-0.005141702;0.05137159;0.035250295;-0.019336043;-0.035956144;-0.038737632;-0.10670004;-0.011195891;0.026355702;0.12453644;0.20639877;-0.034207605;0.0800448;-0.38260296;-0.3665841;0.45611104;-0.15158287;0.20361677;-0.15774061;0.084259056;0.043149117;0.030242728;-0.23352645;-0.22335291;0.10505002;0.17692761;-0.21820553;0.0069028293;0.07187653;-0.18574545;-0.12428545;0.3599981;-0.2274138;0.008929687;0.020883633;-0.10840045;0.24180706;0.020583114;-0.54648596;-0.23750657;0.13534492;-0.18992071;-0.010029938;-0.016831797;-0.10771705;-0.16503315;0.041335404;0.46915898;-0.17257774;-0.0055031986;0.15133871;-0.0883244
0.04271195;0.2383766;0.058911037;-0.12622069;0.2267171;-0.06391632;-0.58317155;0.04024111;-0.15741087;-0.013962358;-0.22137262;0.28069636;-0.17763495;0.41124004;0.02623327;0.20586352;0.15194671;-0.061622053;-0.41649327;0.000724285;0.063809134;0.012873696;0.35669133;0.024164587;0.13273229;-0.04924964;-0.33069596;-0.2871799;-0.023510603;0.0941232;0.029548213;-0.1053861;-0.1291566;0.006956377;0.3427398;0.19702408;0.40600073;0.04547272;0.21863163;-0.06259989;0.13673325;0.059698336;0.39735764;0.016406417;0.032592803;0.02481824;-0.08021096;-0.024749981;0.19363223;0.047572285;0.05343654;0.5750195;0.14706375;-0.34024346;-0.18267468;0.1794214;-0.07659213;-0.36339802;-0.15945132;-0.07951242;0.031139735;0.0005516561;-0.19988628;0.38145056;-0.04218428;-0.13755237;-0.055114817;0.30481172;0.24950595;-0.046719663;0.15698206;-0.038959365;-0.04283142;-0.06073015;0.097293094;0.18523553;0.045018367;0.21553619;0.013127087;-0.010675035;-0.5645878;0.031578362;-0.281661;0.010844512;-0.16871521;-0.03800621;0.000120476325;-0.036483306;0.026903523;0.03967042;-0.09601599;0.03889147;0.035767075;0.27738225;0.057651114;-0.21507376;0.12388124;0.1104547;0.10731615;-0.1958472;0.19081536;-0.0708043;-0.025971023;-0.22988902;0.13591151;0.07375815;-0.10230777;0.18218644;-0.15571669;0.1274607;-0.14269029;-0.076900974;-0.19367494;0.3135711;-0.05008126;0.32790267;0.03176922;-0.073494054;-0.0038585227;0.031860232;-0.19796176;0.28796786;0.45352328;0.05137689;0.21212986;0.07715063;0.0074583846;0.5011318;-0.019149626;0.017032823;-0.19272563;-0.013676812;-0.04697908;0.039351717;-0.03982912;0.18979125;-0.31987658;0.26501432;0.121408045;0.04599907;-0.060484577;-0.006426325;0.42106447;0.11082814;0.041236226;0.018155692;0.064991966;-0.16993383;-0.31515977;0.043513928;0.37284347;-0.016493918;0.09766593;0.06413472;-0.10099546;-0.02885602;-0.057545736;-0.036709853;-0.047103476;0.32015276;0.0032772613;-0.017597783;0.26522517;0.013385031;0.091531284;-0.062568925;0.08946274;-0.05728659;-0.032471456;-0.013806202;0.35111827;-0.027290476;0.046686128;0.22606538;0.16765557;0.2222626;0.032920383;0.028631756;0.040600173;-0.014754384;0.017245581;0.23362598;-0.1829456;-0.24696001;0.39523467;-0.045617227;-0.023139264;-0.20839046;-0.2290185;0.04014287;-0.022352558;-0.08195093;-0.40394852;0.2633008;0.010502912;-0.010270988;-0.079825975;-0.22838208;0.28566253;0.12408289;-0.036434174;-0.032535966;-0.13760684;-0.1584581;0.110083304;-0.0009244432;0.5213609;-0.049130607;0.14786617;-0.048970465;0.12157835;-0.0012197244;0.08444573;-0.20775533;-0.05364856;0.1725852;0.22698003;-0.07002724;0.21476181;0.35429505;0.080814585;-0.012468075;-0.016346632;-0.058687728;-0.17624155;-0.025233172;-0.0454165;0.018058311;-0.17641523;0.056689713;-0.28468224;-0.24109143;0.09204998;0.07244222;0.014631978;0.056334812;0.121138066;0.39069128;0.092556275;-0.140765;0.29311675;0.060358595;0.14561106;0.22587189;-0.091126084;-0.08660876;-0.0366933;0.08931369;-0.38044062;-0.34597266;0.011454304;0.25245598;0.3906621;-0.033531558;-0.08522347;-0.007593695;0.018179735;-0.18235098;-0.06708326;-0.16182245;-0.083699845;0.18864831;0.050762735;0.04084017;0.053505875;-0.075005814;0.2926426;-0.5334353;0.43962607;-0.049024872;-0.15589868;0.40808862;0.2949014;-0.047679577;-0.070782274;0.5412279;-0.076263815;-0.11952655;0.320505;0.14871377;-0.18715869;-0.14254797;-0.005857524;0.038247995;0.09844056;-0.29018155;0.08444849;-0.15086363;0.46003643;0.21140483;-0.14815515;0.2045175;0.053873204;-0.052168693;-0.004054327;0.37194532;0.21766299;0.022344302;-0.31143507;0.33879054;-0.010460004;0.33784056;-0.31819052;0.3872322;0.045211237;0.1505067;0.39267108;0.36311662;-0.07833647;0.23313151;-0.040685102;0.08519274;0.22176287;-0.12100598;0.24867566;-0.08389758;-0.01855493;0.01972855;-0.2595731;-0.07369621;-0.1270883;-0.24254301;-0.049388222;-0.066584855;-0.029822143;-0.15280662;0.08871258;-0.26638353;0.014907503;0.28032756;-0.037314914;0.08464013;-0.028136138;0.19153465;0.123551875;-0.003926711;0.012660709;0.35377303;-0.08111873;-0.06945534;-0.011875678;0.017439516;0.1626681;-0.2691778;0.24815504;-0.45676485;-0.0949024;0.03462556;-0.064323254;0.34489173;-0.10865166;-0.041257802;0.12762201;0.31566772;0.050881796;0.02584362;-0.024307502;-0.033728477;-0.10087516;0.19496897;0.4575529;-0.006399455;0.22933778;0.003468443;0.16609032;-0.44172114;-0.57266915;0.0760585;0.20404272;0.0718236;0.1885154;-0.010047355;-0.01343224;-0.2315208;0.363943;-0.05972808;-0.0930555;-0.003853839;0.040292215;-0.28913656;0.03648535;0.011011351;-0.22298679;-0.02646166;0.22743383;0.24399672;0.24532804;-0.028270168;-0.058846895;-0.06509687;0.2791433;-0.0128569985;0.08215116;0.09537538;-0.13202773;0.40667164;0.5656995;0.12802488;-0.024515457;0.4139377;-0.05250984;0.040227458;-0.078838356;0.020962397;-0.04248562;-0.047878087;0.008240398;0.22735457;0.031052267;-0.20150588;-0.05509034;-0.041869294;0.18565306;0.30589634;0.080726154;-0.05440081;0.24451911;0.3431661;0.36628342;0.23722634;0.15333179;0.21894453;0.2465522;0.41378796;-0.4007293;-0.04382227;-0.15475462;-0.11992669;-0.108768694;-0.43798745;0.06729095;-0.3412947;0.18159072;0.48277444;0.42593467;0.0067951065;0.64318347;0.15391059;0.08133212;0.17317899;-0.33311862;0.007896524;-0.18949614;0.040193297;-0.09810678;0.07929703;0.03338154;0.0538843;0.106843926;0.45194373;0.016450105;-0.0018553582;-0.022877425;-0.32467166;0.12038673;-0.045069963;-0.048758768;0.024108741;-0.013893563;0.046239074;-0.0012066715;0.27443403;-0.06093822;-0.20617725;0.31559876;-0.2906198;0.13901058;0.012966247;0.5452666;0.1329121;0.07774699;-0.1173075;-0.013886075;-0.045853008;-0.05962668;0.037187424;-0.38687044;-0.3298076;0.014206582;-0.035653185;-0.09884382;0.011896009;0.00027030034;-0.14884125;0.074237555;0.13718992;0.04125774;0.38920093;-0.33964968;-0.023599433;-0.35516697;0.063592814;0.10832397;-0.039452646;-0.0812678;-0.05298047;-0.23298058;-0.013275404;-0.37783256;-0.029754533;-0.24444237;-0.015641568;0.1278811;0.23530732;0.0132987695;-0.43351763;-0.06794494;-0.06735249;0.015262469;0.16740112;0.28471205;-0.1146345;-0.12353232;-0.027635947;-0.37979394;0.33297065;0.2567216;-0.18202893;-0.05800041;-0.015843349;-0.018717691;-0.008331082;0.043793008;-0.24697277;-0.045360237;0.080259286;0.07849945;0.026861629;0.0072924183;-0.07382665;-0.09649075;-0.029297914;-0.090114884;-0.010791007;0.29520914;0.04905742;0.09294592;-0.39968175;-0.39747593;0.40678594;-0.11243076;0.22475539;-0.18616726;0.20716156;0.015957268;-0.04297814;-0.29795247;-0.15669999;0.116363764;0.2641371;-0.19712226;-0.031646606;0.0061132624;-0.23011774;-0.13149461;0.27574778;-0.08806288;0.051328447;-0.05397365;-0.24457891;0.121102855;-0.07715078;-0.52278215;-0.23465037;0.2734667;-0.19732708;0.042995196;-0.10620779;-0.095287845;-0.0020651144;-0.07384678;0.3990759;-0.0629687;-0.037276164;0.1346325;-0.011131431
0.034000162;0.19653313;0.042714585;-0.17661749;0.17491956;-0.036355574;-0.39661157;0.06259189;-0.077293;-0.08968329;-0.13960905;0.2507961;-0.2011739;0.34493977;-0.07281499;0.11404043;0.2531925;0.06640063;-0.36782885;0.0510984;-0.03145875;0.03501935;0.41558576;0.01596962;0.33169216;-0.060356256;-0.31920385;-0.15486917;0.13227248;0.18795313;0.051281158;-0.013027446;-0.15916957;-0.039811198;0.328014;0.11189894;0.4909758;-0.0057209544;0.20793293;-0.08363809;0.033721093;-0.017072326;0.34183747;-0.08014185;0.04295021;-0.017235084;0.05441259;-0.054858964;0.1248637;-0.06377256;0.018593566;0.4149361;0.023091482;-0.26733688;-0.19612828;0.09771856;-0.21316086;-0.27995265;-0.1399745;-0.09350965;0.0017568762;0.013090953;-0.37364313;0.37924415;-0.0047544385;-0.21092595;0.0299668;0.16513951;0.3552509;-0.0399178;0.17842539;-0.0017007845;-0.049493104;0.038226947;0.10812631;0.18235193;-0.027057914;0.13192886;-0.019469472;-0.02146362;-0.4884697;0.047475632;-0.30111286;-0.020233903;-0.10597817;-0.032986883;0.0112949805;-0.019823635;-0.0078700455;-0.019458992;0.05387275;-0.030764403;0.08539647;0.27553678;0.06257766;-0.17139253;0.035601888;0.19660744;0.055330966;-0.16168906;0.12265654;0.03615925;-0.07906975;-0.07851994;0.09727531;-0.07711273;-0.15260556;0.24121468;-0.0006707561;0.11128339;-0.06459433;-0.042827822;-0.31174162;0.32950804;-0.14288819;0.4089904;-0.048491947;-0.048825476;0.06975517;-0.06507664;-0.21846713;0.27945092;0.4101652;0.16100536;0.17890392;0.0062230574;0.06637245;0.37856087;-0.16229941;0.03289765;-0.18402568;0.02237518;-0.14526294;-0.048869025;0.004550354;0.2609787;-0.3296671;0.31345117;0.057372846;0.031385325;-0.10836937;-0.016681109;0.3187331;0.24284159;0.09188983;-0.047620498;-0.045873977;-0.21750553;-0.33548093;0.044677697;0.1724098;-0.116141595;0.1723881;0.08214403;0.013202248;-0.01681408;-0.037546273;-0.040491626;-0.020924384;0.37560344;0.009204701;-0.03615577;0.3664713;-0.051716447;0.16421539;-0.04553114;0.19317335;0.066283375;0.027861623;0.002993407;0.25735182;-0.078807846;-0.0036340258;0.1050656;0.16192605;0.17582895;0.0065225475;0.0588597;0.04101312;0.023932815;0.030119885;0.07539855;-0.0865276;-0.138838;0.39531648;-0.06698232;-0.14204854;-0.12722068;-0.1346619;0.019120412;0.013718643;0.026822876;-0.44041586;0.3442968;0.004285549;-0.054990668;0.010397762;-0.26833487;0.14433792;0.08163834;-0.008162253;-0.0082925;-0.008797689;-0.07498528;0.16749425;0.022599269;0.49790728;-0.1000249;-0.017194217;0.045468327;0.18733536;0.17883606;0.051797263;-0.13005729;0.01961289;0.278236;0.1617247;-0.1539108;0.12411483;0.4060302;0.047342457;0.05126338;0.04704069;0.08921337;-0.22482975;0.05033396;-0.020406075;0.020632397;-0.16744164;0.036559403;-0.37793374;-0.17449418;0.117604;0.012087922;0.09501848;-0.048358005;-0.060354777;0.53636247;0.20223135;-0.11867953;0.3561291;-0.024560867;0.13618866;0.25014403;-0.039268285;-0.015914407;0.017894724;-0.039564084;-0.40169367;-0.11165158;-0.046478342;0.28501406;0.2799077;-0.023301603;-0.0911563;0.026387788;0.14357702;-0.15723833;-0.04926619;-0.029813558;-0.13374741;0.15564202;-0.086125694;-0.03186149;-0.023671288;-0.19489044;0.16078204;-0.52712977;0.3036067;0.029442927;-0.25417632;0.39585677;0.3297112;-0.0010966423;0.048538864;0.449668;-0.009256464;0.057669196;0.2820328;0.04458973;-0.049912125;-0.11218063;-0.080712095;0.045460492;-0.013623995;-0.32167277;0.07697446;-0.08146979;0.58889085;0.21045512;-0.035056464;0.1673828;0.15720613;-0.011032125;-0.07372296;0.3517455;0.24959666;-0.0074559697;-0.17958856;0.18514879;0.025264522;0.25712553;-0.22550748;0.3583741;0.0034427596;0.053702753;0.4476023;0.4049375;0.008666988;0.22886883;-0.07589157;0.07567214;0.17519774;-0.069955245;0.17663743;0.12364264;-0.0016304756;-0.0024247896;-0.3378427;0.013455147;-0.1383466;-0.17254227;0.061800893;0.08427934;-0.04644835;-0.050142992;0.0026597364;-0.28787;-0.0498628;0.22402944;0.08455784;-0.028324405;0.05037268;0.25256756;0.016794935;-0.020143792;0.07452607;0.3122011;0.03870473;-0.030766055;0.01766712;0.076983504;0.039126754;-0.29652426;0.23431054;-0.2079695;0.006537642;0.03916748;0.041541472;0.16519552;-0.1326448;0.13727394;0.07661285;0.20014249;-0.09486096;-0.013020607;0.012133635;-0.03948358;-0.064644806;0.26264918;0.46011403;0.07934829;0.14571169;-0.08430907;0.20190558;-0.20032442;-0.58987045;0.07021826;0.18656091;-0.06683663;0.1590299;-0.054894768;0.023910815;-0.09555959;0.34660098;0.008054631;-0.11615511;-0.07309102;-0.060899895;-0.11047083;-0.0088595515;-0.01753452;-0.05046949;0.06310565;0.2651447;0.297625;0.20552579;-0.006349385;-0.027228963;0.0520202;0.22463854;-0.057167083;-0.0077055953;0.048246194;-0.19998719;0.28786168;0.534085;0.08711954;0.07208876;0.32649767;-0.011627445;-0.006267089;-0.0013352347;-0.0299361;-0.009496801;0.03593531;0.1078257;0.26306805;0.0406963;-0.2643237;-0.06017755;-0.063438535;0.14100818;0.3954995;-0.06172171;-0.17274189;0.21426418;0.23418547;0.33096364;0.24632853;0.21008891;0.22610648;0.24130896;0.42860287;-0.2900936;0.03913723;-0.1776401;-0.02560038;-0.022408985;-0.5191189;-0.039859418;-0.21576059;0.13168414;0.37317285;0.48459515;-0.029320717;0.6426295;0.1258998;0.0017859901;0.23188913;-0.4222808;0.009901244;-0.15780167;0.04123993;-0.029731538;0.03396224;0.019467665;0.015080002;0.101412736;0.45646286;0.086385265;0.07962219;0.064263165;-0.26467755;0.025609702;0.030412814;0.09343904;0.080575;0.06920258;0.008576276;0.03704204;0.18583089;0.0027461678;-0.24560991;0.4029584;-0.24027504;0.09043117;0.079195894;0.504138;0.07778451;0.08440565;-0.23110059;-0.03449914;0.03998737;0.0565097;0.08589356;-0.32503194;-0.30517185;0.10469869;-0.10082863;0.036487594;-0.041976184;-0.022676708;-0.20911823;0.025845254;-0.011934963;-0.017225746;0.28429484;-0.20640449;-0.08225466;-0.26852554;0.0023892913;0.014001021;-0.040410377;0.050352313;0.0027562478;-0.09409198;-0.04901557;-0.3283032;0.023675714;-0.2457402;0.012467526;0.083321646;0.24247743;-0.02136868;-0.38253018;0.01613711;-0.03934412;-0.0030164798;0.19830993;0.22227973;-0.13162361;-0.13011083;-0.065502375;-0.23824187;0.38344908;0.28304994;-0.041289087;-0.052399017;0.094730355;0.07944011;-0.023732195;0.10368816;-0.19618763;0.03781723;-0.010671625;-0.0628547;-0.023474222;0.03890641;-0.07978075;-0.10338151;0.14953779;-0.05734094;0.054945286;0.27481318;-0.015008593;0.07449274;-0.43285874;-0.55086476;0.3244005;0.001834371;0.21567686;-0.052051283;0.1864742;0.07983793;-0.027896445;-0.3010592;-0.0005717121;0.068471305;0.191135;-0.21232228;-0.00080199214;0.029474827;-0.17381114;-0.16641735;0.41468862;-0.15032656;0.058567856;0.0740177;-0.13612355;0.12843084;0.048547745;-0.6443938;-0.25869447;0.3183207;-0.14692542;0.022713447;-0.11783247;0.026277984;-0.04273871;0.024590412;0.2667393;-0.05174648;-0.071274996;0.13272968;-0.05894905
-0.01646088;0.11723595;0.0038208752;-0.11409109;0.33907926;-0.04415475;-0.30311877;0.024437958;-0.017127365;-0.004497815;-0.14898537;0.20587926;-0.08917029;0.27226576;-0.054347977;0.19900107;0.17909698;-0.0060760234;-0.3773169;0.037137087;-0.057836514;-0.050542768;0.35288054;0.16950071;0.343055;-0.05449652;-0.12685679;-0.21290427;0.039294723;0.24895518;0.06330958;-0.0457851;-0.07497876;0.017003924;0.24417724;0.1796138;0.5319897;-0.023848;0.2515742;-0.07225086;0.14534357;-0.01770086;0.31553563;-0.013172158;-0.08791317;0.014572789;0.03265017;0.056581765;0.17649809;0.027085124;-0.013237308;0.4208095;0.06809529;-0.20400608;-0.074111804;0.11530778;-0.16630843;-0.22066781;-0.17625177;-0.10576302;-0.013186139;-0.0026076543;-0.31992;0.4676297;0.035777427;-0.1046531;-0.0031991901;0.0366923;0.3032133;0.07860139;0.07115524;0.04795402;0.012572274;0.010516184;-0.0037226996;0.1872627;0.032273132;0.13247472;0.04738185;-0.0026658638;-0.56678;0.065029904;-0.29267186;0.05912892;-0.15127182;-0.06749813;0.010141226;-0.052820105;-0.0114417;0.034196083;0.2051134;0.112562396;0.052048177;0.25808504;0.026432354;-0.08387761;0.07554457;0.25919113;0.055548985;-0.08278211;0.17059632;0.014390428;-0.15319541;0.025010148;0.16996731;0.0004099212;-0.074788384;0.049277917;-0.010794569;0.11748418;0.06580634;0.040325347;-0.15674865;0.27237645;-0.13080646;0.28775847;0.047062486;-0.050672688;0.037633926;-0.010193303;-0.14830048;0.35239974;0.42581016;0.23105386;0.14255087;0.11823173;0.005648774;0.37580925;-0.06630082;-0.09353134;-0.132817;0.0321223;-0.124169596;-0.046229437;-0.059936978;0.25956354;-0.27293724;0.26750657;0.1477616;0.020350337;-0.05030414;-0.061955884;0.33380622;0.08203617;0.05209587;-0.013604647;-0.08933621;-0.20667516;-0.35348612;-0.040863067;0.2491943;-0.19226941;0.23915988;0.019280482;-0.016870944;0.009917078;-0.057113994;-0.029346842;0.010957071;0.23532528;-0.022138666;-0.00645573;0.4235303;0.038969096;0.23764427;-0.13987306;0.0875864;0.056286134;0.06826591;0.03976918;0.26500797;-0.023155812;-0.040856626;0.16980912;0.12502785;0.18308513;-0.012584948;0.09415195;0.007528056;-0.016776072;0.0150303105;0.048310068;-0.18797953;-0.072395176;0.32702836;0.04386051;-0.012407382;-0.20321004;-0.116673246;0.058435496;0.0625392;0.023757402;-0.40608615;0.21036422;-0.09120966;0.058911413;0.040223137;-0.23777382;0.09402557;0.0891951;0.05408555;-0.005111216;0.08000473;-0.088835485;0.036153186;-0.012848972;0.5026639;-0.04478523;-0.003782313;0.084792204;0.20489404;0.15408422;-0.0761579;-0.13717623;-0.02405472;0.40316126;0.10657218;-0.00928988;0.07823879;0.31450918;0.022940964;0.0782051;0.021996021;0.11687625;-0.1910782;-0.023234015;-0.06323418;0.018660728;-0.14720328;0.10471002;-0.25809127;-0.023822464;-0.052582994;0.11119854;0.085775964;0.02337734;0.07125882;0.52305466;0.07343154;-0.090100296;0.3514712;-0.029178983;0.105992146;0.34560677;0.05727127;0.021149304;0.053292125;-0.06368568;-0.45689595;-0.18305694;0.0098921675;0.20563845;0.28092733;-0.07352224;-0.02862835;-0.013248847;0.05672667;-0.10672583;-0.075785175;0.0063393377;-0.12806773;0.16218755;-0.037791517;0.029813383;0.0069555477;-0.054829527;0.3268905;-0.5209962;0.3316443;0.033572618;-0.10897467;0.3750077;0.22570814;0.058113426;-0.021031978;0.47242486;0.022698985;0.08797094;0.16345584;0.08729607;-0.10313703;-0.08287483;-0.034794524;-0.008569202;0.016140545;-0.26196826;-0.00069550355;-0.07835332;0.54991674;0.33405274;-0.07926267;0.066680476;0.068500265;-5.5000473e-05;-0.007868692;0.36161676;0.18803862;0.015742145;-0.16053216;0.19368558;0.022068927;0.2850686;-0.2884285;0.30120808;0.08114178;0.050971214;0.4464741;0.28661257;0.012999317;0.25141886;0.07140825;0.009814024;0.18171713;-0.043108877;0.22852793;0.15628648;0.040552285;-0.09921244;-0.23314269;-0.004254828;-0.050002668;-0.1847682;0.062576786;0.005106998;0.063005075;-0.1326874;0.032599602;-0.32254228;-0.0014830414;0.2416458;-0.044566702;0.081981465;0.14627534;0.14519489;0.016697459;0.06419516;-0.0010193776;0.27271974;-0.04291985;0.040087976;0.034628548;0.01681469;0.096137755;-0.17552389;0.19087283;-0.18555099;-0.018059423;0.044856362;-0.0097157825;0.14743674;-0.12918232;0.13546821;0.1804534;0.22853968;0.0011431986;0.00038133198;0.03349466;-0.00064930564;-0.0039403746;0.19690737;0.473983;0.029702092;0.10266226;-0.06851798;0.18254855;-0.14373246;-0.5856309;-0.0034604827;0.09302592;0.06697716;0.12408793;0.00512186;0.03396131;-0.07445375;0.2776136;-0.079684876;-0.16065899;0.04316249;-0.24385788;-0.13543193;0.05418821;-0.032205604;-0.044568185;-0.015294366;0.22147958;0.19938956;0.063579574;0.060629703;-0.078491636;-0.020677222;0.13074072;-0.03232306;0.08468121;0.011892686;-0.17649007;0.43988508;0.6346546;0.24175264;0.010912123;0.34788522;-0.046603594;-0.02406588;0.028947163;-0.056028213;0.06781708;0.09162626;0.08567385;0.14249288;-0.038994458;-0.14338693;0.050999116;0.0016148251;0.20610385;0.38287342;-0.05964066;-0.059075266;0.31143162;0.13827182;0.18818802;0.3860779;0.3155408;0.07544584;0.27243632;0.4172016;-0.29193622;-0.0058807526;-0.032443445;-0.020327987;0.0039300863;-0.38804883;0.04337566;-0.22729023;0.09362865;0.5096675;0.44016644;0.013491305;0.6893663;0.13208109;-0.05071913;0.21529476;-0.39070863;-0.021875272;-0.062415928;-0.013622259;0.0048407074;0.103905156;0.02895074;-0.015090702;0.03903985;0.5017211;0.05726564;0.009366215;0.017135106;-0.18112439;-0.065111175;-0.0340895;-0.036346994;0.17733757;0.09509969;-0.034503575;0.13872439;0.02046866;0.057209566;-0.1507494;0.39064878;-0.27382672;0.11375264;0.093476996;0.36743924;0.02734032;0.013051196;-0.20369492;0.10439178;0.06572738;0.0121885985;-0.026473269;-0.16792962;-0.3606503;-0.04077145;-0.091864266;0.021830916;-0.02700859;0.0013660649;-0.059756678;-0.052785624;0.08992239;-0.023829209;0.2829128;-0.21836016;-0.05988568;-0.1820253;0.021780664;-0.040801685;-0.032040156;0.021182202;-0.05088442;0.083561644;0.018884864;-0.36028644;-0.027763557;-0.33580217;-0.043119494;0.1693238;0.13445635;-0.020895349;-0.26674384;-0.0028018039;-0.047559377;0.048059005;0.16100024;0.2233837;-0.13526426;-0.16510338;-0.06700182;-0.25530827;0.28131092;0.35531127;-0.16319922;0.04224968;0.04273878;-0.024889955;0.059004903;-0.00503019;-0.11474704;-0.064988434;0.025096497;0.06167835;-0.03610227;0.004522699;-0.06107725;-0.092954546;0.13520539;-0.12348449;0.10771175;0.26454052;0.012107334;0.1385677;-0.45914948;-0.5116638;0.16384916;-0.013395311;0.2616865;-0.24669842;0.06597012;-0.07775843;-0.050803654;-0.319732;-0.09919575;0.1345807;0.18755777;-0.19322723;-0.0065563256;-0.034535848;-0.12909688;-0.21759173;0.2474492;-0.120820165;-0.04680848;-0.08343982;-0.20195213;0.20474485;-0.055938803;-0.55024946;-0.1494485;0.3548001;-0.15043889;0.050550263;-0.25708476;0.021547815;0.05309494;-0.113665156;0.26252174;-0.025792576;-0.015047662;0.00097442063;-0.013900824
-0.057150975;0.24780491;0.08376094;-0.14773215;0.26614168;0.049886476;-0.1971055;-0.002833008;-0.06849574;-0.014688606;-0.15404893;0.27724773;-0.3016885;0.13192648;0.015088109;0.32655033;0.18460135;-0.00077337795;-0.27901652;0.019183014;-0.0076903403;0.011373885;0.39656204;-0.00016690361;0.42928565;-0.08926081;-0.23514804;-0.051510576;0.11748372;0.22009961;-0.066057935;-0.050059874;-0.13358045;-0.014530959;0.22924152;0.16919419;0.5055056;0.058985252;0.15996802;0.007377852;0.058155734;0.056044403;0.37724915;-0.01521973;-0.09230504;0.038188946;0.0073024225;0.056505874;0.2778773;0.0776251;0.16857599;0.36564615;0.11352413;-0.18106209;0.021927258;-0.051261406;-0.3136249;-0.18747756;-0.16959596;0.018813089;0.07055808;0.04962368;-0.29420453;0.40533945;0.023500506;-0.1092164;0.026609955;0.22617665;0.24792464;-0.014411545;0.0819882;-0.06710637;0.0047013653;-0.022568258;0.09154121;0.25984073;0.0028937466;0.008439151;-0.060978208;-0.06576738;-0.3895278;-0.083547965;-0.2867676;0.02039515;-0.1509666;0.048349343;-0.04454533;0.0903212;0.006285103;0.024284313;0.113794915;0.083495416;0.10795984;0.21103433;-0.03740994;-0.088752314;0.06255642;0.2134576;0.022362366;-0.22155452;0.16613244;-0.057153612;-0.012763541;-0.14019978;0.25424707;-0.020426823;-0.020900121;0.015149372;-0.049981926;0.17860886;0.08440568;0.15325256;-0.15638529;0.43825042;-0.16677302;0.4027801;0.036875103;0.039731413;-0.1396772;-0.04736353;-0.23376067;0.34255853;0.46930012;0.13934454;0.24116836;-0.019336298;0.04486997;0.31532076;-0.077280276;-0.034045964;-0.016636595;0.016526466;-0.09603598;-0.018016377;0.021557763;0.17441854;-0.3277507;0.2245924;0.06764493;0.029635554;-0.13519795;0.08379368;0.36515597;0.13981731;0.073680155;0.055795263;-0.034599554;-0.11479341;-0.22058778;-0.10477093;0.171448;-0.31194264;0.087812394;0.13279383;0.01680754;-0.011193756;-0.1402284;0.081990056;-0.04580044;0.1721336;-0.06214074;0.020608703;0.41406274;-0.03664634;0.19229731;-0.224721;0.2713386;-0.039981935;-0.045805935;-0.0655166;0.32043576;-0.027311798;0.03798478;0.13467653;0.05100897;0.17547017;-0.009470623;0.13809638;0.0178643;-0.08128441;0.035297852;0.20348476;-0.12740596;-0.24832186;0.33780867;-0.086613;-0.22878416;-0.16856802;-0.16382803;0.055541426;0.04744424;-0.012590774;-0.40375727;0.34133816;0.081187434;0.05250074;-0.04062871;-0.22055763;0.0508447;0.20004986;0.028352408;0.059095785;-0.03090498;0.10452911;0.03420489;-0.032688517;0.43975347;-0.020748;-0.0711006;0.111248605;0.25250888;0.06404846;0.05805327;-0.028529083;0.072354876;0.45495442;0.10120514;-0.12994051;0.07898388;0.35385635;-0.009766205;0.013779938;-0.040217597;0.027754933;-0.06970861;-0.033834375;0.022983717;-0.045394592;-0.15686108;0.039365523;-0.27040836;-0.10386909;0.0047944724;0.07709731;0.17454275;-0.07030176;0.038214594;0.37004215;0.19392276;-0.062314935;0.4516662;0.04726322;0.06386495;0.20093764;0.19155024;-0.009418617;-0.046746954;0.027898092;-0.41004196;-0.102859564;0.0301333;0.06819981;0.37992197;-0.12015702;-0.119284034;-0.1057551;0.14804423;-0.045219254;-0.11954659;0.044019982;-0.13939002;0.1791288;0.065776944;0.057466317;-0.0405992;-0.052677274;0.16825166;-0.43615764;0.3119064;0.0058205198;-0.055424586;0.3870085;0.2732874;0.003730509;-0.050295897;0.3683244;-0.09388469;-0.012784291;0.16463628;-0.019876754;0.032750737;0.03825408;0.003298999;-0.033934854;0.08959272;-0.31415054;-0.12154857;-0.022326745;0.44826198;0.43073002;-0.039610542;0.15253529;0.053064562;-0.06573927;0.14129822;0.30741134;0.0721258;-0.007422559;-0.17950612;0.20614094;-0.02219951;0.16388182;-0.22890992;0.3482312;0.056445505;-0.0537421;0.34211904;0.28110898;-0.028736683;0.19500811;-0.05097876;0.068482846;0.13524915;-0.14713958;0.15690929;0.02511012;0.027799916;-0.1481329;-0.29261506;-0.0886427;0.08605611;-0.12910332;-0.02366937;-0.05998642;-0.011778204;0.08320228;0.052986965;-0.37712234;-0.034730565;0.22065045;-0.053336456;0.007100463;0.18992029;0.0749292;0.032408915;-0.014305825;0.13458818;0.16970924;-0.0037370238;0.20074743;-0.0024043783;-0.034591902;0.10233392;-0.089876354;0.20036672;-0.12698607;-0.01578882;-0.0892615;0.040103868;0.09427858;-0.15719567;-0.06713208;0.2459537;0.115062974;-0.0642119;-0.08603231;0.06342752;0.009696065;-0.005312547;0.09906622;0.47210252;-0.03360826;0.121184416;0.067891546;0.15382741;-0.09075187;-0.6514791;-0.08483215;-0.04887516;-0.012344969;0.25213113;-0.13139825;-0.039349686;-0.017533077;0.32771048;0.050838012;-0.14994965;-0.057703134;-0.13226539;0.03552187;0.015573152;-0.09578992;-0.12920393;-0.035292916;0.20897266;0.29014918;0.04318566;-0.07089545;0.055912714;-0.09003115;0.1425387;-0.13913651;0.045773104;-0.035393175;0.010235962;0.30117184;0.49787077;0.2274141;0.16901731;0.21152641;-0.1185187;0.032940287;0.057184573;-0.09145593;-0.016861558;-0.014053596;0.060634155;0.18070705;0.0030480577;-0.2203743;0.05845513;0.03388156;0.24238604;0.4039029;0.025810774;-0.09290431;0.2564948;0.21608138;0.1297946;0.34002414;0.41250017;0.048312463;0.060704492;0.53744316;-0.10191062;0.053290542;-0.14969131;-0.098972514;-0.17761429;-0.3885077;-0.06556882;-0.2262081;0.21239623;0.37942448;0.30976057;-0.0064133075;0.6458208;-0.05228256;0.0072552753;0.10361406;-0.26523098;0.010790407;-0.15129237;-0.0031757862;0.04381226;-0.03462571;0.00019098734;-0.046047702;0.0069510043;0.42936176;0.0074055367;-0.02926306;0.05182164;-0.079807915;0.003558778;0.010661637;-0.057441156;0.2104166;0.046931677;-0.026752159;0.020492593;0.07407369;-0.025343703;-0.1523818;0.4052188;-0.16268209;0.13605571;0.035990104;0.40483266;0.0831186;-0.045963954;-0.004097676;0.026566148;-0.06514409;-0.0023088763;0.08145927;-0.17111024;-0.29487166;0.03566841;-0.13570057;0.16461755;0.030152565;-0.05343688;-0.027199648;-0.06788529;-0.061314087;-0.07527854;0.21809596;-0.34131888;-0.029572375;-0.16749865;-0.03722867;-0.10453429;0.0947156;-0.062039375;0.028354574;0.2535945;0.01629067;-0.22528256;0.02309029;-0.20228782;-0.04838793;0.07291142;0.12894338;-0.14732286;-0.17366095;0.0628975;0.077369824;0.064172454;0.10056298;0.22944944;-0.13122308;-0.06380955;-0.020335402;-0.15407683;0.3053063;0.34050554;-0.11478146;-0.008316158;0.136405;0.02438419;0.05051405;0.019454949;-0.030651856;0.047830895;-0.011461974;-0.0009595771;0.038167916;0.0037573643;-0.080813624;-0.07798659;0.09535543;-0.112359;0.025472118;0.2568354;-0.08699821;0.08483388;-0.3015062;-0.5507085;0.16814281;0.03825047;0.16516674;-0.121607035;0.08789797;0.05828182;0.012199083;-0.2846415;-0.09053047;0.16976753;0.22792149;-0.058717716;-0.0141365435;0.08299583;0.023496246;-0.051547218;0.26173487;-0.19234444;-0.047305528;0.014741657;-0.22950962;0.26871887;0.06093793;-0.6206034;-0.10737624;0.4711982;-0.11076227;-0.029487861;-0.10252361;0.06773807;0.062054962;0.029401498;0.25091434;0.007865881;-0.05475886;-0.08961568;0.12688304
-0.024230085;0.1696277;0.052855365;-0.010755891;0.2406673;-0.05835719;-0.172177;-0.046259005;0.19154143;0.0907916;-0.09429757;0.11103124;-0.13636;-0.04811898;-0.0005932125;0.18717997;0.17825902;-0.06868214;-0.24544519;0.0052426946;-0.05023259;0.007020649;0.2649932;0.18292333;0.41269735;-0.0978648;-0.1595852;-0.0095341075;0.115244985;0.08034748;0.016816715;-0.05832889;0.080084406;-0.042416304;0.14194329;0.12919575;0.5978238;-0.023825707;0.2552777;-0.039827123;0.11250992;0.01985242;0.38132918;-0.0965691;-0.061782215;0.035276625;0.028207147;-0.017831411;0.28747192;-0.042190854;0.13831852;0.20115174;0.0070879837;-0.086881965;0.12865539;-0.0040612053;-0.26902807;0.011893072;-0.22141854;-0.0077810823;-0.01395352;-0.013813519;-0.23368654;0.34580728;-0.06269924;-0.1993265;-0.057521403;0.09695794;0.36041945;-0.06735627;0.06712123;-0.044911224;-0.031207994;-0.064888366;-0.044889554;0.31591484;-0.010087803;0.07880865;0.048510853;-0.062066466;-0.43380508;-0.0069064554;-0.19292584;0.030081801;-0.056470808;-0.002952643;0.0048048776;0.030057305;-0.025340129;-0.03327814;0.20554674;0.11294663;0.13543119;0.28116295;-0.06301297;-0.07592502;0.08830172;0.18284957;-0.08770685;-0.050433017;0.11576305;0.038148556;-0.18466768;0.054865263;0.19535366;-0.023536623;0.070745975;-0.05081548;0.0961396;0.22128087;0.007167966;0.23492193;-0.004234973;0.36482903;-0.22532505;0.27594274;-0.0013274146;0.07186651;0.05075874;0.031524915;-0.08841682;0.40931422;0.4421005;0.18503156;0.24738851;-0.004689899;0.018697271;0.2560884;0.029344289;0.07225349;-0.01787747;0.016828509;-0.003955898;-0.05062378;-0.024613943;0.18419239;-0.19553794;0.23059309;0.16703567;-0.064105764;-0.14901213;0.0746506;0.32626063;0.13867195;0.09530364;-0.023533763;0.06293598;-0.21113339;-0.29075924;0.0002503512;0.06574375;-0.26143056;0.19467287;0.13871115;-0.039381616;-0.007860532;-0.09764819;0.0021583533;-0.04807846;0.19110397;-0.049456246;0.029888006;0.23763983;-0.020255638;0.30437377;-0.21040419;0.29078144;-0.05910778;-0.06414769;0.0019803415;0.35388058;-0.0060584433;-0.036865883;0.08924001;0.10833803;0.35400322;-0.017674038;0.10740631;0.0020490317;-0.12518825;-0.03808779;0.018171923;-0.13154511;-0.10782485;0.3487939;0.02458007;-0.16260758;0.015029672;-0.26707488;-0.04674985;0.012618096;0.0032800145;-0.31645492;0.38884395;0.08618934;0.00026697127;-0.05138188;-0.15954512;0.08989402;0.10717632;0.14138152;0.048853423;-0.07936758;0.017597122;0.11403522;-0.0027215912;0.51901925;-0.16268662;-0.088902965;-0.003425092;0.19515352;0.04480469;-0.07925743;-0.15338677;0.068017535;0.40978512;-0.00895133;-0.14704037;0.13887043;0.29704118;-0.04041898;-0.06901493;0.030808378;0.1100015;-0.15547825;0.038966432;0.043423627;-0.05636628;-0.20944418;0.06971262;-0.082583025;-0.020034518;0.008494632;0.1307327;0.15702881;0.09014771;0.06006448;0.31355524;0.2558888;0.028462209;0.59562945;-0.012974818;0.08165828;0.30746675;0.059309278;-0.09898186;-0.07316461;-0.014543748;-0.31094366;-0.0613398;0.037364483;0.0076258425;0.23411232;-0.057892635;-0.04745446;-0.065808214;0.0016955362;-0.04473739;-0.020768657;0.0072638267;-0.2475307;0.238937;-0.038981646;-0.032765124;0.05877748;7.714785e-05;0.21515502;-0.33183473;0.16501254;-0.070266575;0.002387211;0.19875592;0.2326866;-0.16143467;-0.020281995;0.21534538;-0.020514572;0.07794628;0.1204036;-0.119049154;-0.06828755;0.075669885;0.033074617;-0.029752817;-0.04627788;-0.35879973;-0.10493709;0.10039196;0.4082933;0.4253927;-0.06457238;0.15613632;0.03946737;0.028599381;0.08795844;0.20207754;0.061164968;0.020264424;-0.114724055;0.28782442;-0.009291773;0.13180989;0.03558384;0.34756476;-0.084140986;-0.045660365;0.50588477;0.24251814;-0.048497394;0.10985535;-0.03565945;0.067959376;0.17282617;-0.028588535;0.1940936;0.20156445;0.02629299;-0.01752021;-0.36150852;0.05018895;0.039120443;-0.084016696;0.0010810224;0.04109542;-0.04134286;-0.042182583;0.07209523;-0.4059276;0.070470914;0.21306112;0.051053457;0.02148952;0.12955259;0.2187687;-0.008101756;-0.012648765;0.0046429997;0.22919214;0.040084578;0.1038503;0.05798351;-0.021323467;0.16148107;-0.1317175;0.21581346;0.018763589;-0.047300164;0.070903644;0.04404861;-0.01866783;-0.0739839;-0.06043041;0.18220006;0.21561527;0.066754326;-0.11365696;-0.07130815;0.042331807;0.12729858;0.13183577;0.4663922;-0.0071255066;0.15729925;-0.07771429;0.100376435;0.04066748;-0.46185586;0.01252668;-0.15737893;-0.07283114;0.2576382;-0.24008925;-0.0032513153;-0.0124211;0.16951787;0.06043625;-0.14130779;0.043910164;-0.3057094;0.04179827;0.15383676;0.05053839;0.05294989;0.043795355;0.02022389;0.28297815;0.083430976;0.051608045;-0.0049274135;0.025787495;0.09298973;-0.24436942;0.22738284;0.013048475;-0.113360845;0.36214617;0.6349843;0.26017997;0.16587532;0.21826944;0.04935788;0.022760428;0.058660425;0.040456455;0.04453528;-0.029890371;-0.045760535;0.19856055;-0.019102836;-0.06410505;-0.004538061;0.005184924;0.25631616;0.3450077;-0.02211778;-0.00846371;0.2851504;0.19824846;-0.06558323;0.272908;0.342676;-0.041652124;0.13781945;0.5938545;-0.113551185;-0.04565945;-0.12504694;0.013688677;-0.19146173;-0.2910735;0.0604233;-0.14224072;0.17847204;0.40085012;0.25141695;0.02206496;0.5976989;0.04055945;-0.049731184;0.026346909;-0.22531995;0.0013103997;0.054683056;-0.031172378;-0.033110484;0.090878226;0.01588358;0.035067044;0.07192613;0.31841922;0.037266918;0.01077436;-0.04689185;0.041707486;-0.02843714;0.060989358;0.018406043;0.2578;0.11433312;0.032417156;0.038202662;0.08881781;-0.075479;-0.20193326;0.44162625;-0.284926;0.029549783;0.014582142;0.32059318;0.1559805;0.022788811;-0.17434104;0.061909005;0.013795287;-0.06365891;-0.0059633623;-0.23052374;-0.2328881;-0.07911875;-0.06633279;0.08692542;0.0030687763;-0.06438464;-0.0083052125;-0.006202067;-0.12719473;-0.02206926;0.21421169;-0.2870471;-0.058002856;-0.031403497;-0.019467495;0.010604083;-0.024599614;0.012582017;0.03257499;0.3508136;-0.0817138;-0.26074156;-0.032629356;-0.2316438;-0.0017922103;0.044886466;-0.0030556486;-0.05498869;-0.24272859;0.06081417;0.056018718;0.07177111;-0.0271261;0.17822902;-0.07627556;-0.23466663;0.061574224;-0.17632757;0.13499856;0.30877167;-0.25031605;-0.017267646;0.2855072;0.041639704;0.034769185;0.04684621;-0.05431323;-0.0154400235;0.018510256;0.047478847;0.034313574;-0.04283166;-0.11299626;0.0034164675;0.18688357;-0.21969062;-0.017029673;0.06778129;0.024085151;0.17982453;-0.3376294;-0.5428909;0.24767959;0.16859415;0.13995264;-0.32139343;0.051216513;0.06950648;0.009216727;-0.18669201;0.03406695;0.11332319;0.07645053;-0.10455864;0.03498373;-0.038335565;0.1393149;-0.14031962;0.22547671;0.014158571;0.012356551;0.005455625;-0.1931206;0.21147946;-0.0855719;-0.4472025;-0.10853178;0.5617806;-0.097679265;-0.039188284;-0.10296296;-0.042083155;0.13199805;-0.11582442;0.059350375;-0.027319284;0.046160456;-0.10147795;0.11568211
0.0370705;0.18735819;0.11632845;-0.027701613;0.24942166;0.089047894;-0.12667473;0.01966289;0.25513452;0.086656466;-0.081077166;0.1728338;-0.06719449;0.04378963;-0.04324955;0.3540029;0.22098115;0.0483301;-0.25268254;0.053313415;-0.0029588935;-0.047413036;0.33447927;0.13376148;0.38941467;-0.2468493;-0.14805268;-0.05407636;0.10961385;0.1624041;-0.05305213;-0.13044828;0.084556594;-0.029895807;0.13603827;0.12642835;0.54367524;-0.021773169;0.20340201;0.019464578;0.12252307;-0.027089449;0.36158082;0.041575003;0.030563869;-0.045156855;-0.08795302;0.0117529975;0.24461338;-0.05114241;0.27314195;0.23270138;0.020569852;-0.08295445;0.27183345;-0.069877535;-0.24727249;0.020081656;-0.2024979;-0.008497578;-0.0664176;-0.04418064;-0.17819415;0.32867086;0.032956917;-0.34121993;-0.030713342;0.10780208;0.32272232;0.016233725;0.09392425;9.0953276e-05;0.08032935;-0.07339411;-0.061198015;0.3296952;0.015333593;-0.015775733;0.046266317;-0.010968956;-0.38244566;0.057007495;-0.15532924;-0.06666842;-0.109587304;0.030015202;0.01158097;0.04107898;0.043198433;-0.018343754;0.30493337;0.20926805;0.06896398;0.27503607;-0.046191547;-0.036807448;0.079886384;0.16758826;-0.08338458;-0.11908052;0.08474087;-0.010409065;-0.13375863;0.004359927;0.13303564;-0.014310407;0.14840172;-0.006172773;0.068662085;0.21832159;0.02979522;0.25908768;-0.09097736;0.32004917;-0.23267792;0.31107128;-0.10580117;-0.05930238;0.06919296;0.03592812;0.0142511595;0.42599827;0.4234328;0.16979071;0.20262931;0.028999751;0.028469307;0.34117803;0.018646846;-0.0030350278;0.013369543;-0.04798926;0.007339167;-0.06265218;-0.08047296;0.11280181;-0.15569851;0.20413119;0.041548338;-0.047068793;-0.13268298;0.041969538;0.22012798;0.13027647;0.041615263;-0.00194155;0.034886573;-0.092522204;-0.06853738;-0.058457367;0.07076228;-0.3508371;0.15010178;0.05138727;-0.017809704;0.020432757;0.0043833354;-0.008065508;0.033904474;0.047865942;-0.0049005933;0.0015343067;0.23167096;0.027755734;0.17938617;-0.2768912;0.37129238;-0.06488997;-0.0074402783;-0.019081334;0.26460522;0.043114163;-0.023745794;0.014800382;0.15250261;0.1606526;0.041522063;0.062455233;0.004548564;-0.16440733;-0.034526803;0.21526246;-0.1020778;-0.124806166;0.35612386;0.082687706;-0.16929871;-0.048529524;-0.22020333;-0.054071184;-0.00033145447;-0.0418155;-0.26819876;0.33453545;0.034125116;0.011489912;0.036117394;-0.23698264;0.0254051;0.13478112;0.18539809;-0.055608246;0.020805588;0.0047738007;0.079382695;0.021315582;0.4810851;-0.13201633;-0.11137238;-0.055295814;0.17025033;0.015253011;-0.13450454;-0.25076088;0.22870785;0.43728772;-0.04798902;-0.14468867;0.12444396;0.33909103;0.08026513;-0.061432496;-0.024079548;-0.019191308;-0.07140312;-0.10242617;-0.017396986;-0.05145199;-0.26673368;0.028311847;-0.08315298;0.060947686;0.043903906;0.10899256;0.1996537;-0.013880537;0.0972221;0.30172136;0.17436881;0.09037868;0.5908076;-0.07218315;0.027086658;0.19318643;0.14880885;-0.15483941;0.054350138;-0.031642802;-0.2099846;0.05996245;-0.043689374;-0.059263;0.25918955;-0.02646727;-0.027699312;0.10805761;-0.015270386;0.12589207;-0.084959306;0.06135577;-0.14352888;0.22475912;0.04541744;0.044589367;-0.0073354105;-0.059521995;0.2553579;-0.10049334;0.115634516;-0.06598334;0.059959922;0.22259767;0.24897017;-0.19819996;0.05643498;0.066461824;-0.11578094;0.16529286;0.15761842;-0.18002844;0.0062868483;-0.008101035;0.022540888;-0.025205;0.11943737;-0.2220771;-0.090143256;0.08567158;0.3738256;0.46207586;-0.1627139;0.27955115;-0.02326834;-0.027906654;0.13910972;0.17118399;0.16030484;0.020408712;-0.091772325;0.17024706;0.023641972;0.2079712;0.19721276;0.27445492;-0.15139113;-0.06217583;0.42043722;0.3350875;-0.095426574;0.07269148;-0.014839357;-0.021935394;0.030867778;0.039509922;0.10637167;0.18939802;-0.078103475;-0.1186231;-0.3017128;0.024329754;0.03918984;0.08118712;0.02312117;-0.06833761;0.014732551;-0.16062391;0.05371586;-0.32178453;-0.06861781;0.22574635;0.0672148;0.017795218;-0.0008238369;0.20576005;-0.089238964;-0.03212961;-0.09929155;0.19456558;-0.011338368;0.14577189;0.0017394333;0.043566886;0.1369356;-0.22485565;0.20369714;0.14643009;0.016287701;-0.0030367344;-0.0026447885;0.07015398;-0.015909944;-0.010353358;0.2297431;0.15562342;-0.036858395;-0.08202862;-0.0025523116;0.00891741;0.05354451;-0.03724759;0.41181916;-0.05410984;0.13310367;0.067695946;0.15049122;0.020001883;-0.51626533;-0.00040740482;-0.11849715;0.07089722;0.177325;-0.19223715;-0.074159674;0.17270797;0.26783445;-0.0068328506;-0.18530591;0.014398201;-0.20947555;-0.07227313;-0.002062703;0.05775014;0.071857676;-0.0059533343;-0.04704389;0.14820527;-0.04963251;-0.002311614;0.07477653;-0.052966792;0.011285892;-0.16233285;0.17730899;0.055078994;-0.23199071;0.22222163;0.64125097;0.2511847;0.20131041;0.12220817;0.052433345;-0.07857653;-0.06175775;0.03761383;0.0121336;-0.055130865;-0.0019741512;0.22507484;-0.05855501;-0.15198417;0.018330814;-0.022082599;0.38728294;0.26846606;-0.057183936;0.09487235;0.17064488;0.21494164;-0.22315384;0.37352452;0.36827746;-0.16783239;0.089374885;0.55590713;-0.09236173;0.054615017;-0.12362274;0.06441766;-0.12022857;-0.25677043;-0.06750927;-0.06686743;0.21142317;0.38713592;0.372017;0.047891855;0.5478613;0.07497044;-0.21223077;0.09120084;-0.20186205;-0.032005917;0.112983756;-0.025891174;0.058051564;-0.09119766;0.0041362536;-0.045145623;-0.019681862;0.22024533;-0.039715007;-0.015198757;0.0056901737;0.031961028;-0.022644212;0.0031727937;0.050636694;0.2174527;0.14055698;-0.040192675;0.1461645;0.06691391;0.055246174;-0.07114528;0.34000394;-0.16384389;0.08072865;0.0061202333;0.28400406;0.16387908;-0.06269347;-0.14594902;0.12097398;0.0748037;-0.062978;-0.0043961913;-0.12949656;-0.19797623;-0.18559834;0.05447171;0.19546574;0.065818734;0.06595098;0.1257403;0.04831331;-0.18228945;0.0125637185;0.25353858;-0.19129215;-0.018668745;-0.1531851;-0.027951365;-0.103956684;0.037307438;-0.020171514;-0.058345824;0.23381674;0.034932554;-0.18872328;0.05341193;-0.26831192;0.04548793;-0.027992012;0.0014636014;0.006386384;-0.027576456;0.03090462;0.01660895;-0.037811473;-0.20100552;0.041732702;-0.1360863;-0.199327;-0.03192584;-0.08428536;0.05097746;0.28970078;-0.2212423;-0.015256854;0.26983055;-0.05941107;0.11761277;0.01697083;-0.055616338;-0.0038650061;-0.028061561;-0.024019592;0.006644415;-0.011895479;-0.1090739;0.0153941065;0.043808725;-0.30199385;0.0043111714;0.118340574;0.078795664;0.110628515;-0.33375704;-0.5524555;0.18289854;0.25687516;0.004674099;-0.27887028;0.17486146;-0.03565296;0.02716186;-0.19351332;0.028678475;-0.0062161167;0.06758491;-0.06882669;0.041969128;-0.06481099;0.18168704;-0.114915125;0.13105948;-0.048741546;0.008169064;0.04524464;-0.039344173;0.32574627;0.034511264;-0.41034642;-0.0594612;0.61101735;-0.1254052;-0.05038963;-0.15293942;0.059353545;0.12603737;-0.020714564;0.15878627;-0.114715524;0.05389149;-0.11853661;0.03978945
-0.018032117;0.28982407;0.01179531;-0.11200992;0.30498722;-0.034088608;-0.14294314;-0.11001492;0.24852253;0.02530498;-0.07994129;0.1827373;-0.07123231;0.058121465;-0.0375237;0.33070093;0.35626122;0.047043648;-0.20510699;-0.07364683;0.07315864;0.05365687;0.2724694;0.022022258;0.5149016;-0.18423848;-0.11431072;-0.12699457;0.06458773;-0.00828308;0.013554864;-0.1307299;0.09431946;0.068333484;0.079471536;0.11213312;0.4451855;0.039738365;0.0931227;0.065150395;0.1140479;0.01600073;0.25627804;-0.0074933656;0.0047323047;-0.03723474;0.0003060549;0.04973888;0.30785608;0.04124067;0.19708511;0.08437348;0.066904575;-0.06793675;0.089552775;-0.056381784;-0.2570043;0.14130403;-0.23214251;-0.10249191;0.015664242;-0.0031037305;-0.29014713;0.21369067;0.06789764;-0.16253209;-0.009750624;0.0032566066;0.22232577;0.055827003;0.007813656;0.07950137;-0.014098318;-0.13017574;-0.013153768;0.21248916;0.0036366407;0.05442742;-0.062322132;0.063529715;-0.23337793;0.052577876;-0.2145693;-0.06527065;-0.18677968;0.052030336;0.04848896;-0.040749766;-0.0014958796;-0.00434989;0.39788318;0.08361373;0.037017588;0.2595514;0.041008506;-0.03086505;-0.01835436;0.0713933;-0.1690509;-0.063582815;0.23448446;-0.0015664593;-0.18325701;-0.060929045;0.14687121;0.043835122;0.05087253;-0.025124922;0.07526557;0.23716931;0.16187254;0.31930184;0.076478325;0.35648203;-0.16608065;0.29652026;-0.026680965;0.018647948;-0.008788344;-0.025722856;-0.056267016;0.47237596;0.4152511;0.24181016;0.09491628;-0.00021103074;-0.019628776;0.22386652;-0.09668823;0.012402261;-0.10867584;0.009440293;-0.073961854;-0.08145334;0.024695005;-0.051380165;-0.22381583;0.26813316;0.18073605;-0.013233137;-0.08661556;0.17144448;0.20848067;0.12716156;0.11131204;-0.078113616;-0.046052642;-0.20245431;-0.161955;-0.024308559;-0.06400885;-0.4576533;0.27506799;0.09590973;-0.06597008;0.025262592;-0.0071013262;0.051960185;0.043907877;0.013515013;0.03356392;0.05473629;0.29972765;0.025595468;0.23787194;-0.2345852;0.260614;0.030066472;0.060588337;-0.058027416;0.2511474;0.063934594;-0.069601335;-0.051586762;0.16934828;0.21976094;0.026972167;-0.056982644;0.06106183;-0.11141661;0.007322863;0.23130782;-0.05026804;-0.062397968;0.31863934;0.14403887;-0.22524007;-0.048366155;-0.19132233;0.0047103046;-0.022397134;0.024619084;-0.11483323;0.27177724;0.042656682;0.045268513;0.0030113736;-0.19465847;0.03138299;0.12501082;0.06732536;0.05329638;-0.12568943;0.025216088;0.17969503;-0.041867543;0.3974478;-0.06485031;-0.17952478;-0.031984925;0.067152046;-0.04729631;-0.12684366;-0.27961916;0.21475819;0.32892928;0.0772153;-0.12984547;-0.017318457;0.27484095;-0.022804936;-0.011382785;0.04354929;0.021701114;-0.007995256;0.051382333;-0.012048412;0.0645299;-0.24948181;0.030952416;-0.030311303;0.15888749;0.07048601;-0.061638765;0.120188095;-0.030048314;0.095318034;0.30913553;0.27724877;0.23840193;0.50336945;-0.0071464763;-0.0068305186;0.33660284;0.19265851;-0.083859995;0.04270142;0.026077513;-0.17746133;0.07668791;0.0452236;0.1506431;0.29319373;0.039660655;-0.077911444;-0.029205106;0.002038556;0.18395428;-0.14190343;0.20635578;-0.17261156;0.291953;0.06331401;-0.0073829987;-0.04051837;-1.839355e-05;0.20543954;-0.044841345;0.1556533;0.000597524;0.10095481;0.27856243;0.35346052;-0.12668005;-0.038424164;-0.043175075;-0.09166096;0.27173918;0.12875316;-0.17579423;-0.04543771;0.026545146;-0.011184754;0.00051080296;0.03134366;-0.12070343;-0.18563221;0.011869523;0.38045081;0.43750882;-0.10109837;0.21738756;-0.038268525;-0.14540106;0.29324788;0.20734005;0.13088004;-0.07874139;-0.05531808;0.22903031;-0.019875895;0.09269993;0.226305;0.35632056;-0.17032348;-0.13847229;0.41460258;0.32130718;0.03282972;-0.017996658;0.0028930132;-0.083300024;0.027739996;-0.027013926;0.19928645;0.08105022;-0.03383271;-0.08958106;-0.26573557;0.0021616993;0.028096888;0.16498405;-0.006413855;-0.032125965;-0.043969456;-0.02731845;-0.046459854;-0.28876492;0.007907088;0.2255739;-0.037244108;0.011919386;0.088587455;0.06252801;0.056494568;-0.016593995;0.013892046;0.10399602;0.03674468;0.24550073;-0.06703652;-0.03558409;0.14065918;-0.068401106;0.14857326;0.12071188;0.06577254;0.0010892315;-0.0064928113;0.033465695;-0.011975517;0.06670798;0.17923872;0.09733694;0.045922548;-0.11679525;0.020789549;0.005706192;0.068690635;0.017874567;0.44775587;0.077960104;0.14881125;-0.010096355;0.18834008;0.14857365;-0.37380254;-0.040063083;-0.18220577;-0.040676538;0.14714399;-0.2439527;0.021466093;0.09949372;0.2727673;-0.022994304;-0.16978785;-0.017033707;-0.28491676;-0.0779105;-0.0065988936;-0.04423347;0.01476929;-0.05458679;0.0021362533;0.19208054;-0.18870838;-0.084017195;-0.081174694;0.021425901;0.027697736;-0.29248834;0.2517783;0.02038965;-0.17825465;0.021076547;0.43864956;0.30776814;0.18526004;0.07973271;-0.10656135;-0.024882114;-0.018434547;-0.013609976;-0.007734685;-0.07193013;-0.031320237;0.24365988;0.048585176;-0.060240585;0.13530636;0.017549835;0.40086406;0.16260085;0.07656511;0.07081695;0.22417484;0.05968009;-0.153852;0.2431881;0.4113937;-0.1427002;0.17102467;0.57727635;0.101869926;-0.029833704;-0.07143304;0.073920816;-0.21769507;-0.26403356;-0.06281847;0.09554813;0.074310124;0.5344297;0.31548908;-0.045122307;0.43050873;-0.09522132;-0.13454129;-0.063850574;-0.2381028;0.006093231;0.06435743;0.006883662;0.050535195;-0.017685711;-0.050130256;0.04583935;-0.07443508;0.3066562;-0.04022531;-0.03335865;0.04824694;0.15856956;-0.1344075;-0.069554165;0.05632959;0.23706059;0.105598114;-0.047733936;0.019285504;0.018132556;0.03206329;0.0179753;0.43512467;-0.28534886;0.10265535;0.040553916;0.121423885;0.14395611;-0.06355953;-0.2036218;0.20157343;-0.03630919;0.04671658;0.017295402;-0.15788335;-0.102723114;-0.14690164;-0.0434413;0.117167436;-0.03925637;0.021714479;0.052053727;0.016167559;-0.13851443;-0.05762982;0.31662515;-0.21750388;0.058265902;-0.005984536;-0.024157548;-0.034004446;-0.03070519;0.06151311;0.0792461;0.34330708;0.063465334;-0.11693531;-0.0106265005;-0.26849213;4.8917616e-05;0.0010260106;-0.10636555;-0.13144407;0.03231146;-0.068321936;-0.038575917;0.02000684;-0.1434768;-0.094620466;-0.049930662;-0.16404648;0.035680022;-0.15112847;0.042939745;0.26157036;-0.26770282;0.07085887;0.20677398;-0.071636364;0.037495807;0.08031598;0.046067614;0.048691336;0.063129604;-0.04665194;0.037660662;0.045129128;-0.18391655;0.013629581;0.12405666;-0.1506527;0.04305507;0.0876117;-0.06573382;0.16177712;-0.35777527;-0.4830956;0.12113284;0.19380784;0.022647657;-0.31129146;0.09724992;0.04745526;-0.021810751;-0.12380008;-0.042588323;0.12995026;0.020160964;0.0070771473;-0.06095182;0.023957284;0.031309057;-0.1480278;0.12824589;-0.07065032;0.029286921;-0.028618291;-0.173953;0.28108898;0.053578958;-0.36885336;-0.06662555;0.48297587;-0.09319162;0.06849238;-0.0020754081;0.19693162;0.1979349;-0.08402319;0.17090629;-0.09482428;0.023884956;-0.10119981;0.10794087
0.06408433;0.23686637;0.09652431;-0.08161296;0.2440792;0.07470711;-0.18149713;-0.2360628;0.3252145;-0.023806045;-0.046580203;0.09953734;-0.023272216;0.07938244;-0.0074965297;0.27055022;0.33723754;-0.051986195;-0.2631224;0.03678939;0.052383658;-0.004537868;0.31467873;0.036200356;0.48459762;-0.18783437;-0.031931553;-0.11313304;0.10291533;0.13941407;-0.013128451;-0.06474919;0.12580958;0.03841975;-0.082213886;0.21872531;0.46946937;-0.009910277;0.10592874;0.09477652;0.024564646;0.0017984312;0.30185622;0.0061899684;0.012083558;0.004693299;0.014939183;-0.010735322;0.23997381;-0.0058211614;0.24970911;0.12967823;-0.040399477;-0.17300633;0.13309202;-0.017737862;-0.3984702;0.049037732;-0.12812969;-0.016195599;-0.034127846;0.053134087;-0.23918183;0.12534049;-0.0759594;-0.24269298;0.07293576;-0.07626194;0.333486;-0.03588983;0.10361713;0.058830075;-0.004102309;-0.17628863;-0.03915837;0.24711454;-0.05950607;0.0748856;0.048637096;0.028613;-0.06489379;-0.051924326;-0.13639772;0.051906668;-0.23939344;0.004249392;0.025192617;-0.032488015;0.0033396361;0.054434393;0.32616663;0.13076256;0.12137228;0.28434858;0.014595103;-0.1347187;-0.03390659;0.2421748;-0.2544179;-0.046903268;0.12502302;-0.052709464;-0.21770439;-0.053783674;0.034161016;0.03554663;0.13823467;-0.01935628;0.042125534;0.30156136;0.009842241;0.3640035;0.05522251;0.37598485;-0.16270375;0.26018754;-0.0022192893;-0.015216565;-0.06732032;-0.032209676;0.038671203;0.43213055;0.2797027;0.26799786;0.15771256;-0.03226057;-0.057436;0.34729406;-0.09480561;-0.037428167;-0.08087999;-0.013431051;0.03761685;-0.039016463;-0.058158197;0.010105937;-0.18631548;0.29714042;0.09406261;0.06254317;-0.059209034;0.28977588;0.09898785;0.17113128;0.0037650592;0.045889575;-0.09571203;-0.1278552;-0.17572784;-0.036473826;-0.10035543;-0.42609957;0.21750578;0.061136536;0.023003304;-0.026973052;-0.07289794;-0.0154001;-0.05202495;-0.011071189;-0.033878174;-0.056636143;0.28215048;0.022787604;0.04594446;-0.23184368;0.30367345;0.025271429;0.04318315;0.065559134;0.053302225;-0.0012008834;0.04285773;-0.04519927;0.19942646;0.14077547;-0.057837836;0.046608947;-0.0491908;-0.1416799;0.060704708;0.18726766;0.0552751;-0.094753355;0.3246904;0.15667136;-0.18235688;-0.0003846678;-0.0575676;-0.011015981;0.045377135;0.00093494705;-0.07986537;0.13080491;0.103933476;-0.0626466;0.0567413;-0.18313277;0.0136980675;0.030760355;0.08019582;-0.0028944295;-0.021770464;-0.11207782;0.04825332;-0.0012843917;0.33665523;-0.08391308;-0.13811556;-0.0264371;0.091362536;0.025147146;-0.17169812;-0.29596782;0.23335443;0.20085876;0.11626685;-0.13602267;0.019351518;0.36554137;0.104233414;0.04693764;-0.04142651;-0.045438964;-0.12426102;-0.09508303;0.010209092;-0.0001895032;-0.23453426;0.0068246545;0.019712327;0.027493471;-0.041636895;-0.07853116;0.041481737;-0.042446442;0.018036347;0.20152938;0.22919858;0.24661405;0.53940403;0.050460517;0.020269085;0.2246245;0.18382096;-0.110419355;-0.031265747;-0.012142801;-0.0896161;0.09526659;-0.048061304;0.11293;0.29827598;0.032687932;-0.044570867;-0.010707845;0.026933186;0.25456783;-0.09883424;0.07922424;-0.12469916;0.3495587;0.03771;-0.025277324;0.06404901;0.09327986;0.231192;0.03170842;0.012640819;0.049629703;0.07459098;0.15107188;0.33334783;-0.1713641;0.05120323;-0.11268424;0.0073593594;0.17890124;0.0916684;-0.08008059;-0.08276648;0.02106292;-0.0026955772;0.05025186;-0.004123702;-0.1391175;-0.04348999;0.1095271;0.3580137;0.28107604;-0.15219839;0.2874727;-0.04341759;-0.1454513;0.33832493;0.2238388;-0.008169074;0.0667791;0.057846785;0.33675653;0.037786223;0.008499372;0.18533194;0.3193263;-0.1116434;-0.15392071;0.37112707;0.22322363;0.035851013;-0.24925856;0.042582493;-0.077252924;0.13923557;-0.05078635;0.18066572;0.06745215;0.0483045;-0.11305021;-0.27638757;-0.05427345;0.10476491;0.16550328;-0.053058516;0.061598364;-0.037497923;-0.17963359;-0.09203966;-0.30333337;0.0060828566;0.2660307;0.0002435206;-0.044200473;0.078107595;0.13991997;0.018559458;0.011345586;-0.06534075;0.028301636;-0.020219421;0.24394713;0.04249939;-0.029311467;0.10629121;-0.21216604;0.22513816;0.15995668;0.0022569373;-0.056120113;0.012457086;0.010362213;0.0040484616;0.062249683;0.27356884;0.062336523;0.027013414;-0.05777958;0.0018295482;-0.042674802;0.03674399;-0.114160866;0.33379734;0.010275711;0.014817542;0.058025274;0.20781676;0.17644423;-0.39643195;-0.092570916;-0.16510178;-0.014366068;0.052347682;-0.30666178;0.005702295;0.19190708;0.28201398;0.015997149;-0.20140183;-0.06112839;-0.21062054;-0.08116833;0.069741815;-0.06863324;0.03828812;0.01785872;-0.23053406;0.17135194;-0.09516802;0.06024307;0.022327438;-0.1836952;0.012658221;-0.32954738;0.21906185;-0.019893022;-0.12481425;-0.10321483;0.4227266;0.22849561;0.16885339;0.075039685;-0.17884322;0.037447844;0.039443158;0.001498913;0.054835733;-0.014178233;0.055299032;0.19877164;-0.065914184;0.052144274;0.12757778;0.038733527;0.39775774;0.2557409;0.09209862;0.20530125;0.16543278;0.0615857;-0.17214267;0.3397399;0.3495349;-0.044445943;0.25348872;0.40374947;0.12267869;0.026063828;-0.11218453;0.10191372;-0.263973;-0.22469448;0.054483116;0.07272835;0.09645141;0.5069037;0.2946691;0.011832986;0.29952925;0.03418772;-0.1923236;0.05256094;-0.18372618;-0.08403689;0.20134342;0.019298844;-0.067114115;-0.051506463;0.03592044;-0.037619263;0.073338784;0.27856612;0.0035844329;0.02781847;-0.040630814;0.080171786;-0.13640277;0.016018042;0.014520046;0.23804711;0.2458439;0.05403261;0.0023245611;0.01124098;-0.07955283;0.034680754;0.3819561;-0.24464588;-0.041183464;0.0029001716;0.06375361;0.17271043;-0.023929952;-0.20888601;0.1408999;0.041044705;0.053485796;-0.08322521;-0.14863211;-0.16320828;-0.050026692;-0.17911887;0.066112146;-0.06804655;-0.01636762;0.06633774;0.032196168;-0.09635254;0.0859073;0.3034082;-0.23530981;0.01883627;0.02238967;-0.043178555;-0.07608521;-0.028177496;0.05828089;-0.053620722;0.3273158;0.0018880881;-0.18202902;0.018044366;-0.27016497;0.024963303;0.027563775;-0.0030872906;-0.083993934;0.036834337;-0.031170499;-0.045723315;-0.0011248267;-0.27055314;-0.038660616;0.044615876;-0.14399731;0.007849411;-0.19905995;-0.055009484;0.25425684;-0.2796877;0.074878186;0.21276306;0.09199392;0.04081399;0.04858771;-0.010723614;0.006560485;-0.016596325;0.052417975;-0.10181532;0.01589804;-0.07010345;-0.03471328;0.10694172;-0.24858867;-0.08083737;0.041626617;0.032799795;0.031112162;-0.30196744;-0.41738927;0.2653805;0.27475783;-0.091061056;-0.26481047;0.13603002;0.033571787;1.344395e-05;-0.20390265;0.115540266;0.03144927;0.080687046;0.016427735;-0.006729405;-0.05700655;0.04348735;-0.1927916;-0.001267986;0.0041171457;0.0019963575;0.040784664;-0.12612122;0.2682909;-0.051817432;-0.17528223;-0.04347483;0.49051315;-0.15602012;-0.019945463;-0.08199078;0.23141992;0.13417377;-0.13318707;0.17298186;-0.157351;0.02868223;-0.0782215;0.047422055
-0.024141824;0.14304662;0.15413181;-0.18060859;0.2514417;-0.06848065;-0.018475957;-0.251239;0.2940166;0.08463508;-0.022346064;0.15829624;0.02697521;-0.027636804;0.1080052;0.25195995;0.31780785;0.019724067;-0.299827;-0.011452336;0.022758173;0.0051466646;0.2728461;0.07425816;0.45717916;-0.13776638;-0.20749612;-0.1852684;-0.020730099;0.036277033;0.0119540775;0.023589542;0.042358015;-0.06807171;-0.027252076;0.17828393;0.4474493;0.010547784;0.19843206;0.07670947;-0.0107225;-0.022448827;0.3242079;0.046268117;0.042852312;0.04700161;0.0496241;-0.043701556;0.3009923;-0.04027566;0.30050892;0.0929694;-0.12896693;-0.022994481;0.20663205;-0.035740398;-0.3125603;0.09335953;-0.16518387;-0.0011387669;0.039459746;0.02099145;-0.28884926;0.15543932;-0.08178506;-0.06581223;-0.0050324528;-0.05680098;0.33906725;0.03257946;0.04344506;-0.051847063;-0.021317003;-0.16778553;-0.15673642;0.15714975;0.04688221;0.13403082;-0.066166185;0.07216578;0.05200139;0.085831985;-0.21040648;0.0995493;-0.21190158;-0.07269895;-0.06535156;-0.04434642;0.048240483;-0.08342293;0.42979082;0.11226475;-0.01039371;0.26184717;-0.012488575;-0.12459085;-0.026115011;0.26649645;-0.16384156;-0.054859206;0.33066186;0.046932396;-0.3122756;-0.00949126;0.040679514;-0.020361729;0.08843838;-0.07172432;-0.02685737;0.30270877;0.1880706;0.37538835;0.034306377;0.33462492;-0.28030378;0.10188182;0.015060394;0.0562696;-0.038336154;0.051269084;-0.048843432;0.52954525;0.3714762;0.24151316;0.09811477;0.07981155;-0.04115921;0.30285826;-0.07778088;0.05842067;-0.05150086;0.015812054;-0.08049738;-0.06528755;-0.091487356;-0.106293015;-0.20299384;0.28254917;0.08840132;-0.02652418;-0.092008196;0.3173038;0.11495212;0.14664151;0.057570506;0.03761257;-0.013228002;-0.10241776;-0.017091164;-0.014232759;-0.06733144;-0.38165525;0.3306437;0.024494158;0.10310748;0.06258737;-0.124942094;-0.054636814;0.036549587;0.064633995;0.034403555;0.0039650216;0.21654595;0.02252743;0.09488049;-0.24372618;0.4231202;0.033456225;0.012448923;-0.015286403;0.14564416;0.073226444;0.05531541;-0.05548831;0.2502521;0.048853267;0.07827799;-0.05216753;-0.05919125;-0.17297311;-0.043872394;0.21391219;0.16704771;-0.25631458;0.18569726;0.1615825;-0.06489409;0.14324585;-0.104791485;0.01594499;0.020530123;0.07052028;-0.051926546;0.16728522;0.10528242;-0.029370168;-0.040258203;-0.1731931;-0.019672967;0.108632505;0.15158066;-0.024779843;-0.10791876;0.048372634;0.118933894;0.052742768;0.28113475;-0.10415233;-0.17071427;0.033572756;0.11463422;-0.05165745;0.020534262;-0.17043258;0.279069;0.23673895;-0.017509425;-0.06258064;0.14570181;0.40151322;0.11095874;0.05592177;0.00021070408;0.015741566;0.03986279;-0.08855747;0.014141678;0.029686458;-0.2146531;-0.073773935;0.093898565;0.040062316;0.11961213;-0.076807134;-0.04090609;0.05962763;0.030562077;0.1879278;0.34613988;0.29208562;0.38232324;0.053361885;0.047862086;0.26535872;0.31844962;-0.08296097;0.025621736;0.061895877;0.0015086805;0.15440486;-0.012390653;0.159049;0.4237595;-0.054786183;-0.069462106;0.06682871;0.0082881125;0.24345446;-0.110896625;0.13371545;-0.055573527;0.2517567;0.03343591;-0.021482687;0.043718744;-0.003759643;0.034978695;0.11317683;0.027681239;-0.04717832;0.024405811;0.25298056;0.2440671;-0.011490186;-0.057990063;0.014505705;-0.00489498;0.20332636;-0.093737446;-0.16157256;-0.091201514;0.13187063;0.018745547;0.03318886;0.0074820137;-0.09876097;-0.119017035;0.13927999;0.33721745;0.30490652;-0.12063547;0.07873984;0.07606104;-0.068034075;0.3252323;0.1026567;0.14895733;0.030895974;-0.013925492;0.18438181;0.037754953;0.081345625;0.31273404;0.3666252;0.006953238;-0.16202228;0.34488;0.060826346;-0.0668508;-0.40472722;-0.022955524;0.0031998125;0.042602975;-0.082371496;0.20066756;0.028949395;0.051102296;-0.2520597;-0.2457542;0.07101021;0.00641305;0.20514676;-0.020572765;0.05437947;-0.008239748;-0.05783242;0.044406433;-0.312687;0.06998327;0.29456356;-0.02236508;0.003897372;0.12858784;0.116399534;-0.05420042;0.01657563;-0.040652;0.013755929;0.046461612;0.15582888;-0.03817908;0.05119637;0.12108238;-0.06781713;0.14306991;0.15898687;-0.008095022;0.054355323;-0.060131874;0.14877328;0.0957811;-0.010595789;0.33870262;0.023385458;-0.025477497;-0.10789182;0.056969613;0.059752487;0.06428948;-0.067746684;0.34443754;-0.010383731;0.15226696;-0.07105994;0.18307544;0.16944693;-0.3136351;0.061370585;-0.21766254;0.084343046;0.04323586;-0.29937667;0.021940013;0.31135604;0.2510676;-0.012287837;-0.2811662;-0.12025041;-0.2428073;-0.008011909;0.010720763;0.077711776;0.039695572;-0.008018916;-0.23947367;0.12030911;-0.31893095;0.0026075812;0.039471664;-0.13794725;0.16779035;-0.225745;0.029096577;0.056411594;-0.256007;-0.08097889;0.31802422;0.23167744;0.17078575;0.112668626;-0.14009406;0.028801292;-0.087529324;0.056464948;0.05177144;0.022965724;0.012440108;0.18779917;0.0038939891;0.1249583;0.09136877;0.03158452;0.42553005;0.14603582;-0.054671604;0.1251775;0.19248845;0.04256607;-0.25074407;0.19610016;0.21830864;-0.051916998;0.12723982;0.38362983;0.004934562;-0.080268584;-0.1674447;0.02817986;-0.15038662;-0.18893638;0.061192557;-0.028695729;0.17444345;0.43087548;0.19183078;0.05954086;0.2898875;-0.034284703;-0.22774087;0.049865767;-0.2590218;0.06275203;0.069586776;-0.019930977;0.013303506;-0.12584183;-0.06179487;-0.04741548;-0.05706809;0.11747594;-0.047596477;-0.057170205;-0.07710355;0.05241524;-0.17725945;0.039002735;0.019173957;0.2792486;0.117172;0.03579542;0.0478689;-0.06558339;0.043823566;0.06036226;0.37318406;-0.29397452;-0.12661014;-0.004879942;0.19738504;0.18261245;0.08096374;-0.19783464;0.17964172;0.01406517;0.057939123;0.024449244;-0.06908935;-0.10395234;-0.06544558;-0.15992853;0.11008906;0.09107673;0.069725394;0.02372343;-0.0013236998;-0.07450256;0.019310428;0.41434637;-0.19034044;-0.005406827;-0.027331904;0.088437565;-0.07868598;0.07924894;0.07740259;0.008266942;0.2648661;-0.07565591;-0.17290908;-0.059524763;-0.25545368;0.035800505;-0.06645271;-0.11355645;-0.076973915;0.15150702;-0.029707689;0.03743013;0.030370105;-0.34554708;-0.0030109708;0.0006607619;0.015628094;0.040266775;-0.064616404;-0.14004146;0.2354902;-0.1328719;0.003587926;0.1667447;-0.044825412;0.04756427;-0.026873406;0.03712215;0.0074688927;-0.03908758;-0.073359914;0.014968077;-0.026994063;-0.19962357;0.049621668;0.05891678;-0.1996595;-0.11074313;0.045862522;-0.055143643;0.059738774;-0.30639088;-0.36399764;0.24238843;0.206461;-0.053455777;-0.30366093;0.1912113;-0.00067802734;0.0011152866;-0.15818122;0.028621355;0.09367438;0.040382303;0.102015324;0.048520517;0.059358105;0.03748661;-0.13690919;0.008251747;-0.009841039;0.0150683485;-0.045639053;-0.15727463;0.2899986;0.073264286;-0.11760369;0.019456595;0.5759047;-0.1749353;-0.028910624;-0.14789727;0.33341217;0.22141118;-0.13934001;0.13861182;-0.36021364;0.009529543;-0.22800319;0.020291204
