Weights from input to hidden layer.
-0.19195962;-0.07084664;0.022394642;0.3608606;0.101833254;-0.027405119;-0.5041408;1.1519583;-0.49429825;0.048339773;-0.044242978;-0.048590522;-0.05516905;0.30730087;-0.5200588;-0.58889306;-0.34974226;-0.030155113;-0.1527012;0.30551428;0.3206916;-0.06126837;-0.008296779;0.6391113;0.23416871;0.08709869;0.47882193;-0.02624235;-0.08467903;0.038269673;0.6854989;0.6080118;0.53864986;0.7018901;-0.32047355;-0.2599834;-0.29764396;-0.47644427;0.012935713;-0.72133756;0.03134703;0.02603043;-0.015680494;0.8190574;-0.13188371;-0.044369012;0.5946099;-0.20798546;0.2528666;0.25193;-0.06938253;0.6303935;0.015952384;-0.9144881;-0.021405548;-0.039901722;0.4652914;0.011556318;0.82188463;0.13584702;-0.13264059;-0.08277841;0.08865808;-0.53579897;0.26265958;-0.069263;-0.022986615;-0.02953097;0.018433565;-0.011185686;0.28261265;0.006762854;0.08026921;-0.03496413;-0.42690545;-0.2827263;0.008831405;-0.77797705;-0.10049668;0.08000785;-0.06990818;-0.48781183;-0.3855402;-0.26426873;0.08773809;0.029746749;0.021481961;0.48970848;-0.15282576;0.004259101;0.0051441225;-0.04126254;0.3700623;0.00013998829;-0.03017428;-0.30556306;0.04374556;0.15902832;-0.4391073;0.063303225;0.12565757;-0.6070387;0.01691119;0.013490791;-0.16246706;0.032834455;0.012172633;-0.56366765;-0.3000098;0.009587258;-0.04192901;-0.25648275;0.30352122;-0.5048465;-0.20929995;-0.5255407;0.030534022;-0.5291641;-0.05538791;-0.04028196;0.0011592952;-0.092417;-0.41220367;-0.46139693;0.315231;-0.2382572;0.6135969;-0.05069622;0.57626307;0.045097746;-0.001948447;-0.0074022315;-0.15537466;-0.024220252;0.00957319;0.009798909;-0.0051569953;0.5669697;0.22275847;-0.34332007;0.8062357;0.25247335;-0.1914237;-0.038803335;0.7322424;0.5737978;0.2706205;0.47701585;-0.20403937;-0.27790776;-0.6784022;0.2291445;-0.12838323;-0.11745609;0.45838583;-0.022893384;-0.5178903;-0.9431114;-0.08953557;0.19344634;-0.07771971;0.73029;-0.045557495;0.072062075;0.13319533;-0.08956817;0.40810627;0.43797675;0.39371282;0.04357493;-0.015601744;-0.60993713;-0.120962456;-0.15850464;0.014864119;-0.0081639495;-0.0047201905;0.017582074;-0.061009638;0.056646965;0.54683304;0.3000843;0.5868002;-0.27893722;0.5387473;0.30968374;0.51729006;-0.0027555574;-0.35800472;0.37024605;0.30671865;-0.6780985;-0.07711843;0.58385295;-0.04506323;-0.038498316;0.024714246;-0.14014351;0.01944789;0.33259204;0.09693974;-0.3838295;0.11555141;-0.24839137;0.38114557;-0.18408743;0.32272655;0.07706262;-0.038794167;0.0388961;-0.054634567;0.58054996;0.0137786055;-0.25421974;0.115648486;0.4392201;-0.058363087;-0.1907935;0.44419062;0.6420985;-0.10531487;0.1736395;0.91204184;0.27325884;0.28242648;-0.0370959;-0.015853843;0.07577846;-1.0543623;0.6606235;0.4115191;-0.00799492;-0.40822306;-0.11281821;0.42947525;0.068021946;0.4258051;0.034657076;0.008210661;-0.41864827;0.21671046;-0.018618269;0.05075484;0.9945363;0.5493151;-0.45813963;-0.0027618115;-0.011333562;-0.13770133;0.34060165;0.06631568;0.6583381;-0.27238467;0.5897391;-1.1041466;0.06421329;0.51280594;-0.4040746;-0.24148251;-0.02495806;-0.087140895;0.29422337;0.034913242;-0.0020257707;-0.09315246;-0.18787676;0.13406242;0.124840364;-0.05008403;-0.20197804;-0.6038363;-1.1534944;-0.017814258;0.7128775;0.35381487;0.29953942;0.0021005457;-0.004701953;0.46746755;0.71559006;0.3808372;0.28004682;0.23684365;-0.01806874;0.053335704;-0.0034425808;-0.0026237927;0.4681075;-0.066238746;-0.08594359;-0.040896438;0.15721889;-0.41191658;0.09942698;-0.09221047;-0.19382416;0.07934014;-0.009016748;0.41361055;-0.04867502;0.021131791;-0.2941332;-0.11251371;0.12902114;-0.00840457;-0.912106;0.019829212;0.13982622;0.35378125;0.67368835;0.021460654;-0.030226057;0.040272336;-0.19785945;-0.2743186;0.21344393;0.17198242;0.6505233;0.6936868;0.4686661;0.025293678;-1.0396769;0.2292553;-0.4676592;-0.32504773;-0.2506455;-0.15472405;0.37682077;0.3552128;0.030240474;-0.08361631;-0.79682696;-0.100703284;-0.19213842;-0.085326225;-0.41861403;0.04967185;-0.8217227;-0.4897908;0.011849187;-0.6637906;-0.50605834;-0.315409;-0.26246157;0.79690963;-0.11430875;0.064653605;-0.097631015;0.7149498;0.16816634;0.109724976;0.24633561;0.04286526;-0.17700355;0.10077481;0.37234545;0.38660112;0.027250601;-0.020719094;0.22542767;0.7735901;0.19998097;0.022693422;-0.014272704;0.18048945;0.5376965;0.06944334;0.8989091;0.35804147;0.30937988;-0.10979683;0.0013918217;0.49234852;0.6792956;-0.55255896;-0.71190155;0.25368816;-0.70086634;0.09651612;0.065000266;-0.46399343;0.015549487;-0.27522424;-0.16973756;0.4498989;-0.11049856;-0.52894354;0.6298399;0.50318676;0.7091113;-0.03247386;-0.12657027;0.20597398;0.04415528;-0.024398426;0.0046898066;0.035121128;-0.15735736;0.009902475;-0.025951587;0.14968367;0.6833641;0.21229245;0.2534605;0.5635221;-0.23732664;0.036075268;0.14496112;0.37557444;-0.02467606;0.0721464;-0.15373386;0.004968379;0.06479169;0.25728372;0.13121171;-0.030242033;0.5482307;0.7218431;-0.006493403;-0.4343856;0.12182756;0.62191314;-0.11876559;0.1595152;-0.50186956;0.039834596;0.0012947868;-0.03665616;0.38022113;0.24446197;0.22861038;-0.078667976;0.007512975;0.86753297;-0.16791928;0.038948465;-0.25162634;0.16844894;-0.048346225;0.059219144;-0.09612026;-0.017663922;0.06045796;-0.01560712;0.73823667;-0.54466426;0.016348545;0.09258735;0.6801395;0.65645826;-0.094209;-0.13008016;0.6863411;-0.6287902;-0.15003246;0.49483162;1.0046945;-0.1946354;0.11035157;0.42881;-0.06739027;0.18045254;-0.1669627;0.0040358733;0.028015442;-0.35473165;-0.13690557;0.44851014;0.009888529;0.27268702;-0.15710673;0.9446359;0.08852235;-0.08387809;0.37070578;0.016569186;-0.08876307;0.6872072;-0.79490864;-0.03321353;-0.25672922;0.7243468;-0.13609312;0.96027243;0.4197633;0.50149274;0.35136366;-1.0481819;0.35017213;0.06991027;-0.29345024;1.1986324;0.29175785;0.008613876;0.4176923;0.35035795;0.11644761;0.060284715;0.3544301;0.0026568174;0.59809667;0.57000697;0.09108939;-0.037564486;0.048949514;0.36507222;0.58732;-0.1055407;0.8143586;-0.1304671;0.27559146;0.26511416;0.00019686455;0.41392466;-0.051159527;0.5579013;0.09957456;0.43659773;0.13570827;-0.05928277;-0.27567378;0.043502003;-0.07642342;-0.065143965;-0.4389052;0.5391692;0.014519508;-0.08684076;-0.43270385;0.3298074;-0.6521657;-0.03073324;-0.030241938;-1.1348197;0.2530169;0.39439228;-0.31358343;0.07010433;0.78112125;-0.10218582;-0.07793893;-0.33033705;0.026528228;0.48767224;-0.19831157;-0.0900911;-0.26578972;-0.27405995;0.17451087;-0.46600637;-0.4703212;0.010078926;0.38169172;0.7544843;0.026725128;0.59731406;-0.11297229;-0.16473785;-0.66383034;0.16757667;-0.16052534;-0.955606;-0.054793637;0.24461904;0.028128613;0.06788991;-0.8216263;-0.9549115;0.010391032;0.028145852;-0.35345116;0.5442441;-0.95065206;-0.14032699;0.004244666
-0.020414175;-0.050175756;0.022295969;0.17471285;0.087420605;-0.0011935453;-0.45531482;0.7619754;-0.18906125;-0.050427232;-0.058053553;0.016651884;0.042838432;0.18063463;-0.4484424;-0.4469073;-0.35772184;-0.013624526;-0.08478417;0.058716256;0.30592775;-0.0257732;-0.018832916;0.44647023;0.239808;0.058887396;0.23790418;-0.09525968;0.02327942;-0.004465456;0.46379042;0.4530067;0.32715586;0.45171887;-0.25777656;-0.07457608;-0.02565954;-0.46808198;-0.11779014;-0.52300656;-0.080494255;-0.065894306;0.049556244;0.6018734;-0.07045807;0.07810047;0.26354283;-0.202971;0.5225529;-0.030464975;0.032423597;0.42153418;0.0009890065;-0.66252774;-0.12074602;0.041097514;0.17974849;-0.024462542;0.52397406;0.06998379;-0.02143097;-0.2257134;-0.015286245;-0.374093;0.1935075;-0.27116343;0.07270118;0.05245923;0.025578272;0.011773677;0.070407376;-0.03287853;-0.044746395;0.050450973;-0.4063246;-0.18593054;0.00535067;-0.75676894;0.10544237;-0.15128142;-0.055717275;-0.27150786;-0.38626456;0.036283866;0.109153986;0.11578174;-0.0074756932;0.36842903;-0.17098108;-0.05772705;-0.06415596;0.021454595;0.10413999;0.009711189;-0.06482172;-0.43965724;0.29236668;0.12668212;-0.28660515;-0.04235778;-0.08787447;-0.64901704;-0.046065375;0.0559145;-0.20190643;-0.06981519;0.040120855;-0.56485564;-0.24299213;-0.07335334;0.022945147;-0.26280668;0.060962357;-0.44615653;-0.21391793;-0.2335842;0.17422816;-0.35139653;-0.027980162;0.010384764;-0.042525668;-0.23798853;-0.3551849;-0.3916684;0.17662181;-0.42364177;0.38225564;0.03188687;0.49769035;0.029663736;-0.123532705;-0.03488891;0.18703249;-0.06509068;-0.059580117;-0.0103517035;0.057783235;0.42637354;0.24021147;-0.3204771;0.5982418;0.32979694;-0.30865186;-0.017040158;0.54931986;0.3879007;0.12569982;0.26673228;-0.16071899;-0.17881636;-0.6357572;0.0306588;0.09742308;-0.043488234;0.59595317;-0.012644047;-0.31005362;-0.84471893;0.03214772;0.30262077;0.0074070613;0.36677235;0.24483484;-0.05616399;0.16480438;0.041893106;0.18485932;0.34311306;0.4522222;0.08375996;0.027773201;-0.5302731;-0.07385504;-0.1729898;-0.08240833;-0.046511322;0.050987758;-0.002129909;-0.052924026;-0.03443672;0.6770068;0.13807373;0.34821293;0.035717156;0.34603146;0.07145953;0.40777782;0.041849148;-0.2452854;0.35946175;0.15194148;-0.26202065;0.0708049;0.21270819;0.04252973;-0.0573576;0.0032743781;-0.016352706;-0.07948718;0.27889028;-0.11070481;-0.2143236;-0.013367868;-0.022076655;0.2261051;-0.35867402;0.13059369;-0.05161769;-0.009502085;0.01138439;0.018691046;0.5792472;-0.04303848;-0.36737955;0.12329575;0.07282468;0.039275713;-0.05431536;0.20332587;0.5795298;-0.014716243;0.09716912;0.72444445;0.37064946;0.3153229;-0.043888733;0.04617277;0.029155822;-1.0150943;0.52046674;0.17573492;0.040471897;-0.18531741;0.06992595;0.37019375;-0.023774935;0.11330679;-0.018719992;-0.084065914;-0.52338576;0.1368623;-0.0201525;0.07272636;0.7129503;0.42722845;-0.4380769;0.017310292;-0.08680656;-0.14269817;0.17643887;-0.061808236;0.45142338;-0.050740995;0.467161;-0.99836576;0.0992731;0.4626791;-0.09352032;-0.1555948;-0.056770865;0.05233468;0.28467074;-0.017462827;-0.043615736;0.03302389;-0.15802763;0.065478295;0.084717244;0.041428823;-0.02347361;-0.73656607;-0.9438357;-0.0680706;0.43571472;0.23409435;0.3324602;0.040806368;-0.016457641;0.2926055;0.7959756;0.17599373;0.3954465;0.24440722;-0.031088272;-0.087649085;0.025179902;-0.066591285;0.31032363;-0.036295176;-0.06318059;-0.027358633;0.3553698;-0.407864;-0.012714014;-0.060092047;-0.34455493;0.033217594;0.042745654;0.35957506;-0.14123595;0.027320111;-0.40340802;-0.079291694;0.025193153;0.26346698;-0.8991166;-0.038479827;0.060341503;0.05050356;0.4207522;0.07478663;0.09688711;0.042142455;-0.04939655;-0.0071480656;0.21928972;0.1345875;0.44789037;0.48159143;0.23459174;-0.17041793;-0.90021646;0.5225266;-0.28308067;-0.08828072;-0.1432041;0.1360731;0.32387453;0.08615885;0.042721752;0.041778512;-0.60885024;-0.06637119;-0.18883158;-0.21222119;-0.38895082;0.057992004;-0.6581302;-0.33218104;0.047190152;-0.6944898;-0.29277873;0.023810102;-0.3763731;0.4532478;0.07695861;0.0027114677;0.0384964;0.52773046;0.1485967;-0.0324955;0.41646153;-0.097439654;-0.032958295;0.33961278;0.38986814;0.4423647;-0.00942783;0.050509654;0.3297212;0.4758293;-0.10344609;0.05233271;-0.05116729;0.029047154;0.42841288;0.39216584;0.7710589;0.28771165;0.1662942;-0.061098807;-0.021212127;0.4457936;0.46845275;-0.34228224;-0.64573085;0.11002036;-0.6625697;0.02040433;-0.12092741;-0.5709289;-0.13271672;0.040133264;0.10604175;0.27504835;0.012788001;-0.46585009;0.5488698;0.4148564;0.5091984;0.08691865;-0.017794851;0.17630833;0.052755408;0.029527422;0.05803937;0.063674636;-0.06167357;0.016820492;0.01617336;0.2617219;0.30229503;0.14525905;-0.07247215;0.39224046;-0.3792365;-0.060753714;0.009989731;0.2331749;-0.00024258683;0.073918484;-0.10592832;0.033117376;0.22737238;0.33066434;0.22664562;0.17403279;0.49259752;0.481773;-0.0532884;-0.35829362;0.32552895;0.44604272;0.025415093;-0.003411239;-0.31269678;-0.014094617;-0.038686775;-0.12783372;0.20379601;0.37043777;0.30041066;0.072541796;0.007049028;0.6289899;-0.36731705;-0.035255156;-0.40251577;0.12695199;-0.058045525;0.13228254;-0.3315643;-0.03588659;0.02853072;-0.06036671;0.5308471;-0.45793158;-0.10570303;0.023945883;0.49356595;0.45496556;-0.013263846;0.016017865;0.48387778;-0.6236208;-0.09630005;0.41614684;0.6491402;-0.18907994;0.3796136;0.22346549;0.015954215;0.0149506;-0.0034933817;-0.01702192;-0.028373336;-0.19164886;-0.14300701;0.37852985;-0.06438569;0.08617386;0.042242777;0.63356376;0.13599816;-0.014600967;0.29752865;-0.009624994;-0.28800923;0.4265676;-0.9515231;0.007751296;-0.4017771;0.5129998;-0.27256197;0.6921511;0.14928102;0.3483034;0.32090202;-0.87406063;0.06647106;0.1910368;-0.38584623;0.87648714;0.20417011;-0.048693806;0.34770453;0.33052793;0.37245864;0.21377778;0.30142763;0.09200964;0.3276107;0.3313181;-0.11664704;-0.06334909;-0.020663597;0.30173117;0.3933747;-0.006390581;0.66309345;-0.006427916;0.036726233;0.03954079;-0.02385669;0.28222057;-0.11544761;0.2982241;-0.048612002;0.54683554;0.07412279;-0.06404659;-0.22775365;-0.02534207;0.22935522;0.17097282;-0.37697548;0.38736755;0.0022300838;-0.1087729;-0.25355667;0.16698112;-0.55289406;0.04897066;0.03803704;-1.0844617;0.21014354;0.039555356;-0.13947876;0.124629445;0.66136706;0.022235386;0.07273991;-0.42196715;0.048108988;0.34173837;0.040033318;0.030075433;-0.21004224;-0.2102895;-0.05590401;-0.45068625;-0.4495049;0.035019606;0.14823985;0.5550341;-0.07420215;0.30078253;-0.06422351;-0.22336645;-0.4040132;0.140533;-0.18864241;-0.7975855;-0.08093533;-0.014495691;-0.0958484;-0.047975633;-0.62939245;-0.9067304;0.015066815;-0.06505455;-0.30196574;0.5108501;-0.9919241;0.20781383;0.01804289
0.01660779;-0.01223495;-0.011715897;0.23115963;0.17548718;-0.018839007;-0.34956726;0.5882861;-0.09678432;-0.058144886;0.050443064;-0.061255362;-0.067804776;0.2493724;-0.36236334;-0.39571196;-0.5335265;-0.023715254;0.1265824;0.06804182;0.20812298;-0.059152152;-0.0008719841;0.3214414;0.18182419;0.06818599;0.082162574;-0.02245722;0.03872402;0.043292236;0.40338156;0.32959735;0.2808508;0.17194517;-0.23679563;0.053367045;0.10152278;-0.39296812;0.0017036602;-0.49168023;-0.026329337;-0.065696046;0.010273188;0.5082006;0.07510859;-0.017325249;0.18871386;-0.09403071;0.5710257;-0.085360914;-0.018212078;0.3004159;0.086726554;-0.63959235;0.02933624;-0.0683713;0.04673756;-0.042972997;0.44955638;0.052636754;-0.016464364;-0.21953611;-0.06189689;-0.20273061;0.13075316;-0.26093856;-0.06082821;-0.07063507;0.15181829;-0.030886618;0.06909709;0.054945268;0.04514102;0.06929671;-0.22590598;-0.16382118;-0.05344387;-0.6851487;0.24633309;-0.19096953;-0.027044723;-0.15888749;-0.48795566;0.113725156;0.10226115;0.14371933;0.021553362;0.25998494;-0.14922464;-0.12512757;0.03469033;0.0024522801;0.15399833;-0.014665199;0.010214062;-0.5108856;0.33030373;0.18278418;-0.2545302;0.006732497;-0.25988522;-0.591964;-0.08195001;0.041528538;-0.21406503;0.036422398;0.049857922;-0.4129957;-0.20830297;0.042399645;-0.021638824;-0.15517929;-0.1027941;-0.36169195;-0.2629658;-0.06644913;0.20806108;-0.21075483;-0.06784124;0.007831083;0.03817957;-0.17184132;-0.24351893;-0.32713374;0.08714361;-0.48396936;0.3639916;0.04870812;0.4939181;0.013240391;-0.0005078786;0.010298054;0.27289417;-0.055374596;0.01806659;-0.06027104;-0.059338223;0.39395255;0.25953236;-0.14768606;0.42870954;0.1476658;-0.27577636;0.084978655;0.37485865;0.28590247;-0.09710264;0.120428704;-0.22462699;-0.1236486;-0.5284138;-0.121906094;0.09963437;0.06603596;0.7816562;0.052343044;-0.1584733;-0.7383451;0.038434036;0.16500247;0.060337435;0.34076115;0.29949623;-0.08367054;-0.05178319;0.006862675;0.024272138;0.24936742;0.5890946;0.209749;-0.04209446;-0.45502543;-0.07818068;-0.1330203;-0.026671931;0.03657196;0.02645761;0.04310595;-0.005906196;-0.042889196;0.80443615;-0.015012634;0.21598776;0.032834094;0.25128752;-0.043366726;0.28635025;0.011613488;-0.009268728;0.44763184;0.1778663;-0.17132765;-0.014431368;0.08635947;0.086966276;0.05959014;0.04700452;0.1993602;0.064368546;0.3542101;-0.11402588;-0.060853757;-0.0332091;0.14203303;0.20572852;-0.4723976;0.08007989;0.00019986367;0.08361142;-0.06093879;0.0022912016;0.46810555;0.007802337;-0.1831463;0.10141641;0.026415376;-0.037225556;0.0013905964;0.11102619;0.44567126;0.016177503;0.08887285;0.5493474;0.4339219;0.36274543;0.073157094;-0.098962486;-0.09753364;-0.8956363;0.32660106;-0.012813185;0.049056385;0.11481026;0.110426396;0.31836817;0.023353305;0.12594609;0.00079383986;-0.037244216;-0.42447776;0.20267712;-0.03152047;0.030765843;0.5514139;0.31173685;-0.40042824;-0.021814808;0.020941775;-0.08271164;0.13487276;-0.030232515;0.40381396;-0.09256967;0.48361608;-0.82910734;0.14720958;0.30407634;0.0011601571;-0.2398947;0.044375356;0.01738774;0.24142441;0.028736372;0.029559186;-0.052822564;0.016992504;0.13808973;-0.01940302;-0.06147313;-0.032877922;-0.52906436;-0.8811364;0.022098258;0.364651;0.11669348;0.31975234;0.036092173;-0.03517529;0.29296255;0.73225;0.1991189;0.39398247;0.30690092;-0.06168572;-0.08052399;0.025363902;-0.052869927;0.08859347;0.017371217;-0.038893178;0.022029331;0.43977612;-0.3371994;-0.004219169;0.08745457;-0.1913392;0.09078663;-0.06714615;0.19483589;-0.13370903;-0.03119265;-0.30449292;0.010698841;0.025783544;0.35917276;-0.6550763;-0.08109764;-0.099972434;0.053342275;0.3005777;0.041632846;0.11649908;0.21949191;0.09611453;-0.057533402;0.09067761;0.0294445;0.25217733;0.33468446;0.18081254;-0.24210681;-0.62769026;0.6278243;-0.1887032;-0.06000407;-0.005347159;0.19379035;0.09271486;0.111388184;-0.024647793;-0.005433228;-0.53068507;0.047214378;-0.18773861;-0.12373313;-0.28575617;-0.083979145;-0.46077806;-0.22026882;0.026416017;-0.5504551;-0.31100965;0.11683996;-0.30451122;0.35538325;0.20913129;-0.039479703;0.06334869;0.4621402;0.10013668;-0.07274256;0.61390793;-0.068262614;-0.030855302;0.31285176;0.25834948;0.4748882;-0.03914766;-0.06818804;0.22249071;0.40617722;-0.0824918;-0.0708203;0.0066694883;-0.010777506;0.24169973;0.47399232;0.7519294;0.38427052;0.11511132;-0.06276631;-0.08251713;0.28802788;0.33882934;-0.30706644;-0.53653157;-0.03948454;-0.41517076;-0.0073339157;-0.079443984;-0.5461284;-0.24236709;0.125634;0.30662957;0.28497106;0.0637345;-0.37429032;0.45067114;0.16059765;0.3584422;-0.01378327;0.10123847;0.06389726;-0.07183267;-0.0328271;-0.07305317;0.10937185;0.10892829;-0.04695455;0.017041767;0.19586943;0.15298216;0.12376143;-0.091696545;0.4296991;-0.27548176;-0.051851578;-0.03573502;0.12869552;-0.058475837;0.052457247;-0.007387066;-0.036682125;0.37198693;0.36909404;0.25439763;0.2241897;0.27681595;0.37161425;-0.07476679;-0.2516794;0.27163905;0.34174052;0.027185412;0.026224924;-0.16524146;-0.029331751;-0.018601064;-0.015771668;0.12415017;0.3223426;0.24001986;0.064574204;0.05186198;0.45177492;-0.3792902;-0.0049885586;-0.5405183;0.031397395;0.0677765;0.19612098;-0.36633977;0.04453954;0.05316777;-0.07880792;0.42842013;-0.35675755;-0.02836025;-0.065590195;0.33100447;0.25166294;-0.063972704;0.23757634;0.33725485;-0.54077613;-0.115074135;0.29313698;0.4080266;-0.059796996;0.47108024;0.2050947;0.0130897015;-0.16731218;0.12932411;0.048760515;-0.061314277;-0.1717273;-0.123849325;0.41964835;-0.080296315;0.009585403;0.16885762;0.49427512;0.22917555;0.058639016;0.17522435;0.011734117;-0.42448598;0.31606343;-0.88738763;0.0099657765;-0.2549386;0.23024745;-0.119016446;0.6546159;0.11487457;0.46668768;0.21259789;-0.6713208;0.09694559;0.13540938;-0.36735815;0.72677;0.13391952;0.016356442;0.23641491;0.30251905;0.32448494;0.17361057;0.24915206;-0.015052183;0.25127584;0.105651155;-0.16271429;0.07905665;0.0014148238;0.24899791;0.2809528;-0.01698123;0.49887484;-0.056416206;-0.027821846;0.05030344;-0.01727918;0.0467067;-0.06766209;0.36129534;-0.15129565;0.5088405;0.034912243;0.092965476;-0.31963402;-0.044496205;0.17330368;0.07768804;-0.34711784;0.36353117;0.0064592925;0.049145933;-0.2868909;0.20812654;-0.37531927;-0.06419069;-0.018409869;-0.9038045;0.028157616;-0.13392144;0.012382477;0.26596653;0.4658089;0.10079885;-0.06365902;-0.3544697;-0.052639678;0.32039002;0.16761488;-0.08922718;-0.22042853;-0.107399076;0.030275805;-0.5393291;-0.41419634;-0.096235566;0.091269724;0.34938967;-0.06031366;0.122076094;0.020871395;-0.18030778;-0.3308533;0.087030485;-0.1440718;-0.6739947;-0.009521699;-0.12684606;0.016885344;0.013686367;-0.65334284;-0.7601113;-0.09206361;-0.059440494;-0.20034498;0.39790452;-0.8776912;0.15986168;0.024287237
0.05007431;0.032733914;-0.052091524;0.12248336;0.06846461;0.012099428;-0.3549208;0.54514164;-0.080648966;-0.06882857;0.008519776;-0.017094813;0.08512802;0.21093397;-0.33578932;-0.22543588;-0.4946088;-0.029078443;0.1557649;0.023789028;0.17518969;0.09456289;0.010526821;0.3536906;0.12099884;-0.05292995;0.07792927;0.059827115;-0.0734575;-0.047789965;0.42817888;0.42477664;0.28028008;0.14899834;-0.22463004;0.1304432;0.1288639;-0.4809615;0.028069893;-0.3589232;0.045338593;0.019167038;-0.035594974;0.3784354;-0.114165336;-0.03269979;0.2561336;0.036489554;0.54197186;-0.038852617;0.039509084;0.41786972;-0.08223159;-0.5904401;0.043331522;0.0543425;-0.08086109;-0.017516572;0.36042184;0.011085086;0.07872539;-0.46890217;-0.073834695;-0.15860596;0.12988389;-0.1199248;0.0009247179;0.032500483;0.0631565;0.0701947;0.21086863;-0.069844216;0.14154944;-0.06727632;-0.20666961;-0.08546243;0.05751618;-0.6065549;0.1741745;-0.06700698;0.05057538;-0.15830202;-0.32908216;0.086565904;0.03404821;0.31588984;-0.08159495;0.05065524;-0.08400694;-0.08185187;0.0731883;0.01654091;0.11849536;-0.038092565;0.009965558;-0.24405032;0.388553;0.3580826;-0.14962852;0.11511813;-0.22908057;-0.294353;-0.026295073;-0.08430524;-0.28239512;0.044935573;-0.07865415;-0.23019329;-0.1742439;0.024702685;0.020168511;-0.055149894;-0.25750038;-0.30610815;-0.18603094;-0.0639443;0.1522459;-0.25655767;-0.02665059;-0.019265017;-0.006645751;-0.1267805;-0.46144325;-0.36436847;-0.012855067;-0.36186504;0.32559225;-0.06948449;0.56379306;-0.091400005;0.025316631;-0.038297977;0.24985065;0.06337431;0.057531033;0.045381956;0.01205318;0.30917436;0.15337156;-0.0054679536;0.45287663;0.16295761;-0.22009782;-0.0076826895;0.4390966;0.33286178;-0.06800063;0.03595794;-0.14128914;-0.12976551;-0.45623386;-0.15109223;0.0040412284;0.033995174;0.6333756;-0.06759108;-0.097555704;-0.71691895;0.052059654;0.116228975;-0.042198256;0.18145901;0.27714816;-0.12645698;-0.071139626;0.042882565;0.04847404;0.26393053;0.5903364;0.06457393;0.2047783;-0.34990084;-0.13089706;-0.05084865;-0.13328585;0.006971316;-0.0101676425;-0.069337636;-0.055950414;-0.051928747;0.784975;0.024412502;0.33003476;0.06498174;0.21850385;-0.22280724;0.31920514;-0.026686633;0.08205339;0.456747;0.07201656;0.013727575;-0.040743615;0.03119596;0.0017108078;0.107714646;0.042184927;0.21564572;-0.042570114;0.21653399;-0.07976408;0.15492512;-0.060813338;0.22529301;0.18210766;-0.30966768;0.033086926;0.035241768;0.13596264;-0.02106979;-0.017022459;0.6310199;0.047171652;-0.15843804;-0.0067288303;-0.061317913;0.06983529;0.16113816;-0.011693543;0.317455;-0.0062665343;-0.035139028;0.5467789;0.27976906;0.43354577;-0.0030212079;-0.039164096;-0.07529737;-0.7042508;0.3210703;0.04114095;-0.015514839;0.10401376;0.08776704;0.28383583;-0.026368767;0.20737189;-0.004514196;0.053261276;-0.29127786;0.13770477;0.09883887;-0.07307271;0.49226883;0.27748674;-0.18936238;0.03725742;-0.020921487;0.055014223;0.07242025;-0.014462162;0.20406136;-0.1291415;0.33481243;-0.5834392;0.101212986;0.23497716;0.12653486;-0.217376;-0.06050657;0.010779544;0.42848107;-0.03255297;0.043974794;0.00450759;-0.14361984;0.04873118;-0.043892253;0.026617082;-0.033374507;-0.48718363;-0.62878186;0.07753484;0.46492377;0.20437436;0.36332977;-0.03775092;0.013078122;0.26330155;0.49125096;0.07199064;0.48853973;0.2248412;0.0025979644;0.029392334;-0.028712617;0.057523336;0.07021003;0.05163917;0.01260012;0.047691178;0.5680891;-0.5344657;-0.011355904;0.13475864;-0.10719934;-0.055241007;0.035922583;0.19849944;-0.043466717;-0.09303375;-0.10841123;-0.0393069;-0.04794451;0.39304146;-0.4758646;0.03901276;-0.11664556;-0.03142996;0.2546995;0.022641419;0.18175152;0.12671132;0.16407612;-0.035248004;0.10631007;0.022026703;0.2289384;0.30612352;0.10367178;-0.12900306;-0.36747938;0.53635657;-0.21481332;9.8717996e-05;0.10711178;0.31389022;0.1523088;-0.005040526;-0.068499885;0.015392777;-0.5378425;0.07415912;-0.16592258;-0.073121935;-0.24654818;0.034212235;-0.45464057;-0.098285094;-0.07849971;-0.49031696;-0.26914448;0.13112582;-0.23953092;0.25888214;0.18642288;0.06993931;-0.06650097;0.28684008;0.06600304;0.02747424;0.51171964;0.055241846;-0.06833159;0.27523676;0.45768258;0.43883607;0.088922136;-0.040341645;0.2529966;0.3539988;-0.20298514;-0.04065894;0.062266495;0.1583519;0.29551342;0.44800875;0.7453515;0.26892042;0.0647361;0.02234329;-0.05934717;0.025153223;0.4064246;-0.38371736;-0.25734988;-0.027250955;-0.4062723;0.02167709;-0.046619523;-0.44478494;-0.23666996;0.07456212;0.3133975;0.06382419;-0.03998917;-0.2543942;0.33202952;0.123336725;0.2407963;-0.007959524;-0.036806326;0.04482754;0.007678132;-0.01021064;-0.040294126;0.018705688;0.0155951595;-0.0028250378;-0.03885156;0.15989342;0.09574833;0.057691406;-0.2030914;0.32251948;-0.23660891;0.009852451;0.062380023;-0.002762872;0.051342618;-0.056670018;-0.027012564;-0.030519245;0.20721187;0.47931445;0.22138484;0.14534912;0.3628302;0.32794386;-0.07080011;-0.28196558;0.41858634;0.29197645;0.0352146;0.05479219;-0.15907459;0.038098097;0.02535034;0.049129274;0.12694034;0.27127644;0.3244797;-0.05263305;-0.06908532;0.38758582;-0.32360882;-0.02056828;-0.39860752;0.0015254228;0.032705244;0.1641915;-0.30091855;0.051615987;0.011510664;0.061306786;0.28440705;-0.396866;-0.08601928;-0.009984448;0.3331366;0.26302502;0.06770755;0.29376993;0.46637225;-0.5324432;0.022809956;0.13367215;0.33164668;-0.15955724;0.52391994;0.27650028;0.055915285;-0.13729642;0.2549723;-0.010278332;-0.0058782673;-0.099631235;-0.100103274;0.26233932;0.06972946;-0.0007440324;0.24069726;0.4727585;0.19077443;-0.00573894;0.048922617;-0.011084996;-0.39009959;0.12637247;-0.73547375;-0.0115991635;-0.1852854;0.23374444;-0.037235547;0.5649716;0.08030823;0.4986624;0.18232282;-0.19560438;-0.009013036;0.15107253;-0.2382276;0.68664193;0.21239786;-0.041246466;0.20761035;0.263481;0.4762592;0.12749587;0.17956504;0.008569131;0.18115757;0.041151423;-0.22161713;0.03383743;0.034979906;0.13914435;0.32095984;0.09441079;0.42626294;-0.014202959;0.030453535;0.0933799;0.02523047;0.011886972;0.045697086;0.30406284;-0.08777347;0.388036;-0.10816879;0.031251106;-0.2734479;-0.016762812;0.19874425;0.105250776;-0.4212057;0.22721146;-0.0010790665;-0.0026478416;-0.2793443;0.033604756;-0.29233858;0.001119526;0.023368387;-0.6990698;0.118359625;-0.09383775;0.09845128;0.1384072;0.31294486;-0.0070731468;0.05333718;-0.109856114;-0.075236335;0.3717947;0.26036233;0.032824054;-0.019628068;-0.08126969;-0.046133645;-0.5141975;-0.3769451;0.028081162;0.02753711;0.39924017;0.0583298;0.20698312;0.024520177;0.06066733;-0.38470212;0.14457504;0.05150976;-0.5365651;0.09778986;-0.10522216;-0.029572465;-0.012694778;-0.6522674;-0.43691677;0.018458225;0.046631873;-0.2875689;0.40547913;-0.9235194;0.22082284;-0.09697863
0.123669766;0.01750079;0.02303952;0.16141418;0.08483824;0.0594182;-0.1896893;0.42981797;-0.23172465;-0.025778165;0.054532625;0.035543017;-0.07121946;0.1595341;-0.4114941;-0.32544702;-0.5753029;0.054273535;0.07758196;0.026628077;0.23250626;0.08758367;0.002458892;0.30544472;0.13273469;-0.040821034;0.09483604;0.05905779;0.08348834;-0.057691526;0.3737662;0.30580035;0.34551117;-0.021687653;-0.082107075;0.1394267;0.18729891;-0.3806469;0.032039333;-0.3234217;-0.013418075;0.053926654;-0.08030082;0.3542283;-0.1669292;-0.013444445;0.08032164;-0.0727031;0.64933616;0.049872525;-0.0480499;0.25441658;-0.02437413;-0.54241335;0.019960688;0.0056135445;-0.15474738;0.032394413;0.23978868;0.088522114;0.075362936;-0.3921908;0.010122413;-0.1268333;0.15189494;-0.07216252;0.054534473;0.0056012194;0.08818454;0.06754593;0.2451753;0.033478152;0.041857757;-0.026534367;-0.15102787;-0.2661995;0.014733564;-0.5085778;0.29116464;-0.08853665;-0.023091175;-0.20779553;-0.24869725;0.08138578;0.051565968;0.26021338;0.0028943243;0.01925408;-0.07743934;-0.010941049;-0.04250507;0.050376814;0.058826774;0.06922573;-0.03589218;-0.3002338;0.29883814;0.42948073;-0.17663097;0.14456618;-0.07138829;-0.25166598;-0.010720249;-0.050995063;-0.20426324;-0.037007708;0.024246199;-0.026125126;-0.017092485;-0.05393271;-0.046507858;-0.0918113;-0.28580454;-0.1373597;-0.17112997;0.008709178;0.06120738;-0.21520855;-0.032679413;-0.020874629;-0.04965543;-0.189597;-0.44941673;-0.37682667;-0.05433663;-0.30487195;0.2990318;-0.046495948;0.6180549;0.0010298023;0.06341305;0.015073848;0.43538624;0.03297613;-0.08361103;-0.028218212;-0.0441435;0.2622216;0.17152189;0.037843004;0.44193572;-0.037669845;-0.1524193;-0.046686318;0.37776944;0.3952703;-0.0046801856;0.11172896;-0.10652561;-0.08761949;-0.44226077;-0.15128276;-0.031246448;0.016538402;0.58684903;0.07013117;-0.0022577767;-0.5333157;0.03155151;0.16032422;0.020874133;0.10333292;0.26722553;-0.16219765;-0.048290152;0.0316358;-0.08622222;0.29753008;0.42543462;0.08698799;0.18055317;-0.2007506;-0.23919481;0.030828377;-0.11499556;0.030870715;-0.035709124;-0.037744094;0.045310777;0.04944914;0.78959954;-0.098459065;0.33113694;0.19591045;0.2896645;-0.3586296;0.3974634;0.0063299676;0.047579773;0.4277946;0.15554579;0.08714554;-0.06535061;0.10630354;-0.039942585;0.2076509;-0.089529164;0.2681857;-0.047455024;0.16332747;-0.1214504;0.16148216;-0.049856596;0.29546613;0.17628318;-0.31215096;0.080334336;-0.0624;0.16829973;0.05516804;0.012371356;0.48708394;-0.07436211;-0.08529441;0.04182886;-0.20643656;-0.026129058;0.16441627;-0.0073868;0.24281992;0.13540308;-0.062278554;0.49670553;0.2959186;0.4970364;-0.030709704;0.04972274;-0.08607109;-0.5302513;0.26686534;-0.031809293;-0.059217118;0.12568381;0.17148645;0.14258932;-0.030157419;0.07965787;-0.02832934;0.070004635;-0.3416711;0.18902028;-0.04968172;0.01575968;0.3417023;0.2620141;-0.18803181;-0.011510791;0.027411431;0.096097186;0.11049211;0.050096806;0.06985342;-0.13344371;0.3558445;-0.4082018;0.04950509;0.3499932;0.27471182;-0.24896847;0.07368316;0.028505562;0.45868534;-0.016052138;-0.06964872;-0.0140496055;-0.14981696;0.08751581;-0.03492986;0.09013044;0.028703677;-0.50513923;-0.41770554;-0.0431899;0.33685625;0.10248166;0.20278597;0.0115575455;0.07613782;0.3050776;0.35652515;0.05072413;0.45592776;0.22020431;-0.00031313987;0.0118752625;-0.025435852;0.014907672;0.14199965;-0.048280377;0.021501591;0.05299219;0.57281035;-0.5853452;-0.03553468;0.1826129;-0.05005074;-0.08241416;0.021514943;0.1686918;-0.028774766;-0.23898046;-0.10386227;0.115306765;0.037686527;0.33170772;-0.3339564;0.04724074;-0.061736252;-0.05223378;0.21074586;-0.076192796;0.24424204;0.29562193;0.13311738;-0.0627851;0.07212175;0.092696674;0.11369519;0.1723161;0.08807625;-0.14054771;-0.30952647;0.63914347;-0.26749012;0.0891914;0.1172637;0.42547208;0.17688106;0.037908368;0.04558189;0.00070685515;-0.43847722;0.037444063;-0.008048659;0.036408786;-0.048716765;0.011539287;-0.44534212;-0.031387363;-0.024374908;-0.37474483;-0.302434;0.19593444;-0.30498755;0.17570889;0.2531312;-0.07301405;-0.0075200615;0.29473102;0.07262622;0.04905036;0.5389027;0.038777284;-0.038410418;0.35375455;0.329134;0.2868712;-0.029244116;-0.06350583;0.28370994;0.27122813;-0.20751482;0.009085567;0.032290682;0.09470938;0.3705048;0.42555726;0.6084946;0.29456082;0.10338586;0.0611025;-0.15797134;-0.035923008;0.3727551;-0.4095226;-0.2637249;-0.054057073;-0.24743055;-0.09276428;-0.070812985;-0.43641838;-0.18383855;0.09892763;0.35898155;0.09543393;0.008569019;-0.21682657;0.35395762;0.13156568;0.2473439;-0.07811964;0.020427011;0.08985958;-0.051648065;0.041333232;0.06887696;0.099747576;0.05263819;-0.008120763;-0.014883262;0.08425243;0.03781148;-0.02452865;-0.12808111;0.37130702;-0.19792913;-0.012581728;0.04006714;0.14498611;0.055310093;-0.032746613;-0.061040983;0.015040061;0.17075312;0.31682268;0.21868753;0.1560554;0.4148421;0.21643993;0.006020662;-0.22709073;0.39695823;0.23806801;0.03680809;-0.034972776;-0.089720406;-0.08828706;-0.0656597;0.047567215;-0.02111565;0.29418892;0.30491513;-0.05967352;-0.024962094;0.3150218;-0.27612692;0.013806776;-0.56722194;0.027516868;-0.020863479;0.04487182;-0.31502715;-0.08261571;-0.07305622;0.018369092;0.18180957;-0.4530699;-0.20912875;-0.052825637;0.1767773;0.26842242;0.0180328;0.35893148;0.3433184;-0.36516848;0.021830983;0.23112555;0.27176437;-0.17880024;0.6669162;0.21854486;-0.018955829;-0.051770955;0.22328952;-0.003156093;0.0410331;0.029606933;0.031029822;0.32749277;0.045968425;0.051605694;0.21525334;0.37662923;0.052718543;-0.019721417;-0.13724202;0.009011254;-0.34924975;0.08429501;-0.64755356;-0.030106664;-0.065700755;0.16106711;0.009459281;0.5344846;-0.005101607;0.5975713;0.069885105;-0.0025053064;0.081681415;0.1975592;-0.26370767;0.5826245;0.26054;0.045866754;0.1274251;0.29177514;0.4970013;0.020567618;0.081995286;-0.02266081;0.097104974;-0.028018128;-0.2914003;-0.04001563;-0.08711934;0.12488856;0.23213004;0.06587509;0.48062897;-0.005917096;0.05933353;0.07266728;0.041838933;0.049165558;0.02666746;0.122400455;-0.14007016;0.34798226;-0.0040654643;0.044957526;-0.25635034;0.004396766;0.25536844;0.02507944;-0.40913942;0.21554416;0.022678787;0.063150175;-0.37632278;-0.033214625;-0.13270904;0.015676165;-0.04968554;-0.58979714;0.052685667;-0.1813773;-0.02627031;0.20120226;0.2945019;-0.038952723;0.06813969;-0.087811835;0.032709744;0.47835243;0.19905399;0.052434944;0.06259142;-0.18921371;-0.055325873;-0.48833326;-0.26562345;0.008059585;-0.03921282;0.31404123;-0.052057803;0.02207428;0.02260392;-0.096490726;-0.292818;0.052216034;-0.018607952;-0.39269245;0.04100708;-0.15323016;-0.04381721;0.03630289;-0.586592;-0.2506;0.054435305;-0.02141038;-0.21541551;0.49935463;-0.8805861;0.35734293;0.035350088
0.092305526;0.052354526;0.055383217;0.14278333;0.022613717;-0.053140894;-0.11392339;0.32449752;-0.16596709;0.052889846;0.02476934;0.030136041;0.072466604;0.19124569;-0.290082;-0.19990647;-0.4061235;0.028445689;0.21499787;-0.050313655;0.09523242;-0.04722768;-0.039704733;0.19245788;0.062933676;-0.11873862;-0.06129649;0.024657656;-0.03744372;-0.018084938;0.44170678;0.24922228;0.21004573;0.03310146;-0.049716897;0.18470062;0.22848617;-0.412378;-0.0006392142;-0.33285293;0.011886568;0.05516213;0.021400439;0.34800467;-0.22808678;0.06310965;0.15095;0.053368255;0.48410317;0.04291687;-0.002757623;0.2978755;-0.032410618;-0.58769935;0.05816188;0.03088041;-0.010873659;0.032840032;0.21025813;0.039899457;0.057413787;-0.444326;0.0001243459;-0.045040276;0.19027327;0.07110262;-0.024038296;0.021352962;0.22444813;0.06889605;0.18615995;0.04529435;0.05405464;-0.040788345;-0.18156369;-0.092869885;0.07031005;-0.4265473;0.27670336;0.024424106;0.08338449;-0.13606292;-0.11759324;0.15510611;0.047433402;0.16267072;-0.014319558;-0.10329205;-0.020368766;0.033148587;-0.05282979;-0.035356015;0.04829195;-0.016938986;0.08264613;-0.24761179;0.38413012;0.34186903;0.050385073;0.3027536;-0.0629299;-0.120605;0.022749176;-0.029266585;-0.20261511;-0.024859786;-0.009156436;-0.0033410091;-0.017433831;0.050534863;0.07981234;0.08837645;-0.16657819;-0.18503459;-0.16582124;-0.0634505;-0.0065566064;-0.14029828;-0.06827949;0.028754013;0.058166638;-0.10903498;-0.4572418;-0.33165345;0.08596889;-0.25748584;0.36888587;-0.01806796;0.5409019;-0.025473354;-0.02688021;0.031883992;0.2772202;0.024487674;0.042734656;-0.0062439227;0.06911193;0.1741305;0.15759881;0.16779906;0.31574658;0.021534676;-0.126087;0.08387868;0.40432876;0.37980705;-0.07691256;0.16500589;-0.11791621;-0.101249754;-0.2461719;-0.12282518;-0.015484669;-0.052494474;0.62373906;0.013918253;0.016879268;-0.34825033;-0.08427816;0.11505275;-0.019669894;0.022498265;0.37104627;-0.102353945;-0.03051018;-0.06902595;-0.09661359;0.27673924;0.3394198;0.024784278;0.34651506;-0.13137324;-0.13784838;0.05514875;0.0039385413;-0.013583358;-0.06628666;0.062099677;0.0056758486;-0.04119643;0.7522113;-0.1438125;0.19708484;0.25346822;0.23411004;-0.3956809;0.28535566;-0.0770644;0.007378511;0.5022161;0.035054605;0.031057658;0.07167155;0.0954674;-0.051376645;0.24084865;-0.093915455;0.303561;0.02193397;0.16836613;-0.21021749;0.20098259;0.075898126;0.38046512;0.29991183;-0.37789524;-0.07262119;0.08742888;0.11817849;-0.024773685;0.06943183;0.49782264;-0.016164249;0.07567039;-0.05175195;-0.09615643;0.028804945;0.12310764;-0.17858078;0.26347944;0.0470926;-0.011343136;0.34647608;0.2369839;0.38808814;0.049577266;0.01331805;-0.036627952;-0.24672;0.17890571;-0.018675566;-0.0773622;0.18943873;0.17150095;0.20558408;0.033115823;0.19527891;-0.012600933;0.028203404;-0.1516891;0.080663435;0.03546758;-0.046742693;0.24166559;0.30305517;-0.057350844;-0.025356058;0.00386269;0.03619255;0.089824155;0.008560005;0.039204195;-0.15889935;0.22549525;-0.36062264;-0.05295875;0.26853815;0.26565537;-0.18427618;0.007288167;0.006758451;0.43858904;0.025872577;-0.0100761745;0.04387239;-0.08430158;0.08615323;-0.1384011;-0.01850759;-0.0077144015;-0.35881495;-0.31287912;-0.034398496;0.20361899;0.13330823;0.22351284;-0.052661344;-0.031238018;0.24669136;0.37650397;-0.04517362;0.52336466;0.07700459;0.10446179;0.015320319;-0.022083998;0.073241025;0.09974376;-0.011286531;-0.008681774;0.015247828;0.5597017;-0.53064257;-0.043518655;0.14661148;-0.11838015;-0.13148719;-0.050325613;0.14229666;-0.055614505;-0.19456062;-0.18237713;0.12472533;0.11351353;0.35821852;-0.23773263;-0.015476555;-0.03181039;0.11666358;0.05693607;-0.08364684;0.15120365;0.29834142;0.16432405;0.033353403;0.1622215;0.03906305;0.10887801;0.14195468;0.17614713;-0.23653583;-0.19759147;0.6975973;-0.25247532;0.020164715;0.11383518;0.35882038;0.12532902;0.0023689552;0.0074389926;-0.009518025;-0.36146957;-0.033930153;-0.014228107;0.04752686;-0.13995452;-0.02530895;-0.46026227;0.058087606;0.05487848;-0.431708;-0.2091229;0.22159292;-0.23236011;0.07451399;0.2548531;-0.04273726;0.036525596;0.18236613;-0.05004041;-0.050896365;0.52203506;-0.02766558;-0.025834072;0.25119117;0.48513013;0.41508636;0.039463162;-0.047345698;0.16326605;0.30440542;-0.19797574;-0.058512185;-0.006078712;0.016835509;0.24165484;0.41131294;0.5586074;0.3238014;0.004480424;0.03306092;-0.07203882;-0.03721732;0.26015836;-0.29193655;-0.06648272;0.05792683;-0.17045471;0.0085510425;-0.084181026;-0.4379529;-0.22168915;-0.04410729;0.469535;-0.054657143;0.0929616;-0.2118619;0.2571767;0.13604786;0.15391739;0.065483555;0.037092853;0.0587444;-0.054457214;-0.019795794;0.038814202;0.07457311;0.1072427;0.029209612;0.03112545;0.08854425;0.084249616;0.09858228;-0.18467855;0.3685202;-0.1178525;0.023461688;-0.039795376;0.03111913;-0.008870943;-0.11282488;-0.007680086;-0.017450588;0.23688933;0.38205522;0.17056231;0.23118387;0.26872328;0.19886574;0.13520434;-0.20651205;0.43149024;0.10829895;-0.03101249;0.045262065;-0.11443795;0.04554165;0.07557662;0.06738307;0.0008948479;0.3095681;0.18772101;-0.06133725;-0.021843612;0.17433093;-0.14688449;0.016406767;-0.5037264;0.18494377;0.014275627;-0.02536841;-0.43244845;0.0556865;-0.030602958;0.07390859;0.13306858;-0.575055;-0.016884398;-0.02965401;0.16030312;0.27506286;0.029835738;0.2640225;0.41772482;-0.33731794;0.060318813;0.2525684;0.116328135;-0.13298798;0.70477635;0.25851336;-0.047171313;-0.078433774;0.27605516;0.022377951;-0.01582717;0.026354276;-0.033349358;0.3628509;0.0024887605;0.08149899;0.16212597;0.36057466;0.10234311;0.044520043;-0.16955793;-0.06281683;-0.31993628;0.18264061;-0.58153385;0.08464855;-0.013742449;0.11105714;-0.04433856;0.42755255;0.12882215;0.5997375;-0.069412135;0.004733582;0.007762309;0.23032258;-0.13408366;0.52260953;0.18264797;0.020343402;0.23223728;0.17535158;0.4586365;-0.033654552;-0.013994068;-0.018872889;-0.009694046;-0.007178941;-0.30066067;0.04224001;-0.045964107;-0.12285544;0.14483419;-0.009574956;0.4695847;0.008327919;0.017003497;0.1087525;-0.013562673;-0.10593403;0.14115639;0.0892818;0.046460092;0.27610594;-0.123480394;-0.03539708;-0.34586772;-0.014174353;0.17707552;0.050166007;-0.32329792;0.07912167;-0.033130653;-0.040103104;-0.42173514;-0.041294746;-0.017174382;0.05219071;0.051025894;-0.44914755;0.14747584;-0.19138874;0.06164464;0.12581642;0.24018735;0.07301072;-0.054352965;0.089295805;-0.014553961;0.35497752;0.21745794;0.061137214;-0.11597398;-0.10749153;0.043039963;-0.34673074;-0.23352762;0.022156842;-0.028440205;0.20032227;0.012397741;0.061832238;0.027690869;-0.023556741;-0.23389062;-0.03947482;0.114106864;-0.29813752;-0.033820484;-0.051429547;0.055890765;-0.059672903;-0.5031164;-0.13235283;-0.04296091;-0.050462414;-0.13138866;0.49377963;-0.86833847;0.33139268;0.01710614
0.00264543;-0.01906888;0.037270095;0.016350534;0.057662394;0.030252486;-0.02373103;0.2470438;-0.19012001;0.042268194;0.0031141182;0.057467066;-0.029185057;0.2094674;-0.3293967;-0.15375623;-0.395385;0.07368838;0.25911337;-0.0076311603;0.14949673;-0.009350182;0.07892855;0.21999288;0.116417766;-0.08844175;0.100646645;0.050681755;0.02130055;0.03788943;0.29099068;0.39751667;0.087926276;-0.06100115;0.00050113257;0.2221814;0.18965681;-0.43951106;-0.01352351;-0.092133954;0.008136977;0.017802157;0.07172164;0.3074126;-0.16038603;-0.01295471;0.07748955;0.008858761;0.4143245;-0.027592558;0.035834346;0.25726384;0.037775133;-0.38672537;0.036679283;-0.0066684796;-0.04116586;-0.063225605;0.1034453;0.07506089;0.009992495;-0.6408987;0.028934702;-0.094009265;0.10400362;-0.013344014;-0.0012229194;-0.007231233;0.16861054;0.00021273771;0.25905046;-0.065402485;0.13574569;0.019246116;-0.13145112;-0.24441811;0.10143306;-0.31362575;0.16366847;-0.041088644;0.04889638;-0.19586518;-0.08029024;0.065708295;0.10402062;0.22496457;0.044633552;-0.17154723;-0.05645464;-0.023584498;-0.0068842634;-0.054446;-0.042317558;-0.046398766;0.07108208;-0.22724542;0.50484866;0.3309123;0.015294121;0.2498836;-0.14737394;-0.034552008;0.008061246;0.021714445;-0.08865212;0.0017047315;0.042776532;-0.047604784;-0.11194028;0.05423214;-0.05867044;0.053947873;-0.06373869;0.013511816;-0.13086358;-0.061862025;0.13278496;-0.04815674;-0.118190825;0.015917176;0.011591458;-0.14038844;-0.49244043;-0.27163535;0.021629866;-0.26228708;0.29534408;0.050483096;0.5611903;-0.014993949;0.1100958;0.06524798;0.31177643;0.05736316;-0.0006160551;0.082359724;-0.047099736;0.17613196;0.14007956;0.24505778;0.26736215;0.016436554;-0.17649592;-0.046542794;0.38763398;0.33922544;-0.051543016;0.08839745;0.0500323;-0.04552252;-0.20165043;0.0013085823;-0.056216177;0.010703738;0.42545822;0.042857714;-0.073041946;-0.22955216;0.051149085;0.028750297;0.07539683;0.09125669;0.22876269;-0.1356964;-0.066525616;0.018476149;-0.15270042;0.27802843;0.46920225;0.1440592;0.33080736;-0.092053376;-0.16254203;0.08936755;0.03204181;-0.028911052;-0.044622473;-0.021020563;0.06734768;0.038443957;0.64277136;-0.09751906;0.15829466;0.31861845;0.15717807;-0.45023775;0.33687237;0.0075665065;0.048907444;0.44923395;-0.010747763;0.196653;0.0015214267;0.04931346;-0.02309671;0.17934935;-0.03262422;0.35188165;0.0017910845;0.14679812;-0.09572461;0.27651304;0.009003881;0.31475058;0.16245373;-0.29837266;-0.12826979;-0.05236908;-0.012399397;0.032604553;-0.041493036;0.4024356;-0.015105382;0.051190976;-0.060144775;-0.1955176;-0.010639997;0.14535455;-0.038593225;0.28305587;0.025258971;-0.06564188;0.40119827;0.09509747;0.2777531;0.059235096;0.009416704;-0.02156386;-0.102182366;0.14431924;0.03718913;0.01734176;0.24476673;0.110893086;0.06868889;-0.0020836152;0.16446166;-0.007846049;-0.031306297;-0.2045749;0.07869315;-0.029198557;-0.10204105;0.2190341;0.38082868;0.035803616;-0.0503595;-0.008033156;0.05821961;0.12012656;0.009095094;-0.033065446;-0.05469745;0.23183045;-0.25872776;-0.0046127574;0.25468606;0.1511841;-0.32547152;0.00040580594;0.017061504;0.4139854;0.05774022;-0.0033606507;0.10942899;-0.10957325;0.21335986;-0.18218216;0.07324227;-0.028255485;-0.23173453;-0.047447357;0.089683406;0.119961575;0.13973635;0.18853186;-0.063132845;-0.008964358;0.27483296;0.3471875;0.018018546;0.3767215;0.22158271;-0.004270852;0.030525452;-0.010845692;-0.020904118;-0.014221153;0.12136271;0.048645835;-0.017058555;0.56735414;-0.54346246;-0.026166989;0.17918274;-0.032554988;-0.09486925;0.023118177;0.05666703;0.019153092;-0.26816744;-0.08833592;0.050408706;0.13964953;0.5610462;-0.1608168;0.013464919;-0.113008134;0.058474705;0.028341046;-0.0327968;0.24451852;0.35224035;0.27883917;-0.088793084;0.0839393;0.05440986;0.044987287;0.27390227;0.16331914;-0.20808837;0.002117664;0.57986313;-0.2342744;0.04494287;0.12268534;0.43409935;0.13723134;0.14705865;-0.050678227;0.043888044;-0.21831255;0.05236868;-0.046265323;0.06858843;-0.028919373;-0.043106925;-0.43160936;-0.05350224;-0.08331714;-0.3226763;-0.26915893;0.21979286;-0.37307945;0.10849973;0.26074454;0.021043235;0.00031611795;0.21753615;-0.03495666;0.0054395464;0.49981943;0.028195754;-0.019806936;0.1996936;0.5063708;0.35344118;-0.057845373;-0.015627077;0.0040826113;0.26073235;-0.026691034;0.033645038;-0.05061744;0.06847058;0.14692542;0.23422714;0.4683172;0.2812709;-0.07383146;-0.0064248377;-0.1239731;-0.2738177;0.25020424;-0.27746034;0.014285963;-0.026286846;-0.16741535;-0.043561857;-0.08838484;-0.30561495;-0.076043054;0.005561624;0.41838154;-0.06335;0.06257644;-0.2758729;0.08284258;-0.07496301;0.15820217;-0.048437655;0.008240923;0.07267077;0.012548804;-0.0067468775;-0.057038285;-0.0147680035;0.014352265;0.024888204;0.05539292;0.25207967;0.11660955;0.04626506;-0.25513452;0.34068522;-0.058557477;0.028028218;0.095509484;0.11234923;-0.08023115;-0.12204408;-0.03937515;-0.061884336;0.17989683;0.24219063;0.20252192;0.2819842;0.29737395;0.18840303;0.3481599;-0.16483347;0.3080181;0.1369807;-0.009717254;0.009298673;-0.13297758;0.023141757;0.04503585;-0.00769516;0.062201858;0.2744343;0.22900799;0.08468118;0.024694245;0.19444501;-0.09495926;-0.035935976;-0.3642155;0.1462232;0.0036649052;0.025785089;-0.424811;0.06788702;-0.04749311;0.07669367;0.03049816;-0.46246967;-0.038203824;-0.020409856;0.06107867;0.13454038;0.0006690992;0.3808272;0.35405743;-0.1863084;0.044842485;0.2874062;0.049251057;-0.31258956;0.75137645;0.1854915;0.08348349;-0.17215924;0.21958305;-0.048346408;0.043237668;0.03879251;0.11133761;0.3114846;-0.053644363;-0.052881494;0.15947723;0.3798063;0.007779575;0.006471298;-0.1615795;-0.057867337;-0.32992232;0.089286074;-0.43975013;0.043959104;0.13553113;0.20243718;-0.0019575753;0.35760528;0.11344453;0.58552015;-0.14142404;0.13326731;-0.046187066;0.1808357;0.0026790872;0.36997363;0.20129271;0.035762284;0.053843763;0.16895789;0.4549751;-0.00555398;-0.23598582;-0.024173258;0.043452866;-0.18885787;-0.27309805;0.025340786;0.06744014;-0.14234449;0.21694839;0.0446315;0.3716682;0.038424246;-0.12067658;0.11436644;-0.031096872;-0.04175789;0.15120955;0.15616792;-0.019191263;0.33098382;0.002335068;-0.029874498;-0.1849403;0.031475678;0.3086914;0.03658828;-0.40413156;0.14798804;-0.0505122;0.002362186;-0.43651116;0.070890754;0.08720767;-0.0465907;-0.031655107;-0.30299446;0.12956463;-0.030504547;0.15798686;0.017937725;0.15306278;-0.048905015;0.045687634;0.17612565;-0.012045012;0.3141008;0.24146084;0.024239268;-0.14392327;-0.12037731;0.07118657;-0.38620898;-0.33818355;0.042608928;-0.017149463;0.22606981;0.09039001;0.05481709;0.14139941;-0.14742266;-0.22978923;0.1087941;0.081031635;-0.056872267;0.024337253;-0.09159173;0.004555765;0.0732647;-0.48518828;-0.0700285;0.055154238;0.025734011;-0.1357957;0.3214674;-0.9076631;0.4115418;0.03610042
-0.035652243;0.07861034;-0.057722352;-0.032846447;-0.013218777;-0.018913696;-0.057496548;0.033980556;-0.082351185;0.04926851;0.01655193;0.051599897;0.05827776;0.27755886;-0.2567731;-0.009263568;-0.50155747;0.026505964;0.34716487;-0.17664579;0.13674122;0.019535638;0.0018545688;0.10984516;0.15630472;-0.12637345;-0.033846572;0.03852858;-0.015846472;0.001701502;0.38213357;0.3334385;0.021003611;-0.17928168;0.09129905;0.26610824;0.13928758;-0.32547358;-0.003913722;-0.21313825;-0.004268945;-0.009617411;-0.053762447;0.18670067;-0.13970461;-0.042372573;-0.02492302;0.082487464;0.46938;0.01708817;0.045725975;0.27890858;0.049683936;-0.27218103;-0.026158448;-0.07731355;-0.07236559;0.0604297;0.111109704;0.15788566;-0.055607166;-0.50212866;0.0013215609;0.11268672;0.27820143;0.04109562;-0.042637687;0.019290976;0.23111568;-0.01955276;0.1567041;0.030134449;0.025742633;-0.06703746;-0.044224948;-0.22624747;0.018205687;-0.286884;0.26870567;0.016162986;-0.04628007;-0.13615464;-0.17595902;0.11492889;0.059055753;0.22952461;0.049499128;-0.20792265;-0.13679035;0.0986116;0.061834745;-0.040155157;0.05313269;-0.009424917;-0.05253841;-0.29913974;0.38463157;0.2672674;0.26213127;0.23569888;-0.14852741;-0.06410826;0.10783881;0.05065748;-0.07287218;0.00791704;-0.06233823;0.05627841;-0.05635495;-0.028312804;0.015893307;0.10826252;-0.0510553;-0.027075777;-0.11533643;0.100913286;-0.002392289;0.019948512;-0.10565464;-0.037168995;-0.039671298;-0.014898271;-0.5638846;-0.40772146;0.088701785;-0.26901007;0.24069041;0.047802374;0.542641;0.05472378;-0.036222685;0.0030240905;0.1800954;0.016027942;-0.0084159;-0.059125535;-0.025979627;0.24979852;0.2076962;0.27668184;0.21391523;-0.039877698;-0.16069596;0.017789835;0.3325268;0.34771186;-0.02378089;-0.0716354;-0.017300433;-0.014569137;-0.13711877;-0.13852072;-0.02654284;-0.008326082;0.34823382;-0.07130658;-0.05016358;-0.26272887;0.036241017;0.06764379;0.025428193;0.08207303;0.3017236;-0.046839435;-0.16245213;0.00487274;-0.2125652;0.36245063;0.4681293;0.1437352;0.381857;-0.0018645321;-0.09230115;0.007862457;0.014586173;0.04002023;0.0916556;0.037217755;-0.0008490629;-0.011419282;0.7125939;-0.06853588;0.14062332;0.18746892;0.050699633;-0.3158569;0.38376287;0.05153939;0.210021;0.28844407;0.04165539;0.3094332;0.04926847;0.049867358;-0.022985373;0.2326217;0.041944858;0.33571717;0.007413124;0.12552877;-0.24942751;0.21804279;-0.08697456;0.27247542;0.32265973;-0.24952678;0.0009836633;-0.06899175;-0.034586497;0.05746159;-0.047060743;0.46943998;0.069392376;0.0016013013;0.100855604;-0.12324899;-0.017742315;0.12817898;-0.109394416;0.1941031;0.08734597;-0.034496583;0.3370294;0.13445579;0.26923826;-0.03810686;0.056004792;-0.070999846;-0.028292391;0.05471;0.011515902;-0.020837685;0.37290618;0.1376465;0.19983426;-0.038901057;0.053529214;0.005117794;0.047572933;-0.21367078;-0.019582964;0.046147317;-0.057373766;0.18417303;0.20795369;0.15758184;0.006230696;0.07158196;0.025685478;0.08818857;-0.05763317;-0.0006933192;-0.08592252;0.30295065;-0.10430975;-0.01862702;0.31536716;0.2145631;-0.12064454;0.013621425;-0.03393958;0.4049165;-0.07349282;0.015746385;-0.0047104647;-0.010367011;0.26508716;-0.15124933;-0.055537164;0.081100434;-0.285614;-0.110602885;-0.021792576;0.14244452;0.084037535;0.2523391;-0.04740644;-0.0077983527;0.30436552;0.29455772;-0.100629516;0.3333777;0.25612533;-0.018227682;-0.012871972;-0.019848347;-0.07070469;-0.04624862;0.029752051;0.11548513;-0.06829917;0.47650376;-0.5062805;-0.019271439;0.24617654;-0.019820329;-0.14266492;-0.025379766;0.16747892;-0.007980268;-0.39016894;-0.08767354;0.12247791;0.14547388;0.48308745;-0.16162708;-0.03697249;0.03879836;0.008127419;-0.01918062;0.03929586;0.2960046;0.39360207;0.21552576;-0.071601674;0.21446307;0.00060511957;-0.016426794;0.24164145;0.027079228;-0.15236224;-0.054494303;0.6829273;-0.22246446;0.17835668;0.101482764;0.36328852;0.0037795992;-0.049095906;0.03477305;0.022459641;-0.23739138;0.029917734;-0.09935926;0.11643814;-0.016154023;-0.06717354;-0.2673737;0.019683886;-0.007958657;-0.3693133;-0.3291642;0.26666588;-0.26502123;0.12587054;0.30281287;-0.04804553;0.04646657;0.054243963;0.0033952082;0.03550678;0.57883817;0.02049751;-0.14431009;0.18385722;0.42199868;0.45717022;-0.021306677;0.05311008;0.02735405;0.16441038;-0.032144625;0.00017111248;0.034692716;0.04729568;0.09069584;0.3179907;0.484774;0.32047486;-0.004412178;0.012671468;-0.05789934;-0.26484135;0.054126903;-0.2031876;-0.07521097;-0.0055020265;-0.16085;0.012751707;-0.067911744;-0.3807172;-0.17457534;0.03277957;0.40876538;-0.09733395;0.047761615;-0.18672857;0.07171049;-0.011511224;0.14674866;0.03973326;0.05564771;-0.021623028;-0.016537733;0.0158469;-0.03071177;-0.049867615;-0.03545227;0.009085627;-0.0758446;0.15501373;0.07750683;0.21278623;-0.2875336;0.2716158;-0.23738962;0.052859977;0.07831378;0.082072385;0.007852288;-0.13884643;0.10325475;0.030889487;0.18988463;0.29882893;0.219174;0.302082;0.32279843;-0.020479565;0.290067;-0.10803388;0.25538898;0.016986486;0.061554454;-0.093205236;0.057803128;-0.024371127;-0.018397503;0.07868942;0.002628718;0.14358051;0.2252764;0.046582315;0.05350393;0.07510473;-0.19323452;0.043144748;-0.50424266;0.21884543;0.0040730536;0.039110716;-0.42039868;-0.056436457;-0.06144586;0.06626188;0.085396364;-0.36551288;-0.1148014;0.06182106;0.08752746;0.19810486;0.07274152;0.23312661;0.24290888;-0.113758154;0.009690111;0.25681627;0.0015718011;-0.20179652;0.58608806;0.14296721;-0.05170568;-0.05570235;0.228698;-0.06011383;0.064285696;0.13884982;0.012178145;0.33224285;-0.026116952;-0.08666652;0.062396318;0.24523672;0.07743004;0.008238842;-0.07477777;0.072807856;-0.43119115;0.19955644;-0.34930015;0.025564438;0.18555178;0.11066628;0.058348373;0.30712464;0.13081004;0.60176504;-0.06335887;0.25534788;0.02218262;0.2469804;-0.1421352;0.49298114;0.24445918;-0.03468805;0.18495037;0.18767124;0.50515026;-0.019317295;-0.20308214;-0.0391704;-0.089483425;-0.032466166;-0.1503375;0.0044521787;-0.022032265;-0.16349646;0.09719332;-0.01778873;0.31121874;0.054451294;-0.0694112;0.12025751;0.05106532;-0.043654405;0.29406363;0.16927841;-0.05424779;0.3203597;-0.06202724;0.08056487;-0.3121059;0.017930765;0.25480467;0.007641721;-0.25341496;0.14573433;0.025595618;0.071575366;-0.32626754;-0.08319865;0.1302288;0.08746455;0.0325972;-0.249042;0.23038006;-0.11158372;0.16023272;0.16177739;0.075976774;-0.0071656005;-0.014537211;0.14353053;-0.017814822;0.29736546;0.12541454;-0.029229691;-0.15903771;-0.08059227;0.06656636;-0.2576992;-0.2999568;-0.066626765;-0.063414685;0.0756455;0.017300142;-0.022502907;-0.017698383;-0.11835633;-0.24627924;0.017649809;0.057566337;-0.025273846;-0.019882562;-0.035095833;0.039185125;-0.037761323;-0.23865026;-0.086562596;-0.005903206;0.020843621;-0.18385005;0.37659308;-0.7261121;0.42442694;-0.04752173
-0.0456762;0.03989994;-0.02682952;-0.060567766;0.18615651;0.029577885;-0.0111451205;0.080960535;-0.075411685;-0.013073362;-0.032353364;-0.08099273;0.008974852;0.29897183;-0.3803019;-0.0917054;-0.35157228;-0.038704596;0.32224265;-0.16006824;0.1445359;0.028583491;-0.07544717;0.016854558;0.12848829;-0.07947987;-0.014308777;-0.042160485;0.06726306;-0.062296234;0.40258056;0.32852888;0.020157894;-0.053703133;0.016490245;0.24911653;0.113093086;-0.21821834;0.004032958;-0.13254455;0.0748885;-0.09620341;0.05579503;0.18033226;-0.062152926;0.042255297;-0.08792967;0.0068576257;0.4180507;0.07930126;0.04869805;0.18882449;0.029868197;-0.23557311;0.015212108;0.04519497;-0.0066692964;-0.0037723382;0.10037918;0.18393844;0.025245832;-0.395481;0.07096756;0.06382695;0.16405542;0.105526075;0.047506355;0.029179936;0.18153746;-0.032213893;0.32666838;0.053598467;0.009097029;0.019561889;-0.012988888;-0.12717772;0.073718555;-0.11109689;0.2879116;-0.06639558;0.04170974;-0.057215564;-0.20042083;0.05780797;0.17102888;0.11305538;-0.029996332;-0.14290248;-0.19216864;-0.023223901;0.010275332;0.07421912;-0.03698251;0.013046953;0.00080731517;-0.20049727;0.48839545;0.2554233;0.28055525;0.37228164;-0.08402859;0.0655421;0.063263975;0.023435935;-0.055425666;0.028247083;-0.032227468;-0.015273884;-0.15061168;-0.011888849;0.037989095;0.04898212;-0.03532678;-0.033018854;0.0775081;-0.013643656;0.1745075;-0.014759541;-0.28594404;0.08674591;-0.019136274;0.012182116;-0.49826586;-0.324178;0.08889152;-0.28973755;0.21980463;0.029519767;0.38977632;-0.014623014;0.02045142;-0.031880874;0.16694169;-0.0010311574;0.05847078;0.034835905;0.033367045;0.22740078;0.18560395;0.24998626;0.11903299;0.002237279;-0.11556869;-0.013126183;0.39883736;0.43085244;-0.042994354;0.042759757;-0.02068849;-0.016626894;0.0007364049;-0.077680744;-0.0008924074;0.014569676;0.26913923;0.011458435;-0.11064114;-0.11712519;-0.06355976;0.2142947;-0.079561874;0.122968666;0.31142095;-0.05331576;-0.15369728;0.046855956;-0.19012895;0.35173985;0.39755648;0.04466592;0.41163275;0.03596695;-0.04343633;0.12986326;0.00025135567;0.052678123;-0.017395731;-0.046032563;0.068887874;-0.02080735;0.5550568;-0.057425443;0.101094425;0.23108232;0.09337317;-0.30190903;0.45518982;-0.05304619;0.22118054;0.3902012;0.109915055;0.2395496;0.031678386;0.1040162;-0.044336926;0.12642442;-0.0011362662;0.42187816;0.09024565;0.06130743;-0.18496662;0.18920504;-0.08827545;0.35612145;0.31153068;-0.30042735;-0.12140713;-0.043835495;-0.043987174;-0.08683681;0.041106556;0.3363626;0.0053888536;0.15767549;0.078262515;-0.16713701;0.0040188967;0.08870366;-0.017575363;0.21916792;0.0121477395;0.08627353;0.29749948;0.15206732;0.17746677;-0.041890096;0.0031418249;0.049963206;0.13903734;-0.032568883;0.13802305;0.049233317;0.39997333;-0.0012314228;0.078316845;0.017868064;0.16519907;0.048338946;0.04458949;-0.28377098;-0.13133901;0.056745414;0.051176988;0.24777177;0.3649041;0.22210693;-0.024984907;-0.044838306;0.1150512;0.20676635;0.040291797;0.024774227;-0.07616629;0.3340585;-0.05133038;-0.05032255;0.27865312;0.18500829;-0.19003974;-0.022397298;-0.06460659;0.26828346;-0.022914622;-0.006731986;0.068885796;-0.07046157;0.19024631;-0.2250513;-0.047051165;0.033796046;-0.16154799;0.14693148;-0.04705875;0.06992962;0.21843313;0.18914025;0.047941998;-0.013328816;0.27044642;0.19649608;-0.19626433;0.36157012;0.28729793;-0.021848919;0.038360506;-0.06706141;0.08769757;-0.10097141;-0.05557414;0.016221568;-0.011929352;0.52859205;-0.5000504;-0.020884842;0.08563428;0.08057149;-0.03846741;0.044528715;0.07673111;0.14888111;-0.44495618;-0.12376848;0.016033486;0.12548742;0.42613223;-0.27942538;0.06903716;0.00421682;0.14313126;0.10077067;-0.036759175;0.18765394;0.45890594;0.18638843;-0.12875007;0.11420071;-0.010859506;-0.014805842;0.2801379;0.08916625;-0.22573593;0.12921907;0.58460885;-0.1217098;0.15774274;0.10890835;0.28464746;0.115203336;0.049349938;-0.050463725;0.0058473684;-0.16332342;0.03862987;-0.10259333;0.034111958;0.24026386;0.004973248;-0.2791192;0.05130915;-0.013186937;-0.2714553;-0.19155803;0.18947697;-0.25747705;0.103885405;0.26027787;-0.027566442;0.006371885;0.06657925;0.0005396896;-0.03575462;0.55521977;-0.0075520203;-0.07163406;0.15423785;0.5319332;0.5223124;-0.004633947;-0.03148233;0.017674966;0.27143756;-0.16796446;0.07516064;-0.034326684;0.082664385;0.03725417;0.2964971;0.3184525;0.2737325;-0.09852226;0.005701633;-0.051639322;-0.17572714;0.09062957;-0.20373535;-0.026814433;0.14465652;-0.18019058;-0.04883651;0.07937619;-0.41344514;-0.17937936;0.06450956;0.3943081;0.08293886;-0.020646688;-0.15476637;0.04015127;-0.14607386;0.19620049;0.032854512;0.06764816;-0.042567912;0.0325937;-0.0615295;0.011133692;-0.046022862;0.054550555;-0.0062725893;-0.02441061;0.019638168;-0.05950738;0.18424913;-0.2129734;0.07975047;-0.24320148;0.021370523;0.070567556;0.13708857;0.07004219;-0.045762017;0.018226245;0.049189247;0.05616749;0.237418;0.24960978;0.29608837;0.17347038;-0.050784342;0.36159325;-0.105692565;0.2603021;-0.0633423;-0.005502264;-0.059106417;0.024879983;0.044357553;-0.033223677;0.019605432;0.025765916;0.20275721;0.116115645;-0.05290769;-0.07618904;0.100167565;-0.23444602;-0.014540458;-0.33641344;0.25477555;0.07287925;-0.02093238;-0.38664374;-0.067765884;-0.005134861;-0.062152084;0.0956303;-0.3386184;-0.033170775;-0.03724824;0.14029387;0.18968257;0.024695873;0.20109989;0.23265068;-0.009523926;0.12128178;0.15626271;-0.0069733746;-0.34576544;0.5823693;0.13692847;0.06957761;-0.05323202;0.15082821;0.04210078;-0.03191371;0.18425563;-0.0049287495;0.21771836;0.09803932;-0.10626198;-0.09623958;0.30413705;0.014752961;0.04482595;-0.0105394665;0.05838971;-0.3919176;0.117164776;-0.2095758;-0.070133425;0.042912036;0.16978137;-0.013130709;0.30133632;0.15476152;0.57626116;-0.14145081;0.23114905;-0.109150864;0.24872522;0.077989556;0.34923938;0.11249594;-0.03796238;0.1776104;0.18832245;0.3516193;-0.08957046;-0.1810535;0.031818774;-0.027147595;-0.061918464;-0.08020969;-0.009675711;0.011218122;-0.09776909;0.119990565;0.018629827;0.26254067;-0.06900381;-0.09929614;-0.021551197;-0.0654577;-0.10066875;0.30861637;0.2541899;0.04713941;0.18418422;-0.050093688;-0.042728465;-0.21998657;0.01910751;0.1781563;-0.046743702;-0.3126711;0.058422264;0.009504441;0.016994802;-0.33243862;-0.09768316;0.24369903;-0.043415543;-0.026660511;-0.23079565;0.17796053;-0.02092093;0.14515886;0.19522032;0.13314329;-0.041397177;-0.0018814042;0.17532548;0.09958205;0.17027682;0.26697218;-0.06556664;-0.19716653;-0.021392528;0.10593622;-0.37087235;-0.15032856;-0.05749149;-0.21010827;0.19328667;0.09495307;0.09171203;0.07253472;-0.15919699;-0.19292611;-0.06636524;0.03524987;-0.10345878;0.06994241;-0.036346942;0.09672025;-0.0642596;-0.33860087;-0.13730045;-0.023582093;0.06045897;-0.14379591;0.39926618;-0.655682;0.2950488;-0.026485683
-0.004518006;-0.026154658;-0.0395174;0.0070790965;0.1723795;-0.06514202;0.040943537;-0.00551677;-0.08393213;0.07899789;-0.06755372;0.057725564;-0.0322426;0.17529523;-0.3721846;0.1163178;-0.27089128;-0.013920706;0.3631296;-0.027738623;0.16949183;-0.03786412;0.0645396;-0.016981479;0.041926306;-0.15826295;-0.035545867;-0.014476666;-0.052568305;0.006441743;0.33856875;0.4050506;0.004861669;-0.09169221;0.17541783;0.2905069;0.10625852;-0.20756544;0.12825964;-0.0860312;0.015353882;0.034028616;0.0709644;0.13637637;-0.048868977;-0.017348414;-0.046980157;0.031226002;0.40939865;-0.06167287;-0.04083727;0.122567534;-0.07718124;-0.16560759;-0.047013827;0.042541854;-0.08731282;-0.0019220741;0.16444841;0.15298878;0.053351186;-0.3354653;0.013733448;0.11930744;0.30228946;0.14292608;-0.04207766;0.047477517;0.18974034;-0.07921191;0.27328935;0.0068412153;-0.005659275;0.08691518;0.103852786;-0.14616382;0.07273395;-0.043206673;0.18173243;-0.01803328;0.049292203;0.034664117;-0.05978317;0.13841245;0.048228607;0.14768814;0.013443691;-0.25748283;-0.16739623;0.090948164;-0.047734395;0.06169306;-0.03732039;-0.024247836;0.042319275;-0.26818815;0.32649565;0.14817819;0.34151497;0.22789527;-0.083045006;0.17876884;-0.05851749;-0.07664511;-0.03294818;-0.04173814;-0.0465637;0.12018643;-0.041137565;-0.027951764;0.024491262;0.118375644;0.024190404;0.08703816;0.13088198;0.12257655;0.12485517;0.0072586965;-0.21221447;0.082370035;0.013999103;0.09428433;-0.5011235;-0.35939315;0.03501223;-0.1116089;0.16580735;0.04281807;0.42467463;-0.061111927;0.034572747;-0.017429551;0.16236183;0.049380574;0.047906797;-0.06852329;-0.03014083;0.18293828;0.07013487;0.20528921;0.105315514;0.1147877;-0.09247677;-0.06330601;0.33384094;0.29765245;-0.04208994;0.05346231;-0.047974024;-0.17880423;0.060222283;-0.031776763;0.11753248;0.032834508;0.14397192;-0.017123265;-0.14915825;0.06169661;-0.07582762;0.16920027;0.026412683;0.028230395;0.27978694;0.08259812;-0.101278946;0.0006721891;-0.25473112;0.23523852;0.2796308;0.11430573;0.4228446;0.06426589;-0.13529782;0.03551777;0.06747245;-0.07877605;-0.020474777;-0.037476454;-0.026113266;0.090123944;0.5034693;-0.028353615;-0.0047548865;0.14464627;0.23588482;-0.30834237;0.36952528;0.04473266;0.24417654;0.31301132;0.13566126;0.3338871;-0.03854321;0.03663544;0.04854528;0.11171093;0.043846898;0.46363208;-0.04776303;0.009081121;-0.1479473;0.20946962;0.019975659;0.25748664;0.15492183;-0.34950382;-0.095150694;0.08497559;-0.060471725;-0.0015986043;-0.03883802;0.40585047;-0.03531319;0.018177165;0.17181228;-0.17813812;-0.020709615;0.031968582;-0.06582649;0.23328975;-0.10235843;0.061706077;0.38353446;0.12657307;0.16357736;0.034685038;0.013829185;-0.043670252;0.31180227;-0.12370038;0.023872048;0.019700635;0.4080497;0.049382687;0.19538757;-0.051242832;0.15099384;-0.043590747;-0.053548113;-0.29351744;-0.19463825;-0.020065198;0.041113496;0.15076797;0.40594605;0.18472515;0.045923315;0.08232572;0.0325853;0.2056357;-0.043785226;-0.023396274;-0.0071336664;0.21433099;0.09612482;-0.09357792;0.12895304;0.25898358;-0.18734364;0.040936373;0.047242403;0.37043643;-0.031016361;0.060770974;0.017045092;0.01742382;0.20591424;-0.24021247;-0.013016741;-0.0463047;-0.14647329;0.066554174;0.07984923;0.07994601;0.16326027;0.2934666;-0.024637816;-0.032519102;0.17891364;0.16440387;-0.0760051;0.29970145;0.26458785;0.07177083;0.09495689;0.05718275;-0.05686855;-0.04318498;-0.05506741;0.00091486715;-0.0053254073;0.49248698;-0.4964447;0.066632554;0.0853704;0.03615095;-0.1449566;0.04991696;0.09700812;-0.012793407;-0.4704004;-0.097911134;0.10871011;0.14730953;0.4011316;-0.19285567;-0.012758061;0.030610332;0.04323989;0.015309372;-0.045231294;0.28530863;0.35982606;0.37306213;-0.04712112;0.23765309;-0.081613205;-0.030432528;0.19472855;0.16347973;-0.08930454;0.14707614;0.40360808;-0.08240587;0.27070397;0.20125288;0.2497218;0.06920775;0.0006099716;0.022465905;-0.03021247;-0.08108424;-0.05567606;-0.006541125;0.014792922;0.26047367;0.032826025;-0.14490213;0.049139902;-0.025193427;-0.28508285;-0.2394138;0.3255807;-0.2949141;0.11249769;0.32784542;-0.035923928;0.013603726;0.15350176;0.02073435;-0.029288448;0.48690987;0.05084124;-0.1324461;0.081284374;0.4222806;0.56282496;-0.01793135;-0.016322775;0.09563063;0.2492515;-0.25204796;0.020771608;-0.034772575;-0.048433017;0.018267982;0.3661029;0.35765225;0.10610405;-0.0073982426;0.03837274;-0.08393528;-0.35371742;0.18144616;-0.09581407;0.138613;0.09500717;-0.05520893;-0.071735576;0.023886388;-0.2828083;-0.08662748;0.15689436;0.5239367;-0.02170256;0.09905886;-0.20465754;-0.049301207;0.031417217;0.103503555;-0.023717355;-0.02184597;0.002244217;0.0067607043;0.0684928;-0.0138215525;-0.03208639;0.04389841;-0.055864207;0.09069179;-0.016751207;0.057128124;0.2735109;-0.18502527;0.14469838;-0.20312071;0.051459238;0.07701514;0.25728005;0.046007898;-0.027988737;0.12653467;0.037493598;0.04498901;0.18023853;0.28711137;0.17144188;0.17817664;-0.07097654;0.44604337;-0.07627355;0.13314895;-0.03674681;0.05584056;-0.12080344;0.16043036;-0.056894448;0.00015682064;0.066607565;-0.046015076;0.1873397;0.22615531;0.05321742;0.032402024;0.083429895;-0.1515191;-0.035507653;-0.42694488;0.21361038;-0.017016584;-0.113750875;-0.3652807;-0.030415155;-0.014162008;-0.01480219;-0.0009244775;-0.34023315;-0.005805241;0.052489072;0.013409666;0.1212782;-0.040826038;0.20234802;0.16361986;0.15038335;-0.04217487;0.12530464;-0.12982348;-0.34924015;0.5974243;0.13128571;0.023900276;-0.14059803;0.1352111;0.010535541;-0.017529234;0.17996696;-0.046834804;0.12809539;0.10637305;-0.13214602;-0.09538728;0.27417314;0.059005953;-0.0142815355;-0.06511426;-0.053721633;-0.33360317;0.2302851;0.002315077;-0.051944308;0.13959403;0.2630892;0.06345491;0.19414496;0.07569982;0.5473927;-0.1175271;0.31523725;-0.005265139;0.21853788;-0.06508606;0.34696537;0.13960777;-0.014464294;0.047709335;0.08711373;0.36624467;-0.05816334;-0.313551;-0.011552927;-0.028306386;-0.02780697;-0.12908204;-0.027326388;-0.06336701;-0.15684609;0.183042;-0.027440585;0.14111264;0.109949216;-0.22681113;0.11681133;0.008390081;-0.15696928;0.39535245;0.15902579;0.13964295;0.11535681;-0.044226352;-0.05420665;-0.20813142;-0.064134516;0.12827317;0.02720797;-0.11366851;0.078475624;-0.030552167;0.002890462;-0.3213738;-0.17193897;0.07870482;-0.0101306215;-0.050776914;-0.20733866;0.14130767;-0.032399558;0.04504807;0.09058777;0.13448974;0.02873234;-0.018539593;0.23562264;-0.01141523;0.17613648;0.29300514;-0.07046146;-0.046401855;-0.0147130415;0.100833215;-0.20905267;-0.17637233;0.056374196;-0.124289416;0.110235915;-0.07631757;0.042650715;0.07899668;-0.008043722;-0.27121404;-0.077405296;0.072824456;-0.022584926;-0.0048296805;-0.15400895;0.009928467;-0.043376245;-0.2564304;-0.052185744;0.040339988;0.0506591;-0.20287378;0.34184757;-0.56356376;0.30756637;0.062840275
0.20642415;0.030922316;-0.014402008;-0.13886558;0.16168842;0.04282099;0.195576;-0.1102012;-0.13933857;-0.03149409;-0.013529527;0.029629458;-0.06200741;0.15646705;-0.38573107;0.13514675;-0.38952187;-0.071664676;0.3175093;0.0010180518;0.24407166;0.022773402;-0.058087703;0.08305437;0.0007331;-0.13709544;-0.092018135;0.0532835;0.062151033;0.045764707;0.31391725;0.24511811;0.0032004071;-0.044462938;0.14409447;0.3796798;0.091870524;-0.21268311;-0.039306447;-0.10048108;-0.07992019;0.048306912;-0.061236832;0.21712792;-0.08036537;-0.03489673;-0.03534511;0.06413156;0.42382702;0.027005594;-0.042884786;0.12890917;-0.04072155;-0.138009;0.053828288;-0.03840046;-0.0025199181;0.06150859;0.04983907;0.017303787;-0.041639846;-0.22252496;-0.041753933;0.2930128;0.25030914;0.050776318;-0.056110255;-0.050147533;0.23671885;-0.10633652;0.3564005;-0.09657368;0.122519754;-0.024501037;0.022872124;-0.16980192;0.011527676;-0.10629449;0.2662141;-0.014335316;0.014404765;-0.01518421;-0.26127356;0.20177788;0.2191133;0.06454529;-0.059385635;-0.081619464;-0.2968973;0.05685682;0.048177317;-0.042070795;-0.08813374;0.060020868;-0.07973818;-0.2176442;0.38517386;0.19172437;0.3011214;0.30412808;-0.07189839;0.22411408;-0.019923763;-0.060751207;0.1226874;0.010616549;-0.007067926;0.0050685275;-0.05869776;-0.08463392;0.023317205;0.062040128;-0.07022914;0.1029542;0.13530098;0.074871324;0.09864081;0.11249239;-0.2866008;-0.028678294;0.07554431;0.009895772;-0.5633115;-0.26148826;0.020281175;-0.1857853;0.3241951;-0.014232308;0.39169735;0.051739763;-0.02103352;-0.036026172;0.16185454;-0.065651245;-0.016299412;0.102053925;0.039549097;0.3206632;0.016310947;0.06575126;0.063285045;0.02481828;-0.019383116;-0.063961126;0.24543813;0.29460052;-0.0495392;-0.02626582;-0.14618656;-0.1820781;0.056278363;-0.052503727;0.13891603;0.13557386;0.18385008;-0.050813835;-0.24211326;0.03997629;0.040769845;0.07823683;-0.0351872;0.0048706597;0.111288615;0.042394195;-0.14801611;0.044515833;-0.20200816;0.17852394;0.31208673;0.12006223;0.35748333;-0.0036737085;-0.040021706;0.077778645;0.10952814;-0.03982834;-0.041046888;-0.022846945;0.075527824;-0.04478671;0.42542335;-0.049881663;-0.13620739;0.23476522;0.19411547;-0.38504434;0.4975582;0.015885059;0.3480731;0.19697452;0.11610394;0.31282198;0.042579833;0.1414704;0.016736133;0.28436822;0.026373155;0.4291219;0.04874888;0.020419503;-0.2747783;0.038759306;0.042829048;0.26255223;0.15201245;-0.29481363;-0.13939905;-0.01990559;-0.1744888;-0.08398576;0.04139472;0.4762536;-0.027634447;0.033629876;0.13503416;-0.053173937;0.040720988;-0.017177045;0.012328473;0.28570694;-0.09842123;0.0988476;0.26938134;0.14776169;0.21944265;-0.042357802;-0.0272317;-0.09269639;0.41927588;-0.18408887;0.21569864;0.014317535;0.37244523;0.13660558;0.21109655;-0.010212736;0.122030996;-0.027908096;-0.06505804;-0.26493305;-0.1113868;-0.049380966;-0.048446864;0.114573106;0.3956908;0.21723236;-0.008901832;0.007159338;0.024431417;0.17233813;0.054430597;-0.078785695;0.13530636;0.252193;0.051535636;-0.082626276;0.15407102;0.19015805;-0.048968717;-0.027067514;-0.028597856;0.39282966;-0.052949388;0.05853108;-0.01124346;0.029165402;0.10808133;-0.085308835;0.038572714;-0.033463616;-0.057977725;0.08974483;0.0077546076;0.109996736;0.21490942;0.28434578;0.03969527;0.04799115;0.18008626;0.06786332;-0.13426703;0.32608733;0.23722263;-0.0040956135;-0.055792376;0.031861927;0.044868533;-0.098577395;0.0970879;0.012805342;-0.040578667;0.3435898;-0.4335758;-0.05923682;0.03817962;0.1579158;-0.13490953;-0.043592192;0.19501436;0.014701306;-0.44045743;-0.06079001;0.054667268;0.114807524;0.43803394;-0.0909611;0.058600724;0.04709794;-0.080471955;0.1569685;-0.017365381;0.25822872;0.37414104;0.3656413;-0.030890794;0.07090714;0.055457998;-0.099014506;0.2552933;0.07419948;-0.13058187;0.19184524;0.48875773;-0.09001908;0.2182278;0.2076139;0.2466244;0.13678564;0.10957818;-0.038186956;-0.06861306;-0.047416344;0.041902028;0.07508351;-0.02579429;0.30478093;0.024595084;-0.18443532;0.114741966;0.0351073;-0.2913868;-0.24289323;0.35210416;-0.37043762;0.21935846;0.26298314;0.030299468;-0.012270139;0.12983309;-0.026983762;0.04414937;0.3973172;-0.059426866;-0.051407475;0.20061326;0.35749653;0.51725304;-0.06049917;0.052937545;0.04617488;0.26998433;-0.2291245;-0.04340222;0.06850455;-0.08968539;0.005069415;0.27773163;0.3940498;0.13947678;-0.01676661;0.021714782;-0.11118563;-0.2820154;0.18741524;0.051307;0.070119165;-0.001175956;0.011562747;-0.0389134;0.09000426;-0.3062457;-0.0039824373;0.22555275;0.49027288;-0.009521249;0.01704107;-0.35003543;0.060711134;-0.18216352;0.2134791;-0.049393296;-0.06546712;-0.062137477;-0.019400612;0.03314992;0.009607137;-0.07329728;0.03564225;0.057581898;-0.03528619;-0.0048954925;-0.0028329256;0.19291204;-0.09476133;0.0640225;-0.13758029;-0.030276401;0.13455375;0.31533945;-0.011121148;0.15560882;0.14978541;-0.037662026;-0.055084314;0.16849135;0.27721736;0.104812495;0.08779086;-0.116572544;0.35527247;-0.10811182;0.10620112;-0.09514158;-0.016158817;-0.044656362;0.0056213555;-0.0069949077;0.005366154;0.04526878;0.10940916;0.2271609;0.064190105;-0.07533324;-0.035245653;0.20970094;-0.19573054;-0.0023815879;-0.2718389;0.38735077;-0.028578188;-0.03335168;-0.44475424;0.05023046;0.011861763;0.011563562;0.07364995;-0.24979666;-0.012464843;0.0073601836;0.019476017;0.06622887;0.06624331;0.100306176;0.12462846;0.09577675;0.10501393;0.20063326;-0.10021124;-0.36501968;0.586185;0.050071202;-0.07521129;-0.0041953363;0.13977051;-0.052816488;-0.05259888;0.16607688;0.027280375;0.05879746;-0.018061;-0.12083807;-0.10547627;0.29183733;-0.020976912;-0.025079852;0.0020671065;0.018211395;-0.3245075;0.17448018;0.009841444;-0.023762623;0.14678682;0.12889747;0.09592011;0.20024925;0.049831472;0.3948544;-0.065918714;0.35250226;-0.031721525;0.29412177;-0.001301927;0.38375258;0.1669011;0.0060415193;0.052575555;0.1996381;0.37516898;-0.114734605;-0.32453585;-0.050126884;-0.025565553;0.043733764;0.020560443;-0.057306714;0.04317717;-0.05383971;0.12868433;-0.021716172;0.05392649;0.13452633;-0.21332797;0.096335135;0.06443364;-0.11923295;0.3279828;0.13812292;0.0700142;0.09041886;0.008349153;-0.032750275;-0.24599108;0.05509288;0.015954137;-0.021633195;-0.15057373;0.104591876;0.04734268;0.00849417;-0.21901411;-0.20310959;0.2243448;-0.020174025;-0.016849456;-0.20575945;0.18221804;-0.034859452;0.15768218;0.19542846;0.07658018;0.0041180053;-0.067091785;0.050740696;-0.01934645;0.089223355;0.16643761;0.050602634;-0.1058664;-0.019815952;0.1685922;-0.3076873;-0.15899122;-0.0070033674;-0.09937109;0.088592924;-0.054740056;0.16744475;-0.07722529;-0.1304241;-0.21257007;-0.02989524;0.045663726;-0.0044102618;0.028465882;-0.008044763;-0.023142163;-0.0692967;-0.2210139;-0.057992585;-0.06820215;0.037748452;-0.043128308;0.26039582;-0.4535365;0.33448255;-0.045642685
0.24558805;-0.057016965;-0.024529766;-0.002325145;0.16006625;0.011570729;0.19412051;-0.16403468;-0.10677019;0.014792167;0.02369463;-0.06691776;0.009921947;0.2251206;-0.36047587;0.13924733;-0.19659749;0.0128334565;0.2735988;0.020522635;0.24006838;0.058349118;0.010725579;0.075311005;0.038111538;-0.17286573;-0.023059124;-0.04718533;-0.026777115;0.045926213;0.29560983;0.31038356;-0.030106248;-0.08017338;0.008292904;0.3838788;-0.01683523;-0.23590016;-0.032492634;0.020412432;0.0011635568;0.05467201;-0.034940273;0.13406748;0.016300615;-0.014925746;0.10261025;0.026436998;0.50559956;0.060018875;0.061226092;-0.076990485;-0.032409072;-0.109746836;-0.019778641;-0.022041393;-0.009220868;0.018247716;0.0310219;0.13066648;-0.026228623;-0.24596961;-0.010304644;0.20187949;0.24620229;0.09191895;0.004984429;-0.08005217;0.29064173;-0.013957726;0.3603389;-0.016478973;0.15463807;-0.00021428891;0.04090314;-0.26256067;-0.14204052;0.08473529;0.1605461;-0.09504474;-0.08746527;-0.033926357;-0.11289624;0.32818848;0.28624427;-0.06423101;-0.020580715;-0.089574434;-0.2503118;0.06260201;0.052571483;-0.039102558;-0.0059432974;-0.0089651905;0.018879289;-0.25888452;0.38903412;0.029838677;0.40952483;0.27042595;0.05983014;0.20048194;0.09121754;0.06040083;0.08990867;0.048960064;-0.021145131;0.18259913;-0.10914958;0.060068537;-0.012569927;0.1369044;-0.067392655;0.068222135;0.17487404;0.17052028;0.13336174;0.13543679;-0.24582633;0.018538266;0.0443744;0.035317544;-0.5290537;-0.2010369;0.076834194;-0.2128186;0.32924107;-0.035221767;0.26583797;0.029038997;-0.040049717;-0.017136572;0.24533677;-0.06796026;0.021943785;0.036503937;0.0099529335;0.29043546;-0.035482556;0.16202939;0.08181592;0.01609125;0.03032648;0.08698609;0.3704004;0.4360309;-0.025839575;0.08595199;-0.04937485;-0.0637518;0.10982322;-0.028699318;0.09659619;0.1395658;0.13377064;-0.010774492;-0.08679941;0.061381474;-0.06446098;0.118393905;0.012984499;0.028708031;0.08303027;0.01935377;-0.24245745;-0.029927142;-0.24109215;0.24909222;0.14928803;0.1044076;0.37595037;0.05711107;-0.087938;0.11762075;0.095388845;0.046777207;-0.00483461;0.006207827;0.0022710527;0.06938975;0.356925;-0.034812894;-0.05166517;0.18645318;0.26511;-0.36633903;0.4782282;0.018922552;0.33159256;0.2530037;0.084329225;0.42109054;0.059619028;0.050280284;0.055201918;0.28662235;-0.036946405;0.53934884;-0.05883377;-0.014242095;-0.1256207;0.06673522;-0.058368936;0.30691;0.26593214;-0.18659444;-0.03372974;-0.026762145;-0.103401944;0.0558665;0.04540861;0.4132804;0.080486216;0.021549275;0.299799;-0.02086062;0.021774463;0.11634784;0.001859711;0.21123491;-0.024834115;0.13035274;0.2831768;0.06508568;0.2248129;0.025166754;0.017590348;-0.060669262;0.40276957;-0.18345638;0.104658335;-0.0065509984;0.45132673;0.012878334;0.22233331;-0.03095889;0.10911032;0.06048956;-0.008072823;-0.281969;-0.059473522;-0.003024748;0.006899197;0.18369633;0.48036236;0.2900779;0.011105464;0.07988529;0.034873895;0.23681825;-0.07106133;-0.14618158;-0.0047213407;0.15889072;0.17258087;-0.2593886;0.14874046;0.18189159;0.021960298;-0.019463697;0.045797188;0.4504277;0.043905433;0.0078627365;-0.06537919;0.13131239;0.08330419;-0.20823377;-0.05918628;-0.043850064;-0.068352275;0.21940763;0.0538068;0.05821164;0.14473772;0.24472219;0.040364254;-0.047340002;0.22645283;0.13864464;-0.065552935;0.37835008;0.35087296;-0.0026309611;-0.020968348;0.07256832;0.080132976;-0.044137474;-0.07081357;-0.004394617;-0.050441302;0.38826632;-0.5205554;0.08349398;0.061659813;0.23904164;-0.017594662;0.012025439;0.14574386;0.118592024;-0.47902143;-0.009583556;0.15469293;0.23763035;0.40632236;-0.0917728;-0.073354304;0.06492925;-0.016996762;0.096765034;0.019526212;0.22404455;0.36243746;0.1942446;-0.10143378;0.037531752;-0.036471855;-0.081913486;0.21907434;0.19058546;-0.03779249;0.09570528;0.36623585;-0.25627285;0.3861053;0.09698498;0.2613068;0.22898151;0.09092472;0.0130012985;0.044063117;-0.054993674;-0.04982638;0.12666588;-0.041804083;0.28230435;-0.012875446;-0.0071152514;0.09044646;0.056295328;-0.07818795;-0.25583;0.291018;-0.3333353;0.1423242;0.35130775;0.044825915;-0.010254302;0.06974265;-0.051417105;-0.06781671;0.42487648;-0.0004450334;-0.096894026;0.068150796;0.39685252;0.4245476;0.023991188;0.0116852075;0.037959956;0.19331999;-0.2113148;-0.048825983;-0.0049571497;-0.0009561753;-0.060139805;0.40764531;0.37861332;0.01364132;-0.04308899;0.081075914;-0.13520359;-0.34807178;0.12338973;0.12131413;0.04336511;0.14521019;0.0057909954;-0.010158979;0.10039545;-0.161161;0.068595;0.22146627;0.44672093;-0.005634473;-0.09433774;-0.2708845;-0.015780544;-0.08904791;0.19551972;-0.056936454;-0.017624468;0.026697947;0.06946373;-0.044072956;0.018271087;-0.0080940155;0.03255893;-0.065569706;-0.019481834;-0.08463151;-0.010793268;0.25448707;-0.07150043;0.019017173;0.029503543;-0.036221936;0.12018485;0.35907552;-0.058551837;0.045492787;0.18148522;-0.012036659;0.017507046;0.17935064;0.30231315;0.15776008;-0.0130954785;-0.120281726;0.3613329;-0.031969525;0.13222316;0.03644059;-0.048048235;-0.056286503;0.04855054;-0.01508066;0.00924577;0.096884266;0.082066484;0.09379001;0.054300744;-0.013022347;0.04228547;0.1371748;-0.094721995;0.010164037;-0.16299789;0.29207006;-0.035850365;-0.069064245;-0.39144522;-0.021432485;-0.035307173;0.0512558;0.004353249;-0.2911638;-0.07563295;-0.036600962;0.019492218;0.115872055;0.0116608655;0.1416663;0.15166296;0.1736436;0.05519848;0.20211978;-0.262305;-0.2464234;0.46411023;0.10887497;0.013798413;0.021844402;0.026635917;-0.029606523;0.074501306;0.37060398;0.264767;0.031531;-0.052229326;-0.095353894;-0.14206477;0.27101442;-0.11498503;0.032059032;-0.017607747;0.041914698;-0.24899283;0.22436526;0.10165758;0.0017583192;0.170079;0.22420835;-0.030956602;0.2036031;0.12503724;0.5160389;0.026069023;0.32558617;-0.034768417;0.18992437;0.041166216;0.3577577;0.20434988;0.07297314;0.09849959;0.11830433;0.29779786;-0.13748384;-0.42347535;-0.033504058;-0.041039832;-0.029833142;0.0642527;-0.052592944;0.032417033;-0.08458481;0.11537266;-0.028343257;0.08366875;0.19265567;-0.17970732;-0.0012881544;-0.08044211;-0.14088014;0.34707165;0.23226964;0.16575217;0.17419517;0.009278511;0.033576746;-0.09509741;-0.017942226;-0.022211593;-0.08114016;-0.08282749;0.036322262;0.06053928;0.014437661;-0.16575381;-0.14129907;0.18935886;-0.016974071;0.048763182;-0.14698721;0.18125544;0.09721909;0.06980504;0.052752037;0.09101612;0.01774034;0.03392388;0.18050294;-0.018699229;0.14567491;0.2505736;0.078446046;-0.11113827;0.020247003;0.07971394;-0.18959658;-0.1543915;0.011766213;-0.107515745;-0.030905608;0.056854196;0.10022444;-0.030066265;-0.0629952;-0.22399618;-0.2049523;0.17347986;0.18380243;0.020366624;-0.17568992;-0.034616567;0.0503009;-0.33885714;-0.03332898;0.053879004;-0.028116306;-0.049150955;0.23177342;-0.50856423;0.2923212;0.023876298
0.23406014;0.012793435;0.06586414;-0.049297746;0.096766524;0.027321374;0.28139082;-0.12111752;0.025033884;0.023243887;-0.002746726;0.045950048;0.06699504;0.08956726;-0.1908325;0.2174519;-0.16846372;0.054485418;0.3793003;0.053589374;0.2284755;-0.01955823;0.032908976;0.005834881;0.035321735;-0.16532663;-0.09150019;-0.06675273;0.0043865833;0.01605193;0.32406;0.406457;0.005726611;0.002391723;0.07973961;0.3398594;-0.003061933;-0.1340272;0.0068149376;-0.1071397;0.039923146;-0.00876088;0.011278859;0.03700358;-0.044442303;0.01000551;0.0023892608;0.033338297;0.45852885;0.014725171;-0.026511034;-0.1222341;0.056211025;-0.019704284;-0.08114707;0.03676978;0.021047968;0.005256533;0.10482277;0.15036216;-0.009161533;-0.15516861;-0.040149137;0.28236005;0.32492703;0.1550908;-0.0368006;-0.06527902;0.22922146;-0.106906936;0.2554943;-0.020821372;0.0607714;-0.04077852;0.21001472;-0.2126081;-0.043597754;0.056626856;0.059436414;-0.07036511;-0.005276303;-0.055720624;-0.12912068;0.30222264;0.32583264;-0.07562051;0.06024857;-0.17804837;-0.07254269;0.014328969;-0.09275777;-0.020728264;-0.16107324;-0.016882278;-0.012695403;-0.16043524;0.3095839;0.14331457;0.18931675;0.2577823;0.03785099;0.16906123;0.03840981;0.06415348;0.1656326;-0.057380885;0.059460435;0.14229439;-0.06463763;-0.016206093;0.0058012176;0.067961566;-0.05533441;0.13370219;0.1582555;0.21439198;0.06822688;0.15016548;-0.2522259;-0.06150372;-0.051036734;0.012859904;-0.5122762;-0.2810405;0.024056565;-0.16505773;0.21982385;-0.044986196;0.3065331;-0.033089083;-0.003799468;0.048638713;0.28579277;0.008620017;-0.05162586;0.030299231;0.03261202;0.270929;-0.04209125;0.029718623;0.13256027;0.07632345;-0.0016226135;-0.025346667;0.2852674;0.39340356;0.15219533;0.050023936;-0.21969731;-0.1926742;0.042029675;0.04097243;0.1413485;0.19185384;0.072553985;-0.0030991274;-0.05717735;0.040665075;0.039967608;0.09807043;0.0147394175;0.008723621;0.14552093;0.04872492;-0.118633606;-0.08598251;-0.3340763;0.070331186;0.22696514;0.09852262;0.27834332;0.0409746;0.03822374;0.0963509;0.19840775;-0.07950069;0.017048381;-0.013381162;0.0016398068;-0.03218336;0.20285255;-0.118690655;-0.06676153;0.12095803;0.30181926;-0.37051532;0.47621667;-0.0038577076;0.3002085;0.2485763;0.1372734;0.30633557;-0.0093712;0.03911299;-0.016158389;0.23872451;0.022237208;0.5920842;0.051839277;-0.08343614;-0.31669202;0.055494443;0.08340572;0.26976687;0.17048405;-0.13041243;-0.06619339;-0.010513894;-0.060445745;-0.056167405;0.06347262;0.4843632;-0.018829089;-0.005206109;0.4356607;-0.11590804;-0.015768489;0.0920437;-0.1637643;0.21361853;-0.0072149085;0.19326136;0.24827883;0.071384005;0.05090379;-0.03666764;0.043254223;0.03643709;0.4209999;-0.1973469;0.1677231;-0.000988394;0.32575047;0.019538693;0.13281186;0.11778961;0.13788967;0.040052544;0.025297886;-0.4003068;-0.094843745;-0.036063537;0.012050414;0.12751018;0.47904652;0.28303552;-0.007769879;-0.015834982;0.057722002;0.13876338;0.037578266;-0.044984695;0.07838362;0.23174918;0.08040532;-0.23660292;0.1344978;0.2316401;-0.09279958;-0.002030079;-0.049511965;0.43349496;-0.017532805;-0.058731783;0.043697074;0.009920645;0.1216747;-0.23709223;-0.01031088;-0.009102558;-0.13493672;0.14599575;-0.03414309;-0.11074838;0.20217319;0.22745748;-0.05570379;0.06756041;0.10360649;0.06212229;-0.13198584;0.29748556;0.19290508;0.049414333;-0.03919006;-0.045966912;0.021044089;-0.12306312;0.07835099;-0.00080366124;0.055308703;0.4122703;-0.42395642;0.0011259868;0.115383334;0.2623162;-0.08802517;-0.013653472;0.14774966;0.1417322;-0.32105312;-0.01534798;0.13159609;0.16515373;0.34302145;0.0056811227;0.031369045;0.05457303;-0.027272183;0.18797597;0.0073259245;0.2521587;0.38123548;0.31299442;-0.12590645;0.11437418;0.0339593;-0.065344594;0.19292368;0.15969202;-0.078307584;-0.010119197;0.27229303;-0.17845939;0.39501214;0.076774254;0.35344812;0.20475374;0.008329652;0.019019207;0.0702185;0.11259732;-0.016565943;0.058956362;-0.005200807;0.20495617;0.0067486865;-0.1441804;0.08351091;0.00890976;-0.23132084;-0.26868013;0.16848634;-0.28323418;0.071272336;0.2963748;-0.06044983;-0.016473189;0.12161255;-0.020613879;-0.041689306;0.4612565;0.039767023;-0.079161;0.16124125;0.33655554;0.4302473;0.017435608;-0.027461983;0.16731472;0.21192406;-0.16830038;0.048684597;0.038789716;0.10266798;-0.0872038;0.41358608;0.265009;-0.020957503;-0.04840482;0.04705786;-0.02018218;-0.35751447;0.21058266;0.16324243;-0.032393992;0.109263696;0.031258587;0.0036485707;0.10965504;-0.098634385;0.10783949;0.20009199;0.37454155;0.011615919;0.009493246;-0.31280744;0.04707269;-0.2422531;0.18410654;0.059912313;-0.01960249;-0.034360602;-0.0120476615;-0.007600036;-0.008014511;0.08112804;0.03399864;0.0034704786;0.0097427545;-0.024298323;0.014773251;0.28492552;-0.03163508;-0.02076651;-0.071120575;-0.032707732;0.08877906;0.385989;0.0038487876;0.1319081;0.023142247;0.010003962;-0.010056578;0.19678862;0.28260413;0.017418146;0.03716284;0.0021174925;0.32443964;0.017707255;0.09660107;0.064973526;0.033043228;0.0694583;0.02033893;-0.025222078;0.003653976;0.019118086;0.067833655;0.07258229;0.013993109;0.03933338;0.017435752;0.20294783;-0.008027029;0.0047630537;-0.29681024;0.29231226;-0.019467313;-0.05959612;-0.51897275;0.05740882;0.07151548;-0.098775335;0.02513657;-0.23849224;0.0121364;-0.029387813;0.004567789;-0.026999399;-0.05032504;0.10900312;0.24616098;0.153303;0.065236226;0.117628515;-0.22147419;-0.20303838;0.41330114;0.20971332;-0.07569702;-0.06648991;0.037855614;-0.047114667;0.040213834;0.40293127;0.3110319;0.08753183;-0.041061647;-0.1935102;-0.16081841;0.31090423;-0.082651705;0.0012510229;-0.021636348;-0.055717386;-0.23392057;0.061261732;0.106589474;0.061486676;0.15684268;0.19074252;0.06878066;0.16982289;0.13964736;0.3967422;-0.06815316;0.22928064;-0.147746;0.26426318;0.05617301;0.2368874;0.1667508;-0.012217208;0.16875972;0.2022162;0.36083582;-0.0711166;-0.43805164;0.008137515;-0.09049755;0.077217095;-0.105164066;0.07059464;-0.006089383;-0.09422449;0.2883274;-0.04540397;-0.0022167722;0.08370241;-0.19599631;0.049647726;-0.036080413;-0.07177469;0.36855283;0.23366852;0.21297912;0.18356392;0.013123597;0.060208384;-0.16673048;-0.009419468;-0.10735559;-0.14369509;-0.048926547;0.06980624;-0.053629287;-0.06423458;-0.24962334;-0.071507506;0.09505828;-0.034273032;0.020985046;-0.06609241;0.25755048;0.04247173;0.08708433;0.16799113;0.067587875;0.004400243;-0.003810775;0.10475141;-0.032282967;0.10012229;0.13816924;-0.07031293;-0.00077044795;0.029449128;0.066946134;-0.3074434;-0.2290304;-0.020264328;-0.1745295;-0.06575446;0.060215596;0.075762704;-0.048776105;-0.032432906;-0.058918726;-0.12639785;0.054048523;0.060891375;-0.009774446;-0.07114213;-0.012012782;0.056638267;-0.32549518;-0.029478094;-0.061572537;-0.019739706;0.14193766;0.24942726;-0.4056951;0.3703111;-0.004966958
0.2647183;-0.011559338;0.006863624;-0.07315839;0.10144997;-0.03596994;0.35348287;-0.18954273;-0.081862524;0.020808231;0.06078452;0.010646628;-0.040179502;0.16187422;-0.21957184;0.15707956;-0.1857123;0.05527331;0.29480162;-0.021718508;0.3026088;0.023816537;-0.019659918;-0.035943132;-0.05698672;-0.12357647;-0.13264552;0.061760902;0.045206916;-0.051110104;0.28793335;0.29011402;-0.13546227;-0.08308045;-0.041884568;0.36635596;-0.0033102976;-0.077149734;-0.021205626;-0.09396524;-0.03153382;-0.03928848;-0.04167295;0.060321413;-0.039363194;0.0590047;0.14852937;0.1754173;0.21854265;-0.013156383;-0.038788747;-0.11717445;-0.034152538;-0.04828605;0.012201987;-0.056624267;0.0020433366;-0.07222773;0.09484044;0.13562758;0.029507264;-0.17129622;0.0002569536;0.13503034;0.32244456;0.0060600736;0.028301269;0.06015121;0.14630727;-0.049633417;0.27123418;0.015225245;-0.030616144;-0.021212848;0.23169139;-0.18722835;-0.16797665;0.025318397;0.07032511;0.023066623;0.0133919995;0.011463609;-0.14732789;0.3744315;0.3995886;-0.26101363;0.01716387;-0.17011535;-0.20210661;0.10090293;0.07101774;0.017257456;-0.051544134;0.0603653;-0.0030729189;-0.23194666;0.3302534;0.089910954;0.22070915;0.3449944;0.07126382;0.27341324;0.002821241;-0.04137374;0.13996556;0.016886236;-0.00091255456;0.10386785;0.04425166;0.07953917;-0.075282656;-0.026919832;-0.12998037;0.0827871;0.17741974;0.16599336;0.07061845;0.21893483;-0.35353124;-0.032101728;-0.029294768;0.024969954;-0.30671424;-0.16249955;0.112186596;-0.25622004;0.20861128;0.0012328885;0.20121829;0.024207575;0.054311622;0.07467935;0.18403052;-0.027878104;-0.023845633;-0.061117444;-0.06853962;0.23290035;-0.06474634;0.0026932687;-0.011711816;0.047792945;-0.020445637;0.07810254;0.2958609;0.30073825;0.08959838;-0.03196485;-0.11850388;-0.22899865;0.094734825;0.1429829;0.1737595;0.20262158;-0.010630265;0.058452524;-0.14105403;-0.023108918;0.034136843;-0.051642917;-0.05273979;-0.10143002;0.024841396;0.017585514;-0.15906847;0.026205627;-0.29095727;0.108151816;0.24899636;0.0005126645;0.32116732;0.0074899415;0.09885204;-0.017919675;0.16543472;-0.02844452;0.017016727;-0.032593634;-0.06709498;-0.015792279;0.1095945;-0.19270572;-0.18621327;0.10097303;0.21224634;-0.3976654;0.4338324;-0.041664302;0.4343266;0.27752918;0.21608604;0.28526977;-0.04593089;0.11943307;-0.038832556;0.25931326;0.023203736;0.53822;0.053215254;-0.050351057;-0.23205988;0.054519843;0.058710594;0.21002136;0.18128742;0.055496946;0.074824795;0.03723309;-0.15874743;0.039669476;-0.0639552;0.44898605;0.032469414;-0.05463162;0.5112717;0.021200713;-0.04395494;0.10361067;-0.085922055;0.24759576;0.007938282;0.21026973;0.2008752;-0.02200992;0.13857211;-0.026187481;0.034298588;0.077855185;0.43915328;-0.12510788;0.26858726;0.034885805;0.36169;-0.0003754631;0.17848465;-0.015190474;0.1240215;-0.080646336;0.017079985;-0.4988951;-0.12015038;0.019543672;-0.035636764;0.07083613;0.41275662;0.2905214;-0.012860875;0.0124054765;-0.07248849;0.1376835;-0.0608035;0.03808013;0.028666437;0.11451717;0.12738375;-0.17270371;0.18576053;0.20547512;-0.053357635;0.07369422;0.08013383;0.41746208;0.06677715;-0.02057457;-0.03906042;0.052765682;0.022482926;-0.15719676;0.010618412;-0.13074586;-0.19273698;0.119588844;-0.050024576;-0.025632491;0.22695623;0.20782854;0.0061825276;-0.0674483;0.14774004;0.021027116;-0.008657221;0.33239043;0.30537862;0.0047390345;-0.007417025;0.018704578;-0.05416679;-0.08231469;-0.080498144;-0.00017241752;0.046593033;0.42216626;-0.30019233;-0.010572182;0.023293862;0.33270374;-0.1548656;-0.08815819;0.20594145;0.13561314;-0.37460533;-0.046489038;0.15481797;0.22033496;0.35513917;-0.0521282;-0.032496173;0.06932264;-0.080699675;0.22117469;-0.017509166;0.23905079;0.2869357;0.24912463;-0.13771768;0.07329699;0.013161156;-0.043573998;0.2520171;0.26896632;-0.05163847;-0.027778508;0.21082558;-0.22635266;0.36560437;0.2237443;0.28954762;0.20907263;-0.04003873;0.08162223;-0.040283326;0.05982455;-0.06588761;0.20562494;0.015244615;0.12548263;-0.04224043;-0.12357575;0.023290982;-0.0037026703;-0.33813468;-0.14888725;0.2003265;-0.24359833;-0.00049459457;0.15763271;0.027390713;-0.014837989;0.13670027;-0.059805315;-0.023005947;0.3482505;0.06556825;-0.17109416;0.04178208;0.31090802;0.51060957;0.017770866;0.11342734;0.06242098;0.12241079;-0.19246839;-0.041067157;-0.08481376;0.15800822;0.0215528;0.3699745;0.38212758;0.061450377;-0.103513405;0.052542936;0.033265635;-0.43384054;0.22573613;0.057937056;0.0062145228;0.2305898;-0.07553937;0.08712508;0.096682385;-0.20422532;0.088922106;0.26177734;0.35844487;0.11694226;-0.028146693;-0.23289765;0.016015247;-0.13208415;0.18048942;-0.023095913;-0.06411763;-0.19458057;0.01950276;-0.011522143;-0.026765525;-0.06779474;0.052325424;0.006991995;-0.007776281;-0.076808356;-0.039106127;0.24451935;0.050488055;-0.0014215824;-0.0018742695;-0.039693676;0.07054777;0.29069608;0.004321412;0.15132706;0.036434703;0.06481329;-0.024284586;0.26769453;0.25906196;0.04563738;0.11409009;-0.055634093;0.40110877;-0.0016740025;-0.04200812;0.038305007;-0.1017067;0.036398362;0.02612152;-0.033906844;0.0421576;-0.059538394;0.02549651;0.023610257;-0.06564002;0.06359476;-0.009467844;0.10291486;0.004712089;-0.022498326;-0.19689444;0.32780948;0.032074764;0.045408428;-0.5479936;-0.017429601;0.015336356;-0.04311483;-0.07397528;-0.18437834;-0.01560307;-0.043959122;0.06845265;0.08613905;0.059783936;0.08193785;0.21804406;0.19586332;0.019944306;0.10691372;-0.21586856;-0.22959518;0.51161397;0.25096637;0.065407306;-0.024209283;-0.010087491;0.05344329;-0.08214654;0.45595577;0.2893635;0.07586552;-0.039678555;-0.23521751;-0.12134116;0.2844166;-0.19126572;0.015173126;0.036124274;0.07434365;-0.1997819;0.11696682;0.18994683;0.0068119727;0.20812541;0.18203598;0.059283096;0.08514784;0.2100807;0.44284898;-0.060383126;0.16760437;-0.19144167;0.24619795;-0.09377112;0.21078606;0.16171892;-0.03299534;0.08350862;0.121513836;0.27973774;-0.017348591;-0.43306842;0.062882625;-0.0027777075;0.17574717;0.04437774;0.08210011;-0.03919944;-0.02226473;0.28128004;0.043940034;-0.06450876;0.12251574;-0.24179476;0.14471942;-0.0057476857;0.017495714;0.24971183;0.13663347;0.22240025;0.1572263;0.053831823;0.021510098;-0.23801711;0.040195487;-0.14512073;-0.08266791;-0.05481512;0.07593025;-0.07419701;0.07805632;-0.19430384;-0.050976768;0.028447147;0.08424604;-0.042069733;-0.14086302;0.19792995;0.0911636;0.06133252;0.18628053;0.039957814;0.049029246;0.017054236;0.14772937;-0.011739738;0.1545132;0.19190834;0.040196095;-0.11222945;0.19227141;0.061209098;-0.08368423;-0.24013543;0.08188195;-0.005269784;-0.08634623;-0.080995746;0.25543138;-0.042516194;0.012714755;-0.1292939;-0.1671516;0.073628016;0.12406164;-0.025816552;0.052233305;0.01135074;0.057565287;-0.38531342;0.031853825;0.021956854;-0.05960632;0.2145429;0.31588078;-0.26025814;0.26407915;0.010554235
