Weights from input to hidden layer.
0.4886316;0.04796674;-0.059810776;-0.076444775;0.31949553;0.028886205;0.033999942;-0.0024540233;0.0671586;-0.30832073;0.011854067;-0.04939597;-0.026324326;-0.1190095;0.354981;-0.23092405;-0.26940358;-0.21066281;0.22339311;-0.15963632;-0.009364294;-0.3229941;-0.04078666;0.17449151;0.040532265;0.19471762;-0.49650827;-0.27930766;-0.14687759;-0.20705184;0.31903887;0.20337701;-0.05876146;-0.018288301;0.54750526;0.017118135;0.3410046;-0.06811369;-0.06771592;-0.02331707;0.6714653;0.3573965;-0.058887746;0.5025693;0.60332847;-0.071286626;0.1193355;-0.022017322;0.36498135;-0.226789;-0.04480375;0.35758308;-0.5705106;-0.16380738;-0.07065476;0.026669873;-0.027146183;-0.4406401;0.18928915;-0.30111268;-0.15377249;-0.3234103;0.41534537;0.22503059;0.23972832;0.021739028;-0.062748216;-0.0778196;-0.38005337;0.030505084;-0.54267895;-0.03384353;-0.46896732;0.23065431;0.35618135;0.05423022;0.063828416;0.39306304;-0.18827613;-0.07032599;-0.038685422;0.29323134;0.0019903248;0.011849749;0.1824856;-0.04368346;0.70157576;-0.0005788145;-0.29968363;-0.042780224;0.022574589;0.35120764;0.08282309;-0.15983172;0.034116335;-0.0678134;-0.7056375;0.5352434;0.24696591;0.019016935;-0.08527029;0.04102771;0.019283183;-0.042806614;0.17343642;0.13115361;0.0013264692;0.08492941;-0.16018648;-0.16943464;0.059297275;0.23039895;0.3397133;-0.03637991;-0.17295781;-0.225303;-0.03293011;-0.11543563;-0.24029383;-0.39121887;-0.033423457;0.7327333;0.5718479;-0.013623314;0.0039041578;0.16346307;-0.019849354;0.51217914;0.37893564;0.09503033;-0.15393241;-0.28395477;0.40126148;0.013487854;0.5762828;0.16328569;-0.22927247;0.5250108;0.42110893;-0.0492348;-0.12639143;0.5209538;-0.12143107;0.2990948;0.8050261;0.009263837;-0.060002312;-0.08114945;-0.014006521;-0.06451669;-0.033236366;-0.33181277;-0.25994796;0.0060290988;0.14101554;-0.24019256;0.8025055;-0.1482667;-0.013410268;-0.0025425167;-0.22672577;-0.054221567;-0.007267389;0.032769613;0.56187916;0.30605873;0.3616603;0.1038739;0.07106301;-0.15406837;-0.22471371;0.15674634;0.040653113;-0.51835245;0.28182793;0.5817156;0.039697126;0.5767232;0.40224433;0.47218496;0.82104576;0.03610556;-0.31468308;0.46866015;0.010663204;0.4680607;-0.03408445;0.111951664;-0.12667753;-0.22358455;0.010065392;0.060811087;0.40301353;0.09067735;-0.031135036;-0.570357;0.4457805;0.03080551;0.042386137;0.008942215;0.3695514;0.040234145;-0.06733726;0.11439401;-0.34540695;0.51668847;-0.067270465;0.025422895;0.26727587;0.56302243;0.6975305;-0.01181872;-0.23019764;0.0067838915;0.09988216;-0.06900521;-0.19206795;0.0020241684;-0.064684935;0.48106858;-0.2220048;0.08643865;0.031106282;-0.028573537;0.1322518;0.06621283;0.14902662;0.084860384;-0.055535417;-0.6144742;-0.02136096;-0.042198095;0.06121407;0.69875646;-0.8371889;0.34921804;-0.11403539;0.59495395;-0.004048907;-0.3526214;0.35169932;0.5363136;0.012393012;-0.005883224;0.33722264;-0.28905913;-0.13783978;-0.039912283;-0.04714032;0.052625477;0.6038684;0.16244602;0.021965323;-0.0011249947;0.24406502;-0.07027738;0.0817364;-0.27103063;0.027320992;0.022496847;0.30180454;0.53495824;0.11365975;-0.087991334;-0.025748977;-0.1564126;0.4322539;0.45889986;0.03343207;0.0724048;0.0025851466;-0.024827544;0.055113807;0.19114536;0.054534927;-0.20094828;0.13424699;0.60966605;-0.041064262;0.09220607;0.064086564;-0.39635548;0.4272684;0.23314872;-0.068847656;0.046355546;-0.6397702;0.17848167;-0.146737;0.5630723;0.23896737;0.34409654;0.021377807;0.09350155;-0.27389205;0.0864967;0.13328451;-0.5680809;0.020094799;-0.21738365;-0.28975004;-0.09329393;0.015213511;-0.24118909;-0.06620302;0.26928434;-0.15442695;-0.028079355;-0.03242387;-0.018668009;0.10050744;0.42098612;0.86616707;0.002797863;0.15152298;0.054997027;-0.07025874;0.12090022;-0.11343312;-0.029124346;-0.056446817;0.049870368;0.06442859;-0.38601133;-0.006676513;0.1606326;0.015606908;-0.025458198;-0.05892617;-0.4351084;0.043324053;0.02772339;-0.0734737;-0.06835659;-0.14644879;0.08178552;0.1868986;0.13232493;0.13511537;-0.006102007;-0.00035709358;0.060718257;-0.0047914665;-0.21214783;0.17247933;-0.053295493;0.07604345;-0.12639923;0.30903548;0.38011724;-1.0895481;-0.34157544;-0.10346111;-0.4729913;-0.77598935;0.4937138;0.03673706;-0.069955505;0.3257331;-0.36265132;-0.0050719427;0.067234926;-0.017426372;0.100469515;-0.1487699;0.03089346;0.30619323;-0.04846327;-0.050651003;0.48739836;-0.05556912;0.06080937;0.056903742;0.18751656;0.6266887;-0.8687624;-0.1677851;0.53056717;-0.01705072;-0.0048501207;-0.00904118;0.16577064;-0.26321414;0.3083521;-0.73156005;-0.0021298754;-0.028162641;-0.18794262;-0.034289867;-0.05154556;-0.23604473;0.31997728;-0.06851354;0.055996485;0.0076991785;-0.256793;0.23144388;0.46896315;0.15166579;0.44475532;0.081445016;0.3059268;-0.043242514;-0.1618945;-0.017893149;0.37355945;-0.0063283485;0.1564189;0.142518;0.5370063;0.17262256;-0.31427252;-0.015472004;0.03475888;-0.009670056;0.18663183;0.016316397;-0.25067753;0.045728534;-0.4977247;0.46275726;-0.30364928;0.3132211;-0.16981979;0.080803126;-0.29055756;-0.20302966;-0.043534018;-0.06577569;0.16007839;-0.066446185;-0.03601884;0.39776495;0.03451168;0.096928604;0.16898298;-0.036595885;0.076051995;0.00029616168;-0.06816754;-0.08572616;0.34025162;-0.07657547;0.20088908;-0.08507845;0.050358046;-0.013254913;-0.1849516;-0.3890159;0.49692884;-0.43461168;-0.26146498;0.31754923;-0.02572078;-0.006055569;-0.23730615;0.024302345;0.09158268;-0.24759212;-0.018904302;0.4663373;0.5551342;0.42663366;0.17721765;-0.03952448;0.8111782;-0.027674861;0.0721318;0.11209546;0.03284294;0.2740867;-0.54514134;-0.03817878;0.047201425;-0.0049167397;0.003112577;-0.105723366;-0.19321346;-0.0005016908;0.24719243;-0.3094041;-0.02588825;0.20574968;-0.028329212;0.032231506;0.36908302;0.12645254;0.16685821;-0.4372401;0.09691936;0.08035574;0.32769585;0.05052674;0.1281129;-0.096644394;0.04950515;-0.09936872;0.17686343;-0.16208743;-0.040273786;0.5124324;0.19358015;0.05386123;0.29870826;0.10836195;0.512551;0.06652153;0.6861007;-0.17833936;-0.020906376;0.1689179;0.12708232;-0.013518769;0.25607982;-0.0127422055;-0.021014242;-0.08840645;0.06664203;0.5577147;0.10833855;-0.41913703;0.3572114;0.115316585;0.26969582;0.2479541;0.15529424;-0.327082;-0.110323094;0.21471669;0.035183553;-0.019775324;-0.028023943;-0.13649537;-0.024552861;0.0023397026;-0.12161886;0.02413736;0.068847634;0.08982857;0.22905982;-0.009717361;-0.28905457;0.73623234;0.14676706;0.056396395;0.68490154;-0.18195434;0.58899117;0.39670572;0.10233553;-0.07280278;-0.31907403;-0.006345749;-0.022067005;0.06330731;-0.030932155;-0.08602758;0.016950637;-0.23339508;0.351275;0.01784585;-0.014002111;-0.009379883;-0.14958206;0.028793363;0.35918486;0.13943666;0.21761453;0.04947159;0.054654874;0.037591856;-0.018133761;-0.06129066;0.018116854;0.013834625;0.1959123
0.6158509;0.17933227;0.016685164;0.011324231;0.23508467;0.061308634;0.128051;0.0731651;0.14469448;-0.23779921;-0.107169606;0.02921125;0.013583467;-0.1548148;0.23912987;-0.21178608;-0.03281234;-0.095651604;0.031864453;-0.06620165;0.077939;-0.5055105;0.19621895;0.1104447;-0.0642242;0.0063162413;-0.5964676;-0.17647919;0.028260633;-0.0029072415;0.2995898;0.09907474;-0.11894259;0.054643817;0.5896331;-0.020977294;0.3006237;0.030207573;-0.13507403;-0.044019308;0.7352796;0.44736835;0.038383085;0.41561273;0.3735572;-0.012089651;0.24860337;0.13319786;0.5094423;-0.019119555;0.053259835;0.3907239;-0.41079056;-0.20970772;0.021795882;-0.034773435;-0.039504614;-0.33122772;0.2921836;-0.043161664;-0.09838633;0.047449943;0.20031668;0.29097903;0.19312382;0.066763505;-0.033963274;-0.024548756;-0.08183585;-0.04614911;-0.65180546;0.09182769;-0.36427394;0.14756258;0.30536702;-0.031137757;-0.035903867;0.4144083;0.029088113;-0.11090356;0.051318172;0.3495504;0.026554799;0.017772444;0.18842658;-0.0119563015;0.6327283;-0.009137333;-0.18061692;0.013577919;0.063532665;0.36676612;-0.022605797;-0.10934855;-0.0013718196;0.020334948;-0.69451964;0.44476292;0.2150854;0.083312914;-0.0097568305;-0.0199469;-0.072415754;0.024469707;0.16859467;0.07372162;-0.030592958;0.08101538;-0.04685356;-0.3118809;0.07020663;0.2366299;0.3140298;0.0044330363;-0.22382344;0.031584144;-0.02632668;-0.007388981;-0.08231018;-0.3332701;0.05918984;0.68623984;0.5363665;-0.014779161;0.05973477;0.053896584;-0.005421893;0.41095817;0.34511364;-0.03142159;-0.43150666;-0.20805402;0.18008481;0.02359385;0.49462354;0.114984035;-0.2345094;0.6875106;0.322815;-0.08233174;-0.31845883;0.4958778;0.19435021;0.28031185;0.78484434;-0.07646652;0.126052;-0.22325964;-0.038871963;0.073496625;-0.016322784;-0.37675685;-0.31607;0.010649945;0.1724787;0.013635366;0.6870069;-0.024179634;-0.009716225;0.04457153;-0.22942524;-0.025405806;-0.036039334;0.023014938;0.44134822;0.25898442;0.376898;0.18816347;0.06805301;-0.15637034;-0.18323539;0.11260196;0.032570843;-0.35810095;0.22697204;0.57403094;0.00995493;0.52685255;0.52408254;0.39566696;0.78086907;0.0055624647;-0.13442735;0.34039173;0.046705898;0.45781448;-0.055646766;0.121187195;0.021703932;-0.06365273;-0.015982483;0.04592723;0.32668552;0.15186857;-0.039458495;-0.60000604;0.35665357;-0.050373916;-0.009578482;0.03925254;0.37400067;-0.073783144;0.07615254;-0.05442416;-0.15277839;0.38929397;0.033930905;0.04071604;0.25738266;0.7163405;0.5257613;-0.024938343;-0.19317077;0.0729921;-0.16602173;0.022339376;-0.1340203;-0.035634577;-0.037784617;0.33570555;-0.03622632;0.19299588;-0.007995998;-0.0052109472;-0.07570814;0.016412228;0.02690112;-0.023101425;-0.020623403;-0.6742731;-0.013691088;0.068752766;-0.14433351;0.59548044;-0.65161943;0.37115556;-0.047506586;0.5398621;-0.006305894;-0.14496951;0.36624038;0.42582363;0.05784037;-0.0083665475;0.42297792;-0.28163877;0.018868186;0.059058547;0.03469765;-0.011948238;0.5511624;0.26677644;0.023428136;0.0070505706;0.15920205;0.014463234;-0.046629995;-0.39763823;0.035781957;-0.19960296;0.18508336;0.42792624;0.18025936;0.045758795;0.0743895;-0.10779836;0.32012805;0.36665392;-0.027474966;0.13756213;0.0028819556;0.029810667;0.04836263;0.024585808;-0.047825452;-0.28582764;0.30631724;0.37528807;0.05980168;-0.013062056;0.0023126423;-0.46258038;0.3721025;0.26890597;0.021303436;0.14945717;-0.6141609;0.27497688;0.02481112;0.63083273;0.22023296;0.27554736;0.035513863;-0.08843522;-0.31354466;-0.055912245;0.09950157;-0.41725093;-0.042005338;-0.28106272;-0.05166153;-0.054623406;0.07493605;-0.23443203;-0.19531932;0.4863331;-0.08517447;0.01307228;0.033047695;-0.026040202;0.13154776;0.3957516;0.50341684;-0.105646364;0.25855196;0.08308428;-0.27627233;0.16363274;-0.22429912;-0.0003553774;0.041049335;0.08069279;-0.06250492;-0.16658546;0.024177797;0.07537418;0.043404344;0.011053782;0.015319202;-0.17773041;0.027538002;0.17863095;0.0767811;0.028604632;-0.17281263;-0.018426223;0.34431794;0.0654879;0.17214055;0.1677003;0.023377515;-0.068181455;0.07586942;-0.07350851;0.026233912;-0.039376955;-0.017234571;-0.10412527;0.19224;0.18905313;-0.7702805;-0.174704;-0.27042136;-0.39075258;-0.52998227;0.28349864;0.029568393;-0.07131979;0.4261262;-0.07102414;0.046974182;0.12381519;-0.0071743177;0.18966071;-0.24605799;0.039273564;0.18426825;0.05432592;-0.048649516;0.510103;-0.0058463975;0.08289613;-0.049653493;0.17435868;0.49214816;-0.7488743;-0.020626385;0.48260897;0.013144265;4.42808e-05;0.11806089;0.21961908;-0.23929177;0.25044188;-0.69440776;-0.052435227;-0.025365792;-0.016015152;0.092763685;-0.21993709;-0.3180345;0.31559378;0.053562798;0.13839516;-0.054103274;-0.16628811;0.16567785;0.36835125;0.15808478;0.39643297;-0.02574487;0.29380658;0.085594006;-0.22814089;-0.0028287927;0.35829604;0.002581985;0.11214843;0.10593822;0.5148168;0.18285398;-0.23217988;0.057462674;0.26006085;-0.04961685;0.14657061;0.071440555;-0.21030392;0.03989579;-0.44913566;0.5082857;-0.3280915;0.3910963;-0.1083548;0.028098559;-0.29344445;-0.04038837;-0.011756568;-0.10749038;0.13893242;-0.044755235;-0.036825914;0.32613358;-0.06398671;-0.04842374;0.09727347;0.058380604;-0.0071238535;0.04195473;0.0108507555;-0.19138423;0.34374738;0.006724198;0.23896955;-0.01874477;0.0057460554;-0.009821902;-0.017717382;-0.20670317;0.48346606;-0.5249914;-0.5329947;0.2535513;-0.22255416;-0.19860187;-0.3142418;0.0074508446;0.23301251;-0.15904765;-0.14474697;0.43524984;0.5397751;0.41944078;0.057990044;-0.0338716;0.80829096;0.1107531;-0.043823656;0.103910536;0.15409446;0.19320872;-0.35846612;-0.039134324;-0.0757205;0.07785072;-0.07512623;0.04413875;-0.13253342;-0.06779849;0.23774292;-0.27703398;0.01080471;0.30674967;0.08594271;0.0094095245;0.18337838;0.13388467;0.2581115;-0.4576583;-0.06259022;0.07933379;0.20338209;0.007355099;-0.012718437;-0.32957983;-0.0277191;-0.019975355;0.2917272;-0.15397023;-0.017033933;0.42791376;0.16081934;0.031130066;0.24461912;-0.15602887;0.4190613;-0.041887056;0.54739434;-0.18440454;0.09856065;0.117308296;0.026074618;0.039622914;0.09386454;0.013838051;0.029811084;-0.08778206;0.05056927;0.40433225;0.16497445;-0.27674404;0.39574847;0.16765043;0.17191182;0.23620246;0.0073128743;-0.48932615;0.04019166;0.31883228;0.0032184443;0.04116256;0.03054144;0.011310898;0.011996469;-0.05232842;0.05140661;-0.05932425;0.28868535;0.18141682;0.34120625;-0.023950998;-0.14795631;0.5635187;0.14160068;-0.027199367;0.7904735;-0.05464103;0.54372853;0.32524025;0.21456353;0.042057447;-0.040195934;-0.0015283591;0.043698214;0.005341224;0.064640775;-0.19739845;-0.1555378;-0.2659878;0.31723833;0.016165754;-0.019273452;-0.008130077;-0.048686482;0.0037443868;0.40445828;0.15212199;0.1521621;-0.05269115;-0.048878476;-0.003159495;0.03481724;0.038788345;0.001061586;-0.05536958;0.25906935
0.44090974;0.09316291;0.068118155;-0.1822917;-0.097360864;-0.033726998;0.14652467;-0.024832642;0.058863495;-0.31176677;0.012488069;-0.059910808;-0.026279802;-0.035772115;0.17813137;-0.54295135;0.023390925;-0.20979716;0.1364583;0.13676624;-0.07143383;-0.34781265;0.18679892;0.10959787;-0.028201053;0.017044688;-0.37711358;-0.3976416;-0.051588308;0.04539398;0.13015115;0.113859735;-0.0062745735;-0.07633639;0.36701214;0.023957016;-0.0061817677;0.048312917;-0.2130293;0.070826165;0.5464298;0.30830035;-0.039461304;0.45519802;0.17062;0.029742455;0.12627532;0.31214944;0.34296015;-0.0674889;-0.05617563;0.14145093;-0.37027955;-0.3219714;0.0074119368;-0.016047556;0.03544328;-0.34487104;0.29615813;0.02281547;-0.10016813;0.029220732;-0.09258734;0.48070753;0.2093747;-0.07305655;0.04229873;0.015741402;0.005748139;0.020169582;-0.5203254;-0.015201222;-0.25427833;-0.10002435;0.4456188;0.0063819108;-0.0015032827;0.31707972;0.09968363;0.04125721;-0.07645952;0.23268732;-0.03261642;-0.0045520863;0.38442248;0.035958808;0.39282617;0.057663385;-0.0054016626;-0.013539883;-0.0028510198;0.2729353;-0.06724613;-0.20276263;0.021275138;0.040371533;-0.63107175;0.16749805;0.06946539;0.11904944;-0.0693826;-0.021572378;0.033376534;0.038724553;0.15634656;-0.05209284;0.039983194;0.04961202;0.0039612944;-0.3864874;-0.05367276;-0.042287704;0.3893354;-0.04551005;-0.25275034;0.12128926;-0.047519177;0.071144335;0.057846013;-0.3532488;-0.050467115;0.50592405;0.31399536;0.0121127;-0.046823457;0.106006876;0.29021183;0.33994463;0.24405286;-0.04237901;-0.30707228;-0.058732204;0.1456199;-0.058782823;0.47438425;0.31625268;-0.18666345;0.4372218;0.32066768;-0.153256;-0.169351;0.34708646;0.17960294;0.08543288;0.56969845;-0.023973264;0.03178862;-0.06310123;0.040134158;0.071975306;0.013255411;-0.30019838;-0.13078132;-0.051766146;0.06480254;0.06650837;0.61464185;0.015780019;0.15348525;-0.05502262;-0.13698094;0.059883267;0.05323143;0.023536095;0.25951698;0.14639622;0.29643643;0.22098635;-0.18060249;-0.13410649;-0.15716061;0.100076385;-0.02156538;-0.12616062;-0.01473648;0.37219363;-0.077973574;0.34761062;0.47991127;0.24288468;0.64877486;0.06814111;0.091490835;0.10855215;0.040361736;0.31485322;-0.0018862658;-0.03183068;0.11652613;-0.15461862;0.02995489;-0.054577418;0.18335319;0.1208428;0.02774478;-0.4097096;0.22005929;0.027050357;-0.054775577;-0.047899313;0.16830893;0.022373615;0.00078377465;-0.21739905;-0.23982972;0.08716019;0.049254216;-0.018839074;0.34034854;0.48416668;0.40959084;0.061623275;-0.07854334;-0.04353185;-0.09016639;0.04345389;-0.09427297;0.02467303;0.056576177;0.49565563;-0.0053870296;0.2769835;-0.06244545;0.054994144;0.09585041;0.038503017;0.03743834;-0.0687367;0.03373385;-0.7298683;0.016190454;0.05889797;-0.029299462;0.26463616;-0.4102239;0.25461158;-0.011160052;0.40128103;-0.017299239;-0.019545339;0.35413373;0.54899657;0.03332953;-0.01287422;0.20941396;-0.37483996;-0.24854746;-0.023856549;0.07536119;0.039019763;0.53368855;0.09864728;-0.16768609;0.032893416;0.08351585;0.040415894;-0.065172985;-0.42863408;-0.04528688;-0.15083078;0.19773436;0.40291023;0.15055415;0.041500565;0.01445302;-0.21613605;0.31440923;0.46280316;-0.064516254;0.043116726;-0.013501575;0.04641745;-6.607469e-05;0.09637546;0.029518045;-0.32625985;0.20219448;0.28157514;0.06860894;-0.04379471;0.0489606;-0.34986076;0.22546555;0.14195512;-0.029256929;-0.023142431;-0.679415;0.12909248;-0.071351886;0.3973256;-0.020475563;0.28988233;-0.008489707;-0.08463488;-0.23815049;0.00012046106;-0.06992936;-0.45862532;0.08280624;-0.52843803;0.0018099407;-0.12254738;-0.06297019;-0.14187364;-0.023436934;0.3019506;0.02871945;-0.047174573;-0.04053124;-0.0484513;-0.057611756;0.42878577;0.5196024;-0.091492414;0.04504971;-0.052264683;-0.36347267;0.16887929;-0.20979072;-0.010207166;0.053612586;-0.053722344;0.02294299;-0.12983425;0.028858935;0.07648673;0.012651763;-0.010474262;0.009007559;-0.25263458;-0.024488669;0.3076631;0.0013983982;0.015679311;-0.07179095;-0.050119396;0.3277361;0.030538954;0.08619374;-0.06831329;-0.03552577;0.05018547;0.022983205;-0.024702853;-0.114441566;-0.15883906;-0.06777606;-0.13464902;0.12422561;0.26509696;-0.8603693;-0.08229579;-0.23284255;-0.4047941;-0.51357526;0.21270402;-0.0070472406;-0.044827543;0.30184302;-0.057178847;-0.038420808;-0.13512568;0.008626244;0.16882548;-0.07975052;0.03561727;0.052055918;0.02908575;-0.009753476;0.3693519;-0.030434025;0.1312554;-0.06514526;0.08342355;0.3537939;-0.4721899;-0.022994751;0.41664964;0.043995976;0.017699393;-0.057020124;0.19183138;-0.05706278;0.332337;-0.81538993;0.03315301;0.0025476213;-0.1483453;-0.054531306;-0.12630531;-0.23153836;0.21912074;0.082239665;0.1018481;-0.023313526;-0.09824566;0.10629938;0.24418506;0.14295694;0.23253219;0.008866507;0.10392873;0.06502211;-0.1516556;0.074625045;0.0885721;-0.04124102;0.32473177;-0.11427911;0.2582658;0.17784522;-0.24546637;0.0050371205;0.3467105;-0.11788327;0.011316301;0.084294036;-0.20898408;-0.013572599;-0.35045743;0.27651066;-0.29980874;0.55600816;-0.20228648;-0.046533108;-0.19201498;-0.01880749;0.064675525;0.10547428;-0.026910273;-0.028638015;-0.048549883;0.10913667;0.0635249;0.04331029;0.043321952;0.0078803515;-0.06909744;0.20381275;0.008475882;-0.29667524;0.21760315;-0.076416396;0.03153261;-0.088530004;-0.040715348;-0.044290606;0.28337348;-0.19466108;0.3581077;-0.45147997;-0.45783815;0.1667333;-0.33276707;-0.21680464;-0.20895253;-0.07295651;0.07123417;0.050052103;-0.22258227;0.3325724;0.39021567;0.39645237;0.00756483;-0.030400334;0.65049297;-0.040255606;-0.040788338;0.100570366;0.087239996;0.06555832;-0.2399756;0.02695541;-0.03970983;-0.04372637;0.061594535;0.022887917;0.085606925;0.03448703;0.1348366;-0.20660722;0.13272387;0.2711447;-0.032697827;-0.091917135;0.018804165;-0.004418152;0.28970462;-0.6129631;0.013463307;0.09323174;-0.031325154;-0.02619948;0.0033234183;-0.22646928;-0.04630668;0.020215191;0.21082471;-0.22605853;0.024638351;0.5184613;0.05565066;-0.064896375;0.24451698;0.05730723;0.20570037;0.011807539;0.5820911;-0.03975641;-0.051032707;0.09448686;0.054660317;0.014039764;0.047842883;-0.048783477;0.046998154;-0.122164354;-0.05964052;0.42380255;0.07575528;-0.35279307;0.19542576;0.034472015;0.20863321;0.19185716;-0.22765344;-0.20743532;-0.033316206;0.18446626;-0.08004702;0.053646754;-0.09265674;-0.20721059;0.031586353;0.087969735;-0.11456142;-0.0036523822;0.29738632;0.10203541;0.22901802;0.052501254;-0.20307656;0.478466;0.08217456;-0.0756686;0.54084516;-0.0015901854;0.44601938;0.30465037;0.17696847;0.016279781;0.016057583;0.062160473;-0.000985876;-0.043309405;0.022219507;-0.36642954;-0.04543097;-0.21606089;0.11474479;-0.018561758;-0.010271412;-0.02253472;-0.008160666;-0.039236158;0.34815738;0.015363779;0.06520496;-0.027017884;-0.05173872;0.057748176;-0.016565986;0.044126254;-0.031288706;-0.036176864;0.26831877
0.16343714;0.07417781;0.117783405;-0.34220812;-0.11634254;-0.048183423;0.1042465;-0.008883261;0.06693659;-0.3696552;0.036721867;0.040587578;0.040771753;0.052890662;0.21255016;-0.46775448;0.20837677;-0.20808853;0.0785487;0.159898;0.060706735;-0.25232443;0.15974429;-0.0450356;0.063347064;0.040145595;-0.38797185;-0.35031903;0.011495504;0.13036628;0.17563812;-0.03464152;0.08258781;-0.008052605;0.24949485;0.02049332;-0.09456712;0.016511522;-0.23663907;-0.0729451;0.4694911;0.109633006;0.057235375;0.43842453;0.10166267;0.19031759;0.2622307;0.3357077;0.4307762;0.08765934;-0.035223402;0.07325719;-0.2665648;-0.31039613;0.04691916;-0.058257632;0.006371958;-0.1769649;0.21469346;0.023035917;-0.049757853;-0.023637364;-0.17057928;0.4680305;0.15076837;-0.0703328;0.0738455;0.0076943464;0.09464927;0.07234087;-0.37394258;-0.034095973;-0.3761105;-0.09333637;0.46883383;-0.06790874;0.009532574;0.28064114;0.017844344;0.084810406;-0.21244808;0.2815043;0.045623314;0.051668413;0.47594526;0.060401954;0.4399169;-0.03504923;-0.094020166;-0.041460533;0.027648019;0.10550707;-0.020399265;-0.11416545;-0.082097195;-0.16251755;-0.3922348;0.04077356;0.14530614;0.10049051;-0.1337397;0.025246045;0.043639034;0.039558996;0.16093838;-0.16126251;-0.0073642577;-0.07870778;0.114961825;-0.51730365;-0.083001174;-0.14925596;0.55303574;0.02929638;-0.25998345;0.15277287;0.042914588;-0.077615395;0.0063573457;-0.27196202;0.033269312;0.4152475;0.21039322;-0.0025737635;-0.025813116;0.12429268;0.31586704;0.18479411;0.1276801;0.01685844;-0.250388;0.19241253;0.16625822;-0.023326045;0.30206072;0.38016534;-0.06759638;0.33952415;0.3261201;-0.22064495;0.0551178;0.27131;0.073650055;0.04603417;0.48501003;0.04739428;0.025528345;-0.024462959;0.00526106;-0.0075522647;0.0107227415;-0.2806999;-0.056273207;-0.19506921;0.18233964;0.057769768;0.37540585;0.060342018;0.14905545;0.04815939;-0.16424732;0.051748827;-0.014299834;-0.006209731;0.17624433;-0.01333851;0.04829602;0.06955766;-0.2813924;-0.13577528;-0.2929655;0.109226644;0.05054392;-0.06391976;0.010654382;0.33920267;0.015651932;0.16342805;0.46651906;0.0016482619;0.55575734;0.08029045;0.17050633;-0.024158606;-0.060160354;0.19579197;0.049060598;-0.26129636;0.23629993;-0.23082328;-0.0085938135;0.06042914;0.11219046;0.08403447;-0.005253721;-0.27762783;0.093457304;0.0030011374;0.06705893;-0.02914386;0.16045205;0.03676059;0.018320212;-0.23416303;-0.100528374;0.032576058;0.032802965;-0.09372464;0.20750156;0.38702223;0.2393609;-0.034854524;-0.15535386;-0.047238994;-0.1427906;0.02329798;0.066687234;0.03198149;-0.057947908;0.57497793;-0.014256813;0.4339271;0.000682274;0.045621034;0.06391628;-0.0021724696;0.027231963;-0.060741883;-0.043849554;-0.7142688;0.018000523;0.049513955;-0.12218988;0.105208255;-0.2761352;0.2872985;0.002064721;0.21324116;-0.016702278;0.18285018;0.24756312;0.40871075;-0.05161063;-0.063768014;0.25553426;-0.37839743;-0.31199625;0.049402777;-0.021560768;-0.022270583;0.38133126;0.2688119;-0.22106625;-0.023634335;-0.12304707;0.07344618;0.07025488;-0.5021354;-0.08701742;-0.058909018;0.027848668;0.3073204;0.13976812;-0.069317475;0.019457286;-0.1499733;0.21820782;0.4534969;-0.01407308;-0.051485382;-0.010015764;-0.03323231;-0.0046766703;0.020999786;-0.012040405;-0.32901308;0.27311242;0.10094703;-0.043867193;-0.054052044;-0.081724145;-0.39902022;0.18691812;-0.05109926;-0.108874165;0.0029141025;-0.6645601;0.11632882;-0.0073971;0.49696144;0.07287774;0.32542798;-0.080538124;-0.016643034;-0.13626598;0.025317388;-0.1044759;-0.39781043;-0.04768446;-0.64346015;0.08721921;-0.09836904;0.018184965;0.13423333;0.10725863;0.38120335;0.12175459;0.05274785;0.056825772;0.004917659;-0.19402432;0.48808533;0.5357121;-0.10123561;0.077632606;-0.02302574;-0.34691218;0.01412905;-0.18478714;-0.008049179;-0.07880646;-0.06599538;-0.03726312;-0.13591404;0.0139962565;-0.08759611;0.0014314683;0.0049509127;0.0058338623;-0.086515926;-0.12968591;0.33940443;-0.06257719;-0.0849964;0.04035271;0.0014023484;0.24573131;-0.06602423;-0.14170249;-0.045566984;-0.03917677;0.04595119;-0.006604322;0.100237325;-0.19774112;-0.22781648;-0.00025908946;-0.13772641;-0.0020126228;0.21456903;-0.7318082;0.01649689;-0.13164572;-0.32369193;-0.266061;0.11335644;-0.05381843;0.069102615;0.22369155;0.09291148;-0.04519413;-0.12032136;0.023224695;0.13926883;0.14677957;0.13041668;-0.10548325;0.03357536;0.08339402;0.34172702;-0.022756217;0.16139941;0.020907518;-0.013437029;0.21480499;-0.4183656;-0.08594801;0.39560026;-0.07461111;-0.031348277;-0.0570593;0.08748639;-0.017485978;0.42975745;-0.7684354;-0.030260408;0.061346155;-0.13710767;-0.03730418;-0.103489324;-0.20835556;0.18336685;-0.031718537;0.18690081;0.0102459835;-0.2041085;-0.09400564;0.15789658;0.036234066;0.16153124;0.0024647121;-0.016743366;-0.04500444;-0.2909557;-0.031097222;-0.16377437;-0.008253481;0.25032198;-0.21710207;0.2009662;0.13410527;-0.10731373;0.034663875;0.3107999;-0.19715282;0.042883247;0.08044442;-0.2506843;-0.011591307;-0.2181261;0.20045124;-0.2850913;0.52929765;-0.28045687;-0.030211743;-0.07713452;0.037549175;0.00973825;0.1752917;-0.15389527;-0.05539478;-0.023745771;0.1714878;-0.027176522;-0.01966374;-0.0019067902;-0.08903376;-0.0024546422;0.17271064;0.012356987;-0.29250473;0.14633012;-0.12584879;0.020172164;-0.059079133;-0.03581156;0.035423253;0.30169466;-0.32318622;0.26684144;-0.30160093;-0.49525157;0.10173356;-0.33351392;-0.1517475;-0.24170554;-0.07046589;0.2024628;-0.005048353;-0.35335055;0.34061334;0.2910847;0.36596924;-0.0007638121;0.072779365;0.5168324;0.04352544;-0.056133736;0.2258592;0.04100683;0.06469757;-0.2319697;0.027103154;0.03474584;-0.042701405;0.007427437;0.051271558;0.18529618;-0.011592758;0.12958016;-0.22168839;0.09274407;0.35813618;-0.020217061;0.053302746;0.021835243;0.053253334;0.2334473;-0.73198825;0.0757778;0.04611798;-0.20104066;0.03812268;-0.0024281803;-0.14645202;0.02922406;0.03678851;0.21536942;-0.24575377;0.04020224;0.6194631;0.025090849;-0.021896176;0.35173947;-0.09303915;0.18134996;-0.00059178786;0.33792034;0.047281817;0.022286808;0.16269563;-0.04373626;-0.081662856;-0.055968422;-0.008615332;0.0021294965;-0.16303638;-0.012775741;0.26578766;0.112248704;-0.2819611;-0.025461609;0.13925008;0.2281865;0.08247324;-0.24507758;-0.1822609;0.057000786;0.2613654;0.046814002;-0.04991128;0.065666944;-0.36051407;0.049483035;-0.03856461;-0.06606875;0.07464221;0.46275374;0.006121819;0.15558031;-0.033117577;-0.17155255;0.3574303;0.053360842;0.0040910197;0.3729953;0.055792343;0.36087874;0.18490951;0.14194551;0.009518862;0.08475627;-0.032830354;-0.018372238;-0.037558522;-0.057957664;-0.39818555;0.018844623;-0.18794347;0.18577687;-0.072404504;0.06586906;0.0033543305;0.0025703285;-0.07981318;0.2870406;-0.24311337;0.04878421;0.0043608136;0.05645245;0.011098856;0.020371178;-0.053865746;0.021062661;0.071420774;0.14970401
0.15474573;-0.04877909;0.030704768;-0.33609253;-0.14383775;0.069926694;0.14223957;-0.05964879;0.10671112;-0.37166613;0.02248379;0.026942352;-0.092889555;0.105086364;0.1642214;-0.49334374;0.22928482;-0.07403844;0.122371145;0.11702102;-0.060720813;-0.16441616;0.19935073;-0.0067662303;0.04254075;0.040550362;-0.3309705;-0.35494468;-0.03483196;0.053907715;0.08464585;-0.021688893;0.06572299;-0.07102264;0.22133656;0.0054692817;-0.26657996;-0.051947262;-0.2558336;0.07042204;0.46266085;0.17138468;0.00050547096;0.3263718;-0.145261;0.2193767;0.302755;0.4295399;0.41728225;0.09376312;0.05009702;0.080688186;-0.327177;-0.36807555;0.039446916;0.0054215076;0.0607344;0.006949025;0.07597724;0.08349195;-0.12655535;0.060380824;-0.3403339;0.4834711;0.08165412;0.00904564;-0.005281643;0.09963205;0.11088626;-0.050365992;-0.349554;0.041764013;-0.20117362;-0.14254777;0.4856183;0.07127176;-0.019413413;0.27441296;0.015374812;0.033842996;-0.34039536;0.19361392;-0.06456346;-0.06755394;0.41122496;-0.019240435;0.45435038;-0.018133776;0.083777495;0.06885357;-0.056537382;0.0756749;0.061640494;-0.15249139;0.028731344;-0.20117415;-0.45113128;-0.04459833;0.0337949;-0.023692423;-0.044332262;-0.049312934;-0.011530939;-0.034254808;0.15288608;-0.25428948;-0.035135873;-0.16481423;0.05733667;-0.55415356;0.005188313;-0.099034;0.5892565;0.012530639;-0.13857503;0.23479398;-0.058286536;0.032791868;0.18931465;-0.10613945;-0.064919524;0.39668816;0.26372808;0.030275006;-0.00014343241;0.056670327;0.46050045;0.1713567;0.13044131;-0.050787374;-0.16559418;0.18585464;0.082953565;0.0684251;0.31388173;0.32341212;-0.13579567;0.33373016;0.28525546;-0.23208292;0.06513513;0.27580696;0.13878429;-0.041717224;0.43659914;0.08000728;-0.019689808;0.10963293;-0.0372776;-0.028293096;0.062923186;-0.35172197;0.022421073;-0.32053024;0.15177472;0.13234313;0.3654001;0.038937423;0.30046284;-0.052431278;-0.21419501;-0.019805286;0.06242326;0.014758708;0.08751262;-0.073698886;0.0234521;0.1639775;-0.33805698;-0.062524214;-0.30332026;-0.008201765;-0.10170482;0.0025203452;-0.08228938;0.27220067;0.011874572;0.18380865;0.31302774;0.06832549;0.648076;-0.023846323;0.13207792;-0.13582331;0.00010709323;0.24370132;0.040908445;-0.2852751;0.25889465;-0.25549245;0.0239261;-0.07176893;0.09003641;0.08598029;0.09041332;-0.14288175;0.2006984;-0.011555558;0.03994832;0.037898965;0.19692309;0.049118426;0.03769031;-0.2803624;0.0028408128;-0.049370717;-0.0784715;0.05288678;0.21742919;0.3147536;0.18621506;-0.026121221;-0.09265491;0.03715718;-0.12643519;-0.039397586;0.1623018;-0.022829896;0.07245123;0.52920294;0.01171634;0.45131716;0.07116359;-0.0153176505;0.052398395;-0.057644963;-0.09201317;0.0010396548;0.052609216;-0.5177892;-0.010726228;-0.06965132;-0.10553522;0.04752428;-0.19484076;0.24868752;0.12715673;0.08545965;0.08487475;0.19404899;0.27237883;0.4626738;-0.058800347;0.025535967;0.09310643;-0.33227277;-0.37020278;-0.06578079;-0.026823806;-0.024685217;0.36804882;0.2610913;-0.24264465;0.029936844;-0.15347013;0.06315564;-0.010598726;-0.43675494;-0.0020521805;0.079592094;-0.034385636;0.18377028;0.08655977;0.035427757;-0.026564961;-0.20828494;0.14744687;0.4423003;0.0028183104;0.057262916;0.01746839;-0.05867681;-0.07769524;-0.07407298;-0.059241258;-0.28590688;0.23057106;0.06663773;-0.0282578;-0.053914614;0.027889425;-0.30016124;0.17358817;0.0052234856;-0.22224505;-0.06394279;-0.4217348;0.12960829;0.09353539;0.3960305;0.05447753;0.15526982;0.052229993;-0.10029027;-0.10204121;-0.02740281;-0.23649135;-0.4002055;-0.018729404;-0.6189917;0.0067869006;-0.08446542;-0.051076155;0.2073225;0.18074593;0.36374253;0.110126264;0.019510826;0.011358349;0.071105555;-0.094790176;0.49767187;0.49055;-0.07164916;-0.024061866;-0.10774755;-0.4076884;-0.039497767;-0.03602165;0.09462492;0.033565834;-0.009299216;-0.0052139508;-0.030261984;-0.06703301;-0.17632173;-0.022311391;-0.020214414;0.08141675;0.012757241;-0.2309171;0.4856522;0.049469423;-0.06509163;0.15102212;0.024774684;0.23338279;-0.025152722;-0.061524253;-0.01357978;0.0019731047;-0.0040874877;-0.005349002;0.10347375;-0.25507092;-0.293842;0.038377862;-0.14189473;0.066585995;0.16383645;-0.6380118;0.13182047;-0.10160741;-0.21202809;-0.21299356;0.029113827;0.028105102;-0.029159084;0.22757956;0.10952887;0.024929477;-0.09730753;-0.0009833099;0.17904325;0.035970442;0.0947096;-0.19317412;-0.022196252;0.058114998;0.2699705;0.11570045;0.12543036;0.07351008;-0.05420986;0.08339603;-0.2766913;-0.2040034;0.30370155;-0.0076155905;0.04475555;-0.028607985;0.015948331;-0.21672596;0.36190867;-0.75305396;-0.04997309;-0.019312311;-0.025023106;0.08779417;-0.13724689;-0.20957498;0.14091729;-0.0579714;0.15431146;-0.039976984;-0.09956838;-0.07624376;0.2009974;0.08720076;0.063309945;-0.03302241;-0.022034971;-0.08599779;-0.35846648;-0.01452863;-0.19771159;0.06036948;0.32441244;-0.29103965;0.18972963;0.20442964;0.13053441;0.20263687;0.33048368;-0.10548959;-0.061321173;0.14352833;-0.12381879;-0.086769566;-0.10773803;0.2704337;-0.24996229;0.494038;-0.24305345;0.018834647;-0.2513024;0.014018088;0.0019391498;0.17647737;-0.22501631;-0.10573625;-0.08522086;0.018046193;-0.0073793153;-0.014593372;0.057571806;-0.17010398;-0.060732372;0.19733422;0.07320442;-0.34111378;0.1258916;-0.04072602;0.01774768;-0.19948015;0.044702735;0.040378015;0.44228995;-0.12328647;0.12516618;-0.22924246;-0.38646716;0.18041107;-0.40682337;-0.18793117;-0.21956809;0.07412623;0.22060794;0.10816329;-0.43357077;0.29379496;0.31635383;0.37374577;0.054624394;0.017956667;0.5218663;-0.07175411;0.07587161;0.037511833;-0.0005368002;0.054055236;-0.043666873;0.056289714;0.020556103;-0.019878207;-0.022724995;0.0010926743;0.1605231;0.04710169;0.2220003;-0.100917116;0.1398816;0.34664357;0.0391943;0.02183915;-0.059630096;0.17905375;0.1527465;-0.73234695;-0.057450008;0.12095013;-0.07894946;-0.038483836;-0.00530303;0.0011763121;0.035251744;0.06078884;0.25851962;-0.33234996;-0.0381551;0.5790252;0.08795817;0.017798759;0.29935634;-0.14171384;0.13759449;0.011134659;0.32943314;0.14068013;-0.0029614524;0.23892482;-0.067731336;0.04924364;-0.1001548;0.028600648;0.002290181;-0.21273626;-0.040348694;0.09847211;0.15726298;-0.19182788;-0.012683106;0.22361548;0.2077578;0.2862174;-0.28972697;-0.06336592;0.021393873;0.15847218;-0.025637468;-0.08567993;0.0130614145;-0.3697536;0.026887603;0.049936958;-0.053723548;-0.0779553;0.47553182;-0.11198228;0.14845167;0.022836382;-0.20022233;0.24430028;0.0023689815;0.058495916;0.29798013;-0.0033111642;0.3706024;0.1965925;0.03425134;0.0012788415;0.124336526;0.026405223;-0.00062068744;0.0007298845;-0.0059459666;-0.4383636;0.07124771;-0.09962692;0.14772987;0.014331362;-0.042071056;0.0027425948;-0.0021603256;-0.005675844;0.18768905;-0.2098982;0.0852345;0.02630952;0.0014112056;-0.022019785;0.031669293;0.028305953;-0.03875602;0.061461076;0.1018603
0.112507455;0.040517047;-0.0283422;-0.3326275;-0.12577172;-0.046366777;0.0678851;0.037329365;0.08590726;-0.44335845;0.0022238193;-0.0001775098;-0.07020337;0.0045297095;0.05506293;-0.49379173;0.2642779;0.11955006;0.121536516;0.0021109253;0.045457996;-0.25994268;0.19467044;0.09370755;0.014930873;-0.07507245;-0.31428984;-0.26198018;-0.058104165;0.016369583;0.08252177;-0.007899223;-0.037597086;0.050600436;0.18382423;-0.032346603;-0.16847406;0.026966354;-0.23508026;-0.009142297;0.4219289;0.14885142;0.046044674;0.37199494;-0.14435278;0.100545146;0.34616604;0.42401245;0.42835173;-0.062405072;0.027231192;-0.025662284;-0.2749896;-0.36077112;0.12217778;0.06463276;-0.043620765;0.03573039;0.0642346;-0.001817356;-0.22124009;0.052480556;-0.33989057;0.5373151;0.09021971;0.031631358;-0.024272561;0.28950283;0.05295504;0.02698275;-0.2703042;-0.03859952;-0.12032864;-0.2194414;0.301673;-0.052427523;-0.0811576;0.24104322;0.13630144;0.12130626;-0.22683005;0.17325631;0.05606222;-0.008502847;0.30106428;0.05713588;0.4105751;0.019826595;0.053084236;0.05165862;-0.085825294;0.09164647;-0.00893423;-0.20200749;-0.027219463;-0.12966263;-0.28935325;-0.03825497;0.18949813;-0.10179206;-0.06082727;-0.025127215;-0.026397234;-0.06173198;0.26962194;-0.42355293;-0.027698848;-0.27481368;-0.047886055;-0.48970988;-0.0047647585;-0.18541315;0.4786544;0.03612397;-0.03519515;0.087201856;-0.16793452;-0.020560909;0.17690924;-0.07040995;0.058029626;0.29335257;0.13813105;-0.0056052315;-0.042577352;0.02169724;0.40262878;0.12968779;0.21753336;0.013028616;-0.14605126;0.237479;0.00476541;-0.04655215;0.21483545;0.39097783;-0.21409856;0.292084;0.32203385;-0.17985459;-0.05538606;0.3279704;0.08515007;0.08840514;0.22535305;-0.011417743;-0.13930963;-0.023220835;0.044517346;-0.058213018;0.040213123;-0.339147;-0.028386062;-0.29217026;0.19440448;0.073395886;0.20083266;0.0026816428;0.24703974;0.029266894;-0.2581141;-0.00032879075;-0.0634771;-0.06643498;0.20349284;0.022342447;-0.09640109;0.20683607;-0.24776864;-0.061624397;-0.23574926;0.13198191;-0.0013309056;0.1289899;-0.07640454;0.16626526;0.064021766;0.1113326;0.30730316;-0.14324947;0.52025586;-0.079513855;0.15103987;-0.008230863;-0.06963405;0.0940585;0.06927756;-0.2596059;0.27979037;-0.30663705;-0.019509276;-0.06145376;0.13047929;0.113019496;0.008802294;-0.078831874;0.16664109;0.0038114928;-0.0488429;0.06519463;0.21794856;-0.017717378;-0.045346297;-0.27665475;0.028611153;0.087037176;0.011324826;0.03245434;0.055189695;0.064500876;0.0022424343;0.05898498;-0.07781828;-0.066060744;-0.0928219;0.025913792;0.20983274;-0.028095894;0.044174083;0.38777408;0.027097268;0.4562819;-0.04660069;0.033938415;-0.04206485;-0.027857315;-0.042182256;0.0453912;0.044587776;-0.54255104;0.023617608;-0.020111002;-0.0857076;0.06872291;0.01786453;0.26124603;0.26295978;0.015685143;-0.045474865;0.283513;0.3081492;0.38426507;-0.06095978;0.049100418;0.14306569;-0.379548;-0.36769614;-0.033235654;-0.07233958;-0.04841542;0.35312364;0.18224886;-0.048425976;-0.024581037;-0.140034;0.18888824;0.04000046;-0.6010624;0.024063446;0.048498236;0.080715306;0.016855177;0.14764483;0.005043033;-0.06593362;-0.14854842;0.21227475;0.35915717;0.07210228;0.06026176;-0.0071865106;0.071978;-0.056562327;-0.049836084;0.078259036;-0.044500668;0.19722572;-0.042526428;-0.008784051;0.045170467;0.022357866;-0.3882489;0.02129648;-0.1470686;-0.13030726;-0.055103187;-0.25438675;0.22489685;-0.027736034;0.2789564;0.08804246;0.12859161;-0.047603745;-0.06258685;-0.23763578;-0.059053034;-0.26425546;-0.34660482;-0.024242938;-0.5584138;0.08563493;0.0046794782;-0.0600018;0.14744835;0.21658134;0.34899747;0.16948088;0.03474192;-0.0123962145;-0.023751255;-0.10299428;0.44143164;0.44921646;-0.039340876;-0.0041050874;-0.12524544;-0.28377268;-0.0070413067;-0.11255318;-0.039040025;-0.015443139;-0.018215109;-0.037794594;-0.0052944236;-0.056572746;-0.20373179;-0.08103708;0.0056796814;0.015074143;0.036831234;-0.21662691;0.37808925;-0.04837417;-0.10521108;0.14369826;-0.028824504;0.20496807;-0.04361984;-0.112670295;-0.0029393109;0.027254295;-0.017522015;-0.00427659;0.19578189;-0.11202541;-0.21695465;-0.024839196;-0.09639893;-0.03684199;0.12934417;-0.5058178;0.11522872;-0.035486434;-0.18559062;-0.13436581;0.00011073574;-0.065356255;0.014667741;0.22916514;0.049581658;-0.042536937;-0.093126275;0.09134273;0.21199885;0.12826262;-0.049542334;-0.20897353;-0.07915173;-0.022707606;0.37410283;0.14398889;0.07884071;-0.044359274;-0.110605575;0.12512496;-0.19115037;-0.12303397;0.2774685;0.023204733;0.0035091634;0.01437842;-0.003749739;-0.15447158;0.20580143;-0.62823504;0.093920514;-0.008212419;0.014764513;-0.018841123;0.018608527;-0.17707646;0.027288653;0.007512354;0.09388677;0.07035213;0.01195723;-0.10332194;0.23491155;0.19884285;0.09217911;-0.05013047;-0.06768168;-0.034152474;-0.35897616;0.03950941;-0.16682377;0.008157224;0.34062344;-0.29716042;0.10558874;0.18636735;0.18837616;0.19955648;0.23855877;-0.15497269;-0.056716703;0.15815187;-0.12838298;-0.077210896;-0.06752981;0.2891768;-0.18801187;0.47251356;-0.39009982;-0.045787815;-0.2821589;0.101329096;-0.03384468;0.07806101;-0.17605239;-0.21897614;0.025131853;0.036776148;-0.0020453052;-0.07061006;0.05499401;-0.13864997;0.022189988;0.173138;-0.0469149;-0.19973102;0.11560305;0.097317435;-0.036209084;-0.11127793;0.01818514;0.041966338;0.56882864;-0.20571242;0.21663578;-0.1252927;-0.4032039;0.15936762;-0.3640728;-0.12438865;-0.26931563;0.055382542;0.15010627;0.13612218;-0.34330863;0.396275;0.35710135;0.37750772;0.19058126;0.011978645;0.3069632;-0.06465943;0.0029105747;0.011540696;0.066381685;-0.10519809;0.1331469;0.19456631;-0.005956491;-0.032564938;-0.052781742;0.027212387;0.29845813;-0.038206134;0.11214143;-0.095585704;0.15942045;0.35700995;0.00035623193;0.042211242;0.026494786;0.056699455;0.27277112;-0.72691673;0.02023094;0.23433582;-0.12685324;-0.06103774;0.072191484;-0.05963733;0.008772939;0.060378548;0.3505706;-0.099133395;0.056591127;0.5820233;0.068462044;-0.021062128;0.33440316;-0.11891827;0.04036481;-0.06519265;0.39867747;0.13850546;-0.02190132;0.33541834;-0.2802541;-0.041168913;-0.19335337;0.053922478;-0.085683964;-0.07434731;-0.04323057;0.1941354;0.08745373;-0.03568797;-0.10188344;0.37208784;0.30655798;0.29656655;-0.26187092;-0.09991121;0.010971656;0.36202568;0.025609046;0.06792337;0.06415346;-0.1761853;-0.110867426;-0.0040595755;0.09512774;-0.062037207;0.32502583;-0.12859946;0.1723889;0.011149622;-0.10992139;0.08624148;-0.02494231;-0.03957333;0.254861;0.08696695;0.37526542;0.36751586;0.011097825;-0.036080748;-0.039514482;-0.02535154;-0.02117955;-0.011376835;-0.05461959;-0.2942633;-0.0037177172;-0.11388789;0.11354532;-0.003150949;0.031190671;0.04583131;-0.024930704;0.022069652;0.16742232;-0.22594556;0.04022241;0.016592681;0.048988637;-0.10240442;-0.019624187;-0.03403045;-0.013668889;-0.014974194;0.074913256
0.1794286;-0.13426459;-0.010550338;-0.35682935;-0.17984326;-0.07250438;0.11358289;0.0026172472;0.046780057;-0.48100072;0.05085613;0.035409044;-0.050638765;-0.081546515;-0.03243464;-0.38905492;0.39929053;-0.035876676;0.0414096;0.06959142;-0.0133345695;-0.16536446;0.1666268;0.014518717;-0.05753674;0.09646601;-0.32501143;-0.21848929;-0.08588803;0.10454303;0.17308478;-0.01235809;0.032303676;0.05608842;0.03311171;-0.0003937716;-0.25909185;0.06712419;-0.11526149;0.05818443;0.34548205;0.028320022;0.012094079;0.35468882;-0.17395951;0.15577261;0.174934;0.37912625;0.3176411;-0.017076444;-0.047421705;-0.03330514;-0.27346122;-0.39993694;0.051798716;0.066396125;0.024111152;0.16919217;-0.09980331;0.009694272;-0.26266938;-0.044785276;-0.274388;0.6093523;0.17125162;0.03122668;0.011871406;0.32028654;-0.019061757;-0.099307306;-0.23121384;-0.046997655;-0.25281233;-0.28629816;0.3399735;0.051328067;-0.055377726;0.11697723;0.07987453;0.059422154;-0.32243973;0.26632905;-0.039217874;0.006248383;0.40550396;-0.07978685;0.3376926;0.03592577;0.05690009;0.045947026;-0.0509782;0.05502969;-0.030375795;-0.10571454;-0.002166881;-0.15384032;-0.33304226;-0.10291873;0.08830185;0.025122544;-0.13241358;0.028232677;-0.043615475;0.014470092;0.22983217;-0.47298664;-0.02418617;-0.23889935;0.087027885;-0.45308962;-0.052866917;-0.20523916;0.5928212;0.027403058;-0.15304968;0.06776882;-0.21115525;-0.1512568;0.27073696;-0.06945436;-0.020877767;0.2038589;0.18394491;-0.059518058;0.03169986;0.0115114255;0.4319971;0.004503444;0.03677302;0.009898145;-0.0876696;0.23275973;0.07515643;0.061859056;0.1166826;0.3576792;-0.08209357;0.23962367;0.16336037;-0.23907688;0.07473666;0.31256533;0.0939382;0.00815229;0.14087507;0.055619422;-0.16167213;-0.050025567;0.052769993;0.0017002414;-0.011705059;-0.29695517;0.008685292;-0.23506582;0.13319056;0.056304142;0.10000304;0.023591707;0.4083826;-0.02150413;-0.27937338;0.060579903;0.012577905;-0.018111425;0.20917274;-0.0075107403;0.015772903;0.07422887;-0.2999279;-0.085470736;-0.2212333;0.019164361;-0.062176365;0.20439917;-0.09698134;0.06470231;-0.0714976;-0.10165296;0.23409307;-0.061164927;0.49183872;-0.017971393;0.08807049;-0.08096946;-0.041183714;0.12758951;-0.05883339;-0.15318735;0.24892838;-0.21842533;-0.0032745413;-0.0035899645;-0.03481532;0.23902372;-0.016601808;0.05196828;0.11730367;-0.00070915313;-0.051874492;-0.047071807;0.26170677;0.014021613;0.039726123;-0.2942503;0.10646241;-0.024639692;-0.05027617;0.052207094;0.122790955;0.08230474;-0.06862675;-0.034969177;0.007445529;0.04712063;-0.027938647;-0.030532546;0.35242304;0.024994899;0.069030985;0.45627946;0.06882351;0.46636358;0.04338036;-0.07716669;-0.10458778;-0.0645101;-0.09274127;0.037116077;0.00485492;-0.4372013;-0.021159995;-0.06381222;-0.15568417;-0.06635775;0.044762187;0.15758863;0.21069661;-0.0047144736;-0.07028956;0.14001489;0.26665202;0.41373417;-0.048374638;0.042086344;0.0007202533;-0.34504476;-0.51968217;0.05990395;0.02849427;-0.0458996;0.331771;0.27221727;-0.19400232;-0.011616266;-0.23476988;0.16322364;-0.07792184;-0.4859156;0.029939586;0.03732737;0.049317922;0.014203699;0.21056072;-0.012003763;-0.11001875;-0.22936846;0.07227548;0.31353962;0.046996463;0.019710585;0.033184562;0.04266293;0.024245638;-0.09209897;-0.02201948;-0.07435329;0.09783378;-0.14982927;-0.030144949;0.034030672;-0.053984858;-0.30082172;0.084952705;-0.08915823;-0.13296156;0.005111756;-0.09833807;0.23462456;0.06593752;0.10485954;-0.011687805;0.022958636;-0.04270133;-0.05745619;-0.17639801;0.053917427;-0.22949912;-0.37399405;-0.039199635;-0.48356804;0.023003561;0.05975735;0.039503496;0.1603319;0.38881052;0.09031976;0.20170929;-0.047832962;0.01772538;0.059535325;-0.18535382;0.45135343;0.5945575;0.090187825;-0.060106583;-0.15528409;-0.33270752;0.039657902;-0.015650187;0.059750434;0.056975715;0.04534852;0.047790702;0.1327963;0.03330441;-0.20780638;-0.023171175;0.09060474;-0.02945214;0.16794898;-0.04877394;0.49259707;0.037778948;-0.041819334;0.07117354;-0.07342104;0.12510885;0.11097017;-0.03270755;-0.096633404;-0.011014045;-0.0454364;-0.083397985;0.18981647;-0.20162044;-0.33969212;0.017674046;-0.00048080593;-0.08403008;-0.017208029;-0.2548298;0.21193701;-0.03647497;-0.19961691;0.077107534;-0.039241545;0.041748006;0.09329149;0.2162339;0.07558818;0.037379157;-0.09470443;-0.040614933;0.14209592;0.25878593;-0.020112146;-0.15233701;0.03199904;-2.8199189e-05;0.31419203;0.17179547;0.12059311;0.019425783;-0.12552817;0.011925655;-0.16098958;-0.18224776;0.10936544;0.050760623;-0.041778717;0.043844365;-0.0016573453;-0.22487997;0.24990912;-0.48620328;0.08815879;0.0512901;0.122139156;-0.03304842;-0.038886387;-0.036776435;0.1369393;0.0040484527;0.103937216;0.051828563;-0.06768757;-0.010977277;0.09249614;0.10759315;-0.07058049;-0.0058387015;0.023145681;0.012278474;-0.3450882;-0.03324496;-0.25035036;-0.0041479073;0.4236556;-0.3909034;0.08670734;0.1528845;0.26918596;0.10174846;0.22358923;-0.18308555;-0.20921175;0.116643906;-0.043262023;0.0020111653;-0.018549202;0.23354156;-0.11286396;0.38816175;-0.32406703;0.017650025;-0.17147201;0.015594533;0.08292136;0.15868083;-0.29492223;-0.20155892;0.05551291;0.0059810663;0.05335389;-0.04472772;0.044216402;-0.11311144;-0.033667505;0.10494489;0.049113438;-0.32986125;-0.03571552;0.018197149;0.02615281;-0.2346258;-0.04959167;-0.021692533;0.5788884;-0.33023003;0.07437684;-0.2335965;-0.35917333;0.021723596;-0.24902028;-0.057648804;-0.4192995;0.017193727;0.06930305;0.14333403;-0.28418624;0.33925533;0.33551982;0.28937477;0.07423775;-0.0053090886;0.25442064;-0.08143455;0.032695297;-0.12977293;0.05069059;-0.13068065;0.079760686;0.10761211;0.017263921;0.0895697;0.08804987;-0.03092118;0.18408422;0.03535885;0.15897672;-0.08408252;0.058563463;0.36094937;-0.056007784;-0.06893311;-0.11823761;0.092863716;0.1973253;-0.71042037;0.042368017;0.15571186;-0.21492483;0.00032120524;0.109849736;-0.049177144;-0.04305164;-0.010080814;0.2870164;-0.016891878;-0.040027857;0.624158;0.0603789;-5.585411e-05;0.40801954;-0.059353825;-0.09031554;-0.011202119;0.3399094;0.15987384;-0.038069222;0.23718089;-0.32805637;0.02276715;-0.29787806;0.034458816;-0.00915298;-0.24228376;0.035068303;0.13156478;0.17035402;-0.139931;-0.072901845;0.2670648;0.2638762;0.2974116;-0.20712207;0.08178652;0.035480414;0.45206118;0.049001265;-0.042605277;-0.07108879;-0.33165604;-0.06677644;-0.032199673;-0.0030113591;0.04279238;0.38723895;-0.09018554;0.05059702;0.050762627;-0.09640211;0.08507864;0.06920861;0.052063264;0.23408838;0.046252754;0.32232863;0.1928913;0.062708065;0.021741709;0.027173989;-0.08689797;0.04619482;-0.033870637;0.052705877;-0.271905;0.061931442;-0.06578713;0.07614628;0.05372691;-0.048011184;0.032194458;0.051447738;0.0541302;0.106057115;-0.16206528;0.16576971;0.035386913;-0.043752912;-0.060991842;-0.018342081;0.06594612;0.011446775;-0.01824882;0.08168793
0.12537806;-0.15606749;0.058621407;-0.2669608;-0.14399342;-0.05649849;0.14885627;0.004550334;0.059077475;-0.3399054;0.01979663;0.00963613;-0.16187663;-0.077000715;0.06784286;-0.3397471;0.34739366;-0.08209651;-0.026417943;0.13890664;0.040529594;-0.051177043;0.10101981;0.055614553;-0.026698431;0.087982066;-0.26011223;-0.37106428;-0.0749699;0.008287847;0.14021495;0.053033132;-0.02149836;0.04269082;-0.027066637;-0.023685887;-0.234148;-0.08683406;-0.074805796;-0.05054028;0.25438875;0.07546683;0.053568713;0.24402039;-0.11181903;0.1326178;0.28269434;0.45699385;0.31087714;0.040831044;-0.009250776;-0.14401297;-0.19553292;-0.38619855;0.11974502;0.03336589;-0.03139672;0.24257144;-0.113106675;0.046647586;-0.3361399;0.086085774;-0.23352045;0.58837664;0.08690657;-0.0033633993;0.017118374;0.26363;-0.012685452;-0.041535445;-0.1990641;0.00844413;-0.12019833;-0.1623816;0.29708382;-0.076196834;-0.01779018;0.009341245;-0.019650994;0.092597544;-0.27084342;0.13803518;-0.015361744;0.04281317;0.26331612;-0.021394921;0.42593077;-0.070055075;-0.0026767994;-0.052158143;-0.071245514;0.1448785;-0.03043872;-0.10228862;-0.010491289;-0.2128447;-0.23753692;-0.19194816;0.1925557;-0.062146448;-0.09257499;0.028052267;0.06332342;-0.027867695;0.22518928;-0.4052295;0.051982798;-0.2531327;-0.061701234;-0.21130762;0.049697645;-0.13820301;0.57576257;-0.049710624;0.026102003;-0.033863723;-0.23906836;-0.07319057;0.26431555;0.0092223305;0.009090315;0.032993253;0.24148095;0.0129510015;0.0076525374;0.0681145;0.3921552;-0.023827512;0.12278725;-0.072618134;-0.046255313;0.34712365;0.005563611;0.048197612;0.23227867;0.26856613;-0.1704705;0.24284793;0.18071888;-0.19795562;0.07089444;0.29627427;-0.026138324;0.08135585;0.23459749;-0.07903972;-0.2579633;0.01545073;-0.07251068;-0.060691636;-0.08075873;-0.22958507;-0.09008438;-0.21458204;0.15209202;-0.0888805;0.061944045;0.03786998;0.32873878;0.033043347;-0.21331395;-0.07000892;-0.0011938096;0.009634214;0.11173774;0.18013185;-0.0057981843;0.059209168;-0.13983044;-0.22202122;-0.2791372;0.014957962;0.057450455;0.22833894;-0.01946517;0.06817148;-0.031488027;-0.10929355;0.21840926;-0.08802867;0.43721008;-0.01584593;0.053972404;0.03358548;0.037494827;0.16030505;0.06307015;-0.09062388;0.20940875;-0.23798218;-0.061945096;0.032733046;0.11405809;0.14173862;-0.00077788654;-0.016588636;0.11635409;-0.012126146;-0.0118366545;-0.054978605;0.2955761;-0.06021472;-0.011583021;-0.20495662;0.1491149;0.08710531;0.032325305;-0.053938035;-0.010611289;-0.05736162;-0.21451978;-0.038026124;-0.02061606;0.0239313;-0.04376966;-0.031816594;0.26635778;-0.0422202;4.529774e-05;0.38871962;-0.05412047;0.39817616;-0.04561358;-0.08477884;-0.059395157;0.04434126;-0.08198539;0.01687076;0.0018034515;-0.30530038;0.034971215;0.01043377;-0.068167575;-0.049472507;0.02255702;0.2658291;0.31650835;-0.039511446;0.017369153;0.14941914;0.13086936;0.38226372;0.058341045;-0.034854572;0.0004151892;-0.3258989;-0.46890727;0.017399292;0.053060018;0.03208152;0.27394748;0.17218523;-0.05882702;-0.023433074;-0.16852224;0.13571845;0.017351398;-0.53927606;0.049781848;-0.045506272;-0.014332773;-0.090389706;0.14916289;0.06528752;0.029131537;-0.20515189;0.25780055;0.30144125;0.0010954745;-0.050896704;-0.030356774;-0.06367392;0.022609396;-0.030234154;-0.062155157;-0.093420886;0.16838922;-0.09239557;-0.03782414;-0.00017942204;-0.081178054;-0.30396107;0.01620519;-0.19188987;-0.24048692;-0.033366304;-0.1616125;0.18012418;0.04127838;0.124457054;0.08379109;0.08239446;0.01570704;-0.09110935;-0.17336348;-0.025620252;-0.27880484;-0.121345945;0.0677543;-0.38608986;-0.055298742;0.0011331496;0.059150517;0.121971145;0.2814409;0.16108975;0.13080914;-0.043557696;0.023392728;-0.0071052993;-0.04244559;0.48582774;0.53842103;0.13097754;-0.10683897;-0.10571356;-0.39333907;0.038027342;-0.061976917;-0.04010356;-0.095860615;-0.050891433;0.07107968;0.16652559;-0.015398342;-0.28654757;0.021060308;-0.06560764;-0.06989196;0.09552773;-0.07782568;0.34208816;0.048615694;0.025068926;0.15749739;-0.019227386;0.16344957;0.036721203;-0.13910824;0.017994015;0.020822406;-0.038932126;-0.010982715;0.21410438;-0.033559885;-0.16567844;-0.08438795;0.01752022;-0.07913848;0.050017674;-0.17616542;0.24353538;-0.093955114;-0.12211847;0.018866636;0.079145096;-0.059070718;0.069190145;0.29266465;-0.012553737;0.033698816;-0.08192896;-0.04930934;0.20222451;0.22453594;-0.07338126;-0.20882274;0.0038696928;0.047497723;0.2154833;0.18335482;0.15088174;-0.016989768;-0.08927188;0.16685212;-0.15657124;-0.13613985;0.14480843;-0.008856158;-0.009889847;-0.05422069;-0.017135264;-0.106301636;0.31199107;-0.31996182;-0.036853433;0.027839312;0.023127764;0.01816906;0.037484586;-0.046683095;-0.044898838;0.033228315;0.12282653;0.06057214;-0.022781575;0.011848366;0.030959727;0.20231046;-0.0043929247;-0.040570248;-0.010785282;0.038313564;-0.15135394;-0.022555985;-0.1448319;-0.037748355;0.36325973;-0.38907364;-0.093470275;0.1865812;0.3195617;0.035772737;0.12630409;-0.06866792;-0.19549488;0.22682238;-0.1284976;0.041949347;0.09760987;0.24144551;-0.17419983;0.47443074;-0.41235828;-0.054731973;-0.14223589;0.044835143;-0.047615655;0.04115925;-0.25575405;-0.19780305;0.06902668;0.03019927;-0.008343415;0.020307796;0.045661673;-0.017892374;-0.023151228;0.046763837;-0.028581034;-0.1467806;-0.08854218;0.13822562;0.065841116;-0.11204598;0.013056535;0.047326554;0.6430773;-0.30067083;0.13048905;-0.16850767;-0.25025156;0.051530093;-0.241224;-0.009351608;-0.34134084;-0.005650497;0.049559705;0.06549335;-0.16914114;0.36499807;0.15357117;0.36623502;0.050569504;0.05685039;0.18257576;0.04753011;-0.058276623;-0.21658002;0.025083728;-0.07362956;0.107991636;0.24363615;-0.0010163054;-0.017007692;0.0040591992;0.031511687;0.341412;-0.031328063;0.080711834;-0.036484983;0.0066312044;0.25923792;-0.013118884;0.048526976;-0.01964339;0.020990478;0.2024607;-0.6668467;0.019204177;0.14211807;-0.09598023;0.0010997173;0.20827582;0.020614395;0.046613004;0.023926064;0.14246908;0.051917695;0.02064973;0.53958815;0.13269112;0.0136617785;0.45377675;-0.061182477;-0.034731347;-0.0015232578;0.22158594;0.16805995;0.008438788;0.34412438;-0.23995934;0.0452733;-0.23519693;-0.027878443;0.050009534;-0.09848607;-0.03135556;0.20775215;0.17028892;-0.11473984;-0.1727867;0.3935588;0.24203701;0.35040945;-0.28645277;0.027446697;0.02029065;0.27701113;-0.095332675;0.014258344;-0.011147629;-0.22631417;0.060190152;-0.060976323;0.17538081;0.057145007;0.26197284;-0.08297334;0.08775172;-0.03474463;0.0052166004;0.04539156;0.13991182;-0.05815821;0.123277254;0.11781586;0.4035008;0.37312117;-0.016164772;0.0054922295;0.10335592;0.035314232;-0.048888247;0.021668704;-0.00040341137;-0.33937383;-0.04517956;0.045377776;0.17804402;0.02480565;0.05366656;-0.072712265;-0.10873449;0.058879316;0.0014711326;-0.13754489;0.14674726;0.03114781;0.01958038;0.0052827587;-0.06459887;0.007576157;0.04325911;-0.002094126;0.06305225
0.2432351;0.035399232;-0.026144566;-0.17306867;-0.032150917;0.03115236;0.1011686;-0.0048039416;0.091271125;-0.3861799;0.025269255;0.013832217;-0.06329416;-0.14266916;-0.06108306;-0.20713505;0.29802188;0.039872132;-0.062888905;0.008238889;-0.051335316;-0.14417265;0.17898613;0.06715089;0.048962403;0.14121762;-0.22540905;-0.32602763;-0.048758507;0.06320742;0.08460558;0.11930611;0.04898749;-0.02789517;0.0068483716;-0.047731493;-0.17968631;0.016606973;-0.12460104;0.036057215;0.11435436;0.10465702;-0.02581916;0.24554937;-0.1420843;0.11557969;0.23906785;0.5522744;0.213016;0.050846007;0.03588928;-0.082679845;-0.08276467;-0.36078754;0.104822055;-0.08249395;0.043995194;0.33438188;-0.020363672;0.07828118;-0.37853298;-0.008118707;-0.0050353333;0.5739514;0.08719299;-0.03845565;-0.0010645553;0.36366177;-0.041522358;0.03074861;-0.04626688;0.038317196;-0.006335876;-0.14749108;0.2611993;-0.03113315;0.10804178;-0.047672324;-0.13765539;0.15253805;-0.17811596;0.16861844;0.019601338;-0.04561481;0.31450734;0.012875737;0.41024718;0.018758;-0.10486132;0.0033235862;0.0076025124;0.2953789;0.039828334;-0.08266586;0.009240104;-0.12390886;-0.13550599;-0.09094358;0.18362513;0.008330742;-0.19875848;-0.022371924;0.046109997;0.026051017;0.27743256;-0.3556364;0.04605083;-0.30714792;-0.05719988;-0.26872873;0.03483705;-0.11828204;0.41772577;0.06052369;0.012149629;-0.005511485;-0.17822118;-0.053690568;0.2677192;-0.007414901;-0.013851526;0.1587699;0.32605565;0.046293423;0.03678845;0.042393804;0.471941;0.04620044;0.06598165;0.0637131;-0.056121573;0.3204895;0.022362264;-0.065677896;0.12236171;0.22166263;0.01834282;0.2202649;0.12071165;0.006837698;-0.027354693;0.24587475;-0.03595377;0.13696893;0.35167074;-0.045155227;-0.251357;0.085519634;0.022950113;-0.005882214;0.023157677;-0.11321837;-0.07546427;-0.16401204;0.025145456;-0.017388135;0.047113176;-0.0125156455;0.32256195;-0.038487215;-0.32891145;-0.008720618;-0.06811752;-0.09535271;0.2967925;0.24326722;-0.1452653;0.14382316;-0.18628804;-0.07637503;-0.24681963;0.12925796;0.02483791;0.18585394;-0.058917187;0.088472344;-0.023689758;-0.24966331;0.18587372;-0.067950554;0.44188213;-0.09990512;0.08345545;-0.10089293;0.08711275;0.09135123;0.005488539;-0.069927655;0.3556127;-0.25264046;0.044382285;-0.050485954;0.07627046;0.3372242;0.017860502;0.0316662;0.072760515;-0.043375533;0.03909954;0.021030491;0.17694284;-0.06704706;0.019263165;-0.1446355;0.04955616;0.07695262;0.055749808;-0.06075995;-0.020766847;-0.036492318;-0.2985503;0.080851965;-0.097413495;0.0034816319;-0.06883688;0.071734756;0.39468846;0.009934523;-0.0022578926;0.34106764;-0.041467953;0.27964655;-0.03904815;0.04807638;-0.044006743;-0.080050975;-0.029687747;-0.017007405;0.035786983;-0.16857745;0.034540884;-0.0744061;-0.09269744;-0.050127324;0.058239426;0.2922479;0.29453725;-0.026985861;0.046801858;0.11352693;0.07935586;0.32620254;0.047891427;-0.0076437113;0.0755295;-0.16055411;-0.4753222;-0.031923216;0.019544708;-0.033061266;0.23543572;0.2870169;-0.011625633;-0.037656724;-0.18411677;0.121292554;-0.02200075;-0.35114345;-0.02404836;-0.045792416;0.1516838;-0.079564124;0.3340534;0.05316423;0.042197205;-0.1278339;0.13838346;0.16515288;-0.012703776;-0.0088516055;0.028958857;-0.05646745;-0.026261635;0.042276394;0.03493381;-0.10516771;0.14540884;-0.13163728;0.009777476;-0.03391902;-0.08243583;-0.30071127;0.11776982;-0.1455676;-0.24063449;-0.11057099;-0.08543489;0.111720875;0.16870436;0.09137894;0.0727052;-0.09016386;0.06529803;-0.086279385;-0.17823684;-0.03731364;-0.29120013;-0.19458951;0.06862556;-0.33443192;0.0010643115;0.065037504;0.004355771;0.09629844;0.22650242;0.106025994;0.09498167;0.023216084;0.01665602;-0.0046035186;0.009469134;0.3593665;0.47903058;0.18533628;-0.13606942;0.08130392;-0.27563775;0.07114572;-0.059894927;-0.006132566;0.054398146;-0.04480634;-0.017162059;0.2304314;0.08551829;-0.27157167;-0.0205897;0.08123099;0.028296692;0.2354307;-0.13414879;0.300838;-0.057409268;-0.026208116;0.1733016;0.06105905;0.14122766;0.14453255;-0.06747856;-0.0018338145;0.0011297445;-0.0431473;-0.039176114;0.15161024;-0.06381969;-0.27356598;0.03488878;0.09818561;-0.069639474;-0.15179442;-0.22558878;0.35114935;-0.08845457;-0.0065674363;0.0052465294;0.14116926;-0.0071502803;-0.028230121;0.15742628;0.094481915;0.0352632;-0.106598005;1.6228563e-06;0.17112806;0.15766145;0.00022094391;-0.19861434;0.008394167;-0.034750134;0.23125644;0.33222216;0.18355809;-0.021899786;0.029286698;0.24433127;-0.01761815;-0.08746001;-0.016087279;0.039899856;-0.04330235;0.019518962;0.034372456;-0.056080125;0.2364693;-0.3613827;-0.041894257;0.013609167;0.032837532;0.018350856;0.0077165426;0.04234143;-0.16324599;-0.055812996;0.11137647;0.061124016;0.1420469;-0.047882393;0.14570394;0.3317441;0.029439174;0.02734336;0.15825842;0.05241881;-0.13799651;0.008726306;-0.042410046;0.020727798;0.27624202;-0.28853124;-0.01946538;0.11384305;0.24023311;0.09191765;0.21361712;-0.23543505;-0.15570658;0.19146018;-0.05475959;0.044304185;0.23003767;0.26889342;-0.14286709;0.33769965;-0.360287;-0.017826153;-0.2024475;0.08618974;-0.037240617;0.081252456;-0.1725133;-0.237947;0.031557076;-0.030077737;-0.052981377;0.048498612;0.013332225;-0.03560417;0.011005163;-0.010392407;-0.0006405279;0.022348277;-0.11046514;0.009808531;0.09309214;-0.13404216;0.029152691;-0.022963904;0.6227947;-0.30424726;0.115476295;-0.15950736;-0.21971312;-0.00438604;-0.25693768;0.030441811;-0.30968416;-0.035290267;0.07520822;0.14493608;-0.16360241;0.2539508;0.2243057;0.29510683;0.18157983;0.08441375;0.19352932;0.03765897;0.07816172;-0.3264025;0.21039659;-0.028159576;0.111539476;0.16259445;-0.046978507;-0.05798819;0.04627389;-0.015367039;0.3154632;0.048337273;0.15127839;0.054881345;0.12431682;0.30318445;0.056687485;-0.04183343;-0.066298224;0.012027628;0.18671052;-0.5930878;-0.054173976;0.2552005;-0.04026658;-0.054701574;0.16221404;-0.007155706;-0.012665334;-0.05186879;0.12436204;0.16996768;0.0038027966;0.49720198;0.010194722;-0.015614474;0.4546387;-0.21082653;0.04208897;-0.028181314;0.23352094;0.11785827;-0.016072672;0.3150389;-0.179359;-0.030824708;-0.19530366;-0.044470984;-0.067127764;-0.19697107;0.041470435;0.33013275;0.21515211;-0.14320147;-0.1227693;0.29391545;0.10623708;0.2633694;-0.15800956;0.10422475;0.027342128;0.23930803;0.0035302413;-0.0048501343;0.072085634;-0.113699004;-0.040857542;0.034168012;0.23037304;0.033114497;0.35361892;-0.121272914;0.14317131;-0.032068554;-0.015802344;0.09163467;0.13180064;0.05237905;0.21479495;-0.042775154;0.39961725;0.30941188;0.02919802;0.055618268;0.053175654;0.011293986;0.021711415;0.033287283;0.042047728;-0.26371214;-0.017509405;-0.0061503584;0.3385367;-0.038022265;-0.0119996;0.053759947;-0.03132861;-0.021702508;0.14974847;-0.036417946;0.12100345;-0.024017911;-0.035731368;0.06116221;0.03895587;-0.04100721;0.06501063;-0.004707842;0.1307463
0.21166809;-0.06420532;0.118309855;-0.13000508;-0.061303627;0.06202328;0.15789211;-0.06888234;-0.033294078;-0.20610425;-0.0031523982;-0.03951698;-0.093424916;-0.05769729;-0.08461175;-0.022604616;0.3561342;-0.07436507;0.006349508;0.068859264;-0.052628636;-0.09592189;0.24227132;0.13199566;-0.07802606;0.13870974;-0.062516175;-0.1819757;-0.0495024;-0.035437044;0.011807074;0.19342841;-0.03118486;0.049322803;-0.0665361;-0.0048696445;-0.20011975;-0.032484412;-0.09067799;0.011000371;0.062634274;0.13333407;-0.05361744;0.080883965;-0.18658158;0.11071534;0.25189543;0.55032855;0.1660865;0.07500021;-0.038637225;-0.04597978;0.031866644;-0.3200087;0.17337961;0.03201718;-0.008067429;0.22401923;-0.11437106;0.049496766;-0.3262459;-0.05241789;-0.10217793;0.5977393;0.0811143;-0.04577979;0.007643851;0.25713354;0.09367951;0.057769172;0.01719892;-0.010646011;0.006650429;-0.13490124;0.3167083;0.08612411;0.1439949;0.012500432;0.025566114;0.15087545;-0.110291496;0.061403066;-0.046205826;-0.05321201;0.24987635;0.052130915;0.28890952;-0.044904158;-0.019406509;-0.027069122;-0.002346731;0.33160046;0.01873597;-0.16962874;0.0014219291;-0.1437298;-0.102102;-0.06495941;0.17465065;0.034590445;-0.09294538;-0.022325352;-0.010620321;-0.062072046;0.24366453;-0.3496202;0.037009962;-0.33065635;-0.0072049676;-0.31393525;0.002861101;-0.17505376;0.53234506;0.062975936;0.062381543;-0.0013792352;-0.15343197;0.08126571;0.077212624;0.035993844;0.08131793;0.03387876;0.35581183;0.06152809;0.006337008;0.09977174;0.40040484;0.09628361;-0.08141969;-0.060848124;-0.19468231;0.4181078;-0.060181502;-0.075480245;0.20417872;0.2115269;-0.11671054;0.37396336;0.030619135;0.09064311;0.057156768;0.25445428;0.017204722;0.025659932;0.3839176;0.03982978;-0.21304856;0.07001962;0.014535895;0.08384441;0.0014565957;-0.056673568;-0.22548589;-0.010854411;0.025828987;0.05263513;0.053212926;0.039327264;0.30979103;-0.03708164;-0.34996846;-0.07621909;0.07434774;-0.03265967;0.13207078;0.29084274;-0.15225205;0.17736292;-0.14482719;-0.119854845;-0.27994972;0.08033813;-0.08385;0.23691672;-0.16011308;0.06469848;-0.010282087;-0.34026;0.0055934885;-0.17131646;0.40728238;-0.30281758;0.15424646;-0.0063356627;-0.077208504;0.16578925;-0.028008543;-0.13303772;0.37185758;-0.24365288;0.040423095;0.021143956;0.028288785;0.20642588;-0.040941164;0.0043303072;0.0895102;0.064598806;-0.040467955;-0.049154624;0.14949463;-0.0072879386;-0.09063154;-0.25444192;0.026064519;0.16234964;0.02095827;-0.040732406;0.013462666;-0.04320212;-0.18634985;-0.06907577;-0.085155345;-0.06674711;-0.16587012;-0.014696966;0.28993735;0.050602715;0.03371614;0.29407373;0.0008789657;0.16963865;0.062561296;-0.0829241;-0.14760396;-0.03353544;-0.07395655;-0.019806132;-0.004947662;-0.076858394;0.0031401662;0.062210202;-0.08818212;-0.088082366;0.09243038;0.20413032;0.24010643;0.050634477;0.026869895;0.058040954;0.08453988;0.33539364;-0.05217309;0.015540535;0.030152285;-0.19491197;-0.39074877;-0.0057400656;0.0038197602;0.042533297;0.14800586;0.1860379;-0.038563542;0.02010937;-0.27945775;0.03415014;-0.030279323;-0.30185956;-0.05882892;-0.06783319;0.1002441;-0.07611691;0.1996542;0.005306347;0.05980322;-0.15901035;0.033565585;0.16483691;-0.049664;-0.15749274;-0.06888098;-0.00052559545;-0.059674792;-0.015331549;-0.022652853;-0.10465097;0.11507388;-0.20441444;0.07878529;0.034971163;0.02346612;-0.19758871;-0.03983883;-0.21156126;-0.21922801;-0.0520082;-0.15714177;0.038602546;0.21763691;-0.026327906;0.11667878;0.011154892;-0.05414157;-0.13151355;-0.30627593;-0.011124983;-0.2941785;-0.19990884;-0.061474714;-0.11488252;0.10310841;0.0075782696;-0.06002005;0.13727233;0.3496907;0.03061755;0.015326443;0.04610103;-0.04227693;0.051089715;-0.062003218;0.25239822;0.4453951;0.2590885;-0.07269243;0.09517954;-0.3148737;-0.098646775;-0.04219741;-0.0044195666;0.019822847;0.028337236;-0.030711908;0.15819994;-0.00018128559;-0.25804782;0.033758737;-0.04146118;-0.06930237;0.26864257;-0.00877491;0.3062619;0.044269774;-0.029331584;0.25630924;0.042676345;0.04997312;0.1019648;-0.010663135;-0.036534563;0.009951914;0.0041753766;-0.002950576;0.25492346;0.0064719813;-0.1948953;0.009985217;0.12161931;-0.005500115;-0.06731892;-0.26738164;0.39448667;-0.12550022;-0.06904717;0.109731406;0.07757816;0.014036894;-0.084650174;0.2531188;0.11828005;-0.0029839883;-0.07425697;-0.029090356;0.01830175;0.05782117;-0.06653404;-0.30487752;-0.0127901;0.037377663;0.2100389;0.21852578;0.07129012;0.01958025;-0.07067627;0.19081625;0.011265367;0.026931664;0.124817275;-0.042097006;0.04592094;0.022814414;0.118401825;-0.035032842;0.23569313;-0.23886524;-0.047693968;-0.03927212;0.0067299707;-0.039596576;-0.011982185;0.11752139;-0.16942331;0.01337446;0.014724408;-0.08904245;0.12991916;-0.042836294;-0.011176068;0.3174506;-0.05048861;0.049436644;0.2697007;-0.029782778;-0.10360108;-0.069049485;0.009294197;0.05584462;0.31657305;-0.12700206;-0.18595806;0.118704274;0.3464124;-0.0002869902;0.1321984;-0.24559408;-0.06409054;0.21040131;-0.17492385;0.022540752;0.22932476;0.15678355;0.053689335;0.36717096;-0.35290864;0.0011650462;-0.14978358;0.11469403;0.052118976;0.114711896;-0.21846832;-0.28336585;0.040140644;-0.041437242;-0.071814656;0.0050591417;0.023053404;-0.010041288;0.044625655;-0.0007419033;0.008860035;0.04257589;-0.17041352;-0.07047502;0.11891145;-0.06848609;-0.04217771;-0.07438075;0.47768402;-0.24385123;0.13506393;-0.21209002;-0.27230594;0.0795321;-0.19966199;0.18364877;-0.113569126;0.019339029;0.01807033;0.079959884;-0.08611146;0.27639908;0.16760468;0.24000576;0.16152336;-0.033014912;0.2646956;0.029397834;-0.020670706;-0.3922189;0.12867537;-0.08876933;0.28827882;0.22042887;0.052748766;0.005557454;-0.071834326;0.0046526548;0.2925505;0.05690158;0.24757081;-0.0065314975;0.105436094;0.24734117;0.0065842657;0.011373849;-0.0019072173;-0.15098415;0.27197272;-0.5871748;-0.023365958;0.3110751;0.022480614;0.013702778;0.113375224;0.023237811;-0.011473159;-0.032279227;0.17010579;0.1721169;0.03778223;0.38772237;0.031747494;-0.0102882255;0.49633405;-0.23091647;-0.08301057;0.051431365;0.035939146;0.19703452;-0.021509955;0.4282021;-0.17053963;0.0012582104;-0.15604535;0.044199597;0.001376889;-0.25907016;-0.014536066;0.19416076;0.28181615;-0.2203857;0.024561077;0.3406854;0.15062065;0.19871366;0.011306501;0.05540215;-0.05557056;0.18671803;0.0611219;0.04596169;-0.0328263;-0.13218634;-0.1623725;0.010495101;0.28526947;0.044466596;0.24380958;-0.03377276;0.24150541;-0.029218405;0.07867661;0.055479053;0.29219562;0.041669212;0.29859218;-0.00046272686;0.40427163;0.30877665;-0.058238685;-0.03386632;0.056979474;0.028752374;0.0038829425;-0.00041814547;0.0014625232;-0.22650042;-0.103032075;0.014829578;0.34372404;0.038048577;0.040963065;-0.04624313;-0.06885734;0.018996652;-0.05391711;-0.004192915;0.036314428;-0.07462322;-0.02922487;-0.010953484;0.0036375122;0.062077228;-0.076894835;-0.056379754;0.18127029
0.33070534;-0.08082283;0.14428711;-0.05908547;-0.091298185;0.00038237715;0.13796143;-0.010065108;0.026269984;-0.17639361;-0.020163145;-0.011665283;-0.21190993;-0.008525487;-0.093772285;0.012670577;0.5034621;-0.089834176;0.13195936;0.0313835;0.046329666;-0.24040273;0.24217768;0.18306787;0.048387386;0.17445882;-0.13104485;-0.22140089;0.08126979;0.09378395;0.10049896;0.15911978;0.012037394;-0.039049238;-0.066409856;-0.047528315;-0.19041106;0.0814599;-0.18193279;-0.045983624;0.052420285;0.0034422637;-0.025652813;0.1600225;-0.19491774;0.1445063;0.23717079;0.6131499;0.08544931;0.005640597;0.008154297;-0.10847696;-0.09442271;-0.35024813;0.14025123;0.019215709;0.052610278;0.38815847;-0.026544817;0.084377244;-0.28656924;0.058399156;0.03706526;0.5023541;0.083914;-0.0011091196;0.034356732;0.22403398;0.10682414;0.034625225;-0.0025470194;-0.01758552;0.07657709;-0.11242305;0.20688537;-0.0048916563;0.07507012;-0.027736586;0.019920433;0.07760613;-0.14296141;0.06605666;0.06651729;0.04944729;0.27377492;0.018511478;0.2828161;0.013343277;-0.05734597;-0.016456261;-0.083790086;0.26081878;0.056503963;-0.17120773;-0.0016097656;-0.060783997;-0.05084813;-0.03142962;0.22414415;0.028577436;-0.12665486;0.07450696;-0.01680931;0.07602948;0.25950292;-0.22466378;0.00340902;-0.14329904;0.017274952;-0.19465603;-0.034498297;-0.1570534;0.41670945;-0.078759134;0.239887;-0.092319414;-0.20778358;0.15744792;0.04556183;0.041042436;-0.0535446;0.07034563;0.46657786;0.013405153;-0.083642974;0.07292496;0.39226076;0.11634759;-0.17152488;0.024209635;-0.16207446;0.45903683;-0.08243329;0.022907348;0.22342028;0.28328374;-0.07862564;0.3618812;0.040290054;0.019649226;0.036636055;0.31511128;0.008052488;0.024256302;0.32505438;0.0080575915;-0.23471326;0.11618477;0.010578609;0.009418127;0.013544774;-0.044757523;0.014048298;0.015335831;0.05187064;0.03582739;0.11000629;0.0013506709;0.2251827;-0.061066173;-0.3104728;0.07344436;-0.031666856;0.04836326;0.106565796;0.20012178;-0.09904601;0.10186669;-0.17752306;-0.17318754;-0.11844687;0.049905293;0.012346151;0.24602313;-0.06540654;0.1531462;0.0402789;-0.32442892;0.0221355;-0.11969163;0.25399214;-0.35997063;0.21870355;-0.12927115;-0.07261674;0.13425258;0.008514129;-0.036464162;0.35299376;-0.0118199615;0.03694072;0.013341582;0.102617905;0.33261597;-0.01044659;-0.007761874;0.030111736;-0.03684019;0.034824654;0.08456777;0.12123866;0.056094673;-0.036975395;-0.13853475;0.14828272;0.13461486;0.025556704;0.048243914;0.07995959;-0.060700387;-0.33498383;0.044078257;-0.059721157;-0.056095164;-0.12496734;0.07186499;0.31863713;0.027430335;-0.093392536;0.29568288;0.059086632;0.14247163;0.05181622;0.053255152;-0.16364178;0.02344153;-0.007569906;-0.0059395595;-0.004018055;0.06265897;0.015302643;0.017862046;-0.18087786;-0.05974386;0.08558629;0.26757815;0.35429072;0.0794081;0.017237749;0.14232752;-0.04471232;0.3895191;-0.029508753;0.037780095;0.051538777;-0.2897273;-0.41094738;-0.010631525;-0.02494327;-0.01778729;0.08571611;0.123118244;-0.027185982;-0.01469785;-0.15835725;0.10156284;0.0036555487;-0.35820764;0.06483309;-0.2565802;0.24326852;-0.0391066;0.2165929;0.017632065;0.021198295;-0.08154558;0.06666069;0.20589326;0.061310843;-0.16163468;0.05060484;0.054979514;0.06870165;-0.0062086126;-0.033165954;-0.22986485;0.05285491;-0.21774472;-0.03471361;-0.019291954;0.020575983;-0.2800551;-0.017605672;-0.31557938;-0.18033211;-0.08967273;-0.15444806;0.14062142;0.23296648;-0.070454404;0.08420835;-0.06894694;0.08600814;0.0059290975;-0.3668803;-0.01605631;-0.23384069;-0.23532265;-0.01535992;-0.05965748;0.037656035;-0.04020324;0.021353342;-0.0037052862;0.28698528;0.021459451;0.05656953;-0.012144178;-0.042439844;-0.061170787;0.084559664;0.2740206;0.27293476;0.34186354;-0.1142738;0.16381775;-0.24473439;-0.054605782;0.010107379;-0.03991947;0.036844395;-0.0009276103;-0.0027466698;0.18994436;-0.052486416;-0.26948175;0.027925046;-0.04082015;0.05101415;0.1821304;0.054623928;0.19562858;-0.03259028;0.033379987;0.19371916;-0.0090725515;0.22277255;0.09333057;-0.049921095;-0.06828475;0.030864943;0.005725596;-0.02856103;0.1939337;-0.0114067225;-0.17220964;-0.010402991;0.04013791;0.12599552;-0.13864492;-0.31964076;0.39060795;-0.15567856;0.024484295;0.17472924;-0.051269647;0.049354248;-0.03794414;0.24226628;0.036202233;-0.05507315;-0.16024795;-0.064981274;0.07291203;0.14145663;-0.14273326;-0.3278515;0.06410026;-0.047658183;0.025889786;0.21244417;0.018310172;0.04283494;-0.017237;0.1440743;0.061891194;-0.073513605;-0.009697494;-0.026713626;-0.005373522;-0.014124475;0.01030024;0.00043077333;0.14243372;-0.19303142;0.087308556;-0.02548958;0.15856653;-0.054700896;0.02370634;0.031499512;-0.19969477;-0.014640672;0.045625668;-0.0409451;0.121844806;-0.025634635;-0.101429224;0.3695715;-0.09209756;-0.044268206;0.30012986;-0.0573244;-0.06129894;0.026095277;-0.09108691;-0.066609964;0.37280947;0.010789074;-0.13281806;-0.03540658;0.29271436;0.12593956;0.1664389;-0.17856114;-0.009484346;0.22528623;-0.15689677;-0.0011128648;0.3037615;0.20458974;0.03683939;0.22416548;-0.355453;-0.059888463;-0.21226056;0.046030313;-0.04616346;0.09397093;-0.122097865;-0.2234907;0.1274779;-0.026191281;0.0028859195;-0.053308375;0.005185222;0.043579005;0.05993421;0.09878876;0.04958887;0.23999168;-0.23385529;-0.04212209;0.08478381;-0.1355248;-0.060723245;-0.0102315685;0.46529907;-0.33335415;-0.076970145;-0.1458204;-0.31563604;-0.037791315;-0.09343664;0.14397576;-0.11311488;0.043664455;-0.045552436;0.110281006;-0.082509324;0.2664682;0.15198046;0.23388143;0.19352967;-0.00984522;0.3209486;0.030716084;-0.0605393;-0.34009025;0.12285237;-0.04144651;0.25679946;0.17586076;0.047435887;-0.008035317;0.05346557;-0.0604234;0.29841274;0.011878965;0.11388134;-0.031680405;0.14161865;0.32245654;-0.027528608;-0.010120612;-0.051560234;-0.12634084;0.3135502;-0.47823346;-0.026889248;0.2559506;0.09694327;-0.024738595;0.20618951;0.050640322;-0.050564833;0.07681519;0.18198808;0.10262381;-0.03635877;0.4154194;0.06868219;-0.03594809;0.4654585;-0.29103014;0.03925636;0.006928971;0.12809953;0.062966324;0.054484338;0.25937533;-0.08298383;0.042222135;-0.013779707;-0.05769098;0.02134515;-0.16471174;-0.011122631;0.22435479;0.3385135;-0.14616202;-0.0632509;0.26463625;0.102278724;0.17625807;0.074840926;0.10176178;0.04163767;-0.046584237;0.006892344;-0.039856005;-0.0109486;-0.10437003;-0.034809418;-0.00813274;0.27377698;-0.0070935832;0.25221777;0.07214259;0.26286903;0.0075669936;0.087618284;0.058929935;0.19767816;-0.019065443;0.2548719;0.061720602;0.33473152;0.30872402;0.12753923;-0.06769888;0.062830135;-0.0063295527;0.062186517;0.03748552;-0.0025645273;-0.28759882;-0.062024064;0.1100406;0.35624284;-0.07343108;0.024406517;0.05287056;-0.015414594;0.041832022;-0.086153835;0.092506446;0.076582015;-0.025453936;-0.03873435;0.024261713;0.026691832;-0.049331736;-0.0021031066;0.028410925;0.16608413
0.2943035;-0.055030607;0.26550114;0.004327058;-0.016004037;-0.03534712;0.106845714;0.02079407;0.109966315;-0.27183065;-0.009883046;0.042686086;-0.14171052;0.00847752;-0.13689254;0.00011439532;0.4803178;-0.10024768;0.09651026;0.11153546;0.0036427232;-0.098074906;0.118547596;0.011432769;-0.026135886;0.088312395;-0.02902022;-0.064285696;0.045505255;0.0018871599;0.095684804;0.23401113;0.023753706;-0.042692225;0.0719884;0.027933668;-0.1915756;-0.047341675;-0.11343057;-0.018624913;0.07537667;0.09179454;-0.022796152;0.04195164;-0.20044063;0.19614045;0.18734552;0.45489237;0.05892119;0.08785768;0.047734436;-0.08518393;0.031537246;-0.38078168;0.13438377;-0.039081953;-0.0446894;0.27084845;0.014224681;0.034176193;-0.22031343;-0.026664922;0.016942328;0.48309338;0.024970422;0.039243087;0.029912338;0.25147352;0.035035457;0.03607354;0.082945175;0.015996277;0.11411598;-0.14993976;0.19272995;-0.061900593;0.17712179;-0.13609219;0.013070063;0.05985313;-0.16542935;0.03357462;0.013775191;0.005108308;0.3118553;-0.062489577;0.34898734;0.0107142795;-0.047220517;-0.0008306078;-0.04849772;0.302642;-0.0678682;-0.24067333;0.03688517;0.03405325;0.0047465465;-0.10492586;0.27716735;0.11415848;0.026126673;-0.009613074;-0.07998513;-0.00041530502;0.19884762;-0.21895331;0.060156297;-0.1630608;0.019370828;-0.30800566;-0.0038165117;-0.20757975;0.42189184;-0.024822406;0.16518764;-0.092168234;-0.10742631;0.13182256;0.07649385;0.05128868;0.0042850547;0.021009872;0.3633215;-0.077542506;-0.0055632717;0.046369933;0.41971883;0.09748232;-0.10820293;0.0640715;-0.16160236;0.425846;-0.21649484;-0.030398803;0.30037296;0.22264749;-0.06315697;0.38039544;0.03511157;0.060222883;-0.045667447;0.277329;-0.08465768;0.10372293;0.3407019;-0.020780006;-0.33643538;0.19804733;0.07607817;-0.04621413;0.03244761;-0.015319733;0.0862055;-0.03772828;0.08275825;-0.06339646;0.09421563;-0.039856464;0.3598704;0.06780274;-0.36946598;-0.002578757;-0.053350635;-0.005283918;0.08635924;0.20855813;-0.22552356;0.17173108;-0.11346107;-0.2607734;-0.1520205;0.062801965;0.07669334;0.23315737;-0.023261027;0.12486383;0.023449048;-0.36418617;-0.023081316;-0.1492828;0.29643148;-0.3977837;0.07802672;-0.00248616;0.008517074;0.16277568;-0.0015367063;-0.047678497;0.32369232;0.094235994;-0.084467664;0.013674101;0.18156542;0.21859622;-0.020099718;0.11165682;0.08134825;0.071079984;0.001388049;-0.07426258;0.1714999;-0.016495498;0.040651653;-0.22591245;0.1056839;0.20710915;-0.066737466;-0.07077125;0.10694624;-0.16615091;-0.20219159;0.0004292712;-0.08810849;0.05530102;-0.088113606;0.00441325;0.29234925;-0.056546845;-0.041286144;0.21530381;0.08191382;0.19423696;-0.009504492;0.019943234;-0.14023495;0.039151736;-0.019994406;0.05665641;-0.023231037;0.09374066;0.0075451713;0.005933546;-0.12289687;-0.07099495;0.09282393;0.11423345;0.26558554;0.076188944;-0.027132105;-0.0120721795;-0.08844835;0.31538835;0.08005177;0.051029526;0.15187575;-0.29712856;-0.28846177;-0.015997892;-0.0722839;-0.019502306;-0.049387954;0.08587214;0.15053663;-0.031747334;-0.24021834;0.11959122;0.052346874;-0.2259753;0.00075409614;-0.20657997;0.18503955;-0.049935956;0.28776258;-0.042413246;-0.062440075;0.007722301;0.06639337;0.1813314;-0.01595676;-0.0801553;0.00763315;-0.0023066022;-0.01235977;-0.026133211;0.06611772;-0.19990852;0.14640015;-0.15062277;-0.039520614;0.00958003;0.054882824;-0.30255315;0.070402354;-0.35869732;-0.1589911;0.020161081;-0.2188918;0.04543911;0.20369634;-0.045414034;0.08487708;0.015705477;-0.018516032;0.08602283;-0.37569937;-0.009794175;-0.27010506;-0.23570426;-0.053937607;-0.123072;-0.0060047;-0.19215915;-0.046846773;-0.061168253;0.13898775;0.081654385;0.017213708;-0.07227126;-0.07334954;0.016969876;0.037496544;0.2309365;0.34729838;0.32616937;-0.1978954;0.13517648;-0.23585247;-0.021098126;0.007908536;-0.017545754;0.026453746;0.027166503;-0.013430526;0.15957741;0.0038547444;-0.15991977;0.06803677;0.056854744;0.016111515;0.17348333;-0.0633933;0.21646741;0.046879113;-0.016665947;0.21606652;-0.05871125;0.08397824;0.21206692;-0.02495627;-0.017897082;0.013569203;-0.02706506;-0.016276037;0.18726712;-0.029663814;-0.2837911;-0.04066107;-0.06423044;0.11868572;-0.016931716;-0.3576985;0.29768056;-0.027067626;0.07420814;0.07182564;-0.0058676545;0.08343149;0.05673548;0.16092785;0.073995344;0.035792362;-0.103794634;0.024406468;-0.025401028;0.11405815;-0.18343568;-0.41172278;-0.084383145;0.011832584;0.07348377;0.23063357;0.14219098;-0.02898751;-0.12390115;0.17209241;-0.052159432;-0.043823566;0.11258072;-0.032118466;0.053131144;0.038521115;0.054046642;0.008023618;0.13687666;-0.18562861;-0.018869206;-0.04170312;0.03596458;-0.059270207;-0.120705955;0.09699777;-0.074663326;0.055976983;0.060593642;-0.0047574914;0.032068174;-0.024901833;-0.11387124;0.25723276;-0.03149138;0.07855332;0.22797413;0.02315677;-0.08871023;-0.06382855;-0.05424108;-0.02783853;0.2680549;0.09606967;-0.0699407;-0.004488059;0.09070427;0.13515355;0.3217622;-0.24754074;-0.037672542;0.3224106;-0.15549691;-0.02226827;0.3765508;0.019787647;0.05293585;0.33635977;-0.302091;0.04340071;-0.020931147;0.04711821;0.09329443;0.04101289;-0.123070695;-0.2540723;-0.015531625;-0.032880466;0.027553167;0.03133307;-0.07003005;-0.020846514;-0.026622217;0.003799617;-0.015885726;0.2362486;-0.24825543;-0.10557916;0.26973242;-0.056005377;0.03283645;0.067679346;0.4565806;-0.2377411;-0.12666221;-0.1237052;-0.34122798;-0.11443363;-0.06517396;0.23155093;-0.14414054;-0.00806846;-0.08259073;0.15987252;0.106347926;0.24059482;0.12666315;0.14747316;0.14846584;-0.04161258;0.21369687;0.027597653;0.04054483;-0.33760974;0.05006283;-0.048264004;0.27274334;0.08988025;0.010581069;0.060644627;-0.013664585;-0.018157491;0.18399438;-0.06081801;0.20978892;0.03960813;0.11009199;0.23215249;-0.034894627;-0.033623993;-0.0753009;-0.14014757;0.2989841;-0.4383438;-0.0036922907;0.1966882;0.05077637;0.072833896;0.17202124;-0.020404669;-0.019818237;-0.0014106868;0.17850922;0.17144915;-0.047012214;0.4376721;0.12295147;-0.009575274;0.45875305;-0.29812142;0.018259648;0.01020994;0.104152426;0.04859847;0.028348245;0.3330912;-0.0567029;0.0032286781;-0.122821644;0.0056497403;0.011795642;-0.25201035;0.03616266;0.102924846;0.29832596;-0.23630482;-0.02434832;0.16543889;0.11007678;0.2420539;0.026134945;0.13950829;0.021421343;-0.025930727;-0.055845533;-0.013711097;-0.0761221;-0.08071912;-0.028626513;-0.039990902;0.3206683;0.003365625;0.19778602;-0.011782714;0.1877034;-0.012708344;0.12997024;0.1937505;0.15686506;-0.052913196;0.2103103;-0.06890023;0.467581;0.23695785;0.00039665747;-0.022527134;0.09401801;0.028957633;0.002082445;0.037563954;-0.04186051;-0.1866155;-0.021093665;0.039585132;0.2569727;0.04902563;-0.06380708;-0.0035753546;-0.06828652;-0.05708591;-0.014872521;0.10549365;0.09629071;-0.05691783;-0.019391436;0.008072433;0.03075059;-0.04712766;0.0050224545;0.06914012;0.08344049
0.2326171;0.11831016;0.22274327;-0.10518159;0.03188808;0.018235318;0.14832452;0.037648607;0.13376702;-0.2109832;-0.010954591;-0.039570514;-0.04054305;-0.117176026;-0.04753224;0.023888486;0.33492082;-0.16412467;0.036087662;0.051098943;-0.026539333;-0.28361124;0.20293246;0.18849647;-0.033207774;0.19598478;-0.08300086;0.02513885;0.1490915;0.082461804;0.04577098;0.071988665;-0.051691826;-0.0016367815;-0.07304746;0.08670455;-0.22376584;-0.030953677;0.029088259;-0.08022064;0.112617016;0.07610578;0.009620424;0.044254404;-0.052635025;0.23624447;0.14694956;0.5403488;-0.051806696;0.096590295;0.05719035;-0.05937799;0.005506994;-0.34947175;0.07993368;-0.012318516;-0.041238036;0.31744578;-0.03065782;0.0696353;-0.3747989;0.014743571;0.03995604;0.6159387;0.05227178;0.032130115;0.0010521497;0.18108493;-0.0036506853;-0.04089229;0.12573133;0.06624325;0.029350396;-0.012892657;0.35519594;0.0046826326;0.13513908;-0.17294873;0.014820481;0.07102008;-0.043987464;0.024058303;0.021987364;0.06602423;0.26286384;0.011741852;0.31120053;-0.0022425677;0.012481493;0.048547927;0.05344425;0.26290098;0.010346788;-0.17774719;-0.02338075;0.034776427;0.019918075;-0.047546964;0.15273145;0.1433278;-0.06141099;-0.06208508;0.06352625;-0.05404688;0.20600046;-0.13538721;-0.065829694;-0.028876493;0.07505582;-0.20029017;-0.024118172;-0.1412991;0.43777362;0.014387301;0.34828857;0.0037519769;-0.088275455;0.08283779;0.08388118;-0.074390434;-0.057931922;0.12772469;0.46535704;0.0013640408;-0.009654602;-0.11595374;0.40704378;0.13242017;-0.12914419;0.068082996;-0.19057398;0.4932804;-0.23203489;0.051044617;0.31524652;0.31316397;-0.14435497;0.44868085;0.023434518;0.13365267;-0.030696131;0.18872355;0.04870027;0.038913775;0.34330273;0.058265224;-0.22552033;0.20958206;-0.044892926;-0.0005141313;-0.084531225;-0.067765065;0.07892178;0.05556022;0.07310284;0.060676884;0.1907001;0.08241349;0.36849234;0.046828512;-0.20352553;-0.0066890656;0.06045616;0.0747123;0.056740586;0.33408648;-0.24333006;0.10837199;-0.13620971;-0.2080932;0.06411452;-0.02605334;-0.062793605;0.16220705;0.026847767;0.21128657;0.029523214;-0.3196569;-0.09183366;-0.1246947;0.14261936;-0.29557237;0.02371122;-0.03176679;0.09209728;0.11081594;-0.042040218;-0.028299369;0.22728327;0.16908225;0.07194717;0.052975122;0.1003706;0.30263808;0.040718175;0.020612959;0.12600552;0.014739028;0.008540505;0.06674645;0.08008499;-0.0029484823;-0.05323785;-0.083972335;0.20867845;0.33237058;-0.03546758;0.08094646;0.16582249;-0.11139336;-0.34373623;-0.05987655;-0.074984185;0.012193145;-0.07968206;-0.031195873;0.12175266;0.03331024;-0.06274517;0.35779366;0.08530537;0.16507241;-0.03750227;0.033878468;-0.22856447;0.005344198;0.027802354;0.016882917;0.053637013;0.11899412;-0.008456379;0.037932128;-0.19225119;-0.02396596;0.061576135;0.017322073;0.15872385;-0.094877005;0.018757144;-0.02915844;-0.03607976;0.30219024;-0.022311924;0.008776977;0.21868911;-0.29969484;-0.23770414;0.045162197;0.0018825935;0.021457935;-0.027941195;0.001531832;0.12474778;0.07693866;-0.0066950135;0.116878614;0.03331328;-0.22952656;0.022756696;-0.26326212;0.19110563;-0.033153445;0.20286798;-0.039835405;0.06314979;-0.1429886;-0.115716204;0.14282738;0.014980457;-0.14792685;0.06649202;-0.017961524;-0.045555685;-0.21246739;0.0041668974;-0.19268404;0.16215909;-0.2071833;0.031839926;-0.029467007;0.0514132;-0.2425605;0.05833844;-0.15913112;-0.1383532;0.04102243;-0.1686441;0.18432087;0.34344655;-0.13842346;0.030621367;0.008231689;0.0065140976;0.058306474;-0.5162198;0.058962844;-0.13775581;-0.1613592;0.02108137;-0.14327264;0.041676138;-0.19085579;-0.0056354417;-0.084940605;0.122913055;0.17073938;-0.0351627;-0.024454419;0.067539014;0.059377164;0.06724701;0.2807895;0.37016633;0.2696046;-0.1246396;0.16107267;-0.24125436;0.048339933;0.038071606;0.07976044;-0.060839597;-0.049267385;-0.03134521;0.3025429;-0.029547902;-0.083583266;-0.023876602;0.035975922;-0.04434655;0.21505782;0.025807692;0.15978521;-0.022973767;0.09746322;0.18308;0.07260781;0.16070653;0.083376355;0.04827116;0.10655956;0.004725717;0.083785795;0.03922335;0.1395556;-0.05956622;-0.20683421;0.04563382;0.01157896;0.020310594;0.0008416927;-0.21859469;0.22497767;-0.15203759;0.033760156;0.17093329;-0.114934295;-0.055635303;-0.04906078;0.17049879;0.112040706;-0.00433434;-0.1839478;0.06057534;-0.07781158;0.003228507;-0.20710349;-0.3264729;0.059999615;-0.020344054;0.049201228;0.31451178;-0.009138632;-0.014487585;0.09048098;0.06310279;0.08551794;0.045576803;0.13373025;-0.039956037;-0.0068611437;-0.05735475;0.1190645;-0.038949948;0.048352286;-0.022348648;-0.014169435;0.016429989;0.14648417;0.09029934;-0.16125675;0.15986437;-0.19435218;0.039771732;0.012465994;0.045720167;0.05788154;-0.026693368;-0.19545716;0.14000003;0.0037935192;-0.053861346;0.28255984;-0.009258229;-0.0475112;0.019591056;0.037542704;0.008752234;0.34053034;0.13888602;-0.17237093;-0.03948421;0.021432111;0.021077847;0.2390895;-0.079781346;0.06707169;0.17487712;-0.1035575;0.040529087;0.3779585;0.061876662;-0.078914896;0.23441465;-0.37156066;0.036939938;-0.08965031;0.09249237;-0.030595561;0.1056474;-0.2569341;-0.25674513;0.14032155;-0.10458821;-0.05094239;-0.022710854;-0.024629641;-0.07389921;-0.02586665;0.0439005;-0.063116916;0.348318;-0.24007685;-0.07614159;0.16085123;-0.18416299;0.041332148;-0.038268205;0.3172605;-0.22823031;-0.11020335;-0.26194322;-0.28643847;-0.015519979;-0.12506399;0.15403992;-0.08158953;-0.056111064;-0.2374008;0.2683675;0.015933733;0.21395099;-0.050269585;0.29123297;0.15733978;-0.040479645;0.3519775;0.016282992;-0.060949378;-0.3291376;-0.023055982;-0.079955116;0.23186593;0.07683052;-0.06065617;0.081533246;0.007963778;0.017369697;0.34273565;-0.026121726;0.29624936;-0.020669764;0.21118727;-0.052766636;-0.042679727;-0.050753735;-0.10205225;-0.12850755;0.22729057;-0.28063852;-0.13394515;0.29848;0.13156185;0.045986727;0.11473418;-0.19415602;0.013136654;-0.048292372;0.095197834;0.11485086;0.08986074;0.32760546;0.17724587;0.016912438;0.47742927;-0.30676776;-0.10811216;0.032096792;0.05353067;0.116771705;-0.042239346;0.2472802;-0.09511522;-0.0716016;-0.07462271;0.017764991;0.01776489;-0.14582917;-0.03272364;0.009477538;0.2182768;-0.22762656;0.042919658;0.22460625;0.10061392;0.13310744;0.04316597;-0.06447055;-0.04908443;-0.03440419;0.004070492;0.01334779;0.06245676;0.056254797;-0.037288085;0.07140585;0.19244707;-0.044797517;0.24799432;0.063230015;0.18671584;-0.065046854;0.1286986;0.21665809;0.15734553;-0.04204095;0.4025586;-0.049947437;0.40662754;0.19958574;0.028487965;0.053579327;0.015194748;0.023998989;-0.059386894;-0.08610128;0.0662036;-0.16169703;0.20102052;0.19392538;0.22468898;0.018566787;0.002013871;0.0065543726;-0.005562253;-0.037152708;-0.010361347;0.019402709;0.102827094;0.046731833;-0.00782364;-0.05336168;0.0125987055;0.02862308;0.019055983;-0.05257284;0.12446521
0.19484167;0.12760633;0.19552922;-0.0015301115;0.022513116;-0.0047844653;0.11551339;-0.036192294;0.010307965;-0.12924197;-0.06739847;0.048397835;-0.05575273;-0.15534548;-0.0036413525;0.12645063;0.41298366;-0.22781225;0.054144103;0.05598281;0.013606304;-0.13803603;0.17721424;0.20092188;0.06656568;0.16602826;-0.10801356;0.096587114;0.14857168;-0.026700087;-0.05017897;0.07728151;0.0255739;0.029819613;-0.00023244815;-0.00725962;-0.3006316;0.006440735;0.07456376;0.035173796;0.13591279;0.018613653;-0.028191034;-0.05830384;-0.0015792242;0.17120658;0.256662;0.6037564;0.027643673;-0.038356096;-0.05969642;-0.035204984;0.10248228;-0.36450517;-0.016875487;-0.056658316;-0.03511743;0.3503891;-0.042690393;0.05433795;-0.3956022;-0.00860837;0.05079908;0.5195774;-0.06866914;-0.02228581;-0.052086323;0.2939178;0.05317904;-0.068099275;0.0954291;-0.030225722;-0.015629727;-0.19414146;0.2960282;0.072751336;0.19051298;-0.17055374;0.058759794;-0.055506084;-0.03352333;0.046906333;-0.054251842;-0.016142044;0.19093175;-0.056080412;0.2120207;0.060164;0.10156429;0.03991312;-0.0018244135;0.20618829;-0.06350961;-0.21884209;-0.0118987365;0.109723285;0.03912588;0.042631865;0.30149168;0.14836039;-0.056887385;-0.040314436;-0.06396497;0.033286385;0.23847458;-0.16179673;-0.0060813874;-0.1437833;-0.03561076;-0.08891811;-0.0035366078;0.022292888;0.38419405;-0.01109501;0.30253896;0.033411596;-0.123070806;0.036413677;-0.0042532757;0.035989348;0.08679535;0.034981444;0.48380163;0.005514498;0.06463442;-0.2206367;0.49716175;-0.0071924757;-0.12200866;-0.09375871;-0.15790509;0.5600069;-0.22056967;0.046065;0.29572922;0.32031006;-0.052207425;0.26419917;0.097656354;0.09342569;-0.09381983;0.1982773;-0.11735338;0.21070755;0.37043065;0.045462046;-0.123251185;0.24297433;-0.07644713;0.041111305;0.0032503067;-0.050263207;0.11599378;0.082000844;0.04904348;-0.080822416;0.1929565;0.07598528;0.3287016;0.023546398;-0.21243957;-0.047273327;0.0739112;-0.021785133;0.06315162;0.2301304;-0.13923527;0.23026307;0.03312851;-0.22103885;-0.043758456;-0.030455105;0.080804415;0.14894164;-0.052949082;0.29316694;-0.03727869;-0.39326966;0.017438136;-0.010623942;0.24748206;-0.311006;0.018021595;0.024000484;-0.004143024;0.24653222;-0.024241162;0.010004637;0.065244555;0.26266503;-0.011781823;-0.049273897;0.09081857;0.36914527;-0.052131187;0.024393206;0.035713673;-0.048496354;0.019922625;-0.054414514;0.011725644;-0.025503729;0.038221925;-0.003765226;0.23842359;0.2177926;0.04057044;-0.013517185;0.09765693;0.0284852;-0.333979;-0.057885576;-0.15880787;-0.063330874;-0.09210744;-0.07441219;0.13551041;0.030515818;0.041687373;0.3030166;0.10215812;0.22617088;0.014359739;-0.03148798;-0.23235816;0.057402838;0.08831563;-0.057502702;-0.04632318;0.15324353;-0.03337636;-0.064616136;-0.115151264;-0.10079722;0.14406061;-0.077532165;0.16265206;0.04505143;0.051696554;-0.025795354;-0.04474523;0.34505433;0.029457754;-0.059328396;0.27965492;-0.28051555;-0.16356933;0.019725965;-0.0041129556;0.055617593;-0.10787962;0.08493454;0.037407003;0.046722;-0.10752234;0.15956332;-0.020651441;-0.1909444;-0.040875733;-0.19272675;0.2824648;-0.13047944;0.14806773;-0.02366112;0.0038113347;-0.061949518;-0.03706778;0.14065789;-0.00011792821;-0.09498424;-0.025833825;0.009133013;0.033344157;-0.266265;0.020264743;-0.10190271;0.21096227;-0.123715036;0.04714666;0.02269649;-0.014298901;-0.23326088;0.10923209;-0.24697219;-0.16279955;0.04813699;-0.21670358;0.037807126;0.21692546;-0.074119695;0.068841435;-0.016656753;0.0034165136;-0.01489755;-0.45257902;0.05336253;-0.11998746;-0.14664438;0.06912354;-0.047162056;0.008590987;-0.24723761;0.05977123;-0.0087780915;-0.010075062;0.09576779;-0.04296806;0.05833382;0.024625855;-0.037613418;0.17825456;0.23972629;0.2850482;0.28051057;-0.19544816;0.060055774;-0.17458741;-0.114756666;0.062417697;0.03238233;0.008449528;0.0366269;-0.040445127;0.16831565;0.010727963;-0.007661962;-0.022486707;-0.06235891;-0.0113331955;0.106008105;0.045445014;0.16097595;-0.015593448;0.15012814;0.21196403;-0.04791022;0.061062712;0.16592826;0.041030336;0.09494552;-0.05412267;-0.03293992;0.036243998;0.1307472;-0.054616936;-0.094566435;-0.019783463;-0.07860935;0.12448442;0.06382032;-0.18940602;0.24822488;-0.1614029;0.15384243;0.016442474;-0.026487237;-0.059272192;-0.07992476;0.19956629;0.07627764;-0.022906331;-0.035796933;0.013582013;-0.020707697;0.042559296;-0.32904813;-0.24159724;-0.031468924;-0.008175274;-0.0330557;0.18731898;-0.011844132;0.01938472;0.12788282;0.0024479066;0.110162705;0.043577254;0.17899773;-0.020050941;-0.017919159;-0.013998419;-0.06322416;-0.02897529;0.05520085;0.06587212;0.017255032;0.0484709;0.106231295;0.066428035;-0.16891499;0.26137838;-0.20831358;-0.057054233;0.009860711;-0.06794193;0.0031382882;0.09770718;-0.035589665;0.07899223;-0.04412241;0.01425192;0.24606343;0.03139376;-0.13653465;0.0789706;0.11886656;0.017524397;0.36945614;0.11128412;-0.022535283;0.062416717;0.013367313;0.037238553;0.18469888;-0.16641511;0.054410413;0.21940131;-0.1961151;0.040084094;0.22891505;-0.06137557;0.009239203;0.122345604;-0.2570987;0.005058288;0.12300707;0.04306556;-0.022785353;-0.009112328;-0.23795837;-0.12330438;0.041052006;-0.16390103;0.07269859;-0.02696418;0.13215648;0.007530854;0.027062092;0.0038756859;0.049279917;0.39943713;-0.11509595;-0.07335268;0.15083234;-0.060901552;-0.00837903;-0.03381782;0.25030366;-0.24748123;-0.2353391;-0.27492374;-0.30403814;-0.10605882;0.06169079;0.25514856;-0.14841929;9.120888e-05;-0.08566191;0.29374874;0.10937864;0.18321949;0.00975298;0.26845273;0.10248313;-0.026222581;0.32977924;-0.038330577;0.050084803;-0.3576335;-0.030568155;-0.0792812;0.23772804;0.10161946;0.0013789474;-0.05358314;0.010808397;0.008927546;0.31737995;0.048364654;0.31257278;-0.11855781;0.22762978;0.04877304;0.074877046;0.0012989148;-0.03727984;-0.0989153;0.17066538;-0.27499172;-0.11471512;0.26113948;0.14482684;0.021857604;0.07639244;-0.053387742;0.023434414;0.0066535166;0.013698481;0.2073758;-0.044127844;0.29369187;0.11045186;0.061624374;0.4296786;-0.45089164;-0.16179493;-0.0058994642;-0.023862634;0.09871398;0.09112404;0.25976053;0.10825435;-0.040272247;0.02717568;0.064733505;-0.051656414;-0.14681883;-0.022151867;0.14119622;0.28519276;-0.13276611;0.1257751;0.123071834;0.21259446;0.04956308;0.22776628;-0.016917596;-0.0012602169;-0.098941095;-0.053335123;0.05757258;-0.029515091;0.060842138;-0.009164551;-0.023917813;0.19652702;-0.02865299;0.21861024;-0.026956636;0.15538086;0.08183458;-0.01986375;0.12877546;0.2175761;0.07213636;0.3205213;-0.00029419782;0.25292507;0.1712747;0.098515466;0.04539965;-0.008580115;-0.053243555;-0.023230461;-0.043958336;0.035712186;-0.13956833;0.18279253;0.18208805;0.21012852;0.048805486;-0.044590704;-0.013991921;-0.15813072;-0.007975836;-0.12640962;0.05205226;0.026072921;-0.0033242605;-0.022538062;0.06836173;-0.024874313;0.030083945;-0.00812595;0.007933131;0.1263963
