Weights from input to hidden layer.
-0.16527174;0.1185044;-0.05400466;-0.056796875;-0.022791928;-0.03191644;0.101390116;0.03310629;0.090540186;0.11359149;-0.04108728;-0.07233425;-0.01859655;-0.06352811;-0.033149794;-0.09749574;-0.10638063;-0.055585474;-0.08474688;0.0022841515;-0.08760609;-0.018880125;-0.02854783;-0.012442756;0.031759407;-0.11485243;0.019683415;-0.17639256;-0.13148426;0.041566078;0.033154592;0.13782431;-0.04338316;-0.07772304;0.18049462;-0.014629246;-0.06126384;-0.07692231;0.03537655;-0.020913647;-0.070422;-0.10315752;-0.081525534;-0.00086000207;-0.017224045;-0.059182376;-0.17686766;-0.020471353;-0.06327805;-0.096789405;0.033107866;-0.03843731;-0.11191945;-0.06929674;-0.21415648;-0.079914324;-0.014806742;0.025361964;0.034130476;-0.1076125;0.015344783;-0.022226699;-0.09560116;-0.116730735;-0.1400336;0.03680146;0.004354835;-0.08493052;-0.18188569;-0.039929193;0.020025343;-0.06825267;-0.037732814;0.006085558;0.06532112;-0.17148574;-0.08653009;0.045777846;0.06272383;-0.15772603;-0.0794856;-0.07711868;-0.061743353;0.02773161;-0.11583491;-0.0013934402;-0.02038367;-0.068334445;-0.06090474;-0.29584888;-0.08822496;-0.06629019;-0.10586342;0.014779795;-0.06885721;-0.23804972;0.0009662866;0.01986;-0.18259436;0.022765983;0.0811;0.037368428;-0.21833873;-0.027254133;0.0062633916;-0.051533353;-0.07612233;-0.1561801;-0.05047262;-0.038610704;0.077810325;0.012172025;-0.039466843;-0.13785669;-0.1784316;-0.042645026;-0.062072434;-0.04354778;0.007669217;-0.04345936;-0.06649757;-0.08778547;-0.0012307459;0.049439274;-0.102646545;0.022479404;-0.14664163;-0.09448826;-0.09013541;0.085405245;-0.012114566;-0.14206484;-0.2541785;-0.06970701;0.09730349;-0.04245602;-0.09571574;0.045167778;-0.18268329;-0.08884087;0.024306322;0.059157994;-0.08211598;0.043365072;0.13866156;-0.038450416;-0.015398139;0.029080207;-0.07434911;-0.04231769;0.020278534;-0.1268532;-0.012964835;0.0067065633;-0.14990371;0.026260456;-0.10240546;0.0074901683;-0.16741851;-0.02535505;-0.036842838;0.05462255;0.08308557;0.057010252;-0.14136168;-0.1374918;0.04824904;0.0052283774;-0.093830705;-0.15833281;-0.042252682;-0.026150009;-0.13077553;0.0013143087;0.05308012;-0.042096216;-0.016774327;0.099407986;0.08325526;-0.033589136;-0.19598259;0.12317006;-0.14541784;0.14608866;-0.034119792;-0.2713288;-0.08959811;0.011911719;-0.06414544;-0.10999923;-0.097305305;-0.023436172;-0.061277457;-0.04978647;0.084427446;-0.045131247;-0.012201691;-0.041355263;-0.09829745;-0.03419381;0.053758256;-0.11966413;-0.085732326;-0.112766586;-0.0029697253;-0.022145387;-0.036948673;-0.059801936;0.034470346;-0.07908418;-0.1276551;-0.019839266;-0.023948431;-0.10206125;0.008654084;-0.09908232;-0.20408161;0.04087112;0.091201894;-0.19561526;-0.04864414;-0.026969537;-0.03415935;0.097699724;-0.098042384;-0.09438141;0.022347154;-0.09101893;-0.05737111;0.03664672;-0.05974562;0.020731378;-0.034669094;-0.17234117;-0.09102517;0.0083487695;0.038333956;-0.08991702;-0.07434736;-0.06050645;-0.11969418;-0.08870465;-0.12785769;-0.023118835;0.04925344;0.004207227;-0.0527967;0.10755511;0.06572526;-0.006474352;-0.018600529;-0.041448236;-0.0030913136;-0.19933149;-0.009100553;-0.022707514;0.04716378;-0.0016188571;-0.027797299;-0.13310176;0.10515284;-0.07618902;-0.04224468;0.2402267;0.09033486;-0.04142268;0.09765788;-0.03469362;-0.12087679;0.0059268037;-0.007773654;-0.11965664;-0.013044258;-0.14920959;-0.05142279;-0.07815097;0.022854814;-0.033769574;-0.1327702;-0.016072692;0.07939542;-0.0038659847;-0.020849954;-0.08344609;0.03905274;-0.03452927;-0.03036143;-0.06917026;-0.053433627;-0.09565657;-0.10358126;-0.10363413;-0.025206517;0.013572325;0.01259894;-0.05445036;-0.10911801;-0.18773334;-0.06295005;0.121219225;-0.04247728;-0.09361269;-0.05432673;-0.12232146;-0.15560038;0.031963076;-0.07199876;-0.019654207;0.13089071;-0.065186284;-0.07181081;0.04297193;-0.11185686;-0.1318099;0.13932766;-0.032002166;-0.065861456;-0.049783062;-0.14353846;-0.060116585;-0.064793535;-0.028707126;-0.060316417;0.033033825;-0.032756604;0.055940647;-0.071169734;-0.019303797;0.023549212;0.0366659;-0.09413584;-0.24152751;-0.039425317;-0.06401853;-0.123279944;-0.036731377;-0.03081502;-0.18073902;0.089536026;-0.15336989;-0.035775553;0.19095317;0.049473736;0.024615904;0.022499055;-0.07277506;0.162628;0.0923853;-0.024094982;0.19203393;-0.022438418;-0.09276396;-0.052297335;-0.040622618;-0.100283645;0.0043253433;-0.024579665;0.007845541;0.026560845;-0.024087446;0.057483926;-0.15454158;-0.064166985;-0.01933155;0.048609857;0.02545201;0.017210292;0.08762987;-0.06291962;-0.068329;-0.07698169;-0.019750582;0.023825148;-0.0018134242;0.15873644;-0.11343309;-0.027708322;0.002482864;-0.08051887;-0.050908387;-0.24702327;-0.08125463;0.00172022;-0.06583229;0.00664627;-0.10239212;-0.028790914;-0.06251467;-0.070062876;-0.082071885;-0.1516613;-0.11653494;-0.093232706;-0.0659247;-0.1908632;-0.028954886;-0.13449726;0.0094284685;0.051419232;0.1787986;-0.15894632;-0.11239092;-0.011628163;-0.04654165;-0.07197041;0.10518866;-0.09998328;0.05707273;0.10693511;-0.06717273;-0.07458204;-0.044994615;-0.047385626;-0.0768898;0.00070359034;-0.20808817;-0.038207475;-0.0060300804;-0.09003338;-0.11116684;-0.10262399;0.14166781;-0.034030307;-0.10221975;-0.039850354;-0.017907618;-0.018294925;0.09293566;0.009575576;-0.074967615;0.01235286;0.08368911;-0.2004455;-0.0051713074;-0.050480273;-0.025817893;0.007827857;0.027439693;0.02157793;-0.007914534;-0.1043108;0.013682608;0.06578206;-0.07402422;0.009919503;-0.06294987;0.0277665;-0.100151025;-0.11558808;-0.13129392;-0.053526867;-0.034993935;0.02591191;0.021353202;-0.038304932;-0.101515904;-0.013763727;-0.21836376;-0.1960211;-0.05073398;0.0029813885;0.015300408;0.045808125;0.0059676557;0.043615535;-0.024109256;0.05262796;-0.09520237;-0.012864099;-0.023037884;-0.078109495;-0.07428335;-0.013405784;0.033253822;0.10935132;-0.029189289;-0.10737019;0.021687912;-0.04831866;-0.07517655;-0.023613203;-0.086035535;-0.02487186;0.111710764;-0.055556595;-0.06157548;-0.13283575;-0.053040467;0.03914025;-0.050391756;0.047314133;-0.055285946;-0.105527475;-0.12177052;0.058234792;0.1037515;-0.03651402;0.08377638;-0.07624758;-0.029760646;0.014132677;0.035635926;-0.022071838;-0.11506409;-0.017502574;0.13502012;0.019214513;-0.09730669;-0.16246414;-0.060409635;-0.14678217;-0.08404709;-0.030338354;-0.12530121;0.21527083;-0.17368259;0.15080678;0.07326004;-0.12713225;0.033770714;0.14846466;-0.2942635;0.10961333;-0.039885677;-0.055315126;0.085946456;-0.13617139;-0.16983514;-0.067413196;0.0916145;-0.08276207;0.07522274;0.1718725;-0.0897859;-0.039188482;0.12489913;-0.0018739006;0.17765918;0.028480861;-0.05394153;0.04113243;-0.008152495;0.045920078;-0.1602874;-0.15511654;-0.018468447;-0.25027478;0.00346154;-0.14252573;-0.1411077;-0.09437158;0.015080615;-0.009328563;0.04176803;0.19189064;-0.050099984;-0.055767506;-0.012116585;-0.019518638;0.12133018;-0.110276245;-0.051620286;0.022314334;-0.12127197;-0.11553906;-0.10227551;0.09922818;-0.13700107;0.020157749;0.019730141;-0.01696899;-0.094533786;-0.092393614;-0.21119057;-0.04289302;-0.051494457
-0.11183343;0.19946899;-0.011141268;0.006467112;0.13207412;0.006551236;0.06518741;0.021723136;-0.04047204;0.009957903;-0.03289585;-0.14207536;-0.014663291;0.045915674;0.011100022;-0.09934275;-0.08850098;0.017676922;0.023800638;0.055181134;-0.041681103;-0.0628838;0.0377119;0.023765525;0.032591205;-0.10913934;0.044452135;-0.03745933;-0.12933025;0.056205377;0.061696023;0.024224067;-0.0889104;0.026892008;0.12943777;0.036208037;-0.014551199;-0.09633501;-0.072217844;-0.009129977;-0.045796078;-0.111866094;0.0030537902;-0.023184132;-0.14167966;-0.025403824;-0.07557711;-0.087791026;-0.08735816;-0.13988723;0.07383667;0.010473306;0.042386647;0.052837245;-0.1835547;-0.037609767;0.06433209;-0.034878034;-0.071452506;-0.20618679;-0.06075166;-0.10575986;-0.080755614;-0.11262059;-0.0754451;0.06288565;-0.08009022;-0.1849183;-0.11146782;-0.08220383;0.022044117;0.0066335667;-0.010257342;-0.094267264;0.11285652;-0.027858207;-0.14375788;0.009611899;0.07440357;0.0030974636;-0.14569354;-0.018917391;-0.0060748872;0.010727843;-0.11892059;-0.037241448;0.032539297;-0.025489597;-0.12118245;-0.17853224;-0.114066824;0.017617544;0.014652893;0.0934161;-0.14163281;-0.19617274;0.027193593;-0.019012893;-0.06100186;0.04008124;0.053137507;-0.09271132;-0.16215771;-0.08632049;-0.009377497;-0.07929017;-0.09780558;-0.10882584;0.0073588146;-0.019404255;0.031936985;-0.023564212;0.0030776865;-0.15143922;-0.20615803;-0.0790521;-0.17722048;0.04456439;-0.12785846;-0.12625067;-0.1527715;-0.0758752;-0.022459973;-0.030426662;0.0041954126;0.026102357;-0.18234266;-0.12765531;-0.13616522;0.04542631;-0.0857428;-0.096280664;-0.25010636;-0.03968254;0.14257126;-0.013229855;0.037844677;-0.1101226;0.008963498;-0.10123605;-0.08849348;0.056546323;0.052152343;-0.040688828;0.14868478;0.020641267;-0.05174295;0.04748815;0.030402774;0.020115199;-0.071902275;0.020220388;0.015322905;-0.08417196;-0.24178033;0.026972711;0.022522647;-0.10613897;-0.1361129;-0.07656237;-0.075067386;0.004934623;0.083777934;-0.0072370446;-0.077884614;-0.12058825;0.020805726;0.012155684;-0.018863855;-0.05061474;-0.06251235;-0.010021018;0.020870792;-0.026205806;0.02291578;-0.13015191;0.03602477;0.024132479;-0.06476174;-0.009113688;-0.16965003;0.10874671;-0.21518399;0.07171111;-0.021273883;-0.24740025;-0.116601236;-0.114921376;-0.10050553;-0.09175741;-0.113476396;0.013982979;-0.06203893;-0.08984252;0.07118512;0.018102696;0.02917648;-0.10263951;-0.060391515;0.035562135;-0.097033866;0.013279353;0.006274502;-0.106188886;-0.08382669;0.06819983;0.021667436;-0.019692454;-0.05709835;-0.021439439;-0.12929514;-0.04361859;-0.01903888;-0.026207477;-0.079745285;-0.03786943;-0.25137383;-0.027175495;-0.042826794;-0.2453462;-0.021671856;-0.046681523;-0.033157017;0.11401015;-0.04648811;0.071656704;0.117335066;-0.07030244;-0.15574224;-0.0065494506;-0.11454685;-0.080994226;0.034915023;-0.065457396;0.011751333;-0.073546894;0.05363102;0.053892512;-0.10431098;0.0072914124;-0.016040588;-0.037961233;-0.1437756;-0.0026634648;-0.10255977;-0.036528982;-0.011851477;0.031197421;0.09133614;-0.08402589;-0.09615022;0.046437275;-0.046715133;-0.17773832;-0.09318104;0.03884225;-0.017885767;-0.08271612;-0.10079605;-0.117346175;0.16140844;0.0018736352;-0.1411859;0.14052702;-0.026834562;-0.030975793;0.030239485;-0.024308419;-0.14866287;0.055511434;-0.097516544;-0.1988096;0.028650494;-0.14095786;0.03202954;0.027996724;-0.14399698;0.026295014;-0.12399772;-0.06773419;-0.010831815;0.034697827;-0.025406247;-0.13173348;0.0551312;-0.152583;0.01948848;-0.048129592;0.03174314;-0.004346972;-0.14222851;0.0027819984;-0.12726346;-0.03219496;-0.0594502;0.008176993;-0.06951768;-0.10372261;-0.09093979;0.030359048;0.0172773;-0.00317596;-0.10802887;-0.12616424;-0.0037466139;-0.068238065;0.031339042;-0.10434547;0.03251581;-0.066717744;-0.03878928;0.01721455;-0.042753395;-0.04394083;0.12022263;-0.14980374;0.059549425;0.00028615398;-0.041081447;-0.08471454;-0.049767304;-0.09758208;-0.06428345;-0.028924776;-0.1617512;-0.035821646;-0.13319248;-0.062418304;-0.008391851;-0.00025750388;-0.1835659;-0.14883727;-0.09975919;-0.086055525;-0.016106725;-0.015447595;0.012317832;-0.06031766;0.04287574;0.011211756;0.006097999;0.17778468;-0.019905973;-0.06168951;0.038912844;-0.014283006;0.08359027;0.08793382;-0.06186033;0.07673409;-0.06318502;0.058305047;0.0046926485;0.021484382;-0.08428851;-0.03216494;-0.11904866;-0.10022848;-0.08070425;-0.07440418;-0.052729048;-0.09085406;0.0022803643;-0.051155336;-0.054351956;-0.01981004;0.017559461;-0.06082604;-0.097059846;-0.045567602;-0.07824752;-0.12571484;-0.06482504;-0.0018401672;0.10700479;-0.12666428;-0.14442736;0.14730547;0.0050948933;-0.091717444;-0.06745103;-0.10939685;-0.015348828;-0.056550942;-0.037987772;-0.11279383;-0.11922829;-0.05463984;0.050661042;-0.05094815;-0.11316813;-0.05325185;-0.12318465;-0.017956294;-0.058981925;0.03131197;-0.12962982;0.040232852;0.023114162;0.16054584;-0.14705582;-0.16079216;-0.067331634;-0.014652979;-0.089274965;0.041041836;-0.0093131205;0.1454217;0.149813;-0.15203238;0.040434282;-0.09420514;-0.086598545;-0.041282002;-0.11609001;-0.17649148;-0.06727864;-0.041690763;-0.08623494;0.014058881;-0.19167705;0.019920897;-0.117024675;-0.04080201;0.038436253;-0.12951499;-0.028259626;-0.046285868;-0.022578616;-0.023469022;0.04669175;0.1655289;-0.22102377;-0.08753854;-0.04570988;-0.042785082;0.0051312535;0.02550516;0.02766106;0.01224252;-0.11950422;-0.0066878316;0.03750974;0.034308374;-0.060466014;-0.094882675;0.028342368;-0.08176583;-0.105300635;-0.010933586;-0.00836338;-0.057828873;-0.09034642;0.0686862;-0.021531066;0.044951256;-0.038984925;-0.24025235;-0.15461668;-0.076047525;-0.07390963;-0.015458918;0.090789296;-0.13296333;0.025091983;-0.10005362;-0.009207277;-0.012007909;-0.029744083;-0.018891294;-0.025633644;-0.051311027;-0.037446883;0.028877335;0.0027410127;-0.07399334;-0.061305422;0.018539816;-0.044380974;0.0013670471;-0.0043394086;-0.015123506;0.08620762;0.10019849;-0.016364506;0.031279393;-0.042526886;-0.0077426634;-0.0033370624;0.02148676;0.0054007485;-0.14770652;-0.0015614431;-0.14526382;0.02269564;0.13723901;-0.0389076;0.047770165;-0.0012155116;-0.086831674;-0.11413513;-0.06776561;-0.04378463;-0.017701434;-0.01997196;0.10860096;0.029387584;-0.06173371;-0.020728251;-0.064843915;-0.08716504;-0.040105585;-0.000704364;-0.08528645;0.057789024;-0.20931286;0.09017013;-0.064185195;-0.20367244;-0.050645236;0.116594695;-0.18961985;0.009037691;-0.10857218;-0.038815342;0.034486216;-0.12900575;-0.10320001;-0.06171151;0.025902698;-0.035536733;0.050341625;0.0480904;-0.12039164;-0.0017682079;0.05916939;0.040073622;0.060974285;0.1220318;0.02580508;0.06508782;-0.0021741013;-0.09634917;0.0053116726;-0.063846655;-0.08009988;-0.15753421;-0.035728063;-0.08690697;-0.18020791;-0.025303982;0.084108524;-0.120910704;0.02930935;0.117267706;0.0208264;-0.08259821;-0.10369904;0.05277882;-0.026157329;0.04172725;-0.07535499;-0.06343927;0.0034538237;-0.103757106;-0.052046712;0.034299873;-0.11733997;0.019488381;-0.113464355;-0.036162555;-0.077004366;-0.01626005;-0.2246793;-0.036534593;-0.0034372562
-0.13453092;0.077160135;-0.094242334;0.0011101385;-0.055479273;0.13431717;0.056116626;-0.10668611;0.010041484;-0.069406286;0.017788203;-0.064268395;0.020410206;-0.10220375;-0.0037485168;-0.0007559524;0.015592851;-0.07829881;-0.017217467;0.09033067;-0.16755424;0.046292987;-0.014468629;-0.11927639;-0.1185424;-0.19722891;0.006941384;-0.12741558;-0.019359438;-0.033244424;0.0018689941;0.03989003;0.0074659437;-0.09855364;0.17901778;0.028874751;0.0022510672;0.0123999445;-0.030293692;-0.03035874;-0.04087942;-0.05889637;-0.04285795;0.034987494;-0.043256216;0.08011455;-0.009051641;-0.09241261;-0.024424596;-0.1328274;0.10186791;0.051217902;-0.09950583;0.015426518;-0.25892004;-0.049124233;-0.042549226;0.022078497;-0.08908519;-0.06388141;-0.07244928;-0.12585253;-0.007792853;-0.1162907;-0.039672844;0.048834383;-0.09909123;-0.09733278;-0.1267332;0.025571547;-0.056422733;-0.07247991;-0.04199757;-0.0908263;0.010819306;-0.061554294;-0.1749583;-0.08580774;0.06343237;0.0010463665;-0.06356559;-0.085572675;0.012320603;-0.04921966;-0.03507464;-0.08508947;-0.08434826;-0.119707406;-0.1048625;-0.2762177;-0.052452408;0.014291778;-0.08225372;0.17686304;-0.15807201;-0.22097887;-0.025522415;-0.11409728;-0.14520699;-0.11312956;0.093105786;0.020353228;-0.16164002;-0.06292571;-0.069949165;-0.07646326;0.009200805;-0.07967852;-0.054867152;0.043105904;-0.044265375;-0.13148272;-0.016460735;-0.09332651;-0.23488152;-0.08211956;-0.08377447;0.009060405;0.024574911;-0.08347064;-0.05638351;-0.13921203;-0.08638579;0.009308798;-0.06594619;-0.08557464;-0.06556343;-0.19269954;-0.13363674;0.012689301;-0.039801173;-0.12520477;-0.19246894;-0.09334698;0.1274761;-0.00088280806;-0.07411131;-0.07395886;-0.044090632;-0.060208324;0.0332049;-0.053858105;-0.068658546;0.031536542;0.18570389;0.039448537;0.020944972;-0.058824696;-0.00319735;0.011959597;-0.09206038;-0.11563175;-0.027711572;-0.06953596;-0.19864511;0.0244803;-0.06159597;-0.1299017;-0.16897668;0.041560173;-0.15396377;0.04593604;0.11534529;0.00937357;-0.08665283;-0.15082449;-0.09528038;-0.015525521;0.028314782;-0.062255237;-0.008270364;-0.017006774;-0.048927415;-0.110210165;-0.02759985;0.0020078581;-0.10993677;-0.036428854;-0.07998677;-0.0904824;-0.18421155;0.07608061;-0.07012309;0.12539712;0.0860191;-0.15771306;-0.10400204;-0.11968529;-0.10493513;-0.03168464;-0.01711102;-0.035163544;0.035548672;-0.10008602;-0.010562448;-0.062988155;-0.045018114;-0.10421038;-0.064863704;0.060962576;0.030810397;-0.023825204;0.033121515;0.0056120562;-0.071616195;-0.047384545;-0.051081408;-0.010389172;-0.09636134;-0.06484422;0.032213077;-0.0978609;0.016982257;-0.020612037;-0.029341709;-0.075073875;-0.27519578;-0.0957883;-0.0659891;-0.18516101;-0.026345663;-0.043572493;-0.0071503473;0.12181913;-0.14506744;0.028564818;0.091139056;0.0019675998;-0.08551903;0.014604897;-0.0696644;-0.05853276;-0.059450556;-0.12404011;0.012726795;-0.053216998;0.078225695;0.017359102;-0.15962607;-0.031914916;-0.06238374;0.04500232;-0.08736365;-0.1238066;-0.10098355;-0.08355377;-0.04758106;-0.02684597;0.0007770972;-0.014200147;-0.026363222;-0.074568264;-0.1313607;-0.16149142;-0.049521353;-0.012097251;-0.024282228;-0.08579028;-0.08204846;-0.062507905;0.07856467;-0.03636979;-0.036928955;0.08064081;0.013846389;0.08647974;0.0749261;0.0466886;-0.06477118;-0.07225869;0.011968817;-0.03972517;-0.027480954;-0.16047728;0.0891842;0.021101907;-0.13236654;0.055696536;-0.05403006;-0.1289267;0.08687876;0.021522425;-0.11393534;-0.10262102;0.022863142;-0.012745849;0.035329677;-0.039762877;-0.018122032;-0.0044386787;-0.11156982;-0.09873297;-0.037688103;-0.12465097;-0.054390248;-0.07284768;-0.14978676;-0.18139449;-0.10108856;0.02603356;-0.033386964;-0.08613427;-0.032497045;-0.1633654;-0.01442423;0.03025508;-0.0074294866;0.023760341;0.040384836;-0.07928164;-0.014283598;-0.020055464;-0.08282244;-0.05455976;-0.026400805;-0.046069358;0.03757597;-0.027991895;0.004709586;-0.07220748;-0.0883021;0.0120915035;-0.13544431;-0.05156532;-0.116875835;0.025900913;-0.110505015;-0.0659661;-0.04919193;-0.046558015;-0.054218825;-0.10657335;0.018259421;-0.13880934;-0.03281394;0.00493459;-0.023972496;-0.09223642;0.071573;0.0128146;0.028332386;0.2314084;-0.03177102;-0.022538414;-0.07332328;-0.022626266;-0.012071878;0.033927348;-0.058972433;0.0014844147;-0.13406172;-0.079150945;-0.09238793;0.02885989;-0.026011406;-0.014835656;-0.10798161;-0.038127378;-0.004790845;-0.02925208;-0.030989833;0.027903922;-0.041852634;-0.05633621;-0.074033715;0.04012241;0.02150255;-0.03739134;-0.008847586;0.0072766384;0.0371465;-0.05239998;-0.122912735;-0.08804612;0.14949116;-0.18051985;-0.104348205;0.08181359;-0.030430349;-0.0014406766;-0.17414984;-0.031722333;0.0697937;-0.055442806;0.051570155;-0.04229731;-0.079784535;0.049224515;-0.09153509;-0.09347469;-0.13891697;-0.014819685;-0.018162692;0.0039741676;-0.093375064;-0.0007479799;-0.14391942;0.043590616;0.16501726;0.009872979;-0.17145696;-0.12579048;-0.15604311;-0.0052214526;-0.11768645;0.13327768;-0.12790741;0.022590242;0.10605689;0.0043598064;-0.05884532;-0.046384018;-0.057888094;-0.09566349;-0.015834365;-0.105230175;-0.035737906;-0.054134343;-0.09212465;-0.06258512;-0.08236259;0.026191399;-0.11263008;-0.028748935;-0.04730073;-0.104164794;0.043238554;0.06563394;-0.07323471;0.02122299;-0.012608206;0.16480319;-0.24343511;-0.024887728;-0.04069808;0.0022706483;0.06356848;-0.061240654;0.00053228135;0.01634354;-0.039035957;-0.023088174;-0.027718063;0.047099844;-0.02017971;-0.076683946;0.044187542;-0.10432259;-0.06480838;0.013387674;0.040768;-0.021303257;-0.05931804;0.06425654;-0.019411752;-0.0051124454;-0.08381974;-0.08614759;-0.07926405;-0.1305824;0.08486368;-0.07649465;0.036175553;-0.031170916;-0.009613422;-0.014017316;0.09091581;-0.054595415;0.0040902197;-0.13385266;-0.08580243;-0.051893957;-0.045462914;0.03982969;0.07262712;-0.053596854;0.0081470935;-0.05644137;-0.04929506;-0.07395172;-0.03525375;-0.02661001;0.099009745;0.112928964;0.036712416;-0.03658753;-0.18420479;-0.0275331;-0.024881668;-0.036435936;0.11231738;-0.09262892;-0.047936533;-0.096573174;0.015013886;-0.0061976584;-0.07017121;0.03784567;-0.046224117;-0.0021182527;0.018191079;0.04281733;0.009421527;-0.116340294;-0.1551668;0.15898484;-0.056034308;-0.011267439;-0.09627742;0.049048435;-0.10028832;-0.03250434;-0.11427144;-0.033981167;0.13590628;-0.11763976;0.08147111;-0.029821863;-0.11106802;-0.0002281596;0.12276659;-0.2486509;-0.003880747;-0.11495106;-0.027428979;-0.053733613;-0.038530458;-0.07362309;-0.027799996;-0.015177332;-0.09736825;-0.11349916;0.12045183;-0.099434964;0.03482958;0.09694553;0.006596682;-0.031458482;0.036249977;-0.12284475;-0.038080644;-0.092378154;-0.11995882;-0.14190339;0.002560343;0.02075032;-0.24194577;0.02249486;-0.03889387;-0.064046495;-0.09137869;0.11370569;-0.035211105;-0.053244893;0.17255877;-0.11171214;0.029220479;-0.042909745;0.09262958;0.01629726;0.028111804;-0.043003757;-0.04561997;0.03778694;0.039270658;-0.008204196;0.047648765;-0.070030294;-0.059593976;-0.060766302;-0.12029233;0.0008128807;0.014890833;-0.16195638;-0.04712306;-0.05495292
-0.14895998;0.15527976;-0.063918784;-0.03914459;0.05188783;0.15480986;0.12616989;-0.07459553;-0.053120084;-0.08191668;-0.07548651;-0.11583973;-0.15339693;0.054797925;-0.07897906;-0.120763816;-0.07791145;-0.076330744;-0.12687887;-0.019735003;-0.0850153;-0.035344396;0.054119185;0.026945673;-0.05530805;-0.13614677;0.056238633;-0.046033192;-0.082849994;0.059460565;-0.020843841;0.07053446;-0.05920467;-0.08964027;0.0996312;-0.10690554;0.014019894;-0.14553645;-0.055356424;-0.07091794;-0.054766882;-0.0879151;0.001142928;-0.03436327;-0.06436306;-0.015053352;0.036249753;-0.1000387;-0.052237995;-0.052545995;0.14867522;0.027153825;-0.09176917;-0.071989045;-0.24897161;-0.13333477;-0.07562024;0.025938371;0.017675502;-0.15944768;-0.13850042;-0.03380125;0.0029513799;-0.022646662;0.035668496;-0.028740862;-0.111643456;-0.021147268;-0.028028842;0.05164857;-0.0779435;-0.06030727;0.045624815;-0.1300718;0.09232908;-0.0016797631;-0.21286578;-0.07114748;0.061947156;-0.029606288;-0.072570056;-0.04764278;0.016861863;-0.080639176;-0.08172927;0.04655356;0.041697904;0.018611168;-0.09025656;-0.25445992;0.013840956;0.022187416;-0.040768903;0.08895022;-0.14499621;-0.15794146;-0.07010282;-0.060174208;-0.09431088;-0.115717195;0.17072076;-0.10840478;-0.06355985;-0.0022405498;-0.1371741;-0.06712931;-0.026822686;-0.0048591834;-0.07501284;0.024371756;-0.027053108;-0.118939355;-0.104458846;-0.023316912;-0.13802932;-0.04578024;-0.0885217;0.044236;-0.04250499;-0.04110525;-0.1375962;-0.047467712;-0.008686637;-0.08575456;-0.009497514;-0.09612104;-0.14363071;-0.22161095;-0.17094153;0.08533525;-0.016420089;-0.096865445;-0.21188752;0.006866633;0.09051611;0.02401422;0.06749406;0.0067617586;0.050890315;-0.08298332;-0.107816376;0.042182595;-0.0925636;-0.032179516;0.0902215;0.013444125;-0.037447028;0.00130205;-0.020978259;0.016218614;-0.04910814;-0.099216744;0.06463621;-0.10509187;-0.20624441;-0.080837026;-0.08753147;-0.025979325;-0.24263254;-0.03655451;-0.021112718;0.057553895;0.020148477;0.091953136;-0.13690451;-0.028301204;-0.013204594;0.041847035;-0.11110236;-0.023213683;-0.0066006486;-0.06928323;-0.060793426;-0.115777396;-0.10716595;-0.09587897;-0.10177017;0.03396005;-0.007888285;-0.0067270584;-0.06690941;0.09616333;-0.1220328;0.10354684;0.14457692;-0.23119996;0.018543495;-0.07693261;-0.14180459;-0.07246665;-0.0144369975;-0.11502103;0.07895944;-0.091014564;0.113130525;-0.12806718;0.015012955;-0.10980398;0.00942713;-0.039912157;-0.044496555;-0.061243698;-0.11693146;-0.0023816603;-0.019012786;0.009011451;-0.07590726;-0.11569436;-0.10528616;-0.058630213;-0.10844545;-0.12311661;-0.004076264;-0.12084112;0.003623223;-0.06978946;-0.13885088;-0.041353106;-0.1284543;-0.20607395;0.036884885;0.019185271;-0.021743346;-0.04254886;-0.10546099;0.014220412;0.030374303;0.027744519;-0.040173233;0.005652999;-0.08584751;-0.076541185;-0.113530144;-0.10223;-0.059189092;0.01666701;0.030972766;0.021979652;-0.14590418;-0.094734885;-0.013683416;0.028633112;-0.15728204;-0.10041218;0.0069272653;-0.09210362;-0.041377112;0.066623904;0.03369036;-0.092030406;-0.040509176;-0.11382236;-0.050560907;-0.06470105;-0.07679627;-0.11723809;-0.13700922;-0.10138791;-0.10603467;0.030804735;0.17374256;0.0280387;-0.14404933;0.10045052;0.04256687;-0.03167297;0.106636524;-0.05994705;-0.13764139;-0.055167176;0.0026931288;-0.031939827;-0.06137657;-0.13781314;0.027143251;-0.035976358;-0.0121297445;-0.03431577;-0.012400605;0.027083697;0.12548393;-0.052417405;-0.034928463;-0.0011302392;0.07353904;-0.09410991;0.033344295;0.013135799;0.034977704;0.014236269;-0.19686644;0.020492943;-0.04566158;0.030566255;-0.045772705;-0.03514977;-0.079003535;-0.064120844;-0.066094056;-0.09527431;0.022342108;-0.030649157;-0.0430716;-0.12986122;-0.05852766;-0.07312831;-0.05588165;-0.08691811;-0.009528049;-0.08413915;-0.057918433;-0.06468583;-0.088641234;-0.091711566;0.030783303;-0.16187277;-0.029925583;-0.18627161;-0.0013753506;0.0028112428;0.014480992;-0.058665;-0.056562692;0.060974836;-0.031443596;-0.03516268;-0.106511295;-0.073111236;-0.09939156;-0.12501979;-0.07178863;-0.24613301;0.049377255;-0.05849545;-0.035651445;-0.1292167;0.014310806;-0.110238746;0.16718473;-0.043548554;-0.022052031;0.15072592;-0.0026700424;-0.023638416;0.03317177;-0.0035672588;0.109487526;0.060967218;-0.13071203;-0.04009457;-0.123229764;-0.055900782;-0.014099452;0.054262497;-0.08543025;0.0133926505;-0.09748802;-0.12813622;0.028414067;-0.1716547;-0.10227955;-0.05528875;-0.056829706;-0.07660812;-0.09705301;-0.01634108;0.010361809;0.000816041;0.031202087;0.04621779;-0.07610197;-0.0010102423;-0.08472659;-0.01792455;0.05447268;-0.07634808;-0.047187097;0.034917593;0.014372359;-0.036345046;-0.16524085;0.012809026;0.10287156;0.02182163;0.028179428;-0.16527668;-0.00976437;-0.107449666;-0.08363175;-0.11655231;-0.14300764;-0.0940894;-0.06609018;-0.12523481;-0.18505883;-0.012360256;-0.086131625;-0.08738349;0.07095084;0.08959218;-0.20301212;-0.15502541;-0.08386219;-0.083344884;-0.09356104;0.034478124;-0.0450434;0.030599872;0.01857049;-0.03384258;-0.035662826;-0.13950372;-0.08735767;0.06725312;-0.022914575;-0.10149303;0.04042639;-0.17395414;-0.07088181;-0.06346563;-0.1896548;0.014818674;-0.00029795014;-0.12652737;-0.03575859;-0.08725975;-0.115393884;-0.048221447;0.03778017;0.03660255;-0.09414629;0.059206154;-0.15722898;-0.018923812;-0.09725557;-0.0057364223;-0.065956905;-0.047934454;-0.091330364;-0.082590185;0.037489522;0.060728796;-0.055330116;-0.07463974;-0.12082305;-0.061301485;0.09735932;-0.091488175;0.025399767;0.0049441764;-0.03625604;-0.00033506486;0.036918256;-0.02021862;-0.019468686;-0.08648489;-0.09347131;-0.21255597;-0.0150962025;-0.20109624;0.025365626;0.048018336;0.044130534;-0.13675703;-0.019375341;-0.05488268;0.034964554;0.017440932;-0.076111466;0.009954285;-0.16041912;-0.06561719;-0.14314382;-0.024019249;0.12090159;-0.009056202;0.003467153;-0.1131028;-0.019114869;-0.06721555;0.044032857;-0.12493151;0.12865813;0.10258392;-0.088196136;-0.10030807;-0.15231012;0.03705605;-0.058604077;0.010286414;0.0155288605;-0.027728252;-0.08776884;-0.12699011;-0.07896863;0.096624225;-0.0017953499;-0.024163362;0.014483573;-0.08917812;-0.02180308;-0.08227241;0.020008542;0.0015512813;-0.02925775;0.054772656;-0.105140544;-0.14285225;-0.10318722;-0.002069977;-0.05418606;-0.18258794;-0.10528625;-0.059172235;0.1668155;-0.21136826;0.19163308;-0.05270841;-0.08042345;0.04198219;0.0039698672;-0.16765745;0.09655691;-0.108821474;0.019028064;0.042758018;-0.08220285;-0.112196796;-0.040486462;0.027718727;-0.114970006;-0.076749064;-0.017466964;-0.032007057;0.017562121;-0.026289532;-0.0045465175;-0.061184175;0.0021302823;0.024414634;0.034443643;-0.07565279;0.026988564;-0.09178174;-0.04335233;-0.032681394;-0.14562047;-0.0030093952;0.06975273;-0.06700965;-0.02042396;-0.054707367;-0.06576364;-0.031284515;0.13702528;0.040806197;0.027436865;0.031882737;0.07112259;-0.0047456487;-0.03142233;-0.037119936;-0.02561272;-0.059279483;0.011202112;-0.10892502;-0.035477716;-0.17427279;-0.0265014;-0.04736176;-0.06663291;-0.06906276;-0.05569489;-0.16286933;0.00012981618;0.017352432
-0.04123424;0.091563225;-0.05720601;0.00902714;-0.09081102;0.028849937;0.11804894;-0.029251413;-0.03285443;0.018045403;0.0804176;-0.13408463;-0.12399156;0.0487013;0.013209493;0.012211283;-0.117817104;0.009407445;-0.077119574;0.006756264;-0.15809812;-0.031681046;0.0026476646;-0.12433223;0.013893477;-0.19477813;0.029986175;-0.06469025;-0.058295682;0.025396002;0.029870398;0.07414312;-0.12294279;0.019503247;0.17337699;-0.11859588;-0.09284628;-0.053080756;-0.0027721957;-0.1019415;0.032794256;-0.0550789;-0.0007967373;-0.041221213;0.023975806;-0.04244462;-0.037935454;-0.006491959;-0.0075945747;-0.110545136;0.14120857;0.0059318366;-0.070553;-0.07395534;-0.21561566;-0.13100661;0.037733234;-0.017928466;0.011899064;-0.085817315;-0.07864428;-0.0076767905;0.005389134;-0.055145916;-0.09074923;-0.04896953;0.018392412;-0.056773756;-0.046829306;-0.057524707;-0.022033978;-0.09088137;0.059105095;-0.050457895;0.08454276;-0.06180614;-0.18360046;0.023107113;0.006646298;-0.127826;-0.11535714;-0.039509345;0.045925166;-0.04723933;0.006001467;-0.023626909;-0.06888981;0.024276718;-0.08989993;-0.23203787;-0.12902139;-0.0030475606;-0.12545852;0.031185811;-0.07725889;-0.1739909;-0.129373;-0.07596326;-0.17767693;-0.009558607;0.038171437;-0.02149414;-0.14925829;0.051475897;-0.03070452;-0.07206909;0.0069890064;-0.071401045;-0.009415554;-0.04244351;0.025921876;-0.11995386;-0.053623334;-0.03559925;-0.0907237;-0.033810593;-0.15243268;0.058976233;-0.10367919;-0.1355028;-0.17059605;-0.044458453;-0.03358359;-0.04065749;-0.04399082;-0.013321652;-0.16154152;-0.07471261;-0.10175823;0.07734264;-0.048875276;-0.06495295;-0.21847543;-0.048527386;0.031259492;0.02642655;-0.051051244;0.001745783;0.07815955;-0.10732814;0.006979817;0.051472563;0.035000443;0.03135591;0.086338885;-0.036967706;-0.10942997;0.019632202;0.031495955;0.027770739;-0.038647998;-0.07976992;0.0400353;-0.12393078;-0.057899896;-0.018276863;0.046032578;-0.029925734;-0.13880493;-0.05885489;-0.058157794;0.035010092;0.031870883;-0.028024266;-0.049502753;-0.07787539;0.037377186;-0.09568042;-0.04689605;0.020921972;-0.026974162;0.02710525;0.031748667;-0.08019564;0.017820043;-0.029509248;-0.06631222;0.06600092;-0.039330993;-0.061322734;-0.0810635;0.07999515;-0.055478185;0.103447445;0.11274798;-0.20159419;-0.054831114;-0.11489993;-0.21071853;-0.093510576;-0.0106575955;-0.058640357;0.12213269;-0.085314095;0.13162297;-0.12384207;-0.078080826;-0.06681417;-0.11351566;0.0012767501;-0.00083422835;-0.12587003;-0.016968362;-0.10815981;0.079558015;0.071678005;-0.030150678;-0.037106603;-0.094388135;-0.13668571;-0.03115505;-0.09046962;-0.082035154;-0.042799525;-0.024010086;-0.040807057;-0.25037426;0.04565536;-0.048092015;-0.21329436;0.007930012;-0.03217011;-0.063484184;-0.02553135;-0.043939576;0.05660408;0.042488724;-0.005298009;-0.1253035;0.056403857;-0.10905092;0.035783634;-0.08626151;-0.09024716;0.024549931;-0.03886123;-0.015990298;0.100229725;-0.16750702;-0.09142827;0.012677245;0.017738203;-0.10003311;0.007563696;-0.07551175;0.040795762;-0.10694072;0.096668795;-0.02988397;-0.061657008;-0.05302029;0.039452214;-0.09043164;-0.052076127;-0.040881567;-0.014734299;-0.037508372;-0.02162114;-0.036071848;-0.11262112;0.14189826;-0.06982132;-0.028501;0.09723586;0.07618495;0.016912771;0.03027209;0.0072888075;-0.114651985;0.04664631;-0.09902431;-0.17947806;-0.040394433;-0.031352665;-0.017504929;-0.0014961042;-0.013781299;0.079026215;-0.008326244;-0.018969059;0.048522957;0.0046445634;-0.07554126;-0.15781622;-0.0322049;-0.08110783;-0.0010534564;-0.026091237;-0.0030622778;-0.057006333;-0.13313642;-0.03224727;-0.0004387027;0.040799234;-0.11314623;-0.015603074;-0.03378953;-0.19261372;-0.013620281;0.021360466;0.016674036;-0.108812705;-0.019642532;-0.16557083;-0.1363607;-0.041096784;-0.019094236;0.03504491;-0.019197725;-0.019162644;-0.017836701;0.006416893;-0.07743917;-0.015033388;0.016154954;-0.11638353;0.10081336;-0.16149856;-0.07335725;-0.03177998;0.00839791;-0.13199188;-0.14188384;0.031199437;-0.12643428;-0.09714747;-0.09925483;0.01793996;0.047998656;-0.005367187;-0.06763697;-0.20768069;-0.06720362;-0.16399838;-0.0857352;-0.10284069;-0.07334376;-0.05832209;0.07731339;-0.1362995;-0.06258704;0.14291497;0.043672238;0.03088664;0.05900138;0.006323833;0.08708413;-0.07027189;-0.08870897;-0.06901043;-0.10343097;0.045940105;-0.10273902;-0.05372313;-0.021354508;-0.033733673;0.034981906;-0.076679796;0.02700136;-0.034043744;-0.07102694;-0.02427356;-0.0021013934;-0.09601066;-0.029438308;0.0034048052;-0.095826834;-0.069942735;-0.12351491;-0.114020854;-0.1090136;-0.10059092;6.419706e-05;-0.0072721676;0.034845464;-0.1328828;-0.03502606;0.1332312;-0.12435591;0.0388161;-0.016601909;-0.018892676;0.14334035;-0.015673084;0.010799968;-0.1998766;0.023931812;-0.00026536643;-0.05936913;-0.0046811234;-0.035047524;-0.113725565;-0.033804644;-0.017444998;-0.077871785;0.030369926;-0.026955869;-0.06404339;0.08403168;-0.026977854;-0.16394089;-0.10616414;-0.071662955;0.04761131;-0.103822835;0.034979127;-0.01882978;0.05514341;0.08184574;-0.01871981;-0.04486009;-0.09734441;0.04688566;0.06510418;-0.027823018;-0.08144375;-0.090500765;-0.028301137;0.04308282;-0.017094161;-0.051194236;0.066384904;0.034295313;-0.03316036;-0.0026686443;-0.040693086;0.0082134865;0.009927637;-0.028427197;0.028337266;0.0013878262;0.13809;-0.30022958;-0.02536113;-0.047021843;-0.07413644;-0.050534494;-0.026365722;0.017110378;-0.0840237;-0.11666986;-0.03648075;0.073582195;0.03809181;-0.027102325;0.042299815;0.009797187;-0.11934578;-0.11913106;-0.03253428;0.028475886;-0.038644746;-0.08165674;0.027483402;-0.0132271005;0.05319342;0.015815156;-0.2070734;-0.10240385;-0.103185624;0.021132084;-0.00017734771;0.13941662;-0.07324211;0.043021053;-0.027541917;-0.03900651;-0.040301565;-0.009233867;-0.1239274;-0.042238466;-0.11095615;-0.11617589;0.005372928;0.058110975;-0.06275095;0.023727188;0.04475572;-0.13874707;-0.0883179;-0.080428496;-0.07520461;0.008759339;0.07930447;0.015790809;-0.011593196;-0.017818308;-0.06560265;-0.04425114;0.029250236;0.030860895;-0.054725636;-0.0077540954;-0.13203532;0.00034608567;0.051964782;0.026059814;-0.021345504;0.040143155;0.0042712316;-0.028515961;0.032014865;0.045054957;0.010858079;-0.11475099;0.15343376;-0.05472815;-0.12620574;-0.13743356;0.037582222;-0.012408321;-0.18585098;-0.1158258;-0.15171775;0.02184009;-0.15077828;0.08197211;0.041865744;-0.18147607;-0.031059338;0.1507887;-0.16247642;0.11078291;-0.13972463;0.035274547;-0.034132898;-0.015266361;-0.16379125;-0.08703568;0.1449943;-0.11983737;-0.082194865;0.1297244;-0.061391562;-0.014536614;0.07262037;0.0034136332;0.027735662;0.055944514;-0.04211127;-0.037775468;0.0036502646;-0.10072288;-0.05334509;-0.059257533;0.0029860584;-0.12953408;0.014056678;-0.07792533;-0.1908299;0.03319016;0.041488502;-0.098202966;-0.059173297;0.036656506;-0.022258393;-0.022931566;-0.01938372;0.042887554;-0.03320546;0.001276308;-0.07976311;-0.031827457;-0.11207722;0.022569688;0.03421651;0.0044376845;-0.004826363;0.03760816;-0.113167755;-0.10364908;0.021636134;0.027368478;-0.22045255;-0.095374465;0.0013751497
-0.022298824;0.038747296;-0.118150935;-0.044989944;-0.059651032;0.16244799;0.009302137;-0.031871874;0.014992638;0.031250175;0.006300238;-0.034365874;-0.1653176;0.0025300554;-0.075004086;0.012653444;-0.08408693;-0.0090965135;0.0358236;0.054743607;-0.022557238;-0.010974644;0.009107373;-0.0038954986;-0.044994164;-0.16917779;0.04875056;-0.1102958;-0.0995615;-0.064674184;0.029404901;0.03231799;-0.033127505;-0.08527338;0.19779743;-0.024350328;0.03442066;0.024984293;-0.016298067;-0.095362954;-0.12593395;-0.062597014;-0.10757435;0.05703407;0.01346287;0.025230557;-0.11114699;-0.093942925;-0.0716223;-0.068789065;0.06444133;-0.0643779;-0.07876075;-0.11646793;-0.28312367;-0.1482881;-0.010892008;0.022740372;-0.0439423;-0.2235824;-0.069315866;0.0013530462;-0.106174976;0.0375714;-0.0366921;-0.040157083;0.0054913033;-0.024161482;-0.06061529;-0.05672333;-0.029077144;-0.020513901;0.01087264;0.017864678;0.01612109;-0.14331824;-0.06864339;-0.06513474;0.035037983;0.009599968;-0.08024101;-0.09125001;-0.02272141;0.029531587;-0.1206057;-0.025356399;-0.029794645;-0.0015656011;-0.07396821;-0.3098289;-0.020787029;-0.07841123;-0.052631196;0.1293938;-0.064395525;-0.030092007;0.03490878;0.0036421414;-0.022794235;-0.054233804;0.07075145;-0.015311383;-0.1240246;-0.013100773;-0.08531165;-0.06902606;-0.01919059;-0.034946945;-0.12711507;0.09253717;-0.0043748734;0.015358188;0.026746722;-0.0050850757;-0.18249688;0.011991694;-0.109359235;0.00971678;-0.007831889;-0.15268037;-0.0854204;0.026703762;-0.08241886;-0.08804474;-0.02951059;-0.032472588;-0.18056637;-0.1314533;-0.16505702;0.07578047;0.0026400131;0.022782277;-0.12864889;0.059276417;0.0012492061;-0.051173374;-0.0019898233;-0.017627498;-0.030999921;-0.07638206;0.020770414;-0.041276373;0.002027458;-0.0068754037;0.06891333;0.012406887;-0.06501456;-0.042798135;0.025275905;-0.03481351;0.030936215;-0.13178849;0.0005202311;-0.11669396;-0.16552152;0.03350657;-0.10213694;0.006617432;-0.24314614;-0.097428925;-0.012789062;0.012865241;-0.06834044;0.043762155;-0.0025188134;-0.10857295;0.024882592;0.03164482;-0.037637938;-0.00060862704;0.103918284;-0.082208045;-0.078060634;0.0027816312;-0.09468539;-0.15909897;-0.10651238;-0.03061597;0.010624828;-0.06724594;-0.011946227;0.09705742;-0.16643187;0.0044543333;0.07884195;-0.27585062;0.001315048;-0.04136482;-0.10629598;-0.12327165;-0.07084429;-0.017582005;0.1598656;-0.04577866;0.03971104;-0.0065243063;-0.021404106;-0.13900298;-0.08569437;0.021073872;0.012472417;0.001904974;-0.014075944;0.011061359;0.016971545;-0.0039896057;-0.013870179;0.00679637;-0.07963058;0.036536034;-0.034402207;0.027678803;-0.022860391;-0.057994936;-0.10427356;-0.017657928;-0.20873107;-0.0067216596;-0.13732855;-0.13953221;-0.10155295;-0.079107024;-0.039608803;-0.03759763;-0.060450874;-0.08105091;0.054811332;-0.00235467;-0.016574591;-0.027049333;-0.08017619;-0.039848;-0.123402074;-0.038770773;-0.0039929026;-0.09459605;0.10794421;0.04501038;-0.13977493;-0.07050523;0.02155649;-0.050753396;-0.14135575;-0.08524947;0.049675684;0.042342387;-0.096872196;-0.0002673367;-0.054762643;0.037375692;0.020617444;-0.02536051;-0.03385366;-0.0747713;0.027629051;-0.086413845;-0.15622307;-0.027560152;-0.078305155;-0.06476383;0.05491337;0.0048184847;-0.19446027;0.12948796;0.037840646;0.046592284;0.068334326;0.028424682;-0.013672188;-0.02759171;-0.06365941;-0.12446822;0.0242795;-0.13588591;0.07370549;-0.0181277;-0.081850804;0.0826799;0.020761903;-0.060240198;-0.0103392955;-0.06631999;-0.0398187;-0.07378197;0.0018724076;0.034628745;0.037848216;-0.0950041;0.032077637;-0.056632783;-0.15570132;0.026601415;-0.07615901;-0.082378395;0.024809197;-0.010444273;-0.0002505161;-0.16809589;-0.05883319;-0.09809564;-0.027087936;-0.09915007;0.043171957;-0.15935229;-0.04732771;0.041122153;-0.097787626;-0.020774258;-0.003115494;-0.001197571;-0.11595308;0.049708996;-0.06002573;-0.051362276;0.06903874;-0.014541098;-0.022809414;-0.20838909;-0.042754807;-0.0044749016;0.0025483952;-0.13173269;-0.039793294;0.09077081;-0.16786344;-0.0946565;-0.13304311;-0.09385387;-0.038451433;-0.05223157;-0.1530032;-0.21079205;0.03631943;0.024140112;-0.05227783;-0.056577962;-0.034928393;-0.12562491;0.16754429;-0.04816415;0.03630693;0.11327523;0.0008765269;-0.12387699;0.0016155652;-0.11693775;-0.020945037;0.06423693;-0.087217614;0.033131555;-0.090826;-0.017466009;-0.017010784;0.09316928;-0.06345474;0.00402416;-0.0028765476;-0.11512009;0.019089533;-0.07896058;0.019369308;-0.038865935;0.020420134;-0.08634879;-0.12530337;-0.05480054;-0.0032283964;0.03161798;-0.03383506;-0.060439993;0.0329098;-0.04581876;0.00024722374;0.037956614;0.03061727;-0.11487701;-0.10971419;0.034122445;0.014561684;-0.018287716;-0.0075157047;-0.041546974;0.009139459;-0.06611568;-0.11045055;-0.027709192;0.018331124;-0.10952016;-0.06823528;-0.048358265;-0.06635333;0.037109982;0.040215746;0.017634436;-0.07480603;-0.076079376;-0.13704403;-0.0064676288;0.055470366;0.019796208;-0.18148975;-0.10886901;-0.015798211;0.028718367;-0.11561306;0.06916409;-0.09760507;0.02337454;0.022017408;-0.049867507;0.014502431;-0.13712132;-0.084093325;0.078773834;-0.049246266;-0.13840525;0.010551469;-0.17779957;-0.058410004;0.04021063;-0.15221533;-0.05524645;0.007815561;-0.10986872;0.048725717;-0.05125631;-0.10282571;-0.08860758;0.037271753;0.028650092;0.038447;0.08964044;-0.22170089;-0.10486847;-0.08912809;-0.09705737;-0.06375934;0.037657455;-0.1201496;0.04730158;-0.11971634;0.011029031;-0.08958672;0.0648098;-0.039704233;0.03259481;0.045077577;0.04393769;-0.09516409;-0.12507644;0.08902215;0.009079074;0.016573187;-0.0081419675;0.061750285;-0.005022342;-0.078775115;-0.10374046;0.0324303;-0.05585773;-0.018264713;0.02210069;0.07601035;0.008633176;-0.088581525;-0.07710122;0.08484865;-0.01728167;-0.06873221;-0.0009279976;-0.05331067;0.015596617;-0.12944476;0.06084787;0.05981866;-0.008705213;0.022025207;-0.07728985;0.0006696716;-0.10286454;-0.10240399;-0.13815883;0.04720127;0.076097034;-0.10019726;-0.0710347;-0.049915377;0.0048888153;0.028099729;-0.05209092;-0.011254677;-0.12431117;0.0027812328;-0.027275387;-0.016862018;-0.037309345;-0.040741324;-0.011142971;-0.06904622;0.018054362;-0.1105027;-0.09097326;-0.012974529;0.039624594;-0.10343786;0.012975293;-0.017028183;-0.073900804;-0.049334522;-0.06484223;-0.049470942;-0.16928898;-0.1409429;-0.0061949342;0.015437653;-0.16793521;0.051768217;0.0268103;-0.1484153;-0.033664387;0.043310005;-0.11919089;0.122361176;-0.024372125;0.10492244;-0.065736644;0.02862401;-0.15642974;-0.1005309;0.02954302;-0.0108736325;-0.05142703;0.04084191;-0.09656384;-0.0400255;-0.06402674;0.0006390696;0.061511673;0.10128977;0.035208095;-0.0691235;-0.121186264;-0.060513355;-0.05262976;-0.009258627;-0.060647402;-0.18084273;-0.077980995;0.085822426;-0.103597075;0.017927038;-0.059347186;-0.105540864;-0.0792052;0.0050718533;0.032071173;0.030873166;0.019644598;0.02884958;-0.13273428;0.023385923;-0.013772629;-0.13957146;0.017126214;-0.04025302;-0.087187074;0.048198853;-0.11663939;-0.09218889;-0.06897206;-0.12408917;0.009317454;-0.06977801;-0.15808308;-0.08882225;0.002067781
-0.11073656;0.12516281;-0.056837972;-0.053576466;-0.08181452;0.05097481;0.025084265;-0.013959315;0.016877193;-0.06479785;0.006679868;-0.1055568;-0.008612236;-0.07463477;-0.0006018203;0.016646998;-0.026440626;-0.1102123;0.027837995;0.09462567;-0.1488352;-0.110900216;0.032811955;-0.024788082;-0.07194335;-0.148587;0.07904794;-0.13596226;-0.1332482;-0.009275772;-0.038087092;0.051257968;-0.029177714;-0.123202614;0.11778793;0.023682179;0.0123617295;0.020709245;0.04378407;-0.035135325;-0.046579458;0.05979394;-0.1045456;-0.029692499;0.0047041876;0.05912028;-0.14807048;-0.14774159;-0.07184095;-0.018925168;0.14224592;-0.06270502;-0.074965075;-0.03312359;-0.2431487;-0.13969018;0.027020596;-0.022912258;-0.11955673;-0.18127616;-0.012140283;-0.07437472;0.009574022;-0.10517148;0.038576562;0.08629085;0.009518413;0.028520107;-0.05173649;-0.0893784;-0.08939946;-0.040363733;0.00093579845;-0.00088914245;0.04460089;-0.092094965;-0.11487367;0.056165583;-0.0281856;-0.09486961;-0.1372648;-0.054044142;-0.022795837;-0.034181796;-0.04994415;-0.11793071;-0.001056071;-0.095945515;-0.07886984;-0.18183923;0.010059649;-0.100740194;-0.033735845;0.13975862;-0.20278946;-0.11685437;0.015392959;-0.014362908;-0.05087716;-0.042407975;0.0026094564;-0.09406554;-0.014296363;-0.02772991;-0.06711207;-0.0044745277;-0.014051389;-0.038198225;-0.11753196;0.087873325;0.040326912;-0.06014421;-0.030458365;-0.07949933;-0.09579478;0.040758695;-0.18434758;0.07920425;0.0349905;-0.013701549;-0.082731836;-0.08034048;-0.08449132;0.03445523;-0.10719919;-0.056948714;-0.13196333;-0.10836785;-0.21884696;-0.010471825;-0.091712825;-0.11591232;-0.1266942;0.025475938;-0.026797319;0.047267787;-0.0436294;-0.07683015;-0.05539296;0.01911124;-0.015340093;0.061725877;-0.023122689;-0.0026679945;0.101025194;-0.095585965;-0.005417098;-0.011070601;-0.01297497;-0.016956208;-0.041267417;-0.0133644845;-0.089799985;-0.083007365;-0.16268237;0.037737854;0.0062702154;-0.030830422;-0.26402453;-3.8856684e-05;-0.062248696;0.051031426;0.09285358;-0.045405746;-0.057123713;-0.08846884;-0.03781243;0.05451764;-0.047536086;-0.04989309;0.025554275;0.060966346;-0.0066570984;-0.0021584884;-0.022267254;-0.05482291;-0.10995961;0.020403525;-0.029785857;-0.08766775;-0.115373574;0.0053381417;-0.028498823;0.0502715;0.01061039;-0.24487007;-0.0009811382;-0.11357784;-0.1306715;-0.0944155;0.058497448;-0.04615903;0.115426555;0.054515205;0.037095618;-0.01134599;-0.07421336;-0.18760134;-0.1470528;-0.0782685;0.03399272;-0.06443206;0.025864206;-0.08428135;-0.02560898;0.045320604;0.058901474;-0.07606218;-0.075027585;-0.112373225;-0.01394122;-0.049838528;-0.038541973;-0.030022768;0.040685043;-0.11635137;-0.23866943;-0.0014535781;-0.09811228;-0.24423327;-0.1229339;-0.04504142;-0.039429642;-0.009616686;-0.12519595;-0.071115345;0.0077088694;-0.0917395;-0.142009;-0.0071654157;-0.00404541;-0.058302023;-0.026150806;-0.050580285;0.0047690556;-0.10321557;0.09431514;0.12628908;-0.1502381;-0.082939975;-0.0045882124;0.008327233;-0.12611404;-0.05253678;-0.051393945;-0.11410961;-0.06853008;0.103894025;0.06790558;-0.08321998;-0.06726763;0.008493148;-0.028428484;-0.09725835;-0.03155416;0.02897569;-0.10865447;-0.09335875;0.011113183;-0.0074817697;0.034834135;-0.12126126;-0.016154785;-0.010417723;-0.04728685;0.06692888;0.11520102;0.022585023;-0.00957583;0.035823725;-0.08719293;-0.14981745;0.010282158;-0.1290862;0.04321896;0.005010751;-0.039719313;-0.0393947;-0.022334771;0.028512144;0.09147912;-0.06278043;-0.098579794;-0.10948805;0.048559546;-0.014161063;-0.048182767;-0.10670983;0.025345482;-0.059619173;-0.18100572;-0.072750114;-0.012179276;0.042222474;0.008753395;-0.027429681;-0.11605549;-0.06073138;-0.02645067;-0.075298816;-0.0025453628;0.05221831;0.04361806;-0.13997053;-0.124321274;0.038607024;0.06294751;-0.09475401;0.056330297;0.002337064;-0.10501128;0.014311378;-0.09510259;-0.022048824;0.039320316;-0.11874656;0.010993273;-0.19929844;-0.08029575;0.018012645;0.018666638;-0.13810267;-0.07797976;0.06815186;-0.14154758;-0.028105129;-0.04074331;0.021942405;-0.09274853;-0.09628608;-0.10268801;-0.28259194;0.05814351;-0.14460593;-0.039413303;-0.02013616;-0.098746136;-0.0934316;0.14444345;-0.07055807;0.012882016;0.086966045;0.009654713;-0.06453904;-0.05601745;-0.0343894;0.027614413;-0.06734721;-0.08470079;-0.053969525;-0.09872664;0.0499143;-0.114085644;0.01875159;-0.020370046;-0.08236445;0.021251502;0.017863836;-0.10023744;-0.1358858;-0.074841656;-0.106828265;0.010996226;-0.10156343;-0.067852214;0.08230955;0.0050831377;0.026815163;-0.10328727;-0.012731464;0.018910969;-0.16076422;-0.0688527;0.0576682;-0.029183151;-0.13787623;-0.081947386;0.032577652;-0.027024386;-0.06507089;-0.031042546;-0.045611273;0.047306962;-0.003203454;0.003972515;-0.1761543;-0.06607008;-0.0841359;0.054888304;-0.08688262;-0.02517937;-0.05384009;0.028514976;-0.0706375;-0.05528083;-0.08556649;-0.10844521;-0.04785537;0.10786618;-0.00022995594;-0.11423973;-0.08812653;-0.102500215;-0.088885285;-0.030932145;0.10009518;-0.020614225;0.061921492;0.12364579;-0.08295557;-0.088496;-0.112495646;0.028740698;-0.0028097068;0.044958353;-0.10171794;-0.032918684;-0.045569018;-0.05401536;-0.07821898;-0.06734906;0.0043087974;-0.10335513;-0.10603821;-0.08102245;-0.028054394;0.03781233;-0.034145243;-0.07133562;0.01166618;-0.046950795;0.11837069;-0.28338733;-0.05815719;-0.07853674;-0.030588584;0.062160388;-0.03678304;-0.04584123;-0.014959042;0.0407352;0.049353834;-0.049983457;0.065395266;-0.043108497;-0.096783444;0.007999309;0.017676562;-0.11657663;-0.06757508;-0.01975716;-0.09956794;-0.03996014;-0.094577074;-0.03497926;0.015647123;-0.13321733;-0.10220777;0.028886331;-0.105075255;0.11661527;-0.10076463;0.08848294;-0.038280357;0.049795344;-0.00027252623;-0.041665826;-0.0855174;-0.09066881;-0.03344149;-0.06707112;0.008441768;0.017413454;0.0067205783;0.039127953;-0.013643444;-0.03254955;-0.04708012;0.0009799569;-0.043252587;0.043727245;-0.10369951;0.059336808;0.023376811;-0.06517925;0.02467434;-0.15235136;0.019388212;0.022927333;0.019721778;0.023922238;-0.059304856;-0.070732474;-0.07332704;-0.040071864;0.051138535;-0.03730339;0.013650674;0.04301851;-0.079389535;-0.08202933;-0.026434412;-0.06685347;-0.036896076;-0.09182396;0.0062004854;-0.075005814;-0.11269488;-0.026164575;-0.033512324;-0.0042182705;-0.06266371;-0.06085337;-0.012873741;0.1154125;-0.1127254;0.026353633;-0.006832278;-0.06433612;-0.015457806;0.099821664;-0.14154917;0.0596123;-0.04215772;-0.05960343;-0.028365158;-0.1283162;-0.10653796;-0.081115425;0.078780875;-0.0802876;0.024548832;-0.05066554;-0.012729754;0.045189288;0.02218085;0.010104292;0.00066040375;0.0662187;-0.024385095;0.07094751;-0.118620485;-0.075141266;-0.040038273;0.042291027;0.027720606;-0.13424012;-0.08694585;-0.016957082;-0.058425568;0.027367776;-0.046048127;-0.13568908;-0.040415637;0.07768811;0.08935446;-0.02201895;-0.053438947;-0.05492793;-0.028701834;0.010740023;0.0024071196;-0.11246424;-0.100376844;0.0060421447;-0.1093133;0.07830561;-0.12920363;-0.10530968;-0.04580952;-0.14434217;-0.0022538856;-0.010219328;-0.15131319;0.05026727;0.03560075
-0.03278812;0.00050241005;-0.11823137;-0.05459218;-0.05603539;0.15297088;0.056071423;-0.11228083;-0.04922054;0.008452243;-0.056273192;-0.13400407;-0.055620164;0.02510943;0.007580843;-0.103170544;0.04164025;0.0124900285;-0.109504096;0.053671073;-0.11675922;0.00897629;0.053738277;-0.05557362;-0.016887229;-0.12087494;0.024719356;-0.06743937;-0.14279059;0.011018001;0.08586762;0.05086972;-0.11402582;0.0006632576;0.0756168;-0.120096035;-0.08371897;-0.02945619;-0.102072015;-0.033873063;0.0380431;-0.0531915;-0.04760955;-0.08383649;-0.12134328;0.11302451;-0.0455981;0.010342678;-0.04447475;-0.08761426;0.11749132;0.02744137;0.036688264;-0.09874232;-0.3051489;-0.13733576;0.051992666;-0.059884284;-0.056949247;-0.14037213;-0.07642702;-0.0941481;-0.0579893;-0.00086065906;-0.070944645;0.0038751573;0.051397968;0.016244294;-0.012735587;0.03304107;0.043553032;-0.099742845;-0.063585766;-0.049733624;-0.014518847;-0.04600925;-0.1864511;-0.0841803;-0.04924551;-0.15378907;-0.13015327;-0.004420724;-0.077106014;-0.038779803;-0.059618406;-0.045788284;-0.03252283;-0.117098995;-0.08906038;-0.23069516;-0.0043362547;-0.04414951;0.00929702;0.17524512;-0.18960144;-0.18007137;-0.09949066;-0.03692298;-0.14890859;0.030940983;0.114918634;0.03984063;-0.045234196;0.03842157;-0.026358461;0.05121178;-0.034462016;0.051329978;0.0033778264;0.041943565;-0.093445346;-0.09620474;-0.0782834;-0.10184049;-0.17357473;0.007396217;-0.051182695;-0.02620423;-0.024547644;-0.017148152;-0.20430194;0.013972457;-0.11601;-0.10901778;-0.016892426;-0.06777556;-0.11330958;-0.0916406;-0.09016608;0.1163413;-0.04348102;0.02668667;-0.23094106;-0.019998893;-0.036712877;0.07346044;-0.095683545;-0.102960594;0.08160549;-0.024489824;-0.09673027;-0.015848937;0.078656435;0.06310908;0.124444276;0.036196023;0.015026851;-0.07830154;0.003318402;-0.051638916;0.022518013;-0.03349986;0.017064286;0.016596865;-0.13477257;-0.045625255;0.013677074;-0.06904084;-0.15130392;-0.07924526;-0.14709944;-0.040062968;0.07129623;0.049452137;-0.05818421;-0.05953608;-0.020269772;-0.070123985;-0.04291307;-0.017616782;0.07533031;-0.0859854;-0.027463702;0.0141986795;0.059388623;-0.050663814;-0.042829867;-0.08079935;-0.07415896;-0.03905003;-0.06702764;0.14001939;-0.030564956;-0.007444109;-0.000527924;-0.1152094;-0.09521822;-0.029157577;-0.105348706;-0.033799533;-0.019434854;-0.087051705;0.12743595;-0.07643118;0.09494094;-0.11860399;-0.0048416285;-0.1397078;-0.0929924;0.037279766;-0.10851763;-0.14259382;0.026934672;-0.07129248;-0.016704252;-0.06590226;-0.078171656;-0.03891035;-0.10243414;-0.113509506;-0.100506544;-0.055985127;-0.054532688;-0.020533558;-0.034302376;-0.061440464;-0.16514519;-0.040562086;-0.08068171;-0.20491382;-0.014325759;-0.041236605;-0.04451754;-0.03523763;-0.1768478;-0.07592329;0.007663212;0.05238497;-0.040101293;0.0236686;-0.05603377;0.04339755;-0.037992273;-0.074511684;-0.041425243;0.026356487;0.027723543;0.1419349;-0.16401646;-0.013196699;-0.04577236;-0.08654482;-0.08901333;-0.024237912;-0.059739027;-0.048328273;-0.07130442;0.06351696;-0.006443795;-0.016803855;-0.06591148;-0.031649794;-0.13075593;-0.1823712;0.02134859;-0.050885733;-0.040694278;-0.120570146;-0.060888443;-0.0134177515;0.05181643;-0.0056363046;-0.13077892;0.09464595;-0.10412554;0.06882659;0.07462468;0.0162548;-0.084482655;0.046213653;0.03812727;-0.11338959;-0.03859446;-0.1209169;0.023804916;-0.0389941;-0.10549381;-0.04245931;0.07445142;-0.08202868;0.08207723;-0.04800424;-0.085140005;-0.13243559;0.025804017;0.003178988;-0.07241668;-0.046685126;-0.024104977;-0.021826923;-0.112286516;-0.10711594;0.007078526;-0.09816275;-0.09820138;-0.05929084;-0.15350515;-0.18830772;-0.06664904;-0.1388724;-0.13093817;-0.08115628;0.02584414;-0.16936366;-0.07353953;-0.07558787;0.028731624;0.02140627;0.09196733;-0.08559045;-0.10716552;0.0054857377;-0.008938656;0.0038036283;0.07252821;-0.13310955;0.115771346;-0.08484145;-0.100765444;0.011763134;-0.06041949;-0.040111195;-0.14566574;0.07078685;-0.10114467;0.03662544;-0.1270338;-0.06516742;-0.023679085;0.017079227;-0.087228425;-0.1551256;-0.025236282;-0.13370767;0.0018652095;-0.1330952;0.009626925;-0.008796214;0.050340317;-0.0363763;-0.040709678;0.18913798;-0.0061402065;-0.11225157;-0.024623834;0.03027721;0.02048614;-0.07842012;-0.05316043;-0.06640886;-0.10596184;0.023180116;-0.015268269;-0.030410992;-0.023158368;-0.022223538;-0.085759655;-0.1059979;-0.014270747;-0.11504453;0.041738477;-0.06125566;-0.041173793;-0.13324608;-0.06363914;0.107581;-0.06673318;-0.07579514;0.0007241048;-0.079137;-0.09724005;-0.012813218;-0.09286698;-0.06420516;-0.037819006;-0.12387288;-0.11570047;0.018809946;-0.0547384;-0.06726777;-0.1468417;-0.11456912;0.043954104;-0.019288262;0.0053891223;-0.06927189;-0.04752667;-0.010136391;-0.06322051;0.00011026612;-0.0073363674;-0.09595955;-0.023666194;-0.11166096;-0.16184628;0.032795623;-0.0069001834;-0.09473131;0.15773587;0.024635194;-0.21902864;-0.084103465;-0.07982297;-0.049009725;0.01266863;0.1490632;-0.05270416;0.14457352;-0.011760615;-0.06561812;0.015155374;-0.033908855;0.04435648;0.013615134;-0.07795747;-0.16857587;-0.03564586;-0.123968825;0.05509768;-0.03749704;-0.15370001;-0.019257199;-0.08869316;-0.116992615;-0.06821039;-0.033618685;0.008713627;0.013804018;0.011150153;-0.027636342;0.04729364;0.019410975;-0.22224995;-0.047131017;-0.067416824;-0.049733534;-0.062054884;-0.0758516;-0.012665914;-0.010739413;0.04668381;0.0019814426;-0.02644375;0.040324375;-0.03435493;-0.053090453;0.10268402;-0.07933731;0.023912985;-0.053322617;-0.024801616;-0.0907058;-0.019489938;0.01647289;-0.08808856;-0.021495728;-0.0540461;-0.2558747;-0.025957072;-0.08977736;0.13035779;-0.011056518;-0.007953472;-0.047695056;0.034722168;-0.101848654;-0.054773144;-0.065405086;-0.047941796;-0.096309766;-0.020279394;0.029599378;-0.12833603;-0.08274154;0.036137167;-0.07175508;0.015384904;0.019885562;-0.07369288;0.024626184;-0.007178804;-0.08287717;0.0051727598;-0.044426695;-0.018359805;-0.08634382;-0.016886769;-0.017435668;0.03429682;-0.021359086;0.004970683;-0.11629875;-0.10680413;-0.06767467;0.00795613;0.09934226;-0.01938663;-0.08255322;0.0215608;-0.07626531;-0.06790239;0.0019307587;-0.034832843;-0.077362746;-0.121070005;0.02704713;0.026633603;-0.07019966;-0.028840235;-0.04798865;0.013778356;-0.055313367;0.003890877;-0.028400443;-0.0019021538;-0.12660323;0.13420598;-0.06023894;-0.09981056;0.0047194613;-0.00399006;-0.1912026;0.09103878;-0.17016491;0.08664556;-0.0020910425;-0.024470467;-0.07422275;-0.094277576;0.07343106;-0.053008653;-0.06820369;0.04854741;-0.088488705;-0.07612848;0.017104242;-0.07349453;-0.0638059;-0.0590918;-0.07741199;0.025033694;-0.027901901;-0.072131716;-0.13151897;-0.029125407;-0.06953795;-0.11022316;-0.028762797;-0.031584106;-0.055699863;0.0021540006;0.04337496;-0.05955024;-0.12464136;-0.0019361516;0.010878104;0.03336806;-0.048169676;0.0011006558;-0.012065968;0.03779221;0.04208526;-0.15027554;-0.015561555;-0.052786045;0.017885517;-0.015112109;-0.02544471;0.023998981;-0.05495746;-0.14933152;-0.04556667;-0.038356237;-0.28235513;-0.068588085;-0.08045858
-0.09017603;0.052691847;-0.06563441;-0.062163327;-0.108721025;0.072081335;0.1450439;-0.11390855;0.0351344;-0.06299444;-0.058435235;-0.15714473;-0.012541705;0.06257548;-0.0076196208;0.0068252115;-0.0301541;-0.060527414;-0.049419705;-0.028886188;-0.013953771;0.00062233285;-0.0698976;0.010288803;-0.111747675;-0.08155668;-0.026785333;-0.021722851;-0.05924901;0.058312625;0.0513464;0.026426509;-0.0064934934;0.018304117;0.10584986;-0.06215469;0.043615706;-0.121597946;-0.005181259;-3.8335427e-05;-0.100379616;-0.08786025;-0.013341039;-0.052672207;-0.034330167;-0.042058956;-0.039860904;-0.04938714;-0.018835407;-0.010529312;0.13154405;-0.08162465;-0.04001901;0.06388845;-0.2895856;-0.12540719;0.06936784;-0.008863888;-0.037225332;-0.20365559;0.012686241;-0.017743606;-0.10146351;-0.06123398;0.019363627;-0.012389085;-0.05484988;-0.0779781;-0.09497226;-0.053530335;0.053610127;0.07625197;-0.04345688;0.047436893;0.005708203;-0.14831996;-0.17459883;-0.0020929147;0.050169297;-0.1425933;-0.12862535;-0.05951076;-0.0041903364;-0.016391391;-0.021680648;-0.0025779698;0.03428067;-0.042872783;-0.06271029;-0.21957448;0.033665024;-0.076849215;-0.014190125;0.117612354;-0.06069346;-0.18234582;-0.03561893;-0.045557693;-0.07157735;-0.06250313;0.021814793;-0.015181323;-0.03829026;0.0805031;-0.07172559;-0.10726873;0.003120641;0.048288543;-0.14821064;0.0140672615;-0.035474893;0.037959043;0.033071894;-0.0042868243;-0.16187108;-0.039629735;-0.10908337;-0.064132996;0.110221595;-0.14062016;-0.043968868;0.023947652;-0.09879057;-0.07625636;-0.018640973;-0.009664953;-0.0641124;-0.1429462;-0.17891993;-0.019061249;-0.09248269;-0.049368516;-0.10280585;0.01624698;-0.054263536;-0.044574074;-0.035260517;-0.0868369;0.010628364;-0.10420861;-0.06410893;-0.054533105;-0.047384307;0.06803367;0.06285094;-0.025081862;-0.056746725;-0.06394254;-0.07950134;-0.10115853;-0.069943644;-0.02115972;-0.029502854;-0.007546708;-0.028301366;-0.09316017;-0.0029054456;-0.004053485;-0.21703346;-0.09767993;-0.16351512;0.010789266;0.020817064;0.0028902902;-0.048507456;-0.047885865;0.02044401;-0.07381806;-0.038075536;-0.008876614;0.030771138;-0.05163601;-0.051923554;-0.0534481;-0.046407215;-0.1569276;0.020702422;-0.04660251;0.0381202;-0.07163031;0.01192097;0.14861916;-0.081809446;-0.0037338303;0.044536248;-0.2801445;0.0034422085;-0.1440655;-0.15391925;0.002190407;0.046449304;0.0009804748;0.01650928;0.051910255;0.022152849;-0.09163296;-0.06707464;-0.16260977;-0.10351304;0.04418574;0.0366502;-0.05685673;-0.020076523;-0.04090123;-0.07311804;0.06796922;0.036298487;-0.0977714;-0.11531592;-0.088940755;-0.05739364;-0.012984881;0.055673655;0.042343166;0.04124065;-0.108075716;-0.2162479;0.036555972;-0.07072786;-0.1702128;-0.120553955;0.05358937;-0.12632857;0.057148788;-0.1560249;-0.049914155;0.1259351;-0.022385726;-0.082532376;-0.087036416;-0.0692461;0.03892446;0.022546507;-0.06282659;0.010449925;-0.052208647;0.03339787;0.07720685;-0.07070621;-0.028856771;-0.031639446;-0.09152223;0.030461874;-0.06254884;0.023275966;0.04907927;-0.061558183;0.01603874;0.06462631;-0.010454847;-0.068108045;-0.025911795;-0.09986873;-0.05188864;-0.01572888;0.028193172;-0.05771618;-0.14289908;-0.036892176;-0.02201886;0.035905387;-0.030195266;-0.0224062;0.031540904;-0.03569189;0.06163996;6.2591804e-05;-0.10252435;-0.0032383937;-0.018396063;0.06026031;-0.14404882;-0.021926206;-0.041068107;-0.005536844;0.030682435;0.015833123;-0.0038521695;0.050989594;-0.12898631;-0.055388734;-0.060181037;0.026404245;-0.05406076;-0.011975785;-0.12228324;-0.019590413;0.018761192;0.03564319;-0.054342393;-0.24378633;-0.07193163;0.010180342;-0.07401188;-0.06530046;-0.076607965;-0.12710467;-0.20317158;-0.032533903;-0.022891223;-0.10568927;-0.017821789;-0.050409596;-0.104526356;-0.04440984;-0.07181039;-0.014387429;0.0743362;-0.0531109;-0.0061587924;-0.0003128798;0.07636184;-0.13284229;-0.07874686;-0.037493225;-0.095371775;0.060901906;-0.1541562;-0.113641076;0.0136117395;0.011494569;-0.14846386;-0.059671756;-0.014286547;-0.14738177;-0.063823216;-0.040628858;-0.003921499;-0.03244166;-0.041850667;-0.15759794;-0.26093927;-0.07609685;-0.14757062;-0.12183111;-0.0013529619;-0.084286936;-0.026889984;-0.0004297613;-0.08595414;0.02910624;0.19182311;0.011029094;-0.09140429;-0.056693997;-0.0025678296;0.06501377;-0.010603828;-0.040808655;-0.06828004;-0.07572229;-0.04320633;-0.04096532;-0.004118116;0.04163914;-0.0676012;-0.027207239;-0.116417;0.0013949687;-0.16404209;-0.06647632;-0.042339426;0.018267823;-0.06447235;-0.10433541;0.014072442;-0.08490532;-0.05077167;0.0393968;-0.09698542;0.047436506;-0.12941687;-0.074396;-0.060727313;0.09656122;-0.04043658;-0.12879714;0.018135179;-0.024105715;-0.08578078;-0.13929155;-0.023413992;0.028966982;-0.07909535;-0.055625916;-0.1210519;-0.019551478;0.042544648;0.061785292;-0.0060406835;-0.07072767;-0.12581427;-0.108967334;-0.05341043;-0.19411026;-0.026918443;0.02787867;-0.00039817402;0.1285976;0.016309213;-0.20593011;-0.06272193;-0.024052102;-0.042518724;-0.089068905;0.13678417;0.033369917;0.006045947;0.016812073;-0.092183605;-0.008488563;-0.09690001;0.009353964;0.017090423;0.043997794;-0.04746784;-0.05934973;-0.054032788;-0.040451508;0.005147849;-0.03612494;0.074588105;-0.043134883;-0.15546887;0.034407794;-0.16895327;0.016315876;0.002251872;-0.08517712;0.04826182;0.048291467;0.14428495;-0.23115529;-0.07672311;-0.081908666;0.03837976;0.105797745;0.013101276;-0.09354808;0.022500994;0.029317852;-0.02615694;-0.026103634;0.072498105;-0.10835518;-0.0055056605;-0.0066337795;-0.07268257;-0.025821686;-0.042027082;-0.024725065;0.012363498;-0.043255165;-0.024377195;0.05919983;-0.019738197;0.022981288;-0.13275601;0.001624251;-0.13219921;0.09665395;0.04982311;-0.033742398;-0.022934869;-0.0039719185;-0.13712993;0.009871482;-0.09606728;-0.06535584;-0.108505994;-0.037730593;-0.08803098;-0.0058959383;-0.07580648;0.08534615;0.05132714;-0.07080261;0.06139828;-0.010517565;-0.056228075;-0.015502835;-0.04914861;-0.05740893;-0.012673044;0.026909126;-0.044141803;-0.13211018;0.041290693;0.016555374;-0.066428274;0.010891997;-0.10447713;0.004513128;-0.0002090789;-0.032544006;0.1047147;-0.023841627;0.05176023;-0.01019086;-0.05069735;0.02064504;-0.04122153;-0.05287623;-0.037773795;-0.0013592131;0.1387995;-0.09882113;-0.023445815;-0.13492265;-0.09519681;-0.012244526;-0.12852678;0.0001855161;-0.11944802;0.13903187;-0.13703306;0.07411769;-0.078801855;-0.16328555;0.0136983115;0.009476836;-0.22123477;0.041385487;-0.16175082;0.07962772;0.040328972;-0.1090584;-0.13324016;-0.08859765;0.119642615;0.027172102;-0.06649757;-0.003911025;-0.08207011;-0.031642113;0.06116244;-0.12331542;0.017080188;0.0010462421;-0.0131817395;-0.061727013;-0.020114442;-0.0102596255;-0.0980652;0.026986461;-0.06437897;-0.22759156;-0.08127674;-0.038990095;-0.19845998;-0.005399736;-0.041070063;-0.09101979;-0.028041432;0.0067108474;0.038425207;0.015992789;-0.015566144;0.08451286;0.046889555;0.05196114;-0.060073998;-0.100409396;-0.059124105;-0.04965835;0.0293832;0.12083905;-0.13625443;-0.069716886;-0.091150075;-0.03787499;-0.022933124;0.035729483;-0.26278937;-0.101332515;0.023551026
-0.070212066;-0.05811965;0.049037937;0.021225573;-0.10126713;-0.013431997;0.078663975;-0.020612456;-0.013217018;0.03808249;-0.088735156;-0.061150096;0.008444516;-0.0716007;0.035297222;-0.06615467;-0.015040035;0.048670247;0.0021086868;0.054687303;-0.083192445;0.038657714;0.027699988;0.024254994;-0.12855381;-0.162334;-0.07747083;-0.16473354;-0.084305644;-0.015700925;0.013071402;0.04100077;0.026624892;0.03657259;0.06420827;-0.03197472;-0.011497581;-0.006218117;-0.047414526;-0.019147072;0.0045713573;-0.0947199;0.0128001645;-0.0024411252;-0.04987247;0.03350825;0.027154772;-0.035014506;-0.0393108;-0.11474863;0.109303586;0.033826116;0.039398123;0.0071169226;-0.26833013;-0.10484054;-0.056727096;0.056993403;-0.048426937;-0.09438794;0.05709774;-0.009224961;-0.09753917;0.00715873;-0.10187361;-0.017280176;-0.016176287;-0.10343264;-0.11676164;-0.079740345;-0.079082735;-0.06734134;0.033768162;-0.011816745;-0.015362695;-0.09848767;-0.18804814;-0.016932376;-0.0035752843;-0.045798734;-0.06016961;-0.088900656;-0.051299553;-0.080120675;-0.02075715;0.010027018;-0.025904378;-0.0482283;-0.13716778;-0.1740266;-0.118095644;0.044879355;-0.051674966;0.13171992;-0.19178697;-0.12942521;-0.00903323;-0.057318512;-0.03225755;-0.061743688;0.09789479;-0.035997394;-0.06498648;0.053146735;-0.04088921;-0.08351086;-0.00081403076;0.057978082;0.013887582;0.108044565;-0.051063407;-0.112833545;-0.03173804;0.009552627;-0.07842379;-0.059666526;-0.12594892;-0.013855502;0.089868605;-0.02388283;-0.15591626;0.019503567;-0.07859225;0.008461635;-0.007889831;-0.0057297503;-0.03804407;-0.14418885;-0.149064;0.07369921;-0.058944114;-0.03443181;-0.1328914;-0.073472574;-0.08509522;0.09008965;-0.062438034;-0.07906368;0.051173087;-0.11284936;-0.0010371746;0.034028158;0.022148915;-0.07086834;0.11617094;-0.0712134;-0.08010034;0.035777755;-0.03137583;-0.09335963;-0.05096208;-0.14638518;0.07366952;-0.07581579;-0.1434911;-0.06052346;-0.051431406;-0.05885861;-0.12908024;0.01220067;-0.13175154;0.03981374;0.054427832;0.023517651;-0.124296084;-0.030442469;-0.080562726;0.029069979;-0.05556415;-0.057862382;-0.011805429;-0.029094255;-0.05531167;-0.0387608;-0.10047603;-0.16545914;0.0035559174;-0.0076944944;-0.091387786;0.0047012554;-0.10842851;0.12406917;-0.021857489;0.013639411;0.03854719;-0.15761513;0.04646578;0.008057837;-0.22094977;-0.014635171;0.051403914;-0.09851229;0.13303483;-0.016641732;0.11802903;-0.086553566;0.04283289;-0.19330342;-0.0068181134;-0.076247744;-0.0090601165;-0.12026669;-0.012929597;-0.068728514;-0.034452774;-0.034804765;-0.009818666;0.018418487;-0.03749;0.03156211;-0.033328254;-0.14131215;0.020422218;-0.084847376;-0.08973406;-0.013272831;-0.16684324;-0.025691241;-0.0043404135;-0.2555029;-0.046522494;-0.06961819;-0.15039936;0.07982891;-0.07409127;-0.0733223;0.00070342916;0.039555196;-0.0201952;0.0063673593;-0.07404545;0.056439705;-0.0033084042;-0.15641701;-0.027525662;-0.103677675;0.14221163;0.018746391;-0.11728531;-0.08407058;0.032562472;0.0019496221;-0.12515734;0.033707153;-0.035581082;-0.047397897;0.044676524;-0.035430748;0.07319651;-0.027591273;-0.1030857;0.033018753;-0.005900383;-0.1834101;0.056767568;0.047770824;-0.13185456;-0.11506945;0.0068486794;-0.05230326;0.04090153;-0.11452262;-0.10575161;0.13724974;-0.056168795;0.062312916;0.026986942;-0.061628122;-0.102841;-0.103082836;-0.0071055973;-0.11016058;-0.052868817;-0.12960775;0.064480536;0.049847037;-0.0042328085;0.013611384;0.11991679;-0.030615078;0.03779447;-0.09155392;-0.11283948;0.012458071;-0.039899595;-0.08294455;0.0025534139;-0.11536005;-0.10076385;-0.016517095;-0.16370924;-0.07077766;0.018080974;0.0005837377;-0.10589548;0.002241284;-0.03764183;-0.104636334;0.03544426;-0.117072344;-0.088920966;-0.10949457;-0.06411351;-0.25465137;-0.0969231;-0.079590194;0.027055029;0.0074882675;-0.06510029;-0.08113813;-0.067546174;-0.024798937;-0.013598664;-0.043784738;-0.04245019;-0.095842786;0.10110032;-0.070672244;0.01103305;-0.010384773;0.0060581025;-0.0846953;-0.14981738;0.07491409;-0.0268816;-0.07922258;-0.028714815;-0.08204137;0.04868405;-0.019099219;-0.06728932;-0.24405198;0.0029314044;-0.087223455;-0.05583345;-0.08168678;-0.13342638;0.030727359;0.10775291;-0.10888669;-0.05963082;0.1405799;-0.0063871653;0.044808004;-0.07495655;-0.019123197;0.090688355;-0.059441213;-0.04089264;-0.0112462295;-0.0744965;-0.067550786;-0.07598767;-0.051401246;0.042343095;-0.11130786;-0.058439028;-0.12566021;-0.11694468;-0.035445575;-0.08119556;-0.072123475;-0.032770906;-0.032296147;-0.02345531;0.017535178;-0.058705766;0.02347995;-0.037019093;-0.058391694;-0.0821139;-0.07492689;0.009639031;-0.001484946;-0.021773513;-0.061344672;-0.037825383;0.014949494;-0.027481157;0.028375907;-0.11021725;0.0023208298;0.10571314;-0.04464989;-0.05046296;-0.088282414;-0.015101998;0.019760022;0.01568992;-0.08749304;-0.09063739;-0.09071885;0.03983252;-0.04592747;-0.04896542;0.03420881;-0.080081604;-0.036156554;0.15570347;0.10184992;-0.19361721;-0.006132321;-0.028004164;-0.02606434;0.034274455;-0.0009869442;-0.046357937;0.124966174;0.04638286;-0.15090203;-0.041032806;-0.16400976;-0.045795336;-0.008581669;0.026531314;-0.12950829;-0.008985931;-0.08803969;0.007787938;-0.052447654;-0.1278005;-0.07510591;-0.01436836;-0.11376226;0.0043566045;-0.09609872;0.08312487;-0.118460186;0.02692242;0.046447143;-0.008381201;0.00083385454;-0.13945676;-0.070136085;-0.043488804;-0.06967905;0.06972901;-0.08000009;-0.10056395;0.00032584806;-0.010779743;0.024809396;0.00077957136;0.041704882;0.00600574;-0.026635474;-0.046305556;-0.03909324;-0.040032856;-0.011502333;-0.017994555;-0.06638442;-0.04571472;-0.047751985;0.0267136;-0.0746928;-0.08685879;-0.22324805;-0.0719847;-0.1333478;0.053394563;-0.06826876;0.03356738;-0.07625307;-0.060594942;-0.11618996;0.067908555;-0.11319941;-0.0038832685;-0.04163669;-0.06872849;0.025220351;-0.018160488;0.07220253;0.14787637;-0.05816363;0.03283484;0.08001497;-0.12039907;-0.005490081;-0.07275907;-0.001970855;0.035826176;-0.04111779;-0.07430662;0.009446881;0.025012843;0.06796929;-0.029099356;-0.10613031;0.10763879;-0.12480903;-0.07285291;-0.045840662;0.01827804;0.12945427;-0.07371105;0.040776037;-0.12022749;-0.017866453;-0.018660959;-0.0077826623;-0.0024265612;-0.090835564;-0.08194791;0.13751696;-0.031158378;-0.025603723;-0.15586627;-0.053236924;-0.0053947056;-0.1310496;-0.026330598;-0.09325548;0.030003972;-0.18083154;0.11016179;-0.04521978;-0.06415134;0.03308051;0.10871878;-0.23401403;0.04009237;-0.096987285;0.0040915264;-0.08542897;-0.03839377;-0.11688202;-0.014500226;-0.006913647;-0.10571849;0.04595919;0.053235028;-0.071968175;-0.004337859;-0.008375958;0.02488636;-0.047152124;0.038014174;-0.10751282;-0.023895685;-0.089753665;0.049099892;-0.091717385;0.015471531;0.01567131;-0.2240194;-0.094766244;0.01913787;-0.08713229;-0.101034254;0.048820388;-0.12818542;0.00304848;0.0053175725;0.040141646;0.01603109;0.03432241;-0.005536806;0.036169317;-0.01674218;-0.033640984;-0.028177787;-0.08800665;-0.035274982;-0.07343848;0.011905591;-0.06190304;0.04292555;-0.03435884;-0.051002547;-0.009947145;0.035519235;-0.27995273;-0.059813786;-0.025814902
0.008986947;0.038509876;-0.023648456;-0.04295737;0.023265067;0.08561835;0.18873599;-0.05603485;0.12880105;-0.042727713;-0.07331097;-0.13551947;-0.08747611;-0.013540121;-0.017224073;-0.09423449;-0.0047474573;0.0015903573;0.026384395;-0.037219394;-0.0078053474;-0.04925464;-0.09616801;-0.055065352;-0.12780459;-0.21153861;-0.083933346;-0.06455972;-0.07557366;-0.0019241935;-0.021929292;0.15222302;-0.030407013;-0.07335184;0.15290456;-0.02767562;-0.026479255;-0.017631603;-0.0931127;-0.07838812;-0.029123468;0.071731105;0.02743329;-0.075108625;-0.053950667;0.004584099;-0.111398876;-0.085420884;-0.038677942;-0.06736192;0.08775372;-0.04560365;-0.06994415;-0.054093342;-0.2718161;-0.12862307;0.078590624;-0.05119375;-0.06661418;-0.18239456;-0.06505893;-0.10283855;-0.03398556;-0.077312514;-0.124502696;0.03917061;-0.0132426545;0.0065086056;-0.09223068;-0.028701426;0.030293396;-0.07468777;-0.089808896;-0.10720713;0.059617657;-0.12537354;-0.20533144;0.07288651;0.065885685;-0.0012192456;-0.103111416;-0.088470414;0.0201749;-0.040695723;-0.08682111;-0.024170928;-0.044614557;-0.10865088;-0.0074559017;-0.28430125;-0.07628249;0.023582451;-0.14020179;0.15788014;-0.099597275;-0.16652855;0.0068383007;-0.038747787;-0.12878744;-0.023188084;0.093710184;-0.039508995;-0.1645093;-0.0064562378;-0.09511596;-0.058469493;-0.05690954;0.0828602;-0.09819238;0.029551297;-0.0076969;-0.003045203;-0.099914834;-0.08444935;-0.119732186;-0.08070977;-0.08443592;-0.0904862;0.026821576;-0.05248174;-0.073680766;-0.03269436;-0.15603548;-0.07802339;-0.108341366;0.06603863;-0.064812414;-0.18589611;-0.14048131;0.07972617;-0.059400845;-0.059180856;-0.09116107;-0.048573215;-0.09265406;0.06779787;-0.008146054;-0.046100046;0.02207386;0.04368902;-0.08446547;-0.001463973;0.015401901;0.05026886;0.060727406;-0.002986661;-0.013800348;-0.08689956;-0.050674275;-0.082618;-0.0679874;0.00026919728;-0.013800469;-0.084003605;-0.025390394;0.00016982172;0.058262415;0.007656479;-0.18073016;-0.043786798;-0.14648888;-0.05108644;-0.030163735;0.07057182;0.0023452041;-0.05199738;0.0069175404;0.0044779;0.034932133;0.004169107;0.023463005;-0.077632636;0.035359737;0.018284574;-0.027021024;-0.05332597;-0.07578159;-0.14892198;-0.06077725;0.016573237;-0.048522525;0.15845542;-0.044545643;0.10572406;0.08362701;-0.1621483;-0.051275313;-0.11157623;-0.14853223;-0.08786093;0.021210417;-0.075886026;0.10767886;-0.091458544;-0.03382131;0.006090786;0.06058469;-0.10360363;-0.14974025;-0.03140506;-0.029676463;-0.058148246;-0.0057913787;-0.12311699;0.04308635;0.06609537;0.048163123;-0.0657961;-0.05160125;-0.0042118835;-0.07431103;-0.11326586;-0.07767328;0.0013828364;-0.028291063;-0.096491344;-0.12751843;-0.0734799;-0.021136653;-0.13658787;-0.07105582;0.03260816;-0.0896819;0.1547974;-0.077784374;0.04150359;-0.019551607;0.029467495;-0.043137833;-0.031008087;-0.04857833;-0.03641511;-0.06832334;-0.020833122;-0.096151546;0.028579505;0.14413092;0.10423604;-0.11431337;-0.0687336;0.037949476;0.0530826;-0.06587067;0.053631328;-0.032233268;-0.046605688;-0.048674792;0.106395885;0.0475106;-0.08758073;-0.029719533;0.06976354;-0.1167657;-0.07074878;0.05844439;-0.00805133;0.017781299;-0.109780975;-0.026635012;-0.03531516;0.041073967;-0.006987968;-0.09640636;0.060464162;0.031471573;-0.018430922;-0.036528997;0.0030317144;-0.053758997;0.030354733;-0.07261351;-0.16895184;0.043774895;-0.0002721745;0.03232326;-0.10774715;-0.023800205;-0.04691385;0.032850027;-0.120012246;0.0051462054;-0.063718714;-0.07273109;-0.06407211;0.053654663;0.022176566;-0.051578123;-0.11084537;-0.0821979;-0.09160965;-0.1520508;-0.018489424;0.029052636;-0.0011280855;-0.10341747;0.0024710188;-0.17703451;-0.14576793;0.0220477;-0.16215888;-0.055861026;0.0018487608;-0.062098503;-0.24687417;-0.1581232;0.051794283;0.04152059;0.0112279225;-0.04197965;0.037498876;-0.0344689;0.077196345;-0.07497928;-0.030943515;-0.0071755014;-0.07014232;0.104986385;-0.047624003;-0.064766705;-0.060601935;-0.012928914;-0.11080254;-0.08406658;0.0250836;-0.1198309;-0.0942724;-0.08078998;-0.007869221;-0.049337775;-0.028703827;-0.15984835;-0.15729481;-0.080546975;-0.085666835;-0.15711427;-0.13883156;-0.21166864;-0.11066222;-0.014783534;-0.14622366;-0.016129397;0.17931695;0.10392949;-0.003363466;0.05015358;-0.032787576;0.07259689;0.02220091;-0.09069111;0.065717556;0.032702614;-0.0018266016;-0.09433864;-0.035440743;0.031011164;-0.035356745;-0.082352266;0.003491659;-0.096184924;-0.07800401;0.018874077;-0.07156889;-0.08157893;-0.06958438;-0.09191295;0.10154344;-0.042485524;-0.07729512;-0.08915314;-0.028112601;-0.065796405;-0.13086104;0.004326167;-0.08561327;0.09574171;-0.124306664;-0.0063500307;0.12755437;-0.04204931;-0.079907015;-0.008017292;-0.05126158;0.068443984;-0.027217722;-0.11532499;-0.17449173;-0.011478257;-0.024303434;-0.08468764;-0.07429806;-0.15488112;-0.022758797;-0.103567846;-0.05507215;-0.1407462;-0.03984151;-0.111923136;-0.0041550994;0.106779575;0.09963596;-0.19937794;-0.12180247;-0.03296255;-0.06959335;-0.009947549;0.037353244;-0.0054236273;0.16142263;0.014339156;-0.010565666;-0.035685264;-0.15698296;-0.0043016165;-0.046973784;-0.1057174;-0.15901324;-0.0728085;-0.06156538;-0.09408789;0.057182033;-0.08996984;-0.008605208;-0.073899396;-0.017665086;-0.06984197;-0.014998958;0.026280934;-0.058945026;0.013084308;0.02083823;0.00018408365;0.032031413;-0.21557309;-0.1109212;-0.108343706;-0.018051896;0.06996606;-0.074493185;0.059649713;-0.078826696;-0.099035546;-0.06850112;0.03436951;0.06545536;-0.051418994;-0.008035101;-0.024106802;-0.10246337;-0.07878977;-0.10124993;-0.0612227;-0.08114788;-0.08373015;0.011488402;-0.06404331;0.038250852;0.003363071;-0.13181187;-0.06533295;-0.02136321;0.13741262;0.026917767;0.066335276;-0.099117786;0.066337414;-0.0963273;-0.07198264;-0.022183739;-0.038479544;-0.10080869;-0.0857329;0.03601532;-0.051629826;0.06446703;0.15984422;-0.05106287;0.042858075;-0.036633376;-0.025053881;0.036486052;0.057105303;-0.13588218;0.02122204;-0.056854416;-0.00016561984;-0.05787373;-0.057721067;0.07904218;-0.097486734;0.008446302;0.08202855;-0.12765484;-0.09099256;-0.027641054;-0.096748754;0.16616824;0.047382914;-0.07358842;0.002247716;-0.047407854;-0.0026749524;0.061265294;-0.035866268;-0.00071880815;-0.16854233;0.0034846524;0.0197529;-0.020403171;-0.135182;-0.115466125;0.028202504;-0.1473608;-0.105255336;0.006400105;0.050397065;-0.14738238;0.022641305;0.089707725;-0.07238028;-0.092905104;0.1409743;-0.27132356;0.0680738;-0.120052226;0.08216857;-0.04596344;-0.00980665;-0.17324501;0.036367204;0.007135827;-0.002708062;-0.06258115;0.009661955;-0.046167113;-0.043944903;-0.017055517;-0.076780476;0.05540212;0.12327675;-0.03197893;-0.031840198;-0.006231438;-0.037328932;-0.01041361;0.033891417;-0.013128974;-0.21762316;-0.086792454;-0.028724914;-0.13020116;-0.081798546;-0.030549938;-0.087470554;0.046810918;0.03219214;-0.04507891;-0.09661476;-0.0065229307;0.073103964;-0.011995619;0.035276458;-0.034028914;-0.048188597;0.0092261825;-0.01050529;-0.006017942;0.042411245;-0.13854596;-0.052210238;-0.08382256;-0.017116267;-0.0069187074;-0.10343558;-0.21477418;0.017877892;-0.04937423
-0.07371815;0.078809455;-0.08504978;0.040050663;-0.11276894;0.07499505;0.08340387;-0.0969298;0.09262802;0.05705711;-0.056694932;-0.07114464;0.051272724;-0.07713209;-0.06133333;-0.056948546;-0.068430044;-0.012773709;-0.00033977075;0.06565898;-0.030472921;-0.06923195;-0.020598697;0.0052462784;-0.118529126;-0.12656473;0.03291951;-0.1395973;-0.04714228;0.044328943;0.0073361653;0.060949318;0.03348988;-0.006393376;0.11931796;0.02586566;-0.0247901;0.022142624;-0.026781222;0.02031;-0.07567161;0.06450366;0.022918086;-0.024264734;-0.11362428;0.0025646128;0.04541572;-0.11707157;-0.0051560374;-0.031798415;0.016259588;-0.0057940525;0.02443966;0.04931285;-0.15195388;-0.17690659;0.0023656087;-0.08936984;-0.06353054;-0.09336674;0.042181537;-0.07169514;-0.004590878;-0.0090004;-0.115596965;0.051621594;-0.06257409;-0.108846426;-0.0430108;0.0007819296;0.016710503;-0.032935694;0.06288883;-0.081282906;0.011890163;-0.05789434;-0.10520774;0.051330034;0.07766195;-0.14209758;-0.1694967;-0.005037861;-0.03098227;-0.07612053;-0.031014286;-0.034594946;0.025214441;-0.08849838;-0.09446292;-0.27144387;-0.13134438;-0.067418925;-0.1096835;0.028791351;-0.10564753;-0.18878151;-0.08085521;0.043126326;-0.04799054;0.036291864;0.076243736;0.07408185;-0.103527695;0.047250673;-0.080903076;-0.093406275;-0.10523454;0.07967107;-0.049831517;0.13599332;0.06466858;0.044450082;-0.095439605;-0.09821983;-0.22639148;-0.04052183;-0.19036253;0.0703618;0.016957607;-0.044591352;-0.19639313;-0.095061734;-0.15245895;0.061162923;-0.060955234;0.06618442;-0.093376465;-0.15745026;-0.10575816;0.035793383;0.04114931;-0.087221846;-0.1749911;0.056145515;0.007391765;-0.06808113;0.013453288;0.03264029;0.034701698;0.018418375;-0.025910603;-0.09219434;0.09492145;0.088576585;0.118090004;-0.044449463;-0.0017835516;0.035910744;-0.088657826;-0.036411114;0.015738731;-0.04663343;-0.044093326;0.01691213;-0.10536818;0.03404499;-0.0067627677;-0.046669655;-0.19431306;-0.06405386;-0.10346897;0.0332161;0.012584029;0.08351178;-0.046865683;-0.076892935;0.0033107705;-0.040909916;-0.06306586;0.02927514;-0.017468467;0.05760569;-0.026454892;-0.016779514;0.039530635;-0.0457896;0.028270625;-0.17859904;0.021729434;-0.005227954;-0.15393518;0.091604106;-0.081889;0.12116644;0.016630188;-0.16188319;-0.07282485;-0.021980409;-0.077945806;-0.02596617;-0.03282729;-0.03709656;0.10926084;-0.028546533;0.008382396;-0.08634953;-0.09188121;-0.21627845;-0.12584522;0.006168677;-0.018234674;-0.04414801;-0.10533662;-0.11832001;0.02223604;-0.0059646377;-0.052886713;-0.035949536;0.0010801554;-0.027229112;-0.10797038;-0.11541214;0.059075527;-0.030579397;-0.09665161;0.013993843;-0.22684306;-0.06852502;-0.032737684;-0.16667877;0.0032856811;0.033931915;-0.030306164;0.02859049;-0.13237475;-0.052818;0.006612005;-0.104544796;-0.08551619;-0.050576624;-0.084814906;-0.038310796;0.08174785;-0.14584817;-0.07878784;-0.048688583;0.0043557133;-0.045277584;-0.112056;0.0042395056;0.02120943;-0.06766378;-0.044565007;0.066338554;-0.011859672;-0.109153196;0.007897501;0.054729167;0.039238364;-0.046513535;-0.004442945;0.032079715;-0.12886211;-0.2149139;-0.046401147;-0.054096084;-0.027416708;-0.11995234;-0.06411009;-0.063683696;-0.049262404;-0.11976034;-0.05727076;0.029446734;-0.048950396;0.13973026;-0.020696167;0.0074366936;0.030704204;-0.03901092;0.04542241;-0.17703007;-0.03290915;-0.03320454;0.06595292;0.0136013515;-0.15581705;-0.018888425;0.11889454;-0.061269876;0.0013426074;-0.06713188;-0.0303528;-0.046363704;0.006760348;-0.03393477;-0.02342733;0.06688105;-0.029923704;0.015448651;-0.2582029;-0.07685166;-0.070147365;-0.012972945;0.04977649;-0.050750133;-0.1359085;-0.19528097;0.008521823;-0.1205805;-0.018664267;-0.0730286;0.00509014;-0.22687577;-0.15154575;-0.004576609;-0.0072183493;0.035622228;0.008763776;0.03267782;-0.10301862;0.015394084;-0.09818383;-0.028268415;0.0820527;-0.092987135;0.06733274;-0.064372666;-0.039263595;0.0732606;-0.045807306;-0.058932785;-0.0788901;0.10790098;-0.022010798;-0.03698822;-0.0054788333;-0.08145836;-0.03251413;-0.06383761;-0.055494383;-0.21483703;0.06297644;-0.010415307;-0.04274931;-0.09457867;-0.17030205;-0.071727246;0.1089932;-0.00644309;-0.048094828;0.067283265;0.048883643;-0.06398894;-0.0068801437;-0.015495653;-7.3556956e-05;0.007536135;-0.07214191;-0.08770696;-0.050710645;-0.09124204;-0.07659533;-0.047136825;0.062108845;-0.15595792;-0.10430997;-0.030473081;-0.022493603;-0.041668616;-0.09365897;-0.12543124;0.017232446;-0.031184064;-0.030656258;0.0340878;0.04781443;-0.06231517;-0.04690836;-0.079052165;-0.07795261;-0.1231144;-0.08509601;-0.083482526;0.10328285;-0.1470881;-0.10196944;0.0946287;-0.09596846;0.016684063;-0.12376232;0.006480751;0.11246487;-0.030660544;-0.10513663;-0.129649;-0.08523001;0.005527177;-0.07266176;-0.021156678;-0.10250362;-0.11938663;-0.03732305;-0.037065875;-0.19463953;-0.08499346;-0.027501777;0.039500624;0.10691003;0.15681534;-0.16868415;0.025715128;-0.003803334;0.010930948;-0.09134007;0.04335262;0.0094151655;0.15898857;0.03161074;-0.14309321;0.024384515;-0.0054662754;-0.08266311;0.056060415;-0.090216056;-0.1783707;-0.04069471;-0.14962444;0.042442884;-0.0331472;-0.13861722;0.024721405;0.03965168;-0.15193594;-0.021991236;-0.116984695;0.024464568;-0.09850203;0.023145763;-0.054101136;-0.039455388;0.08516489;-0.21207303;-0.109012425;0.003937045;-0.07425423;0.05874107;-0.102112725;-0.09987133;-0.094955504;-0.07597632;-0.02377634;-0.08194274;0.013986088;0.054858353;0.056620277;-0.016963543;-0.09661405;0.009164711;-0.07618671;0.03024521;-0.12332554;-0.05684224;0.021989048;-0.07081437;-0.0014905125;-0.016588893;-0.19553348;-0.035757706;-0.0972486;0.051845063;-0.016063247;0.031222532;-0.04637078;-0.05413844;-0.066364944;0.010559604;-0.008601153;-0.014037468;-0.04540249;-0.01500194;0.030691607;-0.040806312;-0.060071696;0.14742616;-0.042147525;-0.028296541;0.050462276;-0.10478212;0.015732778;-0.011287093;-0.11209949;-0.10026813;0.004476629;-0.09662004;-0.025087742;-0.1186564;0.058134276;-0.09418957;-0.121542335;0.0468361;-0.108964816;-0.058429316;-0.10531443;-0.09365133;0.013527627;0.02375993;-0.086948365;-0.07096042;-0.0019782553;-0.06283868;0.010919985;-0.03491319;-0.043491;-0.008211678;0.09134153;0.036568835;-0.041785203;-0.049648184;0.0061055357;-0.1127258;-0.06009538;-0.13094871;-0.10478543;0.07475546;-0.06469941;0.0018475783;0.009075783;-0.08637873;0.029578896;0.1604523;-0.272519;0.050846104;-0.047223862;0.039485123;-0.055303592;0.029159;-0.08606156;0.058850568;-0.06105536;-0.101643026;-0.020707175;-0.03709631;-0.090848476;-0.070428275;0.06083871;-0.0064494954;-0.028207006;0.0066865296;0.015349276;0.07543045;-0.1337523;-0.024490755;-0.075796515;-0.0076596956;-0.019212922;-0.096812256;-0.062033452;-0.03446236;-0.14171508;0.004450066;0.042688303;-0.12404359;-0.07867232;0.053017695;0.005996643;-0.014587666;0.04109016;0.031426456;0.018794497;0.070173115;-0.010368806;-0.066380166;0.0020777942;-0.10110923;-0.105658665;0.021091646;-0.13881105;-0.10674409;-0.08184056;-0.06553765;-0.0014911906;0.030737188;-0.19485615;-0.07910483;-0.089067906
-0.030548103;-0.040810645;-0.019689955;0.03715881;-0.13406304;0.08643566;0.071664535;-0.0021075723;0.04745703;0.04141892;-0.0041046515;-0.06557276;-0.028802358;-0.05916118;-0.09609154;0.0013411214;0.036417842;0.0086628245;0.020551993;0.06623054;0.014835066;-0.06433284;-0.020399787;0.011560579;-0.057642348;-0.09236476;0.05933055;-0.14792529;-0.087758906;0.09261257;0.003873759;0.073902786;-0.01035964;-0.10726519;0.1347682;0.04591275;-0.03187377;-0.10319072;0.030892776;-0.028821452;-0.09683705;-0.002293706;-0.07241166;0.031396203;-0.14980125;-0.019275049;-0.03317485;-0.15322693;0.015157406;-0.048504982;0.13083051;-0.052622426;-0.058594223;-0.026022881;-0.23434098;-0.20896469;-0.015185122;-0.05628468;-0.029557038;-0.17698729;0.06241329;-0.056526076;-0.008486976;-0.041984186;-0.055728197;0.025644751;-0.09757429;0.06238911;-0.024265992;-0.071095906;-0.028000847;-0.032175336;-0.05013595;-0.038955096;0.03254081;-0.018423999;-0.073262006;0.027990907;0.052446205;-0.07565977;-0.07977566;-0.09604047;-0.061588045;-0.006398885;-0.0708364;-0.03542873;-0.015210643;-0.10361469;0.0022463966;-0.25277662;0.019389713;-0.10704681;-0.03686715;0.090713665;-0.105123386;-0.050218515;-0.083577834;0.009548001;0.013537225;0.023129856;0.06767805;0.003551837;-0.15305033;0.101780124;-0.06243835;-0.074221954;0.02949114;-0.04804882;-0.08840474;0.09798408;0.06729515;0.026257325;0.040106595;-0.080911316;-0.15940948;-0.044656266;-0.10417566;0.0460562;0.08158331;-0.15731058;-0.09722359;-0.01523343;-0.15768167;0.0011606327;-0.032889515;-0.05290938;-0.18793333;-0.12878112;-0.1453313;0.031827606;-0.072818875;-0.13008477;-0.17604646;-0.035988405;0.025564067;-0.020872882;0.0052805785;0.049325984;0.05176128;-0.023998324;-0.012067578;-0.020182682;-0.035754245;-0.032456633;0.09461802;-0.022571595;-0.03423872;0.016982;-0.022062903;-0.006041003;0.06956494;-0.13084929;-0.040493008;0.009204414;-0.001079855;-0.052436516;-0.014796215;0.009780667;-0.2682003;-0.123419106;-0.11293558;0.03980463;0.022069117;0.05390314;-0.12812655;-0.13125758;-0.024000496;-0.036605433;-0.06446265;-0.08276703;-0.051152106;-0.026460892;-0.11526033;0.045170635;0.011980426;-0.15649693;-0.106211;-0.17099608;-0.0178297;-0.011979767;-0.04307438;0.1722363;-0.07739126;0.03871683;0.08409141;-0.16980925;-0.09095759;-0.123367965;-0.1284039;-0.0721918;0.015074659;-0.11030998;-0.041654803;-0.08837928;0.08396559;0.011031134;-0.022960585;-0.124269515;-0.06557591;-0.08920384;-0.0744368;-0.09761286;0.028265066;-0.10000018;-0.019730736;-0.068290904;0.06069476;0.055523414;-0.049910165;-0.0800705;0.046827994;-0.02683415;-0.022856152;-0.099675484;-0.0372772;-0.06614905;-0.15165913;0.008781674;0.0011971785;-0.20851842;-0.10086546;-0.030223614;-0.12403777;0.0084647825;-0.17896068;-0.0069928034;-0.054347478;0.025815463;-0.07051347;0.04397386;0.049785078;-0.045293976;0.05333981;-0.12456672;-0.04000248;0.052517153;0.016073592;0.0747895;-0.14853486;0.004278185;0.04562679;0.032920063;-0.0865386;-0.050069775;-0.01882524;0.00976108;-0.1138089;0.08895559;0.0061555533;0.05075755;-0.09750154;-0.027445862;0.0028629918;-0.09882326;-0.024003986;0.060759913;-0.059989803;-0.1366598;-0.11324728;0.022799846;-0.016066795;0.01291872;-0.046090037;0.06046072;-0.0112000825;-0.00088202825;0.09100463;0.048114434;-0.07308149;-0.07361958;-0.043401815;-0.10013605;-0.010044832;-0.048201803;0.09955463;-0.102105245;-0.012101901;0.060937107;0.035800256;-0.02784852;-0.0035179714;-0.060424507;-0.049182083;-0.040399723;-0.027621048;-0.014640252;-0.0068326313;-0.05210554;0.002796153;0.0050154226;-0.20042342;0.015967136;0.029537914;0.012468065;0.0039662654;0.0052237236;-0.11543315;-0.05154577;0.0037780467;-0.03822635;-0.055043366;0.03274205;0.016192833;-0.20681994;-0.12158886;-0.0391519;-0.0831813;-0.01541007;0.0902527;0.06629215;-0.13618587;0.052709088;-0.054805048;-0.07342405;-0.002068508;-0.059192847;0.012102047;-0.00081425527;0.017855667;0.051656;0.06289603;-0.12799674;-0.17076518;-0.033309232;-0.1733816;-0.008658472;-0.017240282;-0.050456516;0.04167977;-0.049521077;-0.1791511;-0.24311896;-0.022616802;-0.06633246;-0.032876205;-0.054273345;-0.23698846;-0.07246688;0.09647109;-0.013281783;0.059312865;0.19912265;-0.026097072;0.049568787;-0.031240003;-0.041505788;0.025614673;-0.05919885;-0.024036648;0.052148532;0.0353534;0.037272934;-0.011810101;-0.0075475466;-0.028951552;-0.09163957;-0.044387046;0.016232535;-0.10262427;-0.11280305;-0.107039504;-0.00200218;0.06702622;-0.0073923;-0.08612068;-0.019842;-0.015354412;-0.108961806;-0.08471518;-0.04454353;-0.029423334;-0.07605183;-0.014598038;0.06561224;-0.00876782;-0.044383902;-0.085083894;-0.02662832;-0.008971119;-0.0026778986;-0.113161355;-0.059101935;-0.0049367943;-0.00024732994;-0.013681026;-0.029870939;-0.074675396;0.047905196;0.035163783;0.038065664;-0.14229092;-0.003745029;0.038888242;-0.044681687;-0.1504586;-0.03168514;-0.030714331;0.061473254;0.11038568;0.059896085;-0.15231329;-0.066120565;-0.043861527;-0.113547504;-0.02205431;0.016853858;0.01807495;0.10435757;-0.0021626917;-0.15876898;-0.107466556;-0.013107679;0.008289361;0.027985407;-0.09895824;-0.1940459;0.037931755;-0.030033855;0.043300368;0.033365823;-0.016263025;0.036243204;-0.02205396;-0.10026995;-0.017694483;-0.026273776;-0.039337378;-0.11051973;-0.026448388;0.08557089;-0.039527476;0.04914686;-0.18392275;-0.0053968034;-0.075846955;-0.0064152703;0.05323496;0.028408654;-0.05289283;-0.13043411;-0.003103099;0.050406933;-0.090868235;-0.08700638;0.027459508;0.048714787;-0.06878176;0.02015211;-0.08827054;0.019573912;-0.06450418;0.02036402;-0.08921207;0.0028533437;-0.010514454;-0.0031016849;-0.11082199;-0.18945286;-0.13550277;-0.13850921;0.03813207;-0.05378299;0.081577666;-0.07000829;-0.048799224;0.012181801;0.012473622;-0.014132198;-0.08284975;-0.00022104186;-0.1579793;0.020639319;0.021655582;-0.035821144;0.11397665;-0.04039918;-0.057687264;0.09025931;-0.010080313;-0.07096987;0.04552974;-0.10896782;-0.10665385;0.094837494;-0.10231764;-0.01008063;-0.023248343;-0.024970073;0.026532719;-0.10796085;0.040948883;-0.03099926;-0.101021655;0.0387693;-0.09301931;0.14986517;0.06367073;-0.11177934;-0.11211811;-0.009568305;-0.09134324;-0.005226901;0.04960764;0.051239476;-0.15232319;0.035247575;-0.015237276;-0.12134625;-0.08632501;-0.07919436;-0.03633894;-0.18390547;-0.12544757;-0.08427464;0.12133333;-0.21598606;0.058811884;0.081150025;-0.12588364;0.015244248;0.1102264;-0.24776193;0.1710923;-0.07546104;-0.029907798;0.045152925;0.0076486757;-0.1869512;0.06487867;-0.029531632;-0.05950701;-0.037644807;0.056361035;-0.055638384;-0.06559656;0.04253349;0.018783065;0.030918604;0.14554614;-0.10675932;0.021375462;-0.0058640824;0.024964152;-0.12376711;0.026837396;0.016594287;-0.24231653;0.049809642;-0.053602614;-0.19324127;0.05142269;0.04694354;-0.001340751;0.0336002;0.007049832;0.07534829;-0.09674166;-0.05753597;0.1460847;-0.039725445;-0.025686206;0.07051724;-0.001767963;-0.11123657;0.029114738;-0.08905376;0.10702355;-0.031693958;-0.01169073;-0.057399035;-0.029438011;0.026043802;-0.04207207;-0.19688381;0.066335805;0.047431637
-0.06399281;0.008032134;0.06333274;-0.019667553;-0.056290336;0.07014876;0.15089546;-0.04099941;0.07440551;0.03347138;-0.007929016;-0.09444788;-0.020469004;0.028007258;-0.046604894;-0.043177944;-0.064206615;0.055774704;0.0054185577;-0.037753448;0.058402285;-0.056172047;-0.07181034;-0.049792018;-0.04116306;-0.1224534;0.022341551;-0.10884235;-0.16692767;-0.01429582;-0.014067064;0.14298825;-0.03582253;0.012127862;0.0610526;0.0019786332;-2.3046916e-05;0.051931657;0.030765397;0.050906084;-0.055343024;0.009348466;-0.059299015;-0.06929803;-0.10439175;0.037665814;-0.120555;-0.09288604;-0.08355716;-0.12635502;0.10483588;0.031776525;-0.0142015945;0.036124043;-0.24901898;-0.08243413;0.0991832;0.0038995242;-0.11847864;-0.12613925;-0.057777464;-0.055735007;-0.099350154;-0.05550972;-0.08218204;0.048801504;-0.052040964;0.0047071353;-0.07348189;-0.048744526;-0.07772723;0.0212288;-0.0714712;-0.05015866;0.008933182;-0.1503841;-0.1843409;0.08332092;0.05920097;-0.12565549;-0.05253952;-0.06154822;0.07034496;-0.071374185;-0.052469287;-0.109361134;-0.09360819;-0.0035297722;0.013049145;-0.26059148;-0.022385549;0.0044659185;-0.043378796;0.12862864;-0.20281641;-0.19320779;-0.15354839;0.02540559;-0.119389355;-0.0512632;0.056046776;0.054631475;-0.1448894;0.097821124;-0.05382345;-0.048795875;0.043203544;0.035512898;-0.032372184;0.07031768;0.019234728;0.058526598;0.035629213;-0.030798675;-0.07771378;-0.007852988;-0.16694908;0.04054349;0.1254481;-0.124617405;-0.115253635;-0.032262143;-0.1129232;0.06333593;-0.12219536;0.07306306;-0.16741332;-0.14306095;-0.12019209;0.08167676;-0.10566363;-0.09221176;-0.1932333;-0.027403714;-0.07502917;0.040118493;-0.026505923;0.033303857;-0.09583341;-0.072075844;-0.08211253;0.050667003;-0.01069087;-0.028763162;0.1677598;-0.08659695;-0.07927118;0.023370698;-0.0725672;0.026809895;0.052586444;-0.091752626;-0.081295505;-0.097065695;0.011522726;-0.079123385;-0.07202027;-0.022066876;-0.19589823;-0.057674665;-0.0679831;-0.10150941;0.12282207;0.0673192;-0.084082164;-0.026501765;-0.033679657;0.006722522;-0.100825936;-0.001978391;-0.082871765;-0.030344509;-0.023857554;-0.04485007;0.033514;-0.0062460597;-0.04207984;-0.16535895;-0.05801649;-0.07716711;-0.14554928;0.05788711;-0.2161602;0.13184078;0.044585165;-0.14595906;0.0037015171;-0.13696334;-0.1257767;-0.017527103;-0.08174941;-0.11316161;-0.03972837;-0.04221747;0.041322958;0.042744424;-0.028060284;-0.16940108;-0.11021568;0.014222402;0.020978423;-0.08747639;-0.08385858;0.023090966;-0.06903553;0.07394234;-0.08486003;-0.08825376;-0.07367842;-0.0531637;-0.09945327;-0.015754757;0.055646084;-0.015284353;0.01913203;-0.085585736;-0.08029712;-0.12459164;0.04684134;-0.11614925;0.01485864;-0.022345005;-0.100398906;0.031335138;-0.09500926;-0.09945208;0.058516186;-0.00662134;-0.12362548;-0.026400784;0.013165622;0.028587716;0.072456345;-0.094620556;-0.06870288;-0.06511645;0.021338103;0.022443771;-0.13081186;-0.09764134;-0.10768191;-0.03861725;0.0073104994;-0.052663326;0.052448407;-0.07591461;-0.09573587;0.07125985;0.044084173;-0.073701374;-0.07794996;-0.08701423;0.0044616684;-0.21037383;-0.092563055;0.051318195;-0.00293186;-0.0051582926;-0.12479839;-0.06687809;0.032573473;-0.11475022;0.03771629;0.08546471;-0.0171441;0.10869681;0.09361517;0.04826404;-0.08290868;0.011266847;0.015017537;-0.0787044;0.065552615;-0.080457315;0.042641617;0.021628272;-0.0738442;-0.010618826;0.060306564;-0.10251787;-0.049426712;-0.0019055273;-0.09993414;-0.08707569;-0.015690997;-0.12739658;-0.06937071;0.015722103;-0.021215688;-0.012034482;-0.16888276;-0.05272749;-0.06950943;-0.1073789;-0.00810896;0.035633024;-0.11057244;-0.04080841;-0.06877882;-0.056624003;0.022361632;-0.059892982;-0.016669037;-0.21319713;-0.11071296;-0.017330386;0.028244305;-0.0072726407;0.12023535;-0.016751865;-0.14792813;-0.038360097;-0.12260929;-0.060986433;-0.018161375;-0.08979677;-0.011521984;0.07067376;-0.07824684;0.075958565;-0.001441527;-0.10430239;-0.065721646;0.04881006;-0.0449408;0.03239816;-0.052933328;-0.09239027;0.0055092196;0.06896525;-0.16809604;-0.23530309;-0.098858796;-0.061076637;-0.1441438;-0.13041137;-0.18923949;-0.05101119;0.014450813;-0.17602256;0.08127955;0.18675993;0.019714177;-0.02529532;-0.039626718;-0.03177733;0.08554435;0.011220608;-0.019735444;-0.042488992;-0.00813064;-0.008931982;-0.0494508;0.06705926;-0.060517058;-0.03415717;-0.022726327;-0.11900872;0.044303644;-0.16316889;-0.07274085;-0.05895931;-0.053735774;-0.09125308;-0.020128472;0.03633175;0.035762712;-0.062705964;-0.07435105;-0.038166136;0.0258778;-0.15919876;-0.04118243;-0.051866066;0.07776168;-0.0746873;-0.09569342;-0.020137561;-0.010528967;0.058993846;-0.09137902;-0.09164089;0.079806894;0.061454378;-0.045052115;-0.054695304;-0.038513027;-0.005722256;-0.08954306;-0.10003816;-0.05168119;-0.002276069;0.029216478;-0.10024411;-0.09841717;-0.07153171;-0.095020324;-0.0048707174;-0.029567167;0.07706224;-0.23681101;-0.048702247;-0.08850053;-0.0090539595;-0.019892173;0.002012844;-0.114465326;0.05186622;0.035502695;-0.1528326;-0.060328066;-0.09672295;0.005867311;-0.03400748;0.049968373;-0.10323003;-0.010218475;-0.060897596;0.009703262;-0.022849886;-0.07130376;-0.06940221;-0.025256999;-0.07792052;0.067635976;-0.05844382;-0.012321097;-0.015829762;-0.06423102;0.06485586;0.045825128;0.11297383;-0.16203974;-0.025703995;-0.0048003537;0.03367538;0.09715736;-0.0119864615;0.03721435;-0.14269175;0.03712457;-0.0035232184;0.048309192;-0.037286017;-0.0074028927;0.025908977;-0.03203246;-0.09790539;-0.10699787;-0.10796464;-0.021067562;-0.012244273;-0.03392484;-0.049256068;-0.014241996;0.01188862;0.010751961;-0.24998088;-0.1310203;-0.01667049;0.018405218;0.013555468;0.09584428;-0.12661356;-0.034892816;-0.10577566;-0.037957586;-0.101644225;-0.08324486;-0.014084848;-0.15192728;-0.082052685;-0.025787544;0.10756393;0.13029894;-0.07989307;-0.037458625;0.12606859;-0.024478985;0.014883687;-0.06602036;0.0031675654;0.008416941;-0.022216322;-0.12301525;-0.025278749;-0.10025885;0.03191102;-0.062221844;0.0018987067;0.014803511;-0.12932193;-0.16940118;0.024188334;0.0477274;0.04475793;-0.054267924;-0.067127265;-0.030955218;0.017304879;0.0016044141;-0.06627791;0.006805609;0.020114979;-0.100446284;0.054184638;-0.020513687;-0.079679616;-0.08008972;-0.028721822;0.014780212;-0.06674549;-0.03359826;-0.016164234;0.071876414;-0.06550001;0.023848597;0.020990927;-0.15569827;0.023584183;0.0910542;-0.14023772;0.078292295;-0.18073848;-0.048277162;-0.022727141;-0.003775551;-0.0955323;-0.057631556;-0.014203196;-0.03501868;0.048534244;0.086576335;-0.094218545;-0.05378267;0.05815509;0.0074408357;0.025460247;0.09889843;-0.04362501;-0.0702917;-0.016886765;0.021395909;-0.03142917;0.02637498;-0.09428019;-0.17745695;-0.0012775012;0.053489335;-0.17345394;-0.010082027;0.0587897;-0.09042876;0.005117231;0.0343038;0.021593817;0.029007329;-0.018236151;0.15005797;-0.077511705;-0.0518986;-0.023258965;-0.03837715;-0.062549844;-0.040526457;-0.108462445;0.16015837;0.024141261;-0.0750007;-0.12502545;-0.09587615;0.053202905;0.044988308;-0.24505666;0.037154958;-0.051560942
