Weights from input to hidden layer.
0.08191813;-0.05699152;0.07975708;-0.0776746;-0.110902496;0.016930735;0.019251019;-0.10796582;0.037440296;-0.06826181;0.024870913;-0.001800514;-0.010889846;-0.010385022;-0.03635351;0.024035176;0.050361577;-0.1312647;-0.0024044225;0.12176209;0.23676962;-0.10070412;-0.11666156;0.026335754;-0.050616074;-0.18327996;-0.014198801;0.16820884;-0.1382242;0.15009955;0.023576304;0.21839981;-0.05780652;0.034793098;-0.008572529;-0.08058614;0.0018924243;-0.011788905;-0.037005313;-0.13242957;-0.024066266;-0.1459819;-0.023920028;0.0454747;-0.16612309;-0.036084738;-0.07914455;-0.11536943;-0.056389786;0.13644749;-0.05879902;0.09076304;-0.009283994;0.15809405;-0.14590454;0.10261187;-0.117965;-0.08989661;-0.13442926;-0.08727048;-0.16873582;-0.18447433;-0.016221078;-0.15507194;0.093102634;-0.21070711;-0.008805994;-0.07553819;-0.106987625;-0.1478116;0.0074340627;-0.13095641;-0.06231582;-0.01619167;0.035683677;-0.11143797;-0.09209132;-0.031236801;-0.005559123;0.069606796;-0.20628951;-0.054913137;0.078278184;-0.07592782;-0.11607927;0.06514994;-0.091645725;-0.14261003;-0.13531958;-0.095624425;0.022897843;-0.0031536792;0.03036685;-0.025237694;-0.10353518;-0.15613966;-0.05320769;-0.051692743;-0.12686276;-0.0052333237;-0.10099538;-0.07585689;-0.09091424;-0.1268241;-0.080580585;-0.12065063;-0.046009604;0.013642323;-0.13887425;-0.14526694;-0.112899974;0.018076198;0.038620997;0.0829006;-0.11939835;0.016579088;-0.01240847;0.14776033;-0.012631757;-0.0058349906;-0.07290149;0.032721974;0.034389228;-0.10520618;-0.087043084;-0.18112919;-0.1250324;-0.07950967;-0.015899492;0.21653602;-0.12740873;0.054565884;-0.048418365;0.009770489;-0.09176797;0.0009911049;0.052076835;0.1156544;-0.15473215;-0.08514386;-0.09227886;0.081262685;-0.04466876;-0.07022753;-0.09227138;-0.0868119;0.0689136;-0.035008356;-0.117970675;0.00861481;-0.020844698;-0.13684574;0.03967009;-0.0228766;0.040485173;-0.16246945;-0.16273412;0.12189997;-0.11172747;-0.06515686;0.0388514;-0.10340604;0.028047329;-0.14950077;0.017728508;-0.055470895;-0.08430579;-0.007523024;-0.11262231;-0.0009875823;0.088413045;-0.005189201;-0.09230769;0.10474182;-0.078214265;-0.0021959413;-0.12031138;0.042483278;0.03432079;0.024627374;-0.064965576;-0.17210591;-0.12630805;-0.02136005;-0.10643118;-0.02613938;-0.09716435;-0.024117347;-0.03333128;-0.06036571;-0.10072286;-0.060761005;-0.09074239;-0.15847929;0.16974503;-0.06328656;-0.088613816;-0.1521732;-0.09455376;0.03407173;-0.037322156;-0.10235827;0.049833264;-0.09519412;0.008227067;-0.0723751;-0.08812644;0.03829093;0.018769758;0.018411454;-0.010079539;0.022587;0.0034976017;-0.02947108;-0.11167155;-0.10453039;-0.072376855;-0.026756993;-0.019280732;-0.08475989;-0.04462638;0.009444333;-0.052759886;-0.039062664;-0.119379885;-0.07704523;0.11986393;-0.16088432;-0.0935672;-0.1645157;-0.06892159;0.031221941;0.046464704;-0.012427273;0.015169979;0.117478035;-0.056031115;-0.069889806;-0.13487823;0.074645415;0.057119094;-0.123115055;-0.011746474;-0.08745964;-0.03591059;-0.049471233;-0.067888975;0.052120272;-0.040715296;-0.07401873;-0.13145773;-0.115557775;-0.0064035705;0.06160563;-0.06502567;-0.07723757;-0.007687125;-0.034981783;-0.056017436;-0.10483365;0.012094185;-0.08958025;-0.114795186;0.012643818;-0.02016767;0.041224144;-0.002473354;-0.13104008;0.0011715468;-0.031844176;-0.06757742;0.058163848;-0.07572856;-0.009600166;0.083291724;0.045513656;-0.06404953;-0.10440174;-0.14339042;-0.15442507;0.020622818;-0.24323347;0.03848575;-0.06904813;-0.13615252;-0.045202572;-0.03553794;0.0080564935;0.03724934;-0.030373564;-0.11190133;-0.20910999;-0.020760825;-0.015466442;-0.10339269;0.1618162;0.037886906;-0.022683125;-0.2668525;0.02291257;0.03349446;-0.09166847;-0.016071724;-0.04512308;-0.098440565;0.028264672;0.06291271;-0.20400266;0.006329495;0.014228317;-0.046939716;0.019317226;-0.082014486;0.009811257;0.05645416;0.10137758;0.020696322;-0.013019769;0.0011546809;0.0020395855;-0.026762323;-0.123750575;-0.12212608;-0.1291592;0.10758426;-0.07169464;-0.08485589;-0.123597495;0.011213085;0.024917468;0.0765725;0.124792285;0.04369308;-0.09650273;-0.030730467;0.07514846;-0.018095301;0.015038855;-0.11933016;-0.033377085;-0.1813861;-0.031600162;-0.059048545;0.1430301;0.117014475;-0.16412607;-0.053488616;-0.07212264;-0.038530607;-0.0014645879;0.004444515;0.1503636;0.11940336;-0.07172829;-0.033168856;0.009554099;-0.08993029;0.1194249;0.17950952;-0.08569549;-0.12522104;-0.105749294;0.042235095;-0.05685419;-0.02109156;0.00080690027;0.009513746;0.092389576;-0.09656824;0.09817831;-0.09834809;-0.08356451;-0.06236696;0.033219337;-0.119166456;-0.11082026;-0.050713193;-0.114701405;-0.047126997;0.062481318;-0.04425427;-0.011569339;0.0008425315;0.07503661;-0.17686725;-0.027101088;-0.12398421;-0.12095335;0.0030149051;0.012913081;-0.084684595;-0.16048539;-0.011816636;-0.02078849;-0.056780778;0.024141086;-0.009760626;-0.10243937;0.08152246;-0.091442026;-0.01927429;-0.0814411;-0.00065636693;0.02101374;-0.004088907;-0.009805376;-0.041110486;-0.12533307;-0.033930898;0.05531198;-0.07297794;0.01085339;-0.07737465;-0.110456795;0.051918652;0.11010891;-0.14342926;-0.09320892;0.019165365;-0.21085711;-0.09681517;-0.040579524;-0.11985356;0.006139101;-0.020856319;0.046168648;-0.07247573;-0.019575387;-0.0018526685;0.028681893;-0.0855016;-0.039079368;-0.08599433;-0.13859905;0.0025361327;-0.07097103;-0.065991774;0.16433795;-0.014755652;-0.14745815;-0.03224666;-0.008109978;-0.12709446;0.00484069;-0.015891895;-0.03913056;0.169814;-0.1353427;-0.10737794;-0.124716856;-0.118244305;-0.017306471;-0.044925593;-0.06507196;-0.005406481;0.015628068;-0.055185188;-0.060202546;0.020404026;-0.11912064;0.02583684;-0.09684372;-0.015776679;0.020163678;-0.13491459;-0.0809584;0.010714518;0.030771837;-0.15931906;-0.09463107;-0.07864815;-0.09723724;-0.017202742;0.01676295;0.091529734;0.0084756445;-0.09736702;-0.12948143;-0.033437494;0.004441874;-0.071158044;-0.107754275;-0.10735333;0.01789522;0.14959691;0.0023884377;-0.013574931;-0.096920036;-0.11318653;-0.05653448;0.043928143;-0.10523801;-0.0022816507;0.16942064;-0.020560946;-0.048908416;0.008224742;-0.036725942;-0.033997573;-0.075155154;-0.13831834;-0.025835967;0.034244284;-0.08361659;-0.004557938;-0.05237459;0.033450004;-0.054584187;-0.18400964;0.09140208;-0.10862648;0.073462166;-0.1299583;-0.06414467;-0.031306908;-0.025468599;-0.12838154;-0.032745942;-0.054904755;-0.14006959;-0.21448758;-0.025927668;-0.13002494;-0.08827813;0.01506709;-0.0069731264;-0.06938689;-0.08259556;-0.0383496;-0.059199344;-0.113764286;-0.056401446;-0.012597612;0.038001765;-0.11037878;-0.10739231;0.06243962;-0.044276852;-0.0016008624;-0.053184744;-0.004993951;0.031037988;-0.11199282;-0.029311229;-0.06030057;-0.097236976;-0.0659909;-0.11223475;0.0347337;-0.10804815;-0.13670751;-0.08700074;0.08605064;-0.047787078;0.020639056;-0.10148547;-0.021700038;-0.29319653;-0.01582879;-0.12460447;-0.019357357;0.094526865;-0.035585735;-0.094076;-0.08910742;-0.038474858;-0.050763562;-0.080461;-0.07995715;-0.11759855;-0.120099835;0.043605965;0.029922599;-0.020553358;-0.13474238;0.042273726
0.0934075;-0.13274477;-0.013956253;-0.06506329;-0.16094618;0.009998136;-0.14015335;-0.22674713;-0.038332794;-0.10274434;-0.0093925735;-0.03980227;-0.014484832;-0.019905796;-0.047045335;-0.078636706;-0.058869008;-0.08304103;0.05418861;0.094722964;0.12624545;-0.10529076;-0.103555985;-0.04315648;-0.12585242;-0.18002735;-0.06801579;0.03531654;-0.112325944;0.13643436;-0.02148696;0.0793815;-0.0899748;-0.07536114;-0.0042065475;-0.011707696;-0.03948106;-0.07398818;-0.17204557;-0.02737102;-0.0877802;-0.17720677;-0.04991481;0.07599412;-0.26939753;-0.11295421;-0.0650409;-0.062461786;-0.0039730454;0.008776276;-0.019934582;0.017515212;-0.075304285;0.1167385;-0.017357323;0.025096638;-0.08809812;0.023485772;-0.07300804;0.03423205;-0.11213938;-0.23415308;0.018792938;-0.16105197;0.09694455;-0.17879951;0.02079368;-0.14941008;-0.16737431;-0.110368714;-0.13010584;-0.033917613;-0.12412338;-0.011229606;0.035605222;0.018245628;-0.08159233;0.023657259;0.038479805;0.03305412;-0.081166014;-0.03552198;0.16698809;-0.15315644;-0.058134623;-0.030445;0.01970112;-0.09409715;-0.081414804;0.0087708905;-0.021248909;-0.11424249;-0.024198968;0.043909412;-0.17291617;-0.037399918;0.036919285;-0.053600717;-0.13527015;0.013453431;0.024926517;-0.05438811;-0.054999243;-0.09042825;0.042664148;0.009720957;-0.031166349;-0.022299858;-0.19271843;-0.032026008;-0.18231693;-0.055531714;-0.005229787;0.039471958;-0.04654303;0.009171437;0.01910754;0.06872775;-0.077739626;-7.090835e-05;0.0060673873;-0.0754162;-0.036355313;-0.15403447;-0.054104313;-0.07214554;-0.016866535;-0.08497733;-0.088187575;0.12362812;-0.049218733;0.067891866;-0.013509132;-0.020498678;-0.060347896;-0.05964919;-0.0758306;0.16804859;-0.050583526;0.066039115;-0.09024062;0.022119075;-0.05268902;-0.016302807;0.015581849;-0.10474719;-0.023257498;0.035869125;-0.023568973;-0.03437034;-0.011628211;-0.100470066;-0.0072726165;-0.09261428;-0.05728835;-0.19780213;-0.086020105;0.08442586;0.024737703;0.04127058;0.01858105;-0.02614739;-0.0019267403;-0.099367455;-0.01608869;0.010581373;-0.0077752136;0.046660807;-0.08937599;-0.021411814;0.10058473;-0.06649665;-0.03808517;0.0745077;-0.12951966;0.037791412;-0.040659305;-0.0077523366;0.055265658;0.030710923;0.09125613;-0.03115232;-0.1325214;0.05408256;-0.0006911745;0.010476944;-0.018881606;-0.049411297;-0.009583827;-0.09341767;-0.09408996;-0.016617713;-0.04906775;-0.0630212;0.14240609;-0.080291934;0.034334417;-0.031099204;-0.03818443;0.0390961;-0.018363139;0.031385936;0.04801878;-0.0928625;-0.058565967;-0.016559206;0.00052901753;-0.012271958;-0.044261977;0.034838352;-0.062905446;0.00069604046;0.08428296;-0.06761049;-0.044460837;-0.12005988;-0.063786596;-0.03132177;-0.030691415;-0.19755365;-0.070538074;-0.10007653;0.031671997;-0.0575203;-0.07018625;-0.08387725;0.077764094;-0.14098397;-0.07616925;-0.16432548;-0.055690233;-0.106112584;-0.074109934;0.04589356;0.019145956;0.049277928;0.05031489;0.022788104;-0.027549908;0.1766921;0.0046584196;-0.1058634;-0.06016143;0.03538442;-0.059831418;0.00893459;-0.07776806;0.0474426;0.047756597;-0.018101294;-0.09967073;-0.05716393;0.068609156;0.075733885;-0.10552103;0.0038020983;0.029072944;-0.012374847;0.023747366;0.023169124;-0.088523805;-0.014137494;-0.098275304;0.02252587;-0.017979553;-0.021024583;0.003057127;-0.10195285;0.03269318;-0.030921087;-0.1124194;-0.105345264;0.0746917;-0.1108467;0.06934947;0.062425457;-0.098106995;-0.0076840757;-0.0023397228;-0.21829917;-0.06256463;-0.29381117;0.021122959;-0.027693026;-0.091047116;0.044802796;-0.06965945;-0.012497398;-0.07716681;0.05049259;-0.15660487;-0.20980829;-0.027044365;-0.0037053095;-0.0065470478;0.17829216;0.0040042987;0.08992103;-0.28673717;0.025152715;-0.10144081;-0.03934724;-0.05028458;0.02303687;-0.0913349;0.11223118;-0.07552521;-0.12747377;0.008708104;-0.06349804;-0.002109965;0.018504044;-0.101653114;-0.036262665;0.14780346;0.008694271;0.023495613;0.031733107;-0.12789592;-0.040453143;-0.039713994;-0.072413206;-0.16480437;-0.029618485;0.04564305;-0.110697865;-0.069863684;-0.039078105;0.018833255;0.013098376;0.12056056;0.13616438;-0.03851713;-0.07434775;-0.029070996;-0.0056220326;0.0063256505;-0.08523322;-0.06548023;-0.05003991;-0.083371416;-0.100678675;0.024794213;0.063399464;0.040731348;-0.06636115;-0.109367505;-0.034532454;-0.016848914;-0.08587357;-0.044844322;0.05620775;0.02511234;0.014149753;-0.10381197;0.05115063;0.0096840495;0.12883565;0.02133452;-0.057965424;-0.13335972;-0.04308079;0.07933179;-0.08054174;0.014883708;0.029302293;-0.06869028;0.10307883;0.013775772;0.096575394;-0.020039063;-0.044995077;-0.11989627;0.0022738865;-0.09712578;-0.015256175;0.037999477;-0.06434087;0.007629503;0.09386104;-0.058230635;3.544137e-05;-0.052397497;0.036551483;-0.10635809;0.030619552;-0.17504448;-0.061186947;-0.13095565;-0.071864896;-0.020308472;-0.1602397;0.050966397;-0.028642323;-0.16264057;0.045405652;-0.045059245;-0.19436613;-0.03195065;-0.09721263;-0.06494111;0.019085206;0.017041108;0.03911139;-0.013293687;-0.12773296;0.01803735;-0.13480785;0.008088381;0.052550703;-0.154285;-0.09340789;-0.041702516;-0.03929532;0.05494218;0.20842181;-0.016691798;0.006288863;0.03946038;-0.13269319;-0.08390554;-0.040308766;-0.0539378;0.017841687;0.008237377;0.00895841;-0.09656438;-0.013827744;0.103947654;-0.040065948;-0.029315535;0.10067986;-0.06139875;-0.033432174;0.1162976;0.026140925;0.003636949;0.16133375;-0.11237158;0.03248823;-0.02866157;-0.08306132;-0.113804296;0.120417684;-0.037566137;-0.0014497183;0.19884332;-0.15772252;-0.12554961;-0.034675546;-0.07888035;-0.030762086;-0.09677153;0.027422965;0.010372432;0.024972973;-0.103564955;0.0711608;0.007419764;-0.105813906;-0.042252634;-0.08638932;0.024137855;-0.09872776;-0.08443223;-0.098995514;-0.07830521;-0.018659158;-0.022518918;-0.14787237;-0.06618382;-0.05387285;0.021756532;-0.09063045;-0.06340802;-0.03858322;-0.06239227;-0.022969043;-0.10644862;0.027118979;-0.058502868;0.020385299;0.044368744;0.045456838;0.032785036;0.053333525;-0.055897634;-0.06146327;0.0070398515;-0.07112514;0.005264896;-0.12582809;-0.11829665;0.074043825;-0.10378727;-0.010773017;-0.06711298;0.017193377;-0.08431625;-0.049091686;-0.01977322;-0.086997256;0.09466785;-0.08698576;-0.04415361;-0.031908877;0.022130601;0.016274083;-0.035307884;0.032074515;-0.05369461;0.0051502134;-0.010756481;0.043470196;-0.039668776;-0.021403668;0.027142437;0.05462168;-0.017141072;-0.17357117;-0.2345262;-0.117362395;-0.017809281;-0.061725337;0.06381743;-0.032235365;0.018218203;0.023164578;0.031774666;-0.035382867;-0.038054053;-0.09050408;-0.0060180696;-0.0043563084;-0.13294613;-0.07818396;0.09242604;-0.053582877;-0.117566876;-0.10009766;0.0020728942;-0.0033021132;-0.087429576;0.058276385;-0.090995245;-0.027508345;-0.09268973;-0.10878071;-0.088995315;-0.06265525;-0.09368457;0.0057565407;0.19539219;-0.008112571;-0.009896125;0.017767368;-0.09034594;-0.28415602;-0.06485982;-0.04875041;-0.056536727;0.13143705;0.029899629;-0.065166846;-0.030912813;0.021053847;0.074413046;-0.01903882;-0.111651964;-0.11111616;-0.13192013;0.09348104;0.03251549;-0.018467441;-0.15671419;-0.033845164
0.03479933;-0.046381943;-0.044015203;-0.06159434;-0.1300912;-0.11027208;-0.06000468;-0.06638647;-0.027194258;-0.022227434;-0.031934004;-0.11150789;-0.008606319;-0.11229846;-0.07435384;-0.059356052;0.011064969;0.058910593;-0.0039050633;-0.06698138;0.14694607;-0.07920281;-0.10627963;-0.05546508;-0.07377609;-0.0893733;-0.04615881;0.055062003;-0.013687636;0.18851964;-0.08857314;0.16416861;-0.090447456;-0.026104921;-0.020119086;-0.07329818;-0.10919444;-0.06237253;-0.17430893;-0.052114144;-0.02079925;-0.17348175;0.005090186;0.045459513;-0.23846838;-0.043121245;-0.09921981;-0.12181572;0.013343929;0.09540821;-0.054119386;0.068920806;0.0073893717;0.05019871;-0.09906944;0.0361972;-0.049425047;0.05812347;-0.048516944;-0.044348236;-0.06306715;-0.10702106;0.022290802;-0.07509891;0.035792004;-0.23654787;-0.026626082;-0.09355316;-0.17468457;-0.07947633;-0.030327167;-0.053424;-0.17242825;0.02753569;0.041383408;-0.10032419;-0.077424236;-0.038600665;0.10002896;0.058801003;-0.15799682;0.0023645821;0.0459041;-0.012794801;0.059747484;0.048866194;-0.030492233;-0.02863915;-0.12642242;-0.047047596;-0.10008394;0.00450157;-0.011950067;-0.044361096;-0.06698044;-0.057230417;0.014860302;-0.034484543;-0.050049394;0.019828068;-0.11213438;-0.039926495;-0.05739866;-0.099044025;-0.034903377;-0.012570361;0.07098774;-0.08835945;-0.16744468;-0.1515558;-0.17937133;0.046929367;0.025975676;0.0959031;-0.113571934;-0.08475953;-0.03953725;0.14192927;-0.02452171;0.0032290267;0.01487974;-0.1054471;-0.08020143;-0.095459245;0.034244586;-0.22260007;-0.17071362;-0.11360933;-0.080461934;0.057201434;-0.0033276456;-0.09527265;-0.14697926;-0.0875328;-0.16690879;-0.06938042;-0.11602644;0.13690823;-0.18161762;0.051377878;0.0137146525;0.088841274;0.06395903;-0.06945749;-0.00960467;-0.024493707;0.05935866;0.043077078;0.049578086;0.016296716;0.021472385;-0.016230818;-0.023003442;-0.13041443;-0.014780938;-0.24348198;-0.055406656;0.0013073622;-0.0074600745;0.08241097;-0.01198266;-0.08686902;0.00056824856;-0.11704424;0.0014882463;-0.09078598;0.012824391;-0.022757322;-0.06467303;-0.13682944;-0.038218223;-0.00832384;-0.03956197;-0.0013133578;-0.052688066;-0.05143668;-0.0023368723;-0.011867924;-0.011188354;0.017773097;0.06995359;-0.039162982;-0.0874149;-0.06771515;-0.059253585;-0.10870915;-0.14584315;0.03748167;-0.09429759;-0.019736195;-0.04053469;0.006962323;-0.04194688;-0.10301513;0.1008543;-0.099004835;-0.10438322;-0.095983334;-0.077214725;-0.06675491;-0.06821444;0.02116973;0.01607808;-0.04381478;-0.13949947;-0.08859222;-0.041046295;0.052689172;-0.02114154;-0.06147933;-0.017764498;0.01794957;0.13218482;-0.03656247;-0.14361928;-0.07471608;0.019620756;-0.07162605;-0.05247659;-0.1775421;-0.11441213;-0.025611628;0.028646754;-0.08137848;-0.01539525;-0.06819683;-0.0153947435;-0.17018011;-0.02316749;-0.0579861;-0.006775415;-0.13069372;-0.108575724;-0.015679507;0.012202014;0.042457357;-0.081758976;-0.100240976;-0.003199931;0.06512711;0.021027258;-0.055622034;-0.029861936;-0.019031512;-0.064347744;-0.014275751;-0.014918043;0.023597445;0.05789712;-0.01975422;-0.11481542;-0.012695331;-0.050842322;-0.0076099224;-0.09824634;0.046508953;-0.031218912;-0.068729036;-0.07412219;0.044355515;0.018662054;-0.07487245;-0.07553135;0.007487428;0.026239356;0.021851245;0.061265595;-0.10265539;0.016910378;0.08119172;-0.04061028;-0.11181848;0.07796052;-0.021944182;0.045799468;-0.06526388;-0.030481804;0.035875883;-0.13114847;-0.09072186;-0.08862408;-0.24343546;-0.03902844;-0.01604917;-0.13212113;0.048044074;0.023125647;-0.073993504;-0.06357453;0.009647078;-0.06439678;-0.17599608;0.036169387;-0.008805149;0.0023875951;0.0590856;-0.11187064;0.05419007;-0.33788675;-0.050382156;-0.09595928;-0.03392389;-0.034829892;-0.059162475;-0.0616194;0.08013887;-0.094728075;-0.05411822;0.016684588;-0.0004685066;-0.024944471;-0.08590455;-0.06346355;-0.015004078;0.06148909;-0.012771344;0.022473123;-0.05328804;-0.08427173;-0.12990989;-0.08180532;-0.1408286;-0.069913425;-0.09897315;0.008343737;-0.018636048;-0.11534724;0.02909107;0.023681173;0.035463084;0.05871943;0.04072097;0.025024971;-0.024487775;-0.03356245;0.1612218;-0.054895967;0.046002056;-0.09699818;0.009287926;-0.13664953;-0.13327377;-0.037453476;0.13272512;-0.017645856;-0.15204503;-0.040723324;-0.050695516;0.027732704;-0.00818564;-0.055061765;0.004271891;0.0048695165;0.054975796;-0.06942326;-0.03642593;-0.016122796;0.105533905;0.18139662;-0.06503804;-0.07319881;-0.016162354;0.0654685;-0.03646141;-0.0014227424;0.034391206;-0.07899473;0.12834935;-0.122815914;0.07222588;-0.049249597;-0.12676133;-0.14085509;-0.096724264;-0.042550605;-0.1016353;0.04964475;-0.06677625;-0.12495801;0.06927144;-0.14335321;-0.11985489;0.06853601;0.0902877;-0.092815116;-0.023360457;-0.10488822;-0.12528586;-0.09731463;-0.08339679;-0.0051691523;-0.016364504;-0.05996013;0.118099555;-0.17976832;-0.056939606;-0.0085722115;-0.15523277;0.06079742;0.013395158;-0.07964372;-0.048763484;-0.091704495;0.048737153;-0.026232371;-0.12159605;-0.047078475;-0.13140844;-0.095350996;0.065680675;-0.12667626;-0.097205766;-0.076510906;0.0020956732;0.09157981;0.25256234;-0.013589185;-0.12978505;0.080375895;-0.121715024;-0.030382339;-0.015432268;0.023196515;-0.051824387;-0.0866295;0.040903796;-0.054806296;-0.006033627;0.09310645;-0.057545688;-0.10993469;0.062178787;-0.057879813;0.020778397;0.06698823;-0.047339622;-0.040097833;0.08838162;-0.0119320275;-0.034130692;-0.018532407;0.043454465;-0.062205724;0.07575883;-0.020235507;-0.040437885;0.100725226;-0.070763096;-0.08415271;0.013320381;-0.117907844;-0.11104559;-0.029975507;-0.104979336;0.034880422;0.021214603;0.003453646;-0.0330231;-0.007203804;-0.041385345;0.025557809;-0.11043338;-0.041193135;-0.054999743;-0.034542732;-0.026340738;-0.023587959;0.020420766;-0.005469924;-0.16297348;-0.04920195;-0.093637064;0.08857381;-0.07102183;0.05324317;-0.070208505;-0.07515971;-0.07286932;0.02169494;-0.096963495;-0.05945769;-0.06801383;-0.041149482;-0.04514571;0.019272864;-0.077597626;0.010996802;-0.1214319;-0.06931113;-0.03785759;-0.018283281;-0.04686173;-0.07409784;-0.029769354;0.039145824;0.015730806;-0.046518505;-0.066628106;-0.105446465;-0.09452611;-0.124129474;-0.08866235;-0.054831438;-0.08146241;0.025847184;-0.11772035;-0.11770508;-0.10165217;-0.12741354;0.075450875;-0.035599664;-0.020306762;-0.01019076;-0.0026287378;0.015028748;-0.08692683;-0.042845998;-0.041113533;0.079203434;-0.13347447;-0.24312842;-0.039621063;-0.044750206;-0.004770796;-0.046779707;0.033988524;0.024356604;0.038708404;0.096566685;-0.09138493;-0.074478894;-0.037468776;0.07032912;0.08932354;-0.093503766;-0.094376296;-0.025143182;-0.15775588;-0.056398865;-0.10450002;0.048415717;-0.0012867203;-0.06116856;0.081495665;-0.11834578;0.015326049;-0.09286064;-0.007779209;-0.045401253;-0.032733545;-0.07799798;-0.028244805;0.15711105;-0.07787178;0.027185723;-0.1063642;-0.084627345;-0.21872294;-0.09258617;-0.13798559;-0.035202615;0.068415664;0.009124367;0.011473188;-0.011743802;-0.041559692;-0.0515774;-0.13842767;0.0039034544;-0.17029916;0.013048267;0.0772749;-0.022883529;-0.15547591;-0.09185102;0.040632233
0.06963388;-0.039655708;-0.035698887;0.05429396;-0.12252623;0.0040287203;-0.076378725;-0.1903892;-0.09414495;-0.14281417;-0.052834578;-0.028786043;0.01984532;-0.0103849;0.0171039;-0.086274855;-0.021929324;0.09606416;-0.02166095;-0.07036827;0.07459465;0.032539062;-0.016231881;0.048471104;0.011989076;-0.095399;-0.098691106;0.046062265;-0.056001067;0.15731551;0.010066702;0.047811233;0.0005898012;-0.08195293;-0.06840017;-0.054359823;0.001654515;-0.06333709;-0.1275114;-0.0455446;-0.054199047;-0.06454766;-0.060949266;0.013713801;-0.29414374;0.0145735815;-0.119479686;-0.10396756;-0.01155275;0.0072115446;-0.12702174;0.15274855;-0.072929084;0.008639511;-0.047398847;0.055862002;0.02898478;-0.07285336;-0.031920068;-0.024501668;-0.09346416;-0.11003412;-0.108019195;-0.112876765;0.12648983;-0.28264067;0.014148549;-0.16387656;-0.07977095;-0.071180254;-0.111022584;-0.03926053;-0.1676517;-0.021332351;-0.03319511;0.053038668;0.0127018355;-0.045148663;0.016898757;0.051270314;-0.08219718;-0.060596805;0.07009472;-0.1632459;-0.05864347;0.10461938;-0.036735766;-0.10733607;-0.11317601;0.039648354;-0.017521836;-0.06564504;-0.035183012;0.03759664;-0.09329474;-0.11357854;0.014443471;-0.12881362;-0.1258083;-0.09678811;-0.13133751;-0.010760713;-0.11364432;0.027278066;-0.081956536;0.026085623;0.02565454;-0.0012719255;-0.121282674;-0.04333704;-0.08293798;0.010914219;-0.0879792;0.10581541;-0.061017;0.021878893;0.020545337;0.14796446;-0.0066383188;-0.107132494;-0.05765916;-0.0018198139;-0.04272997;-0.14640224;-0.021112284;-0.16274649;-0.08498034;-0.07170649;-0.039469097;0.073312566;-0.060978;-0.04488097;-0.04387496;-0.054608952;-0.1431653;-0.116330944;-0.06374435;0.06399852;-0.054597095;-0.05506638;-0.054762382;-0.0012807143;0.041670892;-0.052385177;0.0077256556;0.014522435;-0.006509213;-0.06655663;-0.04024051;0.0058840527;-0.045069385;0.0009973557;-0.091288;-0.013869038;0.022626204;-0.2363999;-0.13343719;0.04046241;-0.106983185;0.065103374;-0.0988627;-0.16107425;0.054138023;-0.055787582;-0.0736332;-0.09974285;0.00736394;0.021594394;-0.06761355;-0.105342284;0.10377151;-0.0886975;0.028149035;-0.036672093;-0.09784106;-0.008226753;-0.012196639;0.007932905;0.020117125;-0.03899701;-0.052595172;-0.13152604;-0.009481324;0.0022836626;-0.12779109;-0.15330611;-0.011135035;-0.06963863;0.002896896;-0.064229496;-0.08168777;-0.040514484;-0.083920375;-0.033736862;0.077123225;-0.07410345;-0.09388176;-0.09774478;-0.018907739;-0.010193353;-0.09736854;-0.05858358;-0.01588094;-0.08901601;-0.03005921;-0.0006105454;-0.14482602;0.026526785;-0.028993534;-0.021056408;-0.061420336;-0.085075065;-0.02884042;0.004937592;-0.07587821;-0.078530535;-0.04972031;-0.13799547;-0.032017767;-0.1369909;-0.14962651;-0.018120648;-0.05895563;0.010579369;-0.012827352;0.038808223;-0.0024494848;-0.054538693;-0.08087075;-0.038366392;-0.07859785;-0.040617283;-0.07130075;-0.06656819;-0.11650824;0.08644837;0.041667107;-0.035858452;-0.07022616;0.18868901;-0.047810942;-0.014547656;-0.14252572;0.031452682;-0.014093404;-0.0550539;-0.1285896;0.008371687;0.026400078;-0.10494191;-0.14366184;-0.09775905;0.0304453;0.09098055;-0.095889755;-0.042470433;-0.020187927;-0.0941113;0.0069696032;0.030775344;-0.06976749;-0.018691381;-0.07387259;0.06825799;0.03599024;-0.025279537;0.10180612;-0.062422827;0.011826024;-0.05629078;-0.028219655;-0.012706239;-0.015718197;-0.07662136;0.054465804;0.04620532;-0.07011326;-0.053501096;-0.074582264;-0.09232692;-0.020078262;-0.21067241;-0.10015027;-0.14265232;-0.032623895;-0.083227575;-0.075938985;-0.0014071807;-0.097654104;-0.07797509;0.0098581165;-0.20668127;-0.080337785;0.03479145;-1.6677111e-05;0.07363616;-0.030160272;0.04484214;-0.32211947;0.076555625;-0.08446051;-0.10190659;-0.09646569;-0.11814357;-0.149739;0.034168802;-0.06477799;-0.07829308;-0.05704543;0.029108422;-0.028112292;-0.04473424;-0.057478253;-0.10327166;0.037877075;0.09494951;0.08212779;-0.05728563;-0.030368747;0.026532935;-0.11032134;-0.061542463;-0.030482905;-0.03465282;0.056962002;0.04162844;-0.10022255;-0.012766055;-0.023203826;0.063329965;0.03435213;0.05768838;-0.110485636;-0.06586222;0.045268867;0.13106048;0.03404811;0.06384471;-0.12217727;-0.07556197;-0.028871382;-0.055424593;-0.12275926;0.1360981;0.041955806;-0.17630756;0.023833375;-0.024817785;-0.050461028;-0.07571101;-0.04858658;0.106224835;0.046855494;-0.07781269;-0.11092115;0.01234532;-0.020165496;0.16459875;0.13583699;-0.03891625;-0.0009494061;-0.09575546;-0.019427367;-0.07381189;-0.072399974;-0.05066222;-0.002663753;0.11094723;-0.052230917;0.11747927;0.01140803;-0.053458348;-0.13083044;-0.028507693;-0.13182865;0.009219197;0.018092789;-0.12674579;-0.04962933;0.0068728314;-0.13012268;-0.055543598;-0.03178863;0.026187029;-0.14273252;-0.0075876624;-0.11727322;-0.039884556;-0.14008413;-0.028313061;0.023586912;-0.06711388;0.037704803;0.07032192;-0.16617577;0.041282356;0.01786534;-0.14095429;0.008040514;-0.06452262;0.009714361;0.024286075;-0.052372657;-0.030249802;-0.011985264;-0.0073947106;-0.05353005;-0.13419883;-0.10587367;0.0513308;-0.08315231;0.017600138;-0.030281734;-0.066667974;0.10357555;0.22259365;-0.011921646;-0.087481625;0.10621163;-0.24300818;-0.051020116;-0.06879463;-0.017172584;-0.08662356;0.015299113;-0.07613142;-0.055517048;0.01951216;0.08792748;0.0476272;-0.068609886;0.1474171;-0.13140783;-0.024291305;-0.018481068;0.011363487;-0.0003477947;0.14756401;-0.10298532;-0.059800774;-0.07002515;0.009154804;-0.05627231;0.011219954;-0.08498616;-0.05078302;0.17946853;-0.10881874;-0.04082819;0.08103136;0.045156546;0.0065720193;0.027765458;0.030817898;0.05340481;0.035263825;-0.028080905;-0.05294391;9.168311e-05;-0.14396127;-0.106765255;-0.030698858;-0.07178096;-0.07157073;-0.019766087;-0.07096091;0.024874473;-0.01690821;-0.025404086;-0.067626335;-0.15457842;-0.07781176;0.079303846;-0.06570002;0.006574572;-0.092664056;-0.07473368;-0.01896245;-0.041209742;0.0018379918;-0.09401685;-0.049234595;-0.058530305;0.04169795;0.021055475;-0.049238507;-0.15096937;-0.10982232;-0.07886215;-0.00680039;-0.006031122;-0.12944934;-0.035630055;0.037990488;0.010843617;-0.09439356;-0.05196379;-0.10202316;-0.011074871;-0.017977832;-0.058490437;-0.0522436;0.014002138;0.028761124;0.017535526;-0.07726803;-0.023562206;0.001734925;-0.072399475;0.054832812;-0.1297461;0.016258167;-0.017428705;0.033584304;-0.040919423;-0.11759374;-0.094217755;-0.02499987;-0.08340758;-0.07989304;-0.34650463;-0.1470715;-0.11323404;-0.15272017;-0.0076338598;-0.09814572;-0.038702846;-0.032433763;0.029601343;-0.047633093;-0.09129015;-0.03527213;0.00088934746;-0.028665848;-0.11696996;-0.12844104;0.019913571;-0.16048901;-0.13446589;0.0060086246;-0.1124344;-0.02834684;0.0050531225;0.051095054;-0.077185206;-0.08231833;-0.12420711;-0.0130496705;0.041121572;-0.01925409;-0.11533502;-0.025724022;0.061192892;-0.03665461;0.0054392316;-0.016703632;-0.095980145;-0.17096281;-0.10481925;-0.052025877;0.009113805;0.032975357;-0.019675542;-0.059341833;-0.085884534;0.08845347;-0.105919406;-0.048040103;-0.15499963;-0.18230395;-0.06574132;0.12305877;0.07395254;-0.0066619893;-0.18864197;0.06605782
0.022347527;-0.04606024;-0.05887466;0.03941834;-0.10894543;-0.0075611016;-0.03686968;-0.14344814;-0.046094473;-0.09932433;-0.07832135;-0.124067955;-0.11169714;-0.009323518;0.025382034;-0.02594306;-0.0060628513;-0.038914032;-0.10901825;0.014102305;0.15288773;0.025453474;-0.078126;-0.10782429;-0.10850289;-0.03578537;-0.04556573;0.09945505;0.009603698;0.029914709;0.0053317714;0.028189702;-0.10700045;-0.029203719;-0.107998;-0.045173872;0.020683657;-0.06590007;-0.025327705;-0.05010173;-0.09779327;-0.08582382;0.057024993;0.062309686;-0.2130839;0.024922075;-0.059667274;-0.13721955;-0.034767482;0.0760021;-0.07214943;-0.014198427;-0.03084127;0.047615554;-0.12746283;0.044902712;-0.043218955;0.026334384;-0.08890623;-0.020914422;-0.021860838;-0.15670627;0.016579581;-0.13394022;0.0973833;-0.27531934;-0.020542625;-0.14525004;-0.076689765;-0.03372574;-0.10689179;-0.0693106;-0.17400128;-0.016893595;0.015993023;0.0070736995;0.027388804;-0.087898515;0.101749904;-0.08214791;-0.058002092;-0.018903503;0.14250188;-0.08721288;0.032135826;0.1190229;0.030309005;-0.07378299;-0.031382997;-0.124947585;-0.069644645;-0.07682608;0.035535354;0.010444664;-0.12931317;-0.087548025;-0.057689637;-0.081930354;-0.13993452;0.030335566;-0.068841696;0.010456284;-0.07454955;0.009703837;-0.08943109;-0.12379318;-0.03688302;-0.084507845;-0.11193243;-0.101336755;-0.20056523;-0.0806711;-0.10980638;-0.016878786;-0.054181255;-0.101950236;-0.062441193;0.12942128;-0.0799218;0.04573107;-0.008017583;-0.04833546;0.041323666;-0.11629688;0.009674745;-0.14974323;-0.13368458;0.015222109;-0.008771624;0.07583998;-0.09954301;-0.07231458;-0.14604034;-7.068476e-05;-0.1233927;0.034981314;-0.07781282;0.13803114;-0.14365356;0.03769674;-0.023923587;0.04848646;-0.09304164;0.03960027;-0.085811116;-0.09110156;0.0072890087;-0.06258665;-0.05240787;-0.08941142;-0.08735354;0.027112223;0.054904085;-0.04321584;-0.0597101;-0.17081884;-0.083539344;-0.008936649;-0.008521365;0.047035117;-0.10651272;-0.1487847;-0.09344721;-0.0690987;-0.06398982;-0.05250456;-0.06276834;-0.043320972;-0.06368291;-0.080922246;-0.01688831;-0.07111968;0.013473797;0.05090855;-0.15315364;-0.05571899;-0.033607304;-0.073331565;0.14022109;-0.08455833;0.08730424;-0.063230455;-0.07368946;-0.011045801;0.029705409;-0.14504406;-0.15283136;-0.03935681;0.014628781;-0.067130655;-0.06504178;-0.05910449;-0.104122184;-0.019763248;0.11577128;-0.09179948;-0.00080393563;-0.17080358;-0.10049899;0.029278513;-0.088778995;0.016707245;-0.059547473;-0.098769054;-0.07244367;0.013628529;0.012978365;0.02200442;0.07120576;-0.05119774;-0.030491853;-0.06335959;0.061188865;-0.009866442;-0.04478828;0.017202796;-0.014957362;-0.17278846;0.017790891;-0.15624706;-0.13931309;-0.1142505;-0.041395586;0.014403312;0.010479602;-0.08142364;-0.061702833;-0.15637057;-0.013079278;-0.0781039;-0.029489506;0.03172221;0.0030528908;0.017204719;-0.06111395;0.089834124;-0.043956105;-0.07985864;0.0036951057;0.19385187;0.01250332;-0.018095346;-0.098204546;0.0075942934;-0.013179567;-0.08096975;-0.070035435;-0.0076442705;-0.007266221;-0.065494254;-0.1451378;-0.10958318;-0.0558932;0.1208527;-0.08358091;0.023084356;-0.04554778;-0.15483376;-0.055918388;-0.03021596;-0.008453083;-0.14242788;-0.123463295;0.0125800865;-0.07005668;-0.032475512;-0.050446194;-0.049475197;-0.11327411;0.09055128;-0.1342605;-0.07250268;-0.0692404;0.0045521064;0.16361068;0.08217438;-0.04376531;-0.0073069097;-0.017368218;-0.09490816;-0.048994754;-0.20070058;-0.10456199;-0.13575217;-0.0002701138;0.014429315;-0.018344657;0.04976655;-0.009035352;0.062411238;-0.10104219;-0.17234574;-0.079812944;-0.03026581;0.013484727;0.10712977;-0.080844164;0.115733854;-0.34871402;-0.027504137;-0.1009022;0.005546416;-0.04588405;-0.13057467;-0.117947064;0.04492903;-0.01352919;-0.098156266;-0.07424449;0.04078457;0.03961398;-0.08601266;-0.08804679;-0.10498541;0.15438193;0.10819723;0.105476215;-0.06753924;-0.00317038;-0.016100598;-0.03171704;-0.16642116;-0.1575642;-0.0029362333;0.07101465;0.008264439;-0.014742878;-0.12251678;-0.04458983;-0.09234049;0.0798395;0.15839985;0.03812508;-0.040753305;-0.0735579;0.15946227;0.091120794;-0.041105386;-0.07135636;-0.02173498;-0.069721565;-0.0016875119;-0.056603663;0.108836375;-0.030903181;-0.06466674;0.016034653;0.006394766;-0.033901602;-0.122587204;-0.017498916;0.015819153;0.050733306;0.034893516;-0.040560026;-0.062045798;0.09103801;0.1561873;0.16750579;0.021689603;-0.1148116;-0.017384065;0.03830018;-0.09554062;-0.059138384;-0.08058883;-0.096849844;0.06472742;-0.013926647;0.07114095;-0.06414601;-0.10638531;-0.17263375;-0.08850685;-0.08652859;-0.05818685;-0.05177124;-0.09809942;-0.03762551;0.050986156;-0.07960005;0.0005685559;-0.03065297;0.0939317;-0.10247949;-0.06341236;-0.042156834;-0.16195062;-0.024004294;0.015588926;-0.06777316;-0.09329157;-0.039015938;0.076831885;-0.1277289;-0.09982375;0.010658669;-0.17355669;-0.04613729;-0.08144854;0.008635027;0.014150651;0.008772086;0.07403654;-0.056970276;0.0015209746;0.003363614;-0.15699078;-0.025534661;-0.09579035;-0.06024759;-0.00920849;-0.115928225;0.010324005;-0.016566118;0.22664316;-0.00076415954;-0.12314746;0.039789356;-0.14679101;-0.005428156;-0.10946022;0.007977557;0.06792958;-0.023012882;-0.02357952;-0.058744002;0.004342556;0.010059428;0.026464202;-0.019094285;0.056074172;-0.025023254;-0.06500225;-0.019634234;-0.09620907;-0.123007946;0.10339293;-0.013367856;-0.023361523;-0.0030394236;-0.043630272;-0.13735852;-0.062318906;0.017597515;-0.11267226;0.20218442;-0.06224712;-0.12544124;-0.019970104;-0.049618337;-0.112450875;-0.024966866;0.02272391;0.13466959;-0.08579194;-0.03680313;0.007248583;-0.016892593;0.012941274;-0.038045716;0.006523768;0.020717278;-0.013613812;-0.0061795753;-0.06293746;-0.094546616;0.03382667;-0.033887673;-0.1140693;-0.07680374;-0.1869066;0.014648342;-0.079012126;0.061674252;0.01791057;-0.048037987;-0.09091228;0.023728667;-0.045951787;-0.06338438;-0.0007075112;0.05723565;-0.025501598;0.025982669;-0.042527113;-0.11215727;-0.06392673;0.0014334952;0.00095676986;-0.00482977;-0.060142856;-0.10134915;0.12624831;-0.014048152;-0.038088314;-0.072015725;0.0023112867;-0.12851019;-0.090768054;0.030631624;-0.07895026;0.09716525;-0.09401203;0.04344068;-0.05299434;-0.045806188;-0.013621398;-0.095265955;0.08379195;-0.07267827;-0.05619467;-0.042903222;0.05594063;0.0010543566;0.0015452078;-0.053870678;0.05303397;0.10883096;-0.09051775;-0.35146847;-0.06649205;-0.082726546;-0.024241788;-0.043299448;0.049289145;-0.023805987;-0.04552191;0.0998606;0.0030222517;0.020053782;-0.046807557;0.10256351;-0.022564871;-0.13705294;-0.06946122;0.0042691934;-0.1338332;-0.019158501;-0.044396408;-0.01709942;-0.030877419;-0.05752201;0.09222235;-0.11591051;-0.115098976;-0.014903596;0.046564195;-0.030751724;-0.15083635;-0.10778082;-0.010971503;0.14139333;-0.09848343;-0.03343817;-0.040078998;-0.014980487;-0.26788086;-0.087293886;-0.107900195;0.0026095712;0.044108063;0.005611163;-0.012065085;-0.11569023;0.019827403;0.012437768;0.012915288;0.018379338;-0.17121878;-0.04244772;0.12130782;-0.018537547;-0.1468419;-0.112354815;-0.044537615
0.1358818;-0.05164839;0.10470594;-0.01621024;-0.11483419;0.055549588;-0.093755275;-0.17979601;0.0036965692;-0.06814856;0.02947263;-0.0062609618;-0.027728079;-0.09591108;-0.07494071;-0.03466905;0.05935599;0.064518794;-0.013552055;0.034236092;0.015691273;-0.13546255;-0.01323405;-0.035647366;-0.046196073;-0.16342506;-0.02011218;0.024614032;0.0023944117;0.082648136;-0.018117994;0.025485978;-0.054045692;-0.14640352;-0.04231715;-0.017643308;-0.11939656;-0.010249499;-0.16726935;-0.0051645646;0.022978846;-0.18766715;-0.02279174;-0.028218683;-0.22739498;0.009676877;-0.020988157;-0.1270275;-0.06050583;0.05671628;-0.10869411;0.03472338;0.016888121;0.11345365;-0.098192155;0.04412466;0.023927921;0.008233845;-0.04887777;0.020784177;-0.11581621;-0.16471823;-0.09472035;-0.042464677;0.09563622;-0.16846327;0.030798644;-0.12055558;-0.009470791;-0.09606728;-0.08287277;0.01554595;-0.20448941;-0.09318041;-0.04633018;0.044148166;-0.036254816;0.030128611;0.10902855;0.07591307;-0.036232762;-0.11394917;0.01667413;-0.027640326;0.020312162;0.10819445;-0.035526045;-0.008659268;0.020078879;0.0007759465;-0.06128857;-0.016049892;-0.07781343;-0.022522256;-0.13638392;0.0016200987;-0.058736473;-0.06860868;-0.0081427945;-0.0033024033;-0.15699112;0.024483113;-0.045012772;-0.10125813;-0.020833094;0.016221046;0.049332887;-0.09408984;-0.06322716;-0.14305264;-0.039961167;0.046727385;-0.12550472;0.082406834;-0.007251689;0.025527246;-0.08642325;0.12806998;-0.046517383;-0.047316097;-0.09105757;-0.05001118;0.03356898;-0.15344316;-0.08036738;-0.07994622;-0.058898862;-0.061009996;0.040268857;0.16147695;0.03853765;0.067454435;-0.08290508;-0.018781934;-0.10743435;-0.042786103;-0.06333039;0.0946768;-0.028959807;0.07753055;-0.052409973;0.16615486;0.005473967;0.003505467;0.030474;0.028447937;-0.07725994;0.024072228;-0.1309174;-0.07067458;-0.035742518;-0.11882226;-0.05124945;-0.08708954;-0.02033554;-0.23135063;-0.16118892;0.067373775;0.058180504;-0.035766225;-0.037558943;-0.15145658;-0.054193173;-0.014863744;0.040727966;-0.029792149;-0.03217275;0.057475727;-0.045493808;-0.062123254;0.072258696;-0.052384153;0.062080115;-0.10034271;-0.008731634;-0.07988688;-0.026790252;-0.08529124;0.15245922;-0.0005929649;-0.034075525;-0.1119287;0.027101737;-0.060988445;-0.00050699577;-0.14480156;-0.107946664;-0.03814994;-0.004573722;0.026624383;0.02830914;-0.088121064;0.031498224;-0.091727875;0.09255608;-0.018745959;-0.055999346;-0.009236192;-0.030407485;0.04063523;-0.052541856;-0.08604782;0.025505956;-0.11817244;-0.09813219;-0.13448861;-0.1129342;0.0724144;-0.04992132;-0.114893086;-0.012087534;-0.03788148;-0.026148092;-0.086599045;-0.13683611;-0.003757061;0.0011797413;-0.18769602;-0.016575327;-0.06147935;-0.11284261;0.0018031758;-0.013617073;-0.12057387;-0.011585735;-0.11430673;-0.037547715;-0.14543815;-0.07471953;-0.1539149;-0.020671828;0.035133652;-0.10382476;-0.08449185;-0.07015135;-0.025999565;-0.056316376;1.8382052e-06;-0.07556273;0.11689279;-0.04601952;-0.020611444;-0.037455216;-0.11800607;-0.09467452;-0.042593952;-0.010808154;0.034597013;0.05791834;0.012675126;-0.14099668;-0.027002173;0.052267894;0.023799593;-0.115786284;-0.049780082;0.01350293;-0.10423535;-0.030288585;-0.040308252;0.07044018;-0.14419432;-0.09052248;-0.05864026;-0.0656028;-0.066043116;0.02949472;-0.15770856;-0.12010453;0.010245258;-0.10125348;-0.06587512;0.0016464773;0.03484427;0.03611824;-0.020417413;0.030040773;-0.008487531;-0.076753005;-0.099228315;-0.033553276;-0.23501976;-0.033230487;-0.11195547;-0.07380142;-0.06781649;0.008560348;-0.061016157;0.0058234185;0.06051709;0.024456754;-0.101217024;0.061878815;-0.026710598;-0.08475846;-0.0011603301;-0.06415157;0.056869015;-0.27450162;-0.06180434;-0.093738385;-0.0037173403;-0.07170719;-0.04912856;-0.099112354;0.100726716;0.056155354;-0.062650286;-0.037066955;0.011735641;-0.059870012;-0.031955007;0.014190494;-0.043119844;0.00996329;0.12905304;0.0699437;-0.053919047;-0.14131133;-0.077193946;-0.0013848622;-0.13287868;-0.09619683;-0.040883;-0.04376569;0.022504088;-0.050128497;0.020003948;0.030945655;0.0091013815;0.048612677;0.022431768;0.041425735;-0.015780251;-0.068180546;0.03196753;0.09112565;0.0028813803;-0.008352453;-0.047094755;-0.13465865;-0.123722665;-0.06405425;0.10819538;0.011821993;-0.06826729;-0.024538593;0.012881261;-0.11064195;-0.032340523;0.06751839;0.15030679;-0.028529359;0.059520375;-0.11443174;-0.052011188;0.015862804;0.085035875;0.058927856;-0.06783863;-0.13957942;-0.10299918;0.04123371;-0.0025873967;0.0062859356;-0.051273093;0.02842207;0.03533365;-0.025164405;0.042443693;-0.058789458;0.014397533;-0.08939542;-0.03159669;-0.11392022;-0.117217444;0.049396805;0.027896676;0.006296946;0.07769946;-0.050674893;0.012266466;-0.06715009;-0.052514922;-0.08099573;0.0030638422;-0.09006172;-0.16415785;-0.065408185;-0.06383438;-0.07702711;-0.07152105;0.031448286;0.1555046;-0.18349724;-0.09852761;0.05008205;-0.023623912;-0.054174636;0.00327021;-0.03170717;0.06869834;-0.04820391;0.023417093;-0.0360067;-0.0978258;-0.06315734;-0.17791092;-0.07674969;0.023759808;-0.09070521;-0.10566791;-0.065720245;-0.026846567;-0.0070645614;0.18662405;-0.12671144;-0.020968817;0.02378534;-0.24510492;-0.09253048;-0.1288311;-0.08379367;0.023120336;-0.094531186;0.021235108;-0.05807964;0.044321634;0.12836769;-0.036407195;-0.11490362;0.1195916;-0.14155556;0.034239832;-0.01756961;-0.08489827;-0.0069202804;0.11367699;-0.14177321;-0.085319385;-0.069915175;-0.006306268;-0.020419741;0.09895748;0.05619465;-0.045678567;0.08699455;-0.049157392;-0.020213323;0.010591747;-0.06933111;-0.08133269;0.042159215;0.032063387;0.11211544;0.018387819;0.009907198;-0.042602513;0.023510594;-0.12787451;0.05083619;-0.06612316;-0.07678496;-0.06337097;-0.10606063;-0.12474548;0.039931286;0.042934455;-0.10996843;-0.05451267;-0.08737366;-0.13573775;0.030345002;-0.04087115;-0.04069926;-0.06753496;-0.0918042;-0.12903632;-0.06774338;0.009787001;-0.0950689;0.026567616;-0.091900386;0.04300038;0.15554021;0.057242308;0.0007469569;-0.16402133;-0.04425572;0.014656473;-0.01059312;-0.11580046;-0.08941739;-0.014318662;-0.053724322;-0.010761943;-0.034953523;-0.117241114;-0.06399474;-0.019115673;-0.03875433;-0.120840386;0.0052585145;-0.051532906;-0.08524991;0.0112115;-0.06416453;-0.10270846;-0.073152475;0.13825011;-0.029408542;0.0035042546;-0.13541934;-0.03139089;-0.09679079;-0.06899543;-0.06162938;-0.118818715;0.07308361;-0.1815296;-0.21921644;-0.02027433;-0.026337463;-0.065303594;0.020895742;0.02244229;0.020057296;-0.061901204;-0.0068408214;0.0065718694;-0.10449881;-0.12166277;0.06074983;0.03244882;-0.074136704;-0.022573356;0.047507156;-0.18471396;-0.1462482;-0.07389713;0.052656643;-0.049863335;-0.09858067;0.034001466;-0.09937401;-0.0020687163;-0.00019429301;-0.055411622;-0.08468569;-0.16544919;-0.15566233;0.05534271;0.16214646;-0.046796314;-0.008863835;-0.055964414;-0.11714667;-0.21300527;-0.027981043;-0.10246628;0.04802628;0.049656652;-0.029797234;-0.080963194;-0.09857927;0.041266207;-0.06401076;-0.060178984;-0.039947707;-0.14461254;0.012167872;0.0651408;0.067376934;-0.055304177;-0.061452884;0.053584468
0.14699739;-0.024210047;0.074170224;0.014417716;-0.10189166;0.05080182;-0.11616915;-0.18213475;-0.07930795;-0.076544695;-0.11194181;-0.021511184;0.033548493;-0.114699766;-0.043769855;-0.07841445;0.0014686778;0.12377859;0.014485443;-0.076610915;0.11212536;-0.033840388;0.05222553;0.03610376;-0.08502998;-0.034504194;-0.13787259;0.012252729;-0.06889819;0.18176137;0.025201933;0.11285448;-0.12716182;-0.043791782;0.017089617;-0.039434236;-0.13210353;0.0063858735;-0.052634332;-0.12085106;0.023884557;-0.03926747;-0.005074814;-0.014643439;-0.29129192;-0.077595495;-0.10651664;-0.14439678;0.07989326;0.03996987;-0.03973464;0.09342439;0.013672992;0.027088424;-0.0035749914;0.01457829;0.028506827;-0.014760289;-0.06862954;-0.0031999853;-0.08605041;-0.17267996;-0.09131651;-0.078561425;0.080311306;-0.19360049;-0.01722644;-0.13571155;-0.14028473;-0.0457277;0.0009983083;-0.09438018;-0.113602474;-0.039808664;-0.033603843;0.055283662;-0.014581119;-0.029825153;0.16115494;-0.064812906;-0.040326107;-0.085867666;0.06533201;-0.16912493;0.0039502075;0.022011613;0.017231507;-0.16883129;-0.1019602;0.032470033;-0.04497987;-0.015956497;0.033248667;0.024077587;-0.121839724;-0.0826268;-0.10005221;-0.1364349;-0.11373171;-0.014481786;-0.13710111;-0.03071419;-0.09831712;-0.010220105;-0.07019459;-0.11123803;0.0040174928;-0.07835921;-0.2072904;-0.02783774;-0.16134466;-0.08950879;-0.12408169;-0.028354669;0.018120047;0.036138337;0.022047209;0.095519945;-0.14077325;-0.074395455;-0.071761794;-0.044321787;-0.013025933;-0.08041102;-0.07166193;-0.1071698;-0.10767961;-0.12500694;0.031207316;0.1201235;0.01227356;-0.08723904;-0.101300314;-0.007513708;-0.057313327;-0.010616448;0.014205859;0.16947016;-0.06973674;-0.015667232;-0.050162673;0.16474369;-0.028116088;-0.06173229;-0.054079626;-0.08264623;-0.056184284;0.057956684;-0.0578995;0.030499402;-0.048638195;0.016067572;0.05086564;0.00516183;-0.013123007;-0.21793695;-0.03393239;-0.09227373;-0.09183886;-0.060874883;-0.090205014;-0.091103084;0.04396829;-0.15589543;0.015485639;-0.11445993;-0.030358268;-0.04986478;-0.009765838;-0.024582459;0.13043073;-0.008548964;-0.02536756;-0.06819239;-0.08149008;-0.026029468;-0.079908155;-0.013553209;0.08957724;0.023256898;-0.028088141;-0.096193835;-0.0620414;-0.047002327;-0.06674746;-0.116151005;0.025215544;0.046376795;-0.08276424;-0.032960128;-0.04619585;-0.016973397;-0.090065904;-0.15557854;0.015038528;-0.040918365;-0.032096624;-0.030229384;0.043272395;-0.0021388757;0.008981608;-0.100486785;-0.1125979;-0.12110903;-0.021403171;-0.118824884;-0.0028003205;0.086900905;0.06879165;-0.018267138;-0.03118586;-0.09780952;0.041841276;-0.11514907;-0.028348578;-0.12619123;-0.060349926;-0.18326855;-0.016377343;-0.02160927;-0.049145646;-0.06899669;0.038656667;-0.034893263;-0.09678139;-0.009088358;-0.028651284;-0.021988466;-0.084879465;-0.1125031;-0.16304445;-0.034331307;-0.04943771;-0.09727477;-0.07072558;0.0018240788;-0.005320516;-0.034230217;-0.013076195;0.02982207;0.10143401;-0.031391818;-0.02586336;-0.06434857;0.009853645;-0.110172175;0.015469154;-0.040172838;-0.023667695;-0.104803406;-0.17661162;-0.12254936;-0.027032731;0.0048547164;-0.06019571;-0.020333493;-0.0007782605;-0.109087154;-0.08692271;-0.120294854;0.01771104;-0.13029805;0.030466273;0.063277595;0.00029627467;0.036745537;-0.06478369;-0.05652195;-0.12399364;0.012589096;0.018135961;-0.007174863;0.057148345;-0.12542154;0.13180633;-0.02660315;-0.02908184;-0.012144459;0.021703288;-0.17807949;-0.007937001;-0.16782318;-0.06874967;-0.11488592;-0.006806524;0.014230204;-0.019800035;-0.05072073;-0.031220328;0.01452623;-0.14411551;-0.20146933;0.07148864;4.0557943e-06;-0.051159434;-0.011714397;-0.074751236;0.019476818;-0.3246819;-0.097811684;0.063681796;-0.0331735;-0.027723175;-0.014787644;-0.16742405;0.07796434;-0.06713479;-0.1022231;-0.04547091;-0.048674785;0.012726915;-0.061520007;-0.008515909;0.05756217;0.024769783;0.17004232;0.015886188;-0.13136901;-0.053454157;-0.081488185;0.01867133;-0.09673224;-0.01683178;-0.092158556;0.0031563384;0.004563839;-0.108121425;0.016055819;-0.080008924;0.023085963;0.09732246;0.017663382;-0.04293699;-0.080130465;0.029493945;0.16818789;-0.007854935;-0.04997152;0.0063987137;0.07416743;-0.019676277;-0.15702836;-0.10622523;0.080218315;-0.054678217;-0.124496154;-0.0048684087;0.023070874;0.03693988;-0.051517904;0.11454003;0.040256508;0.11571731;-0.02552634;-0.09946664;0.031009208;0.085210755;0.09180273;0.07119806;-0.06121615;-0.012919223;-0.053460848;0.12548044;-0.0941142;0.013474316;-0.011040905;0.05479653;0.037639715;-0.07289855;0.106238894;0.023759874;-0.11091063;-0.0332085;0.015799263;0.02693334;-0.013926147;0.00266593;-0.009800048;-0.05972021;-0.018453239;-0.13503471;-0.0863056;-0.00066469243;0.102735676;-0.14682405;-0.06400675;-0.1206136;-0.17276134;-0.00080965704;-0.01870864;-0.0010440835;-0.14819905;0.11384128;0.038408026;-0.1093501;-0.0015302825;0.046583097;-0.08192992;-0.02438136;0.032520793;-0.08812664;0.035425175;-0.08367134;0.031972602;-0.044860836;-0.14542823;-0.10997483;-0.10114082;0.02045796;-0.0054479823;-0.08681202;-0.0775904;-0.0019725484;-0.03325116;0.03545502;0.23233026;-0.09466709;-0.10580377;-0.041051727;-0.15817325;-0.07946435;-0.008238412;-0.10512658;-0.09046139;-0.13364258;0.037660133;-0.00876758;-0.0610934;0.038846478;0.03009085;-0.025892831;0.101837136;-0.10942055;0.007930606;-0.041622892;0.047711365;-0.1327662;0.017937439;-0.025204187;-0.04903073;-0.021594102;0.001278766;-0.09288377;-0.03846429;-0.031614732;-0.066159874;0.1566272;-0.011772703;-0.02072399;-0.008158668;-0.002243378;-0.071376435;0.015119091;-0.053241685;0.1329495;-0.026417973;-0.07831493;-0.07866384;-0.12553649;-0.045262937;-0.049509473;-0.034993473;0.009889816;-0.0071969274;-0.1182694;0.01570028;-0.014522356;-0.097053684;-0.08413428;-0.044820715;-0.19324487;-0.14252256;0.09422661;-0.0154490955;0.026879525;-0.08663375;-0.047106165;0.016461885;-0.03095763;-0.0946663;-0.10921111;-0.07726942;-0.0005898443;-0.095173314;0.17654686;-0.056805875;-0.019277014;-0.038953956;-0.055195406;0.017157786;0.0342795;-0.0045359735;-0.003837869;0.053669948;-0.059403576;-0.012208889;-0.0775745;-0.113176756;-0.048555028;0.033970274;0.0006704075;-0.00044485222;0.04872997;0.019257745;-0.07703827;-0.096141584;-0.012183672;-0.057065982;-0.115855016;0.15582818;-0.15500191;-0.017452048;-0.06107198;0.0582362;-0.008805345;-0.1359076;0.010651384;-0.0089794565;0.028931074;-0.18762815;-0.34346622;-0.07831874;0.0080177225;-0.04556336;-0.039355755;-0.0654883;-0.10825925;0.0045109564;-0.005993893;-0.05512383;-0.0019177293;-0.12330664;-0.019768985;0.106811576;-0.101270355;-0.111017175;0.0536691;-0.07050359;-0.0992478;-0.083332375;-0.018581137;-0.0677678;0.013812653;0.071999796;-0.06122855;-0.048355218;-0.13194329;-0.075246565;-0.066136494;-0.16178805;-0.08156482;-0.096711844;0.10649664;-0.098724544;-0.10363443;0.0072339815;-0.088937975;-0.16479826;0.016256014;-0.046408776;-0.0059974296;0.10701302;-0.05479878;-0.09701102;-0.054502603;0.040038466;-0.09111682;-0.09600392;-0.15411681;-0.21571277;-0.11308127;0.07107242;0.015192261;-0.12605871;-0.066168465;0.029519986
0.14382471;-0.07097025;0.06916849;-0.04449617;-0.13757753;-0.054102786;-0.12917832;-0.17566662;-0.05978476;-0.09903737;0.029253628;-0.09436218;-0.0038699845;-0.02513355;-0.11071901;-0.112028316;0.019192774;0.048350044;-0.032789443;0.020440038;0.040804666;-0.112383895;-0.06449556;-0.091256425;0.018598184;-0.093108326;-0.060542796;-0.021181822;0.03412099;0.059661034;-0.014247486;0.056912877;0.0146670705;-0.035726495;-0.033146106;-0.04901545;0.021245815;-0.08873692;-0.097232416;-0.0973604;0.0048925425;-0.14205112;0.023897704;0.092574745;-0.26647323;-0.0047121537;-0.086955756;-0.13609654;-0.019245654;0.07466028;0.018792784;0.11090387;-0.13408655;0.11473537;-0.11945216;-0.009109031;0.039386377;-0.049694654;0.0052499524;-0.067314506;-0.042149737;-0.14373606;-0.00091742614;-0.15892048;0.114949085;-0.13528696;-0.05459268;-0.17317833;-0.024297645;-0.09046712;-0.04410205;-0.05014726;-0.11580015;-0.032515664;0.06908819;0.04968115;-0.078148745;-0.032965913;0.17269282;0.07847414;-0.1661471;-0.0123546375;0.110099986;-0.10465843;0.023678308;-0.031649563;-0.002279002;-0.061049957;-0.11032665;-0.021877281;-0.055646446;-0.14612958;-0.09671257;0.045216274;-0.10882637;-0.118230134;-0.045965713;-0.06459197;-0.037804794;-0.09681487;-0.04315463;-0.0685112;-0.004588858;0.024426308;0.034709446;-0.04539134;0.09470299;-0.062936716;-0.06985469;-0.11682033;-0.16134226;-0.10324183;-0.05382441;-0.00224241;-0.004954291;-0.02138893;-0.11560921;0.14104734;-0.016996566;0.019137872;-0.05416805;-0.04630107;-0.092976235;-0.017119022;-0.008407651;-0.11872913;-0.06700218;-0.050907012;-0.05684942;0.020306898;-0.10976417;0.045045458;-0.050279886;-0.016742848;-0.12918782;-0.06288604;0.06931285;0.11646254;-0.08702862;-0.034423385;0.015077668;0.07304221;-0.09827432;-0.09867204;0.050391573;0.021500364;0.036278985;-0.034147926;-0.1258217;-0.04291284;0.027365735;-0.056076385;0.015119144;0.029692149;-0.08655654;-0.21421257;-0.07624537;0.07419783;-0.045986176;0.030852897;0.054734908;-0.11126132;-0.091694035;-0.081846856;-0.08371606;-0.120432116;-0.0033419433;-0.003099039;-0.08081832;-0.15523829;0.10138985;0.038985576;0.028459566;-0.059910454;-0.14684556;0.0007380594;-0.12663363;0.04199761;0.1097815;0.022415992;-0.059087418;-0.10663974;-0.06800358;-0.0069660246;-0.0035455348;-0.08661886;-0.08421852;0.0642351;-0.046077628;0.017394342;-0.012136244;-0.046697274;-0.06144761;-0.054353278;-0.052358463;-0.04639439;-0.015516542;-0.10309983;0.035882305;0.06361948;-0.10207971;-0.027359383;0.045413617;-0.12821591;-0.054424215;0.0045542847;0.0022163712;0.08389929;-0.020694545;-0.08301374;0.029003523;-0.017731534;0.008998604;-0.084417194;-0.07533156;-0.022094699;-0.109831706;-0.056936063;-0.028673852;-0.040541295;-0.08364936;-0.11488722;0.057053443;-0.050776012;0.044894587;-0.107357465;-0.012292489;-0.12177987;0.023521556;-0.14359458;-0.069678724;-0.10356616;0.015284611;-0.037109334;-0.019457282;-0.06679161;-0.07153069;-0.09657736;-0.048713185;0.06967951;-0.0059506735;-0.0019213654;-0.11329273;-0.11776361;-0.021994606;-0.06788163;-0.08926771;-0.083367586;0.019339979;-0.04848072;-0.058339387;-0.10554354;0.020674985;-0.028206132;-0.0977468;-0.096800804;-0.08702227;-0.14140834;-0.015417111;0.019964335;0.05295304;-0.16302735;-0.062801115;-0.031804357;-0.10364737;-0.06895317;0.06884904;-0.12239218;-0.085926145;0.027375657;0.010608515;-0.06010646;-0.021837637;-0.044358745;0.14094654;-0.052133467;0.045444094;0.044710707;-0.014397413;-0.16663034;-0.06135164;-0.20965084;-0.0060467077;-0.054740716;-0.045923837;0.029067408;0.036852;-0.048941884;-0.020101955;-0.057389453;-0.047389586;-0.14553562;0.041166753;0.0051716343;0.04509039;0.103975885;0.012072429;0.05267976;-0.29701185;0.028653245;-0.038149808;-0.064511776;0.04248411;-0.0027694022;-0.21448801;0.026157726;0.03762767;-0.01196567;0.03524295;-0.044735596;-0.004541656;-0.029521465;0.024361579;0.015989266;0.01944321;0.14632505;0.009968389;-0.055351514;-0.16129827;-0.07535481;-0.08157684;-0.16380231;-0.13651831;0.022184523;0.016493723;-0.07343092;-0.102436215;-0.11678513;0.030695844;-0.077206224;0.15522338;0.029485863;-0.01779735;-0.05555641;0.003592822;0.047127508;0.08897636;-0.07676934;0.0027437976;-0.0039660907;-0.017531985;-0.062839665;-0.05747198;-0.024512835;0.12719479;-0.11663441;-0.07001957;-0.044152472;-0.1192321;-0.0207578;-0.029073335;0.13543046;0.002737748;-0.064554185;-0.08648858;-0.039163183;0.054929;0.11076769;0.154411;-0.10174631;-0.103816085;-0.06614379;0.07754542;-0.12230917;-0.053318933;-0.0726054;-0.07004953;-0.018445322;0.025491724;0.058838245;-0.023925072;-0.071152;-0.048987526;-0.11787165;0.0012583347;-0.039795488;-0.081411585;-0.024935506;0.052887898;0.05246766;-0.002498937;0.02593298;0.00077512185;-0.029784905;0.01704108;-0.042136807;-0.06247207;-0.11168698;-0.07502048;-0.035358828;-0.11899524;-0.0927205;-0.046534464;0.080626816;-0.16472451;-0.08709661;0.115611725;-0.045510627;-0.02336617;-0.054327242;0.030836286;0.031169865;-0.040222697;0.07228539;-0.02019956;-0.104871325;-0.005974536;-0.22250073;0.006989513;-0.095169336;0.00781862;-0.10733536;-0.032971825;-0.036422435;0.103646874;0.12997702;-0.14395322;0.015152321;0.0959219;-0.13821498;-0.019761017;-0.015825687;-0.011279353;-0.03670298;-0.007267114;-0.08821518;-0.01661257;0.07025075;0.038732603;0.044769317;-0.11661729;0.002998509;-0.11132684;-0.0678788;0.06142379;-0.12088581;-0.06762251;0.05331476;-0.07029995;-0.061677165;-0.070833355;-0.13081552;-0.059859596;0.084989704;0.03262592;-0.015182593;0.1519711;-0.08667255;-0.02701227;0.0020069333;-0.070395544;-0.09166853;0.014349021;-0.04767446;0.041144736;-0.08307165;0.0012835191;-0.014468593;0.0129682;-0.10054345;0.007031205;-0.10775938;0.04881864;-0.031800754;0.009076738;-0.034614235;-0.08103187;0.0022868898;-0.14351618;-0.11811773;-0.10592963;-0.052067857;0.122190915;-0.079596885;0.02002716;0.01077745;-0.14067838;0.015542174;-0.0040014796;-0.09969035;0.03836251;-0.0030963894;0.04291023;-0.08238749;0.15165012;-0.03393695;-0.073673844;-0.086596176;0.09158004;-0.079759784;-0.0073245023;0.008466752;-0.012862251;0.0918544;0.039585605;-0.030114349;-0.12205663;-0.09774652;0.021963874;0.053799316;-0.09006811;-0.0015967333;-0.06813391;0.026474804;-0.03427505;0.012908196;0.006109619;-0.045400158;-0.1897658;0.067198806;-0.15662193;0.023962652;-0.060071528;0.0003090123;-0.047009803;-0.11299291;-0.0904413;-0.069470204;0.12707704;-0.16442342;-0.3424618;-0.06338277;0.0063700587;-0.03592385;0.056124337;-0.109143354;-2.8749098e-05;0.032728083;-0.004464061;-0.07483936;-0.05174109;-0.002912883;-0.021687986;0.040626302;-0.12139795;0.03225696;-0.059186872;-0.124410786;-0.1014831;-0.0532565;-0.07108116;-0.009274106;-0.012606406;0.04959946;-0.017602243;0.0007862824;0.005703773;0.03217944;-0.12599616;-0.099937536;-0.08013597;-0.035026334;0.124927774;-0.03274717;-0.09122424;-0.035618402;0.045020048;-0.21489435;-0.06931255;-0.06770219;-0.07066637;-0.0158043;-0.079100974;-0.057918612;-0.08115726;0.008933301;-0.015392912;-0.11907803;-0.07072139;-0.08298179;-0.1274168;0.02057716;-0.018367175;-0.11903492;-0.098606244;0.09619463
0.0069224825;-0.094254814;0.14251193;0.043634243;-0.1824192;-0.095406644;-0.049484912;-0.14497465;-0.0066562365;-0.052906543;-0.10848566;0.03785425;-0.07612773;-0.029905073;0.002583222;-0.072244324;0.028183676;0.10100623;-0.05234609;0.008170041;0.08917417;-0.015259595;-0.0011858643;-0.0819471;-0.06891233;-0.08730402;-0.11405566;-0.050908953;0.0005701675;0.17194983;-0.0016509271;0.16884497;-0.07446488;-0.08436755;-0.030417385;-0.075017534;0.03395187;-0.052833453;-0.10738576;-0.029053714;-0.049939364;-0.13898389;-0.05250164;0.013806164;-0.14033306;-0.025227074;-0.029171748;-0.021661742;-0.05663977;0.014909072;0.0031007982;0.038020045;-0.06288086;0.013172716;-0.07980589;0.06985907;-0.00830941;-0.030425405;-0.12567277;-0.09106416;-0.12142311;-0.22439517;-0.09899308;-0.117858164;0.09359391;-0.22979572;-0.0133352205;-0.120578304;-0.08194341;-0.035795033;0.011039462;-0.057248887;-0.051972765;-0.028564388;0.023952939;0.048085503;0.0031964243;-0.09334882;0.12687299;0.045258936;-0.16470659;-0.0061913654;0.025880672;-0.06958844;0.0670058;0.0011667015;-0.1273459;-0.12359732;-0.087734155;-0.008553451;0.0074148932;-0.15479034;-0.06659115;-0.0257242;-0.075251855;-0.1404259;-0.06967711;-0.056073353;-0.09692098;-0.09505326;-0.035758995;-0.05715395;0.008732672;0.037680533;0.04474943;-0.02459482;0.08892078;-0.059457935;-0.17921709;-0.15195256;-0.048571687;-0.089870475;-0.048014134;-0.03486687;-0.081473164;-0.042510387;0.0101745045;-0.020070381;-0.031169351;-0.07680474;0.03413416;-0.027582759;0.06836424;-0.050710805;0.04087134;-0.10547747;0.06898201;0.006049748;-0.054181784;0.042729378;-0.099017754;-0.03938882;-0.012760605;-0.007166294;-0.13743575;-0.11773124;0.031058365;0.16203173;-0.06656849;-0.089693576;-0.07829366;0.10429015;-0.12221899;-0.06421056;-0.08782256;0.005594939;-0.005875479;-0.019932043;-0.12807892;0.020448698;-0.06943954;-0.07655849;-0.024584023;-0.019014135;-0.062004562;-0.09672427;-0.0713262;0.045310885;0.055522256;-0.05110327;0.011079934;-0.06026551;-0.063146755;-0.133862;-0.110647514;0.01378845;0.026477154;-0.0034779098;-0.11418643;-0.033801552;0.15011927;-0.03236747;-0.03543348;-0.055481266;-0.11703984;-0.012029683;-0.06488219;0.06536817;0.08698732;-0.08465356;0.0732217;-0.1135525;-0.028107312;0.05026688;-0.001792765;-0.14511064;-0.062196467;-0.07164482;-0.0059628054;-0.0748496;-0.053583987;0.032006294;-0.08461482;-0.029883279;-0.045684565;-0.12164501;0.05698571;-0.07577286;-0.0027936527;-0.07515807;-0.05011225;-0.0957779;-0.09372507;-0.02048079;-0.11552096;-0.13011111;-0.05317643;0.023901146;0.079785526;-0.09653823;-0.12964824;0.036815513;-0.037192646;-0.11540708;-0.08233339;0.004639805;0.010256555;-0.019546457;-0.042776037;-0.11185727;-0.052323572;-0.12397481;0.030879756;-0.047606595;-0.059429217;-0.054640196;0.021525038;-0.1518686;-0.01785162;-0.06935765;-0.110295765;-0.061262522;-0.031693146;-0.114839405;0.009137963;0.0020971596;0.018370224;0.010537659;-0.0060651186;0.056360517;0.003796269;-0.1325362;-0.014223886;-0.088500895;-0.08868315;0.002372162;-0.138474;-0.0041676527;0.0323097;-0.021980695;-0.16411546;0.0094915535;0.0752394;0.073096074;-0.08034104;-0.11450989;-0.015173913;0.00013883912;-0.0926257;-0.027539236;-0.091350295;-0.090897955;-0.072241396;-0.0070895916;0.019239476;-0.06686785;0.05089321;-0.124007106;-0.10160333;-0.009945713;-0.001318613;-0.118798114;-0.08514485;0.029828526;0.069886975;-0.06865165;-0.030803291;-0.08887973;-0.050265893;-0.18791012;0.020129867;-0.25048104;-0.11758628;-0.060448334;-0.0033484218;0.041700225;0.010734175;-0.07772361;0.027235089;-0.03930225;-0.065286495;-0.14634417;-0.040638775;0.03939935;0.03481874;-0.033970237;-0.013657129;0.12270633;-0.2425001;0.028393889;0.059078984;0.010276401;-0.042048845;-0.1255677;-0.19954352;-0.0034120847;-0.052156962;-0.12131692;0.04093823;0.061121266;-0.023789616;0.0006818181;-0.02115987;-0.075146005;0.059884116;0.16316812;0.09361059;-0.08456053;-0.0027281367;0.024496527;-0.06472113;-0.16774592;-0.118897684;0.036439806;0.057740495;0.04738353;0.012990878;-0.008470965;-0.025276648;-0.017158499;0.13611662;0.023315325;-0.05567353;0.051648024;0.020292072;0.0024012504;-0.09947651;-0.056758948;-0.13105199;-0.11044171;-0.051867343;-0.10861404;-0.04589344;-0.020326579;0.107896954;-0.17322375;0.020390997;-0.08233261;-0.0067765005;-0.02954584;-0.0025644226;0.11476717;0.11110078;0.018072685;0.0075261584;-0.07957195;0.05433148;0.108578525;0.13232544;-0.03976891;-0.056960143;-0.0039574304;0.08291501;0.03392114;0.057640567;0.04974637;-0.03038872;0.039923195;-0.05781578;0.0865496;-0.009919346;0.0227414;-0.015230095;-0.09031998;0.05991212;-0.06384896;0.024730701;0.0020882848;0.021310091;-0.0144299725;-0.060043294;-0.10851535;0.08178673;0.021932473;0.011720677;-0.05212642;-0.1516515;-0.08227345;0.0060037575;0.016951045;-0.0392117;-0.14534406;-0.021596888;0.07660606;-0.11885473;-0.0724755;0.08322287;-0.16507654;0.009712676;-0.06756371;-0.063203126;0.013417416;0.034047265;-0.0016808178;-0.09654189;-0.017238582;-0.102258004;-0.095562585;0.025030617;-0.0010715944;-0.045855727;-0.03376817;-0.10915329;-0.0035712735;0.07615377;0.15537886;-0.034627248;-0.120289125;-0.004188942;-0.23749812;0.02803418;-0.17011192;-0.09776315;0.064352706;-0.13182352;-0.037984584;0.0076139527;-0.088763066;0.070428595;0.04886477;-0.1654696;0.10094294;-0.07572919;0.012679626;0.04411188;-0.1033041;-0.11926392;0.09855618;-0.096296236;-0.04139604;-0.015024933;-0.017202275;-0.035092823;0.06743369;-0.08529867;-0.015336232;0.1136536;0.005415245;-0.08022849;0.052697957;0.031154344;-0.059618633;-0.081301995;-0.03857866;0.07305292;-0.074242495;0.037208647;0.0005001694;-0.09694017;-0.09076371;-0.090825014;-0.13487554;-0.04390607;-0.07336076;-0.029555006;-0.10249874;-0.0051907967;-0.06755777;-0.0462754;-0.011443056;-0.094617106;-0.19092526;0.051791105;-0.088409446;-0.059782404;0.038367245;0.00010134113;0.01485999;-0.07238031;-0.08641553;0.030420877;0.039241534;0.024005866;0.031554073;0.059212003;-0.022048065;-0.15195973;-0.111669786;0.09996003;-0.08188778;-0.096123345;0.0218405;0.0108222375;0.08972276;0.028381592;0.0074250097;0.0001322226;-0.11830014;-0.060438916;-0.05178066;-0.03695114;0.03256026;0.073901825;0.044356693;-0.0143822115;-0.04215833;-0.09626277;-0.0061701545;-0.15220942;0.103802755;-0.06592141;-0.0024934616;-0.016434483;0.104012735;-0.007952186;0.008947975;-0.092481956;-0.10214824;0.04460345;-0.07495987;-0.26202008;-0.12683488;-0.077657476;-0.11795772;0.018768938;-0.089809805;-0.008641018;-0.0043432796;-0.021178398;0.070188686;-0.027452698;0.004021663;0.10518499;-0.03360274;0.013318655;-0.03991688;0.083748475;-0.12424777;-0.11706882;-0.14501682;0.022693153;-0.0075012445;0.0035860382;-0.00619506;-0.120578796;-0.11398306;-0.013752244;-0.08350551;-0.004867546;-0.105884776;-0.12893716;0.055440772;0.15834957;-0.10684191;-0.059941452;-0.103528574;-0.053803537;-0.13465278;-0.11908157;-0.11293555;0.035991147;0.05435143;-0.104232825;-0.04739583;0.008669948;-0.03378164;-0.052250504;-0.075213075;-0.1334654;-0.22093774;-0.041937973;0.115251295;0.04327053;-0.119883716;-0.08368691;0.07183677
0.09447131;0.014123149;0.026969956;-0.032060187;-0.1352098;-0.0639295;-0.117486835;-0.18807301;-0.024814952;-0.02626463;-0.116456375;-0.043164123;0.05011294;-0.07018184;-0.06413835;-0.0855904;-0.007494413;0.056391634;0.010233486;-0.07533603;0.018984485;-0.13746907;0.0070838556;-0.018181894;-0.034589067;-0.042636003;-0.09751364;-0.077214204;-0.008576592;0.14225225;-0.012842861;0.028610716;0.009946318;-0.038500194;-0.13863088;-0.15753163;0.040679555;-0.023920318;-0.09513885;-0.09807565;-0.08839529;-0.14526634;0.06300313;0.09671722;-0.17134796;0.0013212671;-0.07147;-0.031253543;0.036683243;-0.052992757;0.010753848;-0.043376256;-0.0774837;0.03140371;-0.13538451;0.093779296;0.01866908;0.009307544;-0.079512656;-0.15937316;-0.1171047;-0.107581615;-0.07665755;-0.1471894;0.0064686555;-0.18872547;-0.013202715;-0.17295124;-0.0039002148;-0.117557056;-0.077097654;-0.061649762;-0.1719245;-0.09260212;-0.021336168;-0.013044016;-0.062367857;-0.00065801456;0.17038172;0.11646933;-0.17464224;-0.0007021203;0.12063829;-0.028339457;0.053575393;0.052699838;0.021676593;-0.042631645;0.024669303;0.013974359;0.020755969;-0.016066028;-0.04357756;0.057863828;-0.1640957;-0.15544552;-0.10412139;0.021459319;-0.008271521;-0.056351963;-0.14065795;0.019576838;-0.0019591171;-0.10295443;-0.02951025;-0.065516405;0.05259232;-0.08110851;-0.1828703;-0.057245288;-0.03654784;0.02945895;-0.13532302;0.014321457;0.0009699153;-0.0407812;-0.09604817;0.12167799;-0.07714987;-0.08533671;-0.024442287;-0.001430873;0.04468975;0.0028295452;0.03283669;-0.11550555;-0.016824018;-0.08965177;-0.07053513;0.11175948;-0.018254608;0.04183401;-0.14074701;-0.088257276;-0.12812841;0.007182748;-0.04866339;0.084068134;-0.1100543;-0.060594626;-0.1248914;0.04210568;-0.055535972;-0.11207433;0.058603507;0.029280676;0.08532958;0.047396217;0.004455225;-0.028827107;-0.10294416;-0.080662414;0.047468532;0.007916202;-0.00037444104;-0.23607296;-0.12804788;0.08060086;-0.023207178;-0.07485543;-0.06231856;-0.08937756;0.0620834;-0.045539916;-0.122146696;-0.018347314;-0.012240748;0.06689237;-0.08039844;-0.0532322;0.053553425;-0.06476607;-0.08614239;-0.077257246;-0.13576266;0.0026876219;-0.015948886;-0.018502912;0.017143268;-0.10001312;0.04556332;-0.13535307;-0.05716363;0.093447834;-0.03499129;-0.0023120942;-0.016864533;-0.09875757;-0.08707059;-0.0014076297;-0.0917223;0.007371608;0.014093031;-0.04098165;-0.056348186;-0.05931664;-0.04158755;-0.12147103;-0.08285594;0.07323528;0.005129641;-0.0785908;-0.016625097;-0.08676937;-0.08671577;-0.10966511;-0.12486375;0.06585577;0.042234473;-0.08517748;-0.084541194;-0.04684118;0.029311858;-0.009409253;-0.05659423;0.031037137;-0.107212946;-0.037049145;-0.07988951;-0.12061919;-0.12988909;-0.05885861;-0.0933576;-0.071346425;-0.109869316;-0.085881814;0.07664331;-0.008790978;-0.1129074;-0.055957124;-0.12872608;0.00048402912;0.012968393;-0.109389655;-0.05925279;-0.030680805;-0.080105565;0.0023211762;-0.03368963;0.15200639;-0.030410908;-0.12227448;-0.14888047;-0.10492696;-0.014356746;-0.0151503505;-0.15002237;-0.03298128;-0.042479243;-0.09411051;-0.07540174;-0.022848979;-0.021743935;0.036496766;-0.14832734;0.0109664695;-0.012899905;-0.14473352;-0.047671918;-0.10256907;-0.07519545;-0.019137453;-0.036170576;0.09295344;0.00014631497;-0.023230115;-0.0040876903;-0.036684204;-0.14610845;-0.033166103;-0.14379428;-0.15336958;-0.053185076;-0.098946325;-0.003112853;-0.02329205;0.0553389;0.031375084;-0.1206154;-0.14813031;0.027460027;-0.17061141;-0.052390747;-0.13692445;0.021076256;-0.015004822;-0.08237135;-0.11446712;0.013890007;-0.04028037;-0.08048367;-0.10982108;0.08900647;-0.052956842;-0.07835397;0.020490399;-0.063913666;0.027560512;-0.21522397;0.028061844;-0.059520364;-0.031237574;0.01243667;-0.10603265;-0.124499075;0.023261733;-0.053345565;-0.080421984;-0.10914293;0.008443825;0.058136173;0.0002565764;-0.086016275;-0.007958889;-0.005663153;0.029070063;-0.054287296;-0.096477844;-0.11964229;0.019256938;-0.09727723;-0.09104507;-0.093724005;-0.014066239;0.019968208;0.0077042817;-0.09306404;0.028763931;0.001051263;-0.0023718036;0.086712725;0.072374545;0.008511016;-0.0039164983;-0.08494687;-0.01768315;-0.043550003;-0.034148384;-0.04757266;-0.111450695;-0.14022931;-0.04229913;0.01914346;-0.007011987;0.08345771;-0.11761812;-0.022086905;-0.059512362;-0.10322805;0.054312687;0.03420352;0.011565663;0.065454595;-0.07599649;-0.09525086;-0.105936155;0.10470669;0.11516991;0.023334427;-0.087229565;-0.12199261;-0.044363257;0.08934544;-0.0037065204;0.029475076;-0.00033815167;0.037887044;-0.04428666;-0.034255248;0.03335766;-0.12156224;-0.003121797;-0.17369427;-0.053817656;-0.060485993;-0.124523826;-0.07286368;0.021096343;-0.07601899;-0.0823837;-0.1041607;-0.001509504;0.026219819;-0.001224665;-0.102074474;-0.09071141;-0.09393076;-0.026556248;-0.041572962;-0.003133556;-0.11556409;-0.06699439;-0.033134423;0.024101762;-0.03348031;2.555388e-05;0.061569944;-0.049342863;-0.0010906335;0.00788402;-0.072403975;-0.010646365;0.027705569;-0.01608402;-0.0760742;-0.09707248;-0.04201012;-0.24129903;0.0472289;-0.090930305;-0.020712115;0.03655426;0.0030775175;0.025377933;0.055365708;0.20525248;-0.13003092;-0.05963494;-0.038521927;-0.15789491;-0.03276138;-0.18588154;-0.06470625;0.05030318;-0.009667024;0.026443355;0.064369045;0.00091351033;0.051585943;0.02178622;-0.12066876;0.13317013;-0.123844735;0.030557748;0.07125263;-0.015026004;-0.033550896;0.07977834;-0.037984446;-0.12011589;-0.06657457;-0.007854376;0.017170995;0.025314886;-0.010747121;-0.112936065;0.17228656;-0.064786196;-0.11977593;0.07876237;-0.076789804;-0.008148909;-0.06820345;0.0052404213;0.06650494;0.015607943;0.020862684;0.13743271;-0.012972249;-0.050568167;0.044564646;-0.065619595;-0.061095346;-0.040284198;-0.07118368;-0.12522617;-0.09857691;0.021949032;-0.121318944;-0.06541487;-0.059081063;-0.061134744;0.038627245;0.0407149;0.03893649;-0.06546691;0.022686869;-0.05072039;-0.075455636;0.044512108;-0.019583879;-0.10268224;-0.053955164;-0.0006477484;0.048893847;-0.004539827;-0.06616932;-0.10925041;-0.04839491;-0.063223064;0.022181273;0.13979866;0.09280433;0.12534739;-0.030234717;-0.026505465;-0.024778647;0.024613634;0.03334572;-0.06865445;-0.06520803;0.03409063;-0.06781941;-0.10913964;0.01236189;-0.08217686;-0.008728804;-0.052580886;-0.17386055;0.04575768;-0.06057643;0.013351777;-0.124455854;0.021103896;0.053026967;-0.020377146;-0.043530792;-0.08629749;0.18790033;-0.07195127;-0.23806857;-0.07057263;-0.019337045;-0.1521208;0.10861059;-0.107947655;-0.11962116;-0.025092881;-0.06606875;-0.03288398;0.020161899;-0.11373582;0.06745204;0.0016818859;-0.04920017;0.04559209;-0.07707216;-0.14983785;-0.03933105;-0.06971199;0.0266146;-0.008638206;-0.022608077;0.0063618124;-0.114567466;-0.10742904;-0.08347093;-0.059714954;-0.048030794;-0.043194152;-0.18397033;0.01146076;0.07901861;0.042878095;-0.085698076;-0.09409057;0.023448935;-0.14186698;0.04850289;-0.009007069;0.019594492;-0.018265218;0.0027732719;-0.07290198;-0.012375176;-0.04484194;-0.014448966;-0.015403664;-0.01848672;-0.06997399;-0.026504315;0.06923387;0.006528746;-0.03414141;0.06100088;0.036880102
0.11019148;-0.01650396;0.0890093;0.011937291;-0.13819554;-0.092699856;-0.01875093;-0.12757549;-0.010354847;-0.015697297;0.014421453;-0.06318021;-0.018998392;0.013192516;-0.03315302;0.018748872;0.12487132;0.025719035;0.00460679;-0.0493489;0.053626616;-0.08694017;-0.050140448;-0.07270579;0.05949037;-0.12505305;-0.019232364;0.015221733;-0.016526612;0.013320469;0.0032668514;0.013251352;-0.11784456;-0.17657958;-0.018713139;-0.14847636;0.057500854;-0.05744398;-0.0875241;-0.005388695;-0.08530038;-0.15379827;0.058078934;0.08667933;-0.20142755;-0.06538408;-0.09806891;-0.045142543;0.047357265;0.0934659;-0.052881934;0.017780352;0.013403754;0.0401673;-0.01390852;0.019014042;0.038933154;-0.07638896;-0.008002365;-0.14076969;0.041742515;-0.16328305;-0.09429333;-0.033493698;0.0671032;-0.23187625;0.032916423;-0.16755024;-0.030427657;-0.122164994;-0.009545998;-0.102611594;-0.060008142;-0.10086541;0.012929525;-0.08501038;-0.052607093;0.04607655;0.07822283;0.0058773616;-0.060988527;-0.0984433;0.0149274925;-0.14767176;0.079811275;0.07677416;-0.08362805;-0.036273688;-0.006721662;-0.022189874;-0.048582945;-0.042779878;-0.09364801;0.04742178;-0.119791344;-0.16410773;-0.0077543487;0.00043529522;-0.1211435;-0.10464277;-0.10789283;-0.100988224;-0.09789205;-0.015690539;-0.03331744;0.04532923;0.044018965;-0.010354927;-0.17999423;-0.005495961;-0.18571366;-0.082469255;-0.09518934;0.08052305;-0.030026883;0.073053375;-0.10852491;0.056574352;-0.10923989;0.027021773;-0.08868293;-0.08537928;0.027894069;-0.06931291;0.05303602;-0.016412094;-0.018349452;-0.047134154;-0.1021717;0.0574253;-0.027686203;0.044255823;-0.07375532;-0.0486337;-0.052720495;-0.114142135;-0.031626403;0.07633562;-0.1120283;-0.044073224;-0.011811898;0.13031098;-0.0740504;-0.109896004;0.025306324;-0.09978638;0.04624153;0.013925521;-0.08414077;-0.055213455;-0.11236334;0.017356077;0.010354478;-0.051714506;-0.042479765;-0.13870761;-0.105151154;0.06696504;-0.08008681;0.025370773;-0.04224516;-0.086670406;-0.030469524;-0.1455235;-0.09351593;0.03354311;-0.02832887;-0.05047006;-0.08029088;-0.044513125;0.15122688;0.048845306;-0.022188837;0.02256578;-0.07345258;0.05703148;0.01576663;0.056169897;0.1282674;-0.050624937;0.070205085;-0.040781815;-0.07331321;0.01620293;-0.082381755;-0.031831298;-0.011795778;0.015915163;-0.10786037;-0.08564722;-0.017954107;-0.022674147;-0.04866878;-0.16164781;-0.09953569;-0.048239205;0.014778047;-0.055337645;-0.09513723;-0.02650286;-0.027648373;0.0031522044;-0.07446707;0.03377846;-0.03502277;-0.030406877;-0.0118498495;-0.008505373;0.14241762;0.017835803;-0.110932685;-0.050841432;-0.05593642;-0.07883824;-0.05084975;-0.002261508;-0.10037072;-0.016536243;-0.07219842;-0.06295404;-0.17505375;-0.014632615;0.054566342;-0.09078256;-0.05254696;-0.012598554;-0.04464934;-0.1649743;0.037251845;-0.14828022;-0.05099037;-0.035419933;-0.060496826;-0.06651848;-0.09175164;0.06951267;0.056456063;-0.06722962;-0.000602676;0.030540656;-0.039475057;-0.071722664;-0.1391688;0.011160335;-0.023301978;-0.14179613;-0.12218253;-0.07885582;0.052171696;-0.03094297;-0.13433242;-0.13739389;0.024198992;0.08804041;-0.14657328;-0.013878225;-0.10216241;-0.03803294;-0.07421092;-0.090953946;-0.09071539;-0.062876925;-0.103675134;-0.010570353;-0.11318814;-0.08527567;-0.057098906;-0.14810085;-0.13083534;0.065431364;-0.12284007;-0.16557631;0.0015543889;-0.061226193;-0.022834657;-0.020511389;-0.006018359;-0.0785421;-0.099902414;-0.059093196;0.032081906;-0.19030459;-0.07576474;-0.062356874;-0.09406402;-0.06825342;-0.06965362;0.020462245;0.027959976;-0.052122593;-0.046437956;-0.12041908;-0.052830223;-0.11535103;0.07614844;0.017802496;0.03707519;0.002801088;-0.30696613;-0.11662474;-0.010039551;-0.08161822;-0.06103762;-0.053255677;-0.13071004;0.077734105;-0.047427125;0.009488512;-0.035216633;-0.063831836;-0.08983556;0.009722048;-0.02483164;-0.0037153633;0.094897054;0.15861382;0.0895295;-0.049102552;-0.024466876;-0.08845885;-0.03598367;-0.2119635;-0.10278579;-0.067619786;-0.024385503;0.06013158;0.030378772;0.01680295;0.05470306;-0.009172308;0.1845041;0.020806093;0.014932333;-0.004404318;0.024838228;0.022402376;-0.04513065;0.07316539;-0.024742782;-0.11533385;-0.0247754;-0.023046717;-0.085325606;0.07749487;-0.015605647;-0.18791443;-0.033549853;0.024326788;-0.038784605;0.024442727;0.0012613202;0.055061635;0.085231885;0.04687161;0.015938288;-0.067940734;0.042129714;0.014434379;0.015320817;-0.010122216;-0.119127415;-0.11190906;0.08723701;-0.074148975;-0.08555683;0.055368304;0.018083202;0.0027674825;-0.12504552;0.088998534;-0.019428795;-0.13129836;-0.092072934;-0.070693925;-0.039844967;-0.13356467;0.06198255;-0.06944565;0.033895217;-0.06310203;-0.008003861;-0.10259421;0.000101835525;-0.051737443;-0.07444192;-0.084912136;-0.08527271;-0.08456023;-0.049591422;0.05015923;-0.048271492;-0.20046887;-0.022931056;0.09555833;-0.15740511;0.034207076;0.06469863;-0.086380556;0.018391825;-0.068702035;0.035184678;-0.056117874;-0.055382702;0.04992502;0.04374004;-0.014952788;0.0006714723;-0.11849495;-0.03478009;-0.07988045;-0.0382955;-0.062794976;-0.10690813;-0.108230144;0.05593726;0.24714229;-0.059061654;-0.018801328;-0.050564703;-0.16073853;-0.08202453;-0.17839783;-0.104142256;-0.067474365;-0.00451386;0.04682814;-0.010096883;0.048870776;0.06102614;-0.013099723;-0.10890997;0.09904598;-0.10409551;-0.10525743;-0.034310516;-0.05943994;-0.16088091;0.1363338;-0.12700632;0.017743329;-0.0271583;-0.103327334;-0.042891953;0.11611829;-0.050811175;-0.11220497;0.052146774;0.020183293;-0.08995604;0.009255497;-0.005726911;-0.0009883023;-0.036264148;0.046337474;0.024447944;-0.0878451;0.026758024;0.04653771;0.04604785;-0.061075497;-0.09615234;-0.08185616;0.04000592;-0.0004677573;-0.083820015;-0.06664242;-0.058400657;0.015319503;-0.11968067;-0.039763767;-0.1035691;-0.081108615;0.07832426;-0.062063187;-0.01185583;-0.031693563;0.017974548;-0.07742247;-0.10148191;0.006935374;-0.067358464;0.0030513385;-0.056260835;-0.045307443;0.1199266;-0.02836127;-0.11711425;-0.07214964;0.108669855;-0.08884926;-0.103843324;0.08855761;-0.027926343;0.07764087;-0.077338554;-0.09535131;-0.08192212;-0.06025804;-0.08861169;-0.057083476;-0.032534543;-0.093046196;-0.026307272;-0.03673628;0.008225296;-0.12414483;0.05238508;-0.06486132;-0.18837254;0.0025074014;-0.13227537;0.018218264;-0.05122703;0.08186069;0.012320807;0.025826776;-0.054732032;-0.011104836;0.15686047;-0.15309273;-0.22431472;-0.0927469;0.023908934;-0.0076185944;0.074162625;-0.042944353;-0.06307355;-0.06923974;0.07822698;-0.062903665;-0.10547603;-0.016722376;0.031404994;0.0032843072;-0.1265234;0.04154507;-0.018701566;-0.18092665;-0.15664823;-0.064426616;-0.016137516;0.027753621;0.0032050342;0.007123926;-0.061765403;0.042539496;-0.045410287;0.020441024;0.013525496;-0.15695216;-0.10338668;-0.07219701;0.09690892;0.02323965;-0.08911528;-0.02666827;-0.01032357;-0.29279533;0.02716929;-0.017437954;-0.0165627;-0.00863258;-0.08785877;-0.07994111;-0.012510293;0.065085314;-0.023720674;0.00137443;-0.17538401;-0.19240142;-0.12999998;0.039360832;0.00445534;0.012962215;-0.015911156;-0.03597205
0.11028863;-0.051002968;0.039434206;-0.06074576;-0.1406904;0.02242744;-0.027785959;-0.07791455;-0.019104978;-0.037170287;0.045905568;-0.045814376;-0.01110434;0.0041224277;-0.10248091;-0.049996108;-0.0067244503;-0.059031405;0.00089642726;0.08020756;0.022081515;-0.009136301;-0.046081204;-0.04491628;0.013512072;-0.09972897;-0.037935827;0.012123486;-0.056579918;0.1134582;-0.09886872;0.13437857;-0.10005765;-0.12419086;-0.07234858;-0.008242994;0.021186758;0.01848283;-0.1268076;-0.0750214;-0.0419163;-0.12947218;0.052342813;0.09254982;-0.16492707;-0.049975004;0.02537282;-0.12379496;-0.0710214;0.090428896;-0.12878734;0.052546225;-0.09520071;0.07872118;-0.11401179;-0.0032930807;0.045215447;-0.024932105;0.027361745;-0.033721548;-0.019486466;-0.16885085;-0.0062887305;-0.07035554;0.053511452;-0.22346424;-0.009075381;-0.09745446;-0.101555556;-0.15511306;-0.020660259;-0.09061429;-0.08519868;-0.09595629;-0.024131024;-0.012772654;-0.104656234;0.039059702;0.13376454;0.03395514;-0.1896866;-0.007821758;0.13896507;-0.14152803;0.0026306903;0.057590112;-0.039648633;-0.15750542;-0.08162824;-0.02246124;-0.07488347;-0.046124015;0.05251951;-0.034367893;-0.0581388;-0.049819414;-0.106545635;0.0045686355;-0.1421071;-0.030816676;-0.11229009;0.0445337;-0.059707046;-0.037832998;0.046757393;-0.050768055;0.044308163;-0.007571183;-0.094428495;-0.07939161;-0.12944303;-0.054230034;-0.00015530297;0.016481247;-0.007396005;0.048727717;-0.10876896;-0.012892308;-0.01594795;-0.05917683;-0.036836646;0.031207336;0.049232703;-0.1513685;-0.073060304;-0.0405573;0.071778774;0.0055337423;-0.109857045;0.0013855322;-0.0085966615;0.014843613;-0.039552752;-0.05703734;-0.10629597;-0.10422155;0.041011166;0.027240615;-0.026258608;-0.031166956;-0.114173315;0.03002867;-0.11564928;0.010917822;-0.0010410431;-0.004964507;0.08612299;-0.059156723;-0.030850586;-0.044461146;-0.085490294;0.020627912;-0.04235712;0.0511763;-0.0013192953;-0.2500055;-0.15168819;0.008849288;-0.034977403;-0.019410087;0.042624384;-0.03548014;-0.023723962;-0.087421164;-0.04600807;-0.07844509;0.00029824203;0.0780642;-0.08982257;-0.050081402;0.019559016;-0.06819494;-0.00638704;0.006018764;-0.004970582;-0.014962036;-0.09389582;-0.012464578;0.055649403;-0.09094582;-0.018153453;-0.08375187;-0.07337472;-0.036620352;-0.08561224;-0.08984468;0.04672943;-0.076907024;-0.11767935;-0.047398172;0.046475444;-0.038386956;0.043741547;-0.031650424;0.042920776;-0.15794168;0.05479351;-0.09249308;-0.07827325;-0.09815379;-0.06856119;0.051950153;0.0022328508;-0.120516;-0.05497781;-0.061489873;-0.0030422595;0.13814282;0.09675355;-0.07569692;0.0061761783;0.022077326;0.033647396;-0.095975414;-0.0924933;-0.12985708;-0.028391771;-0.05400961;-0.10938168;-0.15421312;-0.06849592;-0.12645869;0.00273466;-0.075004816;0.002650822;-0.007972564;0.0771609;-0.0963521;-0.0268676;-0.08562557;-0.084970854;0.03534292;0.03422433;-0.07586603;-0.076563016;-0.07633738;-0.028820321;0.06429546;0.047238182;0.06464349;0.04326553;-0.057500895;-0.1395221;0.024640072;0.057850476;0.014346513;-0.029578447;0.0144348405;-0.08531831;-0.068948455;-0.09647881;-0.010904172;0.08724137;0.032528117;-0.1442208;0.021316538;0.011894887;-0.105051;-0.043720447;0.018520655;-0.062950425;-0.13555267;-0.106432356;-0.036770817;-0.011014336;-0.020366408;0.008420302;-0.11523878;-0.13857782;-0.037718005;-0.13151896;-0.13499786;0.037211586;-0.037165307;-0.06098818;0.0012327542;-0.06647528;-0.07326333;0.0131422095;-0.16474123;-0.100720644;-0.14252079;-0.077590264;-0.07633485;-0.041551415;-0.0953326;-0.107246436;0.0520292;-0.05944295;-0.0054382035;-0.013080341;-0.24505639;0.07238394;-0.111829385;0.08673066;0.115420006;0.02838987;0.06426707;-0.21722336;-0.058916014;-0.09189883;-0.10903609;0.026175566;-0.08022276;-0.16728672;0.050832774;0.00022225128;0.005375582;0.06508251;-0.033685118;-0.094685145;-0.06661257;-0.12327548;0.028005037;-0.0044554803;0.149333;0.028285936;-0.04775662;-0.064173475;0.04715769;0.022845753;-0.17211957;-0.11952047;-0.0678449;-0.0063937875;-0.032335836;-0.08725727;0.0022798225;-0.08840297;-0.080173105;0.118294105;-0.012648842;-0.092555024;-0.050919443;-0.042619478;0.09120533;-0.08111427;-0.082499415;0.021724463;0.017250484;-0.016033217;-0.07123294;0.0053370325;-0.008564817;0.043430846;-0.077236645;-0.03876499;-0.090791866;-0.102785245;-0.07350667;-0.07992265;0.131059;0.03383226;0.040982854;-0.06282062;0.061420493;0.1200407;-0.011186587;0.14981052;-0.036752116;-0.007890169;0.038203795;0.085019425;-0.014439596;-0.09066486;-0.021452177;-0.057594646;-0.0066458867;-0.043768227;0.12838955;-0.091055274;-0.1271709;-0.13671197;0.0042562527;0.07808723;-0.09803342;0.022584056;-0.15459509;-0.029448235;0.05374102;-0.07226069;-0.10958173;-0.07204587;0.04268465;0.020541182;-0.009772213;-0.053702988;-0.17437774;-0.13008732;-0.02914414;-0.09009425;-0.078547366;-0.030237235;0.09229376;-0.120130375;-0.08038204;-0.0251978;-0.10253729;-0.02700983;-0.044997673;-0.0749362;0.0426961;-0.08563708;0.07943608;0.046741433;0.017600028;-0.0687072;-0.22632228;-0.0043337476;0.017135259;-0.1222007;0.02090664;-0.12544459;0.026169723;0.069264166;0.13341826;-0.14116243;-0.065377414;0.04844523;-0.19738562;-0.015327228;-0.19887602;0.022244534;-0.044484045;-0.053130865;-0.010676213;-0.0077509913;0.023769636;0.079048604;-0.034504674;-0.17652133;0.1344935;-0.1371666;-0.1094434;0.025435343;-0.041926563;-0.138367;0.14448452;-0.14396673;-0.03125347;0.012356275;-0.05715553;-0.054518946;0.044395715;-0.05794923;-0.109429;0.0910121;-0.0136669045;-0.06170516;0.026562534;-0.038413983;0.012080363;-0.11767157;0.003943674;-0.0008273423;-0.030195912;-0.07342746;0.02207047;0.0458052;-0.0035634253;0.032659084;-0.019214783;-0.024936467;0.014308222;-0.045588832;-0.08429538;0.0062046135;0.006047557;-0.043926857;-0.07832263;-0.17543969;-0.17632373;-0.0022811512;-0.023974577;0.05855217;-0.06773775;-0.0038847215;0.0048971004;-0.09829743;0.061944887;0.021039207;-0.0076764254;-0.0031068237;-0.039446633;0.12462418;0.07466875;-0.03150195;-0.029350003;0.009849963;0.05170014;0.03450086;0.097446635;-0.006743191;0.044332977;-0.009760433;0.03269321;-0.111962624;-0.004365777;-0.072394155;-0.043376416;-0.06540479;-0.013445151;-0.03764452;0.05067888;-0.040197425;-0.083394304;-0.08554889;0.0051006223;-0.09088814;-0.005803981;-0.037896324;-0.028238624;-0.010460333;0.13122374;0.05695146;-0.084114015;-0.054844;-0.056894645;0.08699874;-0.049641356;-0.32914564;-0.09092458;0.009500116;0.0065095033;0.08250715;-0.012932434;-0.03821135;0.026608672;-0.067572474;0.031251416;0.03867052;-0.12262768;-0.026020458;-0.03603221;-0.10405518;0.013049842;0.09187218;-0.047665402;-0.097148016;-0.11898887;-0.08828626;0.022504296;-0.064232364;-0.012447558;-0.13520835;-0.0768402;-0.0495086;0.023020562;-0.086520605;-0.12380761;-0.026209999;-0.08190243;0.101109535;-0.0485017;-0.045525227;-0.059602518;-0.095681846;-0.14316449;-0.041075107;-0.055199765;0.010687355;0.04654785;-0.06737574;-0.048286933;-0.06558426;-0.06565611;-0.07837717;-0.089077346;-0.037272234;-0.13526475;0.00828227;0.011958872;-0.0034286156;-0.01182984;0.008041767;0.0026075419
-0.055756707;-6.0026294e-05;0.013908231;0.03990751;-0.11223959;-0.05768272;0.046232365;-0.19483386;-0.06986072;0.049168944;-0.051311538;0.029013002;0.03893238;0.015789123;-0.05588192;-0.03070776;0.037343685;0.059063643;0.06739467;0.017655883;0.1420907;-0.14339258;-0.056999665;0.05302447;-0.050688807;-0.2030926;-0.07485225;-0.025746087;-0.096065246;0.010698929;-0.011189992;0.07791212;-0.09148288;-0.1127215;-0.022901354;-0.17366016;-0.0060271057;0.00598443;-0.10745562;0.015230078;0.03773573;-0.06904744;-0.019618696;0.094757855;-0.13420084;0.06171367;-0.0057846466;-0.08063848;-0.037946157;0.024420395;-0.0033554328;0.062137064;-0.021158693;0.09802538;-0.1104049;0.0979491;0.068392634;-0.08399609;-0.12358262;-0.006128763;0.022502422;-0.14167935;-0.038020756;-0.07325544;0.029444171;-0.28147158;-0.04536885;-0.16196205;-0.08413125;-0.109402016;-0.016017206;0.015691426;-0.10074657;-0.073398285;0.10456723;-0.08398862;-0.0024941145;-0.037002273;0.065024726;0.03885656;-0.16152032;-0.037985865;0.02775728;-0.16524671;0.058782034;0.0025521766;-0.0288814;-0.10281232;0.022730127;-0.070458524;-0.013483302;-0.085667014;0.04536828;-0.020181822;-0.058567867;-0.034127396;-0.040336374;-0.0031245928;-0.10447046;-0.092694186;-0.016991418;-0.03356735;-0.081628725;-0.096558556;0.0033633718;0.031151023;0.024240635;-0.028492954;-0.14270815;-0.043588217;-0.06803243;-0.029036712;0.003964814;0.12487904;-0.02718842;0.06179325;-0.1271809;-0.053626295;-0.047847804;-0.076538056;0.034837205;0.027102642;0.06661384;0.009008457;0.07809336;-0.0059860726;-0.032186966;-0.02975836;-0.09540896;0.138973;-0.022194082;0.04823417;-0.15309168;0.005031299;-0.07122127;-0.031508807;-0.07089753;0.11233778;-0.14949271;-0.031797476;-0.011887968;0.0074598137;-0.029111;-0.11194783;0.058102828;-0.102765106;-0.041269183;0.049881168;-0.15310293;0.06546182;-0.034270227;-0.12713638;0.07541691;-0.042551912;0.047959514;-0.10874712;-0.09724493;0.11389899;0.021572828;-0.04913378;-0.048341278;0.011358732;0.06350917;-0.07711025;-0.0082800705;0.017402386;-0.07923512;-0.037475128;-0.07833578;-0.039527126;0.16354327;0.09152495;-0.020185767;-0.00248604;-0.10450008;-0.013278081;-0.053160917;0.04755183;0.11664154;-0.036395997;-0.031030271;-0.112415835;-0.06374078;0.054664742;-0.075397275;-0.047327902;0.12537667;-0.044734146;-0.05115438;-0.01368661;-0.07895746;0.053910352;0.030447304;-0.03494642;0.026089184;-0.026242623;-0.07800584;-0.015274916;-0.033431433;-0.026900547;-0.07923439;-0.025067689;0.0024173998;-0.12486009;0.014639656;-0.10154673;-0.15383743;0.1254314;0.12880437;-0.012136165;-0.114215195;0.048520416;0.027068004;-0.111601494;-0.073695205;-0.058755554;-0.009388442;-0.14253454;0.017738493;-0.0828353;-0.0962312;-0.12053583;0.009272111;0.02347547;0.025514117;-0.08688147;-0.0034985112;-0.086028986;-0.0478016;-0.121827535;-0.037782945;-0.03138691;-0.06582062;-0.05727829;-0.09749702;-0.068150096;-0.026549995;0.017036086;-0.010781608;0.16793934;-0.012040186;-0.021977557;0.0017892517;-0.059877403;0.050890584;-0.093714945;-0.06812231;-0.042414267;0.031422406;-0.08985086;-0.13259834;-0.101010144;-0.016929088;0.06191144;-0.10158595;-0.1244674;0.060203794;-0.040509664;-0.018717308;-0.093698464;-0.04384276;-0.1476707;-0.0260832;-0.054791797;-0.020809334;-0.083230264;-0.01411163;-0.13760355;-0.026548056;0.045877967;-0.1037972;-0.045827895;0.032721087;0.010128221;0.021085877;0.051657047;0.023980508;-0.040567905;-0.036186155;-0.08726963;0.053195857;-0.10821108;-0.025629535;-0.07096974;0.014898845;-0.082934834;-0.01107296;0.017743142;-0.07515516;0.07196345;0.038305894;-0.21210124;0.08189277;0.004417075;-0.011875272;0.10121842;-0.033200316;0.035901796;-0.2660289;0.032553695;0.05873486;-0.064543866;-0.070559375;-0.048283923;-0.21957676;0.023527632;0.04544315;-0.06873554;0.050467033;-0.046516407;-0.002567295;-0.027343117;-0.06618953;-0.0015025291;-0.040450033;0.038651824;0.05978727;0.008559773;-0.09822489;-0.02116834;-0.09326233;-0.0714072;-0.13451053;-0.0812506;0.07436893;-0.047208097;-0.047726437;-0.0040360317;-0.074261695;0.042075336;0.18195719;-0.048038915;0.042663887;0.0743288;-0.084851034;0.020475322;0.025348155;0.06686166;-0.064856425;-0.05006291;-0.057862207;-0.12767105;-0.061463572;0.06782301;0.14210372;-0.122967556;-0.02704123;-0.047498044;0.023448827;-0.017165177;0.019384466;-0.044429176;-0.012014024;-0.030193483;-0.10701602;-0.0037265508;0.10306441;-0.0250567;0.12079936;0.02914163;0.0022426322;-0.10699195;-0.0043952656;0.023499735;0.02787833;-7.263404e-05;-0.040589556;-0.12891756;-0.08739785;0.09780264;-0.07788238;-0.08416703;-0.17289725;-0.079029545;0.04868631;-0.052584723;-0.07807584;-0.030871106;0.068577595;-0.058343705;0.018561555;-0.07063574;-0.07143209;-0.047713384;0.027493283;-0.09029782;-0.058904257;-0.1929937;-0.14173968;-0.050766807;-0.117236115;-0.07641988;0.014467285;0.04628323;-0.12142747;-0.015237809;-0.026496664;-0.10840111;0.057562925;-0.055392;0.021587623;-0.0319953;-0.078741446;0.06349077;0.044871442;0.035896424;0.009203523;-0.14185129;-0.036554538;-0.034882426;-0.06770205;-0.019405419;-0.04242539;0.016116463;0.07708445;0.10002237;-0.15950552;-0.100826845;0.049581934;-0.16305955;-0.082224585;-0.07342846;-0.012270614;0.07162373;-0.06577424;0.026961789;0.015476248;-0.024142008;0.041623585;0.020527696;-0.031854477;0.02855284;0.017816717;-0.018403139;-0.05853728;-0.055869605;-0.10019639;0.16836853;-0.004824933;-0.08611059;-0.13236612;-0.02550115;-0.09422216;-0.006522939;-0.00037822663;-0.07495107;0.11293238;-0.023587927;-0.08078789;0.04334692;0.018271692;0.014553398;-0.12445154;0.0040124226;-0.029248478;-0.016629744;-0.09263978;0.022737315;0.0062376745;-0.025186624;0.008302589;-0.11498096;0.03758348;0.033920493;-0.10706821;-0.07869315;-0.009554024;-0.09647988;-0.103051014;-0.08345908;-0.19591977;-0.11754259;-0.02053621;0.016562607;0.007936342;-0.055146318;-0.08366914;0.02055146;-0.047652926;0.0052938177;0.042780917;-0.024249148;0.05890645;0.04951161;0.015292439;0.024618817;-0.12974042;-0.14348103;0.032204486;-0.098581076;0.027782021;0.033298515;-0.053822346;0.025693515;0.04516077;-0.08574196;-0.09376095;-0.019810654;-0.03474528;-0.00031822862;-0.09358717;-0.118811406;-0.031623196;0.05421709;-0.052194696;-0.007103912;0.020560276;0.04627219;-0.18015811;0.040227078;-0.13612305;0.057172254;-0.0702851;0.08554758;-0.034908045;-0.095472544;-0.10269105;-0.15164128;0.08698757;-0.11582578;-0.31413206;-0.025938014;0.03694052;-0.027391957;0.049295716;-0.030648267;-0.003952287;0.020963987;-0.015884085;0.07484236;0.006492134;-0.1435837;-0.045333967;0.012968526;-0.06870403;-0.0925878;-0.023001568;-0.07862603;-0.10260812;-0.110656396;0.03455473;-0.0117319;0.05221815;0.054465976;-0.074584246;-0.05719921;-0.05027515;-0.03407042;-0.06460076;-0.17043208;-0.15959895;-0.02916636;0.002886467;-0.05686502;0.03684072;-0.092678;0.0137017025;-0.26660103;-0.0863401;-0.042604595;-0.07226207;0.019467015;-0.02849851;0.061239425;-0.11044893;0.046754703;-0.026353793;-0.03648025;-0.055787385;-0.11372663;0.025064519;0.039814893;0.08623415;-0.10230062;0.07455696;-0.019216426
-0.050436124;-0.050137654;0.082003176;0.07152595;-0.09459572;-0.05712399;0.007981804;-0.16629809;-0.10519432;0.039117355;-0.10445274;0.047540717;-0.047589216;-0.0028350924;-0.085524246;0.0014885509;0.03646623;-0.048657015;-0.005412712;0.0443891;0.06466641;-0.01880233;-0.013019399;0.07705445;0.01169214;-0.22574407;-0.060294595;-0.060772955;-0.055815622;0.15145849;-0.07249308;0.10966416;0.024196666;-0.1294628;-0.13640542;-0.10784676;-0.0992255;0.04902245;-0.040778004;-0.055968765;-0.043620072;-0.100672215;-0.007509997;-0.018034099;-0.18965487;-0.03800808;-0.118309565;-0.044026006;0.05887509;-0.040308252;-0.0636354;0.041523628;-0.05197865;0.00037935132;-0.12834382;0.14189339;0.048580896;-0.07331562;-0.0038376239;-0.032186788;-0.056486685;-0.1264684;-0.10821967;-0.027069021;0.050146773;-0.21373725;-0.017794568;-0.028477676;-0.09214137;-0.15969189;-0.010175572;-0.04412909;-0.16433711;-0.035078626;0.13290577;-0.115799576;-0.092759065;-0.04032043;0.03358892;0.08796692;-0.08094041;-0.01840031;0.2056828;-0.083166964;-0.099428035;0.022668293;-0.08370617;-0.12235086;0.034006268;0.03386179;-0.0409214;-0.053976823;0.023321817;-0.0040861745;-0.1106967;-0.02720847;-0.000142477;-0.00978095;-0.064084046;-0.0029015674;-0.019199325;-0.033404082;-0.0708418;-0.1055916;-0.0019946103;0.008223893;0.0131908385;-0.08507764;-0.18819863;-0.015503183;-0.057172846;-0.0040156557;0.0007607562;0.088160574;-0.0025734534;0.0028208576;-0.08559339;0.09217353;-0.056097325;0.0068340693;-0.052598312;-0.07340595;0.07503799;-0.01129238;-0.025995849;-0.12273934;0.029251903;-0.058792002;-0.08253201;0.008295455;0.003161862;-0.069608964;-0.10663118;-0.026515508;-0.12679303;0.019387027;0.026987484;0.14700842;-0.0873907;-0.061705247;-0.013396453;0.059665643;0.012514475;-0.0015540282;-0.011225429;-0.02642893;0.034739938;0.015190882;-0.13831888;-0.09042804;-0.01968234;-0.11673934;-0.07911555;0.012150123;0.001975821;-0.12574933;-0.1344438;0.028251303;0.038734328;-0.061777618;-0.070718765;-0.018181194;0.076491825;-0.1489993;0.008598012;-0.09981445;-0.011016824;0.011594809;-0.13591754;-0.14106105;0.16096221;0.09540265;0.057736155;-0.0033287457;-0.10733257;0.009596197;-0.06523463;-0.050962046;0.009323105;0.015450645;-0.029270353;-0.12662934;-0.08766059;0.10214279;-0.03751121;-0.03286427;0.11905082;0.0312144;-0.059366588;0.054499045;-0.078151815;-0.05679625;0.06422715;-0.15186767;0.09317039;-0.020027118;-0.005720137;-0.05016474;-0.013466319;0.07211713;0.039483592;-0.03676901;-0.009685033;0.030977465;-0.0854081;-0.08524376;-0.12178966;0.14104483;0.024376014;-0.07375761;-0.14224926;-0.06706569;-0.01772899;-0.10768155;-0.15834817;-0.056578692;-0.076156184;-0.06932946;-0.09290246;-0.108148895;-0.11160462;-0.10655898;-0.030127356;-0.07112356;-0.056080267;-0.08145421;-0.042522527;-0.08166352;0.036421053;-0.115557775;-0.070196554;-0.08081338;-0.06039841;-0.091624215;0.041528746;0.056969423;0.040039368;0.05018955;0.08428513;0.028972352;0.0061426135;-0.025455955;-0.048548352;0.03731604;-0.045316327;-0.036941975;-0.117558666;-0.07314327;-0.015462705;-0.042894267;-0.09059567;-0.090019345;0.09831415;0.09676157;-0.09751633;-0.09492721;-0.03933558;-0.056964505;-0.15826613;-0.10803489;0.054647904;-0.04708611;-0.03142634;0.0135348085;-0.019311234;0.06581998;0.0952398;-0.116045706;-0.059199978;-0.085316226;-0.1244214;-0.11746762;0.021859894;-0.05193502;-0.010656217;0.02545394;-0.045231428;0.052452996;-0.07864062;-0.10426229;0.009403994;-0.23860821;-0.07849808;-0.07056309;-0.10855299;-0.06728558;-0.08912153;0.04366025;-0.021576384;0.063980006;-0.004041582;-0.1589714;0.04512742;0.033322968;-0.029929569;-0.0017736235;0.02248159;0.013740862;-0.18576504;0.0029254095;0.07382551;-0.0754862;-0.11398827;-0.13682044;-0.14411634;-0.040601946;0.07670856;-0.03783659;-0.022390649;-0.028154207;-0.07161961;0.033927344;-0.07383326;-0.068870425;-0.01053026;0.071790434;0.003718193;-0.08034518;-0.13042061;-0.057473;-0.07634802;-0.08891936;-0.04743824;-0.061767336;0.07504816;0.045927405;-0.10353179;-0.07485752;-0.07041785;-0.083705775;0.13298237;0.071946785;-0.03176321;-0.073149;0.014400352;0.04318175;0.005978737;-0.06958081;-0.01945663;-0.041011944;-0.091917135;-0.09455208;-0.1236347;-0.016891694;0.07166913;-0.03633641;-0.062924944;0.051579043;-0.006297707;0.08604975;-0.08031373;0.11126326;-0.025296789;-0.04949363;0.039660163;0.03334592;0.10520899;0.06697057;-0.0096570905;-0.03248299;-0.044336237;0.016987424;0.087379776;-0.09338006;0.007619898;-0.010972551;-0.049844228;-0.11786954;0.018599313;0.013450813;-0.09113459;-0.058385953;-0.0658182;-0.025368087;0.08483795;-0.05404264;-0.04599638;-0.061919603;0.028549023;0.013270262;-0.055347774;0.045362297;0.037030015;-0.018917989;0.06254507;0.035186037;-0.15563235;-0.118229315;-0.03239902;-0.070860475;-0.12289485;-0.125196;-0.04165255;0.1438642;-0.0019418781;-0.10125591;0.0065358477;-0.13265784;-0.090944394;-0.087671146;-0.04618988;-0.05875496;-0.01839102;0.005168313;0.007967322;0.021215815;-0.04412142;-0.2117711;0.036815017;-0.0279404;-0.088830106;0.031956278;-0.09996882;-0.061278746;0.11525918;0.13701755;-0.15790226;-0.036090188;0.07116959;-0.23730612;-0.013044347;-0.19291143;-0.06455083;-0.029076314;-0.035987552;0.041388206;-0.01646156;0.026044238;0.08993837;-0.040466227;-0.17759764;0.04997126;-0.11007954;-0.020946804;0.0066069886;-0.022971148;-0.035451587;0.10043821;-0.1224535;-0.094043314;-0.05332543;-0.09424654;-0.04221406;-0.010189668;-0.064710274;-0.07994838;0.14724809;-0.054115877;-0.036986794;0.04577217;0.018747782;0.017329222;-0.07837606;0.044435285;-0.046821762;0.033895228;0.0010616612;0.09878356;0.004693745;-0.07169597;-0.07451798;-0.14357924;0.020954808;0.031987324;-0.037059125;-0.11208806;-0.08147065;-0.14545222;-0.04179206;-0.13544643;-0.17689513;-0.20508978;0.05008738;-0.029522456;0.05919021;-0.049987603;-0.1325681;-0.04348094;-0.033701822;-0.0021378763;-0.068206064;-0.0820022;-0.051640764;0.021049075;0.08226645;-0.066377886;-0.007111451;-0.1128524;0.09969136;-0.023666037;0.022816328;0.024999024;0.1223212;0.06965002;0.052841075;0.0013627121;-0.068138696;-0.019276565;-0.05548169;0.009709561;-0.018435199;-0.03928389;-0.043302573;0.047540702;-0.05169102;-0.12032756;-0.07690327;0.009991273;-0.06473197;0.07052014;-0.07643981;-0.11136555;-0.037703253;-0.061127875;0.027939662;-0.07030087;-0.08159197;-0.11786758;0.16014388;-0.11871369;-0.2995209;-0.043602306;-0.07956767;-0.090200275;0.025930569;-0.026798787;-0.031284433;-0.0071191164;-0.10164375;-0.06687018;-0.0571838;-0.083301924;-0.03948307;-0.007010486;-0.010491161;-0.10549123;0.0826845;-0.18305223;-0.12507221;-0.04199038;-0.102434956;-0.072590046;0.027992323;0.09308453;-0.047157567;0.022470746;-0.0874031;0.03595295;-0.10056074;-0.1441105;-0.16945511;0.023222165;0.08548351;0.041506425;-0.031118423;-0.09256276;0.06797336;-0.30444846;0.008518696;-0.1333092;-0.098242454;-0.022788286;0.032226242;-0.03857494;0.000340738;0.031225195;0.0037799776;-0.10529087;-0.12923676;-0.06763176;-0.012803338;-0.0195755;-0.062010378;-0.053435225;-0.03164882;0.007555379
