Weights from input to hidden layer.
0.05132774;0.033159874;0.49450698;0.105604015;0.023754481;-0.17820987;-0.05834574;0.013148219;1.1159106;0.8894947;-0.015012097;0.18939511;0.18094708;0.53692836;0.55004543;-0.008359238;-0.77056473;0.8664391;-0.032162108;0.13700144;-0.091311045;-0.05828097;0.43544343;-0.44571868;-0.10207608;0.061935976;0.27324116;0.2916433;0.008327613;0.2464998;-0.25762218;-0.5402971;0.13581862;-0.014201312;-0.0061265593;0.063754275;-0.76945776;0.28074864;-0.21429114;0.5145395;0.037669294;0.6388225;-0.28190455;0.9333801;0.06528679;0.0794794;0.3822314;-0.067596234;0.16653268;0.033332843;-0.3890604;0.11833262;0.12773255;0.3016619;-0.56924206;0.034822866;0.056471147;0.23704009;-0.18361615;-0.46480814;0.1165993;0.86393875;0.31741032;0.2706172;-0.00233223;0.10821955;-0.644332;-0.41149682;-0.698469;-0.0010040791;0.04245924;0.34847453;-0.4479089;0.73111075;-0.032476887;-0.020627722;0.004720802;0.30985177;0.4014615;0.066575356;0.1938614;0.26639733;-0.12761651;-0.08696966;-0.7263794;0.49627826;0.6296675;0.036847506;0.26534596;-0.8132841;-0.07630837;-0.14668345;-0.5870703;-0.5014769;0.65379;0.15115248;0.06880223;0.44768327;-0.02784638;-0.11792252;-0.4896159;-0.28975862;0.31131867;0.03285643;-0.12885518;0.08524958;0.009580878;-0.06680702;0.042999692;-0.19668755;0.17455834;0.3327895;0.12709573;0.3469195;-0.007766021;0.4548038;-0.04619374;0.20834786;-0.023962371;-0.04942368;-0.19846205;0.14567804;0.060457073;0.5563843;-1.0935564;-0.03914415;0.010685373;-0.2244351;-1.0361309;-0.038666204;0.5668205;-0.15413246;0.2609507;-0.027570669;-0.746857;0.056323614;0.58982575;-0.05186394;-0.11083514;0.027378447;-0.54938674;-0.14710331;-0.03641635;-0.3530025;-0.2500267;0.3173476;0.04728207;-0.03395502;0.008785662;0.08090166;0.0923612;-0.12243436;-0.07519013;-0.12335728;-0.10136851;0.683931;0.02729369;0.063507155;-0.17141071;0.059097175;-0.1929692;0.05970692;0.013865679;-0.009497633;-0.4143084;-0.8318547;0.23328942;0.5500246;0.35038716;0.6586378;0.73554784;0.38342068;-0.20391017;0.6464844;0.12135857;0.001281702;-1.127356;-0.0677146;-0.3842937;-0.22704676;-0.030799482;0.8165636;-0.4604081;-0.18446;0.037859634;0.05224468;0.005492016;-0.79896206;-0.8011538;-0.02524998;0.868648;0.34070605;-0.042921234;0.021609759;-0.56535;0.005601252;-0.6329665;0.0140742455;-0.13878448;0.7574821;-0.73790574;0.34006605;-0.8559728;-0.42371535;-0.04558391;0.71886635;-0.014206999;-0.46739337;0.31156564;0.011975085;0.019509282;0.0016396404;-0.2133846;-0.00367387;0.0022651262;-0.025115056;0.5878816;-0.06389634;0.36801475;1.1670367;0.47379035;-0.42607293;0.7450909;0.39236185;0.046771847;0.3415228;0.054927394;0.49465844;0.059238974;-0.14723697;0.01642731;0.09815046;0.19701734;0.54552937;0.41415128;0.5443988;0.51595056;0.56713605;0.020799093;0.64876324;0.6325619;-0.21207555;0.01643444;0.9105722;0.06095674;-0.024093674;1.0878862;-0.29336303;0.08026022;0.03258231;-0.0754735;-0.39339027;0.1894611;-0.061084583;0.7076816;0.15481393;0.16914053;-0.64570385;-1.0148852;0.50876427;-0.09177525;0.011358876;0.30397204;-0.07708948;0.33732268;0.012446063;0.4173523;0.01930642;-0.13093644;0.45864242;-0.82795763;0.58926266;-0.015108352;0.73084605;0.039408766;-0.16842054;0.199688;0.06095956;-0.700369;-0.25077754;-0.5992332;0.09635416;0.055912398;-0.12528768;0.64948434;-0.27730095;0.55597645;0.63869417;0.8973786;0.9168737;-0.9236419;0.21083477;0.04082538;-0.67217803;0.9411362;0.08594464;-0.09157802;0.078774415;-0.010439708;0.02486881;-0.22754945;-0.556948;0.061159275;-0.30734372;-0.025277967;0.565156;0.054394692;-0.818171;0.12019934;-0.3941956;0.40865502;0.15813617;0.11887056;0.69493616;-0.84229827;-0.06593181;0.18263331;-0.013846272;-0.47625935;1.0353148;-0.025383137;0.1060435;-0.2364346;0.018344648;0.47095862;-0.083436705;0.0328917;-0.17939706;-0.26656696;-0.0024513605;-0.11124234;0.03638181;0.51605576;0.09638838;0.43158993;0.3199682;0.614899;-0.12611939;-0.08764272;-0.11783012;0.032363176;-0.06610846;-0.31911588;-0.6153666;0.083985195;0.15180826;-0.40028772;0.26431057;0.4556486;0.10944927;-0.10331869;-0.70611054;-0.044615507;-0.40402195;0.2067519;-0.69265044;0.027031662;-0.52662194;0.67168194;0.5849696;0.8522907;0.12248261;0.05601306;-0.646039;-0.061236117;0.015270934;-0.003714433;0.58293134;-0.76292497;0.8328534;0.31316406;-0.33334145;-0.35516664;-0.0961599;-0.32262924;-0.5233918;0.07342843;-0.1188583;-0.37723592;-0.01698294;0.32897708;0.078345224;-0.19184604;0.3199418;-0.30312818;-0.035617452;-0.0496096;-0.4035607;-0.03152906;-0.0934761;-0.061846282;-0.44346663;0.020158026;0.2773968;0.10262031;0.92717886;0.64221007;0.04976835;0.007373615;0.02266779;-0.18853855;0.88569474;-0.27743244;0.8427835;-0.3735462;0.38787696;0.6503671;0.068913825;0.04912755;-0.26402348;-0.75129;0.30059358;0.009630482;0.41516137;0.21816754;-0.1234928;-0.8647867;-0.28296685;0.25773355;-0.42081648;-0.06533339;0.013781945;-0.017603587;0.7942661;-0.36013475;-0.08500744;0.56472033;-0.5184503;0.37580457;0.005438932;0.2315716;-0.16062796;-0.18251334;0.018280555;-0.039479356;-0.030808467;0.41381156;-0.44561738;-0.03479741;-0.0154321715;0.80152243;0.11173689;0.060813494;0.6280681;-0.010309799;0.095759556;0.048942402;-0.05873362;0.9918076;0.020247163;-0.019388312;-0.6531966;-0.038335755;-0.4282785;0.08078465;0.60840565;-0.7564964;0.29964393;-0.013393814;0.01386466;0.29040232;-0.5580165;0.14649427;0.46347108;-0.24064574;-0.020109335;0.09830256;0.51012903;0.4617812;-0.05905118;-0.4407151;0.06708075;0.33692816;-0.80587304;0.66102266;-0.10425531;-0.09767785;0.0042919335;-1.0399132;0.14749785;0.39358252;0.008669253;-0.02380238;-0.057298694;0.44380596;-0.24893782;-0.08221535;0.05600264;-0.10061275;-0.08175091;-0.22348583;0.59078795;0.7149866;0.047739517;0.012949798;-0.35097578;0.34969458;-0.6549199;0.087752335;0.023196006;-0.27925587;-0.06644359;0.54197115;-0.10050963;0.0033103884;0.6795465;0.1732029;-0.019755518;-0.007031122;0.068236;0.25025052;-0.19161029;-0.56359714;-0.3914294;0.029151449;0.5277099;0.023287062;0.22332804;0.08875965;0.35011384;0.19103464;-0.030087292;0.17844498;-0.47386134;0.023120008;-0.019971933;0.035218216;-0.21457583;0.15806828;-0.026916103;0.6179765;-0.08172516;0.010534458;-0.16369241;0.023791306;-0.66652304;0.0038380444;1.0741838;-0.61895525;-0.07722741;0.03632338;-0.023885394;0.024094868;-0.06765997;-0.20606522;0.42712733;0.86146754;0.075206555;-0.012893458;0.8005128;0.2706515;0.4522676;0.024422796;0.072140925;-0.1783431;-0.5254888;0.8780796;0.056751363;-0.014898803;-0.0035603791;-0.84478116;0.21061787;-0.27941638;-0.01650741;0.3044348;0.13510163;-0.33178797;0.033056512;-0.5150796;0.22873369;-0.33108658;-0.23898348;-0.36600044;0.0060091373;-0.05802349;0.82244563
-0.028907554;0.24380773;0.28739962;0.032053825;-0.097308986;-0.14245939;0.0026556142;0.039126333;0.88894296;0.5178259;0.022567907;0.16574201;0.11545297;0.30764538;0.37069774;0.00176794;-0.7507348;0.56697035;0.034717977;-0.037600175;-0.18736193;-0.028817246;0.427208;-0.37348908;-0.116356514;0.08331059;0.12955482;0.103399836;-0.058161456;0.1023581;-0.09080711;-0.55414754;0.0075653335;-0.14661218;0.030509736;0.04450584;-0.57338184;0.055800308;-0.09516271;0.36416185;-0.07957163;0.39829457;-0.27499405;0.62840384;-0.009783836;0.14075659;0.0614618;-0.065200925;0.38258255;-0.040356025;-0.4642271;-0.04992581;0.22507782;0.17769141;-0.6012874;-0.11957007;0.0875744;0.31744012;-0.16174358;-0.2980556;0.24822624;0.56661105;0.22951591;0.08593642;0.031624313;-0.013629409;-0.26511586;-0.2597659;-0.67823756;0.064709544;0.018904498;0.6485215;-0.26780176;0.49331015;-0.033730626;0.06663821;0.061197836;0.17248185;0.22414991;0.2651368;-0.027473258;-0.0111598065;0.03571966;0.04015805;-0.65738976;0.21840581;0.47800002;-0.024749184;-0.031721108;-0.65484565;-0.16151513;-0.16775645;-0.30824742;-0.5514339;0.37525976;0.004325217;-0.049939763;0.35127383;0.002566945;0.03744322;-0.37002176;-0.035694413;0.22632226;-0.0032213703;0.07874811;0.0019637614;0.08246558;-0.08417522;-0.041016307;-0.36173442;0.070787326;0.20123509;-0.13051203;0.2659916;-0.01461864;0.19917019;0.04495759;0.035085898;-0.06751258;-0.2093389;-0.26772568;0.24698481;-0.08977596;0.29039997;-0.9752412;0.007064092;-0.02216389;-0.28173995;-0.9095464;0.03472255;0.3278611;0.13351244;0.07769414;0.07467127;-0.5691077;-0.011727667;0.39816773;0.03292527;-0.008203375;-0.04294449;-0.3589848;-0.008905149;-0.024480725;-0.296185;0.10377112;0.38910803;0.1152134;-0.2923539;0.0009161618;0.34773728;-0.031948026;-0.23886897;-0.082568884;0.04795453;0.017073112;0.65025437;0.24394782;-0.05097075;-0.11407963;-0.069125615;0.064072214;-0.07485122;-0.040674813;-0.033161957;-0.5986051;-0.60957;-0.10331958;0.4470475;0.53357464;0.37992474;0.56119406;0.38755703;0.014462793;0.39237207;0.06369589;-0.028629143;-1.0905164;0.03833347;-0.27165076;0.0056628105;0.10341462;0.41451862;-0.47018126;0.076233126;-0.049553562;0.03101762;-0.0043528667;-0.73710716;-0.84723747;0.055720873;0.49503848;0.05909972;0.072246335;0.042270955;-0.4824348;0.09111809;-0.65319127;-0.047559317;-0.03648846;0.4861621;-0.6950664;0.026572546;-0.78927076;-0.25035092;-0.20349614;0.347518;0.06750113;-0.4390757;0.4046595;-0.04913589;-0.04645144;0.00010517982;-0.18563795;0.064194426;0.053054143;0.068020314;0.41395906;-0.017243423;0.10519769;0.98208314;0.30562076;-0.21837653;0.47372252;0.29695144;-0.01592864;0.18553862;0.010209489;0.29124784;0.02277891;0.016880231;0.044142928;-0.07356616;0.078401454;0.35859895;0.12222358;0.47958785;0.29221013;0.63236374;-0.014887004;0.37721643;0.4073605;-0.20017226;0.027004492;0.62652135;0.1104759;-0.17496724;0.6770761;-0.12177782;0.03754908;-0.03789365;-0.08021935;-0.32222497;0.02303955;0.15246509;0.5229406;0.361744;0.036685146;-0.63590527;-0.9692263;0.34994847;-0.0018268086;-0.078489736;0.029074943;0.039665006;0.13914782;-0.020845694;0.2577682;0.0037266337;-0.10350548;0.25412628;-0.7328907;0.2929664;0.055847418;0.51510525;-0.0046705357;-0.18856232;-0.03995746;0.0029549126;-0.37340763;-0.2679905;-0.5637682;0.31537348;0.05988326;-0.28979897;0.4453536;-0.11996614;0.45119324;0.4533164;0.6600059;0.7911105;-0.7383253;0.050534293;0.036640495;-0.26840702;0.6258035;-0.01892813;0.0028014844;-0.017836709;-0.012535537;0.039348204;-0.050882336;-0.29557106;-0.010064338;-0.32044044;-0.0031310525;0.4481044;-0.02354696;-0.7976477;-0.20026624;-0.2779897;0.22432524;-0.103247166;0.15361355;0.46540174;-0.7113064;0.19307736;-0.010750698;-0.039890412;-0.3503147;0.8298414;0.001595267;-0.0005817008;-0.092095345;0.0990385;0.40831596;0.048027784;0.039076004;-0.11835685;-0.21361333;-0.003966055;0.052800227;-0.045753088;0.36598226;-0.011412991;0.30815032;0.22153433;0.8117012;0.0623001;0.016060637;-0.056286976;-0.020199345;-0.08743621;-0.16896874;-0.40475956;0.14117847;0.36411902;-0.2729967;0.2923873;0.49276486;0.0326116;-0.022757905;-0.40099505;0.0989368;-0.3243136;0.09727085;-0.79972863;-0.032681633;-0.40761518;0.37925455;0.494522;0.42952624;0.23749153;0.032096315;-0.46266866;0.06365649;0.053724602;0.016709194;0.4049423;-0.6639281;0.5588626;0.08754853;-0.20658614;0.008416046;-0.13103865;-0.42943352;-0.49428025;0.0746669;0.07519007;-0.37605938;0.043428864;0.13639523;-0.050326142;-0.07353192;0.19214843;-0.11648081;0.0009803957;-0.1039702;-0.41007775;0.03463744;0.035042886;0.22891915;-0.09175132;-0.034249134;0.4096934;0.057990327;0.67552215;0.37029347;0.27599978;-0.02106181;-0.012973252;-0.21337202;0.5330461;-0.41521844;0.5933603;-0.14719118;0.23662382;0.5333205;-0.101620026;0.085207105;-0.13796279;-0.7160552;0.21364646;-0.054628577;0.24326354;0.14252768;0.0042527006;-0.9083465;-0.19663514;-0.015789488;-0.2343441;0.03677883;0.05368542;-0.034448277;0.58324474;-0.12859987;0.047924727;0.37672603;-0.23083472;0.27968806;0.069992125;-0.06682843;-0.09286387;0.04918598;0.050190702;-0.043846127;-0.02702799;0.29192278;-0.23113541;0.05479879;-0.11442211;0.6598032;0.032038596;-0.11037715;0.59496933;0.036067087;0.33244535;0.07654771;0.009956669;0.67613846;0.18537731;0.058437306;-0.26497278;-0.25023273;-0.34782174;0.281269;0.373327;-0.68166965;0.5794763;-0.060398385;-0.037833508;0.04349981;-0.27964163;0.08201308;0.2525588;-0.044401933;-0.010910789;-0.023722585;0.3125432;0.20534235;0.087766804;-0.61830395;0.011525415;0.21561536;-0.57364345;0.55805194;-0.07415708;-0.26106527;-0.014524046;-0.69779104;0.08330883;0.20215316;0.18299358;0.04226994;-0.0752878;0.34293035;-0.051804043;0.04527986;-0.045910645;-0.07285671;0.10511982;-0.34950098;0.4346569;0.46393323;0.0138387;-0.032383677;-0.22771873;0.25336057;-0.6916384;0.064263806;0.09081582;-0.32800803;-0.074907765;0.3168619;0.015503266;0.027710674;0.50798774;-0.008712405;0.043105297;0.055156473;0.07529539;0.04129188;-0.004721711;-0.60864186;-0.18381321;0.017459603;0.46332976;0.102794856;0.37972707;-0.066859916;0.38221997;0.068799816;0.13884506;-0.09133184;-0.25912786;0.046162773;0.047031984;-0.093293056;-0.025768934;0.2291508;0.16292685;0.46618724;-0.28168938;-6.163311e-05;-0.06837792;0.0949555;-0.6603661;-0.12664893;0.99743223;-0.57618517;0.14634404;0.024498519;0.037393488;0.09618933;0.023696087;0.007755917;0.45908713;0.5880743;-0.079122685;0.03601323;0.6356587;0.32473984;0.16565101;0.24166657;-0.051128313;0.03156544;-0.47530237;0.7137232;-0.075759456;0.027045615;0.04557835;-0.89941925;0.051792417;-0.23003125;-0.012180763;0.17550384;0.103929214;-0.1607206;-0.088979796;-0.60226697;0.2966655;-0.23227945;-0.061044727;-0.22084825;0.018039051;-0.04520003;0.52862966
-0.022673372;0.25800854;0.15517026;-0.00793209;0.019013153;-0.21817893;0.095004536;0.002613576;0.7393585;0.46530616;-0.031058522;-0.23330347;0.24413486;0.20009856;0.34833077;0.00516201;-0.5893918;0.4678387;0.032282226;-0.039475713;-0.13640875;0.0477299;0.48019177;-0.40061355;-0.04482601;0.18091758;0.09984762;-0.04050585;-0.07803283;-0.06382393;-0.15846184;-0.4197711;0.08209218;-0.15758914;0.006570846;0.019644458;-0.49158207;0.08643016;0.031039098;0.20965706;-0.002827742;0.32022235;-0.17344642;0.42820427;0.018731397;0.32842588;0.12992522;0.059154868;0.44386777;0.026925331;-0.26770216;0.028921973;0.21816404;0.13201609;-0.3232153;0.041068938;0.2222779;0.14244322;-0.11412406;-0.24971099;0.37989786;0.44648108;0.039491873;0.043407515;0.047255635;0.032598127;-0.1897014;-0.36317074;-0.3707693;-0.049814176;-0.044048;0.68488616;-0.14006178;0.29018465;0.11979135;0.018590948;-0.045898452;0.15599696;0.38210654;0.33947715;-0.16792545;0.012673446;0.08464611;-0.026958363;-0.3418905;0.09304472;0.44670162;0.061987475;-0.038327705;-0.5172763;-0.14548415;-0.19981907;-0.35791963;-0.33588704;0.29778138;0.052726667;0.0119161615;0.111438684;0.00771214;0.03622454;-0.31039795;0.092697226;0.07675656;-0.013082938;0.10127503;-0.003368552;-0.004713707;-0.010586745;-0.06085354;-0.32978386;-0.053946212;0.00568724;-0.062067814;0.3368079;0.028177688;0.2000076;0.06928884;0.10756265;-0.09184208;-0.12196464;-0.2322097;0.036126975;-0.0177231;0.29521012;-0.71572036;-0.047002576;-0.050726023;-0.1755916;-0.8438711;0.048419937;0.22304656;0.35441208;0.08694176;-0.02814658;-0.7175809;-0.020472698;0.2558436;0.030575564;-0.0017324812;-0.011842102;-0.4206017;-0.03651063;-0.01904868;-0.3137487;-0.0015938246;0.46261898;0.03769213;-0.23206589;-0.013037524;0.27071095;0.07175604;-0.25750187;0.015949758;0.054166924;0.053992942;0.58043814;0.32905084;0.090541765;0.035416447;-0.03864813;0.124381706;-0.0077837957;-0.057537556;0.040148694;-0.592722;-0.6160674;-0.18195273;0.41560248;0.43551165;0.2764471;0.44649503;0.36038736;0.12057137;0.39516225;-0.06009643;-0.06510785;-0.8149947;0.062707245;-0.073649034;0.18092465;0.00083750405;0.19088145;-0.33874682;0.07253214;-0.0191746;-0.02603165;-0.013824917;-0.5782921;-0.58979774;0.036599685;0.42633712;0.06648479;0.0032266772;-0.07039821;-0.4360815;0.034373555;-0.5393532;-0.07059101;0.112624794;0.35821813;-0.59492546;-0.07210379;-0.59362406;-0.14904219;-0.07687646;0.30803013;-0.040218953;-0.27349818;0.29303274;-0.01237431;-0.009227511;-0.028094903;-0.08787513;-0.0362435;0.020213755;0.04798684;0.2849521;0.014873131;-0.06345635;0.76746273;0.20985277;-0.19557145;0.46693555;0.22222272;0.017418558;0.008589016;0.002569354;0.07973216;-0.024038749;0.12862432;0.0020456312;-0.21371937;0.035684835;0.35372877;0.103087984;0.15095754;0.226254;0.58947587;-0.04094375;0.3132216;0.1945514;-0.23074229;-0.024932178;0.49360067;-0.052221794;0.0063213045;0.62199193;-0.025440302;0.094827436;-0.08517209;0.013108396;-0.17085576;-0.060093433;0.2261968;0.5030216;0.16970015;-0.042264573;-0.55174327;-0.64378536;0.32655072;0.05185361;-0.20712543;0.10163609;-0.04305625;0.14886299;-0.052532203;0.016954066;-0.002569317;-0.0884148;0.14547195;-0.5497738;0.3353899;-0.02968614;0.41345757;-0.018063307;0.026188308;0.07938127;-0.085859634;-0.29719344;-0.2145768;-0.511073;0.22558102;-0.0105127795;-0.14337651;0.34659007;-0.046335984;0.54889506;0.34887576;0.53738815;0.6308399;-0.67410755;0.02871888;0.0069830143;-0.16135524;0.5217365;-0.04525067;-0.018239778;-0.12698351;-0.029084971;-0.025207708;0.14249766;-0.33161107;-0.011541168;-0.29822737;0.0017060357;0.16428657;-0.13609624;-0.49129137;-0.16432582;-0.28143358;0.22677574;0.023580432;0.08344594;0.37109682;-0.48512626;0.37671053;-0.056317188;0.018724712;-0.37894797;0.7254859;-0.031409666;-0.03737527;0.024973707;-0.048789125;0.45033234;-0.06959809;-0.028798554;-0.018558232;-0.19657345;-0.0005772304;0.044901785;0.078688905;0.31047022;-0.05415695;0.29843494;0.08696149;0.75496274;0.122137286;0.051532194;-0.16436176;-0.01374683;-0.026424155;-0.22416823;-0.35211807;0.19530077;0.4461668;-0.20758553;0.32587856;0.53775483;0.044965662;0.045668934;-0.38008934;0.07881506;-0.21389785;-0.040050786;-0.76309025;-0.040575832;-0.30770457;0.41145664;0.31635362;0.32639593;0.202178;-0.04205645;-0.4283846;0.04247412;-0.045768753;-0.047987048;0.37221506;-0.42340887;0.43226394;0.027939674;-0.043680128;0.20969048;0.055757187;-0.26811862;-0.29182056;-0.08592755;0.0253121;-0.34282508;-0.043474637;0.20280938;-0.087170735;-0.01263219;0.21951805;-0.076874815;0.045487784;0.012705876;-0.32127285;0.08646012;0.056173153;0.19820324;0.10675309;-0.00703807;0.35666823;-0.056340873;0.6026767;0.32488376;0.1369448;-0.056482647;-0.05552386;-0.16612223;0.36697304;-0.3319773;0.6041274;-0.11856304;0.115922846;0.3974114;-0.14926875;0.001473098;0.06708156;-0.689218;0.16924806;0.05106743;0.21814778;0.1031236;-0.09532646;-0.6789977;-0.16191152;0.11004366;-0.1239751;0.005655509;-0.07050884;0.055118583;0.5475198;-0.046734978;-0.06233127;0.23341684;-0.15354511;0.3417464;-0.012633909;0.06460527;0.03173921;0.19456501;0.0083706835;0.043651782;0.055371445;0.21440306;-0.13466418;0.06624208;-0.0025935855;0.58647555;-0.050163556;-0.004334593;0.53345144;0.055593777;0.306712;0.26082006;-0.05758969;0.60048544;0.3175034;-0.0659316;-0.12205439;-0.2129552;-0.25432628;0.10404261;0.30939844;-0.44764087;0.52104676;0.005324085;0.03457377;-0.123300575;-0.32541212;0.05323696;0.17611687;-0.042739686;-0.0036575329;-0.041705444;0.21628337;0.1580882;0.041332584;-0.49182767;-0.03995468;0.096643426;-0.37312078;0.39548257;-0.042324167;-0.1509916;0.009946135;-0.62900877;-0.08738531;0.13295902;0.13160475;0.052762136;0.07599449;0.15293546;-0.13580748;-0.033348493;0.031527612;-0.016158648;0.32244098;-0.27665895;0.18033847;0.39630744;-0.08470962;0.00855425;-0.12766913;0.23005979;-0.7048199;0.007001133;-0.042167827;-0.20199922;0.058757342;0.28399602;-0.0534677;-0.066661276;0.43216994;0.13358;-0.05422142;0.06324483;0.062509306;-0.102266245;0.056189176;-0.47911048;-0.1886849;0.036504;0.40146002;0.009850541;0.13426474;0.0047608293;0.41730317;0.12304585;0.057689715;0.04133722;-0.21356598;0.035072543;-0.103592604;0.04932205;0.11810556;0.15526706;0.1366469;0.29897204;-0.26395983;0.055615574;0.060571346;0.08970347;-0.47441334;-0.16974705;0.9159249;-0.6143018;0.2831265;-0.011244701;-0.024840388;-0.018268405;-0.02423996;0.067565896;0.36521715;0.53964555;-0.002160443;-0.03887468;0.66582453;0.39119723;0.0879087;0.29527712;-0.04097523;0.16880988;-0.4001997;0.5174236;-0.069574825;-0.013169885;0.18096153;-0.57306635;0.019525554;-0.24953909;-0.054921158;0.1129652;0.21738912;-0.0101553425;-0.04718431;-0.3255255;0.41363883;-0.2044219;-0.035172325;-0.16250324;0.06450132;-0.018515173;0.42603076
0.0054608122;0.19597998;0.12764327;0.011708068;0.02150027;-0.07278207;-0.05781536;-0.014662241;0.641793;0.35101643;0.06479018;-0.41119093;0.13636476;0.20371072;0.19685574;-0.011791306;-0.5877582;0.4147428;0.056273196;-0.08808273;-0.18495072;0.060442116;0.38057056;-0.44447562;-0.1688245;0.114544146;0.1257508;-0.10422499;-0.033181623;-0.014052571;0.05791671;-0.41471714;0.011961228;-0.21690609;0.04191541;-0.048544254;-0.37015113;0.078710385;-0.054300196;0.2366285;-0.0761343;0.30730227;-0.101230554;0.47332337;-0.038145967;0.34552893;0.016617782;-0.002096257;0.41031003;-0.07307248;-0.2569517;0.05083711;0.37122232;0.22484627;-0.2152729;-0.026289465;0.25849485;0.07283742;-0.16924413;-0.05976088;0.37558845;0.3453423;-0.03178681;0.044190105;-0.010502436;-0.016619926;-0.15084906;-0.31992364;-0.3519756;0.014147169;-0.010081355;0.6886081;-0.21264797;0.22678551;-0.0278253;-0.052348457;0.030856436;0.0036544078;0.21726575;0.40446073;-0.18214595;0.07671952;0.115309805;0.044560567;-0.33385384;0.015833396;0.29061964;-0.058066938;-0.016660154;-0.5117818;-0.18307613;-0.29624915;-0.28070095;-0.2749965;0.26788703;0.06485376;0.027495468;0.058968164;0.017603863;0.0011476199;-0.31290928;0.12140814;0.10151179;-0.021350972;0.2312836;-0.06120952;-0.015440962;0.008052024;0.045609795;-0.1630677;0.069669366;0.034269705;-0.090001985;0.32522827;0.029344533;0.20493568;-0.0633789;0.13697283;0.04421013;-0.07514078;-0.12653118;-0.030090176;0.01707335;0.30092555;-0.49459958;0.051582176;-0.05104718;-0.12671237;-0.6873494;-0.029062977;0.10079683;0.45288652;0.06393905;0.012276119;-0.6163674;-0.02684756;0.24058978;0.0042587696;0.014322875;0.015771022;-0.42311952;0.09793561;0.07998256;-0.21572891;0.1374641;0.3908189;-0.020142792;-0.3558322;0.008882031;0.32674378;-0.019622045;-0.23091592;-0.035636652;0.11241025;0.028424386;0.4889506;0.21960421;-0.05196137;0.057109278;0.07208197;0.27687043;-0.021931019;0.045849305;-0.04269872;-0.6583833;-0.51253855;-0.06050424;0.3003932;0.44879776;0.3099006;0.4091423;0.29943776;0.12140241;0.31570518;-0.037648726;0.0531719;-0.7248967;0.022186289;-0.06475619;0.27234006;-0.030972391;0.21377078;-0.2625015;0.16284963;-0.01099758;0.01586308;-0.08023046;-0.42403096;-0.49116272;0.16944522;0.3283563;-0.01592133;0.023836756;-0.04631566;-0.45774388;0.05949691;-0.54971385;-0.061885815;0.099353276;0.34148654;-0.6213721;0.081185244;-0.38359332;-0.2692629;-0.007888642;0.18295923;-0.017868299;-0.11573926;0.2733585;-0.06411497;0.0646011;-0.05397456;-0.03367495;0.014556625;-0.0240258;-0.032369822;0.29995295;0.04318261;0.089923516;0.4804956;0.30473486;-0.20883279;0.34849957;0.2352257;0.025740255;-0.03159304;-0.025248311;0.061074797;0.030696064;0.12816046;0.03344728;-0.07925016;0.034537192;0.27056164;0.039747912;0.07432056;0.022642465;0.5065701;0.0071843383;0.32994857;0.28810486;-0.13573472;0.023100376;0.34921786;-0.04436493;-0.042170934;0.51234436;0.04321143;0.0055988966;0.041566696;-0.038071137;-0.25397342;-0.08447431;0.20897798;0.468764;0.08771335;-0.045430508;-0.54947525;-0.58848554;0.14599717;0.018904824;-0.16353828;0.0028536061;0.0688294;0.034550853;0.05706042;0.0078075463;0.0083533805;-0.0091775935;0.08212176;-0.27457342;0.21159795;0.027648246;0.1976054;-0.050906077;-0.052201305;0.07363618;0.04884467;-0.24312103;-0.14116634;-0.47651526;0.24926138;-0.10217782;0.0003862142;0.34929088;0.054999698;0.5184197;0.25822204;0.34632027;0.58951634;-0.5366464;-0.06499037;-0.055642944;-0.21345906;0.47545612;-0.03743236;0.009191138;-0.10171579;0.034080677;0.07432626;0.027987072;-0.21652094;0.007037589;-0.3442254;0.031214617;0.08180596;-0.2923835;-0.3499412;-0.30099347;-0.17115328;0.14464943;0.01629047;0.041274372;0.41992983;-0.4483503;0.43666855;-0.081455804;0.035581723;-0.2074587;0.6815379;0.08479791;0.01619413;0.027171506;-0.049905904;0.4268492;0.048332807;0.009420696;-0.035878975;-0.17264676;-0.052254573;0.07546704;0.018942183;0.28874877;-0.07813392;0.24947411;0.111399144;0.7955266;0.13339694;0.038729366;-0.02108644;0.087716244;-0.07790105;-0.25670242;-0.36385196;0.22320233;0.4348845;-0.16996087;0.4173195;0.37026495;-0.018851921;0.012371278;-0.22286485;-0.0056220754;-0.04384717;-0.03311012;-0.59801245;0.019263238;-0.27657154;0.22867231;0.26168662;0.30169237;0.07100481;-0.028525718;-0.37974235;-0.048135757;-0.022759464;0.019965356;0.16528364;-0.4603556;0.37681738;0.114433005;0.107876666;0.35308987;0.07967513;-0.33110574;-0.2756567;-0.023685317;0.024771787;-0.24932355;-0.031207656;-0.0024210864;0.005230115;0.011762945;0.040163048;-0.021677513;0.0754033;0.010322246;-0.24458823;0.044140995;-0.060207527;0.34172508;0.19464628;0.05443437;0.42895263;-0.0051973322;0.60063934;0.2566076;0.079798;0.050585307;-0.0003789574;-0.089858696;0.27122366;-0.33110595;0.57285374;-0.06274657;0.26450592;0.35470805;-0.071647376;-0.08288214;0.03305236;-0.66903436;0.10594687;0.051076267;0.1003662;0.24333848;-0.033050556;-0.50535333;-0.1044657;0.07721143;-0.013751054;-0.0037602864;0.013872534;-0.051967256;0.3909053;0.11299978;0.058474787;0.28931218;0.07694163;0.35094082;0.0384182;-0.08054242;-0.07997509;0.23741277;-0.058193427;0.034442928;-0.06327435;0.3249522;-0.049574394;-0.021526372;-0.012025322;0.3868482;0.014859912;0.013455832;0.43294993;-0.002945903;0.3545239;0.16027668;0.043402735;0.35567096;0.4452797;0.046896134;0.087631226;-0.15846883;-0.107775256;0.14209564;0.3067755;-0.38717517;0.56637716;0.055225883;-0.06951443;-0.22914664;-0.24660902;-0.085888095;0.11504404;-0.00881627;0.06871676;-0.0038705256;0.15514155;0.055500027;-0.04794667;-0.3132117;0.057342608;0.04480943;-0.43888897;0.37078324;0.042652693;-0.026060317;0.0057683475;-0.44921485;-0.08483055;0.13109636;0.24567585;0.0188978;-0.073892884;0.15078096;0.0121816965;0.04648789;0.018026229;0.05788361;0.25275657;-0.3565602;0.15110855;0.35010612;-0.031958763;-0.022234945;-0.05611549;0.22032338;-0.58087933;-0.08658837;-0.015987007;-0.19007099;0.018754201;0.22119004;-0.012149638;-0.014735923;0.3864808;0.10811075;0.0696301;-0.07119191;-0.099025324;-0.10651203;0.06250724;-0.47268498;-0.17523865;-0.078055546;0.32157904;-0.015110069;0.31958202;-0.03457834;0.52164227;0.1364097;0.17031415;0.008013058;-0.18608657;0.04878582;-0.11096365;-0.05219098;0.11279976;-0.10588191;0.19100729;0.3331446;-0.2714095;0.0064533614;0.015285539;-0.08193459;-0.36369982;-0.028992718;0.80778337;-0.5787679;0.33567128;0.03701415;0.03262969;-0.03556654;-0.0060575986;-0.068474784;0.36264282;0.44228634;-0.016899478;0.05446836;0.5976688;0.34643006;0.018794622;0.3186917;0.050161146;0.14581425;-0.37004596;0.52425474;-0.034587577;-0.053382576;0.26541796;-0.55767834;-0.033868678;-0.2802322;-0.07100854;0.083566755;0.0695455;0.09388436;0.013358516;-0.41478863;0.3906068;-0.19434835;0.002516241;-0.13843624;-0.06392504;0.036054406;0.4261176
-0.073821805;0.021492964;-0.0062593236;-0.043213584;0.0143077085;-0.23288122;0.08985345;0.020095803;0.42557678;0.20303681;-0.030879216;-0.5408699;0.12265585;0.21360026;0.20629762;0.07453844;-0.46135098;0.3582657;-0.060611248;-0.048784472;-0.049460553;-0.03746795;0.295296;-0.38587004;-0.23505606;0.056345034;0.20221803;0.003447712;0.072537124;-0.087198704;0.059413113;-0.28236237;0.019663412;-0.2459404;0.030886102;-0.019882355;-0.28045094;0.090573;0.08111733;0.18173869;0.049472824;0.3515461;0.0012029944;0.39439988;-0.037756756;0.28001592;-0.0895027;0.1633667;0.40650624;0.011935764;-0.20909452;-0.077674896;0.28982276;0.27270988;-0.07906546;-0.008147336;0.30355397;-0.01684448;-0.09901028;-0.04248289;0.48489997;0.25894368;-0.040857587;-0.04700974;-0.067016244;-0.074129514;-0.17872813;-0.3332694;-0.28054392;-0.045581654;-0.03621985;0.71090955;-0.11686765;0.13946116;-0.032061294;0.05936634;-0.041187685;0.014494276;0.19676308;0.3258684;-0.25777093;0.056798607;0.047938716;0.005276923;-0.14487956;0.016092205;0.284584;0.023503993;-0.0519476;-0.38377768;-0.17313959;-0.32408184;-0.32958013;-0.1886206;0.39128202;0.10785089;-0.015902683;-0.12071633;0.01843463;0.05517335;-0.14785416;0.16034552;0.028218497;-0.023485275;0.2823561;-0.028865546;-0.06495356;-0.019152177;0.04216945;0.012607211;0.059585586;0.043400284;-0.2412189;0.14183566;-0.06588477;0.20531425;-0.032166928;0.06981347;0.01172926;-0.10651174;-0.1538943;-0.03593251;0.06500209;0.18496306;-0.39186972;0.044847686;0.055489726;0.0047868234;-0.5102907;0.0078073246;0.12183764;0.38451153;-0.095925234;-0.02898092;-0.7302068;-0.052945137;0.1326819;-0.03350735;0.047723178;0.0032265803;-0.43132958;-0.017474478;0.09105947;-0.28628266;0.1507226;0.42265;0.11215304;-0.33076525;-0.0023769997;0.19974683;0.08255332;-0.11410907;0.07355447;0.16932549;-0.04738401;0.5707361;0.29221672;-0.068272345;0.11808923;-0.015774447;0.311003;-0.058188222;-0.05126766;-0.04727832;-0.57049173;-0.50363797;-0.07601358;0.28364456;0.40296543;0.33498436;0.34489807;0.27565634;0.034399703;0.33447;0.023471588;0.025136733;-0.41723144;-0.07868607;-0.16788355;0.4098273;-0.056846198;0.08127413;-0.1658267;0.1467513;0.033531494;-0.068746395;0.015503412;-0.23956631;-0.5430915;0.14187156;0.18049088;-0.17001022;-0.05584676;0.0039264387;-0.3416116;0.014378509;-0.42159227;-0.14484599;0.06454612;0.28258905;-0.40539798;0.0008306881;-0.38444662;-0.18540694;-0.078569956;-0.0043675336;-0.008690977;-0.13428088;0.23817524;0.031123718;-0.0021547868;-0.052556552;-0.099987805;0.008472915;-0.03797244;-0.07808178;0.20674911;-0.012134086;-0.0027456635;0.47061676;0.29824713;-0.27447823;0.42199284;0.14786513;-0.037893582;0.03933481;-0.049865946;0.16090764;-0.03419535;0.13294242;-0.09351094;-0.0528154;-0.02141673;0.3643614;0.07175353;0.09180261;0.027967429;0.53192776;0.0825123;0.2638028;0.18255793;0.043442547;-0.010724679;0.3548451;0.007921539;0.029737763;0.4148511;0.02865528;0.0104781585;-0.0062754336;0.060946546;-0.099830724;-0.07948654;0.106762566;0.3847564;0.09567521;-0.028793616;-0.38118637;-0.5112504;0.17381798;0.012009914;-0.10458241;-0.15847325;0.059929125;0.037967496;0.026829693;0.00798406;-0.014056036;-0.152623;0.09686115;-0.2955863;0.30633855;-0.066746466;0.2123714;-0.021872219;-0.045492552;0.0496598;0.033572964;-0.22594358;-0.203947;-0.46060044;0.28589278;-0.015357754;0.06790226;0.32451347;0.0046937736;0.4422551;0.1434516;0.37858784;0.4916029;-0.5033234;-0.13204995;0.005063904;-0.1704687;0.35242972;0.0073827896;0.077692755;-0.13110398;-0.024050271;-0.08675051;0.08400437;-0.1493404;-0.06256406;-0.30724502;-0.034486875;-0.0049953726;-0.4207224;-0.3115486;-0.16327564;-0.09869314;0.15715855;0.037283227;-0.19045186;0.43875265;-0.3267926;0.5352331;-0.08153146;0.030960528;-0.25650448;0.64189976;0.008810227;0.07581734;0.01510935;-0.07569726;0.32838205;0.067264;-0.06413587;-0.0063509303;-0.14843808;-0.03834911;0.05132476;-0.026072955;0.2851023;0.037429012;0.26722887;0.08853036;0.6527508;0.16560127;-0.059164193;0.067181386;-0.06896769;0.05290556;-0.105531484;-0.3045059;0.2942303;0.46407303;-0.07832949;0.42022187;0.48877406;-0.10487902;-0.0014767088;-0.12244684;-0.070619434;-0.017740976;0.022940015;-0.4087191;0.014888292;-0.23301622;0.27570823;0.22029415;0.30376852;0.14619595;-0.038300887;-0.27750129;-0.01910688;0.020569658;0.027407188;0.26460874;-0.32553503;0.35236445;0.13156061;0.029184487;0.32140884;-0.006038068;-0.252353;-0.1255215;0.011112916;0.10313273;-0.156994;0.025907628;0.060963687;-0.055626802;-0.014193431;-0.00086992525;0.08130938;-0.057895176;0.038545925;-0.2454429;-0.112582885;-0.0013698546;0.32260048;0.21318541;-0.05762639;0.3040819;-0.0007367603;0.49881345;0.2256012;0.18151383;0.07037051;0.07087763;-0.072531134;0.22019058;-0.33801985;0.4917929;-0.15365997;0.19343196;0.22855052;-0.1484546;-0.06462162;-0.05354026;-0.59603685;0.092829116;-0.06038099;-0.0027571148;0.16997455;-0.15024629;-0.3051774;-0.044076614;-0.046487987;-0.14407106;-0.05085727;-0.04127411;-0.048055843;0.45227656;0.18913522;0.052489556;0.37906885;0.06196795;0.30954507;-0.021871885;0.016616864;-0.104834676;0.25800627;-0.0025734769;-0.04923074;0.02277925;0.118149266;0.059244305;-0.05451437;0.008514708;0.31492335;-0.0007662895;0.057439283;0.38235095;-0.046079904;0.436693;0.17838863;0.01925348;0.32594195;0.42225048;-0.045383204;0.17229538;-0.26992428;-0.050150894;0.215342;0.08489528;-0.1839952;0.52175814;0.0066386084;0.052356385;-0.40770262;-0.21193157;-0.061491184;-0.010220523;-0.118872486;-0.027781641;-0.11492889;0.16328819;0.09714279;0.014443858;-0.18298788;-0.04137767;0.10214656;-0.25256735;0.3847205;0.076116815;-0.021907307;-0.030550675;-0.41648048;-0.025823675;0.18844146;0.21830702;-0.043138158;0.06937507;0.031191539;-0.026433876;-0.01048243;0.025963755;0.011122034;0.31048554;-0.2560346;0.18140382;0.31076416;0.050567143;0.08239123;-0.10798673;0.18895912;-0.4727616;-0.07217822;-0.015152858;-0.227068;0.0783466;0.1756283;0.021610454;0.053907823;0.29085636;0.06293661;-0.0064596604;-0.028811999;-0.028857654;-0.12763909;-0.018092645;-0.34529853;-0.19188759;-0.047896575;0.263953;-0.04580172;0.13805819;0.029552907;0.47273272;0.042272657;0.15708824;0.033431463;-0.19473182;-0.064335614;-0.1630717;-0.011899728;0.14929046;-0.26540458;0.16061103;0.16793545;-0.16427216;-0.0030046771;0.11883244;-0.08374615;-0.3102557;-0.08744588;0.6321249;-0.66960883;0.41016966;-0.04484198;-0.044781476;-0.056618832;0.019127354;0.06120661;0.25403017;0.25642088;0.04643852;0.00907897;0.6730912;0.36684394;0.104545124;0.37720403;-0.03243704;0.20472375;-0.24873932;0.4592871;0.055991262;0.071389824;0.07255564;-0.5102923;0.046294052;-0.2681398;0.067098774;0.03696562;0.18008931;0.105880916;0.039486483;-0.36728078;0.41702345;-0.28103685;-0.032374192;-0.04600456;0.037373174;0.03230431;0.3850223
0.010335355;0.016119488;-0.031813387;-0.078203164;0.0077240327;-0.1151961;-0.04688255;-0.03147373;0.37377894;0.12641901;-0.021024618;-0.61352813;0.16144;0.14052382;0.17627351;-0.023359692;-0.28924346;0.33330354;0.053815175;0.0033302095;-0.074393526;-0.023930661;0.23902409;-0.27061024;-0.11464624;0.07110034;0.15366274;-0.05622202;0.008740018;-0.10597957;-0.0012110935;-0.1461831;-0.039664757;-0.3152496;-0.0558369;0.05771655;-0.14297831;0.19417623;-0.070216216;-0.057331353;0.02571421;0.33615616;0.12401918;0.26637328;-0.035194222;0.3105987;-0.036450054;0.218263;0.340472;0.031727493;-0.08280063;-0.032816608;0.23575182;0.25338337;-0.04294182;-0.09420531;0.41649732;-0.19225892;-0.11985071;0.076239415;0.39601615;0.2765567;-0.096296325;-0.0955309;-0.005509358;0.03192537;-0.11179464;-0.33057332;-0.07690006;-0.03437033;-0.05397281;0.6181776;-0.012736208;0.07786304;-0.030289458;-0.02359493;0.017025871;0.049658984;0.13267304;0.31485894;-0.1691719;-0.020834377;0.18085787;0.009997504;-0.12800458;-0.060612407;0.2784819;0.023540074;0.03819007;-0.3303321;0.024061844;-0.49217516;-0.23086467;-0.08311139;0.38599813;-0.08001851;-0.042648055;0.020776434;-0.025684355;-0.12243715;-0.18811384;0.30634132;-0.020494133;0.00757208;0.39066523;-0.03278872;-0.081378244;0.09529891;0.0075713624;-0.09510448;0.021212736;-0.086642005;-0.13900185;0.16591743;0.065988;0.22969805;0.05594966;0.07538436;0.07896702;-0.101995826;-0.15183659;-0.053850986;-0.030896893;0.24067375;-0.16857843;-0.03273254;0.019294128;0.052877862;-0.4391052;0.0075169173;0.0030701582;0.53724366;-0.03763185;0.047902063;-0.63555187;0.04163125;0.16099887;0.030602619;0.030571206;-0.009679451;-0.3418298;-0.014965169;-0.05991103;-0.21344723;0.08019811;0.386716;0.102586016;-0.3446173;0.0103893755;0.105181;-0.08982441;-0.09908492;-0.026381804;0.20895252;-0.020132314;0.42700005;0.34314847;-0.013928805;-0.018866593;-0.039804056;0.42274356;-0.091049485;0.05284694;0.07401109;-0.57942605;-0.29837665;-0.09188767;0.28999567;0.49219763;0.23459676;0.19239779;0.18143457;0.09800193;0.3232908;-0.08300815;-0.028774248;-0.37891874;-0.0056957863;-0.08873985;0.3630466;-0.018846342;0.03530407;-0.2313647;0.225705;0.075555526;-0.033278205;0.018455079;0.05662966;-0.3101473;0.02954648;0.31730738;-0.0943314;-0.022629334;0.055847563;-0.25981277;0.06619532;-0.24474698;-0.17831197;0.04898629;0.16899665;-0.36885095;0.012453608;-0.23770985;-0.19995368;0.06676206;0.068074636;0.07213098;0.012784902;0.16123952;0.10287749;-0.039142963;0.06576339;0.016030388;-0.063072555;-0.017705552;0.012482539;0.08884508;0.018497508;-0.017516086;0.37016618;0.29607624;-0.28277275;0.46071404;0.15665504;-0.016014665;-0.0032087867;0.017164798;0.036069013;-0.092360325;0.12797303;0.016646422;-0.07330065;-0.10781028;0.40251178;0.10338098;-0.02290858;-0.022441538;0.42202923;-0.01196995;0.22549929;0.14885336;0.1098438;-0.011995803;0.14135125;-0.0717862;0.09303644;0.2744534;0.020203557;-0.06627781;0.02421952;0.013204396;-0.11790504;0.08804548;0.17880732;0.47676548;-0.049518045;0.03609517;-0.4626829;-0.44626114;-0.022325007;0.0872664;-0.108777136;-0.055782627;0.021725593;0.12475002;-0.0280031;-0.10693234;-0.055164985;-0.051062167;-0.0038991119;-0.1519259;0.18292606;-0.034636997;0.26286882;0.05228625;0.09637475;0.28990826;-0.064486355;-0.15663868;-0.05374774;-0.26985583;0.18609135;0.010732808;0.11250079;0.26423186;0.061701097;0.39286235;0.2255247;0.35461536;0.43504757;-0.3357684;-0.07280081;-0.019266933;-0.05715318;0.20604862;-0.00021176167;0.13705991;-0.05323819;0.03111226;-0.06258809;0.008231382;-0.06280607;-0.06278355;-0.27754787;0.034883853;-0.17087522;-0.3339919;-0.13309471;-0.19006675;0.006675261;0.03519489;0.016023172;-0.30927682;0.322119;-0.24156235;0.5018516;-0.12150145;0.04570783;-0.17556913;0.6386734;-0.04351409;0.032199215;-0.02172725;0.01623577;0.272518;0.05773344;-0.040119976;0.05121929;-0.13941105;0.05143947;0.14051774;-0.0006133972;0.2523719;0.022112014;0.22545908;-0.0073593245;0.65222347;-0.00968782;0.035241697;-0.017672027;-0.0065508867;0.014882829;-0.07299634;-0.29331583;0.25592688;0.39673382;-0.040056225;0.45332718;0.27004474;-0.091405906;0.04708485;-0.04428077;-0.06600588;0.020527087;-0.04842913;-0.33389175;0.03168098;-0.30228075;0.24372517;0.16634461;0.14096774;0.086632;0.06662376;-0.30850205;0.010390608;-0.07038023;0.040188804;0.19680928;-0.2570313;0.20809737;0.1701815;0.15153794;0.4394136;0.09800757;-0.12717962;0.09874542;-0.052637227;0.1240656;0.050970312;-0.012060391;0.12438299;0.000758779;0.13696066;0.10020305;0.009152584;0.048944887;-0.020341754;-0.16598247;-0.028931819;0.08308824;0.28109258;0.3474031;0.018795392;0.31336284;-0.047401406;0.36274788;0.18924998;0.11000182;-0.011474895;-0.07321696;-0.115175515;0.14262101;-0.31395116;0.39180535;-0.08142134;0.081024736;0.36597115;-0.07914851;-0.030233108;-0.013575378;-0.5900388;0.081062414;-0.023325028;0.03779655;0.16659106;-0.0695757;-0.22975256;-0.11237766;0.038794387;-0.013069931;0.016954405;0.01057772;-0.013884045;0.40421212;0.1997311;0.036861777;0.31299847;0.18951163;0.23628142;-0.026127188;-0.06269519;-0.18005742;0.3007095;0.024271581;-0.009014093;-0.025019664;0.22155614;0.021968422;-0.06319034;0.035303578;0.3827051;0.00514692;0.1637502;0.33722004;-0.06426019;0.344491;0.19685176;0.017090429;0.16034274;0.50960106;-0.015398147;0.22804041;-0.3003884;-0.025630882;0.22512323;-0.054720093;-0.069063574;0.5597594;-0.0026106124;-0.075619176;-0.4494189;-0.20882559;9.554391e-05;0.039863467;-0.032458812;0.023954585;0.0050179833;0.019032242;0.12794924;-0.06398258;-0.091532506;-0.066454604;0.027794268;-0.27793542;0.34045297;0.10958621;0.11578448;-0.056105588;-0.3857311;-0.053416353;0.047197137;0.18496506;0.015749875;0.02828423;-0.11473432;0.04147741;0.06905246;-0.099730134;0.0033915965;0.33334377;-0.1635116;0.08943752;0.24193108;0.05777526;-0.027350515;0.015480377;0.13519678;-0.4055571;-0.0036806099;0.026051749;-0.04929406;-0.059770536;0.04041999;0.06567625;0.06743972;0.31301188;0.17529143;-0.06843801;0.009488819;-0.04923361;-0.009729094;0.03808511;-0.31019375;-0.11601321;-0.030840825;0.16382268;-0.00900618;0.21895075;-0.054846007;0.29314157;0.015879711;-0.034327123;0.06593141;-0.15543833;-0.040118158;-0.13407569;-0.04239695;0.12090447;-0.24669652;0.29176277;0.093433;-0.15662244;-0.06549901;0.11381041;-0.080058135;-0.1884873;-0.092266954;0.54077286;-0.5146936;0.30858573;-0.087113746;0.08405107;-0.06529672;0.024287717;0.11063661;0.16281314;0.24161097;-0.03224012;0.031306576;0.64815336;0.2406487;0.07666614;0.40851423;-0.028416172;0.28488815;-0.1296647;0.43633077;0.0887118;-0.025285872;0.18595561;-0.27479753;-0.023793025;-0.15106767;-0.0378682;0.13575488;0.16974285;0.015311716;0.01168303;-0.2175217;0.4878089;-0.34585863;0.06826741;-0.062563345;-0.06267645;0.020603232;0.36302623
0.061472226;0.06854034;0.079340614;-0.041520644;0.011136751;-0.14522512;-0.0024423453;0.0055643357;0.4241358;0.050413366;-0.0031640213;-0.77551335;0.0615035;0.119437344;0.23874617;0.0026880126;-0.27855393;0.21619521;-0.011397492;0.031113273;-0.066938646;0.0295956;0.21441625;-0.2969275;-0.04550943;0.10841026;0.051502235;-0.036309414;0.0029106068;-0.14712335;-0.0010997737;-0.22183701;-0.07930153;-0.2323046;-0.12141799;-0.062400315;-0.18815318;0.23203604;0.039476257;-0.009660664;0.020940367;0.4369028;0.13093661;0.27558875;-0.042987812;0.22656006;-0.06669458;0.058945123;0.2291062;0.058407154;0.022372032;-0.058381423;0.16352017;0.3498398;-0.021776307;-0.11109633;0.41666755;-0.22402903;-0.091907404;0.051543567;0.24415609;0.14686611;0.013118033;-0.12572372;-0.044932302;-0.04414862;-0.028132822;-0.30361426;-0.045348153;0.07509701;0.036096334;0.48419857;-0.13768433;0.13743356;0.017242683;-0.012494492;-0.035509873;0.069795124;0.30393124;0.35304177;-0.08704248;-0.021275368;0.08355866;-0.00094112364;-0.07983002;-0.1580372;0.17335291;-0.053218078;-0.02564031;-0.2789693;-0.02870051;-0.5336819;-0.33531824;-0.13389902;0.32316923;0.083647884;0.10445552;-0.11128992;0.016242215;-0.06403317;-0.07347033;0.3310538;-0.01802549;0.04931422;0.36255044;-0.062121402;0.056500643;0.07458177;-0.022710392;0.01000941;0.15593909;0.007769395;-0.15669541;0.13280725;-0.02050572;0.29108632;0.017814497;0.10051197;0.03219062;-0.16344091;-0.040403433;-0.12534519;-0.058397174;0.19354746;-0.104603596;-0.006639449;-0.024817128;0.025601493;-0.28458935;-0.009928227;0.025957335;0.5111825;-0.048931424;-0.040943142;-0.5151178;0.04418715;0.14837173;0.061832175;0.036752693;-0.033100978;-0.3534897;0.074257694;-0.049672592;-0.24005878;0.09651643;0.35295025;0.14447592;-0.25295752;-0.009291106;0.122539476;0.007987267;-0.10712868;-0.03501749;0.18410182;0.06877279;0.49879372;0.2469674;0.025083164;0.12799865;0.06085972;0.37534583;0.05379743;0.04708322;0.05738903;-0.4077846;-0.2891466;-0.017679876;0.28461578;0.34119552;0.2330489;0.268474;0.22291277;0.13391246;0.15512647;-0.0718947;0.036925703;-0.20120357;0.032669704;-0.15042427;0.46209803;0.054462112;0.010576314;-0.22471847;0.08902046;-0.03809082;0.0075350474;-0.0252005;0.05025646;-0.1959167;-0.006566503;0.21185572;-0.09469379;0.010010599;-0.045267645;-0.23155603;0.0646907;-0.10364777;-0.1587652;0.10111164;0.20493671;-0.23082685;-0.10471815;-0.10544482;-0.16256383;0.07602637;-0.038619645;-0.068448946;-0.0009795859;0.052887697;-0.037246667;0.048510578;0.074865066;0.0440348;0.06646315;-0.03453986;0.015323598;-0.031910237;0.06075573;0.08455597;0.22645964;0.28258708;-0.32549405;0.45429862;0.20858032;-0.002572953;-0.08909005;-0.050782967;0.16236141;0.051956084;0.17472905;-0.009476292;0.017058289;-0.11988328;0.37944245;0.14446531;-0.04368412;0.06994243;0.43413776;-0.05430357;0.21695444;0.14459807;0.11762784;-0.00034838796;0.0791103;-0.039887197;-0.0032802485;0.18038121;0.12366916;-0.03782096;0.046859346;0.043568432;-0.024843698;-0.001626287;0.20328292;0.3429132;0.037190612;0.020433882;-0.28851026;-0.30782762;0.044021152;0.07899743;0.050563928;-0.020303996;-0.051228832;0.080849215;-0.021177629;-0.1413047;-0.00949687;-0.0824259;0.092326306;-0.05473669;0.2702355;0.035010792;0.22526154;0.04641827;0.061101645;0.26041037;-0.084191464;-0.14890741;-0.06558262;-0.29537952;0.3161298;0.040700953;0.21728171;0.3001565;0.13093784;0.3428567;0.1716419;0.20797385;0.5674214;-0.33457616;-0.17248018;-0.078584254;-0.014208969;0.22940454;0.017030504;0.18464549;-0.040991858;-0.030992566;0.012738627;-0.073884636;-0.070400536;0.05367049;-0.22196694;0.05383557;-0.11527396;-0.39345714;-0.016426211;-0.091625065;0.035778385;0.013666502;0.0008384163;-0.23930314;0.48398146;-0.085408784;0.6310424;-0.009038092;-0.0890665;-0.12831666;0.6339733;-0.026753694;0.08606566;-0.1012527;0.01976446;0.15435433;-0.053316426;0.049033634;0.08597646;-0.054352585;0.048584696;-0.035439193;-0.027688337;0.23928499;-0.0017416494;0.09617992;0.026950767;0.50445837;0.12971883;0.022074513;0.11968599;-0.04171733;0.120529;-0.16364643;-0.28226385;0.3380921;0.3766734;-0.13716868;0.3380725;0.33011517;-0.050519317;0.037739247;-0.11390896;-0.012035679;0.039009746;-0.046903666;-0.33861592;0.06638546;-0.2608519;0.19620685;0.16983512;0.21956402;0.08910436;0.010856778;-0.3164235;0.0017412701;0.04668342;-0.11018234;0.22114049;-0.2524535;0.13985115;0.03450162;0.19286996;0.38747528;-0.012722638;-0.09442658;0.23858893;-0.029763635;0.049508266;0.0026639805;0.013987003;0.030336304;-0.11309535;0.027566927;-0.02425234;0.09603579;-0.053777277;0.057309862;-0.11835722;-0.14594777;0.07538354;0.1917438;0.29831663;0.05096705;0.18619727;-0.106530555;0.27099475;0.23364745;0.010756235;-0.0012075993;0.04129509;-0.17746063;0.15363617;-0.27210903;0.3734593;-0.055529512;0.13553548;0.2199659;-0.05536101;0.060432985;0.01395288;-0.46999267;-0.10215429;0.049975265;0.03821912;0.15974894;-0.24860513;0.004100243;0.0051412964;-0.03540872;0.09181624;0.0693652;0.057350542;0.028011981;0.4084749;0.08169316;-0.08162956;0.303013;0.099218786;0.23703198;-0.099369265;-0.0059718885;-0.10511838;0.23906371;-0.0076139574;0.043881956;0.06786823;0.12899351;0.04118718;0.06381012;-0.023291446;0.23761515;-0.0459805;0.018546704;0.25618657;-0.05725556;0.34627908;0.32138863;0.0793479;0.06398697;0.5118809;-0.04989022;0.18734647;-0.2113656;-0.0048990515;0.22020523;-0.043234307;0.1303913;0.6149004;-0.028015073;-0.04125774;-0.3480571;-0.23945142;-0.10647692;-0.09025145;-0.07547241;-0.010019416;0.0147895;0.03131201;0.06465698;0.033053864;-0.007110954;0.039965786;0.026759436;-0.12516224;0.29456982;0.15861718;0.08001224;0.030821946;-0.24122547;0.013708597;0.03275438;0.3420337;-0.07384321;0.059021525;-0.20291892;0.059026122;-0.03633793;-0.02773142;-0.038245965;0.21355133;-0.1030916;0.068584755;0.21369639;-0.051623974;0.030754065;0.021852085;0.1081402;-0.27308053;-0.06549322;-0.06495838;-0.017144784;0.025344076;0.1216738;0.04575245;0.007217932;0.2884335;0.1439879;0.03990698;-0.07648689;-0.03350961;-0.10225729;-0.18444702;-0.2557139;-0.16001585;-0.01776093;0.3038044;-0.051170234;0.18113895;-0.0030923847;0.40664077;0.1329226;-0.040866017;0.037673317;-0.13166793;-0.06843804;-0.23433429;0.088364035;0.25050983;-0.31719142;0.18906772;0.03559633;-0.10824245;-0.06323473;0.096506335;-0.02970529;-0.18482505;0.020478465;0.46788418;-0.5285165;0.32527375;0.052978527;-0.015935272;0.048833877;0.05641731;0.16380364;0.14115939;0.23502715;0.025901873;-0.007227541;0.6014418;0.14556073;0.038534887;0.24643876;0.03383749;0.37103337;-0.06153931;0.427838;-0.02132475;0.0116339605;0.074974746;-0.18601021;-0.038271364;-0.16498871;0.08765575;0.0959622;0.071964465;0.08058317;-0.053066798;-0.140222;0.49074098;-0.28319943;0.061710287;-0.1468456;-0.07257529;0.041626707;0.284533
0.00598399;-0.021868166;-0.00073112035;-0.033854995;0.03322803;-0.20096935;0.056628183;-0.048263013;0.37303033;-0.08430717;-0.006555266;-0.6023472;-0.017507035;0.15228187;0.1098918;-0.04729194;-0.16554758;0.119570814;0.012329952;-0.15403593;-0.09144248;0.007483691;0.11024966;-0.3487744;-0.03998436;0.10417708;0.03850873;0.04055878;-0.0049985694;-0.18895602;0.084941424;-0.13937835;-0.1339677;-0.37579423;-0.010317907;-0.059213758;-0.20177563;0.12541503;0.061406735;-0.15091491;-0.01775414;0.34998778;-0.0019507747;0.10682669;0.029152146;0.21446818;-0.07706224;0.3005508;0.31931123;0.024448583;-0.018279148;-0.08959611;0.13351637;0.3017934;-0.11668809;-0.102670625;0.4351051;-0.20957944;-0.043051813;0.16910653;0.18381427;0.15853392;-0.09011054;-0.0039676484;0.05696907;-0.081373915;0.008156185;-0.14026923;-0.02977379;-0.010015687;0.020453699;0.41551897;-0.059263885;-0.014884326;0.04853414;-0.038422056;-0.044150904;0.039133273;0.17251323;0.2879118;-0.04840221;0.0322299;0.20029716;0.05782748;-0.068097144;-0.13628721;0.078483626;-0.025715547;-0.0870334;-0.20766282;0.046400752;-0.43339673;-0.30827186;-0.08518657;0.26464906;0.004648243;0.068870164;-0.12202537;0.015504955;0.023272194;-0.05232276;0.38526708;-0.01915618;0.0349983;0.31830856;0.06327127;-0.06744564;0.07116917;0.0055860337;-0.1810869;0.19207837;-0.028701944;-0.23040362;0.22356622;-0.033777162;0.21139868;-0.024846917;0.014871935;0.011137933;-0.2717026;-0.11417636;-0.19182584;0.0017601065;0.26858136;-0.0010562551;0.038034547;0.05443252;-0.03637221;-0.22669412;-0.055184666;-0.014660751;0.40220788;-0.096838385;0.03463984;-0.4600575;0.012970896;-0.0139107425;-0.027874649;0.06858184;0.016668122;-0.2884695;-0.046780255;0.042446025;-0.24352236;0.12573604;0.42818365;0.107693866;-0.2218442;-0.009822145;0.16706409;-0.07608909;-0.20020248;0.036374763;0.16149771;0.01835782;0.37571955;0.31647277;0.054788705;-0.009196148;0.0068351887;0.50729793;0.0058929;-0.06563818;0.034890782;-0.51663816;-0.10867644;-0.14464854;0.13186285;0.42110667;0.07273728;0.16546375;0.21797957;0.21199593;0.18574882;0.015746154;-0.020739904;-0.165626;-0.0038309747;-0.06608556;0.47409773;-0.030396441;0.08860449;-0.1787687;0.13579156;0.01592807;-0.0014421594;-0.016195029;0.21081546;-0.095220126;-0.0045460165;0.07885733;-0.25810158;0.07137032;0.003937986;-0.18966204;0.0033012265;-0.03312737;-0.22592412;0.1715279;0.057358027;-0.05611033;-0.13019295;0.047158964;-0.24492186;0.0146092335;-0.05268;-0.03518391;0.12128801;0.12028514;0.077193275;-0.020788513;0.0719491;0.004348134;-0.06173545;-0.0054117716;0.012227722;0.027936501;-0.052445747;-0.020672558;0.20048058;0.32676584;-0.2678696;0.24126673;0.16801941;-0.068649635;-0.22945242;0.07856304;0.14617546;0.051288992;0.15470265;-0.0657356;-0.0060354066;-0.12903227;0.20325793;0.1390252;-0.10011077;0.0035870178;0.40125135;0.012771437;0.19501817;-0.030507602;0.15425321;-0.09292047;0.11091652;-0.0071339463;-0.054842103;-0.02890836;0.028378582;-0.15783419;0.063322976;0.07691037;-0.08994559;-0.111383565;0.26689857;0.14000486;-0.0036393548;-0.034361657;-0.35708418;-0.21247092;-0.068955734;0.20527394;0.09797406;-0.1965779;-0.0076710475;-0.097390465;-0.028553346;-0.051100064;0.010981833;-0.02856407;0.026225923;0.15596783;0.18291946;0.03066026;0.07519057;0.013852157;0.0461858;0.16949482;0.03902988;0.0088008335;0.0563073;-0.12840344;0.20378782;-0.07957174;0.15631416;0.19394311;0.02030781;0.26239583;0.09347439;0.12742713;0.4617714;-0.2395967;-0.28619182;0.006711047;0.10849964;0.18131813;0.011393469;0.06455757;0.029699987;0.028249823;0.013926609;0.042206783;0.0055235974;0.014563636;-0.45476198;-0.017478561;-0.1231922;-0.35479936;-0.11116466;-0.09648107;0.052889988;-0.011843104;-0.10447884;-0.3054599;0.4545956;-0.1048056;0.6669986;-0.10852925;0.032936346;-0.08627421;0.5389344;-0.03607113;-0.024725359;-0.03972151;0.027542327;0.12114159;0.033573706;0.03014991;0.081025176;-0.024996974;0.04754795;-0.04719048;-0.060356464;0.14144427;-0.022962661;0.05656507;-0.08779227;0.53593737;0.08781411;-0.0245732;0.09140901;0.016069146;0.015681008;-0.04322;-0.21344393;0.39061356;0.41679272;-0.013282382;0.3422416;0.31428128;0.010278045;0.06488645;-0.00074690906;0.013958637;0.019840097;-0.08439035;-0.25374067;-0.08242235;-0.042539507;0.017208064;0.09998276;0.09499291;0.040358625;-0.09292316;-0.3806939;0.0029294007;-0.031931583;0.04813814;0.17616543;-0.0770631;0.08432287;0.10379178;0.16896924;0.5011866;0.0028035375;0.008374706;0.19755998;0.07617512;0.07385408;0.04268526;0.03144043;-0.11142493;-0.08793035;0.03880934;0.013748779;0.08451253;0.033104334;-0.035937972;-0.005970788;-0.0019485906;-0.026410565;0.26774713;0.18248622;-0.032693416;0.23546699;-0.030702353;0.23979425;0.12117512;0.07800132;-0.036335994;0.01861796;-0.2806275;-2.3834935e-05;-0.32897344;0.4217247;-0.03171191;0.02808589;0.25312287;0.03303084;0.001829029;-0.020643849;-0.44416434;-0.11756132;-0.053039808;-0.03372236;0.13888995;-0.23223081;0.050060764;0.03177968;-0.068111375;0.08242392;0.03847846;-0.011955733;0.05960908;0.31003806;0.14619735;0.06564586;0.19495015;0.25020075;0.19240518;-0.02611856;-0.06558021;-0.114719234;0.24067359;0.03661855;-0.051765226;0.019490978;0.093289554;0.16163968;-0.06005933;0.017709093;0.1863196;-0.13390899;0.066290975;0.16302954;0.02515621;0.4626492;0.31926385;-0.044199742;0.067594364;0.5099459;0.09562385;0.20724681;-0.1996894;0.011937069;0.3059178;-0.042973194;0.22940245;0.66433537;0.04254329;0.04165302;-0.41570872;-0.18377653;-0.122608066;-0.19732815;-0.02788048;0.00846292;0.06896288;-0.11519694;0.13345718;0.0034474453;-0.11372805;-0.047266778;-0.03427106;-0.16501094;0.2102711;0.25732583;0.076264724;0.072705775;-0.19420043;-0.07073992;-0.07728599;0.41992345;0.04448475;0.05836695;-0.12108937;0.13075706;-0.031641044;-0.006298655;-0.0050474214;0.26391014;-0.19997956;0.11141404;0.12027694;0.03959034;-0.07269935;0.034976393;0.14938772;-0.3853722;-0.060254615;-0.013652464;-0.010374693;0.08413112;0.123178676;0.009485224;-0.017384022;0.23583537;0.10464092;-0.0053504766;0.04067227;-0.07862199;-0.017753404;-0.094125226;-0.3343485;-0.05144079;0.07562481;0.105459355;-0.13741446;0.21718244;0.028879173;0.3287564;-0.0033936698;0.16048111;-0.0007304729;0.006010744;-0.045872346;-0.20001411;0.044867564;0.32293788;-0.32358518;0.23669475;-0.036858883;-0.2866721;0.06366095;0.124936596;-0.03275329;-0.021735528;-0.008715312;0.35610932;-0.3888045;0.34869865;-0.0039149774;-0.02709564;0.02243647;0.023187589;0.1905695;0.09123012;0.18561938;0.026562868;-0.0034908787;0.48654145;0.21850276;-0.06687859;0.25688818;-0.00016259274;0.41312534;-0.19979542;0.37739143;0.021274667;0.044137012;0.07757736;0.008386457;-0.076840155;-0.11118256;0.07769997;0.039093032;0.12711565;0.17160739;0.031549264;0.018108798;0.54671925;-0.35533586;0.11359447;0.021873666;-0.011076972;0.030047275;0.19330429
-0.014275812;-0.06753167;-0.0011181474;-0.053723086;-0.05422394;-0.177606;-0.070488565;-0.026054567;0.2600834;-0.03271843;-0.0062385076;-0.54819703;-0.12621364;0.21920374;0.22304054;0.0044330847;0.05595674;0.18467161;-0.048211772;0.024743766;-0.040010624;0.054021236;0.046355706;-0.24981065;0.00065120304;0.023735272;0.08657517;0.113320775;-0.0064057703;-0.20198171;-0.021422861;-0.090829745;0.10355703;-0.3123234;0.020601174;-0.027119603;-0.16507968;0.32991427;0.193644;-0.059910566;-0.05112271;0.44653103;0.16688262;0.21525681;0.036126718;0.0405815;-0.097439565;0.136857;0.3267231;-0.029549053;0.13087898;0.033589616;0.2023542;0.2877422;-0.111778766;-0.08646027;0.29360574;-0.28437465;0.025434263;0.093727514;0.19114488;0.29275593;-0.08522926;-0.00808007;-0.021103831;-0.01951261;0.05637477;-0.24013445;0.11590099;-0.032930464;-0.005107054;0.26189744;-0.0470903;0.040007114;-0.061751526;-0.029700352;-0.0059463335;-0.07526164;0.15072227;0.24217996;-0.15945293;-0.09749625;0.14425017;-0.015566329;-0.21124192;-0.27769443;-0.015529387;0.0021465088;-0.13697152;-0.13772355;-0.052040663;-0.478123;-0.27528593;0.07958266;0.14698432;-0.12332624;-0.05279082;-0.00494227;-0.031169614;0.014976792;0.11799393;0.27855122;-0.11685034;-0.047402903;0.373805;0.0076577216;0.01357433;0.04459226;-0.08795802;-0.098821126;0.20875087;-0.068301454;-0.23424558;0.1638637;-0.041901138;0.1388164;0.012214554;0.0276645;0.09072579;-0.22342266;-0.008489155;-0.4389242;0.053880006;0.2825103;-0.020600421;0.0656796;0.07129749;0.09191453;-0.20809902;0.007693177;0.0020334895;0.40219745;-0.11907586;-0.052489962;-0.2465792;-0.03314946;0.025519293;-0.06270088;-0.032475226;0.087796904;-0.36193597;-0.038478892;-0.062113788;-0.09149875;-0.01455358;0.3737974;0.15967825;-0.2409338;0.00028789544;0.19194987;0.011154128;-0.22531061;0.096941404;0.23947226;0.005723866;0.3391006;0.19362268;-0.013338403;-0.015953347;0.025641974;0.5452297;-0.037659053;0.039646875;-0.025821405;-0.41145137;-0.14544305;-0.14393221;0.09917641;0.26703256;0.015338202;0.10411859;0.21327141;0.116092324;0.12938505;-0.02270649;0.04533551;0.013554548;0.016639499;0.07797363;0.43224776;-0.08171743;0.047392778;-0.16903308;0.14396603;0.0080187535;-0.04200627;0.010297446;0.20287473;-0.07155766;-0.004891392;0.09670803;-0.23767196;-0.07397213;-0.025400126;-0.19109957;0.024041371;0.046240546;-0.23925409;0.22060531;0.10557791;-0.021238761;-0.10381781;0.13416599;-0.1269827;-0.07705584;-0.023116125;-0.016807495;0.0765074;0.026430445;0.053230297;-0.042739492;-0.0358186;0.021571899;-0.0141418325;0.054908536;0.00010511779;-0.086409464;0.07309881;0.11713834;0.25096503;0.37551305;-0.12866242;0.314245;0.12318091;0.026511304;-0.15167835;-0.04155951;0.15283674;-0.08623461;0.18993273;0.040186614;-0.03231894;-0.08475006;0.2537021;0.1573966;-0.10083992;-0.066048644;0.12451734;0.005436763;0.13696946;0.07810761;0.2392833;0.04356233;0.12829378;-0.021436434;0.06459369;-0.046837837;0.10745351;-0.16160023;-0.07178056;0.055210732;-0.045521278;-0.004162873;0.24366796;0.12990695;-0.058214825;-0.035506688;-0.44104165;-0.16543297;-0.16150483;0.18385139;0.044606276;-0.14798608;-0.0497391;0.01665609;-0.0029231787;-0.06668599;0.015284797;0.03172349;-0.017690765;0.28503257;0.1752849;-0.032417174;0.08040488;-0.085763216;0.019490993;0.31406242;0.018899722;0.002667587;0.01714196;-0.09281348;0.25929677;-0.07065287;0.35556373;0.09729226;0.013426071;0.30467921;0.078971684;0.18797214;0.3531538;-0.16735932;-0.11160182;-0.0028087092;0.13443752;0.19595672;0.019840237;0.34380928;-0.01962242;-0.009010748;-0.028882157;-0.066267125;-0.13997553;0.0016610823;-0.32156688;-0.075598195;-0.11811317;-0.31150767;-0.12042911;0.09900789;0.17892301;0.052714273;-0.03087836;-0.35152838;0.47401935;0.10416041;0.5471817;-0.09469154;-0.045589373;-0.051788732;0.5148813;-0.008046427;0.009883782;-0.10990438;0.0498052;-0.035078317;0.0056492314;-0.059276108;0.14386263;-0.12937035;-0.034598064;-0.12266565;-0.056898434;-0.01879396;-0.067590885;0.106941655;-0.14075653;0.440373;0.097673066;-0.025805384;0.00082814635;-0.027838847;0.05585416;-0.15086125;-0.24477029;0.35702488;0.33789408;0.06983853;0.35197526;0.22810614;-0.005670859;-0.04778009;0.07028398;-0.06681581;0.111194305;-0.11873071;-0.1487325;-0.07448679;-0.09247082;0.045173053;0.03061801;0.122505866;0.10564748;0.06723526;-0.24984613;-0.026306598;0.05872609;0.04920194;0.12997364;0.06545748;0.2521348;0.05316287;0.3067125;0.4290428;0.031523284;-0.04167366;0.2721022;-0.032993235;0.07669144;0.15901576;0.027946359;0.11492951;-0.1605069;0.05210549;0.16149645;0.21343656;-0.050611887;0.0040282514;0.084535964;-0.14225446;-0.044855695;0.15567787;0.20276016;-0.011927387;0.21788035;0.05376399;0.17619337;0.21475612;-0.051950328;0.01241936;0.06066755;-0.19049148;0.029033206;-0.200789;0.41139022;-0.06501428;0.13364588;0.23712815;-0.011301481;-0.024084829;-0.018106876;-0.36489075;-0.1291686;-0.053877976;0.0714895;0.20087388;-0.12293785;0.24551877;0.1690517;-0.059400473;0.04315014;0.046254538;-0.06753378;0.10165971;0.40028575;0.12761761;0.030593285;0.25156972;0.21723361;0.23935667;0.06660453;-0.03553125;-0.06744605;0.21782827;-0.05083071;0.011084542;-0.03415414;0.20847858;0.15148267;-0.04206477;-0.07998168;0.1323814;0.02484772;-0.005154544;0.25984243;0.033717982;0.41500401;0.29399493;-0.051533308;0.09134858;0.52774394;-0.02548862;0.14245053;-0.255699;-0.0043314667;0.10309649;-0.16499597;0.31048593;0.6774431;-0.027131056;0.055587813;-0.46129492;-0.105825916;-0.0070446106;-0.18644352;-0.07189838;-0.068321094;-0.01328734;-0.0021384733;0.15459469;-0.05794331;0.024008224;-0.024556722;-0.031015635;-0.13621615;0.25833914;0.1269519;0.23902155;0.018858498;-0.19463426;0.0064342995;-0.09335075;0.40611392;-0.017029172;-0.012200106;-0.08095671;0.16230032;0.05754427;0.020591686;-0.020814005;0.26782826;-0.21682808;0.026066469;0.124470904;-0.084919795;-0.075964324;0.04372453;0.046533372;-0.3393818;0.015123007;0.016955322;0.16718979;-0.0065162308;0.087495215;0.03377199;-0.035637803;0.18442279;0.26310468;-0.05401544;0.026312059;-0.07097054;0.06377009;-0.01996025;-0.25717875;-0.039552864;0.07163215;0.25813493;-0.1039814;0.07987058;-0.070331;0.1296462;-0.047056805;0.05354533;0.022695994;-0.0070555722;-0.038839895;-0.1113079;0.072586395;0.21625453;-0.38716453;0.21160725;-0.03758452;-0.26240766;0.017995501;0.21127424;0.03248667;0.07254518;-0.0676474;0.3251245;-0.36573377;0.34345415;-0.081122644;-0.039539725;-0.07963504;0.036642592;0.19170216;-0.08946453;0.38385308;-0.11005792;-0.03307052;0.57747;0.08693115;-0.045630623;0.26603043;-0.01077755;0.33862358;-0.12777534;0.26271054;-0.06562086;-0.031215645;0.033269275;-0.057387937;0.07932696;-0.019972779;-0.06728482;0.043279476;0.15269423;0.092941016;-0.009178928;0.01357041;0.4140408;-0.37206742;0.13017789;-0.09018961;0.024107153;0.09883716;0.14154036
-0.009017564;-0.123413816;-0.022226619;0.0031824394;0.06708055;-0.13392685;-0.036921144;-0.04084335;0.31357446;-0.08673345;-0.035241254;-0.5524789;-0.061716706;0.16111375;0.16313562;0.0031436007;0.1305344;0.17112261;-0.05944216;0.043081492;0.105135426;-0.031100687;-0.11199102;-0.29539597;0.124291085;0.1427691;0.13545686;-0.032816518;0.0018037332;-0.17145847;0.002297033;0.04419453;0.07698124;-0.23295042;0.021333149;-0.03767607;-0.22314589;0.34345055;0.19368379;-0.15234359;0.026187483;0.2851731;0.0567565;0.1764681;0.023163944;0.123656325;-0.0788486;0.10692163;0.27896068;-0.05399713;-0.028300194;0.015188417;0.19670513;0.35211435;-0.26017037;-0.16034494;0.38552275;-0.33724427;0.14881869;0.15232319;0.114494026;0.14899313;-0.008547861;-0.11464781;0.023265993;-0.05243312;0.17911509;-0.16516429;0.19789496;-0.0067015835;0.008670702;0.15725195;-0.07812723;0.0024904988;0.074236155;0.019744074;0.06737385;0.05218654;0.29847354;0.25493738;-0.1342491;0.024190858;0.13349596;-0.037490837;-0.2025882;-0.11611129;0.0906639;-0.031706885;-0.14712119;-0.02553045;0.09495086;-0.3048389;-0.3404021;0.121566996;0.22026826;0.017720899;0.07737864;0.053935695;-0.012825573;-0.044322778;0.10264659;0.22854847;-0.073928;-0.08187638;0.22086261;0.0127988355;0.03489922;0.008532679;0.041898675;-0.26180243;0.2352944;-0.047065735;-0.24744964;0.078685835;0.06535941;0.21772008;-0.04279994;0.008206705;0.008304799;-0.10357865;-0.09775243;-0.49350294;-0.03812995;0.21096787;-0.008592668;-0.037792273;-0.0030912487;0.18434766;-0.30155697;0.036328256;0.026344763;0.34133285;-0.08185364;0.021796491;-0.28248283;-0.06547404;0.076613724;-0.014837078;-0.06310194;-0.004846995;-0.36033368;-0.0142165655;0.02782424;-0.08268474;0.15580885;0.3190364;0.04607679;-0.18391584;-0.030727932;0.12808537;0.09583282;-0.19122714;0.010154908;0.22786516;-0.0065047364;0.45033544;0.28347057;-0.08136082;0.09748263;0.049944777;0.58081025;-0.040154792;0.06183043;-0.062018376;-0.27050823;-0.17998071;-0.13549198;0.057354648;0.3027297;0.110452056;0.11976787;0.120532215;0.12882113;-0.026474176;-0.10572873;-0.05778709;0.06460476;0.01819858;0.01657466;0.4569384;0.004459357;0.022099756;-0.12547414;0.07501207;-0.06311543;0.0050713453;-0.06613728;0.285395;0.09754069;-0.043305088;0.15460002;-0.11529947;-0.04626092;0.045183595;-0.015598628;-0.021291088;-0.018025134;-0.24730782;0.04717526;0.09650073;0.014064634;-0.034176167;0.1252874;-0.17888434;-0.015527122;-0.02755545;0.06176767;0.26603723;-0.042191885;-0.029198855;0.0211808;-0.05186354;0.06315543;-0.081810206;-0.039197892;-0.09212213;0.031672936;-0.024727771;0.2034754;0.21359447;0.45187715;-0.17850375;0.2738048;0.16892259;-0.071793295;-0.0058164285;-0.052005384;0.24126981;0.036707662;0.25290734;0.02707326;0.0023729072;-0.21215001;0.22585738;0.033741917;0.014743507;-0.07248084;-0.017841259;-0.056794494;0.054330297;-0.022151766;0.18486558;0.044641588;0.052624863;-0.022628233;0.074604645;-0.033484407;-0.029061971;-0.102158405;0.05489816;-0.014570338;0.002960004;0.008553473;0.13951303;0.085148804;0.014895097;0.02565098;-0.39330325;-0.2220669;-0.10845073;0.15269038;0.17754099;-0.22031417;0.07337965;-0.037368182;0.055639394;0.0137988515;0.07731424;0.13093378;-0.030836085;0.30925843;0.2684116;0.06843566;-0.0045044553;0.009160212;0.11937857;0.16791207;0.0443493;0.008657768;0.08272372;-0.07162055;0.27071148;0.074705265;0.281117;0.10552716;0.0976941;0.46011582;0.18939167;0.14213894;0.34437084;-0.06790879;-0.19172929;-0.0055152937;0.015273195;0.059318244;-0.054592438;0.22724424;-0.01934686;-0.05256817;0.02926388;0.00800853;-0.12128633;0.052586723;-0.4819034;0.06298754;-0.090500295;-0.3035266;-0.1229666;0.054480273;0.05016024;-0.035312474;-0.035885595;-0.30769855;0.3324358;0.17489274;0.61212116;-0.11977057;0.06902526;-0.120742686;0.50119114;0.054921832;0.011932585;-0.05963593;-0.08010116;-0.017583238;0.0038336713;-0.035221234;0.05060168;-0.14817044;0.0626654;-0.07141712;0.07771632;0.027971923;-0.022511361;0.12177095;-0.21253088;0.29183382;0.09296279;-0.029530115;0.10223392;0.05262416;0.08593893;-0.105409555;-0.22859101;0.25895205;0.21341756;-0.010690728;0.34969145;0.2791465;0.044714548;0.0153583195;0.0047423327;0.026833618;-0.0483688;-0.026869312;0.02811103;0.052392665;-0.06199826;0.16693442;0.052471463;0.118843265;0.06283831;-0.024837548;-0.23527338;0.0558511;0.05236123;0.023049546;0.040160548;0.0063833487;0.13125125;0.082457125;0.24371727;0.48886135;0.066088885;0.005120472;0.31244355;-0.04546659;0.06381323;0.29695204;-0.009173634;0.084573135;-0.035054542;-0.01796735;0.10441779;0.20908742;0.0014635071;0.09602298;0.12344024;-0.05494681;-0.036703248;0.19564518;0.17406937;-0.06573655;0.15383838;0.013474118;0.1873127;0.09047888;-0.025346454;0.044625577;-0.066126406;-0.32072675;0.04527391;-0.109534316;0.30973154;0.0060878075;-0.03908288;0.24335389;-0.00034304932;-0.010981806;-0.032050792;-0.27962166;-0.115713805;0.08394538;-0.041184615;0.19770426;-0.16320498;0.15167052;0.20015436;-0.03616125;0.061854877;-0.05652922;0.03287203;-0.04229652;0.4033335;0.0758385;0.045961313;0.27643934;0.2587323;0.23413289;0.0059561473;-0.120745234;-0.041285273;0.18278097;-0.085017316;0.038225275;0.07225082;0.083227016;0.067256235;0.030296098;0.073711574;0.10898536;0.11490543;-0.16636632;0.23408289;-0.032098178;0.3754503;0.327608;-0.023120329;0.08834445;0.45467696;-0.029591449;0.1352735;-0.19467613;0.042518713;0.1484607;-0.21569206;0.39220953;0.6794167;0.040967055;0.09074813;-0.3885052;-0.17505972;0.034306027;-0.1310032;-0.020798331;-0.025079792;-0.057017203;-0.022996835;0.21375662;0.02497318;0.0072924877;-0.04592466;-0.04812009;-0.1877308;0.15909195;0.0433526;0.16682748;-0.005340188;-0.17138876;0.018707989;-0.18367372;0.4033709;-0.05300132;0.05655327;-0.20265758;0.066972494;-0.039630603;-0.045131218;0.060783632;0.3282148;-0.15882987;0.008293486;0.17196655;0.0018209543;0.012589535;0.02781213;0.06773234;-0.21566989;0.011688343;0.006234744;0.22900206;-0.007809436;0.0304059;0.060491864;-0.042324036;0.18328269;0.24816045;-0.017819948;-0.017024763;0.06340029;0.022516428;-0.10457395;-0.10271506;-0.11029127;-0.059761327;0.1478917;-0.272104;-0.04411701;0.052323528;0.10726786;-0.022777515;0.07680759;-0.14664274;0.06624954;0.09306108;-0.21941681;-0.044092637;0.23764306;-0.2955876;0.18721713;0.08455548;-0.28886512;0.011763263;0.3193662;0.04582923;0.052515473;-0.059161875;0.2968983;-0.26472208;0.20399137;0.0571266;-0.04430176;0.028688006;-0.039614473;0.16435003;-0.17140076;0.33186042;0.022460217;-0.067941956;0.5171789;0.07621096;0.040122986;0.15635978;0.013080241;0.51973456;-0.16317528;0.2990643;0.061471444;0.051396202;0.0034498607;0.1226391;-0.041618578;0.013642217;0.08221932;0.0029219585;0.19150828;0.13462552;-0.0055578435;0.15309481;0.34435847;-0.37117118;0.099444404;-0.03145318;0.037752427;-0.05077636;0.106170416
-0.022057846;-0.10721085;-0.10936951;0.06640454;0.008110682;-0.057491396;0.0822747;0.021855662;0.31386304;-0.18077289;0.011472552;-0.48064455;-0.14196558;0.24159305;0.2557592;-0.068995744;0.27553645;0.20110844;-0.023580564;0.03057664;0.16626397;-0.04621196;-0.027062863;-0.17545205;0.11819293;0.099562086;0.25858927;-0.056306385;0.08356352;-0.08835505;0.022742277;0.03796694;0.052496858;-0.032918688;0.043168;-0.032710616;-0.22479245;0.25119722;0.16403277;-0.1025625;0.026296545;0.3065638;0.039956514;0.177975;-0.00696336;0.1942066;-0.08199039;0.20550616;0.18563934;-0.06976152;0.13417026;0.03421815;0.095875755;0.363315;-0.33581838;-0.16466153;0.43454653;-0.32785207;0.15704997;0.1478766;0.07963081;0.18096347;-0.024533626;-0.10031947;-0.012280384;0.06349229;0.15005244;-0.17714225;0.23020196;-0.06257568;0.009176439;0.08314471;-0.06924933;-0.041169066;-0.06824016;0.029214362;-0.047582585;0.014255345;0.30485463;0.1791563;0.016660726;0.0639605;0.15386236;0.04411912;-0.2048891;-0.13410373;0.16751383;-0.020498324;-0.14272209;-0.06689183;0.122370444;-0.36336035;-0.32810295;0.24116057;0.2906117;-0.12375821;0.033491354;0.06489499;0.10251903;0.009259218;0.15014851;0.2287103;-0.160667;0.009221149;0.21456449;-0.0112593975;0.04213754;-0.032978997;0.0036619636;-0.17233495;0.37070462;-0.055902272;-0.3324833;-0.006209721;-0.056755085;0.21192294;0.012044042;0.09275039;-0.05218463;-0.031527597;-0.026721632;-0.59761703;0.04658568;0.19344805;0.07241082;-0.028035264;0.0073656943;0.20007032;-0.23741165;-0.034582417;0.13013761;0.2498961;-0.0534184;-0.05913045;-0.15555938;0.05193212;0.010613425;0.052961055;0.026222985;-0.04313455;-0.23752043;-0.04715993;0.060674183;0.11599084;0.06311841;0.31685314;0.07732703;-0.2221057;0.07002221;0.0049453345;0.077712126;-0.050014578;-0.030220918;0.11350031;0.036090806;0.34598488;0.101077974;0.030925527;-0.011496171;-0.074094914;0.58326805;-0.117456116;0.059935153;-0.003947992;-0.13963331;-0.20144585;-0.118281245;0.03075409;0.3000168;0.12156003;0.1527593;0.13201226;0.14249794;-0.03915281;0.06074025;0.07540861;0.08648198;0.007933445;0.058202606;0.44284257;0.06305307;0.021489447;-0.1844284;0.1303127;0.01887112;0.019856224;-0.08457676;0.38071513;0.0036830886;-0.004821682;0.074521504;-0.2795536;0.039054204;-0.027139688;0.09168966;0.14637478;0.05364179;-0.39354688;0.113943264;0.07145678;0.1457459;-0.043922566;0.17549786;-0.24468274;-0.08430128;-0.08225508;-0.04207144;0.18472925;0.14468081;-0.053294044;-0.02137874;-0.014423703;0.12504289;0.0492038;-0.016777033;-0.018062826;-0.014247975;0.013312704;0.16826837;0.17970365;0.47199917;-0.14861177;0.3060128;0.1013425;0.0421263;0.0011354045;0.06875012;0.3213157;-0.040481925;0.1633459;-0.023048561;-0.016252164;-0.16450834;0.2248351;-0.024974126;-0.035867024;-0.031878874;-0.035738587;-0.01971119;0.121026404;-0.03948273;0.20844217;0.045108043;0.17311099;0.080444135;0.034948517;-0.034031305;0.098713756;-0.10205325;-0.041914187;-0.062011644;-0.07569363;-0.08136766;0.055588704;-0.04527437;-0.10640603;-0.020594638;-0.53173685;-0.07861864;-0.071260475;0.26450598;-0.015352966;-0.053652186;-0.063844785;-0.01886419;-0.03734623;-0.1523168;-0.00070226955;0.080835484;-0.0887506;0.35207874;0.17140137;-0.070980266;-0.0468008;0.02036098;0.080432616;0.21426031;-0.0160836;-0.04543593;0.047664557;-0.0040803184;0.14467114;0.010981611;0.29437968;0.02675971;0.035748802;0.43657753;0.20813286;0.032080058;0.436523;0.003516088;-0.22163785;0.007321801;-0.003819044;0.09162757;-0.005359157;0.3129122;0.08821948;0.076912865;-0.06558959;0.010554953;-0.010725811;0.005550157;-0.46467254;-0.08810985;-0.1062268;-0.2134941;-0.09719521;0.12544845;0.14707372;-0.06803411;0.04298367;-0.2566027;0.41732997;0.20902699;0.6396553;-0.12815495;-0.050881278;-0.04315475;0.57175624;0.019379238;-0.09377168;-0.079854816;0.06945614;-0.20650667;-0.03216349;-0.028715355;0.09353747;-0.10435264;-0.041430287;-0.032732062;-0.021071048;-0.0007110478;0.056367494;-0.025354074;-0.15931167;0.44711876;0.08065845;0.066319816;0.061608788;-0.059807662;0.08509913;-0.1203507;-0.21426192;0.2336155;0.32507658;0.032550324;0.30682275;0.20971017;0.045366444;0.030699091;0.08036981;-0.009864024;-0.059534676;0.016296864;0.1330088;0.018884655;-0.09559492;0.14531744;0.027163314;0.028588945;0.120627075;-0.009444447;-0.1623523;0.019675128;0.047419805;-0.068437554;0.04694208;0.03508963;0.112621434;0.05465998;0.42013282;0.57071096;-0.03262201;-0.029140422;0.4459227;-0.023015969;0.01011472;0.2187275;-0.04403088;0.119695105;-0.01973753;0.0619872;0.011297886;0.10319656;-0.04232277;-0.069863595;0.04879805;5.1161605e-05;-0.037893113;0.12680733;0.07368229;0.051099442;0.10374775;-0.03519916;0.12223551;0.17872643;0.034198087;-0.04576907;0.043466058;-0.24196504;-0.059471924;-0.13265565;0.30641788;0.04560634;0.08555574;0.1831922;0.119892806;-0.03424672;0.11955441;-0.28729057;-0.09405492;-0.025176622;-0.025153913;0.13053569;-0.16197515;0.30336678;0.09514189;0.04961391;0.006940354;-0.06039183;-0.048005383;0.024724334;0.42773435;0.052181304;-0.039383575;0.26836443;0.1380076;0.17433655;-0.04111112;-0.19851264;-0.030255655;0.19093685;0.036580667;0.049061332;-0.004622663;0.17097783;0.016894665;0.060903735;-0.030990034;0.123506844;0.008359315;-0.1291194;0.10397727;0.0033854125;0.40304413;0.3626597;0.009840158;0.08476875;0.3613824;0.06618158;0.2842702;-0.06956449;-0.006688007;0.13172077;-0.17212187;0.3849509;0.54965866;0.07645782;0.0121881785;-0.39439926;0.035241064;-0.11108763;-0.18304524;0.0076962435;0.06348444;-0.03872908;0.071828306;0.08792781;-0.05429879;0.061435618;0.069258645;-0.096923366;-0.08785552;0.17001395;0.050765432;0.07204924;-0.04564629;-0.051675227;-0.050548922;-0.18606055;0.42569557;-0.03607138;-0.07261459;-0.13287905;0.045079514;0.00213518;0.06196441;0.08755334;0.33236936;-0.13188101;0.15086257;0.1594214;-0.038656563;0.062899396;0.014970885;0.09839353;-0.24428675;0.04295468;-0.045220952;0.18263441;0.028034221;0.08887804;0.006109859;-0.046460945;0.16531846;0.121393315;0.10351397;0.0042914343;0.061968844;-0.03713151;-0.083497666;-0.16999173;-0.16286504;-0.045579582;0.19941744;-0.2512762;-0.010903238;-0.007421121;0.2218607;-0.05416598;0.017072773;-0.012776396;0.026805516;0.010302594;-0.13783196;0.017885504;0.27656603;-0.27988198;0.2595534;-0.0011580354;-0.1845634;-0.061629787;0.28992298;-0.043972358;0.15814854;0.051497575;0.27251452;-0.2066331;0.19492276;-0.018256143;0.02410673;-0.04175252;-0.010451857;0.18294182;-0.13737564;0.33512262;0.04652413;-0.0077479407;0.5733209;0.045010604;-0.08220607;-0.01313039;0.041793033;0.4378651;-0.18955462;0.40661028;-0.048001718;-0.057647623;-0.11703858;0.23051493;-0.020570917;0.14855291;0.032356042;0.052244827;0.08245026;0.06879482;0.048910435;0.14065361;0.35283023;-0.4401013;0.0036777179;-0.16553687;0.051918563;-0.058943138;0.043661095
0.012775939;-0.2343056;0.02297023;-0.026519794;-0.043673307;-0.071424805;-0.042557653;-0.036191616;0.38835937;-0.15791409;0.055811163;-0.4048924;-0.12276079;0.21850923;0.15809365;-0.028035067;0.2730474;0.23712449;0.009501131;-0.009627173;0.19537894;0.039515246;-0.2737486;-0.2515641;0.08905933;0.011704836;0.27751952;-0.1110268;0.0008843943;-0.20030665;0.10137395;0.15889362;0.025919437;0.021562368;-0.0050708675;-0.02191875;-0.115066975;0.09309979;0.010146042;-0.10341602;-0.004231918;0.3325919;0.046576057;0.23429376;0.0075161164;0.087076224;-0.07866399;0.07788473;0.2767176;0.045698933;0.014497883;0.07202691;0.16471179;0.26970002;-0.33460832;-0.08260232;0.4733594;-0.30983606;0.20602009;0.15795556;-0.004758341;0.15049723;0.04659206;0.018685132;-0.032791752;-0.06760553;0.14601524;-0.17269124;0.32616863;0.024109023;-0.043790814;-0.08002738;-0.028041704;0.020010265;-0.010563209;-0.037186217;0.08090586;0.014591828;0.21808766;0.07864597;0.019732218;0.10893282;0.2210683;-0.024964591;-0.27952096;-0.20939292;0.02822413;0.030278534;-0.28680167;-0.067503124;0.04305157;-0.31475705;-0.2888874;0.22448896;0.14707278;-0.09208647;-0.058943354;-0.017860953;-0.052335616;0.023867909;0.1617441;0.27596498;-0.13506478;0.03003287;0.23877504;0.008615501;0.075020425;-0.025189856;-0.009205023;-0.23539336;0.29827103;-0.02453066;-0.29648477;-0.11681102;0.05655378;0.22720528;-0.007088409;0.0048213485;-0.04093896;-0.0858088;-0.035512123;-0.5396373;0.044653673;0.1410837;-0.060962956;0.047163807;-0.051877476;0.16963048;-0.43374696;-0.0014266969;0.24162607;0.19337668;-0.16875517;0.061137136;-0.007378018;-0.043667626;0.029449698;-0.047200862;-0.020763397;-0.012210211;-0.12096378;-0.09214693;-0.0011116271;0.16438733;0.120462045;0.2473683;0.099635534;-0.33459517;0.044095524;0.042250324;0.23484726;-0.15994903;0.053487837;0.08374089;-0.0020445702;0.3640479;0.2035662;-0.013163906;-0.026697863;-0.017493661;0.565327;-0.06641185;-0.0011097202;0.06647365;-0.20342526;-0.08040794;-0.07354786;0.081588425;0.20015784;0.008435078;0.13480902;0.108076826;0.21100712;-0.0391885;0.028653936;0.057393122;-0.012587643;-0.016727304;0.104968466;0.40442783;-0.04244073;-0.006444215;-0.0988733;0.102276966;-0.07151583;0.0029289848;-0.07508587;0.40143296;0.10099015;-0.073248215;0.20707327;-0.2263464;7.1403745e-05;0.059650306;0.091544874;0.14777485;-0.0879065;-0.41750634;-0.069421425;0.13762736;0.07372965;-0.043345578;0.23035587;-0.1211144;-0.22239654;0.009994449;0.06907294;0.24062155;0.018754072;-0.047741376;-0.029508619;0.009174396;0.15890326;0.082560964;0.034875438;0.007359433;-0.024194336;-0.0034020257;0.1561322;0.18459934;0.48698893;-0.12139492;0.28260848;0.12618996;0.048845246;0.08674357;0.002612226;0.24771349;-0.029468743;0.16798659;0.07914586;-0.0068797055;-0.19350694;0.17615134;-0.023283727;0.035807643;-0.0820352;-0.14959991;0.057596195;0.048559565;0.048389763;0.11987467;-0.03672557;0.15252747;-0.05755769;-0.025872821;-0.06723989;0.032686614;-0.06410677;0.039522395;0.07382692;-0.06892684;-0.006226178;-0.049709186;-0.08557114;-0.022253865;-0.0041055004;-0.5619375;-0.013294465;-0.05440145;0.22329536;-0.031382672;-0.01999182;0.03205695;-0.030977892;0.07082872;-0.031656533;-0.052886646;0.17409635;-0.33073467;0.21384272;0.26260802;0.04839178;-0.054537576;-0.0009876555;0.10998304;0.20255446;0.020553876;-0.044955652;0.14625882;0.0050058425;0.09661952;-0.02597202;0.2831623;0.013527896;0.16019996;0.43538082;0.15045133;0.17841157;0.4717356;-0.034148317;-0.16971876;0.014879404;0.037857678;0.16927952;-0.055951443;0.22621775;0.09006393;0.07834599;-0.017749256;0.032080796;-0.13253285;-0.060357757;-0.51564294;-0.0139076235;0.013069587;-0.15699819;-0.0018737663;0.16255978;0.13809852;-0.10623179;0.038963515;-0.28805923;0.42610946;0.25435746;0.577106;-0.22435418;-0.03820695;-0.02119929;0.59343445;0.05186029;0.0008967093;0.008790313;0.056847192;-0.21913768;-0.019650443;0.042478308;-0.001096283;-0.0066356324;-0.023852542;-0.115982756;-0.03501032;0.022783786;0.025312552;-0.055714052;-0.27318117;0.395374;0.24238664;0.05675882;0.08089949;0.07225096;0.034370024;-0.14819065;-0.058663324;0.24721442;0.2919204;-0.074581064;0.25439176;0.23638687;-0.041322403;-0.059691057;0.11695857;-0.033657636;-0.042216703;0.009776493;0.19336922;0.02814143;-0.16319643;0.18560955;0.0558163;0.10309188;0.020549228;-0.07794319;-0.1268264;-0.04492641;-0.043535996;-0.026955191;0.060524832;0.056556694;0.013345777;0.1788192;0.43185297;0.54938406;-0.028834455;-0.0061887545;0.3554577;-0.0073468196;0.017110066;0.1891789;0.012382347;-0.062707506;-0.06976526;-0.020988999;0.0031288408;0.07709339;-0.039745282;0.06997502;0.02425548;-0.048356418;0.021906693;0.12768787;0.022982571;0.010389812;0.081922024;0.07739576;0.11305512;0.1796513;-0.12940958;0.0016503927;0.03646085;-0.19739564;-0.07188843;-0.17000155;0.29259834;0.034429785;-0.076452285;0.15743293;0.061946023;-0.077014394;0.055865664;-0.08324926;-0.1527225;-0.034241606;-0.040958226;0.19236226;-0.1329593;0.29576063;0.12689565;-0.015359138;0.110964715;0.068688236;0.005369803;-0.06462321;0.3593567;-0.012347433;-0.009817371;0.16107643;0.22855657;0.17297275;-0.03713086;-0.07840756;-0.19822222;0.22897212;0.04423488;0.032792505;-0.036692098;0.19690022;0.096544355;0.021851026;-0.020542769;-0.036160268;0.031294584;-0.28266826;0.032679018;0.010141306;0.42878732;0.31240577;0.0579616;0.19648685;0.24639538;0.0016521062;0.23868336;-0.017641218;-0.010584495;0.065910146;-0.34507868;0.23717608;0.59648144;-0.050530657;-0.05620948;-0.37316772;-0.08191384;-0.10566158;-0.15275978;-0.09654135;0.03816064;0.068684414;0.020845288;0.094012305;0.06711264;0.04591564;0.011684597;-0.12323719;-0.08017948;0.16501154;0.15670212;0.08855215;0.021251485;-0.047170375;0.006454331;-0.17131892;0.35465956;-0.022564087;-0.06607714;0.015885396;0.043057565;0.06086758;0.04553432;0.026181094;0.33763447;-0.13232535;0.016013969;0.10586959;0.042711876;0.0644988;0.0031380386;0.09008432;-0.2408912;-0.0006886196;-0.061797477;0.2967;0.009136161;0.07100895;-0.03728874;0.025572363;0.14080526;0.162004;0.012238087;0.02320985;0.054134637;0.013547482;-0.18810168;-0.13836311;-0.181768;0.053395562;0.23939477;-0.25608808;-0.018217858;0.00991051;0.19516377;-0.04641801;0.030872323;-0.08610294;-0.08123787;-0.05703656;-0.10342702;-0.02771272;0.29972723;-0.34954473;0.15797056;-0.03342023;-0.23561709;-0.049658135;0.19345868;0.07711669;0.08615255;0.105011605;0.0353722;-0.14291613;0.2810536;0.018314067;-0.013106239;0.0007563273;-0.070352405;0.19896963;-0.29568464;0.2945416;-0.033714507;-0.033349883;0.60574484;0.046643153;-0.11968975;-0.025601054;0.06824848;0.6091822;-0.18519568;0.38575414;0.054411855;-0.06253577;-0.16898867;0.19310063;-0.04341592;0.028295893;-0.0006589405;0.11181687;0.15962397;0.14441934;-0.044599395;0.10560893;0.22676541;-0.42101622;-0.06432136;-0.17200297;0.011316102;0.067390114;-0.13633159
0.054328375;-0.16456537;-0.033566933;-0.033759777;0.057023652;-0.1327036;0.0067342333;0.016233508;0.34826502;-0.1892435;-0.062327217;-0.23560049;-0.21916732;0.23141131;0.18713604;-0.0011361201;0.26549903;0.24821669;-0.050357837;0.08487467;0.10935967;-0.005539669;-0.1639286;-0.17227258;0.12439316;-0.13308306;0.25188383;-0.15097097;0.039235808;-0.18166228;0.058400877;0.15839304;0.090865314;-0.026281513;0.05861536;0.046665274;-0.1440551;0.11896394;0.09159715;-0.15563837;-0.0067089563;0.4217334;0.15115188;0.09166817;-0.000979425;0.14066602;-0.005346699;0.005674231;0.24279964;0.079361394;0.18232773;-0.0649356;0.111141145;0.3074684;-0.3526664;-0.15501803;0.5182619;-0.25836557;0.09830461;0.13250773;0.017360702;0.121435955;0.025873851;0.0109141795;0.018866537;0.07392456;0.16267122;-0.13369668;0.30000865;0.06985859;0.014080403;-0.2395426;-0.1337335;-0.003424755;0.047085293;0.040724527;-0.05685211;-0.053107146;0.12322906;0.04438158;0.022118155;0.21333662;0.14471123;0.074787825;-0.16198611;-0.0518907;0.024843916;0.055576954;-0.2143455;-0.14472084;0.097737335;-0.31203398;-0.3522426;0.3138464;0.1801553;-0.05837961;-0.04620454;0.0032627087;-0.042289928;0.15002143;0.15823369;0.2508057;-0.1827151;0.05323534;0.40509972;0.027709952;-0.057095964;0.027553963;-0.03885297;-0.2851053;0.23927806;-0.03997681;-0.23045309;-0.10696819;0.010715231;0.270452;-0.061716743;0.052480515;-0.03851346;-0.07102945;-0.102308415;-0.48170575;-0.016109738;0.2470297;-0.0010413057;-0.053924233;0.0074280053;0.12274519;-0.4784597;-0.054677885;0.22430223;0.17808905;-0.09342978;-0.045598432;0.11922789;0.056838375;0.025699943;0.012189268;0.029818734;0.06741772;-0.17728302;0.070925556;0.04662657;0.0736951;0.19419919;0.26343733;0.12459174;-0.37748966;-0.037053693;0.07756244;0.2302567;-0.10579198;0.086921796;0.036638405;0.0144664375;0.41661072;0.20657285;0.033447955;0.00979469;-0.03395136;0.5011639;-0.15399094;-0.08261987;-0.047495425;-0.1414851;-0.15063576;-0.15929753;0.097202025;0.1936916;0.15600845;0.07843635;0.15634336;0.23215148;-0.10677715;0.06033503;-0.06345444;-0.06917018;-0.1009453;0.11026955;0.34065813;-0.03157742;-0.060168695;-0.106602594;-0.075608134;0.009213067;-0.011489186;-0.057316698;0.30701196;0.11709904;-0.024560694;0.13419536;-0.12255456;0.033345103;0.02615725;0.22342525;0.111844085;-0.14037222;-0.33691588;-0.096731275;0.039337493;0.054578427;0.02258469;0.3088375;-0.09361136;-0.23064357;0.13041711;0.017815504;0.32455716;0.06499139;-0.007076149;0.015348814;0.044888094;0.27362707;-0.07437061;-0.015635679;0.009883311;0.008225527;-0.05492911;0.23168461;-0.011149871;0.3615008;-0.11217599;0.16793421;0.009815395;0.05859862;0.097216174;-0.06265215;0.3290543;0.0023035982;0.07206645;-0.059327025;-0.10637357;-0.13907494;0.08618314;-0.0985588;-0.057280157;-0.2159628;-0.37085056;0.03533974;-0.07312172;-0.043934636;0.1154972;-0.0007294072;0.10672226;-0.06944172;0.003752169;0.029618826;0.029055642;-0.071611196;-0.08195557;-0.041098323;-0.019909285;-0.060915653;-0.012566299;0.01985578;-0.08431347;-0.026537115;-0.45218992;-0.059748895;-0.010464412;0.1537236;-0.055757366;-0.014083486;0.029372945;-0.0046479804;-0.071557;-0.09963345;-0.020310396;0.04414582;-0.37622198;0.29159173;0.11694419;-0.06353744;-0.045372207;-0.019529149;-0.0013962827;0.053862274;-0.020035582;-0.1376281;0.044212036;-0.016386896;0.11198382;0.03271322;0.20699105;0.03476153;0.23327097;0.46106797;0.18398687;0.06291344;0.32412145;0.09963529;-0.13366534;0.010538462;0.09085805;0.22966717;0.017285936;0.23837365;0.019592796;-0.06682911;-0.04224901;-0.06343425;-0.24630472;0.0218274;-0.41859868;0.057445493;0.026222471;-0.16365916;0.039599087;0.35024914;0.11422928;-0.24646075;-0.039055288;-0.2759255;0.32707715;0.23744044;0.5365261;-0.16804384;0.019065285;0.13674514;0.6347222;-0.046233103;-0.06665454;0.033590145;-0.049824897;-0.28164873;-0.016184095;0.08461597;-0.034952134;0.062398884;0.019195316;-0.0049675675;-0.040556382;0.0003421091;-0.016187223;0.06742401;-0.34545958;0.27176416;0.15969178;-0.053714946;0.0016583956;0.0050522145;0.0059037935;-0.033325404;-0.115373634;0.1498498;0.27403966;-0.014480985;0.21617083;0.23800501;-0.009515674;-0.049405616;0.07924442;0.059002336;-0.14229706;0.05099837;0.20628946;-0.05424176;-0.18627812;0.15229587;0.14312302;-0.11657877;-0.035993144;0.045386676;0.03893171;0.044768784;-0.06287859;0.02988922;-0.035006613;0.13448612;0.009711158;0.068148434;0.3936717;0.50525975;0.015545995;-0.122790016;0.39490768;0.049025994;0.008496111;0.24593924;-0.010166552;-0.07279688;-0.08690611;0.075797975;0.066218376;0.020779867;0.08463342;0.0079491455;-0.02981545;0.03735228;-0.025734246;0.17247255;0.15399058;0.05070814;0.23582987;0.008320983;0.14558063;0.26486275;-0.123433605;0.034129806;-0.050178103;-0.1587024;-0.0031000194;-0.17704065;0.3631702;-0.019516854;0.05184021;0.22366606;-0.03275033;0.05192681;0.090930425;-0.03676421;-0.12281923;0.025958234;-0.0073153987;0.18260357;-0.12263175;0.30019575;0.15889736;-0.0051993397;0.044575877;-0.027271453;-0.03382724;-0.0025185419;0.3920513;0.022153491;-0.032009427;0.09076385;0.300772;0.14922696;-0.0028034186;-0.23237126;-0.1915813;0.112560466;-0.051397;-0.03964698;0.0021384817;0.16524397;0.10430963;0.0398648;0.039848458;-0.11554617;0.06705597;-0.34323388;0.067472234;0.014102241;0.37258598;0.2704528;0.05708834;0.054018427;0.14257884;-0.0156052075;0.09345967;-0.1262964;-0.014109407;-0.05968497;-0.33156356;0.24898957;0.54735327;-0.03483782;0.0075719818;-0.36222112;-0.031091787;-0.14570932;-0.11768452;-0.049729183;0.062294777;-0.056804635;-0.014171275;0.112550184;0.03410967;0.13030554;-0.061992463;-0.13835618;-0.1439135;0.12635286;0.20788054;0.18075313;0.05486334;0.11300505;0.028050395;-0.113106355;0.41960216;-0.037579432;0.046721477;0.09175736;0.11181958;-0.022332884;0.002480374;0.0872555;0.24080732;-0.093013026;0.028665742;0.01545694;-0.035291698;0.019350434;-0.0066966163;0.0924161;-0.19669084;0.04879295;-0.049011525;0.26701653;-0.036467213;0.17729719;0.05813111;0.037323155;0.2147953;0.083436936;-0.010961783;0.02912942;-0.005113542;0.07124744;-0.17811285;-0.08155499;-0.046906263;-0.009220528;0.2354204;-0.16320246;-0.11197984;-0.0018931159;0.08983397;-0.023522738;0.07990204;-0.11229388;-0.0020035226;-0.037414987;-0.13307121;-0.04307653;0.3283034;-0.32787368;0.24107455;0.008339593;-0.12655906;0.07012008;0.13007016;-0.08219059;0.1333161;0.051464234;0.14016137;-0.23885679;0.19537629;-0.034926523;0.025241328;0.049791463;0.025587402;0.13243334;-0.37433898;0.26974934;-0.07232633;-0.039845653;0.51593655;0.23912778;-0.2186914;-0.13370259;-0.08153428;0.63945645;-0.22626473;0.3474257;0.009037602;0.060221024;-0.18894134;0.15468411;-0.08835276;0.07822844;-0.052450255;0.05177753;0.116581485;0.056277253;0.0064333426;0.0260429;0.23448671;-0.35817736;0.022683358;-0.07434592;0.02460208;-0.056652576;-0.1988642
0.010750825;-0.19653761;-0.022662347;0.07109588;0.0037031432;-0.0043005855;-0.06971905;0.089020245;0.16832113;-0.15698145;0.071599424;-0.14674067;-0.13608852;0.15868801;0.34055665;0.002990785;0.28908935;0.23076046;0.013331955;0.02221901;0.1425207;0.026682844;-0.22212303;-0.15280366;0.101526394;-0.069737;0.20412324;-0.14597885;0.07047993;-0.060667552;0.15628262;0.1674086;0.03160879;-0.09908496;0.004776209;0.027719118;0.012366463;0.114329144;0.19689602;-0.14629179;0.02943327;0.43163282;0.18363248;0.15692177;-0.008599143;0.12140547;-0.048666943;0.01221485;0.29100713;-0.0005821578;0.10667726;0.02812797;0.13595787;0.2951777;-0.3562844;-0.19502562;0.5034441;-0.36763316;0.057126313;0.03877187;0.06507141;0.10149409;0.092510656;0.048375342;-0.082378834;-0.07495197;0.105295636;-0.11736803;0.24861246;-0.021355782;0.039849307;-0.13172649;-0.007348893;-0.10836851;0.0069788373;-0.046235032;-0.06407493;-0.06560189;0.19745982;0.062382847;0.057493187;0.3013823;0.28763518;-0.07081578;-0.10597399;-0.124648236;0.0953529;0.012248602;-0.24221852;-0.06618084;0.111982115;-0.20898616;-0.31795886;0.34049535;0.15145886;-0.11314934;-0.05213988;-0.0033442099;0.04353528;0.03793309;0.14088954;0.19470146;-0.22939011;0.051138576;0.27439085;0.0019934615;-0.032019876;-0.08571633;0.06330188;-0.3783997;0.26425356;-0.036289237;-0.22167759;-0.24226154;-0.06038929;0.18953936;0.07729608;0.18703672;0.03148821;-0.03348931;-0.067707434;-0.5602637;-0.020750036;0.22481681;0.0044030566;-0.043663558;-0.04028558;0.09018261;-0.30749357;0.0286735;0.3219559;0.20024438;-0.11022677;0.033301134;0.20520866;0.025013745;-0.07523259;0.018950984;0.02171203;-0.049682867;-0.2640562;0.024292279;-0.07101169;0.18179181;0.18146244;0.3526779;0.18056351;-0.34351066;-0.06345769;0.085859865;0.27584726;0.013096523;0.022742156;0.019530253;-0.028725926;0.27157843;0.2338704;-0.034473836;0.012909115;-0.0420409;0.40704152;-0.10320656;-0.032933325;0.0058570313;-0.047999375;-0.1720114;-0.13498722;0.08634028;0.14106826;0.15200406;-0.02786587;0.14631034;0.093021855;0.018008173;0.0051587997;-0.01568245;-0.060727753;0.039620552;0.19094604;0.30026007;0.09125134;0.113924675;-0.033077627;-0.09827281;0.034168094;0.029265286;-0.031400945;0.3147149;0.11594865;-0.0987988;0.19467956;-0.25793958;0.013307048;0.021355772;0.2552438;0.089439094;-0.11620356;-0.2754144;-0.03780877;0.12885801;0.18098144;0.0350311;0.2756679;-0.15654682;-0.32692456;0.13838986;-0.0326057;0.21290365;0.049930356;0.07079501;-0.03588962;0.046368495;0.20096338;0.0709491;0.061114676;0.0383496;0.04731015;0.007888468;0.25677043;0.0050001494;0.42597193;-0.12008426;0.18948826;0.03845648;-0.011562244;0.06362079;0.050363433;0.3609062;-0.018145321;0.13977762;-0.05653344;-0.023111224;-0.15136315;0.094708614;-0.12869065;0.014275022;-0.057816938;-0.3251468;-0.00051982445;-0.008163504;0.039499678;0.06638819;-0.0033155454;0.17684437;0.04642891;0.032689586;-0.032458637;0.023631478;0.023498125;0.054467194;0.0465777;-0.085849054;0.03520844;-0.111179836;-0.07115624;-0.05953407;-0.07256793;-0.48816425;-0.038612776;0.0012363775;0.23039743;-0.20493433;0.1218723;-0.037199937;0.050981276;-0.031447966;-0.01417101;0.030754428;0.015741417;-0.39861783;0.27789646;0.1999909;-0.008361942;-0.014856397;0.011673362;0.102231696;0.083884895;0.04350872;-0.15227641;0.1549002;0.040496945;0.11957661;-0.04689074;0.22928134;0.002323348;0.090625055;0.42049155;0.22985509;0.17808464;0.32299778;0.0450019;-0.21070927;0.007165229;0.105194144;0.10823382;0.06559954;0.34553653;0.03952117;0.074680015;0.052414868;-0.059883274;-0.2455669;0.04285654;-0.26260734;0.012497497;-0.127364;-0.13399522;0.09140426;0.3241392;0.14677773;-0.2774248;-0.072702944;-0.1706929;0.37874755;0.31743237;0.47247225;-0.2163266;0.010580923;0.11508992;0.5935096;-0.06522327;0.016395777;-0.12015459;-0.06350767;-0.19731778;-0.04667414;0.01607206;0.03009092;0.056545034;-0.045256294;-0.11568011;-0.0024781395;-0.03207704;0.020190263;-0.02575933;-0.30898425;0.35173202;0.16728997;0.037931383;-0.029614054;-0.026987795;-0.06845476;-0.0316542;0.015621962;0.21586207;0.1828545;0.00733808;0.24028896;0.15980217;0.021504652;0.04678168;0.11272141;0.003076104;-0.082666285;0.04762017;0.26627773;0.060463857;-0.07818932;0.18250835;0.08375392;0.003591278;-0.042403795;0.013981084;0.005462261;0.02844039;0.034456756;-0.0075610504;-0.15565616;0.1919581;0.07196024;-0.011468559;0.41666988;0.3560067;-0.026772784;-0.13063063;0.35048425;0.09224065;0.060644068;0.20725238;0.019372547;-0.070829175;-0.081041604;-0.015222302;0.12835602;-0.044119384;-0.021212576;-0.0036911226;-0.049091924;0.056511357;0.020384064;0.15224195;0.056658134;-0.008883607;0.19888072;-0.013776007;0.10368741;0.19749723;-0.11353693;-0.044128507;-0.014272273;-0.1629084;0.083966605;-0.1266059;0.3189531;0.1000403;0.026182244;0.20462549;0.06841371;-0.025185807;0.0006152537;0.014504421;-0.17229061;0.05004957;0.09252968;0.12671132;-0.1342999;0.23520638;0.024636764;-0.047304105;0.11432766;0.046289332;0.0068727024;0.04153827;0.37427002;0.04926184;-0.04517679;0.162803;0.15384246;0.024763145;0.09558413;-0.15612346;-0.068872645;0.1360479;-0.024666721;0.046242595;0.026950123;0.07062758;0.18585831;-0.05400832;0.011700008;-0.07018535;-0.01214313;-0.35402614;0.098428264;0.0060869423;0.35236862;0.27924147;0.02684876;0.08657892;0.11608371;-0.027991172;0.063602924;-0.17103763;-0.015714481;0.041349024;-0.3250937;0.27908954;0.5315051;0.024629777;-0.044120062;-0.27800766;0.0024888278;-0.063490026;0.026057;-0.0057414672;0.0006815586;-0.037552617;0.009481237;0.06425637;0.054533694;0.11414492;0.024262499;-0.13952877;-0.11824179;0.08394521;0.15525293;0.14821276;-0.019580707;0.08429813;0.0085611455;-0.017086675;0.39453295;0.09725852;0.04947686;0.1427204;-0.045999747;-0.011515818;-0.03954386;0.021301376;0.18368544;0.011443438;0.04517154;0.10765948;-0.021736572;-0.06945492;-0.01161257;-0.028803756;-0.10241035;0.03740434;0.03904616;0.19827287;-0.032537658;0.13877381;-0.052562084;0.003175803;0.24307697;0.14268415;0.054241337;-0.05279685;-0.04545079;0.019361291;-0.076400906;-0.023994673;-0.02597267;0.020729376;0.27755916;-0.20870592;-0.15627211;-0.067072205;0.17511438;-0.13199168;0.08418075;-0.1281965;-0.013029084;0.0804548;-0.21337143;-0.018520407;0.33461726;-0.18715607;0.19742686;-0.14671798;-0.2069579;-0.026750475;0.19274971;-0.0015786064;0.25876927;0.06669209;-0.012984506;-0.18908554;0.22634858;-0.06338418;0.07047717;-0.0022372266;0.041460242;0.033268087;-0.34039357;0.27324495;0.047569524;-0.023134753;0.49229777;0.2175911;-0.12158591;-0.20699744;-0.028930083;0.7162079;-0.116157465;0.3846718;-0.015794935;-0.06880621;-0.17879146;0.3072438;-0.109052375;0.054773957;-0.049099457;0.07169209;0.036854237;0.17286277;-0.05988025;0.08428637;0.17103311;-0.3900535;0.0073666903;-0.07769456;-0.08654989;-0.025288533;-0.15594079
